-0.073780
0.182637
-1.080215
0.365820
-0.416498
-0.162267
-0.185918
-0.041688
-0.730760
-0.751901
0.198003
-0.117007
-0.265020
-0.013338
-0.398396
-0.017886
0.166762
-0.117879
-0.198485
-0.291218
-0.075915
0.033684
0.610271
-0.098161
0.004905
0.303526
0.718769
0.619831
-0.514727
-0.113028
-0.051573
0.045108
-0.201395
0.107878
0.168260
0.303271
0.659431
0.483465
0.771133
-0.377152
-0.831361
0.522996
-0.428192
0.906775
-0.450578
0.184359
-0.135799
0.155391
0.025014
-0.086659
-0.173301
-0.084883
-0.335084
-0.095224
0.336490
0.095109
0.325154
0.128872
-0.138410
0.047791
-0.084119
-0.045840
0.012093
0.146071
-0.097685
0.062687
-0.086348
-0.150437
-0.330512
-0.397140
1.143743
-0.138630
-0.354984
-0.051958
-0.244048
0.391110
0.059103
-0.031088
-0.077810
-0.597676
-0.017361
-0.761741
0.027367
1.261403
-0.243800
0.441718
-0.306940
0.051768
0.431026
-0.169801
0.349251
0.217238
0.091910
-0.233354
0.237694
0.058866
0.060288
0.151191
0.215009
0.320574
-0.135171
-0.385854
0.124680
0.518392
-0.237468
-0.173150
0.268441
-0.554372
-0.141598
0.416910
-0.124572
0.400044
-0.071725
0.208295
-0.223734
-0.353202
-0.716088
-0.298800
-0.184750
0.051056
0.184797
-0.004537
-0.563178
0.032659
0.060362
-0.178786
-0.067874
0.551740
0.547565
0.334534
0.098501
-0.422276
0.351621
-0.383048
0.167971
0.393548
0.209274
0.089451
-0.191647
-0.371688
0.471945
-0.412330
-0.502851
-0.019034
-0.619688
-0.541362
0.581976
0.456991
-0.827238
-0.218976
-0.031218
0.277342
0.067206
0.219862
-0.049711
0.272215
0.095557
-0.153114
0.285746
0.133812
0.146625
0.252200
-0.059962
0.179533
0.013216
-0.029546
-0.059844
-0.000901
0.045462
-0.012623
-0.176566
0.130658
-0.000882
0.059608
0.151986
0.008905
-0.141864
-0.230884
-0.066924
-0.334617
-0.120012
-0.143356
0.148892
-0.046703
-0.123023
-0.154338
-0.127618
-0.197817
-0.223072
0.240111
-0.270555
-0.094418
-0.055196
0.033730
0.019024
-0.001976
0.101283
-0.047212
0.353369
0.016966
0.356332
-0.752550
0.733053
-0.462947
0.896483
-0.114123
-0.089099
-0.095800
0.063917
-0.084819
-0.789455
0.367358
-0.227711
-0.020158
0.336441
-0.031173
-0.051117
-0.165641
-0.411518
-0.055543
0.097737
-0.241840
-0.201136
-0.100428
-0.164351
-0.074774
-0.496649
-0.029196
-0.134873
-0.058304
0.020151
-0.174186
0.128558
0.106764
0.567444
-1.837466
0.215925
-0.151346
-0.444507
0.155597
0.008245
0.198222
0.284445
-0.267136
-0.247920
0.308672
-0.263872
0.011107
-0.019692
-0.736227
0.244412
-0.989174
-0.060245
-1.004570
-0.192612
-0.277477
0.104519
-0.033075
-0.127528
-0.307072
0.221189
0.523659
0.521391
0.684985
0.031664
-0.150205
0.334361
-0.245393
0.318060
-0.314159
0.411286
0.456946
0.406472
-0.161589
-0.027261
0.036098
0.247835
0.583810
0.231957
0.394319
0.305869
0.451674
0.525086
-0.173914
0.663660
-0.339186
-0.360129
-0.129972
-0.441195
-0.425067
-0.419722
-0.426375
-0.379782
-0.205848
0.034112
0.051886
0.347757
0.236505
0.143067
-0.103925
0.638224
-0.295621
-0.055072
0.335815
0.360801
-1.074598
0.305270
-0.173446
-0.002708
-1.170017
-0.611133
-0.562699
-0.383798
-0.368946
0.365165
-0.276921
0.143108
0.277360
0.278571
-0.107634
-0.162279
-0.089381
-0.398476
-0.150027
-0.608543
0.164618
0.496513
0.232422
0.380395
0.042112
0.381417
-0.051526
-0.168167
0.368918
0.017766
0.324051
-0.114341
-0.470544
0.322298
0.552660
-0.021741
-0.270297
0.173043
0.187762
0.276350
-0.303363
-0.572386
-0.121407
0.438425
0.312247
0.001763
0.614194
0.130626
0.117209
0.058999
0.028745
0.095139
0.359131
0.231756
0.285247
-0.303482
0.034343
0.402312
-0.221918
0.074459
-0.315334
-0.242687
-0.352887
0.435172
-0.193330
0.018683
-0.279401
-0.578334
0.246420
-0.270591
0.301014
-0.012959
-0.370602
-0.105036
0.390466
0.537422
0.735220
0.367011
-0.448956
-0.155950
-0.397054
-0.551847
0.257210
0.037034
-0.774055
0.124331
-0.009924
-0.521005
0.160317
0.096051
-0.245082
0.170416
-0.056455
-0.271440
0.075782
-0.292395
-0.421962
0.757392
0.369817
0.387348
0.190485
0.021366
0.046011
-0.594327
-0.027015
-0.170864
-0.163504
0.220999
0.292772
-0.148900
-0.523854
0.042995
0.044351
-0.112905
0.052245
-0.259610
0.215290
-0.537526
-0.044933
-0.139969
0.177792
0.179749
-0.427428
-0.591820
-0.196025
-0.305861
0.105192
-1.149732
0.807157
0.247635
0.466915
-0.407019
0.856223
0.386302
0.203434
-0.126110
0.158795
-0.718257
-0.228737
0.295753
0.019885
-0.164308
0.144279
-0.161373
-0.584838
0.178095
0.802089
0.086232
0.542805
0.056910
0.015694
-0.246442
0.079565
0.107429
0.241356
0.130443
0.668493
-0.960482
0.078313
0.178717
0.316671
-0.918283
0.067201
-0.127908
-0.002334
-0.678841
-0.374139
0.693148
0.158737
0.060543
0.516807
0.321252
0.235846
0.000403
-0.068701
0.126152
0.150433
-0.382352
-0.397613
0.007413
0.413196
-0.634154
0.274725
-0.142400
0.157177
-0.052088
0.099043
0.361707
0.400433
-0.394646
0.120265
0.005483
-0.482116
0.133710
-0.329815
0.026313
-0.210072
-0.104164
-0.067558
-0.144383
-0.092482
-0.152857
-0.293782
-0.394476
0.644265
-0.188290
0.013343
-0.030376
0.014572
-0.242577
-0.078353
-0.052051
0.085910
-0.055213
0.012172
-0.038523
-0.127089
0.163216
-0.113384
-0.611010
1.536825
-0.119527
-0.417481
-0.224744
0.143523
0.001507
0.053789
0.502416
-0.047858
0.144391
0.053595
-0.311322
0.026673
-0.217421
0.113044
0.340305
-0.253924
-0.672908
0.059639
-0.013405
0.178064
0.071787
-0.231990
0.328081
-0.279103
0.069581
-0.500230
-0.146618
0.786561
-0.905466
-0.488339
0.276572
-0.205476
-0.040068
-0.087326
0.413166
0.037269
0.287913
-0.122083
-0.321599
-0.097344
0.261851
-0.497368
0.532327
-0.787770
0.425403
0.073035
-0.074863
-0.000549
-0.202756
-0.705186
-0.726273
0.038921
-0.103272
-0.071979
0.012440
-0.082755
-0.066447
-0.333781
-0.155254
-0.106848
-0.370292
-0.274415
0.311486
-0.087538
0.212251
-0.071352
0.189360
-0.117991
0.101236
-0.402630
-0.257266
-0.012983
-1.528550
0.139606
-0.467007
-0.013271
0.298286
0.144770
-0.026214
-0.186568
0.078328
0.055547
-0.123723
-0.898519
0.217312
0.143444
0.093497
0.110184
0.253654
-0.312056
0.293095
-0.107914
-0.253209
0.087424
0.050019
-0.190191
1.094586
-0.104440
-0.590344
-0.163467
-0.293863
0.103254
0.100009
-0.203823
0.137252
0.837592
-0.101197
0.294547
-0.117628
1.089813
-0.185539
-0.188987
-0.050018
-0.297690
-0.224448
0.062083
0.405955
0.115369
0.001389
-0.070696
-0.083503
-0.402430
-0.080458
-0.757912
-0.841213
-0.024576
0.100164
-0.245689
0.854077
-0.249155
0.222623
-0.344449
-0.131588
0.021970
-0.447401
0.069944
0.210683
-0.212768
0.910650
0.116380
-0.195953
0.201377
0.192521
-0.580442
-0.269257
0.284978
0.207579
-0.632161
0.583071
0.274131
-0.012531
-0.437546
-0.168273
0.046681
-0.758574
0.448995
-0.187107
-0.182233
-0.952359
0.214608
-0.009746
-0.233430
-0.075562
-0.129608
-0.573996
-0.593953
-0.744169
0.164516
-0.152333
-0.469062
0.328723
0.225084
-0.304573
0.015236
-0.109792
0.820012
-0.241666
-0.115446
0.260153
0.393646
0.151915
-0.431208
0.087108
0.129090
-0.081389
-0.071544
-0.360231
-0.472091
-0.060429
-1.040067
-0.016217
0.273589
0.363826
0.000714
0.177331
-0.234295
0.847776
0.117757
-0.551213
-0.536287
0.229082
-0.244249
-0.794856
-0.128388
-0.707755
-0.256850
-0.043016
0.295869
0.133044
0.210808
0.651286
0.241893
-0.282606
0.251155
-0.476967
0.155076
-0.526569
0.059609
0.079003
-0.329240
-0.150777
-0.427706
-0.116551
-0.070795
0.001931
0.488678
0.317846
0.543150
0.338718
0.314813
-0.037413
-0.452424
-0.093558
0.008739
0.221666
0.097195
0.980238
0.725990
-0.133430
0.225435
-0.012903
0.213140
0.183778
-0.358988
-0.171216
-0.133196
0.015939
0.367813
0.061447
0.000867
-0.072934
0.780192
0.556995
-0.134142
-1.030029
-0.071644
-0.307429
-0.101222
0.284905
-0.054816
-0.322184
-0.213935
-0.081138
-0.137989
0.308517
-0.027547
0.330802
0.024557
-0.251142
0.391498
0.001616
-0.025022
0.462509
-0.468817
-0.734471
-0.280021
0.488580
0.296027
-0.695444
0.383748
-0.515716
0.232552
0.084310
0.188046
-0.360737
0.214032
0.367434
-0.157070
0.085281
-0.290363
-0.148961
0.242742
-0.581519
0.427317
0.154894
0.192989
-0.151436
-0.222474
-0.076266
0.051189
0.005538
-0.161385
-0.233313
-0.247827
0.120529
-0.346675
-0.223770
0.073308
-0.462783
0.391375
0.465442
0.321837
-0.514517
-0.989571
0.340295
-0.496580
0.440363
0.113179
0.543332
-0.262506
0.547129
0.091982
-0.791591
0.583448
-0.061708
0.729145
-0.516461
0.106586
-0.147874
-0.116233
-0.143997
-0.137932
-0.129655
0.308034
-0.137653
-0.305451
0.211838
-0.011502
-0.804365
-0.199272
-0.743834
0.355573
-0.612394
-0.109322
-0.095033
-0.484297
0.103600
-0.773031
0.160304
0.035663
-0.227098
-0.499077
0.181412
0.611445
-0.332274
-0.068714
-0.298935
0.570444
-0.092063
0.076320
-0.218783
0.087872
-0.189640
0.135771
0.050181
-1.452129
0.388283
0.097647
-0.114990
1.358518
0.151767
-0.008672
-0.142088
-0.656845
0.009223
-1.167474
0.139098
0.121728
-1.263345
-0.288792
-0.317116
0.048824
0.018562
0.092621
-0.082978
0.074134
-0.143002
-0.081590
0.220510
-0.873418
-0.113196
-0.015827
0.381265
0.181379
0.182724
-0.125744
-0.309076
-0.423505
-0.438905
0.215534
0.043490
0.192602
-0.177933
-0.064478
-0.036443
0.206041
1.293487
0.282330
-0.333281
0.406059
0.864071
0.003712
-0.339537
-0.071020
-0.318023
-0.470836
-0.938300
-0.610703
-0.245488
-0.043795
0.125474
-1.102653
-0.284316
0.225847
0.007779
0.193375
-0.231068
-0.095907
-0.251323
0.324474
-0.225453
-0.616064
0.392224
0.159598
0.117554
-0.395648
0.290481
0.744054
-0.229727
-0.168321
-0.270922
0.116073
0.159895
-0.507179
0.485967
0.138338
0.263450
0.305077
-0.384262
0.497795
-0.579836
-0.179104
0.282634
0.052495
0.234401
0.192392
0.217788
-0.139671
-0.713387
-0.086000
-0.471060
-0.675473
-0.310895
-0.296549
0.264149
0.112600
0.647848
-0.292703
-0.965425
0.039315
0.697781
-0.306580
-0.217454
-0.449650
0.844434
0.059412
-0.257611
-0.158977
-0.090904
-0.093356
0.044851
-0.153828
0.054432
0.037784
-0.071346
-0.166664
0.011162
-0.043478
0.280367
-0.046359
-0.121294
-0.269401
-0.123193
0.195141
-0.348306
-0.338528
-0.824695
0.135383
0.005708
-0.879701
-0.074289
-1.227799
-0.137850
0.216910
-0.048751
-0.822476
0.480136
-0.391957
0.031958
-0.233305
0.033089
-0.196210
0.233564
0.041839
-0.164123
0.146931
-0.185541
-0.114191
-0.215910
-0.146122
-0.088283
-0.175460
0.125225
0.937943
-1.049025
0.712857
0.166345
-0.077352
0.078549
-0.106117
-1.024125
0.730733
0.026629
0.603430
-1.635245
0.475344
-0.145061
0.022821
-0.177688
0.081187
0.066623
0.137273
0.337061
-0.060252
0.220873
0.252196
-0.278546
0.147630
0.222522
0.126978
-0.064261
-0.094240
0.110093
0.129053
-0.027069
0.056573
0.037965
-0.055737
-0.088630
-0.035721
0.053371
-0.332058
0.311261
0.126811
-0.283512
0.290919
-0.350897
-0.446109
0.364457
0.082805
0.095342
0.123570
0.207774
0.370437
-0.555653
-1.018075
0.660017
-0.131693
-0.485021
0.268754
0.290181
-0.451338
-0.285949
-0.035544
0.241926
-0.171293
0.060879
0.121005
-0.032405
-0.135624
-0.181215
-0.327786
-0.011007
-0.331279
-0.536141
0.690489
0.203914
-0.451865
0.013012
-0.767138
0.333999
0.063792
-0.408985
0.088384
-0.180110
-0.349475
0.555849
0.164017
0.905182
-0.627661
-0.335850
0.051099
0.225763
0.311621
0.328203
-0.018094
-1.334984
-0.580942
0.218863
-0.103476
-0.249691
0.055123
-0.358949
-0.067962
-0.504518
0.068882
0.188546
-0.079445
0.477299
-0.223561
0.250407
0.386707
0.010949
0.452551
-0.540042
0.396073
0.269865
-1.177073
-0.737571
-0.101764
0.475578
-0.010836
-0.177333
-0.243068
0.016047
-0.012662
0.149435
-0.750940
-0.303017
-0.153680
-0.283066
-0.137146
-0.064029
0.311140
0.249325
0.255842
-0.398050
-0.503172
-0.062677
-0.099406
0.036325
0.453006
0.084880
-0.041674
-0.180463
-0.866272
-0.307801
0.359781
-0.401620
-0.363359
0.131268
0.527302
-0.027226
-0.611159
0.645230
0.710448
0.260954
-0.049287
0.223316
-1.077040
-0.578937
-0.310471
0.195539
0.189899
-0.074996
0.234611
0.283068
0.073684
-0.116207
-0.047615
-0.024640
-0.186197
-0.394197
-0.547538
-0.676545
-0.367658
-0.228848
0.306913
-0.160098
1.000649
0.300711
-0.318825
0.128851
-0.355499
0.828293
-0.512133
0.123773
-0.766062
0.461957
0.811439
-0.511788
0.199792
-0.009580
0.171659
0.102427
-0.585387
-0.595958
-0.014910
0.578795
-0.187413
0.035592
-0.496001
-0.095625
0.102469
0.111909
-0.068658
-0.357561
-0.209470
0.441503
-0.719161
0.010676
0.004569
1.304923
0.166791
-0.068250
0.086738
-0.786557
-0.612842
-1.014722
-0.513043
-0.143216
-0.470891
0.625094
0.424871
0.030136
-0.267770
-0.684350
0.287733
-0.208720
-0.026695
0.248747
-0.329192
-0.327427
0.075031
-0.018935
-0.066428
0.132722
-0.197506
-0.208836
-0.237505
-0.088876
0.075547
0.050684
0.154335
0.165318
-0.454100
0.253877
-0.259862
-0.211544
0.029965
0.700390
0.378229
0.359254
-0.116683
-0.128021
-0.164251
-0.374501
-0.560773
0.490490
-0.586040
-0.134213
0.191627
-0.069080
0.646986
0.229876
0.242352
-0.157224
0.029583
0.156735
0.106051
-0.138240
-0.796497
0.340411
0.855412
-0.280855
-0.136082
0.099299
0.207594
-0.549083
0.013440
-0.913310
0.797136
-1.562086
-0.740797
-0.202181
0.117244
-0.287235
0.141786
-0.382477
0.362939
0.275492
-0.782613
0.279009
0.211920
0.027041
-0.708170
-0.296180
0.012571
0.160963
-0.166091
-0.287372
-0.199007
-0.178053
-0.139417
0.056894
-0.171950
-0.123963
-0.384611
0.238351
-0.248607
0.518284
0.127654
-0.089627
0.081161
0.000789
-0.039409
-0.154085
0.236944
-0.684334
-0.451699
0.381251
-0.036231
0.147960
-0.414331
-0.125709
-0.152692
0.496527
0.221053
0.396299
-0.208602
0.217042
0.651313
0.113000
0.299022
-0.077396
-0.073249
-0.270246
0.019419
-0.041755
-0.383418
0.257569
0.367694
0.232071
-0.085607
1.133475
-0.424586
0.806879
-0.193800
-0.015924
-0.111281
0.118604
-0.212011
0.343239
-0.171017
-0.761766
0.023036
0.047643
-0.923377
0.570191
-0.489234
-0.129419
-0.365582
0.050877
0.163410
-0.692209
-0.110791
0.126087
-0.085198
-0.307953
-0.073227
0.082457
-0.270080
-0.434025
0.031518
0.070226
0.101651
-0.237677
-0.351909
-0.031248
-0.193333
0.187008
-0.274622
0.016370
0.321705
0.048718
-0.164732
0.364558
0.224309
0.330994
-0.065466
-0.153502
-0.105091
0.157519
0.093200
-0.071604
-0.101219
-0.136920
0.032900
-0.970813
0.200711
0.521846
0.222917
-0.477618
0.622652
-0.230152
-0.151554
-0.107864
0.239168
0.646096
0.072091
0.176669
-0.087508
0.558145
0.225122
-0.350416
0.380566
-0.231294
-0.016713
0.411368
0.055701
0.242911
0.109357
-0.249752
0.033005
-0.108787
-0.067615
0.282426
-0.340440
-0.145299
-0.269934
-0.428376
0.195993
-0.328302
-0.326627
-0.013289
-0.697530
-0.055284
-0.315107
-0.320556
-0.082266
-0.111000
-0.690879
-0.170757
-0.943531
-0.184816
-0.528695
-0.219198
0.067989
-0.000990
-0.057641
0.096083
-0.381762
0.003627
-0.524654
0.336380
0.142902
-0.178380
-0.132453
0.280823
-0.205397
-0.057595
0.179584
0.134132
0.044767
0.501806
-0.154430
1.007332
0.322594
-0.211680
-0.073101
0.195402
0.246473
-0.288122
0.103275
0.055736
0.416878
0.354308
-0.030432
-0.368171
0.121921
0.185579
0.268184
-0.573809
-0.019356
-0.139366
-0.788220
0.119029
0.538218
-0.182636
0.328129
-0.403417
-0.064122
-0.176893
0.369588
0.217733
0.423808
0.151539
0.019587
0.331137
-0.441382
0.400810
-0.348869
0.332957
0.191440
-0.357998
0.137519
-0.627506
0.284821
-0.028327
-0.738638
0.042223
0.135126
-0.673807
0.209385
0.234556
0.345347
0.351386
0.181006
-0.513204
0.963874
-0.127996
-0.237731
0.257962
-0.399130
-0.089054
0.452452
0.460294
-0.262660
0.350974
0.234459
0.184272
-0.169314
0.096221
0.141483
0.118901
-0.161740
-0.053437
0.066937
0.455556
0.097162
-0.260196
-1.178842
0.093524
0.011868
-0.167444
-0.539272
-0.189646
-0.161172
-0.025525
0.491054
-0.215340
0.043268
0.038215
0.574383
-0.043172
0.142954
0.214754
0.410130
-0.495818
0.267745
-0.069422
-0.618344
-0.178791
-0.242348
0.207382
0.043273
-0.157913
-0.029580
-0.057276
0.329665
0.437089
-0.534022
-0.880591
0.536051
-0.261248
-0.559600
0.142590
-0.275323
-0.184465
0.967260
-0.591900
0.041683
0.496960
-0.294314
0.391955
0.204403
0.351197
-0.015723
0.096352
-0.010846
-0.425598
0.192094
-0.022682
0.439337
0.211465
-0.143398
-0.033862
0.080405
0.247176
-0.534089
0.050822
1.003247
-0.431242
-0.816634
0.061305
0.232118
-0.220794
0.451546
0.446403
0.107619
0.336150
0.380364
1.284537
-0.940803
-0.218325
-0.214403
0.503878
0.014367
0.515949
-0.351498
-0.339096
0.207119
0.479623
-0.048480
-0.327988
0.117477
0.295120
0.148901
-0.429632
-0.510338
-0.380242
0.383158
-0.114084
-0.021171
-0.232789
-0.258935
0.045286
-0.561100
-0.041948
0.024173
-0.408227
0.260748
0.047371
-0.193246
-0.410230
0.834025
-1.022746
0.751019
-0.438984
0.458478
0.552153
0.036315
0.431726
0.185637
-0.613165
-0.795187
0.226634
0.327463
0.312764
-0.388202
-0.084180
0.050915
0.141907
-0.080531
0.051754
0.403550
0.370315
-0.473510
-0.138157
-0.238734
-0.515921
0.351030
-0.019619
-1.095624
-0.028476
0.005598
0.192562
-0.241444
-0.274130
0.478746
0.051404
-0.441676
0.204245
0.316653
-0.812520
0.420781
-0.170941
0.246136
-0.182985
0.507732
-0.346326
0.157413
0.315441
0.115365
0.086292
-0.004142
0.092573
-0.124892
-0.084009
-0.143742
-0.107697
1.053272
-0.367029
-0.031883
-0.110092
0.117093
0.308513
0.594187
0.095546
-0.525640
-0.505893
-0.114587
0.442582
-0.376320
-0.062872
-0.035568
-0.864585
0.057343
-0.302028
0.500693
-0.712606
0.196613
-0.153971
0.546430
0.328991
0.406983
-0.838295
-0.935814
0.085674
0.173660
-0.272961
-0.187811
-0.389693
0.292023
-0.438369
0.410455
0.039712
0.074749
0.460751
0.271239
-0.001817
0.246044
-0.525436
0.233395
-0.044200
0.406073
-0.395817
-0.211971
0.253194
-0.534689
-0.528479
0.400971
-0.160734
-0.382406
-0.632426
0.458550
0.005523
0.274429
-1.465356
0.440510
-0.349396
-0.212296
-0.174245
0.082538
-0.027478
-0.118055
-0.311883
-0.545177
-0.032208
0.108407
0.030156
-0.347040
-0.590885
-0.129124
0.242192
0.091947
0.232231
1.133552
0.024992
0.009643
0.056673
-0.034235
-0.262535
0.500763
-0.298243
-0.217426
-0.131861
0.321399
-0.300567
0.433397
0.407130
-0.820361
0.178554
-0.296794
-0.224002
0.083570
0.442930
-0.199722
-0.415904
-0.514786
0.023275
0.114061
0.020102
-0.028966
0.201756
0.330742
-0.294673
-0.025635
-0.176164
-0.163274
-0.899269
0.295319
-0.007180
-1.191006
0.049756
-0.525764
-0.763281
0.336506
-0.513406
-0.313723
0.207742
-0.375375
0.513118
0.175007
0.275786
-0.403136
-0.196442
0.251598
0.096990
-0.173730
0.031156
0.233695
-0.050882
-0.271829
0.339242
0.043109
-0.047193
-2.582550
-0.008006
-1.114918
-0.016416
-1.013741
0.062722
0.499468
0.046000
-0.039027
-0.113398
-0.251565
0.029735
0.068456
0.024475
-0.071279
0.023919
0.121001
0.077940
0.139358
0.061836
-0.033097
-0.065463
0.056383
1.309722
-0.608583
-0.357027
0.043935
-0.018736
-0.040289
-0.148301
0.054884
-0.066878
-0.138563
-0.225963
-0.279852
-0.534769
-0.089486
-0.527481
0.130895
-0.898414
-0.086544
0.129398
-0.286065
0.028915
0.447697
-0.055690
0.253821
0.205763
1.851118
0.016225
0.039908
0.180216
-0.214669
-0.081586
-0.029583
-0.037976
-0.125792
-0.136249
0.064944
0.572539
0.199274
-0.035741
-0.075429
0.044366
0.121110
0.119969
0.199637
0.442209
0.405805
-0.368873
0.797755
-0.070573
0.184614
-0.144608
-0.145777
-0.072514
0.201391
0.157499
-0.971238
0.277458
0.015486
-0.077169
-0.144808
0.338657
-0.021110
-0.072860
0.337355
0.221413
0.292747
-0.344245
-0.544173
0.144775
0.561585
-0.424667
-0.381301
-0.038593
-0.114438
0.037885
0.260913
-0.069530
0.164228
-0.335150
-0.033676
0.285087
-0.601373
0.385382
0.496257
0.000036
-0.033677
-0.071337
1.258230
-0.241219
0.331447
-0.270017
-1.346603
0.380229
-0.079761
0.270218
0.024188
0.035333
-0.310044
-0.155444
-0.244817
-0.044702
-0.049385
0.136076
0.512078
0.235543
0.097744
0.070173
0.123231
-0.136295
-0.220925
0.407674
-0.341846
0.214576
0.042013
-0.047164
-0.084899
0.104719
-0.194477
-0.723535
0.175179
-0.807627
0.506629
0.014035
0.122374
-0.360481
-0.558096
0.326948
0.067720
-0.121706
-0.022921
-0.326835
0.495419
-0.503563
0.090417
0.747939
-0.491415
-0.460825
0.082798
0.259552
0.235318
-0.156039
0.057227
-1.022527
-0.456007
-0.535218
-0.195426
-0.201700
0.029118
-0.999674
-0.390617
-0.248439
0.124453
0.247039
-0.104688
-0.128865
-0.418925
0.062888
0.063721
0.120964
-0.149657
0.210444
-0.145523
-0.152137
-0.136339
0.030209
0.278174
0.792310
0.677160
-0.071356
-0.333294
-0.087157
0.148847
0.066301
0.200346
-0.362239
0.002329
0.707275
-1.198595
-0.172783
0.450287
0.168774
-1.278687
-1.022360
0.348071
-0.171181
0.446544
0.087658
0.519671
0.117646
0.072277
0.308222
-0.093912
-0.037411
-0.187826
0.320766
-0.482789
-0.059534
0.149796
-0.194601
0.567744
-0.665203
-0.202907
-0.132422
-0.124284
-0.370544
-0.430377
-2.353130
0.166843
0.197267
-0.107270
-2.319235
-0.302653
0.496653
-0.089767
-0.234215
0.401976
-0.186440
-0.048574
-0.154730
-0.020844
-0.032212
-0.115452
0.189541
-0.047237
0.136466
-0.015316
0.065027
0.056277
0.145970
0.153437
0.205271
0.101595
0.064414
0.051722
0.003207
0.051348
-0.104281
0.191573
-0.172836
0.446829
-0.096510
-0.139769
-0.151102
-0.379688
-0.326618
0.818072
0.020040
0.763429
-0.820376
-0.287296
-0.094228
-0.164696
-0.971560
0.270833
0.232345
-0.406369
0.311416
0.461857
-0.301193
0.144259
-0.063763
0.356671
0.526311
-0.003899
-0.057218
-0.283951
0.074734
0.203081
-0.177057
0.324554
0.052651
-0.518967
-0.249488
-1.859745
0.342298
0.146297
0.031810
-0.130113
0.410578
0.246750
-0.783712
0.054984
-0.318451
-0.402986
-0.046795
-0.420095
-0.368390
-0.110690
0.007854
-0.321006
0.164887
0.153734
-0.008510
0.041185
0.080093
-0.044870
0.102747
0.186449
0.051275
-0.469252
0.665002
-0.070230
0.374379
-0.600565
-0.676704
-0.650889
-0.469147
0.092214
-0.513626
-1.351435
0.275009
0.078759
0.179583
0.302050
-0.482912
0.216885
-0.364015
-0.576594
0.604702
0.417619
0.093507
-0.130667
-1.147178
0.506707
0.015313
0.169104
0.212446
0.519629
0.373321
0.368241
0.218311
-0.149148
-0.089171
0.103260
-0.144158
-0.340165
0.153524
1.038178
-0.221868
-0.052069
0.235180
-0.082800
0.177304
0.526397
-0.491161
-0.480007
-0.214623
0.117148
0.761911
0.558616
-0.324699
-0.024466
0.548715
0.174798
0.189339
-0.282186
-0.777362
-0.209678
0.703420
0.020787
0.183194
-0.476581
-0.089323
-0.133541
-0.058269
0.040818
-0.001174
-0.525726
-0.326508
0.129714
0.457472
-0.053688
-0.358246
0.035624
-0.044381
-0.326238
0.361823
-0.090376
0.037846
1.232482
0.514582
0.222715
0.283271
0.403691
0.594970
0.149624
0.713309
-0.407890
-0.214460
0.560361
-0.209042
0.496965
-0.272989
0.214422
-0.034052
0.099508
0.292001
-0.144212
-0.151524
-0.105986
-0.922769
-0.873510
-0.468683
-0.429896
0.234458
-0.152233
0.745862
0.547253
0.472215
-0.234041
0.423818
-0.017132
-0.198723
0.779741
0.351433
-0.310816
-0.445040
0.008722
-0.045394
-0.468173
-0.079510
-0.263582
0.229770
0.163099
-0.268233
-0.354572
-0.102698
-0.297599
-0.210630
0.328487
-0.045685
-0.077708
-0.379541
-0.570351
-0.478454
-0.202822
0.409075
0.084219
-0.237711
-0.166133
-0.468508
0.492936
0.386375
-0.049177
-0.095419
-0.827409
0.387131
0.262199
0.047987
-0.123520
-0.304250
-0.095392
-0.463043
0.029271
0.690309
0.057805
0.459542
0.117220
1.069997
0.185731
-0.295991
-0.471749
-0.084914
0.024346
0.043850
-0.151102
-0.891768
-0.784401
0.013409
0.037449
-0.250931
0.152483
-0.002365
-0.379044
1.003541
-0.302789
-0.000988
0.075424
-0.441976
0.341946
-0.214929
-1.106704
-0.290776
-0.528526
-0.456774
0.128918
0.110851
0.275811
-0.574727
0.407073
0.448447
-0.368967
-0.476079
0.679584
0.416318
-0.132907
0.312801
-0.240740
-0.273113
-0.049063
0.110692
0.019713
0.079147
-0.043018
0.073978
-0.565650
0.041464
0.432741
0.127888
0.084525
-0.134250
0.032427
-0.252466
-0.490626
0.097532
0.397034
-0.219036
0.134503
0.090055
-0.015694
-0.011721
-0.163607
0.039583
-0.316325
0.023391
0.053304
-0.053750
-0.026023
-0.368082
-0.072146
-0.133295
0.189087
0.015811
0.013092
0.360337
0.031859
-0.228865
-0.022898
0.284100
0.440446
-0.385090
0.001813
-0.448517
0.223367
-0.266954
-0.268034
0.505040
-0.267575
-0.418515
-0.220185
0.647490
0.498038
0.048760
-0.397077
0.697724
-0.709910
0.187656
0.457882
0.286289
-0.139425
0.355754
-0.214854
0.166259
-0.296875
-0.604610
0.180248
0.218995
-0.306681
-0.102854
0.513137
0.012584
0.003221
0.381084
-0.716768
0.483330
0.267503
-0.091254
-0.350834
-0.189375
-0.361024
0.023428
-0.386823
-0.027566
-0.518552
-0.589619
0.040818
-0.149531
0.159784
-0.248719
0.014248
-0.421058
-0.095833
-0.534097
0.371117
-0.015568
0.181985
0.285830
-0.463494
0.040731
-0.701396
0.003041
-0.584868
0.298887
-0.066288
-0.018792
0.446721
-1.026730
0.285217
0.212317
-0.120528
0.019773
1.527451
0.010920
0.065256
0.339692
0.195547
-0.074932
0.024474
-0.134642
-0.051639
-0.466181
0.264778
-0.176765
-0.318461
0.367911
0.382734
-0.143290
0.013466
0.045422
-0.289431
-0.470263
0.174824
-0.118933
-0.516950
-0.284163
-0.212979
0.328607
-0.887719
0.068136
0.002834
-0.513446
0.651716
0.156402
-0.603527
-0.392092
-0.402628
-0.235535
0.112924
-0.826688
-0.206734
0.325270
0.033434
-0.463926
-0.219002
0.773921
0.161462
-0.101262
-0.032340
-0.176832
-0.209467
0.508622
-0.346695
0.060368
-0.142316
0.310108
0.084523
-0.243563
-0.374383
0.148711
-0.409828
0.270432
0.161858
0.241566
0.315965
0.329775
-0.474926
0.075484
-0.361832
0.247045
-0.003578
0.102009
0.401813
-0.199918
-0.251744
0.185616
-1.469169
-0.236301
0.395202
0.189755
0.426106
0.208823
-0.278385
0.496439
-0.059079
-0.112188
0.256361
-0.127319
-0.293170
0.179190
-0.527651
-0.502909
-1.688787
-1.904796
0.442241
0.006122
0.281694
0.345440
-0.027960
-0.066252
-1.726167
-0.124288
-0.022773
0.131799
-0.309478
-0.006036
-0.274412
0.262057
0.119295
0.787713
0.011308
0.125798
-0.063773
-0.204160
0.041202
-0.082686
0.003850
0.167438
0.125463
0.095447
-0.023684
-0.164492
-0.411250
0.127908
-0.127834
-0.448907
0.306643
-0.066697
0.050894
2.481051
-0.022345
0.220249
-0.132792
-0.472393
-0.105992
0.133029
-0.017960
-0.227361
0.650332
0.105383
-0.627563
-0.046498
-0.211941
0.046830
0.173641
-0.052822
0.317094
0.359150
-0.275157
-0.046767
-0.107681
-0.077684
-0.067472
0.035745
0.291637
0.035921
-0.421631
0.661066
0.102073
-0.073164
-0.029141
-1.007957
-0.826965
0.095450
-0.235524
0.018646
-0.028237
0.099786
0.138351
-0.310864
-0.699707
-0.431890
-0.105631
-0.841789
0.041770
-0.944536
-0.373490
0.756306
-0.158069
-0.080816
0.872938
-0.369295
-0.536205
-0.052799
-0.211978
-0.066706
-0.187087
-0.015355
0.438904
0.641311
0.353139
0.199019
-0.214121
-0.769374
0.946581
0.202565
-0.552123
0.149937
-0.035541
0.167424
-0.005318
0.039857
-0.335210
0.223729
0.201795
-0.587265
0.013361
0.197319
0.008743
-0.310876
-0.394956
-0.246261
0.454785
0.009878
0.215074
-0.060617
0.702634
-0.585252
-0.414517
-0.147418
0.139393
0.029398
-0.048295
-0.044338
-0.111595
-0.126855
-0.100200
-1.085218
-0.377720
-0.055716
-0.208839
0.104951
-0.144034
0.086301
-0.777280
0.315585
0.099000
0.231278
0.307304
-0.947811
0.323437
0.260029
-0.351952
0.135354
0.108963
-0.048402
-0.562178
0.066219
-0.285001
-0.257725
-0.084011
0.265982
-0.315787
0.807042
-0.041556
-0.057231
-0.342179
-0.122585
-0.259217
-0.012200
0.010222
-0.049018
-0.145138
-0.079193
-0.029341
-0.098163
-0.061541
-0.061316
-0.032682
0.045799
0.098551
-0.128807
-0.067660
-0.053308
0.196539
-0.113699
0.167366
0.043618
0.167764
0.104973
0.169967
-0.039522
-0.034940
-0.039468
-0.295085
-0.092556
0.032766
0.065199
-0.034944
0.242674
0.341908
0.158096
-1.252426
0.336486
0.211595
-0.356354
0.397261
-0.022463
-1.040839
-0.329325
-0.525520
-0.039836
-0.288627
0.216588
-0.149816
0.000419
-0.057100
-0.078625
-0.113669
0.216165
0.010416
0.038746
-0.084870
-0.155873
0.155259
-0.280846
0.068783
0.479194
0.750806
-0.388179
-0.726985
-0.893027
-0.138843
0.216448
-0.206211
0.295058
0.179218
0.553101
-0.139946
0.336227
0.218211
0.515869
0.554156
-0.028500
0.214475
-0.103605
-0.612780
-0.357705
-0.154530
0.119779
0.154263
0.564862
-0.192302
-0.529106
0.503087
0.171660
-0.737450
0.107761
-0.258352
-0.355056
-0.203215
0.274557
0.448593
-0.655361
-0.183854
0.328362
-0.152692
0.340599
-0.549749
-0.435197
0.148832
0.156684
0.585846
-0.014496
-0.105640
0.168815
0.242777
0.178472
0.429069
-0.535038
0.443888
0.493931
-0.058291
-0.466774
-0.218055
-0.944084
0.190311
-0.604089
-0.133654
0.625757
0.168450
0.044955
-0.588895
0.006067
-0.130735
0.219259
-0.284288
-0.128440
-0.006733
-0.003883
0.104862
0.121189
0.525510
0.993389
-0.246817
0.384401
0.566604
0.039120
-0.246054
0.053227
-0.360339
0.003124
0.183100
0.261353
-0.254449
-0.326788
-0.004622
-0.011751
-0.297033
-0.072288
0.053532
-0.349909
0.201971
0.064658
0.007679
-0.138170
0.459018
-0.332299
0.241275
-0.238434
0.507612
-0.647615
-0.353620
-0.807916
0.138578
0.066390
0.220255
0.224510
0.211801
-0.334662
0.761363
-0.452665
-0.098866
0.006725
0.513214
0.041565
0.579231
-0.483804
-0.111349
0.710786
-0.565485
-0.339967
-0.255648
-0.080205
0.293947
-0.568340
-0.284934
0.269817
-0.070135
0.059890
0.583591
-0.314184
-0.414236
-0.055890
0.205537
-0.116404
0.122589
0.028966
-0.396685
0.402832
0.116673
0.162571
0.144042
-0.155363
-0.170227
-0.260521
0.092419
-0.234155
0.144276
0.050776
0.019997
-0.290427
-0.381967
0.219321
0.070672
0.235155
-0.257071
0.333166
0.190952
0.431179
-0.241073
-0.244047
0.030211
-0.030794
-0.003495
-0.039437
-0.089565
0.360094
0.053846
-0.368854
-0.341758
0.431857
-0.086373
-0.182314
-0.287882
0.458907
1.112172
-0.329638
0.078208
0.233088
0.002821
-0.262983
0.009978
-0.409422
-0.057737
0.184717
-0.182324
-0.113917
0.190018
-0.877328
0.158596
0.117232
-0.254451
0.121326
0.186084
0.297387
-0.319761
0.766690
0.082250
-0.339360
0.710663
0.275271
-0.610452
-0.512696
-0.417029
0.826116
0.319047
-0.135429
0.112260
-0.610468
-0.198039
-0.360053
0.447497
-0.878342
-0.734440
0.090410
-0.638472
0.224872
-0.250409
0.233437
-0.180357
0.217736
-0.355388
-0.139428
0.446000
-0.127203
0.478618
-0.050326
-0.208521
-0.301230
-0.418240
0.497944
-0.160152
-0.312634
0.040865
-0.473781
0.030294
0.701922
0.202552
0.064119
-0.352295
-0.376558
0.335572
-0.113768
-0.181577
0.131998
-0.409229
-0.118105
0.560509
0.369258
0.022698
-0.023700
0.215249
-0.167856
-0.159502
-0.665032
0.623230
0.254586
-0.005857
0.501497
0.475495
-0.434363
-0.440940
-0.161240
0.060969
-0.764186
-0.751106
-0.167363
0.211264
0.247010
0.617576
-0.047978
0.107804
0.076365
-0.190012
-0.758392
0.658899
-0.388375
-0.517416
0.369191
-0.410427
-0.711439
0.269870
-0.163821
-0.011334
0.158120
-0.258939
-0.036508
-0.361244
-0.020291
-0.875335
0.364011
0.150805
-0.030055
0.024977
-0.455718
0.262650
0.566475
-0.290063
-0.784661
-0.084538
-0.263512
0.153395
0.160811
-0.635828
-0.139685
-0.655885
0.214506
-0.204936
0.121150
0.500720
0.607232
-0.169071
0.286691
0.159869
0.196914
0.046857
-1.316089
0.085621
-0.316027
0.363178
0.369945
0.616024
0.284955
-0.327365
-0.148024
-0.165666
-0.320616
0.150184
-0.361765
-0.768465
0.988658
-0.037905
-0.479105
-0.075092
-0.034913
-0.561060
-0.064012
0.098978
0.177396
-0.194489
-0.153281
0.624866
-0.166969
0.214765
-0.789152
-0.034929
0.265807
-0.409827
0.089697
-0.471472
-0.074733
-0.280686
-0.333835
0.111174
0.191836
-0.206363
-0.022327
0.273999
-0.063718
-0.002174
-0.204058
0.268423
1.135020
-1.294826
-0.683520
-0.002632
-0.216836
-0.413523
-0.773865
0.178883
0.175047
-0.464724
0.271370
-0.103968
-1.039271
0.125952
-0.175491
-0.264174
0.409404
-0.022531
0.681635
0.068781
-0.059174
0.014601
-0.008341
-0.142374
0.437898
-0.194866
0.140460
0.456697
0.139302
-0.706382
-0.248744
-0.058087
0.153736
0.065263
0.315318
0.182824
0.585185
0.241327
0.305381
-0.182067
-0.971003
0.126047
0.091224
-0.215330
-0.236175
-0.361778
-0.708134
-0.755587
-0.453413
-0.214310
-0.508865
-0.188624
-0.129668
-0.625919
-0.201104
0.154671
0.129053
-0.036229
0.013568
0.569603
-0.273675
-0.022983
0.086545
0.002474
-0.078878
0.127109
-0.339238
-0.264352
-0.735516
0.247004
-0.226456
0.548610
-0.179984
0.400156
0.087200
0.006981
-0.236535
0.605053
-0.119337
-0.657522
0.755737
-0.179606
0.429007
0.204141
0.117281
-0.120568
0.719431
-0.011313
0.105066
-0.089568
0.146074
-0.279010
-0.325612
0.247150
-0.202034
-0.024024
0.027288
0.055492
-0.144403
-0.190344
0.372572
-0.298583
0.118092
-0.464734
0.278258
0.062251
-1.322421
0.095024
0.103473
0.082831
-0.777067
-0.114567
-0.794333
0.444830
0.731713
0.313811
-0.751764
0.549847
-0.125563
0.226128
-0.067451
-0.434188
-0.044880
0.274390
0.603911
-0.287232
0.164628
-0.064712
-0.067616
-0.315416
-0.013434
0.141010
0.203832
0.115667
-0.622759
0.531977
-1.630128
0.274106
0.097134
-1.986534
0.122940
0.026679
-0.008086
-0.618460
-0.132204
0.625567
-0.322418
0.047620
-0.331079
-0.981517
0.375845
0.149669
-0.343887
0.178501
0.226619
0.019623
-0.333830
-0.368264
-0.038398
-0.156346
-0.002536
0.116042
-0.027876
0.102410
-0.031491
-0.145031
-0.058461
0.247772
0.040638
0.276823
-0.397831
-0.385976
-0.513499
-0.181342
0.645456
-0.257378
0.125550
-0.705172
-0.335984
0.271059
-0.205426
0.112565
0.229840
-0.147345
0.070359
-0.414653
0.001840
-0.150947
-0.363000
-0.105945
-0.386848
-0.089475
0.142166
0.131750
0.267922
-0.042076
0.953384
-1.169994
-0.816990
-0.125202
-0.212382
-0.066720
0.274404
0.228999
-0.525315
-0.212549
-0.428457
0.018537
0.251158
0.173978
-0.521841
0.388469
-0.296983
0.404967
0.055798
0.104284
-0.300030
0.105823
0.390929
-0.508160
0.499048
-0.549209
0.602170
0.098923
-0.332248
-0.591699
-0.061136
-0.289516
-0.352942
-0.063741
0.410648
0.382126
-0.406239
-0.443802
-0.144964
0.368923
0.160284
-0.684675
-0.520994
0.001470
0.470462
-0.014023
0.485886
-0.355180
0.500004
-0.336019
-0.037293
0.255652
0.191017
0.209455
-0.129021
-0.361930
-0.188638
-0.748629
0.458414
-0.382084
1.113958
-1.111350
-0.387839
-0.105199
-0.296559
-0.094171
-0.162255
0.158742
-0.211805
-0.408337
0.232520
-0.468345
0.055375
0.197852
0.312061
0.122313
0.033399
0.108013
0.155097
0.071992
-0.027174
-1.633916
-0.285960
0.116729
-0.306766
0.153303
0.575819
0.036416
-0.009286
0.692362
-0.357688
0.034329
0.091103
-0.176115
-0.678476
-0.117119
-0.154594
-0.215999
0.385004
-0.198701
-0.208088
-0.318533
0.414785
0.451532
-0.314907
-0.353681
0.018953
-0.028475
-0.266396
0.144871
-0.450065
0.481161
0.199239
0.064498
0.756010
-0.229575
-0.284215
-0.234573
0.626482
-0.631536
-0.054584
-0.655135
0.365683
0.304509
0.137585
0.105132
-0.807408
0.057044
0.010895
0.018459
0.296626
0.049089
0.073390
-0.051393
-0.026016
-0.267547
-0.239398
-0.051931
-0.029968
0.118541
0.029465
0.188405
-0.110306
0.202098
0.113139
0.319584
0.217982
0.094881
-0.139056
-0.132363
0.432398
-0.744866
-0.224520
-0.010949
-1.399991
-0.249033
0.364426
0.370334
0.335077
0.274777
-0.077411
0.111141
-0.066189
0.770606
-0.902828
-0.022189
-0.147780
-0.472798
0.142292
0.400163
-0.048917
-0.266451
0.145290
-0.483658
0.764424
-0.305121
-0.735375
0.765266
-0.931165
-0.441559
0.275145
0.251746
-0.135282
-0.269528
-0.366002
-0.248210
-0.092038
-0.147556
-0.360959
0.120881
0.248805
0.190180
0.613496
0.082454
0.528185
-0.350399
-0.308499
-0.067177
0.009505
-0.134482
-0.122182
-0.042352
0.309371
0.141860
-0.029960
-0.343753
0.733785
-0.260768
0.055934
0.158256
0.061888
-0.898427
-1.172876
-0.728341
0.340601
-0.629839
-0.270867
0.275732
-0.556208
-0.045035
1.258323
-0.317213
-0.371610
-0.227111
0.125493
-0.368424
-0.171622
0.043122
0.154012
0.209851
-0.033846
0.214843
-0.527908
-0.281082
0.038703
0.908198
-0.387546
0.282191
-0.276725
0.759990
-0.125002
0.030303
-0.243018
0.210459
0.860453
-0.148994
0.325428
-0.167840
-0.716365
0.580313
-0.395948
-0.003001
0.103507
-0.592697
0.193038
0.555037
-0.436438
0.626023
-0.669256
0.225397
-0.735905
-0.141270
-0.043773
-0.395051
-0.291373
0.190334
0.380037
0.054688
-0.037588
-0.085411
-0.033969
-0.393196
-0.624253
-0.279770
0.293044
0.167523
-0.196261
-0.020564
0.381916
0.406274
0.852040
-0.495215
-0.448839
0.841055
-0.065205
0.159221
0.319682
0.488016
-0.103641
0.300441
-0.166300
-0.518894
0.554418
0.146989
-0.507079
0.018348
0.082456
0.153122
-0.188039
-0.176553
-0.451149
-0.174267
0.217178
-0.057544
-0.037262
-0.278262
0.171857
0.102637
-0.384432
-0.144808
0.625384
-0.555029
-1.020950
0.498719
0.592888
-0.150179
0.240760
0.203373
0.337480
0.616193
0.342132
-0.212875
-0.242153
-0.409495
-0.146352
0.134212
0.204418
-0.283161
-0.453030
-0.332605
-0.020642
0.042010
0.376863
-0.223438
0.038409
-0.774770
-0.393063
0.194953
0.266578
-0.758036
0.018785
0.535803
0.081955
1.810162
-0.645185
-0.214174
-0.271074
-0.293785
0.212261
0.621411
-0.079589
-0.120704
-0.618537
-0.507350
0.052941
0.077929
0.047083
0.108817
-0.140845
0.046415
-0.142120
0.550449
0.217863
0.347795
-0.732502
-0.230524
-0.409772
-0.058718
0.051450
-0.102026
0.155071
0.389799
0.629841
0.151729
-0.502101
-0.418836
-0.513025
-0.433280
0.047753
0.063880
0.685949
0.356636
0.012812
-0.016399
-0.186782
-1.207894
-0.542189
0.876516
0.314281
-0.659716
0.021369
0.327197
-0.188085
0.439138
-0.541105
-0.214486
-0.267878
0.233438
-0.192462
0.817211
0.139858
-0.425880
-1.102960
0.242097
0.223049
0.179588
0.296104
-0.079630
0.097620
-0.043078
0.570474
-0.288633
0.266719
-0.670267
-0.795927
-0.222034
-0.013168
-0.049254
0.298366
0.253905
0.062615
0.069300
0.045978
0.238846
0.288032
0.202203
0.075290
0.381967
-0.035943
0.089200
0.108743
-0.639129
0.371807
-0.274503
-0.346265
0.080717
0.080362
0.491854
-0.339306
0.096343
-0.214364
0.048796
-0.551211
0.026448
0.031142
0.230348
0.350245
-0.687113
0.018449
0.477711
-0.197439
0.576458
0.245027
0.110956
-0.556466
-0.335193
-0.010872
-0.661324
0.311960
-0.191955
-0.328350
-0.218677
0.066142
0.469046
0.311309
-0.092155
-0.157878
-1.127638
0.071509
-0.009148
0.139511
-0.543253
0.351624
-0.677001
0.234008
0.404080
-0.298517
-0.342381
0.282600
-0.081097
-0.232846
0.517764
0.625246
-0.013168
0.935059
-0.471137
-0.223151
-0.103272
0.867470
-0.357532
-0.360975
0.117925
0.076429
-0.343989
-0.115180
-0.120114
0.153085
0.054339
-0.377822
-0.499864
0.055324
-0.367662
-0.233761
-0.470294
-1.109826
-0.419753
-0.264986
0.452308
0.835336
-0.404960
0.434718
-0.255277
0.329003
-0.158106
0.560457
0.183663
0.116169
0.325940
0.358884
-0.097922
-1.091182
0.087388
-0.861633
-0.131309
-0.345539
-0.023187
0.272241
-0.421414
0.079220
0.241440
0.165227
0.124573
0.559079
-0.018060
-0.069384
-0.363658
-0.427457
-0.175032
-0.628187
-0.011429
0.082128
0.758892
0.328945
-0.360998
0.062264
-0.152435
0.000081
0.201118
0.017425
0.218834
0.010673
0.085119
0.277524
-0.260358
0.380966
0.059707
0.040297
0.193158
0.453631
0.345407
0.058503
-0.802713
-0.011804
-0.016297
0.049197
-0.008340
0.086905
-0.542824
0.327325
0.358310
0.513195
-0.116791
-0.424050
0.186642
-1.163228
0.172226
-0.294223
-0.178460
-0.323860
0.168169
0.223056
-0.111294
-0.051177
0.672688
-0.269340
-0.326549
-0.039905
0.225211
0.691622
-0.000607
-0.440057
-0.001128
-0.040853
0.447656
-0.649365
0.082766
-0.113226
0.327665
-0.470162
-0.122970
0.109370
-0.347674
-0.140142
-0.006477
0.314413
-0.505672
-0.421506
-0.148475
0.163009
0.380005
-0.042850
0.429422
-0.747994
-0.766207
-0.012845
0.240365
0.976012
0.035409
0.166685
0.044315
0.406238
-0.094709
0.375421
0.371324
-0.333406
0.288055
0.490682
-0.272414
-0.112872
0.264060
-0.801381
-0.635860
0.222859
0.016467
-0.732179
-0.283997
0.821339
-0.063407
0.039530
-0.127145
-0.999376
0.306262
0.029056
-0.282087
-0.174580
-0.019512
-0.075256
-0.153624
0.001584
-0.258138
0.170947
0.147910
-0.108025
-0.331426
0.197656
-0.169632
-0.114780
-0.224910
1.126693
-0.529921
0.014273
-0.180950
-0.123041
-0.212891
-0.016518
-0.552339
0.722420
0.065895
0.032823
-0.014509
0.168225
-0.452957
0.159459
0.200179
-0.607637
-0.128088
-0.455926
-0.434451
0.298970
-0.469783
-0.051345
-0.164161
-0.216900
0.088076
-0.972777
-0.231320
-0.054834
-0.014964
0.084487
-0.049519
0.002672
-0.191541
-0.015947
-0.223582
0.159156
-0.089446
0.215180
0.107825
-0.022845
-0.093796
-0.118001
0.000284
-0.058107
-0.049302
-0.188803
-0.089626
0.113970
-0.065071
-0.032839
0.152536
-0.184387
0.041417
-0.030424
0.102819
-0.132322
0.052815
-0.066823
0.042634
-0.041353
0.071919
0.030617
-0.005356
0.240646
-0.201493
-0.284871
-0.223641
-0.066652
-0.095281
-0.264189
0.176283
-0.119923
0.082089
-0.226317
0.136688
-0.707385
1.221880
-0.140488
-0.129889
-0.181598
-0.326154
0.364935
-0.168805
-0.266039
0.588475
-0.217958
0.034210
-0.130689
-0.056975
0.488917
0.744306
-0.070073
0.287591
0.277214
-0.209883
-0.147720
0.303369
-0.039238
-0.255383
0.034169
0.132414
0.202625
0.606749
-1.134704
0.990131
-0.113910
0.164220
-0.063311
0.191111
-0.005138
0.017368
-0.086842
-0.008199
-1.077358
-0.619054
-0.234393
-0.027162
-0.641849
-0.098413
-0.331720
0.048215
0.154666
0.890605
-0.209278
-0.027958
-0.019472
0.068560
0.225605
-0.012672
-0.469927
0.035251
0.583879
-0.714746
-0.299861
0.647344
0.249747
-0.182761
-0.563029
-0.264214
0.368589
-0.281562
0.227929
-0.215857
-0.351284
-0.200369
0.019519
0.155632
-0.463505
-0.002723
0.202473
-0.192275
0.498715
-0.009288
-0.235773
0.038329
-0.294411
-0.138251
0.353761
-0.176639
-0.821696
0.023279
0.161082
0.064851
-0.458975
0.407389
0.807896
-0.128634
0.236735
-0.574579
0.060952
0.394851
