-0.389856
0.316697
-0.272547
-0.357817
0.180949
-0.000420
0.154103
0.074265
-0.066535
-0.011128
0.216792
0.148264
0.008324
0.048540
-0.117146
-0.043681
0.138358
-0.155955
-0.032642
-0.093878
0.098710
-0.191571
-0.321187
-0.112152
0.112593
0.086824
-0.244974
0.008307
-0.030385
0.287050
0.327417
-0.124973
0.125875
0.148192
-0.133176
-0.226253
0.156277
0.057195
0.029823
0.082039
-0.370990
0.031084
0.144205
-0.099527
0.186762
-0.404610
-0.146824
0.055820
0.092940
-0.020063
0.118079
0.102372
0.052542
-0.036447
0.054259
0.227335
0.063371
-0.403540
-0.185805
0.302597
0.115956
0.225703
-0.234929
0.081718
0.317657
0.206878
0.153087
0.159513
0.288516
0.178171
0.030868
0.072224
-0.106436
0.005407
-0.187840
0.296639
0.192605
-0.137697
0.319067
0.442166
-0.035198
-0.086002
-0.162000
-0.114086
-0.014085
0.188918
-0.023058
0.047242
-0.071773
0.078771
0.028563
-0.377014
-0.011767
0.057786
0.164985
-0.144203
0.098340
-0.041619
0.213183
-0.023620
0.196036
0.159755
0.267735
-0.250053
0.051970
-0.052811
-0.244439
-0.166564
-0.405023
-0.010133
-0.137998
0.183304
0.064925
0.142460
-0.110486
0.110772
0.023315
-0.039682
-0.317576
-0.373807
-0.145974
0.107633
-0.020418
-0.139851
0.000000
-0.132048
-0.115021
-0.222426
