-0.064441
-0.135563
-0.136221
0.345057
-0.007995
0.129397
-0.163265
0.189716
0.131344
0.179449
-0.017024
-0.035403
0.074328
-0.426348
-0.265846
0.029808
0.666848
0.149253
-0.010594
-0.013694
-0.228910
0.026373
-0.200316
-0.206377
-0.045776
-0.112846
0.307739
-0.160262
0.039664
0.142118
0.234837
0.357539
-0.239980
0.016291
-0.004534
-0.210051
0.151911
0.066423
0.019285
0.324144
-0.071382
0.024823
-0.214371
0.241382
0.057449
0.253903
-0.192370
-0.293512
0.117977
0.295927
-0.001604
-0.251912
0.068569
-0.096506
-0.097067
-0.121246
-0.307272
-0.246102
0.038821
-0.068112
-0.041132
0.085406
0.141051
-0.011810
-0.127353
-0.105139
-0.114204
0.009749
-0.222641
-0.073659
0.171245
-0.189698
0.129254
0.140931
-0.215947
-0.158116
-0.818767
-0.078946
-0.012350
-0.248202
-0.108784
-0.229110
0.018607
-0.024276
-0.248146
0.276210
-0.341128
-0.087752
0.202256
-0.022314
-0.088644
0.028258
0.428090
0.135676
-0.036662
-0.009012
-0.088155
-0.189321
0.226513
-0.045170
0.102533
-0.620065
0.085428
-0.205849
0.172295
-0.153244
0.012051
-0.213348
0.176045
-0.023388
0.254448
-0.007711
-0.429257
-0.214780
0.010064
0.229001
-0.069713
0.042969
0.491091
-0.053850
0.050578
0.183680
0.527301
-0.004675
-0.132754
0.062932
-0.028096
-0.820522
