-0.217685
-0.028526
-0.607181
-0.159067
0.355355
0.041328
0.042587
0.328826
0.576341
-0.286947
-0.287199
-0.031582
-0.353750
-0.070393
-0.682901
0.308277
-0.097794
-0.483630
-0.566418
0.158472
-0.843761
-0.507466
-0.518232
-0.438602
-0.086803
0.408913
-0.324176
-0.301244
0.072297
0.183847
-0.802298
0.197154
-0.435394
0.243836
0.128497
-0.164120
-0.155115
-0.124791
-0.199394
-0.068188
-0.445777
0.181421
-0.424797
0.363089
-0.713755
0.066896
-0.188999
0.046203
0.080334
-0.729432
-0.207652
0.441134
-0.232609
0.270191
-0.281523
0.121811
-0.027018
-0.508373
0.103629
-0.309090
0.141957
0.289191
0.198750
0.030116
-0.609359
-0.068080
-0.567527
0.602695
0.071023
0.051129
0.009402
0.325879
0.326785
-0.032740
0.189871
-0.086176
-0.170427
-0.255611
-0.072622
-0.477972
-0.144331
0.266245
0.133312
-0.264613
-0.012414
0.539686
-0.012704
-0.081643
-0.007214
0.064104
0.006245
0.156979
-0.102248
0.342920
0.150053
-0.583424
-0.219838
0.029933
-0.155567
0.112357
-0.404379
-0.064096
0.005580
-0.320442
0.091655
0.396831
0.151467
-0.285183
-0.071663
0.121878
-0.166792
0.057177
0.040516
-0.478207
0.362808
0.135678
0.042309
-0.053747
0.446898
-0.333683
-0.633437
0.387877
0.352147
-0.025582
0.237045
0.436198
0.046711
0.254612
0.158075
0.260304
-0.065153
-0.485886
0.184600
0.030350
-0.162766
0.088068
-0.075566
-0.372673
-0.121044
-0.020259
-0.446725
-0.138874
-0.472596
-0.184599
0.309177
0.050736
-0.046699
-0.003744
-0.168443
-0.060437
-0.089618
0.019598
-0.254077
-0.344480
0.308357
0.266342
0.633878
-0.008855
-0.007736
-0.596639
0.315099
-0.318464
-0.748487
0.147108
0.004208
0.293317
-0.051448
-0.110156
-0.227927
-0.113776
-0.040305
-0.099388
0.464162
0.210508
-0.108133
0.245168
0.044352
-0.348604
-0.109948
-0.600462
0.083545
0.408600
0.324489
-0.562131
0.029115
-0.217386
-0.688561
0.369069
0.422981
0.310778
0.303615
-0.123883
0.239173
0.230714
0.245319
0.240119
-0.099082
-0.611021
0.278968
0.329258
0.125665
-0.009346
-0.230185
0.151698
-0.682016
0.119348
0.245128
0.408589
0.221353
-0.138776
-0.155530
-0.301723
0.044899
-0.050146
-0.375514
-0.226237
-0.070010
-0.295400
0.016632
-0.317972
-0.061371
0.116785
0.314735
0.447204
-0.346686
-0.571472
0.067393
0.167289
-0.255210
-0.282710
-0.142413
-0.374560
-0.207903
0.089522
-0.047876
0.360579
0.262716
-0.157570
0.062134
-0.178706
-0.260485
-0.166885
0.328973
0.409625
-0.023960
-0.698401
-0.499613
0.162067
-0.081582
0.217920
0.280525
0.116579
-0.109962
-0.516154
-0.457575
0.190158
-0.424209
-0.013354
0.141389
-0.399792
-0.297897
0.110854
-0.178334
0.116627
-0.606267
0.372624
0.085343
-0.119196
0.167238
-0.782437
-0.218314
-0.073075
0.112797
0.242485
-0.155114
-0.318814
-0.112037
-0.345235
-0.609792
-0.113984
0.039049
0.525027
-0.428707
0.234325
-0.314480
-0.550058
-0.063075
0.454087
-0.214836
-0.297481
-0.517046
-0.167856
0.166372
0.128351
-0.035023
-0.379531
-0.105233
-0.020445
0.223343
0.132908
0.186419
-0.500615
-0.099556
0.031406
0.224184
0.333297
-0.320733
-0.187031
-0.273463
-0.229453
-0.369717
-0.201455
-0.607405
-0.460199
0.082625
0.097129
-0.077602
0.408321
0.239564
0.283215
0.304575
0.252146
-0.642492
-0.508675
0.049351
-0.242848
-0.232947
-0.200084
0.118550
0.207624
0.116179
0.244509
0.106115
0.099193
0.045962
0.107527
-0.210701
-0.470849
0.177881
0.526114
0.036619
0.446575
-0.576965
0.103046
0.399215
0.240310
-0.050211
-0.205149
-0.525372
0.204810
0.674339
-0.107446
0.277824
-0.309699
0.015823
0.051742
0.361214
-0.521194
-0.009444
-0.014919
0.340996
-0.022253
-0.606167
-0.141551
0.132605
0.782535
0.275984
-0.060662
-0.091802
-0.440066
-0.360478
0.091109
0.292716
0.221182
-0.348087
0.066315
0.651459
0.269457
0.606189
0.045968
-0.033912
-0.211560
0.455721
0.222861
0.173535
0.167630
-0.117286
-0.686587
-0.370249
-0.194941
0.188154
0.363343
0.104341
0.108428
-0.437090
-0.201307
0.132636
-0.098741
-0.171782
-0.206336
-0.041679
-0.274828
-0.694630
0.005748
0.196163
-0.360906
-0.406664
-0.083930
0.288061
-0.116284
0.042978
-0.722538
0.360793
-0.106043
0.006304
0.025904
-0.285780
0.253039
0.166954
-0.089195
-0.151595
-0.607825
-0.360668
0.396001
0.012715
-0.518900
-0.194389
0.211152
-0.113819
0.040550
-0.389463
0.002049
0.326671
0.134224
-0.482842
-0.206605
0.309439
-0.687038
-0.092773
0.030383
0.191647
-0.306941
0.287734
-0.415216
-0.388947
-0.055075
-0.312244
0.117710
-0.556004
-0.410662
0.125722
-0.433153
0.085320
-0.471129
0.292067
0.616954
-0.087281
0.106505
-0.418444
0.042002
-0.385526
-0.509760
0.079997
0.649068
-0.387195
-0.385403
0.043783
-0.055358
-0.137307
0.134906
0.051476
0.002651
-0.433839
0.089224
0.204395
-0.079470
0.417580
-0.047599
0.088332
-0.368894
-0.149378
0.334046
0.339336
0.233791
0.025638
-0.331120
0.330840
0.034146
-0.062075
0.213147
-0.547754
-0.160887
0.369370
0.047096
-0.126962
0.450704
0.161088
-0.211817
-0.654280
0.197071
-0.160488
-0.027748
-0.650328
-0.145699
0.347315
0.244547
-0.155677
0.080218
-0.034910
-0.140370
0.385063
-0.207160
-0.071302
0.112907
-0.317309
-0.093180
0.214770
0.141112
-0.176609
0.211754
-0.118669
-0.441209
-0.501118
-0.245002
0.408778
-0.147022
-0.569086
0.288572
0.041148
0.054239
0.257781
0.312661
0.323375
0.204646
-0.269860
0.335227
0.251343
-0.233970
0.565007
0.396442
0.119327
0.481245
-0.062457
-0.086101
-0.180464
-0.254292
0.009104
-0.315087
-0.045039
0.162314
0.565623
-0.093048
-0.047485
-0.062274
0.134574
0.359888
-0.299023
-0.030076
-0.068807
0.438367
-0.569564
-0.215547
-0.236527
-0.029716
0.107603
0.458134
-0.072105
-0.097077
0.025112
-0.017444
-0.254967
-0.016661
0.559499
-0.561638
-0.202912
-0.422878
0.147875
-0.052707
0.134133
0.084209
-0.199972
0.076703
-0.316905
-0.351538
0.041297
0.083768
-0.396991
-0.594496
0.189125
0.066043
-0.497209
-0.014715
-0.042469
0.201723
0.245199
-0.111796
-0.251169
-0.115561
-0.569054
-0.292160
-0.677986
-0.357048
0.067830
-0.278955
0.567018
0.211018
-0.415578
0.215847
0.253626
0.153708
0.156842
-0.028429
-0.043501
-0.531780
0.481081
0.317431
0.178549
-0.358366
0.097415
0.018404
-0.098112
-0.697046
-0.285636
-0.217768
0.601482
-0.114288
0.075510
0.046203
0.029443
0.025337
-0.020433
0.213282
-0.398241
-0.445946
0.024905
-0.045785
-0.035888
-0.519566
0.248383
0.136281
-0.199479
0.213697
-0.301997
0.124750
-0.279333
0.015434
0.014288
0.531087
-0.417449
0.212590
0.225179
0.091165
-0.198956
-0.101995
0.305283
-0.308075
-0.181504
-0.573533
0.389450
0.087258
0.208408
0.065184
0.226133
0.123921
0.360181
0.443992
0.060313
0.058371
-0.034115
-0.122424
0.170003
-0.431839
0.547121
0.139036
0.217371
0.455044
-0.103383
0.342116
-0.337391
-0.226124
-0.490369
0.287911
-0.552320
0.217601
0.060696
0.396887
0.053021
0.305632
-0.518949
-0.092392
-0.430154
0.250899
-0.386909
-0.026714
0.143502
-0.456684
0.375881
0.092862
-0.137058
0.223345
-0.815755
-0.148552
-0.176169
0.159316
-0.263187
0.090473
-0.273816
0.068304
0.232300
-0.175372
-0.089895
0.103037
-0.223809
-0.207977
-0.224021
0.098891
0.157762
0.120718
-0.143584
0.578198
-0.238373
-0.369052
0.131740
-0.685203
-0.023808
0.062865
-0.375638
0.307256
0.002236
0.192205
0.018410
-0.644872
-0.234999
0.239656
0.083235
-0.267336
0.365982
0.323590
0.187089
0.089061
-0.118162
-0.423800
0.077416
-0.186402
-0.112990
0.193187
-0.048149
-0.047708
-0.206326
-0.161294
-0.043910
-0.204731
-0.134758
-0.116023
-0.001489
-0.002839
-0.396143
-0.058676
-0.185962
-0.089448
-0.371719
-0.311479
-0.261604
-0.121365
0.081277
-0.386197
0.173095
0.387314
-0.081722
-0.129974
-0.654767
0.292830
0.227744
-0.068786
-0.061850
0.018604
-0.532079
-0.316519
0.508090
-0.303729
0.235101
0.097951
-0.032245
0.504791
-0.539101
-0.172510
-0.293590
0.155903
-0.058900
-0.152576
-0.026447
-0.332840
-0.503107
-0.015045
-0.670553
-0.023171
0.114046
-0.331030
-0.069950
0.060265
-0.398821
-0.319390
0.141639
-0.264105
-0.349771
0.037115
0.159066
0.354736
0.051985
-0.002158
-0.419198
-0.410622
-0.281162
-0.418193
-0.028734
0.108832
-0.167172
0.042241
-0.151098
-0.899389
0.071280
-0.212296
-0.137089
-0.199318
-0.179160
0.186917
-0.587632
-0.453467
0.044678
-0.419916
-0.291131
0.136832
-0.249023
0.208342
0.074430
-0.287827
-0.116194
0.482306
0.116688
-0.142605
-0.323790
0.083586
0.051647
0.114500
0.363786
0.239485
-0.428638
0.896655
-0.346749
0.053393
0.288228
0.243844
-0.066576
-0.242107
0.264885
0.148908
-0.073866
0.311055
0.124689
-0.006335
-0.181383
0.753012
0.218861
-0.331240
0.404534
-0.325603
0.205377
0.134065
-0.182019
0.271067
-0.367375
-0.542218
0.163305
0.110549
-0.171081
-0.203440
-0.410727
-0.635757
-0.470758
0.433547
-0.243523
-0.220072
-0.091464
0.474339
0.143021
0.284463
-0.097028
-0.051132
0.011059
-0.535806
-0.067457
-0.374742
-0.044770
-0.013647
-0.127651
-0.139389
-0.186065
-0.029194
0.131148
0.077136
-0.191134
0.031105
-0.208679
0.425751
-0.003858
0.257094
-0.057951
-0.180185
-0.028289
-0.033185
-0.244901
0.118420
-0.193579
0.200232
-0.344909
-0.191316
-0.270289
-0.426457
-0.272630
0.261543
-1.014614
-0.269253
-0.614801
-0.528183
-0.632446
-0.727278
0.256529
-0.088973
-0.570898
-0.352569
-0.404076
0.100622
-0.511176
-0.006462
0.142590
0.098162
0.000927
-0.202387
-0.541723
-0.047905
-0.607737
-0.505326
0.163295
0.181621
-0.022614
-0.271389
0.005541
-0.084753
0.275355
-0.082004
-0.423357
0.358106
-0.324542
-0.120837
-0.104990
-0.254819
-0.073761
-0.008090
-0.337538
0.271642
-0.404381
-0.200783
-0.319633
-0.124006
-0.035384
-0.497205
-0.471180
-0.547837
-0.195716
0.225562
0.300683
-0.226301
0.278738
0.023433
-0.586124
0.526430
-0.073108
0.368355
-0.021117
-0.121945
0.015217
-0.214768
-0.704271
-0.085651
0.033929
-0.117197
0.202214
0.064170
0.080422
0.307661
0.003746
-0.756032
0.108329
0.433012
0.239748
0.459683
0.517264
0.169779
-0.441974
-0.461652
-0.747794
-0.214385
-0.092471
-0.257619
0.110663
-0.815838
0.276535
0.232108
0.087706
-0.745119
0.084605
-0.078470
-0.187095
-0.587850
0.265829
-0.166174
0.600745
-0.150186
-0.337510
-0.387105
-0.117044
-0.655739
0.097783
-0.283252
-0.290409
0.199249
0.171865
0.448785
-0.061601
-0.067836
-0.200892
-0.322828
-0.251284
0.154094
-0.046432
-0.052909
0.226377
-0.411265
0.068188
-0.669872
-0.414085
-0.210020
0.320981
0.040170
0.210044
0.237248
-0.035759
-0.132858
-0.188391
-0.511936
-0.253850
0.324047
-0.061949
-0.163986
0.225689
-0.908619
0.133285
-0.089968
-0.047104
-0.132112
0.114350
-0.217063
-0.388110
-0.190241
0.036751
-0.177202
0.035747
0.472332
0.095245
0.153874
0.150644
-0.290231
-0.767833
0.099723
-0.573796
-0.092558
-0.114181
-0.142615
-0.294850
0.096336
0.049175
0.146938
0.412538
0.008456
0.080733
0.392935
-0.304938
-0.337391
0.308488
0.475595
0.046679
-0.481882
0.190586
-0.135017
-0.478786
0.351774
-0.265680
-0.266381
0.294214
-0.164230
0.470353
-0.313793
0.170308
0.230733
-0.447708
-0.370950
-0.084130
-0.085659
-0.249128
-0.976220
-0.468618
-0.483690
-0.142484
-0.279369
0.164374
-0.004139
-0.349595
0.030488
0.564104
0.273195
0.509855
0.327306
0.248648
-0.319161
0.353435
-0.537647
0.274670
0.150503
0.321415
-0.284425
0.192500
-0.543739
-0.064468
0.349678
-0.544448
0.089233
-0.917113
0.037959
-0.508340
-0.146569
-0.009822
0.381623
-0.149923
0.284646
-0.351802
-0.031785
0.048320
0.038018
-0.004683
-0.017818
0.379819
-0.005521
-0.372010
0.015985
-0.327109
0.124872
-0.527317
-0.127866
0.339179
0.166061
-0.053839
0.168218
-0.305811
0.465438
0.107917
0.066298
-0.479376
-0.146041
-0.251855
-0.142842
-0.479755
0.076799
-0.002891
0.486673
-0.272558
-0.002584
0.076707
-0.144377
-0.342425
-0.056379
0.012334
-0.336161
-0.041683
0.019621
-0.016979
0.072344
0.108500
0.158572
0.313449
-0.172585
-0.347322
-0.000018
-0.169983
0.209217
0.284550
0.200501
-0.251490
-0.053091
-0.055221
0.276415
-0.091438
-1.093043
-0.841988
0.145486
0.322322
-0.124683
-0.240541
-0.652621
-0.159604
-0.760461
-0.422237
0.155601
0.525248
0.391050
-0.349562
-0.140213
-0.469334
-0.237055
-0.908293
-0.128720
0.081817
-0.049972
0.325507
-0.699900
0.091447
-0.195827
0.414421
0.118398
0.411401
-0.133735
0.347059
-0.142256
-0.072336
0.274149
0.044948
0.188442
0.055643
-0.093746
0.016813
0.190903
0.122686
-0.327393
-0.060667
-0.441154
0.207847
0.106738
0.504841
0.274232
-0.170561
-0.188774
-0.334949
-0.088204
-0.263585
0.181957
0.136093
-0.087070
0.016387
0.120904
-0.155543
0.054785
0.288301
-0.067168
0.638062
0.250956
-0.025198
-0.074767
0.099301
-0.452719
0.022979
0.682945
-0.094870
0.120201
-0.622341
-0.070398
-0.446559
-0.340152
-0.007207
0.080389
-0.182953
-0.258503
-0.315105
0.210098
-0.473275
-0.686024
-0.367055
-0.017449
0.026617
-0.131565
0.020237
0.231070
-0.011931
-0.224713
-0.377613
-0.557368
0.072966
-0.935966
0.130918
0.052647
0.073541
-0.480846
0.118330
-0.477283
-0.641279
0.263695
-0.520271
-0.120683
-0.025129
0.144510
-0.125426
0.062036
0.339155
-0.092855
0.224930
0.462270
-0.205224
-0.097900
0.349128
-0.402640
-0.165083
-0.370721
0.292128
-0.187671
0.426234
0.318096
0.376945
-0.955144
-0.034011
-0.140901
0.002747
0.021127
-0.040423
0.029004
-0.032762
0.251586
0.158313
-0.353782
0.013700
-0.292856
-0.022733
0.044508
0.199441
0.037141
0.111754
0.518733
-0.422898
-0.233665
0.295165
0.301262
-0.072826
-0.530383
0.098189
-0.279129
-0.047800
-0.120577
0.429236
-0.122034
-0.382511
0.225115
-0.082071
-1.647631
-0.431460
-0.212338
-0.167587
-0.300001
0.210256
-0.526657
-0.009900
-0.352819
-0.259200
-0.034762
-0.094463
-0.227936
-0.396610
0.121506
-0.007065
0.092938
-0.700409
-0.581414
-0.213604
-0.527920
-0.219468
0.350691
-0.260930
0.044596
-0.071406
-0.138938
0.072481
0.145820
0.106960
-0.358694
-0.141467
-0.108718
-0.049728
0.441721
-0.515124
0.227616
-0.305897
-0.304587
0.057726
-0.178466
-0.200179
-0.401724
-0.253983
0.232731
0.031125
-0.290372
-0.283955
-0.507888
0.411603
0.168275
-0.598903
-0.433424
0.103110
0.299130
-0.159849
0.160163
-0.309462
0.003746
-0.333198
-0.021232
-0.227362
-0.040097
-0.578869
0.688988
-0.073377
0.031154
0.328498
-0.339342
-0.471202
0.030588
0.290183
-0.483826
-0.502817
-0.540664
0.688423
-0.243793
-0.242556
0.393067
-0.132450
-0.234907
0.097588
0.025570
-0.521244
-0.258987
0.144632
0.030111
0.066663
-0.585122
-0.063006
-0.013834
0.059707
-0.291734
-0.493531
0.074283
-0.261255
0.149707
-0.755698
0.056135
-0.341267
-0.081576
-0.032929
-0.060097
0.032554
0.315236
0.352359
0.121662
-0.357734
-0.930954
-0.369581
-0.258049
-0.091317
0.134136
-0.236573
-0.206364
0.443422
0.558463
-0.209971
0.086510
0.099099
-0.239964
-0.353408
-0.176079
0.127754
-0.081622
-0.370888
-0.156532
0.113795
-0.315864
0.219279
0.319418
-0.210486
-0.140451
-0.056454
-0.457489
-0.263717
0.387106
-0.080171
0.295494
0.295746
-0.097250
0.153363
0.244086
0.150015
-0.395335
-0.254020
0.453382
0.089948
-0.580775
-0.296700
0.713573
-0.281239
-0.362305
-0.121561
-0.441206
-0.398113
-0.176985
0.105003
0.465555
0.218536
0.042780
-0.000075
-0.026949
-0.369227
0.058358
-0.046756
-0.259500
-0.028215
0.264625
0.053336
-0.001870
0.217248
0.416363
-0.045667
-0.079000
-0.009086
-0.551998
0.234609
-0.180388
-0.033728
0.313999
-0.152627
0.067396
0.215138
0.275102
-0.143411
0.079926
0.084300
-0.240326
-0.698018
0.106098
-0.298533
0.284623
-0.340358
-0.266590
-0.326964
-0.065386
0.033338
0.092553
0.188704
-0.164453
0.072353
0.160383
-0.063919
0.026742
-0.154517
0.192377
0.162663
-0.010099
0.055731
-0.194805
0.416017
-0.165741
-0.027740
-0.133795
-0.257940
-0.709795
0.225342
0.281574
0.142456
-0.346910
-0.163061
0.216303
-0.217062
-0.477603
-0.082439
-0.473029
-0.300822
0.215135
0.167348
0.177084
-0.431644
-0.188118
-0.121326
0.145319
0.037751
-0.168522
0.099757
0.073834
0.344314
-0.036483
0.793103
-0.194692
-0.176993
-0.367886
0.496155
-0.041129
-0.706267
-0.055157
0.148142
-0.165525
-0.481809
0.061297
0.071635
0.272396
0.027727
-0.350648
-0.299714
0.090114
-0.100510
0.167232
0.077108
-1.048893
-0.308481
0.048648
-0.248686
-0.407259
0.126004
0.122949
0.042007
-0.183332
0.288558
0.293744
-0.010109
-0.006489
-0.183284
0.257105
0.649985
-0.082577
0.264573
0.248289
0.042990
0.140592
-0.180668
-0.372292
0.051166
0.406453
-0.428536
0.368158
-0.271935
-0.349036
0.568161
0.287592
-0.225241
-0.417941
0.275287
-0.047367
0.283463
0.089636
0.159481
-0.234245
0.032149
-0.183995
0.127544
-0.051076
0.482703
-0.870595
-0.343925
0.168922
0.203681
0.107647
-0.240806
-0.209442
-0.203931
-0.720217
0.321277
0.303817
0.213168
-0.078374
-0.444469
0.111484
0.345317
0.397433
-0.035909
0.391696
-0.437483
0.088977
0.248866
-0.343461
0.048894
0.160166
0.043127
0.056210
-0.215338
-0.209020
-0.789316
-1.020398
0.001215
-0.122347
0.113750
-0.481513
0.338980
0.121776
0.105943
0.084798
-0.167830
0.046476
-0.014147
0.132107
-0.325412
0.807078
-0.307610
0.108389
-0.064125
-1.023471
-0.241292
-0.005203
-0.193572
0.063800
0.029418
-0.254531
-0.046316
0.784170
0.083970
0.142711
-0.418479
0.461829
0.558618
-0.474063
-0.297446
0.382211
-0.434161
-0.179476
-0.737248
-0.022642
-0.476011
0.221183
-0.537159
-0.044368
-0.603951
0.197954
-0.531771
0.218534
0.198245
0.163035
0.030862
0.112481
0.030824
-0.143076
0.187935
-0.644837
0.023991
-0.164789
0.234375
0.174367
0.490876
-0.041476
0.035064
-0.079418
-0.223077
-0.472448
-0.044491
0.089143
-0.135989
0.022176
-0.296189
0.252447
0.171186
-0.124856
0.237479
0.167024
0.200287
-0.777415
-0.032134
0.026490
0.052248
-0.342008
-0.064612
0.176151
-0.495212
0.239952
-0.142286
0.152525
-0.205608
0.224139
0.043149
0.393047
-0.106347
0.344151
-0.072870
0.214260
-0.534042
0.312785
-0.238590
-0.592103
-0.195311
0.207360
-0.017567
0.289268
0.084078
-0.718118
0.346344
-0.219624
-0.304536
-0.198281
0.408060
0.248698
-0.096662
-0.669218
0.129097
0.263515
-0.275954
-0.136114
-0.104278
-0.173345
0.364365
-0.080101
-0.362097
-0.045056
-0.032254
-0.608153
0.037899
-0.487224
-0.645063
-0.002148
-0.048455
0.390473
-0.709325
-0.149559
0.183102
0.456647
0.189486
-0.027606
0.395848
0.347193
-0.457849
-0.323412
-0.191950
-0.638667
0.390313
-0.201292
-0.694263
-0.111721
0.252761
-0.859870
0.238277
0.057561
-0.138994
-0.029333
-0.108063
0.060160
0.147577
-0.231484
0.270694
0.061580
0.212571
0.081233
-0.878567
0.312942
-0.285982
0.150291
-0.576533
-0.693104
-0.395350
-0.095290
-0.155367
-0.057496
-0.462407
-0.280773
0.119274
0.481903
-0.584942
-0.016265
0.294602
0.001943
-0.084361
0.410946
-0.110593
-0.569243
0.016661
-0.380189
0.146308
0.027681
-0.022779
0.054846
0.635688
0.228582
-0.165153
0.063422
0.084114
-0.025765
-0.020102
-0.452519
0.257682
0.140457
-0.589087
0.308736
-0.019214
-0.438756
-0.139499
0.032546
0.641972
-0.240591
0.216391
-0.038234
-0.105467
0.409203
0.200057
-0.085223
0.146473
0.088471
0.204216
0.435795
-0.077345
-0.280655
-0.264153
0.232308
-0.111412
-0.681954
-0.143366
-0.063344
0.232963
0.258317
-0.306390
-0.169398
0.038314
0.041088
-0.145426
0.235177
-0.264580
-0.636280
-0.018650
-0.821575
-0.214982
0.452293
-0.314291
0.058759
0.410617
0.452737
0.243694
0.076764
0.183183
-0.005290
-0.541628
-0.206898
-0.380281
-0.149787
0.202948
-0.435821
-0.127923
0.039039
-0.121322
0.300825
-0.247127
-0.037672
-0.350563
0.047546
0.320246
-0.341974
0.094144
0.296615
-0.429356
0.083738
-0.294556
-0.114015
-0.675436
-0.672444
-0.177709
-0.143630
-0.292031
-0.541304
-0.075778
0.147177
-0.339418
0.158878
-0.538548
0.002119
0.183954
0.141240
-0.732843
-0.141906
0.286086
-0.095874
-0.228481
0.577046
0.319239
-0.356547
-0.164490
0.222337
-0.011030
-0.337148
-0.011979
-0.375304
-0.387588
0.075151
-0.070632
-0.444804
-0.253894
0.076138
-0.034361
-0.075220
-0.108079
0.283088
-0.311633
0.096551
0.165716
-0.367151
0.172222
0.455220
-0.600899
0.292587
-0.140030
-0.179595
-0.066194
0.107094
0.061235
-0.191051
-0.029639
0.148474
-0.367114
-0.112278
0.141955
0.286864
-0.241117
0.351810
0.204699
0.193108
-0.216376
-0.158217
0.027988
-0.056964
-0.377981
-0.487924
-0.194597
-0.054467
-0.240380
0.019782
0.284690
-0.192867
0.152046
0.341065
-0.333495
-0.186776
-0.629107
-0.028885
-0.005059
-0.569888
0.387333
-0.375048
0.503022
-0.444631
-0.378124
-0.068115
0.207354
0.058383
0.044797
-0.290543
-0.442469
0.296026
-0.270979
0.122856
0.209235
-0.173620
-0.356526
0.084680
-0.885497
0.286990
-0.212358
-0.134245
-0.137808
0.101898
0.372016
-0.096059
0.017550
0.420638
-0.009129
-0.145891
-0.062144
-0.053104
0.281921
-0.492218
-0.411806
0.348594
0.053562
0.162349
-0.022618
0.137543
0.586495
-0.231290
0.181216
-0.163929
-0.314081
0.054635
-0.279451
0.268604
-0.369208
0.250315
-0.266628
-1.047375
-0.021694
-0.456996
-0.146925
0.139694
0.005742
0.181389
0.076173
0.433851
-0.068568
-0.191362
-0.488289
-0.105684
0.540960
0.176640
-0.605627
0.056952
-0.479658
0.097028
-0.046256
0.141495
-0.044272
0.132058
0.137232
0.159673
0.005885
0.518752
-0.473232
0.377011
0.017599
0.899121
-0.189019
0.165645
-0.018177
-0.087273
0.012676
0.125455
-0.015363
0.100872
0.040455
0.197529
-0.002070
-0.346503
-0.080579
0.078551
0.028519
-0.456442
-0.276542
-0.166731
0.524276
-0.122417
-0.227424
0.384632
-0.026184
-0.024086
0.186514
-0.221997
-0.116201
-0.117163
0.199703
0.143485
-0.524773
0.093175
-0.065567
-0.202486
-1.195459
0.202129
-0.372134
-0.702460
-0.042954
0.446373
-0.197100
-0.301401
-0.618049
0.203521
0.091513
-0.390234
-0.134684
0.301408
-0.353415
-0.452545
0.185914
0.030050
-0.228616
-0.134160
-0.571479
-0.555882
-0.465148
-0.095766
-0.255488
0.072886
-0.340168
-0.925019
-0.276023
0.059622
0.156819
-0.414281
0.703084
-0.016953
-0.379195
-0.121837
-0.036331
-0.079009
-0.229974
-0.679428
0.174935
-0.199656
-0.114703
0.075294
-0.327386
-0.071725
0.073191
-0.166647
-0.045024
0.328791
0.178872
-0.271078
0.360651
-0.845008
0.060571
0.149488
-0.112337
0.420633
0.226741
-0.291825
-0.293804
-0.754514
0.530781
-0.029422
-0.190733
0.273944
-0.010638
0.130187
-0.290436
-0.042057
-0.544706
-0.167039
-0.019940
-0.184635
0.023302
0.201350
-0.123986
-0.010766
0.426361
-0.019209
-0.374910
0.126404
-0.234970
-0.348379
-0.159076
-0.648465
-0.559496
-0.287052
-0.376447
0.229845
0.611158
0.307792
-0.122759
-0.088607
0.133814
-0.793592
-0.175484
-0.364851
-0.073818
0.636427
-0.161585
-0.359294
0.069889
0.003550
0.058043
-0.037998
-0.319140
-0.247022
-0.092419
-0.733206
0.455302
0.234745
-0.050907
-0.071927
0.354056
-0.389779
-0.111831
0.179096
-0.328239
-0.234471
-0.730046
0.082908
0.127399
-0.388749
-0.000243
0.296961
0.222228
0.085225
-0.136537
-0.266606
0.070306
-0.522046
-0.183268
0.100414
-0.219683
-0.804304
0.220355
-0.319895
0.146365
0.231863
0.177545
-0.088332
0.654679
0.065681
0.226483
-0.373644
0.375062
-0.059930
0.062040
0.307003
0.065231
0.401559
0.091117
0.329143
-0.009183
0.187373
0.008155
-0.612352
0.019148
0.109130
-0.023281
0.359821
-0.349316
-0.386541
0.263512
-0.027196
0.275726
-0.254859
0.088252
-0.533352
-0.291258
-0.003481
-0.277015
-0.134239
-0.234070
-0.337897
0.257299
0.022197
-0.017042
-0.453613
-0.134282
-0.111630
-0.134229
0.279216
0.168063
-0.486481
-0.689650
-0.242663
-0.403626
-0.175294
0.111374
-0.656347
-0.154166
-0.046313
0.234051
0.348717
-0.221525
0.059541
-0.076533
-0.278094
0.146686
-0.144670
0.020246
0.294347
0.761922
-0.094041
-0.208428
-0.014686
-0.560899
-0.975757
-0.010692
-0.548838
-0.312794
-0.005995
-0.074150
-0.303933
-0.299226
-0.180389
-0.428981
0.322488
-0.261623
0.027981
-0.075204
-0.374230
-0.234738
-0.377354
0.121014
0.520138
-0.120124
-0.418908
0.428669
-0.376665
-0.156397
-0.484335
-0.159104
-0.239691
-0.559416
-0.154032
-0.664212
-0.395121
-0.162052
0.259360
-0.229139
-0.555107
-0.035418
-0.500709
-0.215272
0.270667
0.021857
0.021965
-0.270379
-0.147076
0.502235
-0.242752
-0.187436
-0.608798
0.303823
-0.424280
-0.058889
0.477075
0.061594
-0.205941
0.003663
-0.138390
0.120121
-0.121346
0.214105
0.057105
-0.190247
-0.160324
-0.421623
0.216003
-0.016862
-0.082579
0.135054
0.080865
-0.250378
0.281809
-0.258015
0.097491
-0.311735
0.390209
-0.049160
-0.053232
0.390660
-0.762908
0.559668
-0.065693
-0.027950
-0.153121
-0.348342
0.383762
0.102265
0.181998
-0.288485
-0.726941
0.169597
0.506702
-0.238369
0.074879
-0.026568
-0.955942
0.303364
-0.180915
-0.159163
0.094172
0.104591
0.182456
-0.618812
-0.254467
0.157899
-0.034176
-0.556013
0.052281
0.036125
-0.273472
-0.202773
-0.244208
-0.651133
-0.002299
-0.106501
-0.198995
0.137593
0.280178
-0.240801
0.060682
-0.199765
0.757647
0.017467
0.162653
-0.320519
-0.117876
0.062721
-0.597176
0.776428
0.195206
-0.507781
0.407199
0.289622
0.381442
0.088583
-0.387512
-0.331861
0.131142
-0.178991
0.171604
-0.896343
0.573366
-0.139973
-0.201569
-0.081445
0.439494
0.305330
-0.055971
-0.066174
-0.124071
-0.205071
-0.047597
-0.232121
-0.245037
0.174370
0.201800
-0.623925
-0.259941
-0.246376
-0.405809
0.152648
-0.633137
-0.713377
-0.258032
-0.021533
-0.087084
0.515896
0.249609
-0.523454
0.483809
0.268084
-0.406637
-0.455649
0.136240
-0.572902
-0.211303
-0.047532
-0.076584
-0.059749
0.108031
0.072939
0.388908
0.035452
-0.346493
-0.304614
0.308576
-0.358667
-0.321052
-0.111701
0.286415
-0.039023
-0.683025
0.280726
0.250436
0.222472
-0.080535
0.216188
0.186420
0.154471
0.013796
-0.155191
-0.212641
-0.163552
0.401151
-0.259013
0.157808
0.078779
0.308427
0.430575
-0.532810
-0.771886
0.362537
0.263656
-0.271250
-0.580218
0.309207
-0.188227
0.019134
-0.363285
0.020742
-0.079180
0.282650
0.174424
-0.285885
0.238299
-0.606414
0.286065
-0.259996
-0.186745
-0.413183
-0.042316
-0.051191
0.530701
0.210490
0.269421
0.055223
-0.057369
-0.104171
0.378287
-0.256931
-0.516625
0.073438
-0.134239
0.399358
-0.105463
0.162474
0.026757
-0.048789
0.379850
0.103485
-0.283617
0.375634
-0.409794
0.244557
-0.246707
-0.255996
0.393990
-0.042130
-0.530525
-0.582223
0.224233
0.204812
0.047555
-0.255552
0.194182
-0.160638
0.249751
0.059317
0.539862
0.035964
-0.396778
1.108902
0.148066
-0.674001
0.108768
-0.013435
0.005469
-0.124022
-0.159180
-0.180649
-0.144675
-0.243106
-0.021609
-0.754555
-0.146660
0.014910
0.238816
-0.045143
0.049169
0.080915
-0.137408
0.044046
-0.095855
-0.433674
-0.217390
-0.449477
0.313983
0.130228
-0.032837
0.214178
0.233821
-0.425946
-0.437763
0.316223
-0.169632
0.171808
0.102761
-0.215917
0.091190
0.439000
0.019398
0.293870
-0.344590
-0.116128
0.314500
-0.144935
0.325212
0.030896
0.054653
-0.064289
0.158857
-0.110050
-0.054769
0.035422
0.300144
0.049835
-0.035427
-0.149659
0.066323
-0.216722
0.389332
-0.221731
-0.339955
0.586762
0.329882
0.669429
0.147212
-0.345230
0.313922
-0.122702
-0.186295
-0.395829
0.186376
-0.101056
0.049218
-0.409721
-0.242700
0.279897
0.057628
-0.332751
0.085546
0.469917
-0.153121
-0.236008
-0.122199
-0.279346
0.272126
0.309467
-0.464949
0.289675
-0.618358
-0.304615
-0.351795
-0.536431
-0.270364
0.190185
-0.097971
0.098751
0.038760
0.352066
0.032179
0.197900
0.096046
0.158090
-0.252804
0.159776
0.223878
0.303230
0.072359
0.079832
0.239493
-0.360320
0.557085
0.136987
-0.074045
0.143386
0.096075
-0.454096
0.191601
-0.358143
-0.107356
0.084555
-0.388542
-0.013070
-0.102342
-0.392621
-0.789248
0.607938
0.209898
0.342456
0.234003
0.081909
0.096445
-0.254594
-0.065358
0.109061
0.031764
0.000713
-0.048263
0.211573
-0.253934
0.341765
0.004648
-0.408059
0.280623
-0.022874
0.611973
0.183720
-0.033197
-0.051561
-0.354461
-0.662116
0.101837
-0.009644
0.497964
-0.232163
-0.244774
-0.323759
-0.252341
-0.126855
-0.217732
-0.045612
-0.003707
0.038932
-0.435996
0.250503
-0.349354
0.100646
-0.057030
-0.266626
-0.375502
-0.444578
-0.214304
0.326190
-0.009685
0.171799
0.251131
-0.575992
-0.013405
-0.579173
-0.392479
0.057929
0.273232
0.155057
-0.205111
-0.831697
-0.010788
0.059891
0.004793
-0.281735
-0.237898
0.222546
-0.114763
-0.218034
0.326202
-0.013734
-0.213055
-0.161659
0.506818
0.084329
0.082222
0.056196
0.222837
0.207765
-0.320041
-0.362909
-0.155322
0.057570
0.095627
0.441650
-0.104482
-0.290093
0.276468
0.291710
-0.664881
0.017347
-0.130528
0.509477
0.435342
0.086324
-0.370659
0.094112
0.258750
0.068315
0.094292
0.132362
0.098980
0.206183
0.162077
-0.653099
0.018001
0.526664
0.224690
-0.097381
0.514454
-0.029370
0.297507
-0.015460
-0.066921
-0.233590
-0.509822
0.415515
-0.271886
0.340400
-0.233968
0.294614
0.190808
0.208973
-0.001231
0.035822
-0.221969
-0.006599
0.223295
0.077737
0.260078
-0.037634
-0.369083
-0.458119
0.029717
-0.355855
-0.142277
0.250381
0.212294
-0.330864
0.077016
-0.304155
0.344939
0.072848
0.269946
0.174971
-0.215446
0.043502
0.316895
0.186902
-0.100926
-0.145211
-0.031930
0.427658
0.118684
-0.099573
-0.975501
-0.079443
-0.372577
-0.004508
-0.030566
-0.374790
0.317839
-0.099494
0.171603
0.335818
-0.349492
-0.078237
-0.059682
0.023266
0.013079
-0.014343
-0.653367
-0.200879
0.102069
-0.065335
-0.030001
-1.039519
-0.045134
-0.088167
-0.160650
-0.317166
0.453296
-0.068055
-0.177366
-0.146285
-0.270704
0.050186
-0.081275
-0.294005
-0.050132
-0.065127
-0.198677
0.273778
-0.181812
-0.206154
-0.091750
-0.126252
-0.067295
-0.423899
0.232098
-0.285655
-0.189632
-0.216964
-0.034529
0.207236
0.039104
-0.921544
-0.206417
-0.288472
0.049185
0.243098
0.302823
-0.173956
0.084813
-0.180717
0.481099
-0.500554
0.564922
-0.192719
-0.169514
0.077189
-0.856250
0.162771
0.127282
0.049339
0.283916
-0.159589
-0.273840
-0.202815
0.309591
-0.262919
0.303064
-0.046860
0.359403
-0.017172
-0.432168
-0.162421
0.206897
0.504092
-0.485000
-0.136484
0.138359
-0.478297
-0.093069
0.023367
0.098147
-0.254209
-0.514991
0.175533
0.184650
0.325974
-0.247569
-0.105637
-0.265169
0.036536
0.108097
-0.030075
-0.191986
-0.275633
0.117323
0.077764
0.338294
-0.628467
0.124902
0.095152
-0.112129
0.500780
-0.079027
-0.210378
-0.297599
0.042662
0.070589
-1.099363
-0.190026
0.015522
-0.124165
0.419148
-0.065706
-0.695913
-0.482723
-0.516029
0.053994
-0.127419
0.007994
-0.192093
0.344769
-0.304556
-0.073121
0.160331
-0.178518
-0.280889
0.226174
-0.095196
-0.959537
0.463604
0.041704
-0.424592
0.366326
-0.037315
-0.660843
-0.016452
-0.165949
-0.178152
0.103149
-0.311468
0.127925
-0.341355
0.045779
-0.176478
0.143512
0.487510
-0.825436
-0.558773
-0.428047
-0.047231
0.166703
-0.372004
0.085686
-0.243201
0.256681
-0.387302
-0.040170
-0.209444
0.155719
-0.363116
-0.201487
-0.112270
-0.323404
-0.337788
0.240611
-0.402522
-0.206329
-0.446853
0.052056
-0.325464
-0.073395
-0.123954
-0.319120
-0.092907
0.312634
0.089724
-0.000081
-0.143690
0.375296
-0.213627
0.180214
0.482575
0.297392
0.116534
-0.122157
0.105499
0.214531
0.186464
0.039203
-0.127012
-0.223692
0.338878
-0.195024
0.206734
-0.400783
-0.079482
0.233493
0.059797
0.144186
-0.448606
-0.193450
-0.118401
-0.441586
0.478708
0.341619
-0.287598
0.058986
0.220680
-0.505035
0.124108
-0.245485
0.481093
0.369320
0.069431
-0.281429
-0.272395
-0.234124
-0.143599
0.002172
-0.343290
0.103912
-0.093344
0.736194
-1.406321
-0.024262
-0.219101
-0.546405
0.215521
-0.067613
0.268379
-0.005086
0.012629
0.105966
-0.428301
-0.167186
-0.539036
0.063562
0.644280
-0.247024
0.211237
0.057040
0.288402
-0.248427
0.062813
0.268231
0.250761
0.244801
-0.287421
-0.031976
-0.042237
-0.295478
-0.369397
-0.749533
-0.548022
-0.332296
0.156670
-0.274593
0.145246
0.454593
-0.150154
0.066809
-0.038644
-0.229011
0.084054
0.307649
-0.265008
0.194149
-0.107440
-0.062931
-0.110436
-0.280835
-0.160019
-0.530049
-0.085041
0.037593
0.116883
0.399796
0.036035
0.138306
-0.129457
0.270052
0.007082
-0.312700
-0.210009
0.268499
-0.103043
-0.030678
-0.109289
-0.583411
-0.579120
0.081297
0.207602
0.219552
-0.081528
-0.604342
-0.267773
-0.491587
-0.683927
0.051779
0.236630
-0.002825
0.207445
-0.240397
-0.172006
-0.036665
0.347646
0.521956
-0.183600
0.065097
-0.197062
-0.067904
-0.482162
0.068941
0.120556
-0.258321
-0.378293
0.163353
0.226534
-0.063522
-0.316675
-0.096967
0.311934
0.381518
-0.013759
0.201656
-0.172948
-0.070737
0.284148
-0.487505
-0.008201
-0.126613
-0.072296
0.662546
0.131333
-0.294172
0.375861
0.184533
-0.056217
-0.223747
0.385308
-0.187732
-0.304650
-0.188920
0.086495
-0.190731
-0.113656
0.290561
-0.294534
-0.035449
-0.300537
-0.405279
0.535681
-0.230511
-0.329477
0.334670
0.039738
0.032464
0.159630
0.246555
-0.025962
-0.189090
-0.158384
-0.071723
0.618642
0.077839
-0.150568
-0.227465
0.038433
0.038327
0.154815
-0.401421
-0.021815
0.275798
0.093656
-0.655039
-0.420660
0.056847
0.573552
-0.407349
-0.069413
0.456990
0.607384
-0.316524
-0.168761
0.004184
-0.191044
-0.030306
0.414367
-0.163536
0.408008
0.371646
-0.034888
0.104870
0.003852
-0.210373
0.422101
-0.055016
-0.367682
-1.009335
-0.217585
0.073158
-0.206290
-0.258941
-0.388652
0.079255
0.213998
0.017535
-0.132811
0.024200
-0.539155
-0.202993
0.182562
-0.153789
-0.066695
-0.022218
-0.691579
0.306866
-0.174071
-0.129092
-0.230826
-0.291894
-0.201826
0.269779
0.329990
-0.245122
0.021401
-0.232464
-0.814590
0.116788
-0.146601
0.146450
0.253775
-0.122197
-0.236200
-0.262366
0.000099
0.003885
0.040779
-0.083988
0.468942
0.372241
-0.176488
0.083501
-0.297647
0.051362
-0.014502
0.024479
0.404349
-0.359010
-0.575773
-0.069286
-0.676192
-0.416944
0.447146
-0.319354
0.108889
0.191968
-0.071650
0.348381
-0.336372
-0.484920
-0.074893
0.228469
0.381490
-0.880378
-0.582655
-1.138526
-0.331226
0.198092
0.106960
0.170950
-0.075997
0.429371
0.122373
-0.136044
0.470702
-0.109550
0.197176
-0.611818
-0.055120
-0.067279
-0.034926
-0.149101
0.190368
-0.231713
0.086819
-0.083582
0.173656
0.033551
-0.242304
0.034090
0.008248
-0.261290
0.409525
0.161190
0.200648
0.458596
-0.012098
0.237296
0.312331
-0.221327
0.143969
-0.466290
-0.282757
0.535432
-0.232098
-0.140216
-0.118694
0.292044
-0.141209
-0.228953
-0.024833
-0.047091
-0.808155
-0.712957
0.267982
0.088673
0.575454
-0.100005
0.163176
0.088170
0.035133
-0.054920
0.186638
-0.008656
-0.487220
0.570242
0.495453
-0.473320
-0.257647
-0.035602
-0.031733
0.100998
-0.002473
-0.370338
-0.373783
-0.643948
-0.355485
-0.123751
0.240274
0.000813
0.001151
0.077696
-0.291268
0.137659
-0.806047
-0.068074
-0.378752
0.231289
0.336857
0.086658
0.281147
-0.037060
0.586240
-0.565799
-0.194061
-0.411282
0.123538
-0.156561
0.105563
0.443921
-0.572039
-0.320117
0.059152
-0.446876
-0.132172
0.314103
-0.303369
0.061385
0.037653
0.205562
0.175828
0.183328
-0.616581
0.594203
-0.007452
0.292330
-0.053500
-0.088128
-0.031752
-0.158364
-0.106024
-0.178523
-0.305112
-0.211216
-0.659339
-0.185444
-0.288370
0.163113
-0.097612
-0.111542
0.490501
-0.427591
0.183473
0.207317
-0.373203
0.403837
0.180484
0.125295
-0.271844
0.212177
-0.038122
-0.277539
-0.201618
-0.133514
-0.325250
-0.441965
-0.223293
-0.124746
-0.560025
-0.257112
-0.496006
0.132091
0.297682
-0.048395
-0.101954
-0.078313
-0.265758
0.009703
-0.634627
0.242315
0.180674
0.011796
-0.116568
-0.102887
0.021823
-0.065051
0.334636
0.061879
-0.058072
0.301327
-0.110498
-0.156757
0.336191
-0.090958
0.202022
0.409759
0.499168
-0.078792
0.220587
0.203432
0.269872
-0.463368
0.190165
0.261249
-0.068979
-0.043368
0.005850
0.104342
-0.047134
-0.067481
-0.351922
-0.188964
-0.340335
0.334217
0.082282
0.666505
0.036503
-0.060192
-0.960381
-0.036182
-0.033863
0.227429
0.436428
-0.164936
-0.504101
-0.283736
-0.220638
-0.042793
0.043175
-0.237092
-0.562864
-0.925789
-0.093977
0.276254
0.228618
0.384897
0.051203
0.151261
0.281988
-0.073457
0.241358
-0.070738
-0.304335
0.164984
0.190068
0.099635
0.087715
-0.013997
0.237085
-0.112918
-1.084107
0.091560
-0.084576
0.291918
0.167978
-1.029939
0.082138
-0.475790
-0.411824
0.109178
0.441923
0.101439
0.231240
-0.227674
-0.492544
-0.011670
-0.579473
-0.165987
0.142375
0.216353
0.292622
0.080564
-0.474676
-0.401024
0.206884
-0.180169
0.127621
0.150247
-0.476580
-0.646411
-0.232027
-0.374527
-0.001613
0.220609
0.092588
0.190400
-0.017192
-0.483861
-0.121563
-0.070236
0.060833
0.125566
0.098333
0.073518
0.633826
-0.043083
0.009284
0.244774
-0.138462
-0.028237
-0.013880
-0.318469
0.014684
-0.091524
-0.143100
0.176368
-0.693892
0.172502
0.467824
0.029367
0.160329
-0.021972
-0.439224
-0.465373
0.074027
0.037578
-0.184009
0.430384
-0.501102
-0.273580
-0.428862
0.196286
0.007865
-0.478087
-0.384761
-0.005950
-0.281419
-0.111499
-0.564646
-0.087530
-0.112235
-0.222718
0.323554
-0.413047
0.020858
0.361185
0.010401
-0.274882
-0.052301
0.123490
-0.700535
-0.096949
-0.396491
-0.483424
-0.091005
-0.432500
-0.387492
-0.632594
-0.142078
0.263565
-0.400395
0.028946
0.395551
-0.193530
-0.033694
-0.012971
0.079608
-0.321447
-0.462450
0.092333
-0.858760
0.083252
-0.596608
-0.114691
-0.417927
-0.050532
0.165810
0.115921
0.043047
0.176365
-0.359233
-0.033764
0.539899
0.239694
-0.512216
0.040444
0.069683
-0.029057
-0.293866
0.357957
-0.038375
0.051650
-0.616510
0.270153
-0.306733
-0.179688
-0.065527
0.203219
0.071454
-0.147989
-0.324232
-0.508738
0.119125
0.483801
-0.509998
-0.214910
0.052267
0.002167
-0.230791
-0.184863
-0.800077
-0.339295
0.075442
0.510740
-0.518496
-0.161039
0.196736
-0.834597
0.194099
0.594737
0.039182
0.188822
0.080588
0.055268
0.109341
-0.174867
-0.146759
-0.511506
-0.086437
0.400373
0.171206
0.546634
-1.677621
0.109882
-0.074032
-0.346447
0.024300
-0.074640
0.257984
0.003173
0.304886
0.077290
0.154530
-0.314820
-1.023290
0.035947
-0.075919
0.334464
0.409707
-0.055662
0.016863
-0.296285
-0.244976
0.222611
0.297439
0.503860
-0.362056
-0.272355
-0.172932
0.249472
0.496562
0.295373
-0.143909
0.016570
0.178146
0.024261
-0.620460
0.072340
0.369186
-0.313794
0.123438
-0.735057
-0.097114
-0.390854
-0.503876
0.326905
-0.521349
-0.199939
-0.011501
-0.438188
-0.559168
0.161335
-0.231468
-0.466390
-0.269915
-0.268025
0.181311
0.066513
-0.129064
-0.240391
-0.048016
0.006314
-0.449754
-0.049266
0.041025
0.161323
-0.299488
-0.180151
0.414483
-0.500742
-0.140971
-0.381775
-0.045028
-0.012325
-0.143554
-0.522812
0.076878
0.027979
0.396464
-0.238314
-0.429754
-0.072485
-0.203133
0.443156
-0.048204
0.126136
-0.006428
-0.456564
-0.063616
-0.154767
-0.088745
0.267627
-0.091223
-0.039353
-0.248797
-0.128649
0.223488
0.091342
0.033901
0.053738
0.397609
-0.098252
-0.158721
0.146125
0.015911
-0.127298
0.456341
0.414044
0.128901
0.136720
-0.246529
-0.017557
-0.240528
0.105133
0.224346
-0.451713
0.152087
0.049686
-0.317917
-0.746949
-0.036249
-0.356300
-0.113486
0.204306
-0.172866
-0.736284
0.175072
-0.070958
0.059938
0.081794
-0.590552
-0.151416
0.414826
0.206110
-0.021521
0.093419
-0.540232
-0.103508
-0.356481
-0.011259
0.318680
-0.103416
-0.043159
-0.148792
0.039212
0.114682
0.202568
0.606665
-0.762049
0.201060
-0.490802
0.208169
0.120467
-0.507305
0.174545
0.433500
-0.384798
-0.269933
0.143345
-0.104247
-0.257090
0.060623
0.263462
0.115706
0.157301
-0.580863
-0.358649
-0.124116
0.049076
-0.205276
0.182306
-0.023414
0.201367
-0.616761
0.046562
0.068642
0.149769
0.587893
0.052233
-0.096152
-0.250811
0.298831
-0.255949
-0.264279
0.233413
0.043242
-0.222323
-0.269641
-0.042841
-0.097118
-0.235637
-0.137715
-0.078202
-0.171756
-0.382060
-0.064249
0.175512
0.126409
-0.186725
0.247439
-0.128235
-0.177624
-0.362520
0.041160
0.092050
-0.352739
-0.853069
-1.056982
-0.011647
0.175514
0.465742
-0.486158
0.219588
-0.223176
0.040735
0.232771
-0.254487
0.039466
0.286003
0.105134
-0.072906
-0.028067
0.438307
0.243602
0.151333
0.225300
-0.096111
-0.332586
0.170410
-0.042521
-0.084071
-0.156820
-0.199128
0.430204
0.238583
-0.291166
0.251838
-0.151980
0.056316
-0.379025
-0.025183
-0.174055
0.135500
-0.466824
0.229280
-0.141067
-0.295570
-0.358545
-0.276552
-0.111235
0.223870
-0.019526
0.027279
-0.151120
-0.318546
-0.035654
0.027096
0.238822
-0.619770
-0.566228
0.375479
-0.138846
0.075678
-0.316871
-0.015486
-0.128219
0.060467
-0.045186
0.106674
0.094976
-0.182961
-0.390824
0.001603
0.528410
-0.125475
0.803194
-0.009073
0.153356
-0.215213
-0.133618
0.517801
0.212547
0.323250
-0.040555
0.277104
0.173042
-0.150442
0.115100
0.264533
0.025768
0.095219
0.235170
-0.018378
0.102095
-0.837500
-0.362779
-0.021932
0.174256
0.091570
-0.177458
-0.047247
0.023534
-0.244573
0.001147
0.310064
-0.374698
-0.793572
-0.014489
-0.292305
-0.281336
0.024432
0.044754
-0.023274
0.159030
0.194743
-0.734192
0.148081
-0.094943
0.303700
-0.252548
0.000566
-0.283105
-0.013406
-0.167984
-0.039486
-0.588531
0.043780
-0.282675
0.097861
-0.013616
-0.203925
0.678087
-0.078655
-0.748211
-0.089014
-0.259351
0.094525
-0.484629
0.016422
-0.048620
-0.152214
-0.141169
-0.625585
-0.508458
-0.114991
-0.163493
-0.091019
-0.240862
0.149365
0.056379
0.160057
0.171424
-0.125499
0.021797
0.124049
0.379220
0.140534
-0.485193
-0.158749
0.311534
-0.382814
0.413440
-0.270007
0.359891
-0.086644
-0.098402
0.439552
0.534102
-0.046551
-0.287229
-0.199405
-0.004372
-0.714133
-0.078202
0.024694
-0.734394
0.205985
-0.326282
-0.044119
0.048893
-0.024719
-0.547402
0.473450
0.077136
0.089269
0.044103
-0.094214
0.045039
0.200282
-0.079111
-0.011580
-0.051765
0.326868
-0.208156
-0.421234
-0.069098
0.035640
0.060025
-0.496055
-0.162034
-0.552983
0.770281
-0.249343
0.138332
-0.179900
0.131851
0.354055
-0.343125
-0.000463
-0.054665
-1.095125
-0.413611
0.036206
-0.349742
0.112151
-0.101021
-0.231327
0.145096
-0.445410
-0.054984
-0.086960
0.120167
-0.195249
0.204079
0.366006
-0.473700
-0.286596
0.207713
-0.047693
0.059656
-0.023859
-0.005213
-0.547735
-0.039174
-0.310253
0.278918
0.427792
-0.126717
-0.519895
-0.468283
0.029641
-0.254499
-0.091313
0.000885
0.204312
0.656027
-0.707729
-0.266826
-0.376387
0.082175
0.332568
-0.195091
0.038546
-0.380184
-0.090015
0.541102
-0.257258
-0.293854
0.343355
0.062321
0.363490
-0.096733
0.353497
0.502213
0.257282
-0.612945
-0.557897
-0.250036
-0.157943
-0.090869
0.032165
-0.101684
0.484529
-0.441373
0.054623
-0.948513
0.314780
0.103338
0.218540
0.253159
-0.170710
0.194438
-0.192002
-0.398290
0.397357
-0.609165
0.294728
0.197240
0.213255
0.199015
-0.342141
-0.084678
-0.970833
-0.005657
-0.188314
-0.289242
-0.169883
0.353194
-0.087797
-0.685563
0.131377
0.197505
-0.132573
-0.448320
0.604115
-0.088897
0.319269
0.239153
0.140001
-0.052739
-0.060041
-0.173187
0.072836
-0.182533
-0.066295
0.258234
-0.292439
-0.060944
-0.347918
-0.195973
-0.182513
-0.120354
-0.045593
-0.129743
-0.059509
0.203265
-0.111214
-0.355731
0.244084
0.096390
-0.108473
0.077720
0.113905
-0.632238
-0.091546
0.237230
0.122608
0.133574
-0.232974
-0.180983
0.025085
0.066961
0.059279
-0.437571
0.270709
0.439569
-0.234087
-0.302659
-0.327478
-0.614063
0.655407
-0.095134
0.314406
-0.409757
0.293519
-0.021341
0.078107
-0.180499
-0.026027
0.070845
0.388954
0.333936
-0.732372
0.086503
0.025744
-0.185299
-0.058879
-0.427675
0.048118
0.326229
-0.497568
-0.127932
-0.168952
0.203167
-0.322024
-0.284869
-0.116361
0.178539
-0.148863
-0.232820
-0.170629
0.572507
-0.224119
0.152556
-0.322048
-0.160568
-0.096633
-0.491480
-0.291807
0.326622
-0.156575
-0.427423
0.079317
0.171375
-0.242335
0.164927
-0.077608
-0.462144
0.344957
-0.164388
0.017842
-0.702766
0.165100
0.046619
0.176641
0.187940
-0.355863
0.024428
0.079809
0.244665
-0.547700
0.287299
-0.502815
0.391559
-0.259816
-0.077754
-0.773201
-0.035693
-0.114074
0.201901
-0.726767
0.304935
-0.018318
-0.448394
0.153731
0.350583
-0.315155
0.306213
0.187135
0.238054
-0.188862
0.064899
-0.330189
0.035502
0.075705
0.260718
0.329448
-0.196538
-0.381021
-0.465803
-0.911231
-0.009533
-0.023098
-0.203816
-0.389725
-0.171109
-0.267118
-0.020072
-0.758229
-0.750473
-0.264986
0.050146
0.033243
0.330366
-0.064058
-0.008181
-0.151687
-0.168234
0.177603
0.048106
-0.099279
0.067043
-0.454896
-0.548325
-0.584047
0.024495
-0.468347
-0.712648
-0.795675
0.350352
0.095971
-0.135948
0.466453
-1.005245
-0.458263
0.114368
0.346237
0.286042
0.327102
-0.062508
0.149572
0.203567
-0.086219
-0.170788
0.076220
0.279509
-0.127746
0.018246
-0.123303
0.012420
0.458894
-0.395620
-0.281977
0.079661
-0.275484
0.024004
0.144013
0.174674
-0.466528
0.160675
-0.221373
0.172362
0.302346
-0.724133
0.223820
-0.193874
-0.357712
-0.520151
0.338062
0.033647
0.336718
0.338894
-0.156567
-0.151867
-0.080860
-0.005441
0.196709
-0.579747
0.192690
0.075875
0.001941
-0.155654
-0.253068
-0.596495
0.285031
-0.242776
-0.402892
-0.078728
0.228201
-0.082500
-0.306348
-0.337887
-0.324772
-0.258322
0.094062
-0.309013
-0.069830
-0.104804
-0.020182
-0.636583
-0.034138
0.232943
-0.100439
-0.436972
-0.386915
0.180048
-0.119181
-0.223975
0.246624
-0.151060
0.382499
0.068712
0.140675
-0.298226
0.394479
-0.204558
0.207496
0.433126
-0.162214
-0.087603
0.420007
0.137766
0.262897
-0.010459
-0.115994
-0.292517
0.378164
-0.464979
-0.224426
-0.021002
0.801221
-0.535266
-0.139271
0.072591
-0.025059
-0.044910
0.792318
0.322485
-0.431616
-0.095128
0.547585
0.130702
-0.357442
0.357027
0.310966
-0.068326
-0.195328
-0.303272
-0.241201
-0.218102
0.258022
0.162608
0.796477
0.036956
-0.077688
-0.802603
0.051817
0.167955
-0.086485
0.398151
-0.631710
-0.382794
-0.527099
-0.472899
0.029933
0.151819
0.190412
0.021880
-0.256727
0.152997
-0.380880
-0.063036
-0.147356
0.523352
-0.218067
0.153106
-0.379061
-0.354116
0.464616
-0.220843
-0.918770
-0.025803
-0.246448
-0.255667
0.086208
-0.869994
-0.179010
-0.470732
-0.595948
-0.468577
0.151063
0.387210
-0.081456
0.009866
0.108721
0.251137
-0.001020
-0.028161
-0.350797
-0.339028
-0.033005
0.285971
-0.455113
0.266401
-0.295640
0.101949
-0.248631
0.196005
-0.013506
-0.052060
0.095299
-0.262006
-0.030182
0.785325
0.192819
-0.037473
0.175008
0.321980
-0.311167
-0.397634
-0.100861
-0.336908
-0.141517
-0.067586
0.582571
0.150357
0.258469
-0.212572
-0.019079
-0.086264
0.387872
-0.310770
-0.256829
-0.111838
-0.291999
0.178185
0.039796
-0.202032
0.299439
-0.347511
0.064883
0.260052
-0.171772
0.308621
-0.026910
0.016963
-0.101567
-0.367584
-0.055671
-0.213346
0.381393
-0.493934
-0.028507
-0.001920
0.299872
-0.299066
-0.937952
0.322883
-0.394079
-0.276519
0.042042
0.040073
-0.039140
-0.042065
0.130652
0.111202
0.361747
0.096983
0.466532
-0.019879
-0.032669
0.069226
-0.157289
-0.264059
0.020212
0.138797
-0.364733
0.106065
-0.137368
0.235907
-0.449390
0.508791
-0.078420
-0.396838
-0.450356
-0.002465
-0.351641
0.244431
0.502636
0.255317
0.004145
0.573965
-0.032820
-0.017962
-0.702938
-0.118966
-0.372727
-0.016183
0.111022
0.050495
-0.152272
-0.361327
-0.129794
-0.034264
-0.842241
0.037406
-0.451041
0.440851
-0.039218
0.039055
-0.085904
-0.076746
0.122718
-0.186187
0.099301
-0.256917
-0.361331
0.206443
0.103231
0.292186
0.156447
-0.412434
-0.120411
-0.195471
-0.174862
-0.512763
0.087880
-0.015300
-0.269475
0.278139
-0.381516
-0.482269
-0.126981
0.152680
-0.414866
-0.152276
-0.313888
0.019172
-0.324298
-0.327915
-0.736101
0.388113
-0.186473
-0.592242
0.126256
0.164772
0.177445
-0.206680
0.578481
-0.541222
-0.084495
-0.332126
0.406928
-0.190618
0.214800
-0.396746
0.123526
0.241429
-0.006515
-0.050529
-0.147292
-0.454489
-0.175435
-0.071983
1.028350
0.173656
-0.626664
0.044854
0.149930
0.472141
-0.656410
-0.365031
0.098486
-0.340735
-0.096689
0.309605
-0.277557
-0.097122
0.212504
0.016062
0.292898
-0.063820
0.416990
0.079388
-0.141330
-0.273295
-0.064117
0.086259
0.141338
0.082462
-0.111122
0.072010
-0.009324
-0.823352
0.382842
-0.229794
-0.336628
-0.092349
0.348089
-0.659886
0.304406
0.233626
0.148458
0.169776
0.062227
-0.029802
0.147233
-0.395345
-0.629658
-0.462148
-0.272484
0.253275
-0.612569
-0.199271
0.310712
0.359813
0.024904
0.360715
-0.009219
-0.063203
0.462724
-0.250204
0.137121
-0.328843
-0.211526
-0.108156
-0.123188
-0.131989
0.046024
-0.038649
-0.216656
-0.174917
0.319975
0.103759
-0.157024
0.027127
-0.613231
0.120880
-0.342085
-0.044651
0.269218
-0.151349
-0.211279
0.086908
0.025565
-0.595785
0.566492
-0.183727
-0.609230
-0.041748
-0.261967
0.025447
-0.273309
-0.282117
0.137141
-0.476625
0.053528
-0.653399
0.127621
-0.242268
-0.014203
0.239824
-0.352003
-0.154354
-0.020406
-0.102284
0.044583
0.010064
0.137440
0.075607
0.083519
0.147499
-0.019687
-0.004679
-0.577996
0.059504
-0.511958
0.458102
-0.309993
0.112871
0.373636
-0.114563
-0.384622
-0.222853
-0.755016
-0.402554
0.236843
-0.105605
0.095968
0.056642
-0.064863
-0.378517
0.095647
-0.071086
-0.358829
0.164722
-0.546151
0.355058
0.399403
0.176274
-0.172287
-0.042104
0.016809
0.343065
-0.093797
-0.685410
-0.156602
-0.032208
-0.099694
-0.209867
-0.198356
0.013478
0.171704
0.459216
-0.263886
-0.245069
-0.364261
0.170140
0.157988
0.071846
-0.948773
-0.522704
-0.630763
-0.349141
-0.658767
0.080189
0.147691
-0.389326
-0.496909
-0.357898
-0.487118
-0.192680
-0.102819
0.097585
-0.409514
-0.772192
0.201210
0.283861
0.258438
-0.118372
-0.054543
0.233672
0.539601
0.003277
0.072349
-0.149779
0.048259
-0.560909
0.117889
-0.273811
-0.461241
-0.234114
-0.208275
-0.633138
0.514777
0.272377
0.148010
0.050280
0.420023
-0.002955
-0.130932
0.103879
0.209713
0.443172
-0.071152
-0.618455
-0.037395
0.024804
-0.065043
0.471822
0.243078
0.058091
0.001568
-0.428586
-0.224182
-0.098160
-0.568493
-0.147233
-1.130387
-0.419526
-0.313499
-0.335180
-0.035151
0.109001
0.031061
-0.099405
-0.123747
0.120291
-0.178345
-0.331764
-0.108184
-0.245696
-0.627858
0.349332
0.285769
-1.151295
-0.136044
0.443953
0.038599
-0.060587
-0.548809
-0.443282
-0.505041
0.038763
-0.325551
0.023289
-0.151346
-0.282770
-0.009061
-0.385518
-0.172192
0.015880
-0.523117
0.068930
-0.050025
-0.531484
-0.291188
0.085226
0.026859
0.197912
-0.966520
0.108216
0.208458
0.055526
-0.452469
0.182368
0.350415
0.175022
-0.195110
-0.480937
-1.135926
-0.177887
-0.013614
0.229605
-0.159837
-0.509453
0.140165
0.009171
0.407241
-0.146094
0.129005
0.175147
0.166260
-0.675112
-0.025186
0.344380
-0.352624
-0.113836
-0.021675
0.186909
-0.475828
0.049750
-0.239987
-0.002283
0.223415
-0.073614
-0.036924
0.020204
-0.119939
-0.841007
0.404450
-0.044646
0.456097
0.234659
0.014768
-0.088030
0.226467
0.092771
-0.031579
-0.518594
-0.193153
-0.026954
-0.433400
0.249091
0.214642
-0.018197
-0.670564
0.021352
-0.437951
-0.220494
-0.424157
0.190556
0.196140
0.087081
-0.404313
-0.325378
-0.344910
0.072267
-0.070600
0.334757
0.180257
0.270259
0.075524
-0.957666
0.171111
0.262985
-0.013451
-0.127101
0.137655
0.012951
-0.171032
-0.173344
0.259984
-0.612894
-0.057873
0.226774
0.418451
-0.014682
-0.002255
0.423644
-0.641330
0.262353
0.204080
-0.449128
-0.460453
-0.326908
-0.102073
-0.243453
-0.113530
-0.465456
-0.195972
0.260718
0.002074
-0.018898
-0.279921
-0.249036
0.083458
0.228577
-0.286479
-0.142356
0.170093
-0.039657
0.199189
-0.096494
0.311155
0.165021
-0.000007
-0.812012
0.002460
0.245278
0.449369
-0.304398
0.136746
0.015189
0.180421
-0.106806
0.076520
0.107514
-1.037259
0.056628
-0.029677
0.159282
0.207442
0.730914
-0.503742
-0.078463
0.068278
-0.015161
-0.837307
-0.172264
-0.141415
0.320596
0.104411
0.057803
-0.015893
-0.073775
-0.121270
-0.290370
0.028262
-0.012445
-0.253174
-0.179578
0.426603
-0.554566
-0.029303
0.078825
-0.256117
-0.094398
-0.009211
-0.136645
0.681020
-0.063746
-0.231471
-0.173660
-0.357772
0.023833
0.245656
0.586213
0.058172
0.142668
-0.189069
-0.484243
0.397976
-0.028615
-0.002553
0.132672
-0.679680
0.059637
-0.043693
-0.511795
-0.056922
-0.322946
0.133092
0.071997
-0.448234
-0.128990
-0.023342
-0.066657
-0.292217
-0.389533
-0.466496
0.214090
0.230110
0.350165
-0.234876
0.063049
-0.063884
-0.202128
-0.457580
-0.283840
-0.776382
0.149265
-0.299740
0.305350
-0.007500
-0.008498
0.158984
-0.562802
-0.313924
-0.275851
-0.261229
-0.249233
0.185866
-0.685594
-0.141962
-0.122737
-0.022765
-0.053219
0.205542
0.198309
-0.060692
0.027555
0.046381
-0.020507
0.016390
-0.264066
0.120365
0.429192
0.381216
-0.254385
0.311997
0.371809
0.051868
-0.144375
0.087593
0.154496
-0.504088
-0.238434
-0.083357
-0.789548
-0.126828
-0.085425
0.137521
-0.480600
0.446216
0.259378
-0.360714
0.636566
-0.189053
0.704667
0.122165
0.329983
0.360379
0.074365
-0.069162
0.233988
0.764785
-0.379187
-0.389197
-0.026796
-0.003176
-0.212025
-0.662390
0.151806
-0.069393
-0.343055
-0.727396
-0.126647
0.172315
0.249425
-0.178456
0.207239
0.034690
-0.271350
0.005990
-0.006668
0.092493
-0.048760
-0.387478
0.088630
0.494412
-0.485596
-0.583921
0.021453
0.197809
-0.143456
0.367252
0.110334
0.186813
0.008086
-0.219434
-0.402229
-0.369553
-0.470382
0.181491
0.495862
-0.219533
-0.303715
-0.282732
-0.234783
0.387101
0.276013
-0.080805
-0.170244
0.259332
-0.888945
-0.046302
-0.154885
0.196877
0.091980
0.128087
0.207329
-0.156622
0.120040
-0.455579
-0.053177
0.157277
0.322567
-0.323894
0.382813
0.056097
0.366401
-0.173593
0.114910
-0.202189
0.279627
-0.071437
-0.073133
-0.210417
0.261622
0.429653
0.099416
0.047173
0.049417
-0.171375
-0.136626
0.284391
0.149048
0.022582
-0.286329
-0.316358
0.124074
0.021774
-0.153758
0.291287
-0.286611
0.069055
-0.145688
-0.043004
-0.290261
-0.176585
-0.333971
-0.067550
0.090876
0.332833
-0.498886
0.104030
-0.206950
-0.209935
-0.047427
-0.018122
0.043680
0.195222
-0.238451
-0.331208
-0.816671
-0.244628
0.318811
-0.074077
-1.257790
0.100409
-0.205443
0.181977
-0.189964
0.008321
0.171724
0.210103
-0.184543
0.340248
0.511695
-0.541577
0.256851
0.265980
0.067980
-0.592411
0.010484
0.025260
0.109659
0.251856
-0.006394
-0.624848
-0.009924
-0.316289
0.149375
-0.092111
0.210582
-0.698540
0.028239
-0.278794
-0.261411
0.021895
0.014506
-0.378671
-0.423136
-0.410924
-0.002883
-0.146185
-0.131772
0.206134
0.173146
0.101527
0.009458
0.281551
0.376254
-0.111291
-0.266826
-0.520220
-0.055494
0.303274
-0.067222
-0.280428
-0.197585
0.154103
-0.321765
0.207461
-0.199155
-0.893800
-0.339547
-0.629802
0.061753
0.470965
-0.042239
-0.619697
0.274775
0.011785
0.445436
-0.728012
-0.027314
0.246375
0.041855
-0.510809
0.333919
0.120154
0.122564
0.143357
-0.019619
0.262943
0.261040
-0.570279
-0.461172
-0.294220
0.021155
0.165622
-0.013016
0.084534
-0.454139
0.247019
-0.311672
-0.106271
-0.060055
-0.047604
-0.116369
0.277426
0.507593
-0.439592
-0.004075
0.039475
0.083142
0.119954
-0.050305
-0.342655
-0.581821
0.083564
0.090575
0.170482
-0.011862
-0.777260
0.203520
0.102398
-0.038137
0.207680
-0.176921
0.037492
-0.215703
0.065474
-0.198077
0.051190
0.139085
0.023234
-0.181606
0.272589
-0.289072
-0.418503
0.354823
-0.259938
0.195977
0.078714
-0.075051
0.262881
0.058392
-0.266098
0.335697
0.037070
-0.032385
0.151739
0.105266
-0.165085
0.142001
0.497688
-0.144029
-0.417119
-0.628712
-0.437039
0.026361
0.116017
-0.259123
-0.702907
-0.271264
-0.393179
0.306030
0.320227
0.255266
0.507596
-0.358282
-0.152291
-0.334159
-0.138248
0.366466
0.038526
0.047953
0.327945
-0.005809
-0.588987
-0.127439
-0.328758
-0.231515
-0.457426
-0.316803
-0.304451
-0.148135
-0.271187
0.382884
0.419466
-0.300696
-0.004146
-0.199954
0.156982
0.572290
0.424879
0.227586
-0.100627
-0.125184
-0.011329
-0.081122
0.007366
-0.196659
-0.147972
0.275325
-0.788162
0.063475
0.108794
0.120530
0.128949
-0.084902
0.141485
-0.735398
-0.292687
-0.143715
-0.174471
-0.488412
-0.030509
-0.076034
0.315199
-0.122866
-0.271591
-0.309782
0.135338
0.081678
-0.036983
0.238539
0.614277
-0.408955
-0.352709
-0.062136
-0.162103
-0.082468
0.374480
0.365653
0.003263
0.100180
-0.321388
0.223704
-0.268860
-0.070291
-0.194538
0.341522
-0.173076
-0.328954
0.235636
0.160766
-0.183956
0.229052
-0.626024
-0.625418
-0.622773
0.346943
-0.262597
0.009093
-0.216326
-0.646432
0.061910
-0.092525
0.411213
-0.030313
0.121684
-0.565328
-0.696558
-0.194118
0.274305
-0.259096
0.105683
-0.165703
0.154759
-0.135940
0.032554
0.293234
0.227546
-0.170575
0.105484
-0.345735
-0.275229
-0.114862
-0.147852
-0.240162
-0.296353
-0.448696
-0.302832
0.309011
-0.293366
0.208535
0.138691
0.383461
-0.018586
-0.113175
0.281141
-0.047103
0.032670
-0.279687
0.343283
-0.198817
-0.124493
-0.865840
0.144587
-0.381440
-0.243306
-0.614110
-0.104144
0.397733
0.221221
0.184260
-0.194802
-0.112584
0.153537
-0.000183
-0.191376
-0.200507
0.197250
-0.080278
-0.098547
0.059253
0.184545
-0.279485
-0.023559
-0.252740
0.281239
-0.195374
0.000089
0.158772
-0.114860
0.047331
0.248684
-0.070024
-0.064468
0.389957
0.074093
-0.106818
0.067488
-0.084417
-0.222378
-0.209849
-0.738471
-0.288579
0.139799
0.180461
-0.099712
0.247851
-0.133817
0.392686
-0.380689
0.098149
0.382044
0.042364
-0.485081
-0.250056
0.095700
0.165132
-0.130708
0.049599
0.273443
-0.097248
-0.006105
-0.057218
0.063464
-0.234728
-0.229991
-0.233719
-0.079005
-0.049157
-0.076065
0.030273
-0.166791
0.047483
0.347995
-0.067133
0.126989
0.185827
0.172587
-0.004405
0.030588
0.034996
0.180352
-0.241419
-0.368981
-0.030738
0.017326
0.186400
-0.239753
0.215177
-0.265268
0.324250
0.330317
0.407974
-0.212861
-0.990878
-0.253375
-0.346436
0.036384
-0.610929
-0.258691
-0.706663
0.014387
0.281037
0.104965
0.024336
-0.092193
0.241536
-0.047254
-0.207257
-0.164699
-0.023448
0.336684
-0.426156
0.085418
-0.172494
0.226899
-0.286971
0.059762
-0.287784
-0.127912
-0.057654
0.237740
-0.339981
0.202117
-0.348469
0.226214
-0.009323
0.159645
-0.003284
-0.102312
-0.057112
0.190196
-0.065440
0.160555
-0.219653
0.187897
-0.300496
0.104971
0.247750
-0.312502
-0.169633
0.428326
-0.725708
0.187930
0.448076
0.194640
0.049574
-0.207269
0.163009
0.025215
0.369556
0.421693
-0.073832
0.007638
0.196544
0.103003
0.133180
0.023113
-0.424057
-0.104969
0.144088
-0.017227
-0.004830
-0.591279
-0.823921
0.101938
0.621951
0.362937
-0.421789
-0.029773
-0.403150
-0.154068
0.279292
0.246713
0.539492
0.580687
-0.008517
0.215255
-0.056012
-0.466445
-0.357473
-0.025784
0.094633
-0.270622
0.112309
0.220266
0.068131
-0.499237
0.102107
0.068331
0.210630
-0.044450
0.131720
-0.330958
0.199946
-0.035162
0.253716
0.200106
0.102870
-0.317753
0.149115
-0.620660
0.211836
0.159119
-0.149504
0.095366
-0.337647
-0.451060
-0.463025
0.232465
-0.124691
0.395974
-0.390271
-0.206592
-0.075127
0.095434
-0.091464
-0.453127
0.084502
-0.031116
-0.411872
-0.502492
0.000215
0.559490
0.060509
0.068902
0.235515
-0.134984
0.544636
0.101003
-0.191625
0.090446
0.309774
-0.313619
-0.385559
-0.396495
-0.771876
-0.005027
-0.201989
0.012293
0.227058
-0.052414
-0.356664
-0.246567
0.309006
0.059813
0.350316
-0.424174
-0.392407
-0.215014
0.012638
0.080389
-0.215648
-0.137808
-0.039632
-0.331754
-0.006658
0.393227
-0.029536
0.321219
0.424840
-0.162377
0.391106
-0.254117
-0.061172
0.162410
0.093251
0.043563
0.162816
-0.624952
0.087838
-0.219011
-0.197630
0.005354
-0.187718
0.260952
0.363963
0.135044
-0.376748
-0.045261
-0.086000
0.457560
0.441676
0.417203
-0.318478
-0.547385
-0.161181
0.075234
-0.136247
-0.011109
-0.128875
0.003969
-0.847834
-0.090483
0.152374
0.335705
-0.191360
-0.124139
0.037498
-0.413387
-0.087909
0.068501
0.325469
-0.094728
-0.019972
0.139853
-0.108322
0.459797
0.034825
0.361351
0.008026
0.141763
0.667147
-0.153407
-0.024836
0.666749
-0.034413
0.081084
-0.092011
0.258598
-0.104324
-0.316653
-0.038205
-0.078252
0.129984
-0.102347
0.137086
-0.024873
-0.015533
-0.263461
0.397710
-0.175575
-0.212003
-0.698422
-0.188000
-0.720456
-0.210658
0.160582
-0.171292
-0.030683
-0.004306
-0.407781
-0.149641
0.001918
0.101749
0.176071
-0.731869
0.149375
0.153566
-0.776200
0.371546
0.114687
-0.253107
-0.274962
-0.277317
-0.632996
-0.322761
0.195500
-0.328482
0.216758
0.014223
0.234910
-0.465841
-0.217904
-0.003985
-0.579885
-0.050030
0.358318
0.134501
-0.157840
0.010109
0.165223
0.173814
0.228942
-0.457815
-0.101607
-0.412605
0.098025
-0.161709
0.343529
0.209572
0.326779
0.085030
-0.173405
-0.189559
-0.066115
0.276238
-0.418473
-0.187783
0.320942
-0.109698
0.175291
0.067577
0.429143
-0.245937
0.054345
0.078449
0.706040
-0.260172
-0.123057
0.217466
-0.124191
0.152435
0.048819
-0.134300
0.291906
-0.247657
-0.118999
-0.087924
-0.261905
0.201505
-0.499721
0.112037
0.286194
-0.621239
0.149556
0.094125
-0.080866
-0.554185
0.114341
-0.323964
-0.521881
-0.353058
0.266842
0.185650
0.339689
-0.030885
0.151203
0.019097
0.027292
-0.171949
0.705266
0.010660
0.341025
0.093519
-0.367978
-0.007829
-0.026552
0.178791
0.039570
-0.201847
-0.179355
0.028851
-0.053728
0.005202
-0.030702
0.279564
0.137327
0.331499
-0.156222
-0.145441
-0.116001
0.343264
-0.136228
-0.703501
-0.498962
-0.141479
-0.278768
0.264235
0.432627
-0.758889
0.129989
-0.154610
0.264852
-0.579401
-0.210227
-0.434414
-0.646357
-0.550397
-0.131411
-0.252425
0.061619
0.171272
0.022267
-0.274109
-0.582397
0.198222
-0.312709
0.307789
0.733687
-0.108298
0.011862
-0.523126
0.115434
-0.133577
-0.100013
-0.182225
-0.110071
0.389465
-0.293208
0.224921
-0.266115
0.024822
-0.467515
0.333316
-0.061569
0.373576
-0.144532
-0.548055
-0.115007
-0.166464
-0.684520
-0.027523
-0.259508
-0.143065
-0.258776
0.215702
0.408444
-0.567196
-0.529856
0.064174
-0.582892
-0.441747
0.134868
-0.434279
0.044925
-0.197405
-0.433649
0.287786
0.195526
0.158688
0.060992
0.205435
-0.074156
-0.410738
0.087983
0.184078
0.195758
-0.266491
-0.216659
-0.149159
-0.012407
0.005961
0.237068
-0.182236
-0.254505
-0.222996
-0.146130
-0.504297
0.120406
0.323386
-0.020252
0.552226
0.234221
0.522808
-0.119173
0.100076
-0.156181
-0.027869
0.153889
0.086540
-0.126845
-0.792457
0.376686
0.093861
0.131736
-0.069942
0.035005
0.363968
-0.186139
0.005971
0.082410
-0.044114
-0.304288
0.037811
0.135496
0.019102
0.396282
0.248159
-0.020060
0.291092
0.023919
0.067285
0.364519
-0.103988
-0.241379
-0.052127
0.482891
-0.126820
-0.066658
-0.111775
-0.221541
-0.123729
-0.590312
-0.316423
-0.327425
0.083245
-0.221682
0.033249
-0.263946
0.088111
0.007659
0.557898
-0.211858
-0.021166
-0.619550
-0.706591
-0.098283
-0.219034
-0.041667
0.012538
0.155238
-0.075445
0.022715
0.397637
-0.191626
-0.097779
0.065067
0.087034
-0.011759
-0.179508
-0.107330
-0.081021
-0.079281
0.004438
-0.255169
-0.125705
0.017542
0.320923
0.026763
-0.066164
-0.014229
0.062749
-0.446598
0.052313
0.094864
0.381035
0.578985
-0.229993
-0.092755
-0.086001
-0.223899
0.135710
0.581619
-0.468871
-0.491602
-0.000660
0.051165
-0.179930
0.012787
0.357079
0.031297
0.215037
0.022254
-0.059506
-0.215740
-0.326897
-0.003013
0.408248
-0.302658
0.207060
0.239905
-0.000740
0.278000
-0.030548
0.165089
-0.029112
0.005764
0.005309
-0.171172
0.308403
-0.182743
0.039014
0.080269
0.271540
-0.710751
-0.371785
-0.449789
0.095224
0.099372
-0.496263
-0.005946
0.289524
0.064445
0.301756
-0.423243
-0.692021
0.308333
-0.015846
0.257228
-0.498814
-0.025369
0.076207
-0.924155
-0.341043
-0.443426
-0.193023
-0.676433
-0.170354
-0.173860
-0.140694
-0.000523
-0.002602
0.324487
-0.353073
-0.184317
-0.012699
0.099393
0.016015
-0.135676
0.443846
0.165503
0.206343
-0.351308
-0.086947
0.218047
-0.343598
0.000181
-0.487209
-0.074791
0.382404
0.011680
0.246514
-0.050715
0.353884
0.219009
-0.252711
0.273129
0.123609
-0.077027
0.168878
-0.066581
-0.061868
0.384646
0.264344
0.080842
0.258117
0.006408
-0.343824
-0.208760
-0.463289
-0.021052
-0.195649
0.090908
0.111948
-0.204162
0.001368
-0.326065
-0.126740
0.084180
-0.715929
0.376235
-0.064427
-0.053500
0.152347
0.007863
-0.151772
-0.333890
0.079872
0.170945
-0.291675
-0.612634
0.055504
-0.344186
-0.529270
-0.310244
-0.469206
0.258136
-0.078556
-0.514289
-0.035722
-0.263032
-0.055176
-0.039254
-0.032149
0.215139
-0.554748
0.294584
-0.448338
-0.083736
0.170383
0.384749
-0.267637
-0.115685
-0.284778
0.124852
0.164712
-0.247028
0.100192
0.098687
0.140637
-0.496972
0.458461
-0.056120
0.167300
-0.295292
-0.116169
0.446948
0.024537
0.514543
-0.120383
-0.634073
-0.041204
0.534858
0.157184
-0.123623
0.263913
-0.282532
0.408403
-0.240350
0.088295
-0.331544
0.268293
0.159506
-0.005552
-0.032706
0.035527
-0.019136
-0.215316
-0.086133
-0.445682
0.205989
0.060586
0.186488
0.171168
-0.825498
0.086796
-0.313627
-0.391835
0.159442
-0.299250
-0.002195
-0.152237
-0.179312
-0.365440
0.160462
0.128166
0.072905
0.484141
-0.005202
0.765659
-0.944862
-0.066663
-0.112458
-0.063691
0.275903
-0.715739
-0.536358
-0.706699
-0.050598
-0.032621
-0.460411
0.201431
0.048244
-0.354793
-0.275293
-0.673778
0.135761
0.509170
0.499251
0.048415
-0.320279
0.552475
-0.331824
0.050814
-0.133898
-0.134953
0.050391
-0.375806
-0.503643
-0.465123
0.762136
0.099551
-0.373101
-0.058218
-0.643199
-0.360085
0.053425
-0.089560
0.394249
-0.197330
0.093042
-0.405564
-0.056440
-0.080002
0.375986
0.174426
0.200878
-0.355272
-0.655134
-0.056255
-0.230133
-0.521421
-0.519749
-0.949742
0.470201
-0.319937
-1.519674
0.155090
0.191190
-0.341384
-0.013812
0.254053
-0.029518
0.003635
-0.180132
0.662167
-0.048902
0.009017
0.093467
-0.820525
0.180062
-0.391699
-0.055383
0.129411
-0.270119
0.168078
0.086356
-0.063875
0.021204
-0.301652
-0.225817
-0.272282
-0.479872
0.143063
0.383010
-0.235527
-0.208527
-0.307942
0.273417
-0.000525
-0.006678
-0.459695
-0.211953
-0.172224
0.163679
0.075663
-0.221631
0.097232
-0.477072
-0.041075
-0.241252
0.419104
0.119299
0.097772
0.007857
-0.170244
0.034448
-0.017107
0.161635
-0.158587
-0.026219
-0.212384
-0.103562
0.220182
-0.646327
-0.211331
0.076678
-0.031959
-0.306093
-0.282339
0.338571
0.435594
-0.146449
-0.196645
-0.304378
-0.192128
0.149435
-0.001550
-0.048040
0.507423
0.213149
0.125618
0.250902
0.249649
-0.360819
0.401970
-0.598973
-0.171129
0.110119
0.027878
0.221063
-0.005086
0.364892
-0.011331
-0.315824
-0.211055
0.174051
0.393922
0.442247
0.374495
0.361146
0.426937
0.458509
-0.025119
0.534793
0.194967
0.302465
-0.187859
-0.071493
0.093426
-0.184150
-0.035818
-0.023092
0.082053
0.535138
-0.513761
-0.008853
-0.038698
-0.168702
0.408209
-0.106532
0.301329
-0.098511
0.173193
-0.583442
-0.525111
-0.492780
-0.453864
-0.004324
-0.205451
0.046951
0.281902
-0.162658
0.245677
-0.541580
-0.225866
-0.052438
-0.014570
0.277117
0.024677
0.026615
-0.496908
0.082113
-0.422668
-0.235385
0.320189
-0.248692
0.054966
-0.407044
0.216082
0.107360
-0.444637
-0.236129
-0.510713
0.016439
0.207260
0.601016
0.469107
-0.233510
-0.051599
-0.302934
0.008787
0.096423
-0.194935
-0.490181
-0.374394
0.129568
-0.146002
0.175987
-0.599274
-0.152591
0.293762
0.026203
0.659966
0.041502
-0.040482
0.066297
0.113097
-0.749261
-0.023630
0.002130
0.060113
0.290706
0.202970
0.070768
-0.370975
-0.546850
0.123242
-0.142812
-0.428988
0.057265
0.077296
0.090627
0.292740
-0.022732
0.348750
0.363272
-0.820564
-0.508550
-0.163080
-0.028233
0.159710
0.454149
0.193816
0.072945
-0.069359
0.065813
-0.414259
-0.234860
0.478308
0.063047
0.282397
0.358107
-0.020307
-0.409686
0.103291
-0.156321
0.223577
-0.025418
0.031078
-0.660653
-0.092080
-0.118971
0.067700
0.165753
-0.379620
0.213202
0.244598
0.257532
0.345379
-0.160403
0.159243
0.146054
-0.139493
0.291683
0.285709
-0.194519
0.218613
0.385618
-0.232842
-0.540737
-0.059776
-0.542203
-0.065293
0.104976
-0.097654
-0.225298
0.010127
-0.471651
-0.227908
0.495900
-0.304719
0.219643
-0.579388
-0.129546
-0.512142
-0.161354
-0.413385
0.195904
0.120055
-0.030584
-0.213947
-0.508390
-0.240784
-0.452082
0.054873
0.486891
0.351948
0.239074
0.225708
-0.610343
-0.122677
0.287021
0.301832
-0.068799
-0.206733
-0.051608
-0.086526
-0.195116
-0.427156
0.148859
0.136836
-0.515248
0.138969
-0.258872
-0.215990
0.463474
0.104399
0.113204
0.086707
-0.088265
-0.649320
0.105296
-0.431815
-0.526636
0.174671
-0.371124
0.269286
0.132648
-0.512263
-0.242394
-0.577666
0.063501
0.252676
0.107578
-0.381776
0.292569
0.222821
-0.062394
-0.269676
0.172614
-0.254320
-0.238356
-0.766932
-0.174867
-0.560777
-0.055132
-0.369147
-0.105203
0.241090
-0.020346
0.011725
-0.389028
-0.359636
-0.163097
-0.552768
-0.308863
0.331848
-0.183934
-0.047631
0.213389
-0.177465
-0.346913
-0.020922
0.065599
-0.007457
0.214284
-0.051606
0.229517
0.107571
-0.290673
-0.044537
0.375950
0.097679
-0.094797
-0.201367
0.465105
-0.375286
-0.087685
-0.385199
0.092528
-0.088009
-0.189009
0.494128
0.164761
0.170750
0.070655
-0.021036
-0.090539
0.235137
0.059104
-0.078405
0.442005
-0.020008
0.071087
-0.367097
0.125927
0.067603
-0.113279
-0.761215
-0.075745
-0.011863
-0.810334
0.046282
-0.166944
0.372797
-0.020339
-0.075250
-0.558737
-0.312475
-0.275605
0.168363
-0.396811
0.035063
0.038998
-0.908951
0.362376
-0.310245
-0.201766
0.306309
-0.122859
0.205991
-0.091607
0.194566
0.038052
-0.799807
-0.330138
-0.960066
-0.193821
-0.181720
0.021916
-0.118070
0.316531
0.036723
0.010227
0.032120
0.261240
-0.153330
0.077508
0.062056
0.387658
0.299992
0.003162
0.864140
0.470721
-0.277792
0.045216
-0.256990
-0.210050
0.119126
-0.500467
-0.163124
0.152099
0.112043
0.151054
-0.091321
0.418953
-0.361574
-0.005505
0.172959
-0.154800
-0.009018
-0.113324
-0.778995
0.235682
0.010110
-0.182837
0.070509
-0.361517
-0.698665
-0.062954
0.281615
-0.143620
-0.023637
-0.535311
-0.144351
-0.075819
-0.121987
0.005566
0.085348
0.134981
0.254142
-0.052550
-0.101298
-0.780377
-0.266715
-1.131185
0.144246
0.203006
0.440065
-0.561935
0.121137
-0.097228
0.195505
-0.053120
-0.014404
-0.106659
0.013361
-0.278937
-0.079858
0.138944
0.224079
0.199620
-0.312862
0.426892
-0.578054
0.330654
-0.221785
0.126540
-0.209582
0.128779
0.539988
-0.404765
-0.239429
0.047259
0.095815
0.064209
0.291496
0.310020
-0.182073
0.053759
-0.204629
-0.427719
-0.162051
-0.177450
-0.063572
0.561281
-0.386901
0.086398
-0.059584
0.339222
-1.041540
-0.134255
-0.312882
0.371229
-0.442575
0.382212
0.214032
0.089210
-0.217683
0.177777
0.282886
-0.294540
-0.124782
0.061134
-0.246442
0.115848
-0.141942
-0.126523
-0.068130
-0.082803
-0.111323
-0.076068
-0.570948
-0.787555
-1.086679
-0.133016
-0.372114
-0.072145
-0.030352
-0.338053
0.346619
-0.304186
0.714435
0.015113
-0.210278
-0.134673
-0.290851
-0.094715
0.069589
0.009044
0.524643
0.358811
-0.462328
0.167563
-0.069179
-0.141241
0.465157
-0.050477
0.099368
0.150725
0.046700
-0.357986
-0.156001
-0.598220
-0.316261
0.093042
-0.487576
-0.154616
0.205097
0.219873
-0.893980
0.303317
-0.016443
-0.080849
-0.146451
0.187623
0.056731
0.344479
0.168057
-0.198820
-0.325636
0.329790
-0.178703
-0.016635
-0.611102
0.343147
0.210974
0.082500
-0.574141
0.000899
-0.086710
-0.560050
0.148866
0.135184
-0.143369
0.146601
-0.205713
-0.279776
0.667932
-0.616874
-0.040524
0.335936
-0.030378
0.022846
-0.178757
0.024327
-0.277246
-0.741631
-0.237117
0.398869
0.285010
0.043361
-0.332198
-0.335064
0.319911
-0.050124
0.147712
0.333510
0.089850
0.320853
0.476745
-0.100052
0.339035
-0.343576
0.244257
-0.011666
0.395333
-0.736362
-0.489049
-0.755107
-0.037897
0.237257
0.149839
-0.823895
0.393335
0.451759
-0.279423
-0.214840
-0.176930
0.075489
-0.145272
0.397161
-0.169170
0.769587
-0.192557
0.274985
-0.227438
-0.352663
-0.192241
-0.528143
-0.030921
-0.054035
0.088785
0.040537
0.175737
0.536888
0.248588
0.033418
-0.035560
-0.187534
0.348587
-0.622732
-0.141926
-0.130571
-0.105683
-0.301510
0.236195
-0.325539
-0.197730
0.113509
0.098888
0.059799
0.060195
0.001505
-0.045164
0.266434
0.089330
-0.701146
-0.338297
0.084755
0.583179
-0.014042
0.043006
-0.630116
-0.127183
0.033136
0.397350
-0.011082
0.234344
-0.442752
0.295215
-0.593556
-0.032324
0.347953
-0.407231
-0.178841
-0.251258
-0.315988
-0.243275
-0.167336
0.083507
-0.186273
0.067737
-0.001556
-0.207685
-0.885220
-0.514170
0.120463
0.277272
0.231755
-0.154023
0.146478
0.372250
-0.109822
-0.285235
-0.161449
-0.233732
0.302851
-0.116967
0.040770
-0.434678
0.147312
0.248450
0.080284
-0.594551
0.501733
-0.222694
0.069848
0.412230
0.048837
-0.050820
-0.025599
-0.202172
0.253136
-0.150697
0.284270
0.073915
0.096717
-0.270369
-0.320971
0.200431
-0.082484
0.111117
-0.326161
-0.045200
0.099927
-0.045120
-0.041981
-0.600543
0.323355
0.279749
0.627364
-0.047266
0.274015
0.183605
0.320811
0.066317
0.156960
0.165774
-0.433617
-0.424689
-0.010106
0.200300
-0.588903
-0.284456
0.140943
-0.296774
-0.100007
-0.033856
-0.000633
-0.218846
-0.041619
-0.109380
0.524974
0.436345
0.281190
0.178668
0.214463
0.006808
0.205000
-0.328610
-0.190575
0.220325
-0.367958
0.094994
-0.180075
-0.176203
-0.056644
-0.068842
-0.531586
0.111331
-0.898096
-0.002264
0.203403
0.546816
-0.022685
0.011668
0.762692
-0.418571
0.042167
0.411908
0.272378
-0.141614
-0.005171
-0.046366
-0.207076
0.396870
-0.296504
0.000203
-0.325035
-0.167363
0.124828
-0.115273
0.066809
-0.578295
0.000465
0.293510
-0.702417
-0.401748
-0.186762
-0.088493
-0.143345
-0.359839
-0.521703
0.035941
0.169108
-0.121140
-0.702151
0.121556
-0.732046
0.063622
-0.003401
-0.271513
-0.384438
-0.006561
0.173877
-0.266671
0.156746
-0.025317
0.338051
-0.382041
-0.215254
-0.018042
-0.336501
-0.767058
-0.969787
-0.161086
-0.212015
0.634417
0.172432
0.106069
0.099174
-0.241441
-0.121289
-0.545377
-0.567894
-0.464949
-0.245870
-0.263501
0.075336
0.111718
0.177671
-0.567116
-0.136053
-0.330781
0.678734
-0.346467
-0.016954
0.334802
0.846783
-0.015279
-0.241407
-0.035711
-0.034016
-0.026701
-0.123754
0.175146
-0.101445
0.257621
0.341477
-0.522863
0.411547
-0.083875
-0.606904
-0.107188
0.081759
0.339830
-0.058514
0.118430
0.219197
-0.206854
0.218782
-0.092915
-0.462947
0.520156
0.218675
-0.248434
-0.298943
-0.461610
0.144084
-0.025786
-0.428981
-0.494462
0.360153
-0.206932
0.096993
0.174682
-0.092055
0.136830
-0.315344
-0.190693
-0.034193
0.095727
0.029097
-0.492332
-0.155904
0.037075
-0.577766
0.441000
0.113521
0.326402
-0.182830
-0.582276
0.280366
-0.615869
-0.689920
0.478818
-0.109287
0.064023
-0.251082
-0.308376
-0.176352
-0.128914
0.250388
0.068090
-0.229037
-0.120774
0.189636
-0.006679
0.252528
-0.171376
-0.119076
-0.234475
-0.106971
0.160157
-0.133627
-0.376834
-0.012509
-0.011861
-0.195096
0.190957
-0.236388
-0.049796
-0.457068
0.226823
-0.028688
0.007910
0.195892
-0.455378
-0.050354
-0.091000
-0.313436
-0.215389
-0.176777
-0.394604
0.299183
0.498947
-0.049243
-0.360067
0.046863
0.234359
0.035452
-0.825489
-0.284324
-0.185606
-0.398228
-0.268725
-0.164401
-0.015828
0.186224
-0.024298
0.382849
-0.287473
0.326608
-0.025269
0.214533
0.409497
0.051229
0.100379
-0.225686
0.114720
-0.083789
0.111449
-0.201148
-0.308853
0.123567
-0.674872
0.178924
0.216084
-0.434958
0.440773
-0.252086
-0.270970
-0.533098
0.071304
0.124843
-0.017722
-0.573993
0.109938
0.266706
-0.147157
-0.437277
-0.261762
-0.306378
0.014164
-0.070925
-0.341391
-0.773299
0.420813
-0.283415
0.307511
-0.453690
-0.392158
-0.322117
0.082105
-0.411137
0.158883
-0.051745
0.187265
0.289038
0.014273
-0.075971
-0.130493
-0.422000
-0.480770
0.143860
-0.390680
0.346879
-0.229886
-0.175760
0.012844
0.362628
0.316681
0.172034
-0.611972
-0.010377
-0.130491
-0.283267
0.685443
0.579825
0.273052
0.229063
0.389986
0.095778
-0.289821
0.121519
0.137471
-0.267655
0.039910
-0.491297
0.496608
-0.760759
-0.174535
-0.270036
0.612353
-0.461533
0.167512
-0.138257
0.192268
0.524010
-0.308634
0.338722
-0.071645
-0.273025
0.192984
-0.084038
0.153706
-0.151624
0.384648
-0.157339
0.014091
0.215256
0.050663
0.370173
-0.411267
-0.461463
0.000996
-0.040500
0.100490
-0.006992
-0.122907
0.048292
-0.304905
-0.279538
0.371057
0.065724
-0.262977
-0.016587
-0.100779
0.197403
-0.224712
-0.166451
0.191652
-0.218329
0.091975
-0.263392
-0.194421
-0.178077
-0.154037
-0.314121
0.021929
0.035412
-0.018348
-0.771594
-0.100292
-0.099626
-0.073514
0.257504
-0.676570
-0.125697
-0.448679
-0.408704
-0.088228
-0.593901
-0.102064
-0.059263
-0.413671
0.036023
-0.018719
0.172003
-0.137540
0.233651
-0.043548
-0.116670
0.270860
-0.363817
0.417702
0.444344
-0.433207
0.129009
0.037683
-0.426629
-0.220787
-0.225575
0.111260
0.029478
-0.509922
-0.631842
0.323631
-0.601055
-0.114595
0.164400
0.139091
-0.338680
0.071780
0.087561
-0.095975
0.432272
0.190016
0.243957
-0.138184
-0.117708
-0.205545
0.332000
-0.367527
-0.243380
-0.206350
-0.254005
0.226009
-0.196051
0.494464
-0.289927
0.187169
-0.400166
-0.683292
0.305134
-0.664482
-0.012019
-0.051231
0.704418
-0.016726
0.110538
0.538939
-0.220696
0.093005
-0.152109
0.148693
-0.064935
-0.099681
-0.449868
0.052682
0.104491
-0.082620
0.302876
0.028104
0.209237
-0.220083
0.200943
0.101497
0.062402
0.074740
-0.003369
0.580982
0.180687
-0.157930
0.239012
-0.083725
0.457848
-0.049591
0.071008
0.008663
-0.377684
0.186358
-0.054204
-0.622959
-0.238233
0.076445
0.225661
0.248462
0.025486
0.092837
-0.297967
0.176949
-0.363329
-0.013870
-0.231463
0.104668
-0.233540
-0.311958
0.369199
0.416583
0.108223
-0.714655
0.169574
0.053096
-0.273144
0.567156
0.077274
-0.379475
-0.185631
-0.292202
-0.125387
-0.237195
-0.075374
-0.171395
0.067379
0.185580
0.308269
0.086536
-0.012898
-0.296008
-0.007670
-0.616044
-0.580500
-0.102709
-0.060079
-0.005244
-0.504804
-0.595939
-0.783764
0.320979
-0.084344
-0.602920
0.267007
0.157751
-0.498484
-0.248700
0.268904
0.119944
0.094857
0.390159
-0.259816
-0.341626
0.133115
0.183016
-0.125096
0.145781
0.422632
0.169147
0.172017
0.257270
0.092795
-0.222912
-0.265314
0.352958
-0.123623
0.065966
-0.569579
0.339833
-0.446851
-0.022101
-0.368029
0.135106
-0.486737
-0.226617
-0.928126
-0.244755
-0.361006
0.082791
-0.581460
-0.055427
0.639626
-0.263513
0.234405
-0.339424
0.194738
-0.070199
0.466434
-0.116689
-0.111103
-0.444969
0.062390
0.046697
-0.693920
-0.171512
0.229389
-0.496104
-0.192388
-0.120096
-0.414422
0.043139
0.090066
0.014486
-0.157570
-0.452752
0.075098
-0.004649
-0.700208
0.122792
-0.164738
-0.487764
-0.169970
0.217955
-0.001447
-0.437438
0.297433
0.283912
0.505418
-0.161395
-0.577721
-0.222929
-0.113693
0.257360
-0.094529
-0.055446
0.012454
0.109169
0.010054
0.384615
-0.177162
-0.148615
-0.088333
-0.184686
-0.385617
-0.009505
-0.351014
0.239283
0.563203
-0.460920
-0.114810
0.444504
0.136690
0.089204
0.070872
-0.206947
0.078672
-0.100458
0.088248
-0.128277
0.281953
-0.420899
0.121013
-0.002442
0.157086
-0.278485
0.226668
-0.360471
-0.366146
-0.406985
-0.084425
0.044856
-0.059864
0.128958
0.404756
-0.168735
-0.460190
0.330400
0.570248
-0.293441
-0.637153
0.101329
-0.065245
0.105390
-0.765693
0.016556
-0.012385
-0.002213
0.417269
-0.932610
-0.040226
0.284951
0.042727
0.600967
0.208816
0.015030
0.058180
-0.261715
-0.171326
-0.156229
-0.415710
0.263083
0.034686
0.018370
0.269482
-0.141552
0.084492
-0.568818
-0.150024
0.022814
0.054248
0.240802
0.167358
0.032775
-0.335388
-0.056206
-0.155471
-0.417814
0.265371
-0.023979
0.427587
-1.006433
-0.245652
-0.152894
-0.072963
0.009507
0.019641
-0.418038
0.007699
0.074257
0.095863
0.179142
0.214615
0.288765
-0.508042
0.014710
0.536915
-0.564678
0.098429
0.045999
0.010632
-0.109543
0.065363
0.441519
-0.017787
0.146074
0.649351
0.022762
-0.751888
-0.679781
-0.390900
-0.045877
0.159581
0.101159
0.230574
0.032565
0.097309
0.171263
-0.312618
0.468210
-0.149300
-1.020971
0.231688
-0.029541
0.252467
-0.086308
0.340394
-0.318977
-0.350737
-0.059396
0.170699
0.251745
-0.018946
0.129063
0.267511
-0.560863
-0.000276
-0.071842
-0.264286
-0.275137
-0.175006
-0.170025
0.238100
-0.820190
-0.149893
-0.349531
-0.290319
0.273825
0.296460
0.307524
-0.114347
-0.151004
-0.229024
0.359555
-0.445181
0.012535
0.413072
0.073265
-0.010457
-0.569040
0.146630
0.245184
-0.191946
-0.442609
-0.148865
-0.341409
-0.216663
0.228389
0.516391
0.361663
0.120304
0.114030
0.162752
-0.264503
0.276547
0.090140
-0.624095
0.115493
-0.257678
0.046806
-0.400463
-0.367783
0.140432
-0.496375
-0.350585
-0.428746
-0.474958
0.261913
0.078734
0.049539
-0.722894
-0.500600
0.049772
-0.099137
0.224887
0.329833
0.080760
-0.128629
-0.115218
-0.924058
0.128393
0.211083
-0.609045
-0.063989
0.247744
-0.182983
-0.222403
-0.014451
0.023415
-0.575723
0.315964
-0.201557
-0.103808
-0.191268
-0.549464
-0.506460
-0.170897
-0.269018
0.128442
0.581462
-0.356558
-0.345766
-0.182640
0.000187
-0.417894
0.190249
-0.162515
0.414137
-0.569166
-0.034678
-0.163429
-0.146313
0.002209
0.010471
-0.040378
0.084246
0.239415
-0.397676
-0.194298
-0.436044
0.121506
-0.241153
-0.017428
-0.036742
0.047067
0.036575
-0.694508
-0.472405
0.342991
0.012543
-0.037961
-0.133069
0.094284
0.047424
0.081562
0.181877
-0.311476
0.185655
0.379271
0.006719
0.254096
-0.017415
-0.363268
-0.002922
-0.158116
0.140119
-0.096429
0.065248
-0.231250
-0.158160
0.520040
0.139094
0.118658
0.517377
-0.009779
-0.332900
-0.231697
-0.026194
0.008912
-0.076352
-0.095723
-0.645171
-0.514141
-0.167817
0.107996
-0.132231
-0.323899
-0.096162
-0.336665
-0.063928
-0.011446
0.183946
-0.293853
0.158262
-0.230749
0.078358
-0.200122
-0.110328
0.157817
0.060941
0.124853
0.030086
-0.092038
-0.146235
0.007518
-0.210938
-0.867139
-0.045404
-0.159911
-0.250687
0.476242
0.201674
-0.014521
0.008251
-0.044121
-0.293217
-0.358519
0.046819
-0.129753
0.274569
0.368251
-0.403842
0.454560
0.058847
0.059759
0.217918
0.661457
0.084747
-0.537028
0.297100
0.059348
-0.069589
-0.173539
-0.011643
-0.294711
-0.044398
-0.191963
-0.470907
-0.293903
0.651024
-0.351985
-0.195067
0.349085
-0.670737
0.120884
0.362619
-0.067478
-0.032433
-0.346908
0.197361
0.182261
-0.002361
0.516579
0.034021
0.445877
0.000916
0.035416
-0.110734
-0.732573
0.073816
0.044287
-0.503095
0.117615
0.028897
-0.241211
-0.097608
0.219759
0.101296
0.226621
0.522658
-0.119645
-0.223737
-0.658274
0.078000
-0.443791
0.114337
0.312137
0.680310
-0.199509
-0.010157
-0.075118
0.041486
-0.419174
-0.204283
-0.270163
-0.859024
-0.117359
-0.179060
0.229569
0.357318
0.512223
-0.743050
-0.181333
0.142054
0.057212
0.045786
-0.045331
0.222884
-0.132674
0.342868
-0.503195
0.836662
-0.351510
-0.044521
-0.297764
-0.090962
-0.079924
-0.547215
0.723245
-0.138565
-0.538382
-0.148279
-0.088451
-0.044313
0.391271
-0.290375
-0.073069
0.181013
-0.397431
-0.747120
-0.133704
-0.155568
-0.104042
0.056273
-0.098051
-0.076121
0.038830
-0.220376
0.043388
-0.250034
-0.035778
-1.492977
-0.107329
-0.134324
0.330983
0.193487
-0.130835
0.204501
-0.047725
0.302881
0.054852
0.123641
0.410892
-0.369296
-0.224006
-0.165147
-0.312882
0.049024
0.235372
-0.450679
0.022065
-0.073211
0.028233
-0.317891
0.386033
0.440064
-0.001666
0.184762
-0.505194
-0.267270
-0.236971
-0.577913
0.128868
0.051152
-0.074642
-0.737728
-0.243319
-1.031471
0.500916
0.408034
-0.978614
0.125656
-0.066255
0.294250
0.038072
0.448393
0.043274
0.313781
0.278028
-0.437652
0.205632
0.409434
0.031763
0.126328
0.301423
-0.205566
0.835523
0.104992
-0.354133
-0.617300
-0.169072
-0.026198
0.370299
0.145345
0.344894
-0.459814
0.123083
-0.589717
0.214912
-0.238753
-0.495847
-0.239189
0.470580
0.247254
-0.569111
0.006529
0.040754
-0.119235
0.152125
0.042336
0.186242
0.166944
-0.696523
-0.261819
-1.097931
0.271184
-0.295769
-0.160412
0.293839
0.415556
0.065554
0.197738
-0.131316
0.448026
-0.397854
0.100026
0.407653
-0.123865
0.406225
-0.136759
-0.080551
-0.566848
0.189648
-0.006298
0.163435
0.582108
-0.188479
0.261479
-0.272163
-0.011582
-0.039633
-0.054737
-0.122218
-0.078792
0.602216
-0.404954
-0.093751
-0.556723
0.181383
0.149098
0.504881
-0.310408
-0.260553
0.085917
0.331014
0.147599
-0.624889
0.034926
-0.470869
-0.100701
0.238037
0.014280
0.315284
-0.222288
-0.045864
-0.218945
-0.133502
-0.305672
-0.014546
-0.045041
-0.197224
0.044111
0.266633
-0.479617
-0.038264
-0.016272
-0.278131
0.071887
0.508731
0.362261
-0.265429
-0.766451
0.181914
-0.262981
0.305628
-0.170381
-0.324797
-0.631244
-0.348761
-0.307877
-0.169704
0.218804
0.035511
-0.522461
-0.111050
-0.189340
-0.275017
-0.248082
-0.636242
-0.460320
-0.007223
-0.432416
0.073389
0.286517
-0.147774
-0.513503
-0.162289
0.274822
-0.484803
-0.306253
-0.055144
-0.185567
0.186187
0.292807
0.314698
0.035119
0.034373
-0.211665
-0.383360
0.109964
-0.394130
-0.601372
-0.048778
0.211617
-0.096974
0.531538
-0.114548
-0.064761
-0.330510
0.353506
-0.416327
-0.257850
-0.149171
0.193618
0.094200
-0.088618
0.416589
0.044883
-0.036014
0.136770
0.246388
0.232996
0.117776
0.030005
0.292312
-0.032562
0.210745
0.073919
0.249286
-0.089860
0.170683
0.639825
-0.496416
0.258018
-0.319264
-0.048014
-0.416484
-0.042396
-0.046218
0.027991
0.091791
-0.321851
0.111485
-0.227683
0.358461
-0.075355
-0.205247
-0.185841
-0.361508
0.111345
0.091480
0.245078
0.293507
0.073103
-0.268010
0.148368
0.019953
-0.342986
0.058215
-0.613301
-0.340506
-0.176260
-0.324994
0.095628
-0.721931
0.066813
-0.264690
-0.271399
0.006908
0.313652
0.423933
0.200542
-0.154584
0.407793
0.553630
-0.108251
-0.272987
-0.771385
-0.010127
-0.610771
-0.121440
-0.286321
-0.108751
0.185604
-0.028017
-0.015363
0.042138
0.391875
-0.212872
0.015584
-0.246250
-0.351363
-0.013381
-0.682957
0.628078
-0.240576
-0.923669
0.472046
-0.031341
-0.128991
0.033181
0.283753
0.254090
-0.982029
-0.043517
0.077721
-0.087873
0.062510
-0.386647
-0.344156
0.229737
0.149905
-0.414355
0.360395
0.337853
-0.659292
-0.171454
0.030712
0.072835
0.393169
0.327445
-0.027619
-0.570291
0.106426
-0.362553
0.126519
-0.150002
-0.096861
-0.033736
-0.220444
-0.426596
-0.264338
-0.699904
0.248861
-0.123361
-0.321563
0.551748
-0.188996
-0.537012
-0.819509
0.005169
-0.134588
-0.063972
-0.001381
-0.033431
-0.373031
-0.121310
0.287067
-1.027818
-0.118547
-0.122357
-0.286800
-0.615458
-0.274023
0.010595
-0.087241
-0.091496
-0.398220
-0.444539
0.155269
-0.137953
0.127375
-0.097744
-0.228612
-1.055849
0.078827
-0.067339
0.080993
-0.348921
-0.113260
-0.273668
-0.253088
0.071570
0.368589
0.135514
0.576696
-0.218926
0.038326
0.224168
-0.278345
0.206901
-0.519077
-0.746095
0.518074
0.077983
-0.018625
0.214415
-0.115440
0.142210
-0.011465
0.441940
-0.023170
0.045742
-0.202316
0.253479
-0.073863
-0.474658
-0.722509
0.250687
-0.057736
-0.418900
0.068617
0.610028
0.103735
0.009522
-0.113435
-0.258136
-0.110392
-0.236069
-0.184024
-0.197500
-0.308967
0.101249
0.406310
0.142159
-0.356158
-0.217027
-0.575045
0.585336
-0.126057
-0.244494
0.132957
-0.218289
-0.065757
0.123737
0.206648
-0.619112
-0.065041
0.258976
-0.014358
-0.368029
-0.058210
-0.282312
-0.008526
-0.240759
-0.069972
-0.011724
0.385686
-0.157366
0.147473
0.372401
0.085006
-0.421034
0.228190
-0.769091
-0.418496
-0.129015
-0.393039
-0.455484
-0.257232
0.203344
-0.112935
-0.297980
-0.829199
0.097983
-0.188918
-0.393648
0.072764
0.214097
-0.043443
0.724802
0.431299
-0.367083
-0.010697
0.104700
0.269279
-0.009885
0.317718
-0.924270
-0.552359
-0.509214
-0.339453
-0.179925
0.041761
-0.129415
0.564027
-0.248890
-0.235713
-0.137984
0.359954
0.171533
0.049158
0.059761
-0.864374
-0.004839
0.101906
-0.299623
-0.092502
-0.389213
-0.023512
-0.054151
0.159876
-0.432429
0.196564
-0.063579
0.354526
0.279686
0.203231
-0.039790
-0.034102
0.034805
0.194057
-0.469137
0.258742
-0.360806
0.014593
0.398502
0.010983
-0.013669
0.016468
-0.279493
0.188004
0.042859
-0.024918
0.041643
0.116644
-0.042834
-0.263607
-0.171083
-0.830380
-0.050619
0.324040
0.373725
0.081228
-0.096584
-0.102928
-0.298562
0.196532
0.021182
0.481067
-0.151480
0.399960
-0.355757
-0.291407
-0.255184
0.018900
-0.213775
0.009256
0.198019
-0.580711
0.226807
0.406608
0.229032
-0.208666
-0.190432
0.300968
-0.302038
-0.254730
-0.368946
0.068905
0.199291
-0.144459
0.152203
0.379301
0.103144
0.127139
-0.009191
-0.161513
-0.353563
0.280446
0.007131
0.311189
0.059950
0.085661
-0.293234
0.043545
0.091170
0.247459
0.087207
0.058774
0.104221
0.126874
0.503495
-0.128655
-0.021919
-0.310774
-0.721097
-0.065384
0.188139
-0.360335
0.018685
-0.376218
0.607955
-0.240748
-0.340305
-0.446092
-0.047205
0.263279
0.385771
-0.564060
-0.319252
0.644467
0.155242
0.295252
0.451465
0.210700
0.071673
-0.323171
-0.239790
0.241208
-0.237224
-0.121053
-0.237172
0.267905
0.238708
0.108253
0.455003
0.386335
-0.357855
0.068035
-0.213614
0.158931
-0.229207
-0.176059
0.127324
-0.001756
-0.423304
0.019257
-0.038112
-0.351255
-0.001413
0.309526
-0.286188
0.024383
-0.709611
-0.300326
0.037900
0.224016
0.217402
-0.115956
0.173159
-0.578447
0.129123
-0.284866
0.059076
-0.577820
-0.716370
-0.292903
0.034599
0.271864
0.257037
0.036914
0.129514
-1.283470
0.209233
0.445669
-0.117278
-0.129689
0.075591
-0.103325
-0.376672
0.098735
-0.285775
-0.362254
0.279369
0.140117
-0.467610
0.089203
-0.404053
-0.084488
-0.190798
0.035011
0.120150
0.317760
-0.343198
-0.120657
-0.062195
-0.087006
-0.240588
-0.147002
-0.239619
0.327638
0.263050
-0.550014
0.606640
-0.128749
-0.427050
0.028095
-0.431565
-0.043304
0.618058
-0.600757
-0.159877
-0.381818
-0.278666
0.012599
-0.239640
0.045298
0.025190
-0.352611
-0.320110
-0.035198
-0.206605
-0.172446
0.069735
-0.108621
0.130020
-0.226314
0.249417
0.298915
-0.371273
-0.274232
-0.164589
-0.005823
-0.440786
-0.064089
0.214434
-0.430337
-0.668668
0.017891
0.206329
0.002828
-0.105483
0.104145
0.135446
0.652183
-0.405200
0.133591
-0.287476
-0.196894
-0.358117
0.159856
-0.190238
0.098950
0.120998
0.177770
0.255896
-0.681821
0.083096
-0.387701
-0.237485
0.560577
0.056650
-0.274981
0.165051
0.164342
-0.239187
-0.030910
-0.421525
0.036303
-0.056950
0.116097
0.410372
-0.155921
-0.261901
-0.076813
-0.516896
0.112077
-0.352196
0.698788
0.333716
0.718348
-0.080922
-0.449879
0.066638
0.129139
0.137576
-0.146524
0.011836
0.147726
-0.618483
-0.173204
-0.024802
0.686248
-0.727717
0.160384
-0.075025
-0.143527
-0.317558
-0.197259
-0.025282
-0.190436
0.098573
-0.042567
0.418988
0.136393
-0.657676
0.386607
-0.511499
0.125430
0.086321
-0.048201
-0.211204
0.123689
-0.421556
0.422985
-0.031210
-0.223456
0.311848
-0.169010
-0.252676
0.316072
-0.599149
-0.275803
-0.444943
0.335053
-0.804023
-0.147215
-0.385421
0.307119
-0.108754
0.334207
-0.095404
-0.533032
-0.269488
-0.187116
-1.230437
-0.049207
0.171717
0.208894
-0.549885
0.099471
0.383359
-0.141229
0.341315
0.169860
0.038341
-0.505852
-0.375763
-0.081429
-0.368440
-0.339719
-0.152048
0.000936
0.330533
0.163137
-0.508631
0.100804
0.033736
0.372469
0.345880
-0.028501
0.143073
-0.022104
0.253062
-0.151927
-0.268167
-0.208612
-0.399111
-0.166693
-0.053087
-0.103069
0.251951
-0.845476
-0.291828
0.160175
-0.097402
0.093723
-0.184586
-0.218687
-0.155110
0.010835
-0.122117
-0.061607
-0.267548
-0.306288
-0.374745
-0.255184
0.156212
-0.227892
-0.372065
-0.200419
-0.439068
-0.196088
0.127384
-0.199972
-0.408905
0.008831
-0.023236
-0.152120
0.023773
0.253812
0.049011
0.133584
-0.670238
-0.194960
0.293640
0.194081
0.259422
-0.392195
-0.218127
0.384571
-0.016269
0.114173
-0.129324
-0.275085
-0.481272
0.041367
-0.053433
-0.038253
0.001739
-0.314804
-0.873499
-0.064603
-0.168527
-0.321683
0.276743
0.020228
-0.086074
-0.227591
0.417881
-0.008799
0.074270
0.007115
1.007586
0.025223
-0.323357
-0.071623
-0.184102
-0.869651
-0.189064
-0.120355
0.064591
-0.357232
0.136124
0.161935
-0.392233
0.212451
0.328390
0.331448
-0.693254
0.081000
0.026331
-0.100232
0.220707
-0.563023
-0.639317
-0.294162
-0.179870
-0.202379
-0.023845
-0.189299
-0.316493
0.093870
0.039122
-0.194468
0.050115
0.420796
-0.051881
0.684972
0.104248
-0.263169
0.280709
-0.351327
-0.172149
-0.585620
0.246516
0.541793
0.171224
0.244033
0.008917
0.045691
0.117353
0.068651
-0.397747
0.110291
0.397687
0.782364
-0.288270
0.474534
0.151041
-0.031343
0.308429
-0.177801
-0.149554
0.370505
0.097261
0.250963
-0.225918
-0.143472
0.447223
0.109643
0.508768
-0.243624
0.086833
0.344001
-0.175928
-0.238233
0.074492
-0.191997
-0.194467
-0.107158
0.159739
0.252649
-0.371318
-0.299398
-0.098071
-0.041635
0.178375
-0.091958
0.297854
-0.232704
-0.281664
-0.145156
-0.440841
0.017802
0.071478
-0.062083
-0.533045
-0.494423
0.309594
-0.111477
0.069636
0.152419
-0.214337
-0.143786
-0.227297
0.260121
0.115924
0.258976
-0.128281
0.446652
-0.030567
0.250729
0.141731
-0.137341
0.066698
0.327888
-0.701718
-0.096727
0.616919
0.095869
-0.104777
-0.671785
0.273417
0.120668
0.429374
0.088881
0.274792
0.249937
-0.038566
-0.070168
0.470210
0.333057
0.192323
-0.081695
0.090862
0.035317
-0.107584
-0.141421
0.062724
0.125311
-0.461608
-0.233283
-0.498315
0.057909
0.067472
0.398434
-0.251038
0.134307
-0.172131
0.057335
0.457090
-0.085898
-0.498104
-0.522904
0.385449
-0.552367
-0.537578
-0.248285
0.183280
0.031712
0.000023
-0.029859
-0.425150
0.150536
0.172427
-0.108441
-0.269082
0.242289
0.037406
-0.514529
-0.101054
-0.196151
-0.194635
0.034999
-0.185055
0.371030
0.050078
-0.397978
0.385308
0.226901
-0.319022
0.276890
-0.133224
-0.251757
0.447946
0.169210
-0.508385
-0.144798
-0.373067
-0.658660
-0.345909
-0.113720
0.060870
0.060122
-0.030302
-0.422746
0.058500
0.477841
0.501297
0.085555
-0.256280
-0.163689
0.124398
-0.300728
0.459701
-0.130034
-0.508311
-0.273312
-0.297548
0.008305
-0.610253
-0.018337
-0.015258
0.131633
-0.253717
0.081397
0.080437
-0.603594
-0.188010
-0.613693
0.516163
0.031399
-0.523287
-0.538894
0.166968
-0.207764
0.638989
-0.010544
0.225491
-0.295131
-0.506060
0.245977
-0.151995
-0.219347
-0.263813
-0.258794
0.003315
-0.323694
0.127423
-0.479722
-0.046963
0.033202
0.229858
-0.315378
-0.031841
-0.211375
-0.665497
-0.575893
-0.259470
-0.524058
-0.403156
-0.334700
-0.176355
-0.170086
-0.066598
-0.201206
0.407154
-0.272745
-0.183919
0.017381
-0.146652
-0.298645
0.966631
-0.017213
-0.165513
0.087933
0.166929
0.277281
0.261919
-0.191014
0.110825
-0.200987
0.321298
-0.203113
-0.038992
0.160935
-0.734011
0.170076
-0.358462
-0.346663
0.025210
-0.181366
-0.325587
-0.183435
0.063105
0.037572
-0.023978
0.320091
-0.433088
-0.284950
0.095571
-0.113937
-0.352615
0.344853
0.350220
0.112864
-0.230646
0.161231
-0.172982
-1.307665
0.276104
0.300663
-0.090183
0.017075
-0.027871
-0.047032
-0.126729
0.498093
-0.152470
-0.157952
-0.122484
0.278704
0.124472
-0.523447
-0.058964
0.096232
0.417451
-0.321283
-0.396576
-0.573548
-0.427229
0.052901
0.357573
0.021622
0.229650
0.169872
0.171515
-0.013866
-0.376918
-0.072807
-0.289961
0.277350
0.614293
0.481859
0.094861
-0.647385
-0.358835
-0.237318
0.269957
0.134097
-0.128478
-0.150951
0.194486
-0.497669
0.139150
-0.244847
-0.070120
0.326595
-0.421293
0.006630
0.088815
-0.477126
-0.291337
0.360124
0.013700
-0.062316
0.330496
-0.080192
0.025077
-0.331123
-0.852169
0.337301
0.191288
0.339644
0.051529
-0.536636
0.085745
-0.283831
0.039708
0.172491
-0.074589
0.293853
-0.336754
-0.232279
0.093450
-0.450260
0.110813
-0.115041
0.167628
0.368595
0.312491
0.356357
0.411203
-0.455927
-0.096202
-0.020874
-0.023624
-0.072010
-0.106003
-0.653717
0.242811
-0.064876
-0.220960
0.236281
0.543053
-0.211985
-0.172153
-0.240251
-0.508303
0.087023
-0.261792
-0.216357
-0.377837
0.028178
-0.205486
-0.295487
-0.501713
-0.361532
0.111643
0.203343
0.008237
-0.395323
-0.916914
-0.148042
-0.400733
-0.147039
0.399315
-0.473604
-0.523175
-0.120792
0.008680
-0.081202
0.113973
0.137602
-0.242178
0.001785
-0.143244
-0.492291
0.364689
0.082851
-0.277608
0.035053
0.277416
-0.486834
0.278066
0.265122
0.321202
-0.312169
0.065233
0.009478
-0.217788
0.061739
-0.250966
-0.072119
0.211193
-0.283949
0.165281
0.274801
-0.074701
0.156924
-0.004278
-0.097458
0.639957
-0.190308
-0.219119
0.074222
-0.227117
-0.539667
0.060563
0.327985
-0.020837
-0.207801
-0.177242
0.012003
0.013925
-0.284419
0.341239
-0.226106
-0.023513
0.155309
-0.735108
0.151160
0.116581
-0.069904
0.107965
-0.141756
0.075474
-0.354862
0.560804
0.256458
-1.209368
-0.002189
0.328194
0.016638
0.173932
-0.282883
0.381484
0.680574
-0.015627
0.176371
-0.465243
0.060444
-0.070023
-0.465627
-0.061308
-0.321425
-0.089807
0.028234
-0.357256
-0.163134
-0.258132
0.215504
0.180849
-0.372396
-0.314268
0.350847
0.580718
-0.201949
0.051285
0.440638
0.134842
0.210861
0.265412
-0.086816
0.009165
-0.292127
-0.074118
-0.563623
0.759730
-0.118930
-0.245087
-0.102271
-0.507530
-0.485452
-0.250065
-0.178313
-0.398385
-0.300785
-0.335676
-0.032769
0.003442
-0.380892
0.926582
0.047732
0.143481
-0.153220
-0.499459
-0.533072
-0.122889
-0.108047
0.081054
-0.535542
-0.592718
0.153502
1.942927
-0.111087
-0.466183
-0.300458
0.176884
0.737850
0.290898
-0.282414
-0.210865
-0.301233
-0.326472
-0.001101
-0.160630
-0.538886
-0.100801
-0.009193
0.043735
0.012707
0.305979
-0.137940
0.015725
-0.068927
-0.253354
-0.242939
-0.240335
0.516675
0.057572
0.024696
-0.812517
-0.127322
-0.110078
0.000587
0.148890
-0.150168
0.176353
-0.089159
0.140221
-0.224424
-0.028130
0.266326
-0.085615
-0.301180
-0.374400
-0.229003
0.339491
-0.106919
-0.087369
-0.002302
0.154107
-0.266116
0.414677
-0.130487
0.394432
0.187270
-0.380037
-0.597775
-0.192493
-0.324576
0.445141
-0.256158
0.530020
-0.199935
0.205703
0.212659
-0.026340
0.811615
-0.087374
-0.103162
-0.314353
0.017648
0.153527
-0.351472
0.605469
-0.347079
0.219115
-0.344127
0.065793
0.298412
0.312734
0.236093
0.142349
-0.011662
0.134959
-0.267676
-0.254989
0.236460
0.333429
0.259951
0.019175
-0.139768
0.319742
0.087086
-0.000168
-0.616956
0.256780
-0.064219
-0.174711
0.086569
0.316571
-0.134943
-0.424784
-0.242983
0.320304
0.155781
-0.099491
-0.078835
-0.412984
-0.205682
-0.494911
0.058084
-0.202703
0.346376
0.060128
0.335704
-0.340955
-0.580858
0.301597
-0.044968
-0.013198
-0.058910
-0.126676
-0.565378
0.254024
0.282127
-0.159593
0.259494
-0.864424
-0.017447
0.026535
-0.257956
-0.061734
0.097091
-0.240626
-0.130717
-0.225529
0.011449
0.224644
0.093490
0.335242
-0.030062
-0.050039
0.126052
0.337830
-0.067217
-0.468426
-0.189406
-0.382910
-0.083343
0.131695
0.088970
-0.379480
-0.235186
0.029772
0.008632
-0.734785
-0.125488
-0.202465
0.356166
-0.337823
-0.592678
0.311960
-0.099235
0.098921
0.575523
-0.246808
-0.813014
-0.234494
0.044186
0.155152
-0.265621
-0.175545
-0.022753
0.387180
-0.866950
-0.311034
0.048637
0.167187
-0.370779
-0.525366
-0.522930
0.013467
-0.004094
-0.221610
0.200307
-0.180758
-0.253170
-0.197585
0.090736
-0.477763
0.135458
0.175797
-0.376162
0.024073
-0.301027
0.379930
-0.024173
0.365078
-0.316374
-0.045131
-0.275381
0.168230
-0.560656
-0.031469
0.127041
0.161518
-0.114845
0.297065
0.146227
0.117508
0.070698
0.016843
-0.220764
-0.509106
0.034652
-0.063292
0.027519
0.156607
0.040863
0.263998
0.102267
-0.569041
-0.690769
-0.337847
0.009169
0.009682
0.191349
-0.470310
-0.468721
-0.067781
0.108945
-0.134176
-0.056096
0.289441
0.127907
0.107774
0.178671
0.106677
-0.645615
-0.202584
0.444442
-0.116103
-0.392062
-0.079462
0.239175
-0.002522
0.100895
0.161072
0.106898
-0.114533
0.141553
0.705382
-0.177662
0.169465
0.101245
0.038190
0.249695
-0.908528
-0.289542
-0.108169
0.199000
-0.260622
-0.363998
0.220956
-0.131505
-0.112904
0.594489
0.163605
0.073450
0.082073
0.257605
-0.216241
-0.175311
-0.318541
0.221487
-0.512671
-0.148267
0.402626
-0.541794
-1.315205
0.134966
0.329658
-0.104252
0.021421
-0.091831
-0.123313
-0.495427
-0.168874
0.157852
-0.574415
0.190062
-0.126992
-0.088415
-0.220939
0.013246
0.300640
-0.012954
-0.092015
0.394114
-0.048676
0.139119
0.274776
-0.483122
0.325496
0.155894
-0.095574
-0.055160
-0.096561
-0.103455
-0.125364
0.351703
0.374744
0.262271
-0.787107
-0.189400
0.127453
-0.427439
-0.167274
0.103975
-0.229818
-0.237303
-0.833713
-0.610075
0.512938
-0.137739
-0.470667
-0.237370
-0.022032
0.024874
-0.029538
-0.389449
-0.408215
-0.078757
-0.102276
-0.181277
0.412241
-0.019033
-0.192565
0.197803
0.116588
0.108610
-0.090083
0.120242
0.994707
-0.891372
-0.040273
0.058548
-0.520351
-0.103895
-0.098799
0.076776
-0.417799
-0.194559
0.282473
-0.661184
-1.211203
-0.203130
-0.351850
-0.292408
-0.003065
-0.545698
0.138471
0.472397
-0.526618
-0.130268
-0.444549
0.027386
0.165503
0.134395
-0.059508
-0.345854
0.257867
0.030757
-0.387133
-0.370715
0.211289
-0.056389
0.653940
-0.016320
-0.550911
-0.741123
-0.242642
-0.515525
-0.406739
-0.103847
0.262846
-0.052406
-0.541369
0.025866
-0.100097
0.006801
0.234296
-0.388779
0.228855
0.477172
0.255457
-0.224682
0.452498
-0.072773
-0.001051
-0.167534
0.199551
-0.053407
0.388258
-0.569585
-0.199929
0.215085
0.286754
-0.757089
0.008668
0.260220
0.017121
0.164306
0.356840
-0.071666
-0.578087
0.045206
0.005906
-0.108981
-0.350514
0.157551
0.057036
0.224252
0.004454
0.398625
0.434014
-0.012649
-0.061667
0.341572
0.788267
0.208652
0.118470
-0.260599
-0.111068
-0.032014
0.251334
-0.168206
-0.241564
0.088455
-0.439547
-0.332342
-1.183299
-0.008901
0.312880
0.024588
-0.001171
0.080663
-0.058020
0.068792
0.193592
0.422790
-0.403441
-0.030315
0.023536
0.095901
-0.106963
0.166025
0.049259
0.419480
-0.214502
0.038573
0.061164
-0.112462
-0.634508
-0.945298
-0.264664
-0.233185
0.110208
-0.216273
0.018931
-0.132193
-0.387647
-0.179815
-0.280677
0.126296
-0.125745
0.441718
0.165315
0.121734
0.208733
0.318032
0.204740
-0.076222
0.119453
0.053802
-0.467157
-0.000369
-0.066370
0.150903
-0.444928
0.213656
0.348766
-0.533995
0.467331
0.012336
0.320618
-0.155700
-0.299140
0.441295
-0.548992
-0.007214
0.001171
0.450026
-0.073810
0.024959
-0.329513
0.128739
-0.204962
0.107482
0.073652
-0.260528
-0.407115
0.311662
-0.175131
-0.213337
-0.368901
0.403074
-0.143452
0.503074
-0.236753
-0.436314
-0.127112
-0.333243
0.059870
0.037203
-0.896868
-0.173824
-0.430318
-0.312882
-0.074541
0.042049
-0.223409
-0.461638
0.293053
-0.269470
-0.452601
0.055473
-0.441643
0.371580
-0.175990
-0.266369
-0.011498
-0.764261
-0.554758
0.187017
-0.220903
-0.073061
-0.478909
0.065772
0.528983
-0.071734
-0.114509
-0.126969
-0.427625
-0.568760
-0.223014
0.062056
-0.620909
0.115801
-0.086175
0.325870
0.069599
-0.062820
-0.324643
0.146124
0.326128
-0.473069
0.217267
-0.251027
-0.257030
-0.121417
-0.094478
-0.129895
-0.252964
-0.035863
-0.157822
0.077738
0.297067
0.193959
0.286930
-0.266366
0.075311
-0.215451
-0.279802
-0.019839
-0.053719
-0.228316
-0.011999
0.234623
-0.119781
-0.406470
0.182146
-0.140474
-0.300698
-0.050958
0.125378
-0.408850
0.002383
-0.192428
-0.061327
0.201758
0.073092
-0.289400
-0.008144
0.084192
-0.073592
0.243731
-0.672968
-0.548369
0.213098
-0.037196
0.050279
0.302911
-0.463925
0.413672
0.861184
-0.202221
-0.050189
-0.405904
0.350620
0.055624
-0.048837
-0.101393
-0.001984
-0.299063
-0.155834
-0.074874
-0.057476
0.124950
-0.640264
0.002183
0.214821
-0.000388
-0.062446
0.269831
-0.539882
-0.259772
0.625973
-0.312000
-0.025740
-0.313977
-0.749783
0.312633
0.009675
0.003643
0.059905
0.153180
0.128432
-0.580425
-0.211947
-0.165476
-0.087651
0.039424
0.134277
0.154575
0.349500
0.362723
-0.056212
-0.150428
-0.115252
-0.114536
-0.327437
-0.591087
-0.689568
-0.015141
-0.228746
-0.522152
-0.060218
0.088936
0.424764
-0.231760
-0.489206
-0.553635
0.041488
-0.115162
-0.294317
-0.366890
0.233978
-0.229315
