0.851285
0.096011
-0.326893
0.005300
0.053741
-0.054180
0.381222
-0.805602
-0.534202
0.401096
-0.321470
0.458242
-0.294045
-1.377684
0.025217
-0.225311
0.631960
-0.111196
1.039572
-0.375002
-0.184376
0.156467
0.174934
-0.423699
-0.403786
0.160998
0.198671
-0.121977
0.796742
-0.638636
-0.366104
-0.294989
-0.070905
0.828032
-0.031033
0.311296
-0.196898
-0.042746
0.335727
0.588946
-0.076657
0.221677
0.090846
-0.110192
-0.276915
0.264947
-0.870660
-0.117834
-0.287809
0.193135
0.534575
1.436826
0.255669
-0.033913
0.514931
0.081933
-0.981723
-0.639558
0.416226
-0.199308
0.289810
0.331541
-0.018088
0.273160
-0.207768
1.721988
-0.073232
-0.367423
0.244347
-0.206542
0.073445
0.299288
0.456221
0.104402
-0.293717
-0.128213
-1.377043
0.096149
-0.124630
1.214836
0.214904
-0.169914
-0.078771
0.043905
0.042486
0.549060
-0.711441
-0.164183
-0.436364
-0.784744
0.263517
-0.179537
0.967154
-0.403882
-0.217090
-0.141624
0.219753
0.031262
0.193396
-0.210178
-0.218973
0.014326
0.016023
0.340197
-0.586590
0.253202
0.148162
-0.058843
0.054902
0.251618
0.432089
-0.458299
-0.940822
1.789899
0.154003
-0.507222
0.121830
-0.372590
0.526681
-1.197840
0.436234
0.353054
0.506136
0.295217
-0.112090
0.148242
-0.081226
-1.207642
-0.849546
-0.095227
0.325289
-0.004094
-0.055339
0.052823
-0.379526
0.805008
0.533556
-0.404970
0.322305
-0.459165
0.296565
1.378175
-0.026688
0.227047
-0.633488
0.110832
-1.039089
0.374911
0.184567
-0.155965
-0.176091
0.426999
0.403548
-0.159659
-0.198535
0.123009
-0.796301
0.637065
0.367041
0.294381
0.072876
-0.828907
0.032040
-0.309220
0.198097
0.043705
-0.334473
-0.588717
0.074473
-0.221687
-0.090818
0.109665
0.277048
-0.265296
0.869848
0.118342
0.287174
-0.191290
-0.534579
-1.437668
-0.256231
0.033203
-0.516128
-0.083900
0.980603
0.639282
-0.414861
0.197116
-0.288663
-0.330060
0.016091
-0.272495
0.209242
-1.721800
0.072949
0.368869
-0.242891
0.208467
-0.071506
-0.300441
-0.457424
-0.104131
0.293925
0.128081
1.377893
-0.094992
0.125334
-1.213560
-0.213173
0.168018
0.078754
-0.045506
-0.043042
-0.549659
0.710873
0.162736
0.434785
0.783845
-0.263633
0.178061
-0.968091
0.404538
0.217285
0.140118
-0.219691
-0.029062
-0.192236
0.210453
0.221014
-0.014322
-0.016435
-0.339622
0.584936
-0.252989
-0.149276
0.059570
-0.055394
-0.251858
-0.432669
0.459642
0.939499
-1.790611
-0.154827
0.506761
-0.122055
0.370207
-0.524763
1.197413
-0.436057
-0.350715
-0.505795
-0.295954
0.110704
-0.149823
0.079774
1.206397
0.110811
-0.568864
-0.562132
0.237869
0.725698
0.009304
-0.556029
0.667184
-0.518785
-0.012100
0.543577
0.479569
-0.609248
0.308135
0.423057
0.505392
-0.351190
0.469813
-0.064546
-0.887146
-0.259774
-0.167377
0.321465
-0.456123
0.560024
-1.257765
0.715881
0.420766
-0.680161
-0.084333
0.556050
0.389206
-0.042950
-0.027935
-0.183277
-0.505832
0.468690
-0.344162
-0.096937
0.215288
0.155757
0.794612
0.880606
0.057199
0.507083
0.795583
-0.230695
-0.014782
0.039140
-0.085797
0.270331
0.135187
-0.358974
-0.034463
-0.558358
-0.786600
0.228069
0.359522
-0.258459
0.017158
-0.084111
0.167811
0.431249
-0.294325
0.407386
0.660815
0.339227
0.178214
-0.239000
0.462158
0.617423
-0.044163
0.339301
0.485443
0.383324
-0.120562
-1.060160
0.783224
0.012252
-0.713278
-1.062492
0.908515
0.407330
0.176869
-0.320003
0.248866
-0.973016
0.178799
0.335923
0.307893
0.258676
0.294824
0.058552
0.207922
0.424355
0.159939
0.160849
0.162871
-0.396096
-0.121837
0.125069
0.402655
0.126593
0.926039
0.516588
0.262963
-0.150226
0.006235
-0.378158
-0.533582
0.445350
0.379582
-0.311720
-0.299117
0.340352
0.116945
-0.998490
-0.330206
0.414687
-0.808460
0.265648
0.289922
-0.005126
0.586871
-0.374027
-0.182041
-0.129154
-1.465639
-0.280518
0.089942
0.524480
0.097434
-0.183532
0.225769
0.242225
-0.211966
0.149347
0.137092
-0.114737
-0.310977
0.036839
-0.370166
-1.589413
-0.168536
0.173244
0.192565
0.098010
-0.107295
-0.118260
0.372366
-0.504626
0.097767
0.222740
-0.607146
0.299509
-0.641659
-0.228070
-0.469468
-0.210984
-0.218397
-0.512087
0.300480
-0.070464
0.005061
-0.022436
0.610619
0.214893
-0.040194
-0.797775
0.469264
-0.443530
0.591497
0.187585
0.097123
-0.742699
0.317526
0.153858
0.079830
-0.006177
-0.307427
0.250553
0.435168
0.806100
0.087702
0.468574
-0.591345
-0.009922
-0.327620
0.525513
0.289561
0.480299
0.036093
-0.004906
0.092569
0.044446
-0.240445
-0.024300
-0.062713
-0.232655
-0.412462
-0.001523
-0.502261
-0.030395
0.213205
0.405911
-0.089633
-0.201442
0.351092
0.547384
-0.223756
0.756432
0.043147
0.235846
0.623427
-0.148686
-0.154164
0.952231
0.279960
0.225958
-0.057991
0.248922
-0.155423
0.010664
0.704763
0.064582
-0.023798
0.082842
0.341042
0.339103
-2.772031
-0.627262
-0.236520
0.619391
0.310806
0.407963
0.071648
0.291314
0.287770
0.852261
0.159146
0.134026
0.105919
-0.333373
0.655776
-0.654033
0.041405
-0.566821
-0.007466
-0.665248
-0.478104
0.614546
0.299065
0.516942
-0.026042
0.397811
0.146026
0.689515
-0.117685
0.429720
-0.265005
-0.602293
-0.037359
-0.431374
-0.539985
0.075193
-0.044823
0.953290
-0.042974
0.147980
0.068943
-0.093021
0.236206
-0.386279
-0.304443
-0.170563
-0.022157
-0.392458
-0.666854
0.140309
0.116637
0.478927
0.123392
0.080998
0.475601
0.418149
1.071147
0.138204
-0.303019
-0.132062
0.143691
-0.728986
-0.763938
0.531716
-0.517361
-0.132112
0.207219
0.377456
-0.581235
-0.106476
0.140675
-0.173212
-0.166591
0.416820
-0.516878
-0.313349
-0.283793
-0.216073
0.663758
0.245362
0.348439
-0.363810
0.357686
0.490548
0.147254
-0.505044
-0.183245
0.264670
-0.324064
-0.455413
0.461109
-1.184120
-0.261915
0.580052
-0.590908
0.430211
-0.500454
-0.442943
0.506124
-0.239330
0.223574
0.349235
0.587940
-0.387719
0.704159
0.528755
-0.082266
-0.199557
0.580016
-0.341254
0.228044
-0.082486
-0.490921
0.827600
0.091300
0.206837
0.989852
-0.161851
0.396025
-0.034100
-0.586054
-0.363206
0.503293
-0.475580
0.331752
0.305180
-0.034176
0.013497
0.193649
0.399933
0.640634
-0.042810
0.494248
-0.432959
-0.278019
-0.636555
0.327827
-0.845360
0.070338
0.426693
-0.188652
-0.053612
-0.799743
0.042074
0.272092
-0.210695
-0.719246
0.395143
-0.193336
-0.376289
0.024135
-0.081964
-0.411833
-0.080233
-0.136782
0.260271
-0.515611
-0.470076
0.125211
-0.365917
-0.012061
0.147383
-0.364923
-0.347460
-0.039574
-0.176683
-0.058451
0.285505
0.001291
0.582245
0.025884
0.681382
-0.686930
0.530350
-0.501302
0.658874
0.410093
-0.420647
0.505744
0.255645
0.458654
0.160116
-0.284538
0.303119
-0.214846
0.137661
-0.054173
0.041800
-0.295516
-0.553746
0.022061
0.252139
0.436422
0.127166
-0.029353
0.388585
0.558114
-0.167997
-0.587103
0.398290
-0.453335
-0.235800
-0.007796
0.189722
0.512309
-0.186381
-0.035134
-0.004501
-0.567324
-0.301521
0.647528
-0.861632
0.231806
0.734559
-0.623389
0.131379
-0.831886
0.270557
-0.091694
-0.382515
0.180695
-0.047927
-0.576263
0.064385
0.239940
-0.732305
-0.170649
0.277211
0.225499
-0.712462
-0.953713
-1.833037
-0.255188
-0.451975
0.468493
0.651404
-0.807304
-0.053770
0.267602
0.376786
0.107074
-0.505459
-0.147281
-0.090630
-0.671519
0.222135
-0.063595
0.075764
0.312693
0.298131
-0.117059
0.726984
-0.032592
0.522986
-0.775186
-0.458964
0.127076
-0.089780
0.375809
0.432185
-0.456033
-0.004009
0.553377
-0.102275
-0.484666
0.247629
0.023732
-0.246257
0.414666
-0.292944
-0.204986
0.643623
0.582089
-0.098640
1.328854
0.704977
0.574246
0.057112
-0.130364
0.339397
-0.578580
-0.183971
-1.339363
-0.231137
0.410434
-0.096972
-0.720072
0.430567
0.104816
0.471798
0.508265
0.274928
-0.322850
0.627251
0.099544
0.011284
0.095406
0.222980
-0.603767
0.035715
0.739732
-0.090233
-0.001575
0.201336
0.197329
0.616854
0.237741
-0.025477
0.650050
-0.529759
-0.295716
-0.049757
0.791774
-0.259447
-0.290468
0.528265
-0.332501
-0.266294
0.058506
-0.374316
0.568666
-0.349777
0.041441
0.457944
0.173022
-0.348120
-0.124266
0.055944
-0.103236
0.106603
0.336835
-0.480529
-0.789989
-0.210041
-0.181737
-0.208389
0.767505
0.296075
0.163057
-0.200501
-0.073285
-0.819841
0.243536
-0.219921
0.626557
0.023657
-0.537474
0.104766
0.067863
-0.052372
0.440727
0.299333
-0.015007
-0.216574
0.612442
0.565969
-0.098292
-0.231480
0.005105
0.507727
0.171246
-0.446143
0.117693
0.254878
0.117628
-0.207358
0.244661
0.142803
-0.740927
0.142917
-0.275725
0.032109
-0.204362
-0.676736
0.233496
0.064659
-0.209237
0.514302
0.146633
0.766976
0.427008
-0.991864
0.262714
0.241477
-0.205442
-0.607245
-0.829207
0.005722
0.102783
0.507818
-0.305401
0.523632
0.362534
0.378413
0.316852
0.153906
-0.105205
-0.298234
-0.000275
-0.191500
-0.172527
-0.112179
-0.023088
-0.455774
-0.299246
-0.856562
-0.765149
0.124246
0.215991
0.292039
0.561029
-0.502545
0.509289
0.167960
-0.318410
0.003558
-0.644313
0.153890
-0.476841
-0.108930
0.758824
-0.105635
-0.617423
-0.039953
0.227202
-0.307857
0.119758
-0.177402
-1.114383
-0.210650
0.689945
-0.224455
-0.353773
0.291838
0.424005
-0.130551
0.307401
-0.456692
0.653768
0.811278
-0.078766
-0.225736
0.429836
0.929449
-0.197668
0.754601
0.540788
-1.291084
0.335425
0.534329
0.155350
-0.161436
-0.065113
0.015953
0.195295
-0.177978
0.193537
0.261709
0.196590
0.628904
0.424129
0.329738
0.313113
-0.575123
-0.469656
-0.166693
-0.606990
0.161572
0.496444
0.226347
-0.443448
-0.160866
0.361984
0.328718
0.178550
0.784476
-0.436963
-0.484497
-0.696567
0.625635
0.206483
0.336738
-0.706339
-0.147757
0.321507
-0.134351
0.301565
0.260683
-0.799176
-0.105724
-0.043648
0.254568
-0.070196
-0.479320
0.088044
0.148128
-0.763018
-0.052136
0.623470
0.230930
0.060502
-0.495421
0.351408
0.218616
0.063764
-0.117925
-1.064919
-0.516347
-0.331139
0.055635
0.159479
-0.449868
0.194259
0.544414
-0.302734
-0.334866
-0.227025
0.771960
-0.058547
-0.204533
0.304430
-0.664448
0.160066
0.275820
-0.067464
0.556639
-0.877682
0.373580
-0.029155
-0.136856
0.179857
0.443044
0.103903
-0.439117
-0.589114
-0.366882
0.347306
0.375141
0.747463
0.044561
0.023909
0.384446
0.115240
-0.113142
0.493841
-0.325152
-0.454514
0.344807
0.031263
0.191242
0.992632
-0.527228
0.080747
-0.066473
0.768296
-0.287676
0.385955
0.339920
-0.163911
0.326058
0.079539
-0.112555
0.025620
-0.123287
0.119429
0.068009
-0.025756
-0.780091
-0.016955
-0.365448
-0.433461
0.411976
-0.169228
0.008017
0.389414
0.002106
-0.804325
-1.028873
-0.980692
0.224196
-0.399883
-0.063794
-0.405104
-0.575857
0.136915
0.131125
0.463859
0.404470
0.216425
0.213154
0.407335
0.523515
0.100036
0.072143
-0.556093
-0.349920
0.117175
0.386570
0.799599
0.113921
-0.199115
-1.314141
-0.406927
-0.025400
-0.462592
-0.841403
0.584810
-0.456353
0.089990
-0.751811
0.745176
-0.779759
-1.017262
0.973779
0.678628
-0.490189
-0.155722
0.415228
-0.005925
-0.078828
0.296442
0.082948
-0.110665
0.395070
0.456346
1.160730
0.481912
-0.076269
-0.478244
0.273855
-0.823253
-0.727532
-0.192826
0.080652
-0.362047
-0.531570
0.173522
-0.138550
0.191769
-0.224913
0.374035
-0.198386
-0.221885
-0.102498
0.352165
-1.138609
-1.141298
-0.265118
-0.184652
0.030974
0.020761
-0.524827
-0.156230
-0.737290
-0.190913
0.067107
0.317765
0.579767
-0.623503
0.629256
0.048509
0.072222
0.519201
0.157295
0.563055
-0.092464
-0.547337
-0.052398
0.078226
0.026000
0.550280
0.083640
0.062629
0.593113
0.703259
0.120340
-0.201350
-0.774398
-0.103570
0.275111
-0.311363
0.037539
-0.735891
0.185480
0.495418
-0.293004
0.530834
-0.313823
0.070552
-0.218778
-1.015095
-0.687045
-0.268095
-0.026404
-0.452541
-0.068823
-0.613315
0.154357
0.217541
-0.917917
0.372501
0.525047
0.292017
0.120885
-0.093919
0.534028
0.373819
-0.138173
-0.260742
0.341545
0.228560
-0.164662
-0.230278
0.166538
-0.507595
-0.409612
-0.012491
-0.064138
-0.521114
0.036119
-0.511795
0.105246
0.225571
0.134235
-0.481111
0.201759
0.392904
-0.381049
0.142434
0.013239
0.488933
0.452498
0.121511
0.103369
0.914214
-0.960052
-0.385441
1.049705
-0.179435
0.037929
0.017351
-0.358973
-0.358868
0.711286
-0.225085
0.123113
-0.071463
-0.499582
-0.183855
0.296856
-0.684876
-0.611329
0.585488
-0.331871
-0.664029
-0.743562
-0.017228
0.220730
-0.315177
0.051383
0.326315
-0.405401
0.140949
0.015264
-0.488606
0.182457
0.019786
0.366330
0.251141
0.146028
-0.336703
-0.427383
-0.460391
-0.056424
0.634371
0.374946
-0.295263
-0.091335
-0.951357
-0.162490
0.192597
0.442740
0.737708
0.156243
-0.554863
0.215872
0.146636
-0.692682
-0.344946
0.505238
0.034431
-0.311002
0.103515
-0.297650
0.520343
