-0.124756
0.276855
0.113342
-0.241089
0.087708
-0.002779
-0.163574
-0.248413
-0.149536
-0.328125
0.127197
-0.047394
-0.065369
-0.191650
0.108521
-0.145020
0.037018
-0.277344
0.094360
0.084595
-0.139526
0.183716
-0.314697
0.083801
-0.132446
-0.417236
-0.447998
0.043732
0.042603
-0.303955
0.161621
-0.100220
0.318115
-0.370117
-0.286133
0.135010
-0.040497
0.192627
0.247314
0.306641
0.044983
-0.195801
-0.138184
0.079651
-0.255127
-0.004189
0.033966
0.107727
-0.290527
0.222534
-0.039246
-0.089905
-0.053650
0.032867
0.242798
0.188110
0.184326
0.039825
-0.107971
-0.102356
0.017532
0.009499
0.013145
0.067688
0.234985
-0.034332
-0.290527
0.010590
0.068115
0.082397
-0.033478
-0.078918
0.141846
-0.090576
-0.269775
0.134033
0.171387
-0.016113
-0.090393
0.329346
-0.370850
0.093384
-0.014145
-0.015854
-0.030518
0.022079
0.203735
0.312012
-0.256836
0.294189
0.117004
0.081360
0.162720
0.081787
0.065796
-0.076294
0.044006
-0.090881
-0.002962
-0.076843
-0.095703
-0.242432
0.045074
0.193481
-0.072510
-0.321777
0.188965
-0.406494
-0.007004
-0.060791
0.009819
0.081116
0.038513
-0.277588
0.216919
0.018494
0.000083
0.002760
-0.486084
-0.122131
0.130859
0.015961
-0.175171
-0.227661
0.430664
0.377930
-0.092590
0.110291
