-0.645020 0.141479 0.318848 0.739746 -0.474121 -0.077148 -0.188599 0.534668 -0.557617 -0.422852 0.075134 -0.600586 -0.477783 -0.312256 0.286377 -0.397217 0.162354 0.370605 -0.301514 -0.330078 -0.070007 0.346680 0.390137 -0.256836 0.006294 0.002045 -0.576660 -0.288330 0.007622 0.097229 0.030014 -0.002676 -0.122253
0.150269 0.194824 -1.028320 -0.197998 -0.547852 0.266113 0.291992 -0.045837 -0.796875 -0.606445 0.073914 -0.310791 -0.322021 -0.460693 -0.145386 0.016205 0.136963 0.326904 0.216919 0.104492 0.113403 0.025299 0.074524 0.271240 0.350098 -0.281006 -0.153931 0.381592 0.350098 -0.563477 -0.650879 -0.601562 -0.507324
0.303467 -0.644043 0.493164 0.431641 -1.455078 -0.229980 0.434326 -0.374756 -0.688477 0.292969 0.613770 -0.065430 0.129150 -0.629395 0.286865 -0.351074 -0.042053 0.413330 0.015869 0.056000 -0.049500 -0.066956 0.333984 0.198242 0.148438 -0.020599 0.124023 0.445557 -0.570312 0.194824 -0.215576 -0.243286 -0.062042
-0.936523 -0.040161 -0.349121 -0.193726 -1.407227 -0.249512 0.296631 0.278809 -0.333008 -0.275635 -0.264160 0.475098 -0.190552 -0.314941 -0.509277 0.254639 0.127319 -0.020020 -0.080566 -0.008156 -0.204590 -0.157349 -0.097168 0.019577 -0.020966 0.364746 0.005173 0.009483 0.289062 0.260742 0.514160 -0.074890 0.355225
0.168457 0.386719 -0.223755 0.229614 -0.433105 0.139282 0.356689 -0.331299 -0.753418 -0.010223 0.101868 -0.106018 -0.333252 -0.246704 0.380127 0.258545 -0.282959 -0.986816 0.450439 -0.524414 0.130493 -0.130005 -0.413818 -0.196777 -0.536621 0.194214 0.013382 0.295410 0.312744 -0.452148 0.335938 0.118469 -0.063721
-0.044128 -0.131226 -0.028824 0.008858 -0.123230 0.127808 0.039307 -0.131714 -0.026535 0.029205 -0.038940 0.018158 -0.293945 -0.062317 -0.133789 0.111023 -0.004910 0.023056 0.014786 -0.162720 -0.197388 0.058868 -0.052094 -0.045227 -0.022827 -0.017548 0.037018 -0.175415 -0.101562 0.053162 -0.159180 -0.123718 0.219116
0.126099 -0.013237 -0.098022 -0.082764 0.061005 -0.351562 -0.022873 -0.135132 0.465332 0.730469 0.209961 -0.517578 0.035980 -0.197754 0.090698 -0.104126 0.082520 -0.022400 -0.223389 -0.144043 0.031708 -0.238525 -0.329346 -0.072266 -0.004623 -0.444336 0.400879 0.843262 -0.925293 0.424072 0.350830 -0.343506 0.113647
-0.310303 -0.755371 0.136963 -0.473633 0.177002 0.117737 -0.259521 0.403076 -0.553711 0.351807 0.420166 0.197510 -0.070435 -0.589355 0.307861 -0.244019 0.261719 0.582031 0.023621 0.248779 -0.435303 -0.215210 0.123413 -0.258545 -0.040009 0.096008 -0.121948 -0.208252 0.299805 -0.043976 0.107544 -0.085999 -0.446289
-0.010689 0.043274 -0.237183 0.865234 -0.571777 -0.269287 0.088684 -0.233276 0.302002 -0.093201 -0.852539 0.221313 -0.171021 0.498047 -0.070740 -0.614258 0.364990 0.231201 -0.883789 0.055389 -0.067078 -0.366455 -0.206787 0.154175 -0.140991 0.000666 0.144531 0.401611 -0.015701 0.209106 -0.135498 0.231079 -0.150391
0.115601 0.010002 -0.782227 -0.338379 0.040588 -0.206543 -0.121643 0.046448 0.263184 -0.575684 -0.345459 -0.378662 -0.120300 -0.345703 0.025696 0.019348 0.108521 -0.261963 -0.229126 -0.275879 0.179321 0.091980 -0.071960 -0.388672 0.081177 0.397461 0.259033 0.874512 -0.531250 -0.308594 0.481201 -0.245117 -0.082336
-0.007637 -0.804688 0.296143 -0.069336 -1.230469 -0.011803 0.206787 0.320557 0.217407 0.170410 -0.010139 0.710938 -0.023804 0.503906 0.052124 0.668945 -0.224731 -0.003056 0.000219 0.518066 0.258545 0.292480 -0.225342 0.020844 0.181641 -0.112244 0.004337 0.127075 -0.370361 0.332520 -0.467529 -0.097717 0.240356
0.349365 -0.097473 -0.034393 0.480957 -0.217529 0.034271 -0.331543 -1.083984 0.242310 -0.142700 -0.333984 -0.423828 0.783203 0.306641 0.193115 -0.239136 0.229126 -0.182739 -0.136108 -0.324219 0.289307 -0.027008 -0.077820 -0.725098 -0.157471 -0.062622 0.364014 -0.363281 0.131104 -0.112610 -0.193604 0.110840 -0.023560
0.009605 0.028015 0.390625 -0.042511 0.728516 -0.094666 0.075317 0.045349 0.286377 0.833984 -0.018753 -0.615234 -0.077454 -0.348389 -0.179565 -0.739746 -0.080322 -0.862305 -0.220947 -0.267334 -0.637207 -0.194580 -0.300781 -0.475342 -0.036133 0.288818 0.360840 -0.019379 -0.122437 -0.186401 -0.306152 -0.119263 0.029144
0.121399 -0.246216 -0.218750 -0.457031 -0.260010 -0.287842 0.165771 -0.229614 -1.288086 -0.121948 0.267822 -0.319824 -0.191284 0.199097 0.214600 0.459229 -0.104187 -0.325684 0.087891 -0.866699 0.223389 -0.681641 0.707520 0.049347 -0.118225 0.198120 -0.086670 0.048462 0.589844 -0.447266 0.281738 0.678711 0.294922
0.558594 0.247681 -0.441162 -0.367188 -1.791016 0.170532 0.400146 -0.164307 -0.551270 0.143677 -0.045563 0.038544 -0.086121 -0.378418 -0.598145 -0.047852 -0.095154 -0.026047 -0.365723 -0.049591 -0.236816 -0.321777 -0.289062 -0.241577 -0.169434 0.151611 0.636230 0.452148 -0.132568 0.027084 -0.482422 -0.104370 -0.285889
-0.429443 0.035187 -0.334961 -0.140991 -0.900391 -0.276123 0.552246 0.043854 -0.130859 -0.331055 -0.032104 0.310791 0.203247 0.180786 0.060425 -0.124390 0.036591 0.506836 0.272949 -0.126221 0.117310 0.535645 0.167969 0.149780 0.007195 0.351074 0.370117 -0.258057 -0.565430 -0.360840 -0.208130 1.066406 -0.054718
0.027679 -0.114563 0.072205 0.339844 -0.117188 0.264160 -1.050781 -0.654297 0.585938 -0.377197 0.150513 0.502441 -0.083435 0.960449 -0.007996 0.210449 -0.529297 -1.176758 -0.088989 -0.027786 -0.000825 0.247437 0.478027 0.412354 -0.152222 0.052185 0.457275 -0.079224 -0.067383 0.109497 0.182495 0.226318 0.335693
0.137451 -0.069702 -0.225464 0.786133 -0.396240 -0.369629 -0.030212 0.473877 -0.334717 -0.330566 -0.372070 -0.107483 -0.033936 0.071655 -0.686523 -0.666504 -0.075745 0.219971 0.191650 -0.366699 0.468994 -0.180786 0.007835 -0.132690 -0.288818 -0.173340 0.291992 0.164429 0.400635 0.104065 -0.238647 0.054169 -0.306152
0.306396 -0.217407 0.142090 0.008789 0.637207 -0.110168 0.078857 0.090881 -0.172607 0.257568 -0.526855 -0.261963 -0.934570 0.463135 0.327148 0.511719 -0.331543 -0.860840 -0.005646 0.549805 -0.729004 0.063232 0.605469 -0.050446 -0.412109 -0.089783 -0.190552 -0.012566 0.260254 0.054504 -0.398682 -0.311035 -0.302490
0.006989 0.107849 0.109375 0.379639 -0.122742 -0.195679 0.197998 -0.310303 -1.280273 -0.341553 0.282471 0.609375 0.633789 -1.029297 0.141235 -0.187378 -0.098328 -0.437256 0.333496 -0.064392 0.408447 -0.050354 0.158325 0.017502 0.228027 -0.077942 -0.402588 0.064819 0.347900 -0.317383 0.554688 -0.645996 -0.643555
0.045776 0.169922 -0.491455 -0.293701 -1.418945 -0.408447 0.232422 -0.232056 0.507812 -0.092041 0.154663 0.073425 -0.565918 -0.093079 -0.248291 -0.139526 0.023270 -0.504395 -0.387451 0.395264 -0.155518 0.446289 -0.277588 -0.194214 0.416992 0.417969 0.044800 0.401611 0.381836 -0.061096 -0.188477 -0.202637 -0.007458
0.327637 0.225952 0.311768 0.335693 0.532227 -0.131958 0.384766 0.160400 -0.159546 0.345215 0.345215 0.127930 -0.637207 0.279541 0.001518 -0.043915 -0.015198 -0.305176 0.147217 -0.996094 0.177612 0.085632 -0.123108 0.228271 -0.422852 -0.339844 -0.063599 -0.322510 -0.348633 0.073364 0.107483 -0.210327 -0.084045
-0.059235 0.166870 -1.115234 -0.219360 -1.160156 -0.514648 -0.093384 0.061157 -0.238159 0.883301 0.501953 0.168945 -0.106812 -0.363281 -0.087158 0.302002 -0.058380 0.014732 -0.252441 -0.104492 -0.015518 -0.139282 0.127930 0.100403 -0.278320 0.378662 0.935059 0.168579 -0.331055 -0.131958 0.021088 -0.019730 -0.092163
-0.075989 0.035767 0.125366 0.189087 -0.982910 -0.275635 0.703125 -0.146729 1.333008 -0.296631 -0.435303 -0.244019 -0.127197 0.373535 0.208984 -0.160767 -0.098450 -0.187256 0.136963 0.044586 0.157471 0.013832 -0.364258 0.165161 0.130615 -0.221558 0.895996 -0.047333 -0.560547 -0.250488 0.458008 -0.157104 -0.485352
-0.134644 0.113403 -0.201782 -0.248901 0.332031 -0.235474 0.179565 -0.089844 -0.222046 -0.953613 -0.229858 0.386475 -0.033600 -0.606934 0.293213 -0.123169 -0.345459 0.399170 -0.625977 0.221069 -0.064819 0.624512 -0.030991 0.029358 0.064575 0.402588 -0.158203 -0.285889 -0.198975 0.209106 0.202637 0.702148 0.920898
-0.011856 -0.222900 -0.122620 -0.422607 0.381592 -0.354492 -0.400879 0.840820 -0.116455 0.481689 0.085083 -0.412842 0.509277 -0.258545 -0.011536 -0.168823 -0.212402 -1.027344 -0.078003 -0.200195 0.161987 -0.099731 -0.039154 0.082886 -0.138550 0.218872 -0.077026 0.092834 -0.221436 0.438721 -0.437988 0.227905 -0.207642
-0.113464 0.016434 -0.160522 -0.196045 -0.064636 -0.498291 0.027740 0.440430 -0.375244 -0.271973 0.086426 0.052338 -0.412842 -0.361084 0.318115 0.132080 0.200928 -0.031113 0.398193 0.428467 -0.405273 0.291504 0.096313 -0.144287 -0.250244 -0.046234 0.036316 -0.358887 -0.375977 0.455078 0.221313 0.007179 0.217896
-0.212280 0.167725 -0.175293 0.349609 -0.875488 0.141846 -0.073730 -0.246948 -0.574707 -0.915527 0.164795 0.480225 0.328125 0.084167 0.226929 -0.071411 -0.053040 -0.130737 -0.131226 -0.352295 0.446045 0.537598 0.260742 -0.099854 -0.019226 -0.786133 -0.364502 0.092712 0.334717 0.694336 0.271729 0.334717 0.268311
0.163452 0.011749 -0.397461 0.612305 0.334473 -0.049500 0.043915 -0.183594 -0.987793 -0.004395 0.056763 0.235352 -0.052704 0.324219 -0.551758 -0.703613 0.397461 -1.509766 -0.417480 0.268555 -0.207397 0.104370 -0.187500 -0.791992 -0.017105 -0.171997 0.012909 -0.280029 0.233276 0.214111 -0.323975 -0.206787 0.020584
0.239746 0.276123 0.213623 -0.115173 1.385742 -0.537598 0.389893 0.495117 -1.247070 -0.319824 -0.230591 0.014458 -0.305664 -0.228516 -0.447754 0.144775 0.108215 -0.275146 0.021912 0.134277 -0.283447 -0.002695 0.132446 -0.019608 0.198608 -0.191406 -0.530762 0.261963 -0.176880 0.019226 0.294189 -0.281006 -0.098816
-0.183838 0.350586 -0.005489 -0.181763 -0.375977 0.545410 -0.113586 -0.566895 -0.620117 -0.225464 0.593750 0.122070 -0.002405 0.268311 0.066345 -0.041199 0.194458 -0.377197 0.573242 -0.046661 -0.720215 0.169434 0.359619 -0.329102 0.163330 -0.331299 -0.122925 0.128540 0.043915 0.259277 -0.226685 -0.141479 0.278320
0.110718 -0.007889 -0.089783 0.329834 0.556641 0.087585 -0.025650 -0.153809 -0.440186 -0.100037 0.243774 -0.336670 -0.948730 0.411133 0.727051 -0.182739 0.127441 -0.553223 -0.471680 0.385498 0.507324 -0.335938 0.130859 0.341553 0.015175 -0.545410 -0.040955 0.257568 -0.144897 0.190430 -0.646973 0.850586 -0.168823
0.307617 -0.120361 0.212891 0.949219 -0.021835 0.480469 -0.041504 -0.071228 -0.070312 0.477783 0.055573 -0.520020 0.226074 -0.015656 -0.209839 0.027237 -0.837891 1.047852 -0.184692 -0.213013 -0.079102 0.082275 -0.043152 -0.204468 0.315186 -0.202515 0.025299 0.113403 0.552246 0.076904 0.049438 -0.449707 -0.581543
0.114380 -0.270020 -0.615234 0.047485 -0.365967 -0.446533 -0.214600 0.151245 0.645508 0.189575 0.694336 -0.301270 -0.070374 0.101074 -0.114319 -0.223999 -0.088623 -0.589355 -0.226562 0.008942 0.064636 -0.175293 0.298584 -0.141479 0.119141 0.053711 0.774414 -0.336182 0.433594 0.526855 0.097229 0.032288 0.084595
-0.376953 0.297363 0.013901 0.221924 0.235107 -0.709473 0.151611 0.047394 -0.228394 -1.007812 -0.525391 -0.363281 -0.038147 -0.360107 -0.775391 -0.286377 -0.078186 -0.679688 0.286377 -0.174072 0.381348 -0.295410 0.147949 -0.053680 0.314697 0.415283 0.152466 0.411377 -0.063049 -0.172119 -0.047028 -0.079712 -0.109680
-0.151245 0.035889 0.248657 -0.339355 -0.796387 0.219971 -0.398926 -0.021240 0.348389 0.585938 0.055542 0.359131 0.185791 0.364014 0.719238 0.565918 0.010361 -0.609863 -0.414307 -0.375244 0.085999 -0.082703 0.172607 0.323730 -0.315186 -0.231079 -0.274658 0.216919 -0.204102 0.426025 -0.112061 -0.949219 -1.062500
0.080200 -1.157227 0.417725 0.316895 1.373047 0.137817 -0.268555 -0.014526 -0.713867 -0.221069 0.040253 -0.324707 -0.281738 0.131104 0.104004 -0.518066 -0.103577 -0.163818 -0.459961 -0.165894 0.292236 0.277344 0.487549 0.306641 -0.613770 -0.168213 0.250000 0.029846 -0.110901 -0.146606 0.127930 -0.281006 0.533203
-0.015152 0.061401 0.059631 -0.156494 0.337402 0.341553 -0.422852 0.204224 0.220459 0.231323 -0.637207 0.683594 0.151733 -0.852051 0.481201 -0.417236 -0.674316 0.062561 -0.279785 0.157471 0.232178 0.052551 -0.284424 0.162720 0.469971 -0.215454 -0.033264 0.330078 -0.293457 -0.376221 0.158813 -0.555176 -0.461426
-0.920898 -1.868164 0.596191 -0.238159 0.701172 0.009323 0.347656 -0.084717 -1.347656 0.301758 -0.146362 -0.431885 -0.022507 -0.135986 -0.362549 0.071655 0.052582 0.158447 -0.064819 0.070129 -0.041138 -0.097656 0.074341 0.112244 0.010872 0.151978 0.038239 0.211304 0.300293 -0.265625 -0.701172 0.468506 -0.348633
0.185425 0.201782 0.263428 0.075989 0.647461 0.316895 0.314453 -0.298340 -0.141113 -0.685547 0.266357 0.180908 -0.159302 -0.207397 0.502441 0.095703 -0.427246 -0.760254 -0.137817 -0.405518 -0.658203 0.625000 -0.135010 0.220581 0.132690 0.052948 0.396240 -0.316650 -0.143677 0.018936 -0.023849 -0.233154 -0.515625
0.083008 -0.078491 0.267822 -1.227539 -0.897949 0.113586 -0.335938 -0.313477 0.443359 -0.527832 -0.185059 -0.607422 0.309082 -0.442627 0.426025 0.271484 -0.118896 -0.142090 0.436279 0.177612 0.051849 0.123413 0.084045 -0.091431 0.033661 0.487305 -0.378418 -0.005375 0.071045 -0.096741 -0.251709 -0.588867 0.069458
0.692871 -1.154297 -0.173462 -0.519531 1.431641 0.057007 -0.355957 -0.009750 -0.707031 0.231689 -0.367188 -0.015556 -0.246582 0.201050 0.112854 -0.113525 -0.081177 0.092590 -0.316650 0.125244 -0.014359 0.218384 0.112976 -0.075928 -0.098816 0.226074 -0.045227 0.025452 0.275879 -0.083618 0.416504 -0.750977 0.206055
-0.297363 0.287842 -0.288086 -0.202637 0.209839 -0.127563 -0.219727 0.230225 0.418701 -0.188477 -0.246094 -0.165649 -0.275391 0.690918 -0.171387 -0.563965 0.224731 0.449463 -0.512695 0.071777 -0.091309 -0.211060 -0.107483 -0.227173 -0.538086 0.570801 -0.552246 -0.197388 -0.240356 -0.118530 0.259521 0.324951 0.045441
0.337891 -0.145386 -0.237549 0.138916 -1.120117 0.001647 0.002729 -0.214722 0.422363 -0.156372 0.234497 -0.165894 -0.144897 -0.137817 -0.371582 0.058655 -0.063416 0.549316 0.099548 -0.106201 -0.004078 -0.058533 0.190308 -0.285400 -0.346436 0.481934 -0.013870 -0.001039 0.391602 -0.633789 0.729980 -0.435547 -0.541992
0.201172 -0.042786 -0.111877 0.802246 -0.402344 -0.238892 -0.146484 0.414551 -1.400391 -0.395752 0.129883 0.085632 0.156372 0.422363 -0.567383 -0.064392 0.086243 0.159424 -0.436768 0.144165 -0.157715 -0.296631 -0.171753 -0.267334 -0.228882 -0.090759 0.552734 -0.623535 -0.360596 -0.152466 0.266113 0.149902 -0.077637
-0.033051 -0.143799 -0.188965 0.169800 -0.383301 0.146240 -0.416016 -0.090332 -0.104736 0.215210 -0.293945 0.023529 -0.427002 0.054901 -0.177246 -0.218018 -0.136841 -0.264648 -0.332764 0.508789 0.078430 -0.009758 -0.003115 0.736816 -0.580566 0.064514 -0.151123 0.214111 -0.184570 0.834473 0.638184 -0.340576 0.288818
-0.122803 0.406738 0.246460 0.569336 0.095642 0.348633 -0.258301 -0.073181 -0.105530 -0.227295 -0.666504 -0.769043 0.274658 -0.093628 -0.319824 -0.515625 -0.750977 0.487549 0.522461 0.331055 0.116394 -0.021774 -0.463379 0.344971 -0.450195 0.175903 0.415771 -0.119568 -0.395752 0.341797 0.108948 0.200684 0.227417
-0.176636 0.527832 0.046448 0.640137 -0.413574 -0.255859 0.364990 0.012482 0.057190 0.182983 -0.043121 -0.718750 -0.657715 0.168823 0.019547 -0.306885 0.208618 -0.038177 -0.366455 0.013680 0.146118 -0.563965 -0.437012 -0.512695 -0.433105 0.145996 -0.553711 0.327881 -0.069397 -0.337402 0.222778 -0.778320 -0.756348
0.082764 -0.064697 0.124573 -0.166748 0.541504 -0.152954 -0.257568 0.443604 0.107178 -0.809082 0.642578 0.237671 -0.338135 -0.061768 -0.335449 -0.060516 -0.066528 -0.280762 -0.305420 -0.671387 0.442383 0.413330 0.067017 -0.467041 -0.148438 0.040680 -0.102783 -0.215210 -0.030273 -0.245728 -0.139526 -0.084778 0.348389
0.096619 0.353027 -0.135742 0.195923 0.365967 0.211792 -0.011337 0.128906 -0.752441 -0.093933 -0.424072 -0.246582 -0.849609 -0.087524 -0.459229 0.098572 -0.194336 0.445557 -0.357910 0.154297 0.457031 0.231323 -0.029861 -0.376465 -0.060974 -0.180908 0.210205 -0.054047 -0.017441 0.797363 -0.466309 -0.360840 -0.200317
-0.371582 0.187134 0.233643 -0.004696 0.784180 0.281982 -0.577148 -0.020065 -0.628418 -0.316895 -0.478516 -1.144531 -0.256104 0.083008 -0.572266 0.494385 0.217896 0.420898 -0.226807 -0.507324 0.095581 0.399414 -0.251221 0.083679 -0.176636 0.142578 -0.246216 0.140991 0.115784 -0.318848 0.201904 -0.000140 -0.392578
-0.043152 -0.069580 -0.127563 0.228516 0.074951 0.094299 -0.263428 -0.043762 0.061188 0.614258 -0.058258 0.239502 -0.221069 0.234131 -0.442383 -1.182617 0.032684 0.496094 -0.112915 -0.641602 -0.172729 -0.798828 -0.106750 0.473389 -0.954590 0.344482 -0.182495 0.488037 -0.383789 -0.101624 -0.561523 0.568848 0.111938
0.046570 -0.219360 0.061188 0.917480 0.822754 -0.189209 0.109619 -0.512207 -0.171021 -0.406250 0.095337 0.346924 0.256836 0.181641 -0.750000 -0.698730 0.426025 -1.029297 0.145874 0.267822 0.335205 0.552246 -0.203857 -0.279785 -0.604980 -0.078674 0.136963 0.206421 -0.262451 0.416748 -0.562988 0.021759 0.372803
-0.590332 -1.005859 0.324951 -0.067078 -0.700684 -0.256348 0.280029 -0.056946 0.435547 -0.206299 0.178955 -0.501953 0.209473 -0.134521 -0.375732 -0.142578 -0.012871 0.034515 0.041138 0.033783 -0.023788 0.045288 0.062378 -0.198730 -0.071899 0.073303 0.219482 0.088501 0.867188 -0.246948 -1.580078 -0.605957 -0.624512
-0.104675 0.275146 0.765137 -0.132446 0.405273 -0.030701 0.894043 -0.042725 -0.309326 0.158203 0.157227 -0.204102 -0.150757 -0.050049 -0.337646 0.105957 0.178467 0.220093 -0.399414 0.270752 0.135986 0.016632 -0.347412 -0.265869 -0.164429 0.096619 -0.175781 -0.313965 -0.311279 -0.138672 -0.620605 -0.031799 -0.044983
-0.494873 0.110474 0.097046 -0.836914 0.379150 0.140503 0.372314 0.003809 1.816406 0.202637 0.094604 0.626465 0.193604 -0.534668 -0.247192 -0.221924 0.098633 0.440918 0.042603 -0.830566 -0.019791 0.114563 0.222900 0.616699 -0.037018 -0.052032 0.010162 -0.180786 -0.039795 0.088745 -0.422363 -0.551270 0.171753
-0.120117 0.175293 0.390137 0.007065 1.186523 0.147095 0.319336 -0.245117 -1.182617 0.300049 0.435059 0.214722 -0.195801 -0.477295 0.095398 0.096069 0.002031 -0.169312 -0.232666 -0.296631 0.080505 0.080627 0.077881 0.020004 -0.068054 -0.018982 0.310303 -0.214478 -0.162964 -0.332031 -0.041168 -0.682129 0.293945
-0.096069 -0.117432 0.212280 -0.106018 0.032776 0.049652 -0.005962 0.051453 -0.110962 0.053558 0.052124 0.034424 0.275391 0.975098 -0.112183 -0.227661 0.046844 -1.893555 0.153687 0.220459 0.211060 0.191895 -0.282959 0.429688 0.309082 -0.010147 0.130981 -0.107483 -0.143066 -0.229004 -0.011375 -0.950684 -1.150391
0.213989 -0.214722 0.110291 0.057861 -0.024780 -0.258057 0.313965 -0.243164 0.692871 0.139771 -0.003080 -0.144531 -0.581055 -0.396729 -0.185791 0.341553 0.484863 -1.455078 -0.547363 0.081421 -0.307617 0.361084 0.740234 -0.369629 -0.436279 0.179932 -0.097290 -0.290283 -0.110535 0.055725 0.074951 -0.119934 -0.303711
-0.064148 -0.042664 -0.774902 1.476562 -0.381592 -0.042877 -0.396729 -0.463623 -0.150757 0.414307 -0.670898 0.233032 0.216553 -0.413086 0.006783 0.170288 0.025070 -0.401123 0.310791 0.062683 -0.022507 -0.028809 -0.405029 -0.071289 -0.140381 0.781250 -0.077454 0.148315 0.094238 -0.049286 0.067810 0.554199 -0.192993
-0.102844 0.382812 0.125610 -0.295410 -1.114258 -0.235718 -0.015747 0.058350 0.187500 -0.942871 -0.216309 0.269531 -0.087036 0.065369 0.205933 -0.458252 0.146851 0.205811 0.149902 0.202637 0.222534 -0.383057 -0.090698 0.379639 -0.099243 -0.437744 0.001143 -0.366455 -0.029434 -0.336914 0.807617 -0.673340 -0.103638
-0.117615 0.115784 0.271240 -0.155396 -0.430176 -0.038910 0.318115 0.031738 -0.609375 0.555664 -1.058594 -0.086487 0.297607 -0.369385 0.676758 -0.250977 0.268311 -0.485107 -0.730957 0.080688 0.233276 0.104370 0.295410 -0.088074 0.041931 -0.319580 0.270264 -0.215088 -0.396484 -0.458496 0.059174 0.173706 0.382568
-0.368896 0.280518 -0.070862 0.721191 0.777832 -0.158447 0.550293 -0.027008 0.629883 -0.277832 0.589355 0.184692 0.115967 0.241211 0.016083 -0.276367 0.019165 -0.645508 0.277832 -0.158081 0.410645 0.143677 0.042053 -0.615723 0.398438 -0.122742 -0.446533 0.088562 0.297363 0.156372 -0.369629 -0.009224 0.012482
-1.136719 0.479248 0.052460 0.500000 -1.758789 0.333496 -0.149658 0.152222 -0.425537 0.100403 0.146851 0.270508 -0.105408 0.291748 -0.153931 0.574219 -0.151611 0.403076 -0.260986 0.206665 0.066589 -0.340576 0.406250 -0.245483 0.302002 -0.366211 0.036560 -0.186279 0.136475 -0.140625 0.004124 0.402832 0.080444
0.170898 0.189697 -2.177734 0.284180 -0.348633 0.030289 0.533691 -0.067200 0.102783 -0.373047 -0.420898 0.267578 -0.076660 -0.131958 -0.497803 0.020294 0.017776 0.154541 0.078857 0.125122 -0.006069 0.274902 -0.201172 0.258789 0.047943 -0.364990 0.590820 0.777344 -0.252197 -0.882324 -0.759277 -0.097717 -0.213379
-0.037872 0.158325 -0.029236 0.708008 0.626465 0.118103 -0.753418 -0.167236 0.025620 0.603027 0.250000 -0.593262 -0.207397 0.312744 0.574219 -0.199951 -0.012352 -0.118774 0.117432 0.191772 0.258789 -0.146118 -1.112305 -0.530762 0.794434 -0.101440 0.112793 -0.059174 -0.254150 0.033447 0.120239 0.111572 -0.219360
-0.311768 0.085693 -0.098022 -0.349365 0.527344 -0.350098 -0.093750 0.143677 0.217651 -1.056641 0.214966 -0.078735 0.476807 -0.991211 -0.358643 0.502441 0.126709 -0.136230 0.148682 0.092163 0.362793 0.064148 -0.224121 0.048492 0.313232 -0.610840 0.365723 -0.352051 0.229492 0.038422 -0.282471 0.201538 -0.053040
0.054504 0.341553 -0.203247 0.460693 -0.513184 0.092590 -0.238647 -0.518555 0.022873 -0.326660 1.083984 0.060303 -0.528809 0.550781 -0.127808 -0.231812 -0.096924 -0.276611 -1.146484 -0.615723 0.327393 0.478271 -0.448730 -0.451904 -0.359863 -0.026428 0.230469 -0.148804 0.359131 0.142090 -0.180664 -0.023499 -0.332520
-0.120056 -0.013390 0.139526 -0.679688 -0.412842 0.384033 0.050385 -0.236450 0.101685 0.109070 0.124817 0.098572 0.485107 -0.419922 -0.134644 -0.219482 0.303955 -0.025864 0.228882 0.425293 -0.813965 0.192261 0.265137 -0.394043 -0.741699 -0.550293 -0.022385 0.667480 0.207031 -0.551270 -0.175659 0.076660 0.190186
0.158691 0.045288 0.296875 -0.306152 0.429199 -0.057281 0.157837 -0.063416 -0.110168 0.205322 0.253418 0.206909 -0.526855 0.451904 -0.493896 -0.396240 -0.026016 0.889160 0.459473 -0.392822 -0.287109 -0.144043 0.549805 -0.390869 0.357666 -0.075745 0.013565 -0.221313 -0.154053 -0.322266 0.018188 -0.554688 0.708008
0.137207 0.123718 0.204102 -1.024414 0.195923 -0.006371 -0.013496 -0.085022 -0.958984 -0.000613 -1.133789 0.070129 -0.400879 -0.508789 0.007694 0.395508 0.172607 0.172241 0.138062 0.227417 0.453857 -0.589844 0.079346 0.092834 0.309570 -0.047028 -0.163574 -0.652344 0.032776 0.070740 0.140991 -0.095947 -0.181274
-0.343262 -0.360352 -0.242310 -0.395020 -0.003405 0.123901 -0.370605 0.041321 -0.733398 0.292725 -0.405762 -0.407959 0.585449 -0.425293 -0.566895 0.235840 0.050934 0.552734 0.449707 0.033905 0.299072 -0.366943 0.375977 -0.100891 -0.122314 -0.034546 0.094360 0.213867 -0.337646 0.152344 0.925781 -0.886719 -0.986816
0.440186 0.110046 -0.029877 0.588379 -0.177124 0.222534 -0.906250 -0.013588 -0.433838 0.729492 -0.573242 0.025604 0.011124 0.756836 -0.621094 0.081543 -0.423828 -1.178711 0.494873 -0.115662 -0.146484 0.328613 -0.469971 -0.014397 0.029572 -0.387939 -0.475098 0.169189 0.071899 0.592285 0.102417 0.167603 0.295898
0.119446 0.216309 -0.073547 -0.006691 -0.141602 -0.205688 -0.141357 0.009277 0.050598 0.356934 0.327148 -0.411377 0.112061 -0.092834 -0.174805 0.305908 -0.083740 0.535156 -0.627930 -0.500488 0.056732 -0.158203 -0.202026 0.124451 -0.092590 -0.232056 -0.206421 -0.094666 -0.132812 -0.180054 -0.082825 1.352539 0.063293
-0.014099 -0.143921 -0.845703 0.278564 -1.405273 -0.440918 0.185059 0.546387 -0.353516 -0.249634 -0.309326 0.120544 -0.826172 0.540039 -0.199707 0.047394 0.111450 0.239380 -0.205811 -0.077209 -0.003450 -0.075867 0.313721 0.153931 -0.046753 0.181763 -0.277100 -0.062744 0.499756 -0.081787 -0.210205 -0.181885 -0.227417
-0.515137 0.043060 -0.061493 -0.685059 -1.040039 0.169556 -0.139282 -0.210327 -0.581055 0.044830 -0.478271 0.837891 -0.529785 -0.408203 0.048859 -0.317139 0.358154 -0.163086 0.029617 0.109131 -0.022369 -0.026535 -0.062683 0.162964 -0.186035 -0.132446 0.284668 0.514160 0.097778 -0.404541 -0.689453 -0.105896 -0.590820
-0.342285 -0.248901 -0.040802 0.360596 -0.206665 0.105469 0.043304 -0.344971 0.075623 -0.215942 -0.701172 -0.183838 0.486572 0.053375 -0.186768 -0.363037 0.431885 -0.842773 -0.085815 0.030624 0.023285 0.285645 0.436523 0.344238 0.206421 0.338135 -0.246582 0.070496 -0.280762 -0.212769 -0.262695 -0.304932 -0.540527
0.001799 0.043793 0.351807 0.072266 -0.188354 0.341797 -0.527832 -0.225708 1.089844 0.648926 0.149902 -0.473633 0.358398 -0.899902 -0.202393 -0.476318 0.102234 0.427490 0.802246 -0.110352 -0.050934 0.341797 -0.790039 0.185303 -0.575684 -0.298584 -0.043152 0.047333 -0.354980 -0.360352 0.040161 0.174438 0.406006
0.016006 0.353516 0.102539 -0.963867 0.449707 -0.190308 0.150635 -0.317871 -0.207886 -0.876465 -0.765625 0.123291 0.198730 -0.459229 -0.522949 -0.652832 0.151245 0.369629 0.067627 0.190186 -0.156128 0.121643 -0.265381 -0.037628 0.269531 -0.218384 0.376953 -0.159790 0.652344 -0.048767 -0.346191 0.148071 -0.270752
-3.277344 0.289062 0.228394 -0.157349 -2.406250 0.377197 0.140137 0.033264 0.818848 0.209106 -0.150757 0.007229 0.112427 0.062683 -0.124084 0.151978 0.011406 0.367676 -0.266357 -0.178345 -0.022369 0.120483 0.125000 -0.191162 0.309814 0.042358 0.094299 0.208618 0.134155 0.073486 -0.207031 -0.362549 0.057037
-0.004848 0.024796 -3.087891 0.194214 -1.045898 -0.314941 -0.360596 0.054077 -0.641602 -0.151733 -0.112366 -0.057068 0.081787 0.027542 -0.273193 0.024170 -0.082153 0.207520 0.162109 0.027908 0.096252 0.095642 -0.028503 0.035736 0.113831 1.484375 -0.777344 -0.286621 -0.079163 -0.046722 -0.069092 -0.058807 -0.025406
-0.001249 -0.087158 0.965332 0.068726 -1.754883 -1.366211 0.725098 -0.106750 -0.297119 -0.438477 -0.204590 -0.180542 -0.302490 -0.088806 -0.107788 -0.137329 0.047363 -0.177002 -0.129761 0.006008 -0.093872 -0.266357 -0.152710 0.088074 -0.008156 0.235474 -0.208374 -0.426270 -0.218262 0.046539 0.002611 0.054565 -0.143066
-0.281006 0.172485 0.097473 -0.683105 1.775391 -0.167725 0.272705 -0.353516 0.746582 0.905273 -0.469482 0.063965 -0.482422 0.299561 -0.409180 -0.069214 -0.101501 0.189453 0.181885 -0.090027 0.239502 -0.211426 0.207397 0.045868 -0.897949 0.243164 0.248779 -0.063354 -0.002411 0.332031 0.012733 -0.807617 -0.386719
0.082214 -0.473877 0.218262 0.171265 -0.011581 0.345947 -0.409424 -0.322510 0.359375 -0.071228 -0.158203 0.117798 -0.194214 -0.151733 -0.870605 0.239624 -0.525879 -1.287109 -0.286865 -0.017197 0.160645 -0.163574 -0.112183 0.007740 0.295654 -0.036224 0.013115 0.284180 0.333252 0.386230 -0.171509 0.445312 -0.021255
0.230713 -0.139038 0.204468 -0.097595 0.458008 0.129883 -0.031097 0.099243 0.104858 0.368164 -0.176270 0.021805 0.000953 0.033478 0.363037 -0.514648 0.016556 -0.287842 -0.354736 -0.740723 -0.874512 -0.031494 0.637695 0.666016 0.144165 0.018478 -0.615723 -0.513184 -0.112915 -0.170776 0.059082 0.571289 -0.074280
-0.218750 -0.004059 0.135132 -0.128662 -0.330322 -0.089661 -0.243530 -0.312500 -1.208984 -0.608398 0.453613 0.428711 0.075745 -0.369141 -0.278564 0.054535 0.196655 0.445557 -0.435059 0.535156 0.259766 0.385986 0.575195 -0.058319 0.041229 0.428955 -0.546387 -0.482178 0.000524 0.523926 -0.135376 -0.578613 -0.137939
-0.590332 0.429932 0.121155 0.272461 0.220947 0.195923 0.224243 0.133179 -0.338379 -0.034546 -0.135742 0.402832 -0.109741 -0.844727 0.206055 0.041504 -0.277344 0.089111 -0.507324 0.139404 0.085571 0.185425 -0.017303 0.810059 -0.127686 -0.035980 -0.540039 0.243530 0.280518 -0.165527 -0.120056 -0.119934 -0.092712
-1.693359 -0.351074 0.183838 -0.024216 0.033051 0.040100 0.081421 -0.054901 -1.909180 -0.137451 -0.400879 -0.282227 -0.443604 0.050232 -0.832520 -0.211426 0.039856 0.341309 -0.301514 0.045074 0.001019 0.057434 -0.045532 0.212769 0.080750 0.071655 0.228516 0.025955 -0.187134 0.465088 0.730469 0.399658 -0.906250
-0.361328 -0.166870 -0.210327 0.253906 0.345947 -0.068726 -0.869141 0.580566 -0.890137 -0.381104 0.090881 0.118164 -0.002287 0.385498 0.113953 -0.478027 -0.185181 -0.427490 0.098450 0.445068 -0.489746 0.630859 -0.644043 0.130981 0.112976 -0.291260 0.194336 0.009018 0.330322 -0.013763 0.228638 0.603516 -0.095093
-0.874023 -0.900391 0.640625 -0.022507 -0.624023 0.238159 0.526855 -0.061523 0.648438 -0.409180 0.042908 0.821777 -0.097656 0.463379 0.533691 0.197632 0.062683 -0.364746 -0.093201 0.009605 0.257812 0.061493 0.373047 0.057159 -0.050385 0.186157 -0.104553 -0.052155 0.049988 -0.223999 0.350586 -0.564941 -0.931641
-0.682129 0.076294 0.035278 -0.491455 -0.282227 -0.054291 -0.227295 -0.157593 -0.020065 0.522461 -0.132812 0.687988 -0.263672 0.889648 0.512207 -0.300781 0.027298 -1.147461 0.322510 -0.187012 0.376953 0.010582 0.161255 -0.175049 0.054596 -0.013824 0.111267 0.175171 0.122253 -0.736816 -0.812012 0.196899 0.061951
-0.229858 0.483398 0.259033 0.371582 0.394043 -0.143433 0.193237 -0.175537 0.176025 0.387695 -0.851562 0.117615 -0.230225 0.308838 0.041840 0.641113 0.026001 0.345947 0.100830 0.143188 -0.429199 -0.425049 -0.154907 -0.418701 0.240601 0.351318 -0.362793 -0.090393 -0.188477 -0.088440 -0.176025 -0.229370 -0.245850
0.197998 0.298828 -0.919922 -0.801270 0.427734 0.231445 0.355957 -0.248291 -0.154053 0.202148 -0.393311 -0.213013 0.445801 0.122070 -0.092896 -0.740234 -0.281738 -0.348633 -0.027390 0.320312 0.003464 0.137939 0.627441 0.309814 -0.201416 -0.097900 0.406250 0.084290 -0.190674 -0.032440 -0.059143 0.138428 -0.094238
-0.012192 0.103516 -0.135376 0.219360 0.125366 -0.001965 0.028107 -0.261475 -1.047852 -0.299316 0.189209 -0.730469 0.349609 0.114258 0.321289 -0.132568 0.034821 0.525391 -0.066345 0.113525 -0.569336 -0.126709 0.371094 0.209473 0.056061 0.099365 0.035248 0.494873 0.390381 0.270264 -0.565918 -0.587402 -0.264893
-0.027756 -0.643555 0.132935 0.003639 -0.290039 -0.213867 0.078369 -0.003773 -0.099670 0.812012 0.099182 0.180176 -0.505371 -0.267578 0.510742 -0.619141 0.244263 0.144531 -0.449219 -0.480469 -0.258545 0.015762 -0.678223 -1.066406 -0.394531 0.123291 0.111084 -0.309082 -0.099854 0.539551 0.350098 -1.356445 -1.045898
0.301025 -0.347168 -0.051697 -0.068481 -0.292969 -0.139160 -0.360352 -0.346680 -0.353271 -0.229370 0.343018 -0.164551 0.506836 -0.596191 0.408447 0.046082 0.169067 -1.291992 -0.203613 -1.110352 0.363525 -0.051361 -0.283447 0.819824 0.354004 0.151733 -0.208862 0.330078 -0.178101 0.006798 -0.138672 -0.108276 0.441162
-0.982910 0.363525 0.556152 -0.136475 0.114685 0.274658 -0.233154 -0.043274 -0.464355 -0.044189 0.253662 -0.220337 0.088989 0.346924 0.402832 0.473389 -0.194336 -0.878906 0.110291 0.344971 0.026123 0.118408 -0.024017 0.021637 -0.165405 0.210693 0.031250 0.034332 -0.200806 -0.019272 -0.468262 -0.383301 -0.210449
0.098755 -1.010742 -0.120850 -0.431152 -0.713379 -0.117065 -0.276855 0.127319 -0.604004 0.243408 -0.018982 0.079956 -0.240723 -1.139648 -0.206909 0.736328 -0.183228 -0.070007 0.213135 -0.126831 -0.175171 0.697754 0.315918 0.231689 0.478027 0.018112 -0.135986 0.168213 0.047424 -0.123047 -0.489990 0.417236 -0.063599
-0.091858 -0.461426 -0.017319 -0.190552 -0.026001 -0.129028 -0.126953 0.002325 0.190186 0.128662 0.103577 0.054565 -0.088684 0.056366 -0.114807 0.040436 -0.140381 -0.115173 0.123535 0.141724 -0.180786 -0.060486 -0.100403 0.002913 -0.185913 -0.093140 -0.260742 0.141479 0.054565 -0.139526 -0.241455 0.114197 0.125610
0.263428 0.069275 -0.170288 -0.452393 -0.611816 -0.150513 0.122742 0.110779 -0.917969 -0.517578 0.946289 0.333740 0.565430 -0.015457 0.087158 -0.278809 0.254150 0.328125 -0.299805 -0.111816 -0.369629 -0.325928 -0.532715 -0.371582 -0.072388 -0.317627 -0.364746 0.133301 -0.006420 0.528809 -0.196167 0.219727 -0.090515
0.110901 -0.104553 0.649414 -0.405273 1.346680 -0.143311 0.070984 0.080750 0.433838 0.011528 -0.079529 0.040314 -0.090942 0.036743 -0.242310 -0.025589 -0.025192 0.200928 0.161499 -0.105774 -0.160400 -0.281006 -0.248169 -0.316895 -0.098145 0.203613 0.013527 0.090515 -0.772949 -0.173950 0.182495 0.210938 -0.108887
0.169434 -0.118713 -0.228516 1.350586 -0.798828 0.002472 -0.436768 0.357178 -0.401611 -0.401855 0.371338 -0.070679 -0.042603 -0.283691 0.105469 0.073547 -0.589355 0.413574 -0.034668 0.224731 -0.030670 -0.401855 -0.292725 0.385010 0.349365 0.189941 -0.272217 0.377686 -0.059540 0.248657 -0.020630 0.482910 0.089172
0.133545 0.173340 0.144653 0.362549 0.867676 -0.202759 0.266846 -0.522461 -0.205811 0.161255 0.369385 0.032288 -0.004967 -0.334717 0.094788 -0.529297 0.262207 0.187256 -0.157349 0.335205 -0.138306 0.044861 -0.277832 0.265869 0.331055 -0.090942 -0.247192 -0.170776 -0.204956 0.335205 0.504395 0.458252 -0.452148
0.020065 -1.496094 0.248169 0.584473 -0.027512 0.197021 -0.173340 0.135010 0.412354 -0.714844 -0.584961 0.168823 -0.289551 -0.021057 -0.037537 0.348633 0.034241 0.765625 0.222046 0.001683 -0.311279 -0.239868 -0.062561 0.201660 0.338867 0.102661 0.248291 0.152954 -0.478516 -0.166504 -0.363770 0.125488 -0.815430
0.057709 0.168091 -1.410156 -0.013123 -0.683594 -0.067749 0.082947 0.024017 0.010101 -0.080322 -0.884766 -0.623047 0.133057 -0.719727 -0.338623 -0.342041 0.116089 -0.402344 -0.089661 -0.096436 -0.032166 -0.104126 -0.005207 0.053101 0.161377 0.550293 0.619141 -0.024979 -0.430664 0.310059 0.101624 -0.014091 0.007252
-0.187012 0.156616 -0.795410 -0.640625 0.368652 -0.543945 -0.273438 0.310059 -0.446289 -0.374512 -0.125000 -0.115906 0.131836 0.002209 -0.847168 0.037628 -0.058624 0.424805 -0.374268 0.520508 -0.372070 -0.522949 -0.449463 0.087830 0.246826 0.342529 0.357666 0.497314 -0.271973 -0.403320 -0.072021 0.276123 0.115479
0.370605 -0.447510 0.124390 0.521484 -0.727539 0.064758 -0.102844 -0.247803 0.025864 -0.530762 -0.729004 -0.721191 0.164062 -0.145874 -0.020706 0.119263 0.266846 -0.910156 0.046997 0.581543 -0.320801 0.213867 -0.374756 0.268555 0.007641 -0.118225 0.205933 -0.208862 0.530762 -0.618164 0.536133 -0.351807 0.130493
-0.138916 0.135254 -0.204224 0.163818 -0.916504 -0.255615 -0.623535 0.261230 -0.390869 -0.318359 -0.001517 0.004520 -0.435059 0.050140 0.154785 0.011757 -0.080688 0.152832 -0.693359 0.097961 -0.256348 -0.014885 -0.097534 -0.044403 -0.269531 -0.384521 0.496826 0.692871 0.116943 -0.080811 0.005913 0.694824 -0.012230
-0.063232 -0.622070 -0.115967 0.136963 -0.241699 0.028809 -0.125244 -0.095032 -0.568359 0.706055 -0.213745 0.289551 -0.304443 0.273682 0.168457 -0.084473 0.159180 -0.197876 -0.233398 0.056732 0.139771 0.125366 0.182251 -0.086304 0.104004 0.335205 0.196289 -0.837891 1.210938 -0.536621 -1.037109 -0.700195 -0.808105
-0.177490 -0.038361 0.000587 0.415771 -1.590820 -0.615234 0.151611 -0.208618 0.507812 -0.328369 -0.243774 0.399658 0.433838 0.054871 0.052429 0.117432 -0.005875 -0.310791 -0.522949 -0.067505 -0.426270 -0.190918 0.132935 -0.239868 -0.019516 -0.100159 -0.169434 0.450195 0.031738 0.335938 -0.122314 -0.077148 0.837891
0.298340 -0.331299 -0.275146 -0.221313 -0.739746 -0.215576 0.229614 0.135620 0.502441 0.310059 0.128418 -0.189819 -0.070496 0.290771 -0.184326 -0.363770 -0.101440 -0.044952 0.559570 -0.208618 -0.541504 0.239624 -0.261719 -0.021835 0.157959 0.201294 -0.146362 0.841797 -0.197388 -0.860352 -0.099182 0.311523 0.271484
0.067993 -0.640625 0.132080 -0.920898 -0.546387 0.243896 -0.127075 -0.260986 0.458252 0.238403 0.202881 0.275635 0.431152 0.289307 -0.080811 -0.336426 0.108887 -1.240234 -0.012711 0.023773 0.217163 0.354492 0.588379 -0.253418 0.325195 -0.056000 0.131958 -0.117920 -0.044739 -0.002113 0.593750 0.103455 -0.097412
0.114014 -0.088623 -0.099426 -0.366699 0.647949 0.017166 0.107056 -0.239380 -0.529297 -0.160156 -0.493896 -0.342529 0.327393 0.579590 0.013199 0.061523 0.339844 1.197266 -0.235474 0.100891 0.627441 0.061737 0.219849 0.165894 -0.156616 -0.301025 -0.380615 0.117798 -0.366455 0.186035 -0.073730 -0.117371 -0.201660
-0.167358 0.454102 -0.100647 -0.228149 0.443848 -0.364258 -0.177979 0.254639 0.359619 -0.844238 0.028046 0.189453 -0.013031 0.261719 0.405762 0.088562 -0.116028 -0.196777 -0.049164 0.171875 -0.077209 -0.285889 -0.433594 -0.334229 0.269531 -0.196289 0.694824 -0.589844 -0.187500 -0.018845 0.083435 -0.003185 0.218140
0.251953 0.113281 0.151367 0.706543 -0.175781 -0.075439 0.269287 -0.027344 1.055664 -0.439209 -0.102417 0.682617 0.112915 -0.618652 0.541016 -0.048859 -0.182007 -0.081238 0.086853 0.318359 -0.237183 -0.285645 0.574219 -0.508789 -0.213501 -0.495850 -0.236938 -0.006981 0.092590 -0.182129 -0.374023 0.147217 0.369385
-0.261475 0.239014 -0.133301 0.045166 -0.558594 0.218018 -0.140259 -0.355225 -0.379883 -0.394287 -0.432129 -0.263184 0.267578 -0.362549 -0.166992 0.587402 0.457275 -0.044739 0.543457 0.185547 0.658203 -0.976562 -0.739746 -0.670410 0.382568 -0.031494 -0.579590 -0.289795 -0.244873 -0.016525 -0.070251 0.089722 0.131226
0.019089 -0.028702 -0.140625 -0.094177 0.012154 -0.086548 -0.005325 -0.034576 0.116699 0.005085 -0.093689 -0.192261 -0.010101 -0.038605 -0.088867 -0.092346 -0.048492 0.016510 0.176880 -0.030228 0.003412 -0.191895 -0.076965 -0.065918 -0.354980 -0.034698 -0.018723 0.088806 -0.229126 -0.046722 -0.144653 -0.034302 0.036163
0.161865 -0.314453 -0.101868 0.380371 0.402588 -0.160767 -0.289307 -0.121704 0.126343 -0.484619 -0.316406 -0.119568 -0.162109 -0.038300 -0.118103 0.366211 0.275879 0.936035 0.318604 0.199829 0.131104 -0.075439 -0.043091 -0.112671 -0.114990 -0.415527 0.790039 -0.788574 -0.128174 0.281006 0.127075 0.366455 -0.019592
0.030334 -0.227539 -0.106995 -0.098694 -0.314941 -0.456299 -0.315186 0.587891 0.101440 -0.253906 0.315186 -0.144287 -0.104614 0.137573 -0.259033 -0.116211 0.189575 0.179077 -0.374512 -0.196655 -0.379883 -0.112488 -0.733398 -0.056610 0.072266 0.222656 -0.237915 -0.375000 -0.129150 0.049225 0.562500 0.152344 0.767578
-0.310547 0.164307 0.147827 -0.579102 0.007919 -0.131470 -0.148438 0.261475 0.337402 -0.137207 0.532227 -0.367920 0.691406 -0.099060 1.007812 0.894043 0.032440 0.096130 -0.021957 0.180176 -0.240356 0.279785 -0.172119 -0.273926 -0.421143 -0.219849 -0.625000 -0.211670 -0.406006 0.212646 -0.155029 0.134888 0.050934
0.216309 -0.488770 0.156006 -0.162598 0.269287 -0.002932 0.203491 0.153442 -0.773438 0.136108 -1.013672 0.111511 0.296387 -0.139282 -0.083557 -0.186157 0.022888 0.249634 0.427734 -0.467773 0.117188 0.253418 0.265137 0.196289 0.205566 0.212036 0.123779 -0.926758 0.121826 -0.358887 -0.828613 0.053009 0.164429
0.229492 0.008835 0.001006 0.285400 0.449951 -0.280273 0.640137 0.402588 1.016602 0.846191 -0.438232 -0.231934 0.514648 0.127197 0.018341 0.211548 -0.202393 0.346924 -0.153076 -0.056488 -0.225464 -0.048950 -0.029816 -0.269775 -0.207397 -0.456787 -0.404297 -0.206665 0.318115 -0.262695 0.653320 -0.335449 0.106750
-0.162231 -0.169800 0.208252 -1.054688 -0.741699 0.157959 -0.727539 0.663086 -1.195312 0.464111 0.157104 0.083069 0.581055 -0.826660 -0.104553 -0.389893 -0.103943 0.987305 -0.332275 -0.185181 -0.100220 -0.048401 0.061035 0.067200 0.261475 -0.325195 -0.039917 -0.276611 -0.206177 0.070679 0.035583 0.326660 0.002266
0.050232 0.092224 -0.595215 -0.707520 -0.092346 -0.120544 -0.059998 -0.339355 -0.450195 -0.719727 0.234741 0.061981 -0.008064 0.408203 0.336914 -0.004444 -0.074585 0.618164 0.253418 0.403076 -0.440674 0.142700 -0.074768 -0.218506 0.172729 0.499023 0.104187 0.709473 -0.727539 -0.063477 0.027054 -0.109070 -0.236572
0.051270 0.087463 0.229248 -0.263672 0.841309 0.139038 0.448975 -0.105652 0.449219 0.355713 0.207642 0.495850 0.087830 0.537109 -0.323242 0.330078 -0.170532 -1.129883 -0.069031 0.132446 0.232544 -0.262451 0.563965 0.070984 0.000425 0.283936 -0.345459 -0.018463 -0.126709 -1.230469 -1.160156 -0.277588 -0.146851
0.601562 0.161743 0.147461 0.006741 0.103455 0.225464 0.082764 -0.562012 0.360840 -0.358398 0.313232 -0.537109 0.137085 0.257568 -0.245117 0.601562 -0.351318 -0.235840 0.054443 0.159546 0.324707 0.217407 0.248291 -0.014656 0.086670 -0.091064 -0.152588 -0.480957 -0.206909 0.148682 0.164062 -0.271729 0.132080
0.351074 0.070068 0.022324 -0.447266 -0.355225 0.119812 -0.420898 0.156616 -0.436035 -0.889648 -0.452881 0.576172 -0.637695 -0.026474 0.324463 -0.035980 -0.190063 -0.109741 -0.369385 -0.442139 -0.490723 -0.232178 -0.236450 -0.078247 -0.102173 0.597168 -0.205078 0.056976 0.117981 0.298584 -0.420654 -0.281250 -0.600098
-0.376953 0.421387 0.134521 -0.529785 0.717773 0.203491 -0.284912 -0.336914 -0.872559 -0.201538 0.074768 -0.517578 1.141602 -0.269043 -0.521484 0.216797 -0.178711 -0.835449 -0.170410 -0.169312 0.467529 0.019531 0.418945 -0.077087 -0.258057 0.189575 -0.107483 0.042328 0.089233 0.179199 -0.079041 -0.448730 -0.064636
