-0.141602 -0.452637 -0.621094 -0.030640 -0.223877 0.081970 -0.388672 -0.398682 0.203247 -0.068237 -0.036835 0.091370 -0.310059 -0.552734 -0.537109 0.285156 0.349121 0.292480 0.113037 0.164429 0.485596 -0.390625 -0.663574 -0.040833 0.004906 -0.269287 -0.308838 0.017059 -0.200806 -0.141357 -0.156006 0.278320 -0.031235 0.012749 0.047455 -0.507812 -0.349365 -0.135376 -0.543945 0.397705 0.053528 0.324219 -0.082642 -0.061554 0.151123 -0.106567 -0.305420 -0.556152 0.186157 -0.041473 -0.927734 -0.010216 -0.061829 -0.125488 0.195435 0.499756 0.221802 0.235596 -0.049164 -0.334473 0.450439 0.316650 -0.009491 -0.260742 -1.118164 -0.181519 -0.029312 -0.088623 -0.212891 -0.076233 0.160278 0.125732 0.468750 -0.131104 0.230713 0.457764 0.021729 0.367432 0.386230 0.249878 -0.002623 0.233521 0.136841 -0.144775 0.062439 0.493164 0.126709 -0.016296 -0.079285 -0.034363 0.060211 0.261963 -0.559082 -0.018906 -0.086731 -0.199707 -0.151245 0.090454 0.251221 -0.499268 -0.400391 -0.257324 0.192993 -0.531250 0.162598 -0.222290 0.165649 -0.109009 0.515137 -0.041504 0.090820 -0.020706 -0.168213 0.002918 0.430664 -0.128174 0.053711 0.177490 -0.121338 -0.197754 0.212280 -0.622559 -0.067871 0.068420 -0.115723 -0.069946 0.192261 -0.513184
0.065796 -0.116760 0.040375 0.241943 -0.677246 -0.142822 -0.062378 -0.078247 0.137817 -0.094299 0.394287 -0.033905 -0.075500 0.113770 -0.469238 -0.438965 0.063293 -0.074341 -0.107727 0.536133 -0.437256 -0.320312 -0.247803 0.252686 -0.140991 0.285645 -0.192993 0.063354 -0.132935 -0.223755 -0.027664 0.017975 0.291748 0.132690 -0.321777 0.341309 -0.433838 -0.195557 0.085205 -0.133301 0.461426 -0.078613 -0.139282 -0.081177 -0.173950 -0.305908 0.129761 -0.409668 0.235107 -1.078125 -0.256104 -0.278320 0.516602 -0.446045 -0.143921 0.526367 -0.367188 0.508301 0.455566 0.400879 0.100159 -0.684570 -0.026138 -0.004135 0.337646 -0.522949 -0.038116 -0.537109 0.034454 0.116638 -0.172119 -0.270996 -0.280273 0.019165 0.368896 -0.125488 -0.411377 -0.046600 -0.211426 0.199341 -0.083557 0.279541 0.124939 0.364502 -0.443359 -0.044922 0.102234 -0.683594 -0.115601 0.261963 0.159058 -0.154785 -0.291992 -0.081543 -0.622070 0.354248 -0.300293 0.051636 -0.112305 -0.311035 -0.008499 -0.306152 -0.348389 0.486084 0.185791 -0.293457 0.071533 -0.074219 0.068542 0.202393 0.077759 0.536621 -0.152954 0.312256 -0.181519 -0.253174 0.090271 0.177368 -0.377686 0.027557 0.047394 0.253662 -0.599609 -0.519043 0.022247 -0.312744 0.166138 -0.128662
0.400146 0.235352 -0.284912 0.198730 0.071228 -0.053864 -0.399658 -0.051239 0.398438 -0.351562 -0.598145 0.033569 -0.383301 0.109314 -0.156860 0.056091 -0.195923 0.391113 -0.029404 -0.428955 -0.550293 0.147827 -0.232666 -0.160278 0.110291 -0.602539 0.176147 0.064331 -0.401611 0.091187 -0.020096 -0.012611 -0.095520 0.000510 0.050323 -0.243530 -0.613770 -0.427734 -0.065674 -1.166992 -0.089539 -0.634277 0.302979 -0.171875 0.589355 -0.224487 -0.130981 0.042389 0.246704 -0.544922 -0.048401 0.059265 -0.027283 -0.114136 0.318115 -0.798828 0.011459 -0.391602 0.299072 0.615234 -0.261719 0.334229 0.008400 0.002066 0.296631 -0.158813 0.142090 -0.308105 -0.315918 0.298096 -0.764160 -0.158569 -0.065247 -0.272949 -0.070679 0.083252 0.098450 0.176880 -0.721191 -0.177856 -0.771484 -0.603027 -0.156494 -0.169434 -0.111694 -0.083679 -0.118774 0.222900 -0.338135 0.450439 0.139893 0.235107 0.176147 -0.198486 0.341797 -0.522461 0.127686 -0.248169 0.106689 -0.152466 -0.150635 0.386719 -0.134644 -0.269531 0.525391 -0.333008 -0.084656 0.125366 -0.066040 0.045380 -0.255859 -0.495361 -0.039398 0.137573 0.225952 -0.355469 0.123718 -0.554688 -0.073120 -0.335938 0.089233 -0.153198 -0.189697 -0.335205 -0.116394 -0.241089 0.008537 -0.437012
0.028580 0.051605 -0.081116 -0.178223 -0.495850 0.155396 0.149170 -0.417480 0.466797 -0.290039 0.105042 0.272705 -0.233765 -0.060364 -0.589844 -0.411133 -0.539062 0.255615 0.297852 -0.501953 0.118103 -0.486084 -0.309326 0.309082 -0.752441 -0.551270 -0.183594 -0.252197 -0.287842 0.091003 -0.200562 -0.036011 0.060638 -0.089478 -0.001272 0.240967 -0.121277 -0.130127 -0.111206 -0.492432 -0.264648 0.298584 0.101562 -0.007401 -0.101685 0.042389 -0.133545 -0.701660 -0.994141 -0.550293 0.115784 0.062683 -0.278564 -0.166748 -0.422119 -0.126099 -0.359375 -0.146484 -0.478516 -0.201416 0.236084 0.004925 -0.080078 0.407715 0.345703 0.348633 -0.354248 0.179199 0.015213 0.271973 0.045502 0.063293 0.204224 -0.030746 0.019211 -0.770996 0.119324 0.194702 -0.068481 -0.337158 -0.325928 0.035217 0.147339 -0.367676 -0.102722 0.262695 -0.476318 -0.581055 0.408936 0.070496 -0.714355 0.029068 0.156372 0.272705 0.010887 0.152588 -0.254150 0.199463 0.144287 0.201660 -0.325684 0.273682 0.584961 0.246704 -0.165527 0.346680 0.313477 -0.355713 0.266357 0.268799 0.797852 -0.267090 0.350830 0.023270 0.034729 -0.143921 0.113525 0.622070 -0.092285 -0.179932 0.228638 0.300537 -0.152100 -0.004368 -0.529785 -0.243530 -0.443359 -0.151978
-0.169678 -0.247559 0.145264 -0.273193 0.404053 -0.082520 -0.034515 -0.079895 0.223755 0.362549 -0.348389 0.563477 -0.148438 0.080872 0.480469 0.331299 -0.029572 0.156860 -0.014198 0.089600 0.364990 -0.204834 0.796387 0.103699 -0.209229 -0.163330 0.114929 -0.347656 0.312988 -0.229004 0.373535 0.058838 0.202393 -0.113831 0.153198 -0.038605 0.244873 0.276367 -0.921875 0.113037 -0.391846 -0.068054 -0.185791 -0.129639 0.000254 -0.422607 -0.266602 -0.041962 0.225220 0.329590 0.061707 -0.095459 0.028549 -0.604980 -0.494385 -0.296631 0.429443 0.200317 0.072083 0.410645 -0.085571 -0.225220 -0.062622 0.068481 -0.485107 -0.177490 0.282959 0.243774 0.325684 -0.204346 -0.276367 0.075195 0.201294 -0.206909 -0.211792 0.243164 0.038574 0.076294 0.472412 0.172485 1.062500 -0.423340 -0.135986 0.307861 -0.004360 -0.288086 0.151367 -0.134766 0.112793 -0.463379 -0.725586 -0.213867 -0.512695 0.148193 0.014023 0.085876 -0.414062 0.098694 -0.148438 -0.279297 -1.065430 -0.072632 0.028122 0.078918 0.544922 0.247070 0.079651 0.204956 0.136719 0.138428 0.016769 -0.660645 -0.407471 0.008682 -0.191162 0.193848 0.205200 0.076111 -0.445801 0.071106 0.384277 -0.392822 -0.055786 0.158936 -0.195801 -0.370361 -0.143799 -0.170776
-0.225708 -0.254639 0.065979 -0.609863 -0.255127 0.004498 0.137207 -0.050781 0.039368 -0.161011 -0.582520 -0.208618 -0.219116 -0.351807 0.246460 -0.348633 0.109131 -0.179688 -0.739746 -0.539062 -0.228149 -0.259521 -0.260498 0.212280 -0.531738 0.002541 0.166260 0.108826 0.078552 0.119629 0.188354 0.081177 -0.039948 -0.748535 -0.154907 0.066650 0.225708 0.333252 0.450684 0.477783 -0.068237 -0.199829 0.100769 -0.053955 0.337646 -0.050262 -0.094177 -0.131592 -0.760254 -0.477539 -0.223999 -0.126587 -0.866699 0.454834 -0.382080 0.479980 0.369629 0.372314 -0.403564 -0.411133 0.458496 -0.095154 -0.003706 -0.869629 -0.073975 -0.159790 -0.424561 0.521484 0.055115 -0.293213 0.031342 0.130005 0.349609 -0.353027 -0.137939 0.138550 -0.219238 0.439209 -0.474854 -0.131104 -0.279785 0.017212 0.365967 -0.554688 -0.009338 -0.641602 -0.109985 0.029953 0.057983 0.070374 0.142334 -0.097046 -0.402344 0.205078 0.009430 0.365967 0.065125 0.133667 0.063416 0.115479 0.067139 -0.204590 -0.211060 0.333252 0.218506 0.423584 -0.081543 -0.315430 -0.197388 -0.188232 0.080078 -0.430908 0.119324 -0.075867 -0.158813 -0.372559 0.010574 0.476074 -0.299561 0.086548 -0.272949 0.316406 -0.131836 0.380859 0.237549 -0.238892 0.075073 -0.677734
0.162476 -0.340332 -0.162964 -0.099243 -0.383545 -0.000925 -0.091675 0.134033 -0.057281 -0.288574 0.087158 -0.553711 -0.447266 -0.193359 -0.528809 -0.423828 0.406006 -0.299316 -0.153442 0.057343 -0.221680 -0.033813 -0.732422 -0.575195 0.353760 -0.367432 0.035553 0.359131 -0.092834 -0.055542 0.010468 0.274902 -0.020523 -0.232056 -0.166138 0.307617 0.315918 -0.456055 1.031250 0.173584 -0.721680 -0.753906 -0.267090 -0.328857 -0.431396 0.036530 -0.353516 -0.620605 -0.651367 0.368164 0.308838 0.269531 0.218750 0.090332 -0.250732 -0.184082 0.003208 -0.262695 -0.111206 0.046356 -0.489014 0.165527 0.017380 -0.536621 -0.171509 -0.387939 -0.164917 -0.313965 -0.250732 -0.015327 -0.081909 0.439209 0.391846 -0.257568 -0.768555 0.442871 0.355469 -0.330322 0.013756 -1.507812 -0.146118 -0.101196 0.311768 0.173706 0.339355 0.424805 -0.389404 0.464355 -0.110352 0.424072 0.200317 -0.640137 0.195190 0.083191 0.519043 -0.265381 -0.416504 0.549805 -0.120178 -0.590332 -0.197021 0.134766 0.342529 0.414307 0.276367 -0.375977 -0.253174 -0.117493 0.199341 -0.127075 -0.033478 0.076172 0.222290 -0.562012 -0.104858 -0.201904 -0.056427 0.097534 -0.072083 0.395996 -0.294678 -0.084839 -0.077637 -0.705078 0.492920 0.061401 -0.018280 0.035004
-0.485107 0.239380 -0.466553 -0.058868 0.313965 0.038208 0.114563 -0.329346 -0.170410 -0.143921 -0.526855 0.390869 0.143799 -0.134766 0.091309 -0.420410 0.497559 -0.062561 -0.393066 0.159058 0.407227 0.131226 -0.495605 0.108093 -0.823242 -0.269043 -0.263916 0.176270 0.357422 -0.590820 0.310547 -0.123230 -0.030502 -0.401611 -0.176025 -0.117737 -0.115356 -0.095886 0.151611 -0.310791 -0.116028 -0.374756 -0.116882 0.119141 -0.259277 -0.004711 0.135986 -0.003851 -0.132324 0.043427 0.214233 0.098083 0.080261 -0.014931 0.299561 0.233154 -0.189209 -0.022491 -0.322021 -0.209473 0.383789 -0.652832 0.219116 0.132812 -0.508789 0.330566 -0.224243 0.513184 -0.141602 -0.295166 -0.280762 -0.278076 0.273682 -0.240845 -0.375000 -0.100525 0.117493 0.131836 -0.467285 0.023819 -0.506348 0.007271 0.162842 0.184692 -0.707031 -0.138428 -0.334229 0.023422 -0.095398 0.209473 0.282227 -0.585938 -0.076233 0.034332 -0.328613 -0.095276 0.132690 -0.227539 -0.006184 0.194946 -0.078064 -0.123596 0.080322 -0.288086 -0.284180 -0.549316 -0.397949 -0.272705 0.408447 -0.142090 -0.253418 0.273438 -0.309326 -0.378906 0.087952 0.079041 -0.349854 -0.114380 -0.182251 -0.709961 -0.184937 -0.571777 0.262207 -0.263184 0.154419 -0.123840 -0.765625 0.015778
0.248657 -0.247314 0.182617 0.034149 0.004425 -0.220337 -0.238525 0.313477 -0.235840 0.145874 -0.249634 -0.140259 -0.244751 -0.524414 -0.302734 -0.301270 -0.525879 0.029755 0.127075 0.329590 -0.598633 0.298340 -0.275635 -0.763672 -0.137939 -0.004879 0.055115 0.095703 0.044006 0.347168 -0.114197 -0.332275 -0.443604 -0.789062 -0.245972 -0.192871 0.263916 -0.153442 -0.582031 -0.160767 -0.293701 -0.247559 0.311768 -0.197144 -0.214600 -0.407471 0.534180 -0.675781 0.428467 0.096863 0.345215 -0.008072 -0.634766 0.299072 0.130493 -0.015686 -0.030670 -0.146851 -0.178833 0.294434 -0.049622 0.068665 -0.125854 -0.646484 0.000330 -0.391113 -0.040924 -0.070312 -0.089355 0.344971 0.151733 0.005146 0.037048 -0.027451 0.252197 0.011887 0.069275 -0.464844 0.068604 -0.719238 0.025009 -0.227905 -0.479004 -0.305664 0.246216 -0.363770 -0.164062 -0.376221 -0.388184 -0.385010 0.166992 0.137939 -0.283203 -0.227661 0.246216 0.088257 -0.796875 -0.105042 -0.076294 0.080688 0.244019 -0.241089 0.246338 0.368896 0.170410 -0.154541 -0.010452 0.174072 0.213013 -0.151611 -0.049591 -1.105469 -0.031586 0.064636 0.061615 -0.240723 -0.239868 -0.360840 0.070251 0.053986 -0.218994 0.555664 -0.096008 -0.228394 0.260254 -0.362061 0.388428 -0.182007
-0.097351 0.083008 0.434570 -0.274414 -0.035706 0.013290 0.264160 0.254639 -0.057770 0.007259 0.268311 -0.478027 0.028778 0.008316 -0.014503 -0.335693 0.357422 0.020737 0.304443 -0.522461 -0.310547 -0.174927 -0.062256 -0.096497 -0.431396 0.093933 0.296875 -0.332031 -0.108215 -0.169922 -0.089661 0.445068 0.048645 0.037628 -0.625000 -0.066711 -0.188110 -0.005932 0.546875 -0.057526 0.040619 -0.365234 -0.113953 -0.301514 -0.032532 -0.606934 -0.175049 0.056000 -0.717773 0.352783 -0.400146 -0.045502 -0.177856 0.649414 0.121643 -0.641602 -0.252441 -0.580566 0.144287 0.220581 -0.268311 -0.073608 -0.608887 -0.165161 0.048737 0.366211 -0.354004 -0.464844 -0.256348 0.482666 0.350098 -0.532715 0.458740 -0.075195 0.582031 0.120544 0.147339 -0.193848 -0.057922 -0.790527 -0.081116 0.324951 0.059601 0.078491 0.020905 0.258545 -0.401855 0.024338 -0.218262 0.235474 0.326660 -0.012581 -0.306885 -0.141968 0.255859 0.177368 -0.170898 0.077026 0.022858 0.129883 0.026093 0.327637 -0.505371 0.291748 0.157104 -0.728027 0.221802 0.241211 -0.040436 0.031860 0.496826 -0.239746 0.202148 -0.612793 -0.359619 0.085632 -0.140503 0.259766 0.004543 0.043182 -0.236206 -0.226807 -0.056549 0.053833 -0.060150 0.142822 0.241577 -0.613770
0.326172 -0.238159 0.193237 -0.416016 0.325439 -0.119751 0.172852 0.438721 -0.248291 -0.126221 0.164185 -0.172974 -0.195679 -0.489014 -0.702148 -0.320068 0.282715 -0.159180 -0.232422 0.077454 0.124512 0.439453 -0.288086 0.423096 -0.218628 -0.005566 -0.387207 -0.089294 0.045593 -0.557129 -0.416504 0.201538 -0.455566 -0.011986 -0.137085 0.262207 0.303711 -0.242920 0.905273 -0.248535 0.038635 -0.368652 0.217529 -0.365967 -0.512207 0.190674 -0.492920 -0.244995 0.039215 0.037415 -0.130249 -0.059418 -0.183838 0.478516 0.187866 0.026657 -0.175537 -0.184448 0.076477 0.357910 -0.044006 0.017273 -0.117004 -0.204102 -0.113037 -0.098328 -0.073059 0.283936 -0.117065 -0.461182 -0.053650 0.054962 0.457764 -0.069092 -0.139038 0.418701 0.133057 0.259033 -0.201416 0.244141 -0.000083 0.031677 0.168457 -0.095520 -0.271484 -0.045319 -0.234985 0.855469 -0.065796 0.694336 0.103577 -0.225708 -0.104370 -0.070557 0.289551 -0.700195 0.064270 0.167480 0.074097 -0.018173 0.026947 -0.650391 -0.066956 0.404053 -0.024643 0.300537 -0.140869 -0.322754 0.083557 -0.000834 -0.083069 -0.080566 0.565430 -0.085144 -0.624512 -0.343262 0.066833 0.265381 -0.080322 -0.437744 -0.286377 0.244995 -0.042847 0.136353 0.509277 0.137573 -0.112732 -0.237915
-0.312012 0.256836 -0.569336 -0.426025 0.066040 0.001847 0.086548 -0.272461 -0.014458 0.181519 -0.559082 0.135864 -0.365479 -0.044891 -0.302979 -0.344727 0.005451 -0.255127 0.334229 -0.281006 0.041199 -0.200195 -1.131836 0.425781 0.121704 -0.274414 0.014374 0.089600 -0.020844 -0.002758 0.186646 -0.106628 -0.100708 0.004677 0.385254 0.129517 -0.240967 0.222412 -0.509766 -0.057617 -0.494629 0.177734 -0.376465 -0.000740 0.214844 -0.116821 0.182129 0.449219 -0.045319 0.099548 0.161377 -0.322021 0.669922 -0.633789 -0.176392 0.188354 0.239380 0.427002 0.110901 0.124695 0.112488 -0.865234 0.075867 0.117249 -0.869629 -0.028702 -0.165527 0.152344 -0.166016 0.179932 -0.389893 -0.229004 -0.080933 -0.248535 -0.107300 -0.575684 0.046631 0.054443 0.243408 0.111145 -0.389404 -0.177368 -0.074707 0.274414 0.055359 -0.623047 -0.597168 -0.277100 0.649414 0.287354 -0.156250 0.127563 -0.166138 -0.161865 -0.314209 -0.433838 0.188599 -0.716797 -0.045929 0.075195 -0.045593 -0.089111 -0.132568 0.131348 0.081665 -0.027420 0.397949 0.081055 0.277832 0.088623 0.621582 -0.034576 -0.151489 0.155273 -0.653809 0.552734 -0.044128 -0.219238 -0.015404 0.351807 -0.017151 0.039886 -0.404297 -0.059753 0.289062 -0.108276 -0.324463 -0.188110
0.056061 0.092529 -0.228516 0.007202 0.005589 0.001493 0.650879 0.265381 -0.277344 -0.091003 -0.116455 0.158691 -0.011543 0.158447 0.013527 0.054718 -0.045532 -0.101990 0.257080 -0.139771 -0.640625 -0.103455 0.295654 0.094055 -0.571777 -0.177002 -0.007618 0.173828 -0.326904 0.059448 0.056213 -0.370361 -0.051666 -0.264648 -0.226562 0.445068 0.221069 0.162964 -0.526367 0.061310 -0.066101 -0.294922 -0.460205 -0.467285 -0.235474 -0.288818 -0.496338 -0.340820 -0.255859 0.146606 0.116394 -0.287842 0.015076 -0.338623 -0.360596 -0.139648 0.317139 0.278564 0.315186 -0.187256 -0.032104 0.157104 -0.093750 0.028091 0.487793 -0.269531 0.151855 -0.280518 -0.039124 -0.162842 0.194946 -0.104248 -0.144653 0.125366 0.336914 0.211792 0.441406 0.291260 0.197754 -1.476562 0.172607 0.188843 -0.348633 0.110474 -0.172363 0.294922 -0.182007 0.026703 0.158936 0.455078 0.013405 -0.355713 -0.141602 -0.180176 0.070007 0.038330 0.343994 -0.606934 -0.167603 -0.183594 0.056854 -0.324707 -0.045929 0.301514 -0.057770 -0.255371 0.236206 0.094971 0.085754 -0.214233 -0.455078 0.352295 -0.046082 -0.566895 0.096436 0.067566 0.025284 0.661621 -0.263672 0.207275 0.113037 -0.093201 0.035248 -0.239746 -0.355469 -0.216431 0.303467 -0.331055
0.046234 -0.063293 -0.217285 -0.443604 -0.192505 -0.120789 -0.492676 0.047119 0.232056 -0.025925 0.071716 0.085510 -0.082764 -0.329834 -0.184448 -0.555176 0.048615 -0.404053 -0.167114 -0.262695 -0.088318 -0.485352 -0.178345 -0.165894 0.004910 0.067444 0.187500 0.162354 0.335693 0.317139 0.124756 0.048309 0.194214 -0.019379 -0.174316 -0.023468 -0.579102 -0.058594 -0.258057 0.347412 0.139771 -0.166626 0.121094 0.282227 -0.316162 0.224487 0.634277 0.195312 -0.045898 0.022644 -0.247925 -0.663086 -0.302734 0.067078 0.240356 -0.234497 -0.049500 -0.282959 0.273438 0.099792 -0.243530 0.312256 0.078064 -0.281006 -0.230225 0.412354 -0.600586 0.081116 -0.760742 -0.182739 -0.298096 -0.043854 -0.050568 -0.005539 0.101624 -0.007416 0.382080 0.097412 -0.123901 -0.266357 -0.552246 0.150146 -0.410645 0.524414 -0.269775 0.284912 -0.228027 0.054382 0.223145 -0.464355 -0.748047 0.360107 -0.743652 -0.124756 -0.313477 0.065796 0.036163 0.109314 0.017258 0.364746 -0.166382 -0.025757 0.282715 -0.852539 0.080750 -0.367676 -0.312500 -0.100098 0.224731 -0.141357 -0.618652 -0.010834 -0.691895 0.303467 0.003004 0.137573 -0.046234 -0.276611 -0.088806 -0.194458 -0.397949 -0.129272 0.303223 -0.156982 -1.162109 -0.138306 0.212891 -0.056183
-0.033508 0.111816 -0.472656 -0.460205 -0.394287 0.198975 0.142944 0.053223 0.084351 -0.413330 -0.087402 -0.290527 -0.380127 0.293945 -0.287598 -0.567383 -0.121277 -0.216797 -0.167114 0.198975 0.030807 0.097046 -0.637695 -0.041901 0.418945 0.109375 -0.111328 0.091553 0.038849 0.289062 -0.095032 0.076355 -0.254883 0.118469 -0.242310 -0.654785 -0.007515 -0.231934 -0.066040 -0.325684 -0.713867 -0.097717 0.070190 -0.215088 0.470459 -0.310303 0.257324 0.035339 0.407959 0.037415 0.256104 -0.076172 -0.393555 0.005173 0.197266 -0.124695 0.288818 0.694824 -0.116272 -0.024963 0.138428 -0.141724 0.234009 -0.713379 0.076416 0.089050 0.109924 0.286133 -0.261963 0.201050 -0.238281 -0.199341 -0.090759 0.278076 -0.183105 -0.102722 0.139526 -0.436279 -0.410156 -0.565918 0.189209 -0.440918 0.484375 -0.400391 -0.054871 0.047363 0.506836 -0.088135 0.128174 -0.547363 -0.046875 0.006142 0.136230 -0.356445 0.261230 -0.576172 0.125732 -0.115540 -0.139160 0.518066 -0.295410 0.215698 -0.000591 -0.048004 -0.524414 0.017151 -0.726074 -0.209351 -0.404541 0.209961 -0.175293 -0.135864 -0.022049 0.331543 -0.173096 0.169800 -0.116760 -0.359863 0.225464 -0.056854 -0.796387 0.449463 0.138428 -0.513672 0.147217 -0.129761 -0.421875 0.032043
0.110535 0.285400 0.320068 0.489746 -0.077515 -0.093201 -0.158447 -0.515137 0.008461 0.001266 -0.175049 0.366699 -0.311279 -0.070374 -0.284912 0.542969 0.543945 -0.121338 0.370850 -0.110046 -0.194214 -0.052094 -0.254639 0.227661 0.319336 -0.126465 -0.161255 0.251709 -0.429688 -0.391602 -0.607422 -0.629395 -0.221680 -0.486084 -0.035614 0.002607 -0.399658 0.214600 -0.406494 -0.037323 0.054962 -0.198486 0.271484 0.253418 0.047546 0.428711 0.058838 -0.189575 -0.041016 -0.070984 -0.386230 0.081909 -0.167114 -0.100342 0.093933 0.137573 0.205566 -0.207397 -0.108826 0.395020 -0.040283 0.428711 -0.246460 0.212524 0.139771 -0.737305 -0.324951 -0.483398 -0.117981 -0.076050 0.336914 -0.275391 -0.412354 0.269775 0.259521 -0.050507 -0.029388 0.079895 -0.696777 0.534180 -0.186157 -0.265137 0.045319 0.067810 0.012794 0.147583 0.504883 0.156006 -0.336914 -0.588867 0.033539 -0.327637 0.114014 0.064880 -0.494629 0.184448 0.006718 0.263672 0.073975 -0.525391 0.239136 0.319580 -0.009285 0.108093 -0.096558 -0.044891 -0.373291 -0.347412 0.178101 -0.065308 0.007835 -0.059204 0.548340 -0.516113 0.244507 -0.221680 0.051300 0.266846 -0.033325 0.456543 0.194214 -0.366699 -0.047333 -0.254150 0.580078 0.376709 -0.554199 -0.144165
0.603516 -0.107117 -0.227905 0.437500 -0.444824 0.038666 -0.265381 0.506348 -0.209473 0.362549 0.222534 -0.136841 -0.100708 -0.114685 -0.261719 0.254150 0.156982 0.496094 -0.141235 -0.162842 -0.078918 -0.003689 0.343262 -0.622559 -0.532715 1.109375 0.569824 -0.294189 -0.196777 0.601074 -0.758789 -0.177856 -0.071533 0.484375 0.292480 -0.224243 0.297363 -0.059906 0.133301 -0.517578 -0.235474 0.276123 0.060486 -0.293945 0.170166 -0.398438 -0.156738 0.095703 0.262451 0.100708 -0.014389 0.209717 -0.387207 -0.395264 -0.635254 0.077454 -0.427246 -0.156738 -0.253418 -0.317383 0.104919 -0.519043 0.025543 0.180176 -0.417725 -0.145630 -0.284668 -0.618652 -0.094238 -0.076172 0.193604 0.290283 -0.004822 -0.354248 0.610352 0.147705 0.023987 -0.412109 -0.235596 0.020386 -0.112549 -0.341309 -0.319336 -0.727539 0.087952 -0.261719 -0.132080 0.013504 0.488281 0.073303 -0.240479 -0.856934 0.034760 -0.030472 -0.351562 -0.312744 0.140991 0.335693 0.113403 -0.234253 -0.099609 0.365479 -0.782715 -0.363281 0.128418 0.308105 -0.489990 0.111145 -0.194702 -0.608887 0.190186 -0.015503 -0.677246 0.223755 0.156128 -0.045868 -0.006050 -0.046082 0.393555 0.170532 0.053406 0.234009 0.456055 -0.461426 -0.217163 -0.812988 -0.114014 -0.432617
-0.486816 -0.581543 -0.114014 0.341553 -0.184204 -0.071655 0.056915 -0.279297 0.169556 0.284424 -0.078613 0.251465 -0.098022 0.109985 0.133545 0.205688 -0.127197 0.023621 -0.114563 -0.191406 0.198975 -0.286621 0.874023 0.764160 0.070923 -0.184692 0.109741 -0.275391 0.204468 -0.961426 -0.308105 -0.522461 -0.243408 0.761230 -0.019928 -0.515137 -0.308594 -0.203491 -0.115845 0.270996 -0.290039 -0.275391 -0.204346 0.176270 0.460938 -0.197144 -0.283447 0.152710 -0.121155 0.101440 0.054810 0.037842 0.046783 -0.052307 -0.628906 -0.294189 0.047485 -0.104553 -0.097595 0.575684 -0.157104 0.064209 -0.379150 0.175781 -0.864746 0.155884 0.157837 -0.008850 -0.545898 -0.329590 -0.295166 0.211426 -0.470947 -0.342041 0.472168 0.376953 -0.015930 -0.451416 0.082520 -0.123962 2.203125 -2.593750 -0.253418 -0.219482 -0.241089 0.039093 -0.119751 0.106384 -0.000295 -0.409912 0.221680 -0.357910 -0.199219 -0.005306 0.323975 -0.193359 -0.396973 0.470215 0.156616 -0.538086 -0.524902 -0.208008 -0.291748 0.255127 0.735840 0.185059 0.324707 0.018814 0.215576 -0.401855 0.193604 -0.153564 -0.521973 0.541016 -0.380371 -0.645508 0.015335 0.633789 -0.007526 -0.310547 -0.017792 -0.599121 -0.671875 0.205200 -0.467285 -0.291504 -0.092712 -0.301270
-0.185303 0.401611 0.634277 0.061249 0.394775 -0.145386 0.121582 0.209473 -0.084290 -0.462158 0.096863 -0.444336 -0.003033 0.119324 0.379395 -0.192627 0.442383 0.421143 -0.256836 0.256104 -0.035553 0.242065 -0.066284 -0.036713 -0.077209 0.014420 0.103394 0.274658 0.121765 -0.299561 0.262939 -0.535156 -0.245605 0.327881 -0.242432 0.215698 -0.443604 -0.097473 -0.072327 0.280762 -0.358398 -0.230835 0.057892 -0.458984 0.307617 -0.343506 -0.132202 -0.000011 0.097839 0.083679 -0.767578 0.094055 0.388184 0.035614 -0.127197 -0.115295 0.172729 -0.073975 -0.139893 -0.749023 0.216553 -0.001363 -0.065735 0.101257 0.431885 0.089722 0.062286 0.246460 0.110596 -0.034393 -0.498779 0.177124 -0.127197 -0.045563 0.229004 -0.024597 -0.427002 0.027283 0.054901 -0.573242 -0.344971 0.112183 -0.203979 -0.558594 -0.289795 -0.029114 0.018723 -0.110474 -0.499023 0.447021 -0.284668 -0.735840 0.458740 0.374756 -0.211304 -0.149536 0.028397 -0.182861 0.032379 0.306885 0.185059 -0.143433 -0.039825 -0.518066 0.153442 0.028366 -0.183960 0.144653 0.200562 -0.006882 -0.481934 -0.071167 -0.198853 -0.155762 -0.147339 -0.237427 0.018707 -0.260498 0.051758 -0.108093 -0.632812 -0.209473 0.104919 -0.196411 0.124207 -0.039185 -0.110962 0.164307
0.072205 -0.180542 0.018906 -0.830566 0.161987 -0.027176 -0.427246 0.007446 -0.097107 -0.290527 -0.515625 -0.296631 0.250977 0.008347 -0.607422 -0.510742 -0.297363 -0.453857 0.001046 -0.699219 -0.360596 0.054291 -0.076904 -0.505371 0.099426 0.242188 -0.169067 -0.257080 -0.062103 0.419678 -0.508301 -0.033508 -0.223267 -0.265381 0.273926 -0.157715 0.199341 0.025253 0.213867 0.408691 -0.232300 -0.979492 0.204102 -0.900391 -0.753906 -0.341064 -0.021149 0.335693 -0.476318 0.235840 -0.050690 0.309082 -0.147583 -0.718262 -0.030746 0.212769 0.601074 -0.224609 0.130005 0.096008 -0.397705 0.357422 0.340332 -0.640625 0.046265 -0.000988 0.103699 0.167969 0.216309 -0.103577 0.026459 -0.363037 -0.046143 0.106689 -0.501465 -0.068909 -0.011055 0.159546 0.373291 -0.846680 -0.330811 -0.626953 0.456055 -0.087830 0.149292 -0.335938 0.154907 0.298096 0.113892 -0.675781 0.474121 0.195068 0.495850 -0.207886 -0.029312 0.177368 -0.182983 -0.663086 -0.000931 -0.770996 0.306396 -0.352539 0.047760 -0.456055 -0.536133 0.348145 -0.124756 -0.127441 -0.022812 -0.433105 -0.301758 0.096924 -0.170776 0.017258 -0.057587 -0.003922 -0.093933 0.145264 -0.377197 -0.043640 -0.172485 0.490723 -0.500000 -0.102661 0.046082 -0.442383 0.422119 0.067322
-0.455078 0.142944 -0.040619 0.129517 0.258789 -0.115417 -0.036621 -0.261230 -0.197266 -0.630859 0.079224 -0.246948 0.097473 0.209839 -0.113464 -0.355713 0.113281 0.014961 0.027298 -0.191406 -0.241943 -0.256348 -0.438965 -0.597656 0.185791 -0.045685 -0.107239 -0.466553 0.192261 -0.212646 0.161377 0.020370 -0.505371 -0.178345 -0.461182 -0.413818 -0.167358 0.336426 1.043945 -0.337158 0.068787 -0.837891 0.063171 -0.598145 0.081909 -0.147705 -0.237671 -0.265869 -0.098083 -0.018860 -0.007229 -0.191528 0.065735 0.444336 0.081787 -0.911133 0.114441 0.084473 -0.147827 -0.218750 -0.094788 0.466553 -0.513184 -0.398438 0.274902 0.382324 -0.134521 -0.401123 0.040253 -0.132324 -0.460449 0.293945 -0.114868 -0.103210 -0.280518 0.284180 0.284424 0.314453 -0.203369 -1.439453 -0.070129 -0.052643 -0.181641 0.096130 0.366455 0.396973 0.061401 0.794922 0.155151 -0.152100 -0.282227 -0.519531 0.267578 0.368896 0.548340 0.041779 -0.362549 0.216797 0.027649 0.187988 -0.112183 0.262207 -0.148804 0.078186 -0.181152 -0.211792 0.101562 0.132324 0.171143 0.073059 0.279785 -0.420654 0.322510 -0.263672 0.220215 0.185425 -0.056793 -0.108215 -0.031464 0.276367 -0.322266 -0.090515 0.301025 0.073486 -0.098328 -0.437500 -0.282471 -0.680664
-0.370117 0.313965 0.294189 -0.605957 0.206177 -0.083252 0.044952 -0.013817 -0.780762 0.105164 -0.120911 -0.049896 0.185791 -0.133179 0.103577 0.356201 0.237427 -0.129272 0.201294 0.111511 0.162842 0.058105 0.290527 0.000545 0.135742 0.199707 -0.062408 0.233276 -0.214844 -0.037994 -0.125122 -0.211304 0.419434 -0.400146 0.028976 -0.148438 0.305908 0.702148 0.322510 0.050995 -0.074158 0.104858 -0.434814 0.010765 -0.389160 0.365479 -0.047028 -0.013237 -0.104248 0.145874 0.251465 0.249512 -0.972656 0.494141 -0.292969 0.343994 0.054504 -0.274658 -0.283936 -0.711426 -0.013672 -0.418457 -0.303711 -0.089905 -0.021790 0.202881 -0.047668 -0.074585 0.128052 0.218872 -0.436523 0.271973 0.255615 0.208496 0.356934 0.096924 -0.259277 0.390869 -0.645020 0.030167 -1.149414 -0.097656 0.370361 0.158081 -0.037048 0.465332 0.223022 0.318115 -0.339600 0.293945 -0.156372 -0.035614 -0.118225 -0.329834 -0.121582 0.400146 -0.003185 -0.257324 -0.312500 -0.065491 -0.000174 -0.328369 -0.095032 0.206177 -0.247070 -0.368408 -0.905273 -0.065552 0.182617 0.103394 -0.002884 -0.582031 0.082764 -0.360352 -0.013237 -0.059784 0.120911 -0.300781 -0.245117 -0.216675 0.117615 -0.378418 -0.152954 0.376221 -0.750488 0.545898 -0.393066 -0.121155
-1.018555 -0.149902 0.162354 -0.240112 -0.309814 -0.261963 -0.345947 -0.276855 0.123840 -0.016754 0.305176 0.264404 -0.012550 0.211060 -0.307129 -0.763184 0.459961 -0.068848 -0.262207 -0.148193 0.384277 -0.231567 -0.387207 0.265381 0.140015 -0.301025 -0.549316 0.182983 0.144165 -0.151245 -0.341553 0.173340 -0.475830 0.113403 -0.038147 0.092651 0.323975 -0.287354 0.242676 0.171875 -0.155151 -0.155151 -0.428223 0.048828 -0.330566 0.365479 -0.219604 -0.911133 -0.070862 0.075623 -0.008926 -0.407471 0.227051 0.388672 -0.368896 0.572754 0.156738 0.087219 -0.327881 -0.450439 -0.322998 -0.141357 0.201782 -0.448486 -0.266846 0.175293 0.178223 0.284424 0.025330 -0.044067 -0.337646 0.441895 0.206421 -0.054596 -0.423096 0.675781 -0.224487 -0.459717 -0.651367 -0.154541 -0.248291 -0.399658 -0.012413 0.410889 -0.117981 0.119629 0.216187 -0.424072 -0.283203 0.265137 0.120972 -0.357910 0.219604 -0.144897 -0.422119 -0.409424 -0.464600 -0.382080 0.043091 -0.292236 -0.087341 -0.113037 -0.291260 0.191650 0.052856 0.087830 -0.076294 0.227173 -0.535156 0.240356 -0.303223 0.469238 0.491699 -0.170776 0.206299 0.358887 0.292725 -0.148682 -0.043945 -0.470703 -0.745117 0.058990 -0.358398 -0.205078 -0.244263 0.371582 0.266357 -0.251221
-0.182129 0.022949 0.033813 -0.320801 0.213257 -0.185913 -0.165771 0.219849 0.293457 0.055756 0.168945 -0.022430 -0.313721 -0.110168 0.274414 0.079956 0.011032 -0.016129 0.078796 -0.271240 -0.004154 -0.714355 -0.029816 -0.043518 -0.303467 -0.040771 -0.132568 -0.327393 -0.341797 0.296143 0.234619 -0.236572 -0.308838 -0.241943 -0.372559 -0.516113 0.317871 0.014191 0.208740 0.040314 0.174072 0.253174 0.107971 0.255859 0.331055 0.145752 -0.011894 0.049377 -0.061462 -0.491211 -0.130127 0.527832 -0.101685 -0.008286 -0.148682 0.059113 -0.324463 -0.154541 -0.092529 -0.185059 0.062500 -0.085754 -0.929688 -0.848145 -0.091919 -0.709961 0.048218 0.053314 0.406982 -0.222290 0.288574 0.136353 -0.150146 -0.019791 0.198608 0.285400 0.119080 0.188843 0.049347 -0.213745 0.266846 -0.204468 -0.374512 0.136597 -0.053955 0.159424 -0.689453 0.262695 -0.849609 0.248657 -0.268311 -0.086548 -0.006298 -0.302246 -0.316406 -0.230591 -0.466553 0.500977 -0.182861 -0.027756 -0.487061 -0.530273 0.012955 0.197632 0.583496 0.799316 -0.029007 -0.029617 -0.219727 -0.207764 0.180420 -0.187378 -0.080688 -0.365967 -0.268066 -0.269531 0.116089 0.244141 -0.408936 -0.036163 0.008286 -0.401855 -0.301270 -0.012627 0.052948 0.170654 0.207520 0.170654
0.458984 0.311035 -0.243652 0.584961 -0.221191 -0.168091 0.392822 0.155029 -0.157349 0.081726 0.362061 0.021088 -0.474121 -0.563477 -0.122498 -0.267090 -0.338867 0.527832 -0.314453 -0.525879 0.007397 0.098267 -0.613281 -0.023117 0.132690 0.236206 0.000683 0.004181 0.447021 0.039581 0.103577 -0.239502 -0.410645 0.091064 0.115417 -0.202393 -0.198730 -0.118591 -0.119812 -0.182739 -0.099670 -0.519531 -0.475098 -0.181274 -0.003910 0.225342 0.182861 0.383789 0.265137 -0.097595 0.322266 -0.555176 -0.028107 -0.195435 -0.090515 -0.614746 -0.188721 0.089722 -0.025314 -0.053802 0.267334 -0.046600 0.083618 0.189087 -0.009705 -0.899414 0.034119 -0.083130 0.643555 -0.276123 -0.705566 0.044983 0.067688 -0.866699 0.433350 0.059265 -0.228394 -0.230103 -0.111145 -0.381348 -0.512695 -0.342285 -0.425781 0.065796 -0.309814 -0.541504 -0.182617 0.041321 0.282471 -0.582520 -0.088318 -0.300537 0.106262 0.162720 -0.050476 0.053650 -0.316162 0.082214 0.111084 0.092896 0.075562 0.398926 -0.658203 -0.137939 -0.270264 0.088135 0.020432 0.116089 -0.399658 0.104492 0.458984 0.223633 0.084717 0.013664 -0.050293 -0.084717 -0.260254 -0.114624 -0.229126 0.249390 -0.311523 0.167969 0.311768 0.047028 -1.020508 -0.076477 -0.242310 0.512695
-0.087524 -0.074890 0.204834 -0.301514 -0.399170 0.099304 -0.380371 -0.197876 -0.095215 0.066406 0.434570 -0.045868 -0.148560 -0.386475 -0.240723 -0.000371 0.202271 -0.061859 -0.029205 0.139038 0.025116 -0.166260 0.050659 0.094421 0.128906 -0.178223 -0.568848 0.010674 0.226807 -0.195801 0.009018 -0.647949 0.661133 -0.128540 -0.562012 -0.213989 -0.254883 -0.000227 0.419434 -0.057007 0.106384 -0.514648 -0.175537 -0.021805 -0.099304 0.048157 0.311523 -0.507324 -0.684082 -0.121765 0.080322 -0.346924 -0.232910 0.324219 -0.136353 0.071228 -0.469971 0.665039 -0.442383 0.204468 -0.196777 -0.469482 -0.308594 -0.149414 -0.361084 0.093872 0.335693 -0.467529 -0.356445 0.198975 -0.072266 -0.443115 0.516602 -0.021286 -0.396729 -0.260986 0.187012 0.044678 -0.157349 -0.392578 0.025940 0.088928 -0.044220 -0.426270 0.029221 0.307617 0.309570 0.510254 -0.140503 0.427246 0.171753 -0.221680 -0.115784 0.063904 0.212769 0.038605 -0.359131 -0.349854 0.071289 -0.517090 -0.175049 0.197754 0.000402 0.643066 0.255615 -0.032990 -0.163330 -0.427979 -0.059265 -0.054901 -0.075134 -0.163818 0.154175 -0.275146 0.222900 -0.712402 -0.159668 -0.173828 -0.022293 0.191772 -0.015541 0.209961 -0.039978 0.356445 -0.218262 0.209473 0.388184 -0.313232
-0.642578 0.101379 0.367188 -0.039215 -0.362793 0.086060 0.166748 0.068726 0.072083 0.088806 0.489990 0.305664 -0.881348 0.053986 -0.080383 -0.047333 -0.447266 -0.452393 0.361084 0.376709 -0.255127 0.222046 0.278809 -0.294434 0.346680 -0.345215 0.287598 -0.204834 0.291748 0.268066 0.040436 -0.199829 -0.076660 -0.299316 -0.068359 -0.132324 0.182861 0.571289 -0.365967 0.123230 -0.354248 0.274414 -0.407715 0.104675 -0.153320 -0.147583 -0.431641 0.313477 0.005516 0.330078 0.031677 0.241943 0.327393 -0.291260 0.215454 -0.694336 0.595703 -0.260010 0.437500 -0.281494 -0.288818 -0.378662 0.192383 -0.024765 0.185059 -0.447266 -0.346191 0.124634 0.096375 -0.225586 -0.083374 0.465088 -0.371826 0.111816 -0.118835 0.316650 0.459717 0.041321 -0.276611 0.203247 0.169312 0.311279 -0.003325 0.055115 0.122498 -0.011421 0.166992 -0.489258 -0.091248 0.244995 -0.072205 -0.635742 -0.356445 -0.231812 -0.586426 0.029633 -0.544434 0.051422 -0.085266 -0.036011 0.077942 -0.535645 0.191284 0.318359 -0.135986 -0.462646 -0.080627 -0.210571 0.213135 0.224365 -0.500488 0.211182 0.062103 -0.119141 -0.003746 0.376221 -0.120056 0.216309 0.034882 -0.497559 -0.122986 -0.197754 -0.472412 -0.312744 0.142578 -0.393066 -0.295898 -0.649902
0.026627 0.550293 0.234009 -0.293701 -0.354980 -0.172363 -0.218140 0.310547 0.278564 -0.328125 0.020447 -0.088074 -0.488525 -0.400391 0.099243 0.100220 0.067566 0.067505 -0.369385 -0.087646 -0.004902 0.207764 -0.126099 -0.078857 0.361328 -0.249634 -0.416260 0.183716 -0.534180 -0.576660 0.219971 -0.532715 0.255127 -0.348633 -0.286377 0.042358 -0.071472 0.132935 -0.137085 0.109314 0.242065 0.160889 0.151978 0.070679 -0.128906 -0.008202 0.312744 -0.754883 -0.135498 -0.259033 0.533203 0.061615 -0.436768 -0.260742 0.172119 -0.108521 -0.041595 -0.405762 -0.582031 -0.264404 0.117493 -0.476562 -0.313232 0.195679 0.119446 -0.240723 0.388916 0.514648 -0.220093 0.101379 0.043274 0.355957 -0.137939 -0.255127 -0.118835 -0.151855 0.386719 0.380127 0.223633 -0.356201 -0.229248 0.102295 0.104492 -0.568359 0.120239 0.638184 -0.035248 0.125488 -0.112915 -0.023407 0.097351 0.267090 0.243408 0.494629 -0.370361 -0.126709 0.014702 -0.247192 0.070557 -0.155640 -0.156982 -0.150757 0.350098 0.385742 -0.439209 -0.359131 -0.406250 -0.011528 0.369629 0.165039 0.254883 -0.376953 0.536621 0.078064 0.533691 -0.601562 0.159912 0.389648 0.000303 -0.408691 0.060211 -0.010452 0.209595 0.358887 -0.049927 0.152100 0.078918 0.074890
0.239746 -0.462402 -0.178101 -0.155640 0.110107 -0.040588 0.375732 0.134277 -0.092957 -0.094482 0.002657 -0.672852 -0.134399 -0.600098 -0.163330 -0.297119 -0.007671 -0.307617 -0.301025 0.122253 -0.050140 0.148071 0.290039 -0.367676 -0.071472 0.305420 -0.262695 -0.107117 -0.324219 0.277588 0.165405 -0.272217 0.120300 0.298828 0.464844 -0.339355 0.210449 -0.175293 -0.248291 0.625977 -0.286377 -0.245605 0.329346 0.444336 0.279297 -0.252197 0.110046 0.114929 -0.050781 -0.282959 -0.022659 0.031952 -0.410400 -0.660156 -0.011559 0.301758 0.273438 0.208008 0.212158 0.277344 -0.473877 0.096375 0.351562 -0.105652 -0.875488 0.381592 -0.452393 0.078979 -0.223267 0.087708 0.208618 -0.181885 0.197144 -0.581055 -0.090942 -0.159912 -0.150024 -0.042511 -0.358643 -0.570801 0.050293 -0.603516 -0.005089 -0.159668 -0.012825 -0.051575 0.019073 -0.214966 -0.240356 -0.640625 -0.131470 0.208374 -0.279541 -0.063599 -0.086548 0.233521 0.211060 -0.344238 -0.156738 -0.346924 -0.142822 -0.174683 -0.075195 -0.078186 -0.070801 -0.093689 -0.217896 -0.435059 0.363525 -0.217651 -0.625000 0.144409 -0.292725 -0.049469 0.330566 0.043793 0.024170 -0.048248 0.272217 0.005985 0.018021 0.109497 -0.275879 -0.614258 -0.145508 0.153564 0.305176 0.083008
-0.150024 -0.220459 -0.144897 0.281738 0.270996 -0.192505 -0.198486 0.090637 0.237549 -0.524902 0.091675 0.370850 -0.421387 0.567871 0.252686 -0.339355 -0.078918 0.322021 -0.260986 -0.457764 0.454590 -0.296631 -0.458740 -0.376465 -0.201050 0.254395 0.082825 -0.189331 0.558105 -0.262695 0.364502 -0.178955 0.005627 0.458008 -0.081787 -0.250488 -0.548828 0.125732 -0.560547 -0.081970 -0.021454 -0.130127 0.040070 -0.334473 -0.121155 0.363770 -0.063232 -0.060699 -0.134277 -0.157593 0.070190 -0.514648 -0.121765 -0.553223 -0.327148 -0.270020 -0.309082 0.308105 0.013161 -0.265381 -0.403809 0.093018 0.069946 -0.159058 0.218994 -0.199341 -0.637207 -0.046783 -0.435303 -0.305908 0.079590 -0.400391 -0.086548 -0.394043 -0.260498 -0.517090 -0.118774 -0.319336 0.189941 -0.004570 0.167603 0.116821 0.276611 0.092102 0.081116 -0.033325 -0.446045 0.498291 0.279297 -0.276855 -0.827637 0.006714 0.042084 0.743164 0.531738 -0.137207 -0.212158 -0.182739 0.004131 0.139893 -0.816406 -0.101868 0.270752 -0.468262 -0.570801 0.109802 0.214722 0.216675 -0.439941 0.067505 -0.060211 0.181396 -0.197998 -0.331543 -0.125610 0.104736 -0.265137 0.117249 0.304199 -0.052185 -0.141724 -0.012054 -0.114380 -0.095337 -0.245728 -0.123901 0.471680 0.170654
-0.053345 -0.275146 0.203857 -0.142944 -0.259277 -0.034058 0.443848 -0.241455 -0.013184 -0.093018 -0.025528 0.154053 0.225586 -0.138184 0.266113 -0.338623 -0.445068 -0.032745 0.342285 -0.476562 0.579590 -0.236206 0.041809 -0.265869 0.027069 -0.450195 0.202148 -0.832031 0.377930 0.227783 0.277344 -0.386719 0.170288 -0.190552 -0.205444 -0.000620 -0.191772 -0.075317 -0.310547 -0.581055 -0.359131 -0.347168 -0.176025 -0.520996 -0.301514 -0.074890 0.009811 -0.107727 -0.495361 -0.203125 0.076904 -0.150024 -0.046967 0.279785 -0.032623 0.522949 -0.325928 -0.174194 -0.081665 0.168579 -0.072754 -0.114807 -0.184204 -0.027359 -0.552246 -0.041046 0.300293 0.379883 0.343506 0.308594 0.018951 0.214722 0.212646 -0.355957 -0.356689 -0.245605 0.107910 0.105286 -0.043335 0.267822 -0.235962 -0.121826 0.125732 -0.345947 -0.050568 -0.260986 0.255371 -0.427002 0.004124 -0.447021 0.392578 0.248535 0.324463 0.027786 -0.384766 -1.108398 0.020065 -0.175049 0.213501 0.051605 -0.030380 0.223999 -0.005554 0.440430 -0.320557 -0.107422 0.161499 -0.110168 -0.037750 -0.373047 0.180420 -0.276855 -0.349854 0.245483 -0.127563 0.195068 0.098511 -0.345947 0.368652 -0.248779 -0.323242 0.258545 0.035522 -0.310547 0.747070 -0.757324 0.098145 0.333008
-0.629395 0.020370 -0.271729 -0.246582 0.010925 -0.025909 -0.125000 -0.305420 -0.077515 0.136597 -0.461914 0.026779 0.017075 0.097168 -0.053894 0.024429 0.338867 0.224609 0.183716 0.208496 0.268311 0.325195 -0.231079 0.074951 0.372803 0.042938 -0.218872 0.017868 -0.418701 -0.558105 -0.227661 0.150513 -0.048492 -0.197144 0.047485 -0.239990 -0.063232 0.167114 0.409424 0.350342 0.254883 -0.511230 -0.311523 0.046570 -0.155762 0.303467 -0.068359 -0.527832 0.402344 -0.079285 -0.411133 0.593750 -0.246094 0.531250 -0.607422 0.056213 0.155396 -0.248291 -0.927734 0.074219 0.064331 0.188965 -0.075562 -0.729004 -0.089722 0.180908 -0.751465 0.711426 -0.587891 -0.368164 -0.048950 0.127930 -0.213135 0.448730 -0.118591 -0.503906 0.180542 -0.051514 0.026337 0.148315 0.405762 0.282715 -0.167725 -0.288330 -0.415039 0.193726 0.067444 -0.054352 -0.497559 -0.171997 -0.659668 -0.365479 -0.002748 0.117004 -0.150757 0.031891 -0.282227 -0.213623 0.156250 -0.300293 -0.355713 -0.209961 -0.178345 0.012459 0.325684 -0.354248 0.085022 0.294189 0.751465 -0.085999 -0.049774 0.007378 0.183594 -0.176514 0.039398 -0.390869 0.008385 0.011246 -0.219482 -0.011330 -0.315186 -0.182739 0.086365 -0.039062 -0.025269 0.220459 -0.524902 0.069336
0.018265 0.070862 0.223022 0.194580 0.222412 0.057831 -0.114319 0.126465 0.131470 0.374756 0.118713 0.136841 -0.483643 -0.004135 0.363281 -0.052917 -0.217041 -0.044373 0.010941 0.347656 0.042572 -0.091736 -0.256836 0.214844 0.080566 0.396729 -0.026917 -0.197510 0.066833 0.011093 -0.060852 -0.563477 0.154785 -0.265869 0.122375 0.109680 0.496582 0.047791 -1.762695 -0.052734 0.219971 0.106018 0.003653 0.182861 0.246460 0.437500 -0.210693 0.159302 -0.032349 0.293701 -0.382324 0.228027 0.393066 -0.817871 -0.139160 -0.152100 0.050934 0.195557 0.171021 0.469482 0.323242 0.118713 -0.169922 -0.857422 0.330811 0.261719 -0.279785 -0.302734 0.164917 -0.080078 0.405029 0.016800 -0.054779 0.084839 -0.161621 0.347412 0.029770 -0.336914 -0.315430 -0.123901 -0.489014 -0.094177 -0.202271 0.151367 -0.175781 -0.137939 -0.281738 -0.982422 -0.219482 -0.473633 0.316406 -0.021484 -0.246094 -0.075745 0.437256 -0.022903 -0.849121 0.154541 0.027695 -0.305420 -0.023010 0.098389 0.089294 -0.095093 0.248169 0.233765 0.466309 -0.587891 0.241699 0.226929 -0.003286 0.128540 -0.055389 -0.161377 -0.412354 -0.192627 -0.049591 -0.498047 0.083679 0.167725 -0.274414 -0.019394 -0.336426 -0.130249 -0.185181 0.092102 0.063843 0.085632
0.126953 -0.539551 0.356689 0.192749 0.357422 -0.111328 0.165405 -0.315186 -0.555176 0.274170 0.112244 0.202148 -0.023315 -0.722656 0.375488 -0.459961 0.395996 -0.388916 -0.131958 -0.467529 -0.024292 -0.064087 -0.671387 -0.147827 -0.733887 0.013153 -0.192505 0.054596 -0.278076 0.329102 -0.182495 -0.136108 -0.277588 -0.076721 -0.088745 0.301025 0.005737 0.031525 0.091431 0.069702 -0.144775 0.316650 0.103088 -0.313232 -0.501953 0.017944 0.009399 -0.235229 -0.154907 0.524902 0.031647 0.280518 0.189819 -0.734375 -0.150024 -0.026154 -0.136108 -0.440430 -0.093933 0.067017 -0.170410 0.205322 -0.318604 -0.147461 -0.210815 -0.271729 0.172363 0.353516 -0.047485 -0.136597 -0.306885 0.205200 0.390137 -0.249268 -0.658691 -0.664062 -0.352295 0.266357 -0.082764 -0.211182 0.109802 0.164917 -0.568359 -0.246582 0.157349 0.176636 -0.465088 0.281006 -0.176758 0.034271 0.081909 0.133301 -0.008659 0.447021 0.234863 -0.067810 0.296387 -0.499756 -0.228516 -0.504395 -0.037109 0.000191 -0.141724 -0.739746 -0.105469 -0.142090 0.257812 -0.545410 -0.518555 0.263672 0.061462 0.146606 0.264160 -0.342773 -0.209717 -0.232300 -0.016907 -0.172974 0.231689 0.033630 -0.327393 0.350098 -0.384277 -0.159302 0.149902 0.460938 0.379639 0.134766
-0.351562 0.020844 0.549316 -0.426270 0.075928 0.198120 0.004311 -0.162964 -0.154053 0.447510 -0.058441 -0.083862 0.314697 0.232544 0.300781 -0.012207 -0.313965 0.229370 0.411377 -0.035858 0.184326 -0.041504 -0.202759 -0.202393 0.500000 0.292969 0.054535 -0.159668 0.385254 0.129517 -0.394531 0.102722 -0.111755 0.393555 -0.450928 -0.148560 0.070374 0.083740 -1.131836 0.332031 -0.252686 0.210938 -0.904785 0.344238 0.177002 -0.087463 -0.091064 -0.059326 -0.307129 -0.261963 -0.240601 -0.452148 0.028015 -1.058594 -0.259521 -0.183105 0.190674 0.022156 -0.061584 -0.302002 0.140137 -0.020416 0.067200 -0.337158 -0.121338 -0.260010 -0.352539 0.214355 -0.235229 -0.120667 0.223755 0.344238 -0.648438 0.197754 -0.086426 -0.353027 -0.145142 -0.199951 0.250244 -0.315918 -0.037842 0.524902 -0.167358 0.205444 -0.048309 -0.261963 -0.194092 -0.946289 0.149658 -1.185547 -0.380127 -0.292725 0.027512 0.405029 0.220947 0.035400 -0.702148 0.236938 0.204102 -0.027039 0.101318 0.282959 -0.128540 -0.226562 -0.133789 0.170654 0.283936 -0.192749 -0.190674 -0.409912 0.141357 0.346436 0.374023 -0.647949 0.338867 -0.517578 -0.030243 0.190308 -0.064758 -0.595703 0.278564 -0.162231 -0.358154 0.017685 -0.386475 -0.178833 0.496582 -0.541016
0.124084 0.794434 0.280518 0.065796 -0.020309 0.085876 0.051666 0.267578 -0.321045 0.045074 0.288818 0.102905 -0.067200 0.048096 -0.517578 -0.971680 -0.263184 -0.299561 -0.137085 0.282959 -0.081848 0.105530 -0.193237 0.144409 -0.157959 -0.222046 -0.221802 -0.451660 -0.067200 -0.483154 -0.208740 -0.193237 -0.097046 -0.000428 -0.463379 -0.367676 0.262451 -0.178223 0.605469 -0.244019 -0.222534 0.243286 -0.531250 0.384033 -0.170410 0.134155 -0.004658 0.042816 -0.192505 -0.634766 -0.177979 -0.250244 -0.045013 1.264648 -0.556641 -0.333496 -0.716309 0.090881 0.070984 -0.573730 0.153320 -0.106873 -0.270264 0.178101 -0.023132 -0.133545 -0.121582 -0.492188 -0.148071 -0.149048 -0.243652 0.712891 -0.182129 -1.332031 -0.003933 -0.045837 -0.093201 -0.077271 -0.313477 -1.402344 -0.078735 0.216431 -0.530762 -0.000815 -0.045319 0.076904 -0.127319 0.503418 0.147827 0.572754 -0.064392 -0.305420 -0.096130 -0.545898 0.028152 0.142944 -0.815918 0.054657 0.143555 -0.158569 0.033875 0.222046 0.280029 -0.133545 -0.183228 -0.235596 0.306641 -0.040253 1.208984 0.005886 0.187988 0.262695 -0.471191 -0.806152 0.246826 -0.188477 0.142090 -0.076416 -0.067566 -0.491943 0.475586 0.133057 0.125977 -0.192139 -0.019974 -0.267578 -0.215820 -0.574707
-0.289795 0.115906 -0.814453 -0.528320 -0.120544 0.046112 -0.577148 0.154053 -0.122742 -0.854492 -0.151611 0.080505 0.235107 -0.182129 -0.229370 -0.056244 -0.560547 -0.363037 -0.030823 0.101013 0.067261 -0.306641 -0.521484 -0.136475 -0.300293 -0.494141 -0.328857 -0.179932 0.141602 0.340088 -0.263916 -0.141113 -0.395020 -0.444336 0.140015 -0.296387 0.207886 0.147827 -0.086487 0.103455 0.091553 -0.232910 -0.092407 -0.119751 -0.014336 0.066589 -0.270264 -0.024902 0.131226 -0.466553 0.024185 -0.030838 0.075073 0.297119 0.464600 -0.564941 0.201660 0.019119 0.325684 -0.122986 -0.171143 -0.098450 -0.494385 -0.096680 0.039825 0.095093 0.220703 -0.267822 0.046326 -0.126465 0.358887 0.186035 -0.194702 -0.352051 -1.093750 0.210327 0.474609 -0.011795 0.247314 0.394043 -0.240601 -0.238037 -0.470947 -0.097534 -0.122253 -0.006187 0.297852 0.262695 0.289551 -0.394775 -0.296143 -0.118652 -0.162476 0.040131 0.067932 -0.388184 0.159546 -0.578613 -0.180786 -0.267578 0.100952 -0.512695 -0.380127 -0.600586 -0.470947 -0.056885 0.562500 0.245239 -0.595703 -0.259766 -0.521973 0.234863 -0.065735 0.114441 -0.095154 0.253418 0.006794 -0.108765 -0.128784 -0.116150 -0.151245 -0.258545 0.187256 0.145630 -0.251709 -0.619141 0.317627 -0.270996
-0.015434 -0.242310 -0.387451 0.015617 0.030411 -0.046692 0.311279 -0.675781 -0.029907 0.095886 -0.080078 0.085144 -0.004318 -0.024582 0.129639 -0.041565 -0.687012 -0.155640 0.498535 -0.350586 -0.001820 0.061493 0.137329 -0.355713 0.287354 0.243042 -0.306885 -0.119141 0.603027 0.106873 -0.428467 -0.581543 -0.339355 -0.296387 0.406250 0.576660 -0.631348 0.323486 0.179810 -0.450928 -0.316895 0.328369 0.076538 -0.017044 -0.441406 0.245728 0.401123 0.216431 -0.304688 0.105286 -0.150269 0.182007 0.530762 -0.063232 -0.112793 0.023880 0.014130 0.181396 -0.306885 0.523438 -0.747559 -0.288330 -0.462402 -0.104492 0.447266 0.035675 0.063049 -0.078308 -0.587402 0.205566 -0.413330 0.198242 0.353027 -0.183472 0.010567 -0.409424 0.103088 -0.092346 -0.252197 0.141968 0.352783 0.247803 0.096313 0.186890 -0.070862 -0.368164 -0.104370 0.375000 -0.494385 -0.672363 -0.091431 -0.115112 -0.073792 0.054779 -0.000381 -0.083557 -0.007828 -0.065063 -0.181641 -0.077881 0.011978 0.375244 0.278320 0.285400 0.387451 0.453125 -0.013977 0.038788 -0.139160 0.135010 -0.306152 -0.452637 0.428955 -0.675781 -0.348877 0.000809 -0.117065 -0.008080 -0.178955 -0.279053 0.071228 0.048615 -0.534180 0.125366 0.164185 -0.200928 -0.460449 0.226562
-0.681152 0.146240 -0.576172 0.120117 0.115601 -0.042694 0.119507 0.136230 0.173218 -0.166992 -0.246338 0.577637 -0.049042 0.400391 0.334717 0.011017 0.122253 0.489258 0.332275 0.019394 0.332275 -0.344238 0.309082 -0.414795 -0.092346 -0.322510 -0.132324 0.106689 0.207764 -0.478271 0.269531 -0.027145 0.264893 0.446045 -0.011208 -0.065002 -0.938477 0.003326 -0.582520 -0.322510 -0.475830 0.418945 -0.398193 0.205444 -0.077698 0.545898 -0.191040 -0.352539 -0.278076 0.458252 0.055695 -0.037201 0.221558 0.311035 -0.148926 0.020050 -0.062622 0.005024 -0.007229 -0.050323 -0.104065 -0.271729 -0.008018 0.279541 -0.074402 0.235840 0.062439 0.671875 0.034332 0.021118 -0.146973 0.041809 0.192871 -0.231689 -0.590820 0.120972 0.181030 0.139648 0.159912 0.580078 -1.024414 -0.166870 -0.253906 -0.133789 -0.026489 -0.478271 -0.304932 -0.116577 0.195312 0.427002 0.272461 -0.244629 0.283447 0.268066 0.069702 -0.183960 0.067078 -0.098633 0.123779 -0.104431 -1.406250 0.201782 0.155762 -0.409668 0.042389 -0.018082 0.108398 0.184326 0.672363 0.114624 0.316895 -0.217163 -0.198242 -0.021011 -0.223755 -0.591309 -0.208862 0.188599 -0.121582 -0.125000 0.395508 0.081970 -0.334473 -0.095825 0.300293 -0.035095 -0.015190 -0.149902
-0.363525 -0.167358 -0.260010 -0.567383 0.395996 0.109436 -0.150879 0.009590 -0.002821 0.177368 -0.115051 -0.250244 -0.399414 -0.080627 0.116760 0.017670 -0.201782 0.070129 -0.365723 -0.177124 0.293701 -0.006493 0.148071 0.103821 0.305420 0.003983 0.132446 -0.007206 0.154785 0.074585 -0.136963 0.015022 0.214478 -0.039429 -0.716309 0.290771 0.183105 0.436768 -0.247192 -0.106934 -0.084412 0.328125 0.256104 -0.068298 -0.236816 -0.047974 0.340820 0.370605 0.151611 -0.021179 0.151733 0.463623 0.484131 0.558105 0.110413 0.254395 -0.080505 0.210449 -0.062927 -0.188599 -0.020416 -0.256836 -0.044983 -0.688477 -0.346680 -0.127319 -0.647949 -0.282715 -0.034851 -0.295654 -0.172607 -0.251221 0.214722 -0.514648 -0.318848 0.268799 0.203247 0.446777 0.087708 -0.140503 -0.036987 -0.672363 0.483398 -0.072083 0.136108 -0.025818 -0.249756 -0.482422 -0.065308 -0.514160 -0.370605 -0.501465 -0.276367 -0.414551 -0.172363 0.409912 -0.226074 -0.246826 0.268066 -0.367676 0.104126 0.031830 0.077026 -0.061523 0.159546 -1.035156 0.003712 0.094360 -0.275391 -0.369629 -0.561523 0.577148 0.357910 -0.637207 -0.312988 -0.717773 0.149902 0.360840 0.062500 0.151611 -0.292725 0.075928 0.237305 -0.606445 -0.239502 0.081421 -0.542969 -0.168823
-0.287842 0.037018 0.032074 -0.192993 -0.316895 -0.086548 -0.182251 0.120239 0.161255 -0.069763 -0.099609 0.337158 -0.146973 -0.002426 -0.043640 -0.552246 0.149536 0.055756 -0.311523 0.336914 -0.090576 -0.238525 -0.065247 -0.279785 -0.259766 -0.200806 -0.597168 0.186035 -0.100586 0.031799 -0.046692 -0.334473 -0.036743 -0.673340 -0.078308 -0.486084 0.184448 0.351318 -0.867188 -0.232056 0.097473 0.017944 -0.303711 0.226074 -0.321045 0.098206 0.409424 -0.087952 -0.023880 -0.259033 0.155884 0.378906 0.089600 -0.173340 0.169434 0.509277 -0.047974 -0.447021 -0.373535 0.256104 -0.185913 -0.409424 -0.386475 -0.031708 0.465576 -0.250732 -0.065247 -0.458740 0.691895 0.236450 0.344971 0.769531 -0.074463 -0.013191 -0.473389 0.466309 -0.199341 0.245728 0.196777 -0.803223 -0.203857 0.306885 0.180664 -0.223999 -0.272949 -0.034851 0.284180 -0.006779 -0.191895 -0.104797 0.239868 0.186890 -0.622070 0.071289 -0.443604 -0.328369 0.139771 -0.101929 0.107788 0.135254 0.177856 -0.140991 0.221558 0.245850 -0.340088 0.229492 0.315430 0.106812 -0.017715 0.130737 0.102173 -0.218384 -0.102417 -0.353271 0.299561 0.472656 -0.067444 0.592285 0.023163 -0.546875 0.007614 0.063049 -0.252930 -0.278809 -0.235596 -0.244141 0.006371 -0.051239
0.192017 0.421875 -0.448975 0.612305 -0.143799 -0.020004 -0.106995 -0.206055 -0.822266 0.414551 -0.412354 -0.080444 0.139893 0.190918 -0.249512 0.123779 -0.212158 -0.457275 0.200317 0.540039 0.110229 -0.286621 -0.371826 -0.361572 -0.056702 -0.017883 0.144287 -0.338135 0.283936 0.150146 -0.167236 0.087646 -0.159790 -0.537109 0.048035 -0.034973 0.123962 -0.512695 -0.179321 0.168457 0.185303 0.221558 -0.331299 0.329346 -0.481201 -0.039429 -0.103333 -0.424561 0.108521 -0.154663 0.183838 -0.219482 -0.443359 0.141113 -0.583008 -0.055847 0.141602 -0.454102 -0.038757 0.393066 0.067749 0.024429 -0.167603 0.604492 0.098022 0.230469 0.299316 -0.156494 -0.369141 -0.092529 0.227051 0.281494 -0.372803 -0.844727 -0.216064 -0.912598 -0.296143 0.191650 -0.182983 -0.481201 -0.011139 -0.369141 -0.375000 -0.234009 -0.258301 0.207642 0.298340 -0.134766 0.146973 -0.276855 -0.323975 0.076965 0.075562 -0.003489 -0.347900 0.088501 -0.398438 -0.136597 0.047974 -0.443359 -0.263916 -0.454590 0.218628 -0.277832 -0.044495 -0.425537 0.033661 -0.381592 -0.255127 -0.482422 0.126465 0.461182 -0.263672 0.160645 -0.322510 -0.206665 0.007359 -0.377197 -0.349365 0.440918 -0.314941 0.165039 -0.235718 0.326660 -0.498047 0.378662 -0.476807 0.268799
-0.300293 -0.206421 0.058929 0.074768 -0.109863 0.036011 0.239868 -0.140503 0.112244 0.160278 0.168701 -0.362305 0.471191 0.102661 -0.117371 -0.270264 -0.401367 -0.098389 0.324951 -0.277344 -0.235229 0.057037 0.207520 -0.173340 -0.143799 -0.129272 0.152466 0.329346 -0.150269 -0.029312 -0.757324 0.475586 -0.069031 -0.238770 -0.092163 -0.428955 0.355469 0.322998 -0.176636 -0.018387 -0.541504 -0.061615 -0.214111 -0.419189 0.203491 -0.101440 0.033234 -0.770508 -0.346924 -0.157715 -0.310303 -0.065979 0.260010 0.077576 -0.057922 -0.438477 0.166138 -0.332764 0.256104 -0.088257 0.035339 0.104065 -0.025986 0.200317 0.057648 -0.014702 0.132568 -0.089722 -0.516602 -0.167969 0.293945 0.121216 0.265381 -0.192017 -0.109253 0.220947 0.332031 -0.894043 -0.663574 -0.480957 -0.617188 0.081238 0.447266 0.177612 -0.523438 0.037170 -0.131104 -0.370605 0.314453 0.052643 -0.380615 0.017395 -0.128052 -0.028534 -0.123657 -0.147095 -0.047394 -0.215210 -0.068970 -0.413086 0.301758 0.474854 -0.003771 0.032623 -0.470459 0.390137 -0.497314 0.254639 -0.612305 0.078308 -0.207642 -0.211304 -0.100403 0.248291 -0.238037 -0.173828 0.127197 0.112305 0.271484 -0.185669 -0.116943 0.276855 0.566895 -0.359375 -0.192139 -0.601562 -0.101929 -0.165894
0.008316 -0.275146 0.173950 -0.098816 0.046143 -0.261230 -0.015656 0.525391 0.032349 -0.666992 -0.137329 0.170166 -0.277588 -0.550781 0.349609 -0.399414 -0.376953 -0.157104 -0.045746 -0.569336 -0.194580 0.133057 0.373535 -0.675293 -0.086731 0.155884 -0.167236 0.022003 -0.075806 -0.369385 0.165039 0.062500 0.655273 -0.110962 -0.549805 0.398926 -0.015991 0.260742 -0.121399 0.151978 -0.036926 -0.069519 0.398926 -0.285156 0.009979 0.230835 -0.033081 -0.098755 -0.122253 0.177490 -0.146606 -0.558594 0.374756 -0.750000 0.370117 0.261963 0.184204 -0.242065 0.286377 -0.239380 -0.549805 0.074280 -0.109558 -0.151978 -0.429932 0.065063 -0.388184 -0.463379 -0.147217 0.333008 0.008926 0.091736 0.458984 -0.112549 -0.236938 -0.231934 -0.006836 -0.065796 0.153198 -0.788574 -0.457520 0.099731 0.151855 0.349854 0.405518 0.167603 -0.084229 0.133301 -0.108154 0.490723 -0.557617 -0.052277 0.436523 -0.031189 -0.327393 0.189819 0.193115 -0.222168 0.190918 0.026077 -0.514160 -0.069824 -0.025085 -0.309570 0.103577 -0.549316 -0.141235 -0.365723 0.077454 0.188354 0.068542 -0.261475 0.031052 -0.238525 -0.064087 -0.241943 -0.177368 -0.210083 -0.269043 0.478516 0.069336 0.163208 0.140503 -0.509766 0.449707 -0.360107 -0.366699 -0.504395
0.120911 0.175049 -0.026276 -0.377930 -0.230225 -0.027939 -0.487061 -0.099548 -0.468994 0.105347 0.088806 0.330078 -0.220581 0.078735 -0.152344 -0.085999 -0.227417 -0.043915 -0.035553 -0.436279 0.008026 -0.699707 -0.422363 -0.166260 -0.068298 0.371338 -0.070007 -0.333252 0.037231 -0.081726 -0.466797 0.134644 -0.055878 -0.508789 -0.099243 0.170410 0.025650 -0.349609 -0.642578 0.474854 0.328613 0.106323 0.027161 -0.207153 0.108398 -0.237549 -0.078857 -0.080444 -0.030731 -0.211304 -0.330566 -0.116882 -0.096558 -0.421631 -0.304199 -0.028931 -0.132202 -0.037231 -0.190918 -0.080566 -0.138306 -0.199707 0.180054 -0.382080 -0.030930 0.240723 -0.277588 0.237793 0.618164 0.082458 -0.417236 0.670898 -0.437256 0.531250 -0.387939 -0.562500 0.358398 0.102295 -0.298340 0.348633 0.286133 -0.306396 -0.313721 -0.013550 -0.031097 -0.567383 0.235352 -0.322998 -0.528809 0.109009 0.279785 -0.560547 0.247314 0.110046 -0.138184 0.019882 0.086426 -0.289062 -0.168335 -0.256836 -0.364258 -0.671875 0.269531 -0.255127 0.265625 0.244507 -0.554199 0.077026 -0.321289 -0.033875 0.416260 0.203369 -0.052155 -0.733398 -0.172241 -0.140381 -0.101013 -0.217163 -0.369385 -0.223999 0.428467 -0.687012 0.288086 0.277832 0.273682 -0.491943 0.215820 -0.129517
-0.331787 -0.571289 -0.508789 -0.150513 -0.201904 0.062988 -0.942871 0.034576 0.013474 -0.311768 -0.682129 0.058533 0.304688 -0.637207 0.272705 0.189087 -0.069031 -0.021011 -0.321045 0.271729 0.047150 -0.353271 -0.254395 -0.346191 0.138550 0.109314 0.018036 0.357666 0.212524 -0.238770 0.286133 -0.471924 -0.616699 -0.158569 -0.162964 -0.170410 0.133667 0.113403 0.689941 0.302979 -0.137939 -0.091919 -0.126221 0.154053 0.421387 0.544434 -0.254150 -0.623047 -0.354736 0.237671 -0.465088 0.234619 0.049866 -0.294189 0.191162 0.059174 0.057007 0.104126 -0.421143 -0.146851 0.599609 -0.293457 -0.295898 0.076721 -0.370605 -0.016830 -0.409424 0.139404 0.074402 -0.085022 -0.044708 0.195801 0.015472 -0.680664 -0.172974 0.266602 0.193481 -0.595703 0.013779 -0.279053 -0.506348 -0.013290 0.394043 0.269043 0.130371 0.549316 0.308105 0.463623 0.250244 -0.026520 0.062744 -0.064209 -0.018097 0.105347 0.373291 0.300049 0.474854 0.163086 -0.005936 0.244507 -0.063110 -0.153809 0.239990 0.115356 0.119019 -0.354736 -0.327881 -0.276855 -0.564453 -0.159180 -0.040161 -0.060608 0.008797 0.094788 0.013695 -0.011490 -0.034088 -0.594238 -0.255615 -0.533691 0.235352 -0.393799 -0.493164 -0.257568 0.108826 -0.249512 0.066284 0.192993
-0.251709 -0.299805 -0.192871 -0.407715 0.007149 0.026077 0.095398 -0.035492 0.402100 0.318115 0.387207 0.174438 -0.200073 0.081421 -0.111267 -0.089722 0.699219 0.196899 0.047729 0.061676 0.057190 -0.483887 -0.403809 0.190430 -0.779785 -0.559570 0.152100 0.262695 0.532715 0.275391 0.135254 0.064941 0.280273 -0.321289 -0.011520 0.122070 -0.109192 -0.401611 -0.022736 -0.293701 -0.062347 0.395264 0.175415 -0.195801 0.050720 -0.046844 0.152100 0.003960 -0.074219 0.056732 0.114563 0.138184 0.334473 0.433350 -0.458496 -0.258545 -0.278564 -0.218384 -0.120117 -0.007690 0.225342 -0.354492 -0.134766 -0.350830 -0.060272 0.124512 -0.231445 0.022842 -0.260498 -0.190308 -0.018433 -0.186157 0.388428 -0.706543 0.220581 -0.230835 -0.186279 -0.477783 -0.226318 -0.669434 -0.550781 -0.342773 -0.206421 0.137207 0.155273 -0.069580 -0.875977 -0.375732 -0.415283 -0.013985 -0.171143 0.241089 0.108154 -0.450684 -0.437988 0.195435 -0.425781 0.245239 -0.068481 0.290771 0.261719 -0.387939 0.129028 0.044037 -0.222412 -0.720703 0.494385 0.164429 0.355225 0.025574 0.058441 0.125488 0.025421 0.197510 0.295898 -0.397461 0.076782 -0.298340 -0.072083 0.117126 0.031586 0.304688 -0.671875 -0.309814 0.002281 0.117859 0.375977 -0.336914
-0.004730 0.356689 0.173706 0.467773 -0.035126 0.045654 -0.002945 0.155151 -0.234009 0.455811 -0.434082 -0.737793 -0.288818 0.505859 0.112793 -0.419678 -0.207153 0.170410 -0.269775 -0.084290 -0.023117 -0.178833 0.107361 -0.077942 -0.298096 -0.109863 -0.559570 -0.094971 0.231812 -0.085693 0.176514 -0.092712 -0.261475 0.060883 0.093323 -0.042114 -0.090637 0.099854 0.149902 0.373535 0.276123 0.093933 -0.099060 0.259277 -0.029480 0.113037 -0.588867 -0.341553 0.219116 -0.282227 -0.668945 -0.031525 -0.480469 0.145996 -0.537109 0.064514 -0.082764 -0.161499 -0.185547 -0.167236 0.170776 0.369385 -0.063293 0.207520 -0.106323 -0.255859 0.285889 -0.017670 0.064575 0.192993 0.108032 -0.087646 -0.592285 0.018158 0.374756 -0.274414 -0.083801 -0.686035 0.428467 -0.132324 0.159302 0.008423 -0.506836 0.193848 0.123535 -0.655273 0.420654 -0.220825 0.043762 -0.439209 -0.028717 0.051758 -0.205811 0.112793 -0.340088 0.510254 -0.073120 -0.214722 0.222778 -0.434814 -0.060455 -0.245972 -0.030563 -0.289062 0.341064 -0.496338 0.065063 0.573730 0.323242 -0.124695 0.273682 0.420410 -0.607422 -0.224731 -0.150391 0.300049 -0.091187 -0.430420 -0.327637 -0.596191 0.028915 -0.123840 0.335449 0.031067 -0.136841 -0.273682 0.038635 0.237427
-0.115601 -0.153931 0.537598 0.085449 0.117981 0.038300 -0.278320 -0.438721 0.263184 0.275879 0.190674 0.355469 -0.093140 0.182861 0.183350 0.703125 0.075378 -0.197021 0.289795 0.364746 0.097778 -0.296631 0.262939 0.297607 0.261719 -0.547852 0.415527 0.142212 -0.154907 -0.465332 -0.048767 -0.007263 0.129517 -0.320312 -0.204834 -0.554199 0.470947 0.363281 -0.079651 -0.077759 -0.205688 -0.211060 0.369385 -0.018265 0.208984 0.196045 -0.233276 0.031158 -0.098938 -0.095093 -0.052429 -0.638672 -0.522949 -0.321777 -0.130737 -0.002157 0.031433 -0.705078 -0.361084 0.356689 -0.523926 0.429199 -0.316895 -0.219971 0.335205 -0.029404 -0.510742 -0.393555 -0.330811 0.196899 -0.124084 0.097351 -0.502441 -0.076416 0.267578 0.319824 -0.281250 -0.366699 -0.631348 -0.213135 -0.044647 0.048157 -0.397217 -0.056274 0.351807 0.251953 -0.059448 -0.659668 -0.411621 0.022766 0.133301 0.121704 -0.338135 -0.098022 -0.596680 -0.083862 -0.380615 0.516113 0.003059 0.041779 -0.223633 0.234497 0.139038 0.429199 0.115784 0.379883 -0.333496 -0.063660 -0.272217 0.232056 0.161743 -0.097290 0.185791 0.074341 0.035309 -0.105896 0.065857 0.341064 0.543945 -0.127563 0.415283 -0.288818 -0.205322 -0.033173 0.156494 0.477051 -0.390869 -0.109070
-0.195923 -0.379395 -0.400635 -0.362793 -0.263916 -0.035339 0.194824 -0.572754 0.056702 -0.064697 0.200317 0.076233 0.123352 0.174683 0.389160 -0.298340 -0.179199 -0.056335 0.280029 -0.198608 -0.280273 0.384033 -0.489258 -0.179443 -0.062225 0.334229 0.032440 -0.487549 -0.099182 0.401367 0.158691 -0.152466 0.229370 -0.192871 0.088074 0.382324 -0.604004 -0.107849 -0.134888 0.109558 -0.162842 -0.731445 0.328613 -0.145752 -0.031311 -0.129395 -0.019165 -0.006119 -0.133667 0.117432 0.597656 0.073425 -0.163940 -0.099487 0.183228 -0.071228 0.292480 0.284424 0.014435 -0.192261 -0.444092 0.310059 -0.629395 -0.209595 0.309814 -0.529785 0.226074 -0.026917 -0.146851 -0.071533 0.041962 0.047638 -0.068542 0.255371 0.136597 0.097290 -0.020599 0.215698 0.041351 -0.773926 -0.284180 -0.096130 0.301758 -0.022797 0.135620 0.010101 -0.239014 -0.959473 0.006439 -0.843750 -0.797363 0.157593 -0.076782 0.197998 -0.753906 0.341553 -0.043701 0.326416 -0.091492 -0.418457 0.187988 -0.003160 -0.408447 -0.077209 0.518555 -0.218140 -0.135376 0.085144 -0.767090 0.015793 -0.643555 -0.509277 0.041565 -0.235107 -0.317627 -0.045044 -0.156250 0.157349 -0.070740 -0.525391 -0.020966 -0.328369 -0.058075 0.076538 0.051880 -0.238281 0.182983 0.177612
-0.159790 -0.005634 -0.139160 -0.232300 0.214355 0.113281 -0.120728 -0.208252 0.065674 -0.074097 0.610352 -0.367188 -0.259521 0.364014 -0.715820 0.286621 -0.580078 -0.060242 -0.446045 -0.135986 0.010017 -0.144531 -0.142090 0.368164 0.001742 -0.072876 0.174561 0.121155 0.237793 0.098389 -0.170776 0.317627 -0.649414 -0.456055 0.084412 0.346680 0.246216 -0.047333 0.091064 -0.346924 0.321533 -0.137451 -0.443848 -0.560059 -0.017487 0.080139 -0.287598 -0.072205 0.277588 0.357422 -0.045502 0.340576 0.336670 -0.059601 -0.160278 0.004719 -0.197754 0.213989 -0.174561 0.136230 -0.337646 0.385010 -0.239624 -0.577637 0.350830 -0.308105 0.369873 -0.434814 -0.263672 -0.096375 0.146118 -0.012474 -0.018677 -0.494629 0.140259 -0.513672 0.377930 0.072754 -0.507812 0.019730 -0.104004 0.254639 0.065491 -0.297852 -0.207886 0.372314 -0.093994 0.052948 -1.073242 -0.095520 -0.352783 0.210571 -0.074951 -0.256836 -0.177246 -0.008919 -0.048187 0.348877 0.054047 -0.618652 -0.289795 -0.032440 0.313965 -0.854980 0.149658 0.369873 -0.020203 -0.634277 -0.201538 0.046387 -0.319092 -0.088440 0.207886 -0.706543 -0.283936 -0.087585 -0.009575 0.033081 -0.357666 0.340088 0.217407 -0.100342 0.228516 -0.203857 0.140869 -0.031204 -0.248657 0.483887
0.086548 -0.260742 0.098877 0.091919 -0.441650 -0.195557 -0.206543 -0.151245 -0.118713 -0.170532 0.375000 0.408203 -0.071167 -0.294922 -0.406982 0.278076 -0.583496 0.309082 0.018845 -0.063599 0.155273 -0.438477 -0.216187 0.149292 0.695801 0.298096 -0.081604 0.575684 -0.271729 -0.358154 -0.040283 0.284912 -0.361572 0.101624 -0.122925 -0.051575 0.118652 0.062866 0.258301 -0.616211 -0.754395 0.265625 0.221069 -0.422119 -0.239136 0.201294 -0.131836 -0.224731 -0.218750 0.005241 0.020218 -0.443848 0.623535 0.183472 -0.195801 -0.418701 -0.077881 0.189087 0.256104 -0.004498 0.141235 0.340576 -0.132446 0.075562 0.235718 0.021957 -0.145996 0.482666 -0.383301 0.330811 0.348877 -0.061066 -0.133057 0.192017 -0.197021 -0.168213 0.332764 -0.231812 -0.392090 -0.060150 -0.236572 0.087524 -0.163208 -0.176392 -0.203735 -0.120117 -0.113403 0.085388 -0.052094 0.029541 -0.171509 -0.950684 0.321045 -0.173218 -0.152832 -0.466553 -0.090759 0.253174 -0.166870 -0.510742 -0.038788 -0.263916 -0.063110 0.445801 -0.733887 -0.005150 -0.143311 -0.080139 0.012543 0.026642 -0.031891 0.267090 -0.077698 -0.687988 -0.008202 0.114197 0.127563 0.191528 0.263916 0.224121 0.037567 -0.578125 0.369385 -0.095642 0.331299 -0.192017 -0.370850 0.124268
0.142334 0.007107 -0.349854 -0.264648 0.244385 -0.238159 -0.107727 0.295166 -0.150513 -0.400146 -0.226562 0.217529 -0.099060 0.468750 -0.667969 -0.153442 0.066345 0.233398 -0.083801 -0.722168 -0.241699 0.013451 0.079712 -0.375000 0.004826 -0.371338 -0.424316 -0.179688 -0.048553 -0.022293 0.240601 0.218018 -0.374512 -0.529297 -0.077576 -0.317139 0.403809 0.087952 0.453125 -0.207764 0.165283 0.190796 0.357666 0.140137 -0.266846 -0.712891 -0.021683 -0.347656 -0.053925 -0.361328 0.196167 0.299316 0.039520 0.443848 0.323975 0.076843 -0.103699 -0.326904 0.192383 0.171997 -0.399170 -0.496582 0.015640 -0.322510 -0.025543 -0.062439 -0.751465 -0.052307 -0.189453 0.097839 0.093445 -0.250000 0.579590 0.306152 0.311768 0.113464 -0.140137 0.087585 -0.091248 -0.156006 0.708008 -0.640137 -0.007988 -0.288574 -0.164429 -0.087952 0.235718 0.190063 0.514648 0.544922 0.151123 0.131104 0.405518 -0.079529 -0.453125 -0.059540 0.205444 0.205200 0.128906 -0.361084 0.169189 -0.178467 -0.181519 0.612793 0.008240 0.217773 0.040100 -0.417725 0.285889 -0.010231 0.021484 -0.473145 0.004517 -0.343018 -0.243774 0.143433 0.170532 -0.369385 -0.623047 -0.604980 -0.174805 -0.440918 -0.407715 0.608887 0.070984 -0.891602 -0.159058 0.140259
0.028915 0.190308 -0.107849 -0.026337 -0.057922 -0.016068 0.051086 -0.121826 -0.153320 0.201538 -0.383057 0.703613 0.477295 0.349854 0.084656 -0.060272 -0.142700 -0.308105 -0.189087 -0.033478 0.740723 -0.522461 -0.092529 0.070435 0.351074 0.326660 -0.214355 0.471680 -0.012001 -0.088501 -0.104187 -0.530273 0.186523 -0.035919 -0.035858 -0.308350 -0.000390 0.279785 0.077515 0.103943 -0.007957 -0.438721 -0.009743 0.064148 0.374756 0.060333 -0.954102 0.464111 0.068359 0.091553 -0.315674 0.445312 0.377441 -0.891602 -0.258057 -0.083923 -0.326904 -0.063110 0.182861 -0.055115 -0.437256 0.008827 0.107971 0.335205 -0.221802 -0.027283 -0.183838 0.254639 -0.284668 0.274414 -0.001880 0.056641 0.042084 0.195557 -0.314697 -0.192993 0.321777 -0.261475 -0.108154 -0.603027 -0.785156 -0.321533 0.802734 -0.096191 0.104309 0.203613 0.167969 0.196167 -0.469971 -0.317139 -0.133789 -0.005657 -0.111694 0.184814 -0.079651 -0.501465 0.026810 0.016220 -0.213135 -0.120972 0.008018 0.132690 -0.005318 -0.899414 0.258789 0.454346 -0.191406 0.012886 -0.210693 -0.703125 0.375977 -0.115295 -0.410889 0.013931 0.083740 -0.050568 0.014854 -0.569336 0.551270 -0.344482 0.137207 0.029556 -0.360596 0.079407 0.784668 -0.064514 -0.221436 -0.143555
-0.048187 0.432617 0.394287 -0.315674 -0.791504 -0.123535 0.073853 0.352783 -0.054413 0.073914 -0.065491 -0.256104 -0.206177 0.035950 0.323730 -0.259521 -0.674316 -0.241211 -0.699219 0.180420 0.299072 0.186890 -0.247925 0.181396 -0.251709 -0.466064 0.073120 0.333984 0.171021 0.058899 0.390625 0.303467 -0.611816 0.112000 -0.462891 0.191528 0.123413 0.131714 -1.034180 -0.259766 -0.221802 0.098022 -0.263916 0.224243 0.277832 -0.398193 -0.205200 0.260010 0.032562 0.203735 0.216797 -0.321777 -0.490723 -0.204224 -0.009392 -0.354004 0.159912 0.104126 0.627441 -0.616211 0.286133 0.097534 -0.227905 -0.200073 0.088867 -0.047241 -0.158936 0.365234 0.033020 0.183594 0.267578 0.217529 -0.385010 0.308594 0.354492 -0.179077 -0.346680 0.011108 -0.210815 -0.439453 -0.136597 0.183594 -0.064331 -0.158447 -0.330322 0.205322 0.068481 -0.548828 0.195801 -0.850586 -0.982422 0.186401 -0.510742 0.060089 0.219849 -0.469238 -0.273438 -0.134033 0.083496 0.437012 -0.202393 -0.282471 -0.062744 -0.258545 -0.193848 -0.009773 0.215942 0.222168 -0.524414 0.067566 -0.429932 0.049072 0.108276 0.082092 -0.418945 -0.217041 -0.067993 0.120972 -0.333496 0.602539 -0.511719 0.054535 -0.292236 0.300781 -0.757812 -0.383057 0.286621 -0.188354
0.503418 0.308838 0.726074 0.248901 -0.025589 -0.125732 0.469971 0.088318 0.016571 0.041077 -0.202393 0.097534 0.098816 0.172485 -0.225098 0.299072 -0.466553 -0.226074 -0.072205 0.164917 0.058472 0.012154 -0.682129 0.451416 -0.060883 -0.450684 0.198853 -0.131470 -0.636719 -0.146973 -0.312744 -0.242554 0.438232 0.150391 0.066406 0.226318 0.008896 0.311768 -0.411865 -0.708008 0.077026 -0.289795 -0.232422 -0.056610 -0.100830 -0.192505 -0.023026 0.124878 -0.365479 0.235840 -0.405762 0.183960 -0.060577 -0.431152 -0.041656 -0.119385 0.094666 0.351807 -0.235962 0.104736 0.222534 -0.072449 -0.084900 0.174194 0.517090 -0.237915 -0.108032 -0.072693 -0.276611 -0.090088 0.481689 -0.087036 -0.481201 0.115051 0.290283 0.026108 0.383301 0.523438 0.047882 -0.708496 -1.223633 0.070984 -0.352051 -0.543945 -0.175171 0.220337 0.124329 -0.345947 0.115662 -0.142212 -0.436523 0.343994 -0.645020 0.107910 0.250488 -0.155762 0.114075 -0.247681 0.048523 -0.852051 0.128174 0.346191 0.232910 -0.017014 -0.252930 -0.198975 -0.403076 0.069763 0.125610 -0.384521 0.079041 0.108887 -0.139160 -0.309082 -0.278564 0.208008 -0.033142 0.225342 -0.454346 -0.820312 -0.792480 -0.287842 -0.505859 0.207397 -0.186157 -0.369141 -0.024673 -0.184082
0.166992 -0.065002 -0.099915 0.362305 0.011848 0.068604 0.053406 0.120544 -0.111816 0.220581 0.300049 0.320068 -0.271729 -0.403564 0.264160 0.186646 -0.025208 0.166870 -0.384766 0.004391 -0.522461 0.257568 0.202515 -0.174805 0.055969 0.372559 -0.038574 0.178589 0.263672 0.004665 -0.141357 -0.504883 -0.044250 -0.345703 -0.060852 0.146606 -0.385498 -0.463379 -0.171387 0.069153 -0.006935 -0.322021 0.011002 -0.051178 0.422119 -0.534180 -0.497559 -0.153076 0.371094 -0.278564 -0.541992 0.273682 0.592285 -0.097351 0.223999 -0.172241 0.260742 0.160400 -0.108459 -0.089050 0.101013 0.270020 -0.265869 0.062561 -0.283936 -0.808105 0.098755 0.226807 0.038086 0.018814 -0.280273 -0.107239 -0.296143 -0.495361 -0.204956 0.208618 -0.111206 -0.497070 0.020950 0.311523 0.506836 -0.133545 -0.135132 -0.016800 -0.260742 0.070435 -0.429932 -0.639648 -0.585938 -0.256836 -0.227051 -0.656250 -0.155640 -0.409424 -0.611328 0.194336 0.092041 0.364990 0.142212 0.053345 -0.221313 -0.425781 -0.877930 0.217773 0.044373 0.203247 -0.150391 -0.163330 -0.454590 0.352295 -0.215210 -0.528809 0.085938 -0.026169 0.174683 -0.604980 -0.069214 -0.285889 -0.619629 -0.070496 -0.095825 0.119873 -0.146606 -0.400879 -0.365234 -0.021164 0.378906 0.395508
0.234985 -0.242554 -0.292480 -0.010864 0.091370 0.132324 -0.022934 -0.484863 0.019638 0.057465 -0.443848 -0.106323 0.245850 -0.166382 0.054321 0.287842 -0.370361 0.093628 -0.102051 0.324463 -0.110107 0.088501 0.118591 -0.082764 -0.232910 -0.182373 -0.264404 -0.363770 -0.132080 0.036926 0.423828 -0.017288 -0.439941 -0.151245 0.570801 -0.220703 -0.262207 0.027298 -0.716797 -0.305664 -0.362549 -0.433838 0.316162 -0.253906 -0.339355 0.112122 -0.044708 -0.312744 -0.002697 -0.334229 -0.554688 -0.088562 0.080688 -0.159790 -0.200317 -0.185547 -0.110718 -0.693359 -0.223999 -0.232178 0.479004 0.401123 -0.048035 0.198364 -0.203857 -0.176514 -0.243774 -0.016815 1.202148 0.312988 -0.102295 -0.595703 -0.047485 0.317871 -0.526855 0.365234 -0.192383 0.014664 -0.227051 -0.489502 -0.046783 0.174805 0.194214 -0.418213 -0.094177 -0.319580 -0.189819 -0.379639 -0.105469 -0.589844 0.154053 -0.374756 -0.054382 -0.192261 -0.146118 0.053314 -0.181519 -0.088318 0.088135 -0.328613 -0.076721 -0.073425 -0.086182 -0.138794 -0.287598 -0.159912 0.118408 0.416748 -0.281006 0.042267 0.158569 -0.002712 -0.551270 0.352783 0.226074 -0.404785 0.066956 -0.077759 0.116150 -0.635742 -0.243774 -0.168579 -0.178589 -0.847656 0.068359 -0.724121 -0.119873 0.253906
0.200928 -0.108459 0.165039 0.144409 -0.228760 0.042389 0.489502 0.209717 0.224121 -0.003103 -0.372559 -0.412109 0.152588 -0.000054 0.077515 -0.594727 -0.152344 -0.152954 0.829590 0.072815 -0.239136 -0.116272 0.242188 -0.311279 -0.213989 -0.141602 0.215332 -0.136841 -0.560059 -0.189209 0.390625 0.094116 -0.422363 0.246704 -0.056641 -0.027786 0.082092 -0.100464 0.196777 -0.027847 -0.060822 -0.192749 0.309814 -0.017883 0.213257 -0.204468 -0.290283 0.194092 -0.207031 -0.456787 -0.357910 -0.112061 -0.481445 0.063904 0.048553 -0.238525 -0.036591 0.153320 -0.480225 -0.653320 -0.281494 0.416992 0.067017 0.199585 -0.475098 -0.101685 -0.137085 -0.317627 -0.074524 0.280762 0.171753 -0.519043 -0.149658 -0.158569 0.161255 0.215332 -0.125610 -0.437744 0.150757 0.275635 -0.344482 0.091675 -0.397705 0.218384 0.302490 0.181274 -0.156616 0.104004 -0.313232 -0.244995 0.280029 -0.231567 -0.070862 0.009415 -0.831055 -0.280518 -0.202881 -0.349609 -0.045898 0.114197 -0.067871 -0.680664 -0.043579 0.037689 -0.046356 0.169189 -0.354248 -0.019318 -0.035919 0.434570 0.007835 -0.171021 -0.059387 -0.130371 0.409180 -0.034454 -0.165771 0.131714 -0.054108 -0.005947 -0.534668 -0.314941 0.175049 -0.567383 0.174438 -0.178833 0.273193 -0.205811
-0.090515 -0.258301 -0.139038 0.250488 -0.197632 0.107178 0.177979 -0.142456 0.044830 0.333252 0.227905 0.239868 0.018005 0.169556 0.008774 -0.158569 -0.663574 -0.053253 0.011063 -0.139526 -0.014244 -0.401611 0.005608 -0.055786 0.117920 0.531738 -0.371826 0.067688 -0.528809 -0.092651 -0.326660 -0.160278 -0.518555 0.072205 -0.157837 0.575195 -0.511719 -0.033905 -0.217529 -0.138428 0.571777 0.194580 0.132080 0.166504 -0.024124 -0.168701 0.603027 -0.190918 -0.054657 -0.424805 -0.124084 -0.160400 -0.141846 0.131348 0.358643 0.230713 -0.143311 -0.181641 0.101196 -0.167725 -0.030029 0.150513 -0.212402 0.024200 0.419678 0.015976 0.439453 -0.426025 0.162109 -0.537598 0.086914 -0.308105 -0.932617 0.142822 0.384521 -0.163330 0.004425 0.097107 0.124207 0.124756 -0.281006 -0.101929 0.278076 -0.073364 -0.645996 -0.098877 -0.042267 -0.716797 -0.258057 0.191895 -0.335938 0.082031 0.143921 -0.275879 0.142822 -0.046631 0.068909 0.573242 -0.160156 -0.194336 0.347900 0.137451 0.319336 0.524414 0.100830 0.266602 0.208862 0.296631 -0.149536 0.386475 0.228271 -0.221069 0.306396 0.099304 0.020996 0.286865 0.051483 -0.054504 0.037994 -0.399414 0.129639 0.126343 -0.087097 0.021072 -0.762695 0.172241 -0.108643 -0.496826
-0.017838 -0.164673 0.297363 -0.326660 -0.418213 -0.020782 -0.463135 0.120850 -0.252441 0.119141 0.434326 -0.337402 0.158936 -0.160767 -0.294434 -0.057129 -0.155762 0.013649 -0.019623 0.234131 -0.023666 0.151855 -0.438965 -0.492188 -0.120667 0.059082 -0.276855 -0.097229 -0.144287 -0.503418 -0.516113 -0.170776 0.357666 -0.301270 -0.491699 0.234253 -0.544922 0.722656 -0.029449 0.088440 0.346436 -0.448975 -0.478271 0.136353 -0.031616 -0.415771 -0.038696 0.313477 0.106689 -0.197998 0.064209 0.092651 0.429443 0.428711 0.250488 -0.082031 -0.156982 0.413574 -0.177124 0.329590 -0.222534 -0.044250 0.341309 -0.830078 0.156982 0.533691 -0.014633 0.113708 -0.182129 -0.236328 -0.162598 0.130493 -0.333252 0.394775 -0.103699 0.420410 -0.107727 0.179565 -0.301758 -1.174805 -0.638184 -0.055511 -0.064453 -0.288086 -0.055420 -0.131226 0.029678 -0.182495 -0.652832 0.372070 0.328613 -0.204346 -0.146973 0.351074 -0.150391 -0.033173 0.141602 -0.340820 0.137573 0.171387 -0.190063 -0.033173 -0.553711 0.133179 -0.335449 0.048187 -0.222290 -0.406738 -0.051178 -0.028061 0.256348 -0.192383 -0.122925 -0.128418 0.559570 -0.593262 0.049835 -0.118347 -0.156982 -0.541016 0.057312 -0.206055 0.370117 -0.051208 0.507812 0.254883 0.113708 0.103333
0.054260 0.198242 -0.121338 -0.320312 0.035706 -0.143188 -0.005005 0.171753 -0.384277 -0.164185 -1.140625 -0.026031 0.489502 -0.103821 0.039886 -0.269043 0.006966 -0.241333 0.245728 -0.153442 0.377686 -0.161499 -0.346924 -0.410400 0.352051 -0.489258 0.293213 0.032654 -0.449951 -0.025330 0.117371 -0.020889 0.122498 -0.216187 -0.400391 -0.807617 0.122009 -0.124329 0.382568 0.138550 0.770508 0.304688 -0.092712 -0.005005 -0.576660 -0.379883 -0.208740 -0.256348 -0.143555 -0.022232 -0.429443 0.347412 0.114441 0.105713 -0.033661 -0.102844 0.176880 -0.821777 0.098816 0.051819 -0.355225 -0.153564 0.059937 -0.050446 0.098633 -0.327881 0.194824 0.282959 -0.578125 0.400146 0.319824 -0.181763 -0.117859 0.274658 -0.052368 -0.209717 -0.311768 0.198120 -0.041901 -0.272461 -0.069702 -0.231567 0.312500 -0.033081 0.488037 -0.072754 0.022400 -0.064819 -0.292236 0.114014 -0.206665 -0.157837 0.208130 -0.363770 0.147583 -0.570312 -0.275879 -0.115906 0.020889 0.059479 0.201416 -0.102173 0.139038 0.073120 0.264893 -0.660645 -0.202148 0.225708 -0.077942 -0.475342 -0.399414 -0.207275 0.040558 0.410400 -0.087036 0.379883 0.106995 0.110352 -0.191162 0.292969 0.057220 -0.199341 0.216309 0.270020 -0.091309 0.195312 -0.011635 0.333740
-0.352051 0.068604 -0.262939 0.357178 -0.585938 0.094666 -0.241455 0.075317 -0.001722 -0.188110 -0.399170 -0.316650 -0.148438 0.239136 0.013115 0.413818 0.001777 -0.130127 -0.099487 0.079224 -0.192749 -0.002865 0.242188 0.171509 -0.024094 0.291504 -0.287842 -0.656738 0.297607 0.241089 -0.161011 0.054962 -0.632812 0.045227 -0.071228 -0.260742 -0.070679 -0.106201 -0.124512 0.232666 -0.257324 -0.047455 -0.240234 -0.084900 -0.000765 -0.142090 0.382568 -0.121277 0.171997 -0.462402 0.021896 -0.548340 -0.774902 -0.172485 -0.065063 0.135254 0.062103 -0.209351 -0.175781 -0.187744 -0.424316 0.344727 -0.450684 -0.072205 -0.052094 0.433350 0.070374 0.080811 -0.327637 0.275879 -0.145874 0.242188 0.102051 0.323242 0.006878 -0.164917 0.352295 -0.589355 -0.336182 -0.441406 0.516113 0.193726 -0.690918 -0.151367 0.564941 0.213501 -0.225830 0.192749 0.240723 -0.221313 -0.064209 0.326660 0.077698 -0.438477 0.189331 0.013763 -0.030685 0.354736 0.081116 0.265381 0.052429 -0.213745 0.185669 -0.276367 -0.106445 -0.345459 -0.309326 -0.117493 0.167358 0.143921 -0.149902 -0.101624 0.444580 -0.406494 -0.934570 -0.425537 -0.001147 0.147217 -0.006145 0.141724 0.493652 -0.013557 0.561523 0.099487 0.231689 -0.056274 -0.281738 -0.659180
0.163452 0.357910 -0.291504 -0.603516 -0.122009 0.096985 -0.256104 -0.393066 -0.189453 0.258057 0.275879 -0.099548 0.065674 0.205688 0.204224 -0.634277 0.138306 -0.451416 -0.300537 0.038544 -0.022491 0.107727 -0.287109 -0.052460 0.007484 -0.338379 -0.161743 -0.686035 0.131592 0.167114 -0.354004 0.068359 -0.642578 -0.137939 -0.054077 0.073792 0.093079 -0.034241 0.035400 0.237427 -0.362549 0.095337 -0.089600 0.264648 0.004768 -0.911621 -0.694824 0.078064 -0.383789 0.067505 0.201538 0.364990 0.190552 -0.376953 0.148071 0.327637 0.447998 0.588867 -0.454834 -0.226318 0.188599 0.239014 -0.130859 -0.044830 0.280029 -0.479980 -0.203979 0.128418 0.041199 0.357910 -0.139404 -0.042419 -0.333740 0.108521 -0.179565 -0.269775 0.329834 -0.573242 -0.069763 -0.543457 0.154785 0.229248 -0.453125 -0.040680 -0.474854 -0.052429 0.067017 -0.175537 -0.403320 -0.441650 0.088135 -0.420410 0.210449 0.216064 -0.492676 -0.379639 0.260986 -0.003012 -0.084656 -0.045990 0.022568 -0.897461 -0.165771 -0.306641 0.058960 -0.831543 -0.261963 -0.070129 -0.531738 0.390137 -0.202759 0.163818 0.300781 -0.451904 -0.079651 -0.353027 0.192871 0.055328 -0.434570 -0.238647 -0.169800 -0.207031 0.051300 0.156616 0.054443 -0.317871 -0.323975 0.332520
-0.012161 0.588867 -0.358154 0.328125 0.059875 0.121033 0.150024 -0.531738 -0.021255 0.234253 -0.204346 -0.030441 0.108643 -0.362549 0.223267 -0.125854 0.483398 -0.148804 -0.258301 -0.276855 0.424072 -0.056915 0.168091 0.332764 -0.509277 0.139648 0.105713 -0.197632 0.017120 -0.399902 -0.783203 -0.266113 0.099426 0.257812 0.066406 -0.182007 -0.057007 -0.020081 -0.056580 -0.208984 -0.268555 -0.372559 -0.608398 -0.199097 0.236084 -0.269287 0.099731 -0.080078 -0.285889 -0.009148 -0.336670 0.044708 -0.147095 -0.328369 -1.089844 0.052826 -0.726562 -0.028915 -0.423584 0.484131 0.209595 -0.303223 -0.743652 -0.149170 0.957520 -0.218872 0.122009 0.051666 0.180664 -0.322510 -0.664062 0.200928 0.249634 -0.144653 0.208130 0.103760 -0.206665 -0.103943 -0.371338 -0.036194 -0.503418 0.032684 0.139648 -0.018280 -0.133301 -0.237061 -0.154053 0.313232 0.183594 0.055420 -0.025314 -0.696777 0.176758 -0.366699 -0.187256 -0.713379 0.128296 0.306885 -0.054535 -0.877930 0.156372 0.156982 -0.095276 0.103943 0.392334 0.122009 -0.371826 0.152222 -0.356201 0.177979 0.040497 0.507324 -0.240112 0.032288 -0.277832 -0.249878 -0.259033 0.345703 -0.565918 0.053467 -0.276611 -0.290771 -0.074280 -0.089233 -0.018188 -0.134277 -0.289795 -0.131714
-0.687012 -0.097412 0.041199 -0.226929 -0.150513 -0.144287 0.060089 0.096863 0.111267 -0.349365 0.284424 -0.024979 0.099731 -0.574707 0.000587 -0.168945 0.385498 -0.087646 -0.075745 -0.397705 0.200073 -0.041962 0.347168 0.541992 -0.038513 -0.042389 -0.768066 0.021210 -0.528320 -0.375977 -0.102356 -0.444580 0.021606 0.358643 0.361328 0.123779 0.518555 -0.008568 -0.251953 -0.396729 0.068420 -0.088684 -0.492188 0.144653 -0.286865 -0.451172 -0.151611 -0.002687 -0.460205 0.191895 -0.398926 -0.491699 -0.034302 -0.648438 0.141235 0.207031 -0.253418 0.035492 0.881348 -0.061768 -0.419678 0.051056 0.002758 -0.032898 0.508789 -0.356934 -0.175537 0.035889 0.154663 0.376953 -0.435059 -0.441162 0.378906 0.357178 -0.438721 0.026016 0.179688 0.333496 -0.249268 -0.422607 -0.413818 0.386230 -0.633301 0.179443 0.249390 -0.307617 -0.204102 -0.643555 -0.177002 0.242065 0.047302 0.117371 0.258545 0.260010 0.056519 -0.308594 -0.322021 0.160400 0.106689 0.034241 -0.088379 0.217041 -0.218140 0.299805 0.018707 0.211792 0.074585 -0.163818 -0.234741 -0.068970 0.239624 0.013336 -0.983398 -0.049835 0.110535 -0.561523 -0.269775 -0.244507 -0.181152 -0.163330 0.340576 0.072327 -0.150146 -0.019180 0.339355 0.199951 -0.260986 -0.357666
0.057343 -0.361572 0.116638 -0.465088 -0.129517 -0.123840 -0.309814 -0.322754 0.431152 0.020721 0.017548 -0.236816 0.314941 0.094727 0.401855 -0.894531 -0.091187 0.225464 -0.187500 -0.147583 0.461670 -0.050354 0.110046 0.021194 -0.749023 0.347656 -0.273926 -0.433105 0.189453 0.282227 -0.151123 -0.273438 -0.037201 -0.356445 0.155884 0.032440 -0.058258 -0.002028 -0.458008 -0.098389 0.264160 -0.425537 -0.216675 -0.150513 -0.006924 -0.123962 -0.119568 0.029968 0.149048 0.015114 -0.230347 -0.295166 0.052002 -0.424072 0.227905 -0.685059 -0.218384 -0.081421 0.311523 -0.024719 -0.490234 0.197632 -0.016098 -0.295410 -0.203613 -0.602051 0.275879 -0.688965 0.053864 -0.190063 0.103271 -0.787109 -0.086426 -0.754395 0.151489 0.144165 0.142456 -0.698730 0.031799 -0.500977 0.250977 0.430420 0.087952 -0.060272 0.313721 -0.221313 -0.276855 -0.122009 -0.184204 -0.593262 0.201294 0.281738 -0.565430 0.380371 -0.612793 0.308350 -0.143799 0.232300 0.035522 -0.217773 0.100952 0.312500 0.076965 -0.058105 0.265381 -0.094543 -0.164185 -0.039886 -0.709961 -0.330566 -0.055481 -0.040222 0.093262 0.064941 -0.003883 -0.399414 0.291748 -0.226807 -0.021469 -0.280273 -0.462646 -0.173584 -0.253906 -0.073059 -0.270508 0.272217 0.311035 -0.194824
-0.390869 0.077637 -0.471436 0.272949 0.050415 0.002546 -0.381348 -0.474365 0.272705 0.093262 -0.388428 0.550293 -0.659668 0.154663 0.411377 -0.417480 0.007576 0.323242 -0.262695 -0.164307 0.275879 0.045898 -0.066711 -0.630371 0.014679 -0.119080 0.167847 -0.195923 0.257812 -0.168823 -0.115906 -0.019455 0.049194 0.625977 -0.199585 -0.469971 -0.413330 -0.069397 -0.352051 0.252686 -0.302246 -0.149780 -0.099976 0.349609 -0.010696 0.306641 -0.309082 -0.053375 0.107666 0.095093 0.133301 0.634277 0.295654 0.552734 -0.663086 0.074524 -0.176514 -0.158325 -0.118652 0.257080 0.015144 -0.355469 0.218750 -0.046906 0.301270 -0.003513 0.225708 0.398926 -0.488037 -0.461914 -0.046539 -0.196289 -0.475586 -0.180542 0.161377 0.224121 -0.403320 -0.030731 0.221069 0.017487 0.931152 -0.572266 -0.168823 -0.916992 -0.129150 -0.015747 0.255371 -0.181763 -0.000873 -0.647461 0.159790 0.073975 0.019531 0.224854 0.213989 -0.422119 -0.148560 0.271973 0.084595 0.120911 -0.974121 -0.444336 0.242310 -0.291748 0.256104 0.508789 0.294434 -0.696777 0.662109 -0.356689 0.474121 -0.229370 -0.029282 0.023560 -0.152100 -0.189819 0.073669 0.034393 -0.180420 -0.186890 -0.324951 0.152222 -0.787598 0.376709 -0.453857 -0.002384 -0.056641 0.458984
-0.252686 0.153687 -0.010216 0.130493 -0.029282 0.336914 0.089661 -0.147217 0.304443 0.433594 -0.175293 0.290527 0.337891 0.305908 0.118042 -0.105530 0.503418 -0.248413 0.015793 0.210205 -0.526367 0.110107 -0.109741 0.647949 -0.534668 0.326172 0.174805 -0.262207 0.552246 -0.151733 0.064148 0.111023 -0.065735 -0.281006 0.190796 -0.153320 0.098877 0.025330 -0.050079 -0.164185 0.334961 0.064392 0.319580 -0.050262 -0.039429 0.304443 -0.274658 0.402344 -0.339844 -0.084778 -0.159790 -0.518066 0.236938 -0.124146 -0.343994 0.518066 -0.242676 -0.191040 0.449219 -0.182495 0.265137 0.073608 -0.104736 -0.108826 -0.040802 -0.499512 -0.291748 -0.104919 -0.043427 0.052856 -0.373535 -0.181152 -0.047638 0.208984 -0.003397 -0.358643 -0.207764 0.153076 -0.343262 -0.301270 0.521484 0.172607 0.480713 0.275146 0.131836 0.259277 -0.029144 0.601562 -0.376953 0.331543 -0.123169 0.141968 -0.718750 -0.065918 0.039673 0.083557 0.116638 0.107910 -0.121582 -0.178955 0.266357 -0.140747 0.129150 -0.452393 0.318359 0.055237 0.202271 -0.238037 -0.397461 0.164795 0.176880 -0.052094 0.177124 -0.330078 -0.310791 -0.342773 -0.002823 0.077026 0.168335 -0.117859 0.442871 0.415527 -0.579590 -0.410889 -0.032196 0.134155 -0.406982 -0.398926
-0.075073 -0.451172 0.090149 -0.075317 0.173706 -0.026215 0.390137 0.021332 -0.051147 0.214355 -0.223877 -0.237549 0.205078 -0.641602 -0.338379 0.074402 -0.300537 -0.036957 0.096863 -0.017181 0.005783 0.196533 0.100281 0.194824 0.038025 0.104431 -0.004963 0.026733 0.624512 0.061279 0.165649 -0.459961 0.440918 -0.024063 -0.143921 0.096313 -0.192749 -0.084534 0.240845 -0.281250 -0.554688 0.567383 0.075256 -0.446045 0.217041 -0.125854 0.348389 0.533203 -0.769531 0.108154 -0.035095 0.166870 0.290283 -0.340820 -0.080078 0.288818 0.046021 0.274170 -0.119385 0.203247 -0.219482 -0.302979 -0.202759 0.179565 0.260010 0.462891 -0.250732 0.048187 -0.311523 0.052277 -0.016022 0.140381 -0.110291 -0.466064 0.006424 -0.638184 -0.536133 0.255127 0.141602 -0.100769 0.184570 -0.273438 0.300781 -0.018845 -0.064087 -0.294189 -0.400391 0.256836 0.076233 -0.223633 -0.009079 0.543457 0.154541 -0.113464 0.479980 -0.180176 0.076111 -0.012413 0.211304 -0.687012 -0.182007 -0.241089 0.346924 0.256836 0.046661 0.512695 -0.336182 -0.210571 -0.146362 0.440430 -0.083252 -0.334717 -0.172852 -0.197144 -0.047974 -0.169189 -0.027985 0.239868 -0.449463 -0.038940 -0.156860 0.235229 0.118896 0.296387 0.009377 -0.288086 -0.461670 0.529297
-0.221313 -0.070007 -0.267822 0.280762 0.500977 -0.072693 0.296631 -0.133667 -0.277832 0.306152 0.021851 -0.040192 0.197876 0.153076 -0.335938 0.112610 -0.395264 -0.245117 0.036255 0.211304 -0.115723 -0.080200 -0.177002 0.178467 0.015480 -0.854004 0.112671 -0.294189 -0.068604 -0.085388 -0.508301 0.232788 -0.319092 -0.101990 0.017944 -0.244019 -0.294678 -0.043335 -0.973145 -0.150024 0.191040 -0.163940 -0.168335 0.677734 -0.168457 0.139404 0.139282 0.238892 0.122192 -0.279785 0.068176 -0.669922 -0.262207 0.216797 -0.984863 0.067749 -0.222900 -0.598145 -0.222534 0.390869 0.491455 0.213013 -0.581543 -0.336426 0.091370 0.272461 0.003963 -0.000375 0.040710 0.031219 0.069336 0.155273 0.160156 -0.489014 0.246826 -0.161377 -0.083557 0.060333 -0.680176 -0.484863 -0.106140 -0.080811 -0.336670 -0.085754 -0.226318 0.075378 -0.313721 0.556152 0.090454 0.307861 -0.118042 -0.050415 -0.797852 -0.723633 -0.076294 -0.359375 -0.612305 0.117493 -0.148071 -0.108887 -0.168091 -0.127563 0.123596 0.423828 -0.054901 -0.429688 0.144775 -0.084290 0.009193 0.032043 0.104553 0.126099 0.065247 0.289062 -0.135254 0.297607 0.154419 0.313721 0.087036 -0.094482 0.428955 0.425293 -0.257568 -0.154419 -0.112915 -0.076050 -0.156372 -0.000552
0.226685 -0.188354 -0.254395 0.017746 -0.245605 -0.113647 -0.396973 0.167358 -0.019608 0.322021 -0.122986 -0.190674 -0.043762 -0.243164 0.557617 0.178467 -0.274414 0.014656 -0.227905 -0.225464 0.092651 0.127075 0.112976 -0.366943 0.287842 0.148315 0.303223 -0.068237 0.251221 0.286377 -0.358643 -0.664062 -0.393799 -0.189453 0.318604 -0.499512 -0.329102 -0.086548 0.574707 0.128418 -0.531738 -0.214355 0.356445 -0.037567 0.129150 0.001202 0.046143 0.181152 0.247070 0.357910 -0.160278 0.038147 0.205933 0.090332 0.311768 -0.409424 0.071655 0.033997 0.288086 -0.338623 0.216431 -0.210327 0.138184 -0.174316 -0.046600 -0.046051 0.442627 -0.098083 0.105042 0.049713 0.443604 -0.576172 -0.140137 -0.258789 0.025253 -0.102722 -0.149170 -0.379883 0.132812 -0.557129 0.791504 0.271484 -0.343506 0.038422 0.226929 -0.079224 0.054321 -0.382080 -0.305664 -0.158569 -0.337158 -0.023285 -0.014244 0.093872 -0.172241 -0.447021 0.239990 0.306396 -0.036194 -0.068176 0.018890 -0.443115 -0.250244 0.504395 0.331055 0.228027 -0.229492 -0.393555 -0.936523 -0.666992 0.078003 -0.249512 -0.158936 -0.088989 0.035614 0.125366 0.239258 -0.279785 -0.392822 -0.124634 -0.136719 -0.298096 -0.163452 -0.103882 -0.369629 -0.457275 0.403320 -0.163452
-0.168823 -0.854004 0.039185 0.200195 0.095581 0.163086 0.434570 -0.049255 -0.502930 0.030701 -0.314941 0.055359 -0.212891 0.460938 0.153687 0.533691 0.093811 -0.235352 0.396484 -0.182495 -0.404785 0.396973 0.251709 0.143066 -0.217041 -0.525879 0.341553 0.205566 0.170898 -0.460693 -0.497803 0.159912 -0.066772 -0.005718 0.125488 0.157104 -0.347412 -0.792969 -0.522949 -0.141235 0.026306 -0.407471 0.454346 0.242310 0.363525 0.541992 0.062378 -0.354004 -0.126343 -0.240112 -0.183228 -0.043274 -0.190063 0.119324 -0.106995 0.060303 0.231201 -0.101135 -0.088379 0.385254 0.143066 -0.055725 -0.448730 -0.029831 -0.329346 -0.118469 -0.324463 -0.206421 -0.303955 -0.100647 -0.220825 -0.315430 0.165771 0.168579 -0.736816 0.046204 -0.044952 0.250732 0.036469 -0.027054 -0.346436 -0.564941 0.695801 -0.398926 0.557617 -0.119263 0.066711 -0.234985 -0.317139 0.150146 0.304443 0.147949 -0.195923 -0.010056 -0.093994 0.063904 -0.012070 0.016907 0.170532 -0.134277 -0.151367 0.002226 -0.116333 -0.135376 -0.678223 0.058746 0.050873 -0.303223 0.354980 -0.733398 0.086243 -0.022293 -0.335449 -0.377686 -0.045013 0.234863 0.041504 -0.007973 -0.193848 0.408203 0.013237 0.086304 -0.060516 -0.257324 -0.474121 0.113647 0.333740 0.359131
-0.136719 -0.441895 0.226562 -0.353760 0.301514 -0.161621 0.113403 -0.534180 -0.255371 0.139771 0.022354 0.265137 0.344727 -0.036163 -0.084595 0.015083 0.061371 -0.068848 -0.269287 -0.288818 0.379639 -0.005436 -0.498047 -0.310791 -0.012329 -0.304688 0.266846 -0.534668 -0.398438 -0.044189 -0.251709 -0.096313 -0.292969 0.127075 -0.247559 -0.174072 0.089722 -0.377197 0.633789 0.016525 0.385742 -0.030457 0.155396 0.101685 -0.295898 -0.130859 0.056274 0.166504 -0.196777 0.405762 0.197266 0.211304 -0.276367 0.120300 -0.529785 0.139160 -0.411621 -0.399414 0.214722 -0.330078 -0.464844 0.127441 -0.165161 -0.039734 -0.337402 0.574707 0.208130 0.517090 -0.144775 -0.351807 0.227173 0.342529 0.251709 -0.297363 0.140137 -0.198242 -0.035065 0.148438 0.176270 0.734375 -0.470703 0.216919 0.035553 0.309082 -0.687012 -0.226074 0.101135 -0.356445 0.147583 0.078247 -0.437988 -0.146606 -0.149780 -0.524414 -0.707520 -0.047943 -0.444092 0.136108 0.023071 -0.716309 0.001218 -0.485352 -0.246704 -0.227905 -0.241333 -0.456543 0.227539 -0.187012 0.541504 0.032013 -0.176636 0.460205 -0.382812 0.157715 0.118347 -0.260986 0.146484 -0.051544 -0.296143 -0.149536 0.127686 0.284424 -0.123291 -0.081116 -0.121765 0.075562 -0.209839 -0.188599
-0.662598 -0.207275 -0.567383 0.367920 0.113586 0.008568 -0.352783 0.044678 0.532227 0.555664 -0.428467 -0.122253 -0.577148 -0.099854 0.708984 0.090088 0.170898 0.169922 0.201660 0.204346 0.286377 -0.484863 0.168457 -0.579102 0.023285 -0.026352 0.200562 -0.394287 0.059906 -0.543457 -0.359619 -0.098938 0.143799 0.195557 -0.133911 -0.150757 -0.300537 -0.089722 0.273193 -0.187866 0.026596 -0.259766 0.110596 0.164673 0.023056 -0.099915 -0.330811 -0.032074 0.062286 0.151123 0.279785 0.073364 0.086670 0.506348 -0.561035 0.122070 0.009735 -0.059326 -0.375732 0.316162 -0.186279 -0.144775 -0.095154 0.275391 -0.070557 0.050354 -0.184082 0.009636 0.068359 -0.425781 -0.324219 -0.176147 -0.149048 0.246704 0.352783 0.598145 0.007164 -0.233643 0.225952 -0.559082 1.500977 -1.240234 -0.514648 0.096436 -0.391602 -0.729004 -0.090454 -0.442871 -0.041687 0.136597 -0.194702 -0.099243 -0.052277 0.088989 -0.160645 -0.147705 0.051392 0.226196 0.029282 -0.298828 -0.596191 0.242920 -0.099670 0.098511 0.822754 0.200684 0.046783 -0.018860 0.380371 -0.432373 0.042328 -0.018967 -0.259766 0.239990 -0.218262 -0.381348 0.060974 -0.474121 -0.239258 -0.144775 0.060516 -0.134155 0.008659 0.592773 -0.083984 -0.134155 0.185181 -0.167236
0.090393 0.159546 -0.613281 0.092407 0.558105 -0.003046 0.582520 0.130859 0.401367 0.114563 -0.041077 0.121033 -0.399658 0.307861 0.375488 -0.020584 0.406250 0.471924 0.487793 0.068604 0.384521 0.019058 -0.393799 -0.676270 -0.080322 0.044769 -0.137085 -0.231323 -0.198120 0.121887 -0.140381 -0.559082 0.177124 -0.534180 0.164307 -0.019791 -0.635742 -0.015640 -0.562500 -0.507324 0.123657 0.119324 0.395508 0.277344 -0.353027 0.130127 -0.304688 -0.072144 0.151733 -0.059998 0.123169 0.290771 -0.120850 -0.270508 -0.267578 0.214355 -0.217285 -0.225586 -0.020142 0.247437 -0.129028 -0.182373 0.222168 -0.207153 0.454590 -0.382812 -0.080933 0.439453 -0.065735 -0.386719 -0.097900 -0.309082 -0.132812 -0.372559 0.090942 0.046967 0.267578 0.005234 0.390625 0.146851 0.069885 -0.438477 -0.116150 0.248535 0.041687 0.228516 -0.047729 -0.424805 0.044403 -0.187622 0.384277 -0.098816 -0.514160 -0.048431 -0.189453 0.280518 -0.316406 0.616211 -0.031982 0.325195 -0.724121 0.165894 -0.308105 -0.298096 -0.247925 0.148560 0.190308 0.138550 -0.561035 -0.151611 0.428223 -0.647949 -0.226196 -0.235352 0.280762 0.295898 0.037018 -0.590820 0.114685 -0.332275 -0.160889 -0.258301 -0.409668 0.209229 0.255371 -0.512207 0.270020 -0.144287
0.395264 0.292236 0.800293 -0.562500 -0.045380 0.182617 -0.277344 0.039703 0.031525 -0.704590 -0.311279 -0.446777 -0.443604 -0.281738 -0.416748 -0.190186 -0.467529 -0.549316 -0.039215 -0.133057 0.274170 -0.210571 0.248535 -0.767090 -0.316406 -0.092102 0.013145 -0.055298 -0.029343 -0.182373 -0.006313 -0.062134 0.595215 0.326172 -0.322754 0.297363 0.329102 -0.369141 0.305908 -0.257568 -0.138306 -0.189209 0.060394 0.021957 -0.130005 -0.378418 -0.250732 0.187134 0.034058 -0.083008 0.354736 -0.290771 -0.071533 0.266602 0.036621 0.385742 0.000475 0.244507 0.297852 0.251221 0.285645 0.166992 0.322998 -0.148071 0.762207 0.432373 0.176147 -0.750000 0.013924 -0.339355 -0.416992 -0.277100 -0.731934 0.049927 0.130249 0.031586 -0.238525 0.023682 -0.572754 0.084106 0.168823 -0.162598 -0.612305 0.203979 0.192017 -0.231079 -0.441406 -0.181641 -0.051178 -0.141846 0.039886 0.057770 -0.450684 0.274170 0.225708 0.343262 -0.224243 0.250244 0.043762 0.193848 -0.205566 -0.162109 -0.252930 -0.134033 0.127563 -0.247803 0.008026 -0.175293 -0.410889 -0.136108 0.219116 0.129395 -0.001023 0.152222 0.081299 -0.170898 -0.195190 -0.500000 0.004635 0.078796 -0.257080 0.285400 0.075745 0.128906 -0.114807 -0.779297 -0.063660 -1.013672
-0.707520 0.075562 -0.338135 -0.061798 0.070190 0.090698 -0.416016 0.025253 0.201172 -0.123413 -0.088135 -0.044312 -0.271973 0.050323 -0.094788 -0.650879 -0.014091 -0.045502 -0.100098 -0.157471 -0.203979 0.036377 0.438477 0.136108 -0.943848 -0.191528 0.032806 -0.157837 -0.118835 -0.030228 0.116943 -0.107971 0.456299 -0.055786 0.196777 -0.024780 -0.441650 -0.350098 -0.195435 0.050964 -0.039948 -0.362549 -0.149780 0.213135 -0.128174 -0.098938 0.172607 0.344482 -0.063843 -0.375488 0.199341 -0.023865 -0.149414 -0.444580 -0.239746 -0.067505 0.152710 -0.053192 -0.312988 0.013680 0.374023 -0.186401 -0.158936 0.063538 -0.595215 -0.028778 -0.347412 -0.290283 0.132568 -0.527832 0.294434 0.556152 -0.008179 -0.049225 -0.693848 -0.222534 0.262207 -0.456543 0.120361 0.387939 0.054169 0.037720 0.427246 0.430420 -0.817383 -0.591309 0.386230 0.466797 -0.374756 0.127441 -0.616211 0.281006 0.047485 0.074280 -0.073853 -0.340576 0.212036 0.463867 -0.093018 0.281250 -0.345703 -0.040405 0.022964 -0.064575 0.465576 0.344238 0.030045 0.052826 -0.429443 0.081665 -0.185303 0.160522 -0.113647 0.107605 -0.068115 0.399414 0.102722 -0.340820 -0.090027 -0.306396 0.104065 0.113953 -0.565430 -0.234863 0.298828 0.053711 -0.445312 0.181519
-0.005119 0.115723 0.126831 -0.279541 0.555664 0.137085 -0.414551 0.319580 0.049469 -0.104919 -0.495605 0.003300 -0.002264 -0.161621 0.062622 -0.519531 -0.067383 -0.019485 0.127197 -0.443115 -0.503906 0.070618 0.120850 -0.212158 -0.939453 0.220947 0.073853 -0.341797 -0.136475 0.045135 -0.363770 -0.795410 0.335449 -0.399170 0.184204 -0.121338 -0.119751 0.266602 0.335938 -0.090393 0.053467 -0.081238 -0.343018 -1.285156 -0.339844 -0.340088 0.131958 -0.346191 -0.374756 0.088806 0.289795 -0.233032 -0.338867 0.349121 0.381836 -0.151489 0.016846 -0.191650 -0.062927 -0.523926 -0.227783 0.135010 0.144653 0.093933 0.092651 0.095886 0.096558 -0.193604 0.055023 -0.607910 0.196045 -0.361816 -0.204346 -0.568848 -0.343262 0.073486 0.191284 -0.020554 0.312988 -0.147461 -0.252441 0.248779 0.091553 -0.085144 -0.109131 -0.856934 0.229370 0.293457 0.259277 0.333252 -0.001255 -0.221313 -0.204956 0.296631 0.217651 0.470703 0.526367 -0.288574 -0.157593 0.077820 0.202393 -0.450439 0.237305 -0.043365 -0.082947 -0.203613 -0.362061 0.427490 -0.304443 -0.410889 -0.226074 -0.498779 0.095642 -0.398438 -0.342773 0.048492 -0.061829 -0.074829 -0.548828 0.459473 0.038940 0.031982 0.384033 -0.405273 -0.421875 -0.474609 -0.250732 0.471924
0.427002 -0.341553 -0.335938 0.454834 0.384033 0.143921 -0.103943 0.171875 -0.355713 0.104492 -0.160156 0.170166 0.286865 -0.320801 -0.347900 0.029648 0.162476 -0.543945 -0.318359 0.193970 0.293701 -0.086853 -0.335205 -0.252441 0.319336 -0.135376 0.390625 -0.726562 0.076355 -0.081726 -0.362061 -0.372070 -0.069580 -0.605469 0.369385 -0.812500 0.531738 -0.282959 0.037750 0.031677 0.253906 0.233643 0.633789 0.315430 -0.121338 0.095520 -0.182007 0.152222 0.064026 -0.501465 0.260498 0.257568 -0.026566 -0.581055 0.145630 0.265869 -0.275635 -0.177246 -0.033752 0.556641 -0.182495 -0.452148 0.071350 -0.308838 -0.257324 0.253418 -0.218018 0.094299 -0.308105 -0.095154 -0.075256 -0.273926 -0.302734 -0.444336 0.280762 -0.418945 0.191895 -0.006760 -0.125488 0.464844 0.770020 -0.299316 -0.022827 0.147705 0.093445 0.307129 -0.127563 -0.280518 -0.086243 -0.436768 0.225830 0.014038 -0.233521 -0.146606 0.078918 0.471191 -0.082886 -0.167603 -0.001629 0.042450 -0.103027 0.313232 0.178833 -0.307129 0.500488 0.272949 0.015518 -1.597656 -0.215088 -0.217651 -0.217896 -0.250244 -0.287354 -0.333984 -0.698730 0.698730 0.049896 -0.442139 0.429688 0.163208 0.073303 -0.701660 -0.249878 0.056671 0.315430 0.043335 0.205566 -0.000313
-0.401123 -0.157104 0.017487 -0.378906 -0.250488 -0.061249 0.126099 -0.317139 0.128540 -0.161255 0.439209 0.456543 0.134155 -0.161987 -0.375000 -0.414307 0.123474 0.336670 -0.137695 0.157715 -0.150024 -0.124451 -0.922852 -0.017792 0.044434 -0.159546 0.155396 0.049927 0.397461 -0.424316 0.242310 0.640137 -0.272461 0.345215 0.048767 0.149170 0.137451 -0.470703 -0.460449 0.058075 -0.471191 -0.490967 -0.830566 -0.306885 -0.492920 0.030441 -0.173950 -0.338135 0.211060 0.045715 0.076416 -0.296387 0.270508 -0.179688 0.105896 -0.239502 0.332275 0.500000 0.045502 0.260010 -0.234619 -0.098267 0.320312 -0.275635 -0.132812 -0.097351 0.226807 -0.256348 -0.004440 -0.019104 0.015343 -0.905273 -0.145874 -0.033386 -0.267090 -0.334473 -0.477295 -0.241089 -0.316650 -0.507324 0.033508 0.007496 -0.010513 0.415039 -0.415771 0.076904 0.016861 -0.609863 -0.065430 0.490723 0.230957 -0.285156 0.268799 -0.049133 0.286133 0.046387 0.470215 -0.516113 -0.084106 -0.099854 -0.083069 -0.232910 0.460205 0.023865 0.051575 -0.030807 -0.144531 -0.039490 -0.044769 0.061432 -0.413086 0.222778 -0.375977 0.169800 0.200317 -0.239502 -0.036255 0.134277 -0.467285 -0.500977 0.447266 -0.048767 -0.310059 -0.012093 -0.392822 0.398193 -0.096497 0.249756
