-0.036530
-0.025635
0.003836
0.153442
0.058350
-0.022858
-0.329102
-0.114258
-0.190308
-0.047394
-0.364502
-0.025452
0.182983
0.329102
-0.284180
0.042816
-0.602051
-1.020508
0.058319
-0.029663
-0.232056
0.044678
-0.113892
0.109802
-0.021591
-0.163818
-0.148804
0.006737
0.295166
-0.056732
-0.162842
0.133423
0.458252
0.090515
0.449951
-0.489014
0.238647
-0.145386
-0.144653
0.268555
0.097534
-0.160156
-0.253418
0.283936
0.080505
0.000451
0.102478
0.257812
0.112732
0.313721
0.107178
-0.280273
-0.280029
-0.000528
0.360352
-0.138916
0.167358
0.201904
0.078003
-0.061981
0.210083
0.055389
0.090210
0.155884
-0.206421
-0.130859
0.483398
0.126953
-0.116577
-0.207153
-0.098450
0.377930
0.077087
-0.087280
0.220459
-0.111084
-0.036072
0.145996
-0.067932
-0.391846
0.203247
0.062744
-0.378418
-0.055084
-0.025146
-0.046753
-0.033875
0.161987
-0.075867
-0.100891
0.152466
-0.446045
-0.420166
-0.166992
0.010887
0.374512
-0.275635
0.026978
-0.150757
0.011353
-0.267822
-0.169067
0.339355
-0.111084
-0.207886
0.009079
-0.185425
-0.081055
0.253418
-0.119263
-0.189453
0.160645
-0.141235
0.314453
0.245117
-0.327881
-0.032135
-0.300049
-0.034882
0.117676
0.282227
0.021332
-0.026718
-0.183350
-0.754883
0.081970
-0.103760
0.253662
