-0.281738 -0.023270 -0.113708 0.463379 0.012016 -0.349854 0.067139 0.027451 -0.024216 0.452148 0.280518 -0.241943 -0.007530 0.104187 0.723145 0.210449 0.072021 -2.582031 -0.019211 0.814941 -0.334473 -0.113586 -0.119446 0.020157 0.065430 0.365479 0.002600 0.087708 0.342529 -0.915039 -0.497314 0.139526 0.479248 -0.335449 0.338379 1.869141 0.002495 0.280273 -0.665039 -0.069580 -0.099243 -0.416504 -0.099365 -0.260986 0.033051 -0.160522 0.095154 -0.044769 0.724609 0.343994 -0.274658 0.310303 0.074341 0.236572 0.102539 -0.402588 0.101013 0.498535 -0.185913 -0.050964 0.179199 0.026688 -0.140625 -0.430664 0.750977 0.444824 0.376221 1.186523 -0.238159 0.240356 1.183594 0.026932 -0.132446 -0.138916 0.991211 -0.669922 -0.303955 0.037048 0.491455 -0.793457 -0.132446 0.201294 -0.883789 -0.009644 0.123169 0.228394 0.091309 0.278564 -0.426514 -0.138306 -0.089050 0.064880 -0.228760 -0.574707 0.435791 0.666016 -0.234497 -0.268799 -0.514160 0.132568 -0.558594 -0.264648 -0.216797 -0.256592 0.016891 -0.067017 0.274902 -0.422119 0.394043 0.107483 -0.552734 0.023392 0.038483 -0.073364 -0.097717 0.041809 -0.376465 -0.122314 -0.168335 0.205566 0.266357 -0.192505 0.300537 0.109375 -1.889648 -0.120483 0.371826 -0.376221
0.279785 0.022644 0.111938 -0.462891 -0.011063 0.348877 -0.066528 -0.027817 0.025009 -0.450195 -0.279297 0.245117 0.008507 -0.105530 -0.722656 -0.210571 -0.072937 2.582031 0.021484 -0.816895 0.334717 0.113647 0.118591 -0.018600 -0.066345 -0.366211 -0.002737 -0.087036 -0.341309 0.912598 0.497559 -0.139893 -0.479980 0.337402 -0.337891 -1.870117 -0.000796 -0.280273 0.663086 0.069885 0.098511 0.416992 0.098022 0.261963 -0.031677 0.160522 -0.094910 0.044617 -0.725098 -0.345703 0.271973 -0.310303 -0.073914 -0.236084 -0.102600 0.403809 -0.101074 -0.499756 0.185425 0.051270 -0.177856 -0.026154 0.141357 0.430176 -0.749023 -0.444580 -0.377197 -1.186523 0.239502 -0.239502 -1.182617 -0.029083 0.133057 0.139404 -0.990723 0.669434 0.302979 -0.037354 -0.491211 0.791504 0.134155 -0.203003 0.882324 0.008049 -0.123169 -0.227173 -0.093384 -0.278564 0.426758 0.138550 0.088440 -0.065002 0.229858 0.573730 -0.434814 -0.665039 0.236572 0.270020 0.514160 -0.131104 0.562012 0.262939 0.217651 0.256836 -0.015991 0.068420 -0.274658 0.422119 -0.395752 -0.105225 0.552246 -0.023026 -0.038177 0.075195 0.098511 -0.043121 0.379639 0.121643 0.166504 -0.205078 -0.264893 0.190674 -0.299805 -0.108826 1.891602 0.120056 -0.371094 0.379395
0.043579 -0.079590 0.558105 0.336426 -0.285889 0.134644 0.228271 0.495605 -0.402344 -0.261230 0.327881 0.499756 0.619629 0.475830 -0.488770 -0.022903 0.344971 -0.775391 0.125000 -1.279297 -0.302002 0.012604 -0.436768 -0.884277 0.057922 0.102234 -0.387695 0.293457 0.408691 -0.416992 0.100647 0.017807 0.560547 -0.005478 0.437500 -0.318359 0.188965 -0.530273 0.250000 0.261475 0.358887 0.077454 0.463867 0.046539 0.583496 0.159668 0.024216 0.174927 0.376709 -0.292480 0.552246 -0.362793 -0.514160 0.152954 0.276611 0.099976 0.274414 0.313232 0.332520 0.282227 0.149658 -0.155518 0.338135 0.066101 0.136353 -0.328369 0.076660 -0.238281 0.068054 0.133179 -0.355713 0.143799 0.367188 0.122742 -0.621582 0.752441 -0.366455 -0.074829 -0.854492 0.127686 -0.059937 0.090027 -0.948730 0.549805 0.030762 0.307617 0.572754 0.937988 0.453369 -0.277100 0.299072 0.130737 0.227173 -0.498779 0.308105 0.511230 -0.059784 -0.213379 -0.192505 -0.268555 -0.800293 -0.041809 0.007973 -0.419189 -0.217651 -0.030975 -0.318359 0.211914 0.223267 -0.353271 -0.589355 -0.005207 -0.770508 0.096008 0.041901 -0.166748 -0.028351 -0.469971 -0.480225 -0.703613 0.276855 0.419922 -0.444824 -0.139526 -0.404785 0.872559 -0.368652 0.158203
-0.282959 0.142944 -0.084290 0.935547 0.399170 0.752441 -0.475586 0.226807 -0.520996 -0.113159 0.442627 0.027115 0.181763 -0.087036 -0.050995 0.320068 -2.460938 0.362549 -0.134888 0.009956 0.517578 0.089050 0.560547 0.164795 -0.741211 0.451172 0.400146 -0.205811 0.378662 0.584473 0.148926 0.065979 0.094177 -0.406006 0.295654 -0.206909 0.522949 -0.082153 -0.082092 0.171143 -0.042816 -0.048615 0.292480 0.469727 0.450684 -0.174927 0.471924 0.177734 -0.035248 0.056946 -1.042969 -0.021774 0.468262 -0.119202 0.127319 0.244629 -0.252930 0.714355 -0.570312 -0.254395 -0.245728 0.327637 0.469238 0.147217 0.117249 -0.017288 0.354248 0.048676 0.054810 -0.678223 0.009560 0.319824 -0.069092 0.151611 0.101135 0.223999 0.209229 0.397705 0.210938 -0.496826 0.553223 -0.147217 -0.070679 -0.519531 -0.333496 0.015007 -0.070801 0.148560 -0.061615 0.118042 0.098206 -1.217773 -1.237305 -0.079346 -0.417236 -0.109314 -0.095581 0.018021 0.097229 0.220337 -0.310059 -0.295166 0.129639 0.297852 -0.026459 0.173096 0.306885 -0.158081 0.276611 -0.055847 -0.101685 0.369873 0.446289 0.437988 0.395020 -0.385254 0.070923 0.473145 0.549805 0.249634 0.203003 -0.427734 0.199585 -0.120605 0.276855 0.262451 0.062866 -0.162720
0.417480 0.224243 0.032440 -0.467529 -0.534180 0.274902 -0.915527 0.316650 0.085754 0.066284 -0.724609 -0.796875 0.326904 0.247070 -0.537109 -0.569824 0.142090 -0.158203 0.183472 -0.162842 -0.294189 0.616699 -0.234619 -0.002747 -0.434082 -0.366699 0.529297 0.431641 -0.217407 0.124817 -0.003849 -0.845703 -0.127686 0.247192 -0.335205 -0.008751 -0.513672 0.011406 0.010864 -0.566406 0.376465 -0.368164 0.378418 -0.021606 0.142700 -0.403076 0.265869 -0.249756 -0.096497 -0.537598 -0.085083 -0.144897 -1.030273 0.417236 -0.164917 0.490967 -0.316895 -0.088928 -0.001803 0.084900 0.253174 -0.833496 -0.099792 0.274902 1.374023 -0.498779 -0.373779 0.255859 -0.198975 0.079346 0.424561 -0.699707 0.690918 0.199585 -0.424561 -0.064575 -0.988770 -0.209229 0.115906 0.388428 0.279053 0.350098 -0.704590 -0.324951 0.079773 0.214600 0.519043 -0.150635 -0.425293 0.256592 0.226562 0.164185 0.289795 0.114624 0.365723 -0.174438 -0.185181 0.175781 -0.166626 0.295898 -0.154907 -0.434082 0.248779 -0.287109 0.290039 0.435303 0.528809 -0.353760 0.309326 0.379883 0.359863 -0.024109 0.784180 -0.600586 -0.365479 0.125488 0.144653 -0.027130 0.353516 0.825684 -0.343018 -0.292725 0.434326 -0.329834 0.025391 0.083862 0.363037 0.526855
0.018478 0.021088 -1.062500 -0.260254 0.408691 -0.382080 0.969238 -0.602539 -0.116821 -0.227417 0.081421 0.260742 -0.140991 -0.210938 -0.042236 -0.227417 0.214844 -2.292969 0.040741 0.520996 0.584961 -0.995117 0.281982 0.598633 0.027069 -0.037933 -0.848633 0.021042 -0.401367 -0.112244 0.550781 0.705078 0.022720 0.296875 0.457520 0.526367 -0.644043 -0.252441 -0.727051 -0.031952 -0.052948 0.449463 -0.780273 -0.237915 0.166992 0.425049 -0.544922 0.241577 0.322754 0.395752 0.129028 0.038025 0.356934 0.010872 0.059204 0.021759 0.450928 -0.000930 -0.136475 -0.007118 0.001181 -0.113586 0.264893 0.296631 -0.556641 0.028687 0.299805 0.480225 0.119751 0.456543 0.343994 0.412842 -0.101013 0.251953 0.741211 -0.257324 0.094055 -0.586426 0.096497 -0.853516 -0.318359 0.446777 0.500977 -0.108643 -0.172974 0.316406 -0.927734 0.019943 0.336670 0.252197 0.433838 -0.038666 0.074890 -0.484863 -0.523438 0.389160 0.259521 0.352783 0.001335 0.574707 -0.238770 0.665527 0.296631 0.128418 -0.237061 -0.439453 -0.195435 0.020828 -0.643066 -0.037933 -0.737793 -0.559082 -0.370605 0.288330 0.140991 -0.128784 0.140259 0.170166 -0.334473 -0.473389 -0.680664 -0.175903 -0.752930 0.210205 -1.905273 -0.360596 0.241089 -0.741699
-0.281738 0.482910 -0.076111 -0.503418 0.628906 -0.134644 -0.045898 -0.697266 0.255859 -0.007572 -0.337158 0.199585 0.215820 -0.384277 0.190796 0.102112 0.192871 0.148682 -0.220337 0.079346 0.458008 -0.457520 0.311035 -0.016098 -0.269775 -0.277100 -0.056549 -0.991699 -0.184937 0.131592 0.157959 0.363770 0.148804 0.637207 -0.286377 -0.079468 -0.114197 -0.097351 0.302490 0.146851 -0.766602 0.469482 0.345215 0.380859 -0.101685 0.174561 0.156860 -0.835449 -0.498535 -0.649414 0.141724 -0.535645 -0.165894 0.212402 -1.148438 -0.148071 0.010658 -1.049805 -0.461914 0.220215 0.397949 0.493652 -0.321777 0.352051 -0.271484 0.670410 -0.168091 -0.101746 0.463135 0.242310 -0.211792 -0.285889 -0.073120 0.134033 0.326172 -0.042847 0.574707 0.299805 0.044159 0.179321 0.356934 0.131348 0.246094 -0.629395 0.060760 -0.854004 0.223511 -0.999512 -0.611328 -0.009644 -0.153687 0.206299 -0.019775 0.148560 0.020081 -0.833984 -0.955566 0.114197 -0.515137 0.208862 0.382568 0.572266 0.236694 -0.170288 -0.543457 0.255127 0.111206 0.578125 0.367432 0.179443 -0.556152 -0.057251 0.207397 0.009789 0.091675 0.726562 0.537598 0.183105 -0.205566 -0.046783 -0.417480 0.147461 -0.307617 -0.169312 0.279053 -0.219849 0.143555 0.500000
0.542969 -0.077209 -0.380371 -0.210449 -0.122437 -0.263916 0.040649 0.039185 0.689941 0.273193 0.117981 0.435791 0.050079 -0.543457 0.306396 -0.478271 0.045258 0.282715 0.051392 0.201538 0.370117 0.448242 0.361816 -0.139526 0.065674 0.410400 -0.046722 0.078613 0.201416 -0.335205 0.577637 -0.153687 -0.104248 -0.633789 -0.057617 -0.149292 0.276123 0.821289 0.089539 0.560547 -0.154663 0.215332 0.206787 0.334961 0.349365 -0.669434 -0.384033 -0.332031 0.102295 0.276367 -0.139160 0.297607 -0.152588 -0.150879 0.053436 -0.281982 -0.650391 -0.189941 -0.020569 0.344727 0.494873 -0.153809 -0.346191 -0.379150 -0.310059 0.038025 -0.077759 0.055450 0.388672 -0.502930 -0.209351 0.140625 -0.390381 -0.699219 0.088623 0.034119 0.201172 -0.267090 0.240845 0.086792 0.072815 0.168335 0.192139 0.732422 0.989746 -0.259521 0.671387 -0.529785 -0.190918 0.050507 -0.137573 0.122742 -0.067505 0.434082 0.370605 -0.081604 0.871094 -0.303223 0.481445 -0.731934 -0.072571 0.021957 -0.069214 0.441650 0.455078 -0.325928 -0.332275 0.206665 -0.160889 0.376953 0.689453 0.001398 0.248291 0.364746 -0.212036 -0.472168 -0.050751 0.145996 -0.099548 0.006390 -0.002970 0.831055 0.102051 -0.197754 0.293945 -0.242798 0.269043 0.234619
-0.087463 0.154785 0.834961 0.322754 -0.837891 -0.857422 -1.452148 0.567383 -0.459961 -0.344727 0.731445 0.026657 -0.776367 0.423096 -0.160522 0.289795 0.019608 0.732422 0.560547 -0.324707 -1.485352 0.241333 -0.101074 0.178833 0.300537 -0.479004 0.471680 0.074646 -0.009064 0.024689 -0.520020 -0.446289 -0.267822 0.098877 -0.891602 0.799316 -0.096741 0.367676 -0.180298 -0.744141 -0.233276 0.152466 -0.026749 -0.321289 -0.964355 0.442139 -0.264893 0.563965 -0.372314 0.322266 0.595215 0.395508 0.298340 0.573242 0.282959 0.482422 0.247070 -0.000658 0.126465 -0.045532 -0.718262 0.303467 -0.593262 0.310303 -0.048218 0.510742 -0.649414 0.125610 -0.441650 0.035797 0.064575 0.126221 -0.066040 0.463867 -0.766602 -0.293701 0.416992 0.017380 0.356934 0.512695 -0.645996 -0.334473 -0.472656 0.126953 -0.373047 0.158569 -0.169922 0.438721 -0.317871 0.279541 -0.738281 0.200928 0.103149 -0.155884 -0.121704 -0.144897 0.431396 -0.220581 0.139160 -0.572754 1.048828 0.479980 0.006771 0.584473 0.641602 0.042389 -0.894043 -0.474854 -0.086304 0.354004 -0.011673 0.307373 0.149414 -0.328857 -0.308838 0.346924 -0.069153 -0.608887 -0.158813 0.493896 0.481689 -0.045746 -0.013367 -0.221558 0.276123 0.243652 0.367432 -0.403320
-0.416016 -0.695312 -0.021164 0.097534 0.294434 0.459961 0.883789 -0.353516 0.187622 0.342041 -0.204834 -0.459717 -0.187256 0.234619 0.359619 0.513672 0.121826 0.419678 -0.254395 0.410156 0.219849 -0.108093 -0.886230 -0.009193 0.435547 0.170410 -0.267822 0.078186 -0.226440 -0.045990 -0.670898 0.014557 0.026505 -0.111206 0.184570 -0.478027 0.347656 -0.090576 0.198364 0.022476 0.199097 -0.695312 -0.373779 -0.610840 -0.853027 0.147583 0.308838 0.082092 0.168823 0.074158 -0.349609 0.440674 0.548828 -0.609375 0.269287 -0.599609 0.061310 0.320557 0.526367 -0.365967 -0.221924 0.311279 0.165649 -0.725098 -0.269043 -0.230103 0.266602 -0.259521 -0.203247 0.369629 0.014336 0.056396 -0.314209 -0.223999 0.097473 0.098999 -0.096802 0.243286 -0.137573 0.141846 -0.363281 -0.520996 0.276855 0.003386 -0.244751 0.090820 -0.035004 0.543945 0.665039 -0.632812 0.162354 -0.026077 0.223145 0.178101 -0.004704 0.314941 0.096008 0.138306 0.001689 0.241699 0.146240 -0.927246 -0.752441 -0.413818 -0.254150 0.023346 0.445068 -0.169556 -0.257568 -0.738281 0.386475 0.070801 -0.473877 -0.078857 0.163208 0.087708 -0.499268 0.258545 0.206055 -0.170654 0.170532 -0.554688 0.313232 0.821777 0.510742 -0.327148 -0.801270 -0.113586
