-0.645188 0.141532 0.318855 0.739868 -0.474139 -0.077162 -0.188574 0.534828 -0.557375 -0.422871 0.075163 -0.600468 -0.477789 -0.312345 0.286439 -0.397241 0.162404 0.370516 -0.301458 -0.330165 -0.070003 0.346596 0.390175 -0.256942 0.006294 0.002046 -0.576679 -0.288231 0.007623 0.097244 0.030008 -0.002677 -0.122240
0.150291 0.194793 -1.027953 -0.198008 -0.547918 0.266191 0.291873 -0.045838 -0.796767 -0.606353 0.073895 -0.310829 -0.322075 -0.460671 -0.145388 0.016198 0.136977 0.326865 0.216865 0.104463 0.113414 0.025297 0.074547 0.271319 0.350180 -0.281035 -0.153978 0.381624 0.350184 -0.563633 -0.650991 -0.601763 -0.507180
0.303475 -0.643950 0.493203 0.431692 -1.454825 -0.229950 0.434228 -0.374724 -0.688274 0.293047 0.613794 -0.065401 0.129104 -0.629390 0.286898 -0.351192 -0.042065 0.413430 0.015877 0.055999 -0.049497 -0.066972 0.333957 0.198215 0.148398 -0.020597 0.124007 0.445493 -0.570471 0.194787 -0.215617 -0.243265 -0.062053
-0.936474 -0.040158 -0.349205 -0.193695 -1.407586 -0.249484 0.296701 0.278745 -0.333047 -0.275739 -0.264156 0.475103 -0.190606 -0.315018 -0.509346 0.254527 0.127268 -0.020023 -0.080593 -0.008152 -0.204591 -0.157375 -0.097165 0.019573 -0.020967 0.364673 0.005173 0.009485 0.288955 0.260806 0.514144 -0.074909 0.355279
0.168400 0.386789 -0.223762 0.229628 -0.433206 0.139269 0.356746 -0.331254 -0.753577 -0.010223 0.101877 -0.106010 -0.333367 -0.246734 0.380134 0.258566 -0.283058 -0.986631 0.450540 -0.524456 0.130473 -0.130033 -0.413813 -0.196795 -0.536633 0.194272 0.013379 0.295330 0.312670 -0.452029 0.336019 0.118464 -0.063700
-0.044122 -0.131217 -0.028824 0.008855 -0.123220 0.127864 0.039298 -0.131741 -0.026528 0.029204 -0.038939 0.018154 -0.293878 -0.062317 -0.133764 0.111001 -0.004911 0.023051 0.014788 -0.162777 -0.197336 0.058881 -0.052089 -0.045225 -0.022828 -0.017546 0.037003 -0.175355 -0.101557 0.053175 -0.159127 -0.123715 0.219169
0.126051 -0.013234 -0.098008 -0.082770 0.060998 -0.351612 -0.022867 -0.135075 0.465360 0.730573 0.209985 -0.517528 0.035966 -0.197745 0.090727 -0.104108 0.082508 -0.022404 -0.223445 -0.144011 0.031721 -0.238481 -0.329238 -0.072272 -0.004622 -0.444293 0.400895 0.843047 -0.925066 0.424164 0.350819 -0.343386 0.113630
-0.310189 -0.755186 0.136928 -0.473602 0.176987 0.117718 -0.259556 0.402985 -0.553711 0.351752 0.420167 0.197544 -0.070439 -0.589547 0.307780 -0.243975 0.261759 0.582231 0.023614 0.248810 -0.435338 -0.215224 0.123386 -0.258556 -0.040012 0.096009 -0.121965 -0.208286 0.299705 -0.043979 0.107527 -0.086018 -0.446408
-0.010689 0.043280 -0.237170 0.865140 -0.571859 -0.269327 0.088698 -0.233299 0.302005 -0.093180 -0.852779 0.221342 -0.171037 0.498139 -0.070759 -0.614067 0.364933 0.231245 -0.883911 0.055387 -0.067058 -0.366511 -0.206779 0.154216 -0.140983 0.000666 0.144553 0.401680 -0.015695 0.209100 -0.135543 0.231112 -0.150376
0.115596 0.010000 -0.782147 -0.338483 0.040593 -0.206496 -0.121647 0.046445 0.263213 -0.575892 -0.345469 -0.378615 -0.120309 -0.345686 0.025690 0.019344 0.108494 -0.262079 -0.229146 -0.275831 0.179278 0.091997 -0.071986 -0.388670 0.081148 0.397349 0.259140 0.874415 -0.531270 -0.308481 0.481089 -0.245154 -0.082331
-0.007639 -0.804710 0.296074 -0.069319 -1.230024 -0.011806 0.206822 0.320585 0.217369 0.170393 -0.010140 0.710987 -0.023810 0.503747 0.052130 0.668947 -0.224790 -0.003055 0.000219 0.517918 0.258552 0.292548 -0.225339 0.020837 0.181659 -0.112248 0.004337 0.127057 -0.370242 0.332619 -0.467410 -0.097689 0.240300
0.349461 -0.097467 -0.034405 0.480922 -0.217497 0.034274 -0.331495 -1.084277 0.242331 -0.142714 -0.333920 -0.423920 0.783325 0.306701 0.193154 -0.239126 0.229157 -0.182775 -0.136154 -0.324240 0.289398 -0.027001 -0.077826 -0.725183 -0.157523 -0.062606 0.364090 -0.363380 0.131046 -0.112595 -0.193555 0.110815 -0.023556
0.009608 0.028009 0.390690 -0.042497 0.728302 -0.094656 0.075302 0.045336 0.286449 0.833753 -0.018754 -0.615083 -0.077450 -0.348435 -0.179520 -0.739919 -0.080322 -0.862371 -0.220993 -0.267323 -0.637424 -0.194610 -0.300885 -0.475350 -0.036145 0.288902 0.360795 -0.019373 -0.122436 -0.186423 -0.306149 -0.119261 0.029138
0.121413 -0.246265 -0.218757 -0.457045 -0.260014 -0.287888 0.165759 -0.229672 -1.288363 -0.121965 0.267745 -0.319820 -0.191293 0.199101 0.214621 0.459190 -0.104178 -0.325618 0.087883 -0.866730 0.223422 -0.681516 0.707653 0.049335 -0.118224 0.198168 -0.086677 0.048453 0.589717 -0.447246 0.281751 0.678470 0.294821
0.558562 0.247647 -0.441269 -0.367114 -1.791274 0.170578 0.400123 -0.164303 -0.551055 0.143679 -0.045550 0.038541 -0.086126 -0.378301 -0.598168 -0.047838 -0.095141 -0.026041 -0.365684 -0.049587 -0.236866 -0.321717 -0.289113 -0.241569 -0.169490 0.151573 0.636065 0.452184 -0.132551 0.027086 -0.482414 -0.104361 -0.285998
-0.429389 0.035192 -0.335073 -0.141049 -0.900575 -0.276074 0.552388 0.043841 -0.130877 -0.331115 -0.032093 0.310690 0.203278 0.180823 0.060420 -0.124382 0.036579 0.506872 0.272930 -0.126226 0.117325 0.535506 0.167982 0.149826 0.007196 0.351063 0.370229 -0.258154 -0.565280 -0.360851 -0.208116 1.066789 -0.054706
0.027676 -0.114543 0.072192 0.339964 -0.117160 0.264095 -1.051004 -0.654230 0.585816 -0.377263 0.150507 0.502280 -0.083461 0.960218 -0.007996 0.210480 -0.529487 -1.176660 -0.088965 -0.027782 -0.000825 0.247481 0.477986 0.412276 -0.152255 0.052173 0.457259 -0.079230 -0.067398 0.109475 0.182501 0.226302 0.335607
0.137449 -0.069729 -0.225453 0.785971 -0.396312 -0.369717 -0.030208 0.473767 -0.334689 -0.330617 -0.372041 -0.107460 -0.033924 0.071652 -0.686535 -0.666482 -0.075773 0.220009 0.191677 -0.366747 0.469059 -0.180807 0.007834 -0.132711 -0.288783 -0.173288 0.292058 0.164437 0.400664 0.104045 -0.238617 0.054165 -0.306187
0.306506 -0.217453 0.142043 0.008793 0.637309 -0.110162 0.078882 0.090885 -0.172557 0.257518 -0.526810 -0.262016 -0.934602 0.463231 0.327117 0.511802 -0.331634 -0.860980 -0.005646 0.549677 -0.729041 0.063238 0.605516 -0.050439 -0.412082 -0.089781 -0.190551 -0.012565 0.260187 0.054511 -0.398565 -0.310914 -0.302456
0.006988 0.107854 0.109396 0.379597 -0.122722 -0.195693 0.197986 -0.310373 -1.279861 -0.341505 0.282459 0.609497 0.633581 -1.029739 0.141189 -0.187433 -0.098325 -0.437223 0.333563 -0.064373 0.408431 -0.050351 0.158280 0.017502 0.228054 -0.077970 -0.402706 0.064807 0.347781 -0.317325 0.554646 -0.646127 -0.643557
0.045791 0.169963 -0.491454 -0.293695 -1.418603 -0.408450 0.232472 -0.232012 0.507956 -0.092050 0.154662 0.073434 -0.565721 -0.093057 -0.248318 -0.139480 0.023272 -0.504424 -0.387560 0.395293 -0.155475 0.446366 -0.277709 -0.194204 0.417000 0.417975 0.044812 0.401704 0.381785 -0.061082 -0.188493 -0.202629 -0.007458
0.327583 0.225941 0.311735 0.335647 0.532126 -0.131920 0.384742 0.160449 -0.159491 0.345152 0.345234 0.127946 -0.637242 0.279505 0.001518 -0.043927 -0.015200 -0.305199 0.147218 -0.995865 0.177552 0.085645 -0.123103 0.228282 -0.422918 -0.339843 -0.063575 -0.322480 -0.348588 0.073379 0.107469 -0.210306 -0.084028
-0.059236 0.166927 -1.115721 -0.219388 -1.160378 -0.514502 -0.093366 0.061169 -0.238123 0.883299 0.502016 0.168943 -0.106821 -0.363247 -0.087180 0.301914 -0.058372 0.014733 -0.252333 -0.104488 -0.015516 -0.139224 0.127986 0.100402 -0.278396 0.378758 0.935034 0.168568 -0.330987 -0.131990 0.021083 -0.019729 -0.092169
-0.075973 0.035777 0.125351 0.189121 -0.982905 -0.275755 0.702946 -0.146740 1.333150 -0.296658 -0.435422 -0.244000 -0.127210 0.373587 0.208957 -0.160709 -0.098478 -0.187216 0.136991 0.044574 0.157504 0.013830 -0.364315 0.165215 0.130609 -0.221550 0.896027 -0.047331 -0.560562 -0.250608 0.457934 -0.157078 -0.485306
-0.134663 0.113412 -0.201726 -0.248856 0.332131 -0.235466 0.179575 -0.089850 -0.222064 -0.953804 -0.229908 0.386527 -0.033593 -0.607130 0.293294 -0.123198 -0.345433 0.399292 -0.626017 0.221095 -0.064812 0.624580 -0.030987 0.029358 0.064589 0.402613 -0.158224 -0.285884 -0.198975 0.209052 0.202625 0.702165 0.920986
-0.011856 -0.222958 -0.122631 -0.422679 0.381711 -0.354500 -0.400873 0.840882 -0.116471 0.481689 0.085075 -0.412815 0.509481 -0.258571 -0.011537 -0.168786 -0.212343 -1.027372 -0.078018 -0.200136 0.162017 -0.099726 -0.039157 0.082904 -0.138552 0.218918 -0.077040 0.092821 -0.221441 0.438757 -0.437964 0.227916 -0.207594
-0.113490 0.016434 -0.160553 -0.196020 -0.064609 -0.498311 0.027733 0.440430 -0.375288 -0.271869 0.086403 0.052336 -0.412834 -0.361068 0.318049 0.132043 0.200925 -0.031111 0.398205 0.428508 -0.405392 0.291383 0.096306 -0.144323 -0.250288 -0.046229 0.036316 -0.358950 -0.376043 0.455037 0.221347 0.007178 0.217865
-0.212250 0.167665 -0.175352 0.349559 -0.875277 0.141879 -0.073755 -0.246941 -0.574751 -0.915744 0.164843 0.480226 0.328150 0.084144 0.226956 -0.071421 -0.053034 -0.130734 -0.131239 -0.352339 0.445996 0.537528 0.260783 -0.099838 -0.019223 -0.785966 -0.364449 0.092726 0.334796 0.694374 0.271727 0.334691 0.268203
0.163451 0.011746 -0.397559 0.612381 0.334413 -0.049485 0.043922 -0.183623 -0.987856 -0.004393 0.056771 0.235367 -0.052703 0.324331 -0.551895 -0.703462 0.397382 -1.509294 -0.417532 0.268520 -0.207347 0.104357 -0.187494 -0.792004 -0.017107 -0.172034 0.012906 -0.280045 0.233308 0.214160 -0.323982 -0.206756 0.020578
0.239782 0.276140 0.213666 -0.115189 1.385270 -0.537461 0.389781 0.495235 -1.246919 -0.319915 -0.230574 0.014454 -0.305606 -0.228489 -0.447868 0.144783 0.108230 -0.275138 0.021916 0.134295 -0.283327 -0.002694 0.132495 -0.019609 0.198590 -0.191459 -0.530977 0.262033 -0.176940 0.019220 0.294145 -0.281000 -0.098787
-0.183887 0.350504 -0.005489 -0.181740 -0.375947 0.545650 -0.113558 -0.566809 -0.619884 -0.225430 0.593525 0.122060 -0.002405 0.268334 0.066344 -0.041210 0.194481 -0.377133 0.573222 -0.046657 -0.720042 0.169415 0.359505 -0.329063 0.163315 -0.331409 -0.122897 0.128590 0.043929 0.259334 -0.226667 -0.141537 0.278321
0.110740 -0.007890 -0.089756 0.329753 0.556693 0.087575 -0.025656 -0.153838 -0.440271 -0.100036 0.243742 -0.336636 -0.948955 0.411155 0.727176 -0.182736 0.127484 -0.553341 -0.471594 0.385413 0.507262 -0.335827 0.130802 0.341483 0.015171 -0.545609 -0.040961 0.257548 -0.144909 0.190435 -0.647067 0.850627 -0.168768
0.307510 -0.120343 0.212831 0.949142 -0.021831 0.480387 -0.041509 -0.071239 -0.070324 0.477832 0.055573 -0.520014 0.226032 -0.015657 -0.209884 0.027230 -0.837684 1.047768 -0.184633 -0.213005 -0.079107 0.082261 -0.043144 -0.204494 0.315192 -0.202470 0.025306 0.113401 0.552262 0.076923 0.049453 -0.449771 -0.581709
0.114382 -0.270100 -0.615034 0.047489 -0.365886 -0.446565 -0.214632 0.151260 0.645474 0.189564 0.694529 -0.301151 -0.070351 0.101092 -0.114345 -0.223962 -0.088600 -0.589549 -0.226585 0.008943 0.064628 -0.175350 0.298649 -0.141475 0.119147 0.053702 0.774190 -0.336167 0.433500 0.526640 0.097251 0.032286 0.084618
-0.376863 0.297335 0.013899 0.221935 0.235091 -0.709385 0.151648 0.047381 -0.228381 -1.007918 -0.525566 -0.363362 -0.038159 -0.360157 -0.775258 -0.286383 -0.078162 -0.679585 0.286483 -0.174088 0.381352 -0.295303 0.147890 -0.053685 0.314788 0.415324 0.152511 0.411478 -0.063059 -0.172101 -0.047025 -0.079733 -0.109687
-0.151219 0.035879 0.248652 -0.339282 -0.796620 0.219992 -0.398996 -0.021234 0.348281 0.585732 0.055554 0.359231 0.185793 0.363901 0.719077 0.565721 0.010362 -0.610039 -0.414397 -0.375201 0.085982 -0.082691 0.172667 0.323761 -0.315143 -0.231130 -0.274584 0.216916 -0.204158 0.425950 -0.112040 -0.949333 -1.062412
0.080171 -1.157433 0.417690 0.316952 1.372671 0.137821 -0.268434 -0.014524 -0.714089 -0.221045 0.040252 -0.324586 -0.281658 0.131072 0.103992 -0.517855 -0.103555 -0.163776 -0.459993 -0.165858 0.292150 0.277403 0.487605 0.306673 -0.613598 -0.168190 0.249943 0.029844 -0.110881 -0.146560 0.127945 -0.281111 0.533306
-0.015149 0.061392 0.059621 -0.156450 0.337387 0.341602 -0.422923 0.204193 0.220451 0.231375 -0.637394 0.683401 0.151760 -0.851972 0.481136 -0.417329 -0.674364 0.062580 -0.279761 0.157492 0.232173 0.052538 -0.284425 0.162780 0.469895 -0.215484 -0.033254 0.330008 -0.293502 -0.376193 0.158785 -0.555272 -0.461546
-0.920861 -1.868201 0.596368 -0.238212 0.701086 0.009327 0.347766 -0.084728 -1.347296 0.301759 -0.146310 -0.431846 -0.022503 -0.135961 -0.362514 0.071649 0.052572 0.158489 -0.064803 0.070143 -0.041135 -0.097635 0.074363 0.112232 0.010871 0.152016 0.038249 0.211316 0.300397 -0.265549 -0.700974 0.468516 -0.348689
0.185427 0.201781 0.263394 0.075976 0.647665 0.317004 0.314570 -0.298327 -0.141145 -0.685468 0.266359 0.180905 -0.159343 -0.207454 0.502363 0.095717 -0.427128 -0.760243 -0.137784 -0.405451 -0.658443 0.625176 -0.135047 0.220522 0.132737 0.052956 0.396294 -0.316740 -0.143729 0.018934 -0.023843 -0.233116 -0.515576
0.083004 -0.078519 0.267768 -1.227842 -0.898134 0.113568 -0.335866 -0.313523 0.443397 -0.528020 -0.185100 -0.607662 0.309057 -0.442568 0.426060 0.271512 -0.118872 -0.142135 0.436333 0.177587 0.051858 0.123424 0.084015 -0.091400 0.033662 0.487224 -0.378443 -0.005376 0.071056 -0.096719 -0.251615 -0.588977 0.069433
0.692741 -1.154494 -0.173479 -0.519624 1.431152 0.057018 -0.355929 -0.009752 -0.706900 0.231650 -0.367287 -0.015553 -0.246570 0.201056 0.112852 -0.113539 -0.081153 0.092597 -0.316617 0.125281 -0.014358 0.218424 0.112970 -0.075951 -0.098818 0.226046 -0.045233 0.025453 0.275880 -0.083595 0.416516 -0.750756 0.206079
-0.297478 0.287734 -0.287970 -0.202659 0.209809 -0.127563 -0.219666 0.230278 0.418682 -0.188463 -0.246059 -0.165618 -0.275391 0.690729 -0.171335 -0.563918 0.224722 0.449457 -0.512530 0.071797 -0.091318 -0.211012 -0.107506 -0.227226 -0.537899 0.570558 -0.552108 -0.197380 -0.240332 -0.118536 0.259479 0.324989 0.045438
0.337872 -0.145427 -0.237559 0.138959 -1.120188 0.001647 0.002730 -0.214671 0.422324 -0.156360 0.234475 -0.165947 -0.144878 -0.137806 -0.371500 0.058642 -0.063441 0.549182 0.099547 -0.106187 -0.004078 -0.058547 0.190269 -0.285490 -0.346422 0.481873 -0.013870 -0.001039 0.391680 -0.633642 0.730185 -0.435445 -0.542080
0.201119 -0.042800 -0.111854 0.802353 -0.402364 -0.238942 -0.146451 0.414544 -1.400316 -0.395725 0.129837 0.085653 0.156357 0.422298 -0.567149 -0.064422 0.086255 0.159366 -0.436665 0.144205 -0.157681 -0.296566 -0.171710 -0.267366 -0.228939 -0.090739 0.552712 -0.623702 -0.360647 -0.152520 0.266118 0.149912 -0.077618
-0.033038 -0.143794 -0.188971 0.169754 -0.383341 0.146281 -0.415977 -0.090356 -0.104714 0.215150 -0.293859 0.023528 -0.427051 0.054902 -0.177300 -0.217968 -0.136898 -0.264753 -0.332813 0.508719 0.078410 -0.009758 -0.003114 0.736644 -0.580805 0.064524 -0.151087 0.214131 -0.184587 0.834619 0.637981 -0.340676 0.288879
-0.122821 0.406791 0.246421 0.569362 0.095658 0.348547 -0.258217 -0.073178 -0.105531 -0.227239 -0.666736 -0.769276 0.274646 -0.093653 -0.319934 -0.515696 -0.750833 0.487574 0.522323 0.331079 0.116423 -0.021780 -0.463350 0.344923 -0.450185 0.175951 0.415655 -0.119576 -0.395640 0.341872 0.108964 0.200640 0.227411
-0.176644 0.527814 0.046461 0.640125 -0.413671 -0.255908 0.365079 0.012484 0.057203 0.182997 -0.043136 -0.718699 -0.657772 0.168792 0.019553 -0.306839 0.208665 -0.038186 -0.366555 0.013678 0.146164 -0.564174 -0.437089 -0.512871 -0.433027 0.146047 -0.553609 0.327823 -0.069418 -0.337422 0.222778 -0.778492 -0.756508
0.082749 -0.064673 0.124564 -0.166733 0.541484 -0.152905 -0.257645 0.443594 0.107193 -0.808949 0.642512 0.237724 -0.338063 -0.061771 -0.335364 -0.060519 -0.066549 -0.280757 -0.305405 -0.671326 0.442328 0.413430 0.067009 -0.466966 -0.148481 0.040690 -0.102787 -0.215269 -0.030272 -0.245671 -0.139534 -0.084762 0.348314
0.096642 0.353063 -0.135746 0.195975 0.365922 0.211831 -0.011334 0.128898 -0.752285 -0.093963 -0.424017 -0.246590 -0.849830 -0.087505 -0.459293 0.098592 -0.194276 0.445525 -0.357994 0.154333 0.457109 0.231384 -0.029858 -0.376372 -0.060983 -0.180855 0.210240 -0.054047 -0.017442 0.797402 -0.466268 -0.360921 -0.200295
-0.371495 0.187092 0.233672 -0.004696 0.784210 0.282028 -0.577238 -0.020059 -0.628206 -0.316781 -0.478422 -1.144862 -0.256185 0.083033 -0.572232 0.494341 0.217893 0.420926 -0.226827 -0.507523 0.095586 0.399363 -0.251173 0.083663 -0.176679 0.142612 -0.246274 0.140971 0.115754 -0.318823 0.201937 -0.000140 -0.392690
-0.043166 -0.069602 -0.127574 0.228558 0.074947 0.094297 -0.263471 -0.043767 0.061177 0.614204 -0.058268 0.239451 -0.221051 0.234100 -0.442427 -1.182348 0.032691 0.496050 -0.112902 -0.641631 -0.172782 -0.798680 -0.106742 0.473407 -0.954691 0.344402 -0.182518 0.488030 -0.383873 -0.101605 -0.561338 0.568941 0.111943
0.046577 -0.219318 0.061196 0.917537 0.822602 -0.189207 0.109648 -0.512119 -0.170968 -0.406134 0.095349 0.346834 0.256886 0.181671 -0.750129 -0.698624 0.426066 -1.028906 0.145924 0.267905 0.335184 0.552340 -0.203901 -0.279709 -0.605029 -0.078645 0.137009 0.206429 -0.262357 0.416758 -0.563072 0.021766 0.372773
-0.590257 -1.005708 0.324978 -0.067089 -0.700682 -0.256273 0.280104 -0.056944 0.435507 -0.206316 0.178973 -0.501806 0.209424 -0.134520 -0.375717 -0.142526 -0.012870 0.034527 0.041132 0.033785 -0.023785 0.045301 0.062378 -0.198706 -0.071904 0.073298 0.219439 0.088476 0.867046 -0.246964 -1.579664 -0.606047 -0.624701
-0.104680 0.275130 0.765106 -0.132398 0.405194 -0.030695 0.893961 -0.042739 -0.309435 0.158249 0.157286 -0.204139 -0.150783 -0.050057 -0.337639 0.105964 0.178442 0.220072 -0.399322 0.270690 0.135949 0.016629 -0.347453 -0.265931 -0.164394 0.096638 -0.175813 -0.313957 -0.311296 -0.138626 -0.620693 -0.031802 -0.044969
-0.494808 0.110463 0.097044 -0.836894 0.379030 0.140523 0.372322 0.003810 1.816872 0.202612 0.094617 0.626276 0.193552 -0.534893 -0.247223 -0.221906 0.098647 0.440979 0.042606 -0.830510 -0.019797 0.114554 0.222941 0.616641 -0.037020 -0.052042 0.010161 -0.180812 -0.039798 0.088722 -0.422351 -0.551379 0.171810
-0.120100 0.175306 0.390061 0.007065 1.186862 0.147107 0.319408 -0.245059 -1.182714 0.300128 0.435045 0.214752 -0.195858 -0.477412 0.095412 0.096095 0.002031 -0.169262 -0.232650 -0.296734 0.080499 0.080623 0.077903 0.020004 -0.068051 -0.018984 0.310329 -0.214440 -0.162983 -0.331995 -0.041161 -0.682266 0.293868
-0.096042 -0.117413 0.212315 -0.106031 0.032785 0.049650 -0.005962 0.051466 -0.110957 0.053570 0.052139 0.034421 0.275364 0.974908 -0.112167 -0.227669 0.046853 -1.893460 0.153739 0.220519 0.211087 0.191952 -0.282919 0.429770 0.309114 -0.010145 0.131033 -0.107482 -0.143091 -0.228984 -0.011376 -0.950443 -1.150852
0.213996 -0.214667 0.110294 0.057854 -0.024774 -0.257953 0.313949 -0.243124 0.692654 0.139827 -0.003079 -0.144563 -0.580870 -0.396776 -0.185821 0.341661 0.484841 -1.454822 -0.547588 0.081412 -0.307643 0.360963 0.740040 -0.369660 -0.436324 0.179987 -0.097285 -0.290302 -0.110526 0.055725 0.074964 -0.119943 -0.303653
-0.064172 -0.042667 -0.774722 1.476518 -0.381497 -0.042867 -0.396788 -0.463661 -0.150732 0.414347 -0.671120 0.233065 0.216493 -0.413042 0.006784 0.170295 0.025066 -0.401126 0.310730 0.062712 -0.022500 -0.028808 -0.404982 -0.071295 -0.140375 0.781466 -0.077473 0.148301 0.094241 -0.049286 0.067803 0.554379 -0.192994
-0.102844 0.382703 0.125550 -0.295316 -1.114710 -0.235707 -0.015743 0.058335 0.187540 -0.943100 -0.216302 0.269461 -0.087009 0.065396 0.205970 -0.458359 0.146834 0.205825 0.149883 0.202679 0.222554 -0.383127 -0.090717 0.379750 -0.099261 -0.437631 0.001143 -0.366456 -0.029432 -0.336980 0.807853 -0.673558 -0.103662
-0.117628 0.115794 0.271251 -0.155342 -0.430071 -0.038912 0.318085 0.031725 -0.609164 0.555695 -1.058625 -0.086513 0.297727 -0.369316 0.676798 -0.250930 0.268320 -0.485199 -0.731200 0.080696 0.233232 0.104357 0.295375 -0.088075 0.041940 -0.319599 0.270310 -0.215096 -0.396591 -0.458457 0.059162 0.173735 0.382654
-0.369012 0.280533 -0.070870 0.721395 0.777718 -0.158445 0.550179 -0.027001 0.629743 -0.277815 0.589323 0.184747 0.115942 0.241211 0.016087 -0.276366 0.019169 -0.645309 0.277747 -0.158125 0.410606 0.143623 0.042047 -0.615948 0.398400 -0.122721 -0.446414 0.088591 0.297335 0.156421 -0.369656 -0.009225 0.012485
-1.136292 0.479140 0.052464 0.500166 -1.759190 0.333444 -0.149696 0.152207 -0.425541 0.100380 0.146872 0.270528 -0.105398 0.291774 -0.153879 0.574086 -0.151668 0.403131 -0.260988 0.206632 0.066600 -0.340595 0.406285 -0.245511 0.302032 -0.366200 0.036569 -0.186233 0.136462 -0.140591 0.004124 0.402774 0.080466
0.170916 0.189729 -2.177021 0.284190 -0.348692 0.030282 0.533755 -0.067172 0.102787 -0.373103 -0.420924 0.267683 -0.076685 -0.131975 -0.497875 0.020287 0.017780 0.154546 0.078827 0.125165 -0.006068 0.274849 -0.201117 0.258692 0.047943 -0.365042 0.590630 0.777146 -0.252244 -0.882355 -0.759191 -0.097735 -0.213362
-0.037866 0.158313 -0.029242 0.707859 0.626694 0.118126 -0.753249 -0.167220 0.025619 0.603244 0.249939 -0.593501 -0.207402 0.312693 0.574008 -0.199903 -0.012354 -0.118779 0.117439 0.191714 0.258899 -0.146075 -1.112373 -0.530881 0.794266 -0.101449 0.112822 -0.059177 -0.254212 0.033447 0.120267 0.111578 -0.219304
-0.311736 0.085670 -0.098036 -0.349386 0.527417 -0.350091 -0.093755 0.143714 0.217683 -1.056789 0.214976 -0.078706 0.476700 -0.991021 -0.358552 0.502535 0.126759 -0.136220 0.148655 0.092170 0.362871 0.064146 -0.224169 0.048488 0.313149 -0.610946 0.365701 -0.352000 0.229517 0.038430 -0.282453 0.201574 -0.053038
0.054497 0.341496 -0.203252 0.460603 -0.513129 0.092574 -0.238641 -0.518620 0.022872 -0.326704 1.084382 0.060290 -0.528937 0.550840 -0.127751 -0.231862 -0.096905 -0.276628 -1.146050 -0.615939 0.327360 0.478335 -0.448815 -0.451800 -0.359980 -0.026427 0.230524 -0.148797 0.359029 0.142034 -0.180632 -0.023500 -0.332632
-0.120044 -0.013391 0.139526 -0.679732 -0.412931 0.384098 0.050378 -0.236463 0.101657 0.109080 0.124813 0.098555 0.485041 -0.419972 -0.134654 -0.219431 0.303952 -0.025868 0.228937 0.425176 -0.813863 0.192216 0.265147 -0.394026 -0.741780 -0.550474 -0.022380 0.667547 0.207001 -0.551385 -0.175679 0.076667 0.190172
0.158641 0.045278 0.296762 -0.306159 0.429311 -0.057290 0.157792 -0.063422 -0.110191 0.205374 0.253380 0.206939 -0.527015 0.451988 -0.493778 -0.396156 -0.026020 0.889308 0.459460 -0.392922 -0.287157 -0.144063 0.549641 -0.390894 0.357645 -0.075737 0.013567 -0.221342 -0.154063 -0.322365 0.018188 -0.554798 0.708147
0.137244 0.123702 0.204094 -1.024532 0.195895 -0.006371 -0.013494 -0.085010 -0.958936 -0.000613 -1.134218 0.070100 -0.400922 -0.508613 0.007695 0.395614 0.172584 0.172192 0.138121 0.227428 0.453934 -0.590016 0.079375 0.092853 0.309581 -0.047030 -0.163608 -0.652266 0.032775 0.070760 0.140958 -0.095975 -0.181234
-0.343309 -0.360373 -0.242346 -0.395101 -0.003405 0.123932 -0.370670 0.041307 -0.733207 0.292776 -0.405822 -0.407866 0.585693 -0.425208 -0.566864 0.235808 0.050947 0.552742 0.449792 0.033908 0.298973 -0.367008 0.375935 -0.100913 -0.122285 -0.034538 0.094330 0.213840 -0.337535 0.152389 0.925857 -0.886705 -0.986761
0.440290 0.110057 -0.029874 0.588388 -0.177111 0.222480 -0.906069 -0.013591 -0.433795 0.729505 -0.573412 0.025598 0.011122 0.756760 -0.621007 0.081521 -0.423864 -1.178523 0.494931 -0.115687 -0.146430 0.328641 -0.469912 -0.014398 0.029566 -0.388034 -0.475059 0.169231 0.071911 0.592171 0.102409 0.167592 0.295805
0.119448 0.216252 -0.073562 -0.006692 -0.141563 -0.205733 -0.141392 0.009274 0.050591 0.356844 0.327186 -0.411398 0.112066 -0.092809 -0.174826 0.305938 -0.083771 0.535177 -0.628046 -0.500310 0.056735 -0.158232 -0.202067 0.124480 -0.092566 -0.232096 -0.206455 -0.094657 -0.132809 -0.180028 -0.082801 1.352593 0.063263
-0.014096 -0.143902 -0.845587 0.278443 -1.405575 -0.440976 0.185040 0.546624 -0.353452 -0.249603 -0.309312 0.120554 -0.826081 0.540135 -0.199677 0.047399 0.111475 0.239378 -0.205839 -0.077239 -0.003450 -0.075837 0.313745 0.153941 -0.046752 0.181791 -0.277089 -0.062735 0.499878 -0.081803 -0.210247 -0.181844 -0.227433
-0.515153 0.043054 -0.061483 -0.685005 -1.040297 0.169583 -0.139316 -0.210311 -0.581178 0.044828 -0.478306 0.837789 -0.529790 -0.408125 0.048847 -0.317112 0.358080 -0.163096 0.029612 0.109117 -0.022376 -0.026534 -0.062658 0.162987 -0.185983 -0.132475 0.284630 0.514345 0.097790 -0.404430 -0.689426 -0.105880 -0.590732
-0.342375 -0.248847 -0.040806 0.360644 -0.206630 0.105447 0.043293 -0.344878 0.075638 -0.215915 -0.701398 -0.183821 0.486684 0.053381 -0.186769 -0.363128 0.431857 -0.842964 -0.085798 0.030618 0.023287 0.285704 0.436489 0.344176 0.206381 0.338066 -0.246561 0.070490 -0.280690 -0.212724 -0.262589 -0.304926 -0.540455
0.001799 0.043780 0.351784 0.072288 -0.188389 0.341743 -0.527940 -0.225680 1.089600 0.648695 0.149942 -0.473569 0.358512 -0.899875 -0.202424 -0.476270 0.102249 0.427607 0.802333 -0.110337 -0.050937 0.341703 -0.790022 0.185254 -0.575561 -0.298610 -0.043162 0.047333 -0.354999 -0.360453 0.040172 0.174442 0.405935
0.016005 0.353623 0.102548 -0.963683 0.449702 -0.190259 0.150669 -0.317960 -0.207851 -0.876602 -0.765539 0.123309 0.198771 -0.459266 -0.522717 -0.652965 0.151225 0.369625 0.067613 0.190195 -0.156104 0.121636 -0.265356 -0.037624 0.269509 -0.218362 0.377046 -0.159796 0.652577 -0.048761 -0.346081 0.148121 -0.270860
-3.277787 0.289051 0.228420 -0.157395 -2.407069 0.377086 0.140127 0.033271 0.819079 0.209125 -0.150734 0.007230 0.112422 0.062677 -0.124101 0.151976 0.011405 0.367728 -0.266338 -0.178312 -0.022363 0.120506 0.125051 -0.191153 0.309749 0.042371 0.094321 0.208585 0.134187 0.073489 -0.206992 -0.362470 0.057046
-0.004848 0.024789 -3.087168 0.194250 -1.046124 -0.315018 -0.360515 0.054087 -0.641593 -0.151783 -0.112369 -0.057061 0.081793 0.027536 -0.273165 0.024166 -0.082175 0.207510 0.162143 0.027908 0.096246 0.095612 -0.028507 0.035744 0.113805 1.484586 -0.777461 -0.286671 -0.079176 -0.046714 -0.069071 -0.058805 -0.025405
-0.001249 -0.087130 0.965377 0.068696 -1.755117 -1.366566 0.724998 -0.106770 -0.297056 -0.438440 -0.204580 -0.180514 -0.302502 -0.088805 -0.107775 -0.137279 0.047376 -0.177040 -0.129779 0.006007 -0.093893 -0.266314 -0.152654 0.088094 -0.008152 0.235518 -0.208318 -0.426192 -0.218293 0.046529 0.002612 0.054555 -0.143126
-0.281006 0.172507 0.097497 -0.682982 1.775441 -0.167697 0.272616 -0.353430 0.746700 0.905457 -0.469443 0.063967 -0.482492 0.299577 -0.409242 -0.069203 -0.101492 0.189395 0.181832 -0.089997 0.239490 -0.211480 0.207395 0.045877 -0.897820 0.243106 0.248723 -0.063364 -0.002410 0.331926 0.012734 -0.807661 -0.386655
0.082237 -0.473849 0.218298 0.171267 -0.011581 0.345859 -0.409417 -0.322449 0.359479 -0.071202 -0.158193 0.117808 -0.194250 -0.151774 -0.870593 0.239595 -0.525881 -1.287401 -0.286774 -0.017196 0.160591 -0.163629 -0.112188 0.007740 0.295554 -0.036214 0.013112 0.284127 0.333157 0.386286 -0.171523 0.445403 -0.021252
0.230691 -0.139010 0.204453 -0.097613 0.458076 0.129838 -0.031093 0.099257 0.104855 0.368265 -0.176276 0.021805 0.000953 0.033485 0.363146 -0.514614 0.016562 -0.287953 -0.354755 -0.740773 -0.874513 -0.031496 0.637525 0.665829 0.144190 0.018473 -0.615896 -0.513124 -0.112911 -0.170778 0.059073 0.571261 -0.074297
-0.218794 -0.004060 0.135104 -0.128694 -0.330418 -0.089634 -0.243533 -0.312400 -1.209311 -0.608208 0.453675 0.428638 0.075775 -0.369149 -0.278538 0.054525 0.196625 0.445533 -0.435180 0.535199 0.259700 0.386027 0.575065 -0.058307 0.041217 0.428996 -0.546609 -0.482127 0.000523 0.523725 -0.135388 -0.578463 -0.137923
-0.590099 0.429859 0.121166 0.272547 0.220936 0.195895 0.224268 0.133190 -0.338356 -0.034545 -0.135700 0.402788 -0.109732 -0.844689 0.206058 0.041501 -0.277306 0.089101 -0.507225 0.139375 0.085597 0.185423 -0.017303 0.809861 -0.127650 -0.035978 -0.540134 0.243564 0.280545 -0.165515 -0.120078 -0.119945 -0.092697
-1.693294 -0.351021 0.183824 -0.024218 0.033046 0.040087 0.081445 -0.054886 -1.909614 -0.137465 -0.400986 -0.282271 -0.443511 0.050244 -0.832335 -0.211395 0.039860 0.341375 -0.301562 0.045066 0.001018 0.057434 -0.045538 0.212787 0.080748 0.071637 0.228562 0.025955 -0.187115 0.464996 0.730643 0.399780 -0.906362
-0.361394 -0.166844 -0.210365 0.253979 0.345988 -0.068697 -0.869215 0.580360 -0.890359 -0.381000 0.090887 0.118138 -0.002288 0.385439 0.113949 -0.478078 -0.185159 -0.427372 0.098451 0.445085 -0.489847 0.630655 -0.643914 0.130932 0.112980 -0.291294 0.194319 0.009017 0.330269 -0.013761 0.228695 0.603520 -0.095067
-0.873999 -0.900406 0.640835 -0.022504 -0.623793 0.238131 0.526906 -0.061522 0.648377 -0.409235 0.042917 0.821827 -0.097643 0.463488 0.533682 0.197605 0.062665 -0.364848 -0.093173 0.009602 0.257788 0.061500 0.373096 0.057150 -0.050398 0.186121 -0.104569 -0.052166 0.049979 -0.224042 0.350516 -0.564967 -0.931643
-0.682330 0.076308 0.035291 -0.491419 -0.282175 -0.054298 -0.227333 -0.157543 -0.020067 0.522549 -0.132796 0.688057 -0.263677 0.889861 0.512274 -0.300811 0.027300 -1.147940 0.322628 -0.187030 0.376893 0.010582 0.161199 -0.175006 0.054604 -0.013823 0.111266 0.175220 0.122224 -0.736800 -0.812151 0.196859 0.061939
-0.229908 0.483353 0.259037 0.371475 0.393942 -0.143440 0.193214 -0.175546 0.175998 0.387600 -0.851388 0.117624 -0.230279 0.308868 0.041853 0.641262 0.026004 0.346002 0.100836 0.143231 -0.429282 -0.425058 -0.154880 -0.418601 0.240612 0.351263 -0.362712 -0.090410 -0.188527 -0.088435 -0.176008 -0.229361 -0.245866
0.197954 0.298797 -0.919940 -0.801468 0.427775 0.231504 0.356039 -0.248267 -0.154079 0.202175 -0.393399 -0.212994 0.445825 0.122072 -0.092905 -0.740137 -0.281620 -0.348752 -0.027395 0.320334 0.003464 0.137998 0.627385 0.309803 -0.201474 -0.097889 0.406131 0.084307 -0.190642 -0.032453 -0.059155 0.138487 -0.094244
-0.012194 0.103486 -0.135356 0.219389 0.125341 -0.001965 0.028107 -0.261353 -1.047845 -0.299269 0.189222 -0.730229 0.349637 0.114268 0.321332 -0.132569 0.034830 0.525378 -0.066373 0.113554 -0.569319 -0.126727 0.371178 0.209493 0.056058 0.099395 0.035239 0.494985 0.390456 0.270195 -0.566074 -0.587619 -0.264820
-0.027759 -0.643655 0.132972 0.003639 -0.290156 -0.213926 0.078391 -0.003773 -0.099689 0.811861 0.099167 0.180202 -0.505326 -0.267586 0.510506 -0.619056 0.244268 0.144502 -0.449267 -0.480406 -0.258543 0.015760 -0.678186 -1.065947 -0.394647 0.123298 0.111090 -0.308976 -0.099869 0.539526 0.350048 -1.356122 -1.045500
0.301126 -0.347089 -0.051686 -0.068461 -0.293021 -0.139171 -0.360407 -0.346588 -0.353300 -0.229365 0.342917 -0.164572 0.506867 -0.596028 0.408384 0.046082 0.169103 -1.292176 -0.203667 -1.110209 0.363627 -0.051355 -0.283347 0.819619 0.354027 0.151751 -0.208865 0.330002 -0.178082 0.006797 -0.138693 -0.108292 0.441249
-0.982916 0.363470 0.556303 -0.136488 0.114661 0.274764 -0.233185 -0.043270 -0.464258 -0.044176 0.253702 -0.220332 0.089019 0.346841 0.402802 0.473437 -0.194343 -0.878722 0.110307 0.344908 0.026128 0.118412 -0.024014 0.021634 -0.165362 0.210672 0.031259 0.034336 -0.200800 -0.019277 -0.468285 -0.383199 -0.210443
0.098782 -1.010567 -0.120865 -0.431225 -0.713204 -0.117081 -0.276773 0.127293 -0.604087 0.243359 -0.018977 0.079944 -0.240735 -1.140121 -0.206883 0.736295 -0.183227 -0.070002 0.213131 -0.126869 -0.175206 0.697849 0.316017 0.231662 0.477995 0.018109 -0.136029 0.168170 0.047416 -0.123017 -0.489977 0.417164 -0.063587
-0.091831 -0.461479 -0.017311 -0.190578 -0.026008 -0.128977 -0.126934 0.002325 0.190246 0.128654 0.103572 0.054574 -0.088703 0.056370 -0.114815 0.040432 -0.140376 -0.115194 0.123523 0.141741 -0.180727 -0.060482 -0.100424 0.002912 -0.185890 -0.093150 -0.260851 0.141427 0.054566 -0.139471 -0.241507 0.114194 0.125573
0.263393 0.069269 -0.170234 -0.452333 -0.611810 -0.150499 0.122756 0.110749 -0.918174 -0.517623 0.946388 0.333828 0.565518 -0.015458 0.087176 -0.278822 0.254249 0.328199 -0.299898 -0.111813 -0.369563 -0.326033 -0.532918 -0.371507 -0.072412 -0.317723 -0.364765 0.133268 -0.006420 0.529009 -0.196172 0.219772 -0.090498
0.110927 -0.104533 0.649199 -0.405302 1.346562 -0.143318 0.070966 0.080745 0.433786 0.011526 -0.079554 0.040321 -0.090943 0.036747 -0.242311 -0.025595 -0.025195 0.200947 0.161515 -0.105766 -0.160372 -0.280905 -0.248138 -0.316866 -0.098162 0.203554 0.013528 0.090491 -0.772959 -0.173922 0.182527 0.210951 -0.108894
0.169423 -0.118736 -0.228515 1.350781 -0.798937 0.002471 -0.436785 0.357144 -0.401499 -0.401887 0.371216 -0.070709 -0.042600 -0.283687 0.105441 0.073548 -0.589144 0.413691 -0.034655 0.224761 -0.030673 -0.401952 -0.292793 0.385107 0.349273 0.189965 -0.272279 0.377715 -0.059548 0.248624 -0.020631 0.483000 0.089154
0.133509 0.173329 0.144709 0.362598 0.867842 -0.202710 0.266837 -0.522431 -0.205756 0.161266 0.369404 0.032302 -0.004967 -0.334642 0.094808 -0.529210 0.262269 0.187197 -0.157408 0.335099 -0.138363 0.044875 -0.277813 0.265935 0.331005 -0.090932 -0.247173 -0.170812 -0.204922 0.335218 0.504607 0.458262 -0.452050
0.020066 -1.495716 0.248191 0.584517 -0.027504 0.197026 -0.173386 0.135028 0.412305 -0.715064 -0.584805 0.168871 -0.289539 -0.021055 -0.037523 0.348712 0.034233 0.765500 0.222030 0.001683 -0.311296 -0.239917 -0.062586 0.201672 0.338958 0.102679 0.248336 0.152964 -0.478485 -0.166445 -0.363848 0.125494 -0.815462
0.057699 0.168057 -1.410417 -0.013122 -0.683752 -0.067739 0.082945 0.024015 0.010103 -0.080310 -0.884530 -0.623249 0.133025 -0.719766 -0.338677 -0.342120 0.116098 -0.402427 -0.089648 -0.096436 -0.032179 -0.104138 -0.005207 0.053106 0.161354 0.550361 0.619177 -0.024981 -0.430570 0.310162 0.101605 -0.014089 0.007253
-0.187022 0.156614 -0.795591 -0.640529 0.368732 -0.543933 -0.273425 0.310048 -0.446291 -0.374523 -0.124986 -0.115914 0.131814 0.002208 -0.847008 0.037631 -0.058627 0.424822 -0.374294 0.520362 -0.372041 -0.522767 -0.449549 0.087845 0.246872 0.342604 0.357625 0.497398 -0.271874 -0.403261 -0.072029 0.276090 0.115496
0.370707 -0.447404 0.124378 0.521471 -0.727315 0.064766 -0.102818 -0.247863 0.025868 -0.530986 -0.729217 -0.721134 0.164051 -0.145874 -0.020710 0.119254 0.266916 -0.910330 0.046987 0.581340 -0.320725 0.213868 -0.374674 0.268450 0.007642 -0.118213 0.205889 -0.208866 0.530969 -0.618293 0.536190 -0.351864 0.130545
-0.138961 0.135291 -0.204197 0.163831 -0.916466 -0.255585 -0.623372 0.261347 -0.390759 -0.318359 -0.001518 0.004522 -0.435106 0.050151 0.154818 0.011760 -0.080700 0.152863 -0.693304 0.097985 -0.256413 -0.014885 -0.097554 -0.044398 -0.269539 -0.384491 0.496946 0.693109 0.116927 -0.080840 0.005914 0.694806 -0.012229
-0.063232 -0.622217 -0.115945 0.136985 -0.241714 0.028804 -0.125187 -0.095042 -0.568288 0.706133 -0.213761 0.289444 -0.304528 0.273573 0.168498 -0.084482 0.159228 -0.197901 -0.233370 0.056745 0.139775 0.125324 0.182205 -0.086296 0.103988 0.335224 0.196329 -0.838057 1.210646 -0.536393 -1.036624 -0.700189 -0.808285
-0.177520 -0.038348 0.000587 0.415720 -1.591170 -0.615148 0.151594 -0.208659 0.507757 -0.328257 -0.243756 0.399644 0.433956 0.054856 0.052419 0.117423 -0.005876 -0.310860 -0.522831 -0.067513 -0.426317 -0.190905 0.132952 -0.239813 -0.019518 -0.100187 -0.169391 0.450293 0.031737 0.335868 -0.122335 -0.077141 0.837920
0.298334 -0.331394 -0.275075 -0.221314 -0.739554 -0.215629 0.229568 0.135639 0.502645 0.310043 0.128461 -0.189879 -0.070476 0.290693 -0.184313 -0.363793 -0.101443 -0.044964 0.559644 -0.208620 -0.541339 0.239637 -0.261651 -0.021832 0.157954 0.201335 -0.146420 0.841950 -0.197373 -0.860303 -0.099170 0.311537 0.271566
0.067999 -0.640576 0.132033 -0.921109 -0.546591 0.243860 -0.127033 -0.260884 0.458132 0.238382 0.202840 0.275653 0.431095 0.289408 -0.080838 -0.336395 0.108873 -1.240600 -0.012708 0.023768 0.217161 0.354555 0.588381 -0.253528 0.325143 -0.056009 0.132007 -0.117916 -0.044751 -0.002113 0.593973 0.103474 -0.097424
0.113991 -0.088618 -0.099419 -0.366793 0.647791 0.017161 0.107061 -0.239400 -0.529454 -0.160121 -0.494002 -0.342586 0.327428 0.579601 0.013196 0.061533 0.339941 1.197406 -0.235469 0.100874 0.627471 0.061722 0.219845 0.165954 -0.156677 -0.301116 -0.380523 0.117771 -0.366483 0.186069 -0.073759 -0.117392 -0.201642
-0.167308 0.454169 -0.100671 -0.228134 0.443759 -0.364283 -0.177942 0.254598 0.359662 -0.844193 0.028050 0.189493 -0.013033 0.261770 0.405883 0.088564 -0.116054 -0.196747 -0.049169 0.171896 -0.077209 -0.285963 -0.433702 -0.334289 0.269653 -0.196263 0.694822 -0.590044 -0.187487 -0.018846 0.083449 -0.003185 0.218177
0.252062 0.113303 0.151416 0.706321 -0.175780 -0.075423 0.269268 -0.027349 1.055912 -0.439245 -0.102400 0.682503 0.112901 -0.618611 0.540861 -0.048852 -0.182009 -0.081233 0.086879 0.318254 -0.237153 -0.285665 0.574063 -0.508892 -0.213538 -0.495946 -0.236940 -0.006982 0.092565 -0.182097 -0.374139 0.147250 0.369295
-0.261573 0.238984 -0.133291 0.045174 -0.558462 0.217965 -0.140284 -0.355307 -0.379967 -0.394395 -0.432026 -0.263292 0.267502 -0.362510 -0.166945 0.587442 0.457323 -0.044751 0.543416 0.185521 0.658150 -0.976441 -0.739827 -0.670231 0.382486 -0.031481 -0.579522 -0.289717 -0.244925 -0.016527 -0.070251 0.089736 0.131278
0.019095 -0.028708 -0.140661 -0.094151 0.012150 -0.086564 -0.005324 -0.034564 0.116705 0.005087 -0.093662 -0.192259 -0.010102 -0.038608 -0.088879 -0.092371 -0.048505 0.016511 0.176869 -0.030222 0.003412 -0.191893 -0.076971 -0.065907 -0.354978 -0.034710 -0.018718 0.088792 -0.229143 -0.046726 -0.144692 -0.034291 0.036149
0.161908 -0.314355 -0.101840 0.380488 0.402677 -0.160756 -0.289407 -0.121723 0.126370 -0.484704 -0.316478 -0.119595 -0.162137 -0.038297 -0.118100 0.366187 0.275787 0.936095 0.318624 0.199800 0.131060 -0.075465 -0.043089 -0.112641 -0.114985 -0.415451 0.790142 -0.788707 -0.128200 0.280954 0.127039 0.366477 -0.019590
0.030333 -0.227575 -0.106976 -0.098702 -0.315063 -0.456253 -0.315176 0.587707 0.101453 -0.253834 0.315241 -0.144261 -0.104613 0.137588 -0.258958 -0.116229 0.189523 0.179130 -0.374488 -0.196701 -0.379926 -0.112518 -0.733170 -0.056623 0.072261 0.222644 -0.237933 -0.374995 -0.129129 0.049220 0.562315 0.152319 0.767649
-0.310514 0.164309 0.147868 -0.578936 0.007921 -0.131437 -0.148481 0.261437 0.337501 -0.137147 0.532296 -0.367915 0.691200 -0.099056 1.008219 0.893922 0.032450 0.096153 -0.021950 0.180134 -0.240296 0.279838 -0.172141 -0.274041 -0.421038 -0.219842 -0.624961 -0.211677 -0.406003 0.212590 -0.154983 0.134861 0.050928
0.216289 -0.488828 0.155990 -0.162604 0.269275 -0.002932 0.203440 0.153472 -0.773345 0.136054 -1.013940 0.111488 0.296273 -0.139284 -0.083579 -0.186200 0.022893 0.249691 0.427815 -0.467697 0.117194 0.253385 0.265186 0.196231 0.205541 0.212054 0.123757 -0.926830 0.121814 -0.358954 -0.828763 0.053000 0.164451
0.229499 0.008835 0.001006 0.285379 0.449848 -0.280182 0.639965 0.402531 1.016156 0.846095 -0.438250 -0.231946 0.514694 0.127253 0.018347 0.211550 -0.202400 0.346947 -0.153043 -0.056476 -0.225407 -0.048959 -0.029823 -0.269868 -0.207385 -0.456866 -0.404341 -0.206694 0.318104 -0.262602 0.653357 -0.335428 0.106727
-0.162183 -0.169753 0.208270 -1.054424 -0.741617 0.157960 -0.727544 0.662996 -1.195778 0.464020 0.157089 0.083076 0.581147 -0.826433 -0.104548 -0.389925 -0.103931 0.987245 -0.332345 -0.185213 -0.100206 -0.048411 0.061037 0.067175 0.261395 -0.325208 -0.039908 -0.276721 -0.206203 0.070707 0.035569 0.326734 0.002266
0.050244 0.092235 -0.594981 -0.707314 -0.092320 -0.120520 -0.059996 -0.339345 -0.450290 -0.719652 0.234790 0.061996 -0.008066 0.408303 0.336885 -0.004443 -0.074584 0.618068 0.253514 0.403063 -0.440691 0.142746 -0.074760 -0.218525 0.172754 0.498938 0.104166 0.709603 -0.727479 -0.063451 0.027059 -0.109061 -0.236559
0.051277 0.087465 0.229255 -0.263563 0.841546 0.138982 0.448874 -0.105639 0.449283 0.355834 0.207595 0.495927 0.087814 0.536988 -0.323173 0.330104 -0.170567 -1.130185 -0.069031 0.132408 0.232594 -0.262415 0.563747 0.070974 0.000425 0.284048 -0.345531 -0.018463 -0.126702 -1.230842 -1.160542 -0.277565 -0.146845
0.601736 0.161717 0.147414 0.006741 0.103471 0.225461 0.082786 -0.561781 0.360920 -0.358475 0.313354 -0.537014 0.137029 0.257483 -0.245126 0.601693 -0.351232 -0.235858 0.054446 0.159522 0.324621 0.217358 0.248243 -0.014658 0.086687 -0.091089 -0.152532 -0.481060 -0.206949 0.148637 0.164011 -0.271827 0.132111
0.351008 0.070040 0.022327 -0.447194 -0.355316 0.119810 -0.420861 0.156575 -0.435916 -0.889787 -0.452866 0.576052 -0.637598 -0.026475 0.324353 -0.035983 -0.190027 -0.109730 -0.369417 -0.442208 -0.490658 -0.232154 -0.236447 -0.078259 -0.102170 0.596990 -0.205125 0.056969 0.117990 0.298492 -0.420592 -0.281255 -0.599939
-0.377028 0.421300 0.134516 -0.529821 0.717661 0.203477 -0.284925 -0.336952 -0.872449 -0.201547 0.074778 -0.517357 1.141561 -0.268923 -0.521544 0.216842 -0.178676 -0.835342 -0.170446 -0.169260 0.467446 0.019537 0.419050 -0.077058 -0.258006 0.189552 -0.107491 0.042329 0.089226 0.179251 -0.079056 -0.448627 -0.064629
