-0.124768
0.276921
0.113349
-0.241114
0.087713
-0.002778
-0.163571
-0.248394
-0.149525
-0.328163
0.127254
-0.047403
-0.065344
-0.191688
0.108516
-0.145061
0.037022
-0.277295
0.094367
0.084571
-0.139560
0.183686
-0.314596
0.083799
-0.132411
-0.417233
-0.448034
0.043741
0.042616
-0.303892
0.161568
-0.100232
0.318026
-0.370090
-0.286028
0.135017
-0.040509
0.192679
0.247290
0.306701
0.044985
-0.195762
-0.138164
0.079652
-0.255121
-0.004189
0.033956
0.107699
-0.290507
0.222555
-0.039250
-0.089888
-0.053636
0.032861
0.242810
0.188085
0.184387
0.039840
-0.107941
-0.102358
0.017533
0.009502
0.013149
0.067683
0.234929
-0.034341
-0.290415
0.010591
0.068131
0.082375
-0.033483
-0.078913
0.141890
-0.090565
-0.269876
0.133988
0.171380
-0.016117
-0.090420
0.329331
-0.370895
0.093398
-0.014143
-0.015861
-0.030520
0.022077
0.203678
0.311981
-0.256756
0.294085
0.116990
0.081346
0.162668
0.081785
0.065778
-0.076285
0.043998
-0.090904
-0.002962
-0.076872
-0.095716
-0.242386
0.045083
0.193489
-0.072493
-0.321736
0.188964
-0.406615
-0.007003
-0.060777
0.009820
0.081125
0.038518
-0.277556
0.216896
0.018499
0.000083
0.002760
-0.485977
-0.122103
0.130817
0.015961
-0.175203
-0.227631
0.430631
0.377975
-0.092582
0.110288
