-0.141579 -0.452696 -0.620856 -0.030632 -0.223821 0.081995 -0.388653 -0.398645 0.203281 -0.068233 -0.036844 0.091363 -0.309952 -0.552793 -0.537226 0.285115 0.349192 0.292382 0.113056 0.164408 0.485685 -0.390574 -0.663509 -0.040841 0.004907 -0.269325 -0.308758 0.017059 -0.200750 -0.141330 -0.155953 0.278240 -0.031228 0.012745 0.047443 -0.507801 -0.349384 -0.135434 -0.543888 0.397646 0.053539 0.324267 -0.082657 -0.061567 0.151132 -0.106582 -0.305508 -0.556323 0.186212 -0.041478 -0.927631 -0.010212 -0.061827 -0.125517 0.195404 0.499681 0.221742 0.235575 -0.049179 -0.334429 0.450407 0.316762 -0.009490 -0.260737 -1.118500 -0.181471 -0.029309 -0.088633 -0.212901 -0.076226 0.160314 0.125769 0.468654 -0.131127 0.230696 0.457691 0.021724 0.367353 0.386277 0.249858 -0.002623 0.233508 0.136809 -0.144748 0.062440 0.493240 0.126723 -0.016299 -0.079300 -0.034361 0.060209 0.262009 -0.558900 -0.018912 -0.086751 -0.199685 -0.151274 0.090425 0.251257 -0.499218 -0.400298 -0.257339 0.192962 -0.531171 0.162611 -0.222334 0.165694 -0.109022 0.515040 -0.041501 0.090812 -0.020707 -0.168233 0.002918 0.430550 -0.128191 0.053704 0.177506 -0.121319 -0.197772 0.212272 -0.622751 -0.067890 0.068430 -0.115742 -0.069938 0.192299 -0.512981
0.065785 -0.116749 0.040383 0.241990 -0.677117 -0.142845 -0.062390 -0.078237 0.137760 -0.094272 0.394245 -0.033902 -0.075525 0.113749 -0.469294 -0.438962 0.063271 -0.074350 -0.107705 0.535897 -0.437264 -0.320272 -0.247863 0.252597 -0.141018 0.285565 -0.193045 0.063325 -0.132913 -0.223811 -0.027664 0.017968 0.291672 0.132703 -0.321719 0.341278 -0.433799 -0.195581 0.085233 -0.133261 0.461412 -0.078636 -0.139296 -0.081164 -0.173952 -0.305823 0.129769 -0.409708 0.235121 -1.078291 -0.256196 -0.278258 0.516608 -0.446009 -0.143960 0.526485 -0.367305 0.508193 0.455464 0.400784 0.100179 -0.684579 -0.026143 -0.004134 0.337727 -0.522827 -0.038114 -0.537237 0.034459 0.116666 -0.172114 -0.271033 -0.280384 0.019164 0.368987 -0.125493 -0.411421 -0.046594 -0.211399 0.199400 -0.083565 0.279441 0.124920 0.364470 -0.443384 -0.044937 0.102261 -0.683623 -0.115627 0.261900 0.159075 -0.154775 -0.291925 -0.081570 -0.622173 0.354253 -0.300186 0.051632 -0.112327 -0.310997 -0.008496 -0.306226 -0.348487 0.486113 0.185782 -0.293458 0.071550 -0.074236 0.068557 0.202444 0.077761 0.536390 -0.152910 0.312172 -0.181515 -0.253153 0.090265 0.177309 -0.377611 0.027558 0.047389 0.253645 -0.599485 -0.519021 0.022247 -0.312777 0.166087 -0.128708
0.400173 0.235403 -0.284852 0.198759 0.071214 -0.053856 -0.399622 -0.051224 0.398436 -0.351552 -0.598219 0.033582 -0.383404 0.109301 -0.156869 0.056106 -0.195899 0.391014 -0.029404 -0.428850 -0.550503 0.147824 -0.232627 -0.160331 0.110267 -0.602433 0.176122 0.064310 -0.401518 0.091194 -0.020096 -0.012608 -0.095528 0.000510 0.050320 -0.243495 -0.613956 -0.427725 -0.065694 -1.166850 -0.089521 -0.634177 0.303029 -0.171861 0.589579 -0.224484 -0.130985 0.042376 0.246657 -0.545023 -0.048414 0.059258 -0.027278 -0.114154 0.318206 -0.798832 0.011461 -0.391708 0.298966 0.615094 -0.261653 0.334157 0.008400 0.002066 0.296669 -0.158837 0.142036 -0.308206 -0.315851 0.297987 -0.764399 -0.158625 -0.065269 -0.272964 -0.070688 0.083263 0.098461 0.176881 -0.721156 -0.177870 -0.771707 -0.603211 -0.156433 -0.169436 -0.111680 -0.083676 -0.118770 0.222853 -0.338172 0.450532 0.139909 0.235096 0.176198 -0.198483 0.341702 -0.522242 0.127669 -0.248171 0.106717 -0.152448 -0.150594 0.386831 -0.134673 -0.269535 0.525476 -0.333092 -0.084674 0.125399 -0.066066 0.045383 -0.255842 -0.495279 -0.039388 0.137590 0.225953 -0.355565 0.123748 -0.554481 -0.073097 -0.335985 0.089261 -0.153188 -0.189643 -0.335274 -0.116402 -0.241085 0.008539 -0.436931
0.028579 0.051592 -0.081115 -0.178251 -0.495933 0.155368 0.149206 -0.417429 0.466903 -0.290101 0.105020 0.272675 -0.233771 -0.060351 -0.589687 -0.411250 -0.538825 0.255730 0.297868 -0.502117 0.118096 -0.486204 -0.309387 0.309183 -0.752350 -0.551127 -0.183578 -0.252318 -0.287822 0.091000 -0.200532 -0.036008 0.060634 -0.089480 -0.001272 0.240921 -0.121290 -0.130118 -0.111235 -0.492515 -0.264606 0.298478 0.101548 -0.007401 -0.101681 0.042394 -0.133586 -0.701854 -0.994073 -0.550131 0.115754 0.062680 -0.278544 -0.166749 -0.422201 -0.126121 -0.359463 -0.146457 -0.478629 -0.201465 0.236135 0.004926 -0.080103 0.407622 0.345657 0.348627 -0.354210 0.179143 0.015210 0.271872 0.045499 0.063265 0.204202 -0.030746 0.019206 -0.771155 0.119294 0.194660 -0.068487 -0.337192 -0.325994 0.035207 0.147305 -0.367666 -0.102724 0.262716 -0.476419 -0.581196 0.409027 0.070488 -0.714246 0.029061 0.156314 0.272593 0.010890 0.152593 -0.254197 0.199433 0.144280 0.201609 -0.325774 0.273744 0.584765 0.246668 -0.165517 0.346662 0.313503 -0.355625 0.266413 0.268788 0.797807 -0.267031 0.350881 0.023264 0.034726 -0.143930 0.113507 0.621900 -0.092299 -0.179876 0.228663 0.300430 -0.152149 -0.004369 -0.529905 -0.243561 -0.443266 -0.152008
-0.169702 -0.247564 0.145261 -0.273230 0.404038 -0.082520 -0.034523 -0.079894 0.223736 0.362610 -0.348319 0.563622 -0.148494 0.080896 0.480547 0.331188 -0.029576 0.156919 -0.014196 0.089592 0.364963 -0.204789 0.796600 0.103718 -0.209178 -0.163306 0.114954 -0.347753 0.313097 -0.229041 0.373573 0.058848 0.202352 -0.113801 0.153226 -0.038617 0.244859 0.276341 -0.921903 0.113016 -0.391860 -0.068027 -0.185753 -0.129613 0.000254 -0.422706 -0.266594 -0.041962 0.225279 0.329508 0.061692 -0.095440 0.028555 -0.604872 -0.494283 -0.296516 0.429468 0.200274 0.072058 0.410661 -0.085557 -0.225191 -0.062597 0.068473 -0.485178 -0.177471 0.282926 0.243768 0.325645 -0.204287 -0.276286 0.075210 0.201300 -0.206898 -0.211816 0.243108 0.038577 0.076318 0.472295 0.172504 1.062481 -0.423460 -0.135943 0.307930 -0.004358 -0.287965 0.151311 -0.134749 0.112793 -0.463419 -0.725361 -0.213896 -0.512908 0.148201 0.014020 0.085884 -0.414156 0.098666 -0.148457 -0.279366 -1.065167 -0.072618 0.028120 0.078925 0.544703 0.247102 0.079654 0.204963 0.136687 0.138455 0.016764 -0.660618 -0.407416 0.008682 -0.191217 0.193907 0.205197 0.076132 -0.445702 0.071134 0.384258 -0.392919 -0.055799 0.158993 -0.195819 -0.370459 -0.143784 -0.170785
-0.225677 -0.254700 0.065998 -0.609712 -0.255225 0.004496 0.137247 -0.050767 0.039368 -0.160978 -0.582568 -0.208560 -0.219071 -0.351732 0.246442 -0.348718 0.109130 -0.179637 -0.739603 -0.539277 -0.228109 -0.259611 -0.260579 0.212257 -0.531852 0.002541 0.166237 0.108849 0.078539 0.119625 0.188358 0.081163 -0.039955 -0.748474 -0.154889 0.066621 0.225649 0.333336 0.450578 0.477810 -0.068217 -0.199795 0.100773 -0.053963 0.337655 -0.050256 -0.094194 -0.131610 -0.760375 -0.477544 -0.224051 -0.126573 -0.866871 0.454720 -0.382160 0.479931 0.369527 0.372198 -0.403599 -0.411068 0.458512 -0.095135 -0.003705 -0.869691 -0.073992 -0.159754 -0.424562 0.521310 0.055129 -0.293189 0.031338 0.130056 0.349547 -0.353040 -0.137923 0.138591 -0.219199 0.439201 -0.474853 -0.131094 -0.279771 0.017217 0.366028 -0.554762 -0.009340 -0.641421 -0.109958 0.029953 0.057979 0.070348 0.142377 -0.097025 -0.402307 0.205118 0.009426 0.365860 0.065116 0.133717 0.063404 0.115456 0.067150 -0.204594 -0.211075 0.333240 0.218513 0.423518 -0.081533 -0.315336 -0.197393 -0.188218 0.080100 -0.430801 0.119318 -0.075877 -0.158773 -0.372476 0.010572 0.475987 -0.299454 0.086528 -0.272877 0.316378 -0.131786 0.380780 0.237557 -0.238928 0.075095 -0.677819
0.162434 -0.340321 -0.163018 -0.099255 -0.383449 -0.000924 -0.091649 0.134057 -0.057275 -0.288583 0.087174 -0.553529 -0.447333 -0.193410 -0.528729 -0.423863 0.405984 -0.299245 -0.153436 0.057334 -0.221694 -0.033828 -0.732212 -0.575106 0.353700 -0.367481 0.035541 0.359100 -0.092827 -0.055533 0.010466 0.274988 -0.020526 -0.232110 -0.166126 0.307527 0.315865 -0.456130 1.031405 0.173524 -0.721608 -0.753886 -0.267187 -0.328861 -0.431318 0.036522 -0.353607 -0.620448 -0.651602 0.368234 0.308944 0.269638 0.218692 0.090334 -0.250851 -0.184051 0.003207 -0.262670 -0.111190 0.046366 -0.489054 0.165565 0.017380 -0.536831 -0.171491 -0.387965 -0.164907 -0.313955 -0.250813 -0.015330 -0.081922 0.439319 0.391823 -0.257624 -0.768549 0.442911 0.355526 -0.330286 0.013754 -1.507507 -0.146072 -0.101168 0.311667 0.173744 0.339402 0.424829 -0.389307 0.464440 -0.110361 0.423980 0.200377 -0.640062 0.195217 0.083196 0.518903 -0.265342 -0.416588 0.549941 -0.120162 -0.590562 -0.197031 0.134746 0.342408 0.414400 0.276429 -0.375919 -0.253094 -0.117515 0.199315 -0.127031 -0.033490 0.076183 0.222293 -0.562047 -0.104888 -0.201844 -0.056428 0.097514 -0.072077 0.395920 -0.294720 -0.084811 -0.077616 -0.704958 0.492825 0.061414 -0.018277 0.035009
-0.485215 0.239331 -0.466446 -0.058867 0.314006 0.038216 0.114543 -0.329271 -0.170375 -0.143913 -0.527021 0.390918 0.143850 -0.134772 0.091285 -0.420402 0.497538 -0.062547 -0.392976 0.159080 0.407161 0.131252 -0.495637 0.108071 -0.823371 -0.269158 -0.263921 0.176263 0.357376 -0.590659 0.310624 -0.123232 -0.030500 -0.401602 -0.176030 -0.117713 -0.115341 -0.095880 0.151654 -0.310740 -0.116018 -0.374736 -0.116899 0.119161 -0.259275 -0.004709 0.136036 -0.003851 -0.132378 0.043415 0.214202 0.098108 0.080258 -0.014927 0.299606 0.233157 -0.189202 -0.022492 -0.321976 -0.209531 0.383687 -0.652735 0.219123 0.132781 -0.508790 0.330579 -0.224201 0.512964 -0.141655 -0.295045 -0.280770 -0.277989 0.273719 -0.240858 -0.374935 -0.100530 0.117473 0.131806 -0.467180 0.023813 -0.506194 0.007272 0.162855 0.184713 -0.706936 -0.138434 -0.334294 0.023419 -0.095418 0.209482 0.282174 -0.585886 -0.076252 0.034338 -0.328670 -0.095249 0.132657 -0.227559 -0.006184 0.194912 -0.078048 -0.123591 0.080316 -0.288033 -0.284174 -0.549182 -0.397961 -0.272761 0.408373 -0.142051 -0.253406 0.273459 -0.309431 -0.378910 0.087965 0.079067 -0.349827 -0.114352 -0.182238 -0.709745 -0.184919 -0.571949 0.262286 -0.263147 0.154455 -0.123828 -0.765576 0.015772
0.248692 -0.247333 0.182611 0.034161 0.004425 -0.220278 -0.238512 0.313429 -0.235845 0.145839 -0.249690 -0.140293 -0.244774 -0.524179 -0.302688 -0.301227 -0.526045 0.029752 0.127116 0.329484 -0.598666 0.298401 -0.275742 -0.763616 -0.137897 -0.004878 0.055119 0.095696 0.044012 0.347048 -0.114210 -0.332273 -0.443681 -0.788884 -0.245991 -0.192892 0.263912 -0.153440 -0.582103 -0.160749 -0.293730 -0.247589 0.311718 -0.197099 -0.214659 -0.407566 0.533985 -0.675892 0.428487 0.096850 0.345327 -0.008072 -0.634610 0.299046 0.130509 -0.015678 -0.030673 -0.146882 -0.178790 0.294371 -0.049610 0.068667 -0.125879 -0.646690 0.000330 -0.391142 -0.040924 -0.070324 -0.089381 0.345005 0.151699 0.005148 0.037049 -0.027450 0.252236 0.011887 0.069273 -0.464880 0.068633 -0.719388 0.025013 -0.227861 -0.478905 -0.305577 0.246218 -0.363881 -0.164081 -0.376107 -0.388163 -0.384889 0.166989 0.137919 -0.283117 -0.227709 0.246198 0.088287 -0.797007 -0.105012 -0.076275 0.080692 0.243983 -0.241118 0.246382 0.369010 0.170359 -0.154575 -0.010454 0.174114 0.212963 -0.151580 -0.049584 -1.105028 -0.031575 0.064624 0.061600 -0.240662 -0.239838 -0.360912 0.070266 0.053999 -0.219019 0.555597 -0.095991 -0.228418 0.260239 -0.361947 0.388508 -0.181947
-0.097351 0.083030 0.434574 -0.274411 -0.035714 0.013290 0.264189 0.254658 -0.057780 0.007260 0.268189 -0.478132 0.028772 0.008320 -0.014504 -0.335678 0.357461 0.020736 0.304405 -0.522456 -0.310517 -0.174894 -0.062255 -0.096510 -0.431406 0.093940 0.296808 -0.332049 -0.108217 -0.169972 -0.089681 0.445173 0.048653 0.037617 -0.624920 -0.066703 -0.188082 -0.005931 0.546978 -0.057512 0.040626 -0.365184 -0.113945 -0.301399 -0.032544 -0.606969 -0.175086 0.055995 -0.717617 0.352818 -0.400259 -0.045508 -0.177888 0.649625 0.121660 -0.641360 -0.252417 -0.580730 0.144249 0.220638 -0.268219 -0.073584 -0.608944 -0.165122 0.048740 0.366186 -0.353906 -0.464725 -0.256427 0.482752 0.349991 -0.532546 0.458726 -0.075175 0.581971 0.120544 0.147344 -0.193806 -0.057938 -0.790686 -0.081092 0.324879 0.059603 0.078477 0.020909 0.258661 -0.401774 0.024334 -0.218229 0.235497 0.326644 -0.012584 -0.306856 -0.141961 0.255746 0.177320 -0.170857 0.077010 0.022862 0.129856 0.026086 0.327680 -0.505464 0.291697 0.157143 -0.728138 0.221783 0.241190 -0.040444 0.031862 0.496830 -0.239739 0.202145 -0.612940 -0.359584 0.085615 -0.140449 0.259862 0.004543 0.043167 -0.236216 -0.226781 -0.056547 0.053843 -0.060140 0.142872 0.241582 -0.613716
0.326099 -0.238191 0.193230 -0.416061 0.325411 -0.119763 0.172819 0.438697 -0.248297 -0.126175 0.164195 -0.173005 -0.195699 -0.489079 -0.701981 -0.320173 0.282806 -0.159165 -0.232413 0.077440 0.124498 0.439510 -0.288133 0.422999 -0.218646 -0.005564 -0.387183 -0.089290 0.045583 -0.556926 -0.416539 0.201567 -0.455447 -0.011986 -0.137133 0.262258 0.303721 -0.242947 0.905058 -0.248582 0.038647 -0.368687 0.217590 -0.365854 -0.512382 0.190656 -0.492855 -0.245017 0.039201 0.037412 -0.130250 -0.059425 -0.183839 0.478527 0.187849 0.026657 -0.175541 -0.184506 0.076494 0.357789 -0.044003 0.017274 -0.116988 -0.204055 -0.113050 -0.098339 -0.073086 0.283995 -0.117053 -0.461203 -0.053660 0.054965 0.457684 -0.069081 -0.139018 0.418719 0.133027 0.259085 -0.201403 0.244084 -0.000083 0.031691 0.168478 -0.095525 -0.271373 -0.045306 -0.234937 0.855365 -0.065790 0.694321 0.103591 -0.225741 -0.104344 -0.070558 0.289665 -0.700036 0.064293 0.167522 0.074124 -0.018181 0.026947 -0.650425 -0.066946 0.404132 -0.024638 0.300525 -0.140911 -0.322767 0.083530 -0.000834 -0.083057 -0.080561 0.565229 -0.085130 -0.624552 -0.343379 0.066851 0.265459 -0.080313 -0.437680 -0.286304 0.245029 -0.042841 0.136315 0.509064 0.137541 -0.112720 -0.237937
-0.312045 0.256864 -0.569457 -0.426118 0.066010 0.001848 0.086548 -0.272492 -0.014455 0.181553 -0.559124 0.135904 -0.365462 -0.044884 -0.303000 -0.344626 0.005451 -0.255012 0.334227 -0.280933 0.041196 -0.200162 -1.132055 0.425778 0.121702 -0.274346 0.014372 0.089583 -0.020846 -0.002758 0.186705 -0.106652 -0.100679 0.004676 0.385367 0.129569 -0.240964 0.222358 -0.509739 -0.057610 -0.494737 0.177768 -0.376553 -0.000740 0.214869 -0.116845 0.182176 0.449299 -0.045329 0.099574 0.161412 -0.322121 0.669826 -0.633663 -0.176430 0.188379 0.239441 0.427123 0.110904 0.124709 0.112493 -0.865398 0.075876 0.117262 -0.869486 -0.028699 -0.165567 0.152346 -0.166003 0.179988 -0.389805 -0.229049 -0.080907 -0.248507 -0.107316 -0.575757 0.046633 0.054444 0.243448 0.111159 -0.389325 -0.177428 -0.074702 0.274475 0.055355 -0.622905 -0.597336 -0.277072 0.649413 0.287331 -0.156292 0.127609 -0.166108 -0.161891 -0.314282 -0.433895 0.188557 -0.716662 -0.045931 0.075204 -0.045593 -0.089113 -0.132549 0.131336 0.081648 -0.027424 0.397929 0.081031 0.277783 0.088637 0.621570 -0.034591 -0.151456 0.155264 -0.653683 0.552644 -0.044120 -0.219204 -0.015403 0.351804 -0.017146 0.039892 -0.404332 -0.059754 0.288980 -0.108299 -0.324459 -0.188157
0.056046 0.092508 -0.228498 0.007202 0.005588 0.001493 0.650681 0.265435 -0.277223 -0.091031 -0.116448 0.158671 -0.011545 0.158442 0.013530 0.054729 -0.045519 -0.101990 0.257195 -0.139735 -0.640622 -0.103465 0.295699 0.094085 -0.571735 -0.176943 -0.007619 0.173793 -0.326818 0.059463 0.056224 -0.370396 -0.051675 -0.264557 -0.226606 0.445163 0.221055 0.162915 -0.526444 0.061324 -0.066123 -0.294807 -0.460087 -0.467315 -0.235447 -0.288804 -0.496259 -0.340784 -0.255965 0.146573 0.116416 -0.287764 0.015077 -0.338631 -0.360689 -0.139609 0.317154 0.278546 0.315216 -0.187221 -0.032118 0.157076 -0.093774 0.028085 0.487817 -0.269472 0.151901 -0.280539 -0.039122 -0.162898 0.194997 -0.104263 -0.144593 0.125363 0.336829 0.211846 0.441311 0.291314 0.197700 -1.476255 0.172593 0.188860 -0.348558 0.110461 -0.172318 0.294903 -0.182016 0.026696 0.158893 0.454984 0.013409 -0.355641 -0.141643 -0.180202 0.070009 0.038339 0.343896 -0.606771 -0.167594 -0.183628 0.056841 -0.324808 -0.045938 0.301530 -0.057764 -0.255267 0.236214 0.094952 0.085772 -0.214266 -0.455164 0.352215 -0.046086 -0.566946 0.096441 0.067566 0.025290 0.661536 -0.263728 0.207302 0.113065 -0.093191 0.035261 -0.239781 -0.355515 -0.216436 0.303561 -0.331136
0.046239 -0.063313 -0.217288 -0.443611 -0.192448 -0.120783 -0.492620 0.047115 0.232048 -0.025932 0.071692 0.085483 -0.082745 -0.329866 -0.184465 -0.555057 0.048607 -0.404000 -0.167129 -0.262732 -0.088304 -0.485420 -0.178391 -0.165888 0.004909 0.067467 0.187550 0.162316 0.335647 0.317115 0.124748 0.048302 0.194263 -0.019385 -0.174356 -0.023463 -0.579058 -0.058608 -0.258125 0.347391 0.139766 -0.166663 0.121083 0.282286 -0.316247 0.224526 0.634323 0.195264 -0.045893 0.022649 -0.247936 -0.663157 -0.302774 0.067100 0.240340 -0.234452 -0.049507 -0.283071 0.273476 0.099801 -0.243534 0.312197 0.078080 -0.281092 -0.230202 0.412410 -0.600667 0.081102 -0.760710 -0.182791 -0.298079 -0.043843 -0.050568 -0.005539 0.101642 -0.007415 0.382070 0.097412 -0.123881 -0.266328 -0.552210 0.150171 -0.410567 0.524343 -0.269819 0.284987 -0.228046 0.054392 0.223137 -0.464301 -0.747918 0.360059 -0.743846 -0.124780 -0.313581 0.065801 0.036152 0.109293 0.017265 0.364693 -0.166391 -0.025751 0.282794 -0.852602 0.080772 -0.367703 -0.312587 -0.100123 0.224733 -0.141360 -0.618638 -0.010837 -0.692021 0.303470 0.003004 0.137540 -0.046228 -0.276652 -0.088814 -0.194495 -0.397875 -0.129258 0.303342 -0.156989 -1.161801 -0.138360 0.212929 -0.056188
-0.033498 0.111792 -0.472693 -0.460171 -0.394394 0.198934 0.142888 0.053228 0.084354 -0.413292 -0.087416 -0.290530 -0.380067 0.293969 -0.287627 -0.567322 -0.121260 -0.216820 -0.167094 0.199001 0.030801 0.097022 -0.637760 -0.041892 0.419004 0.109381 -0.111349 0.091541 0.038850 0.289016 -0.095007 0.076381 -0.254930 0.118460 -0.242280 -0.654905 -0.007515 -0.231958 -0.066057 -0.325660 -0.713843 -0.097711 0.070211 -0.215039 0.470421 -0.310230 0.257339 0.035334 0.407859 0.037415 0.256021 -0.076153 -0.393520 0.005174 0.197311 -0.124710 0.288847 0.694998 -0.116269 -0.024959 0.138473 -0.141722 0.234010 -0.713211 0.076426 0.089038 0.109938 0.286150 -0.261925 0.201092 -0.238221 -0.199358 -0.090783 0.277974 -0.183091 -0.102737 0.139508 -0.436221 -0.410080 -0.566144 0.189214 -0.440932 0.484338 -0.400454 -0.054868 0.047358 0.506905 -0.088132 0.128149 -0.547522 -0.046875 0.006141 0.136243 -0.356400 0.261272 -0.575995 0.125719 -0.115546 -0.139215 0.517954 -0.295389 0.215673 -0.000591 -0.048006 -0.524523 0.017146 -0.726056 -0.209402 -0.404575 0.209921 -0.175313 -0.135917 -0.022048 0.331454 -0.173115 0.169752 -0.116734 -0.359979 0.225447 -0.056852 -0.796604 0.449346 0.138417 -0.513457 0.147210 -0.129787 -0.421947 0.032052
0.110532 0.285434 0.320025 0.489800 -0.077516 -0.093228 -0.158400 -0.515128 0.008458 0.001265 -0.175017 0.366650 -0.311212 -0.070391 -0.284839 0.543100 0.544107 -0.121366 0.370946 -0.110036 -0.194212 -0.052103 -0.254616 0.227616 0.319293 -0.126408 -0.161262 0.251758 -0.429769 -0.391535 -0.607463 -0.629591 -0.221636 -0.485992 -0.035622 0.002607 -0.399654 0.214651 -0.406519 -0.037323 0.054962 -0.198521 0.271538 0.253514 0.047547 0.428632 0.058836 -0.189534 -0.041012 -0.070986 -0.386208 0.081899 -0.167054 -0.100334 0.093953 0.137633 0.205614 -0.207380 -0.108853 0.394916 -0.040290 0.428670 -0.246506 0.212533 0.139748 -0.737473 -0.325036 -0.483514 -0.117996 -0.076047 0.336887 -0.275379 -0.412345 0.269807 0.259508 -0.050506 -0.029384 0.079906 -0.696916 0.534240 -0.186215 -0.265179 0.045319 0.067819 0.012798 0.147559 0.504694 0.155964 -0.336936 -0.588809 0.033532 -0.327529 0.114044 0.064897 -0.494712 0.184476 0.006718 0.263674 0.073995 -0.525266 0.239153 0.319659 -0.009284 0.108083 -0.096569 -0.044878 -0.373185 -0.347361 0.178067 -0.065317 0.007834 -0.059212 0.548539 -0.516276 0.244491 -0.221669 0.051302 0.266923 -0.033315 0.456472 0.194163 -0.366658 -0.047319 -0.254238 0.579899 0.376799 -0.554362 -0.144204
0.603369 -0.107112 -0.227912 0.437597 -0.444773 0.038669 -0.265415 0.506198 -0.209503 0.362468 0.222545 -0.136891 -0.100735 -0.114709 -0.261774 0.254123 0.156972 0.496059 -0.141247 -0.162854 -0.078937 -0.003689 0.343374 -0.622396 -0.532828 1.109683 0.569684 -0.294114 -0.196736 0.601292 -0.758562 -0.177914 -0.071531 0.484319 0.292592 -0.224290 0.297355 -0.059892 0.133330 -0.517568 -0.235487 0.276165 0.060498 -0.293840 0.170163 -0.398543 -0.156707 0.095707 0.262346 0.100689 -0.014389 0.209770 -0.387234 -0.395372 -0.635146 0.077439 -0.427161 -0.156741 -0.253514 -0.317369 0.104921 -0.519085 0.025540 0.180217 -0.417772 -0.145597 -0.284627 -0.618652 -0.094254 -0.076170 0.193638 0.290200 -0.004820 -0.354210 0.610158 0.147751 0.023989 -0.412189 -0.235655 0.020384 -0.112529 -0.341282 -0.319410 -0.727318 0.087951 -0.261728 -0.132054 0.013507 0.488364 0.073274 -0.240487 -0.856838 0.034757 -0.030474 -0.351491 -0.312842 0.140963 0.335681 0.113414 -0.234313 -0.099635 0.365357 -0.782537 -0.363283 0.128391 0.308065 -0.490003 0.111142 -0.194756 -0.608684 0.190214 -0.015503 -0.677277 0.223734 0.156118 -0.045882 -0.006049 -0.046092 0.393519 0.170590 0.053396 0.234052 0.456149 -0.461380 -0.217145 -0.812996 -0.114023 -0.432732
-0.486863 -0.581401 -0.114004 0.341431 -0.184216 -0.071639 0.056923 -0.279375 0.169608 0.284343 -0.078623 0.251566 -0.098007 0.110013 0.133533 0.205684 -0.127248 0.023620 -0.114541 -0.191348 0.198935 -0.286547 0.874046 0.764371 0.070932 -0.184682 0.109758 -0.275429 0.204485 -0.961293 -0.308029 -0.522410 -0.243435 0.760994 -0.019932 -0.515087 -0.308709 -0.203541 -0.115836 0.271004 -0.290006 -0.275317 -0.204398 0.176330 0.460909 -0.197097 -0.283356 0.152669 -0.121135 0.101444 0.054819 0.037855 0.046797 -0.052322 -0.628805 -0.294261 0.047488 -0.104570 -0.097619 0.575690 -0.157124 0.064225 -0.379178 0.175757 -0.864560 0.155839 0.157832 -0.008851 -0.546100 -0.329586 -0.295189 0.211372 -0.471061 -0.341999 0.472125 0.376965 -0.015931 -0.451315 0.082507 -0.123958 2.203441 -2.593384 -0.253467 -0.219512 -0.241130 0.039107 -0.119769 0.106394 -0.000295 -0.409880 0.221679 -0.357832 -0.199159 -0.005308 0.324002 -0.193411 -0.396864 0.470268 0.156566 -0.538104 -0.524959 -0.207994 -0.291827 0.255168 0.735618 0.185111 0.324589 0.018811 0.215567 -0.401927 0.193635 -0.153523 -0.521831 0.541167 -0.380353 -0.645606 0.015332 0.633957 -0.007525 -0.310473 -0.017797 -0.599144 -0.671849 0.205146 -0.467179 -0.291517 -0.092682 -0.301169
-0.185297 0.401562 0.634446 0.061245 0.394760 -0.145360 0.121608 0.209516 -0.084276 -0.462240 0.096844 -0.444454 -0.003032 0.119306 0.379429 -0.192582 0.442400 0.421219 -0.256901 0.256118 -0.035553 0.242028 -0.066306 -0.036709 -0.077192 0.014416 0.103403 0.274646 0.121747 -0.299651 0.263054 -0.535188 -0.245566 0.327989 -0.242449 0.215639 -0.443710 -0.097494 -0.072352 0.280666 -0.358475 -0.230781 0.057890 -0.459022 0.307547 -0.343502 -0.132199 -0.000011 0.097811 0.083705 -0.767820 0.094054 0.388118 0.035625 -0.127188 -0.115272 0.172733 -0.073970 -0.139895 -0.749243 0.216612 -0.001363 -0.065754 0.101243 0.431955 0.089734 0.062272 0.246498 0.110595 -0.034395 -0.498783 0.177082 -0.127214 -0.045576 0.229012 -0.024594 -0.426943 0.027277 0.054891 -0.573029 -0.344921 0.112170 -0.203941 -0.558450 -0.289842 -0.029110 0.018727 -0.110474 -0.498939 0.446993 -0.284632 -0.735716 0.458780 0.374833 -0.211305 -0.149506 0.028403 -0.182839 0.032381 0.306849 0.185118 -0.143393 -0.039834 -0.517910 0.153430 0.028365 -0.183925 0.144678 0.200599 -0.006881 -0.481994 -0.071154 -0.198894 -0.155737 -0.147290 -0.237486 0.018714 -0.260613 0.051765 -0.108091 -0.632733 -0.209448 0.104904 -0.196459 0.124231 -0.039194 -0.110968 0.164265
0.072206 -0.180510 0.018910 -0.830491 0.161983 -0.027181 -0.427186 0.007447 -0.097123 -0.290516 -0.515718 -0.296564 0.250920 0.008345 -0.607391 -0.510704 -0.297459 -0.453974 0.001046 -0.698983 -0.360661 0.054303 -0.076881 -0.505180 0.099416 0.242235 -0.169018 -0.256985 -0.062098 0.419720 -0.508466 -0.033503 -0.223291 -0.265361 0.274044 -0.157713 0.199310 0.025258 0.213816 0.408784 -0.232283 -0.979355 0.204161 -0.900292 -0.753788 -0.341176 -0.021146 0.335761 -0.476414 0.235805 -0.050679 0.309099 -0.147636 -0.718473 -0.030748 0.212786 0.601152 -0.224646 0.130018 0.096003 -0.397802 0.357333 0.340440 -0.640803 0.046267 -0.000988 0.103689 0.167959 0.216261 -0.103605 0.026453 -0.362967 -0.046154 0.106694 -0.501666 -0.068889 -0.011056 0.159602 0.373286 -0.846651 -0.330900 -0.626789 0.456049 -0.087809 0.149336 -0.335951 0.154931 0.298005 0.113882 -0.675834 0.474229 0.195124 0.495862 -0.207922 -0.029317 0.177420 -0.183023 -0.663285 -0.000931 -0.770816 0.306431 -0.352524 0.047754 -0.456018 -0.536044 0.348199 -0.124771 -0.127397 -0.022809 -0.433006 -0.301813 0.096920 -0.170813 0.017264 -0.057591 -0.003921 -0.093963 0.145228 -0.377269 -0.043655 -0.172511 0.490835 -0.500172 -0.102638 0.046077 -0.442301 0.422002 0.067320
-0.455142 0.142941 -0.040634 0.129553 0.258802 -0.115421 -0.036609 -0.261182 -0.197273 -0.630671 0.079223 -0.246973 0.097490 0.209845 -0.113464 -0.355706 0.113252 0.014962 0.027305 -0.191421 -0.241897 -0.256228 -0.439079 -0.597821 0.185811 -0.045678 -0.107230 -0.466620 0.192259 -0.212623 0.161335 0.020378 -0.505560 -0.178388 -0.461068 -0.413838 -0.167319 0.336454 1.044412 -0.337240 0.068774 -0.837759 0.063191 -0.597989 0.081918 -0.147696 -0.237684 -0.265764 -0.098053 -0.018862 -0.007230 -0.191543 0.065762 0.444358 0.081772 -0.911292 0.114467 0.084480 -0.147863 -0.218765 -0.094790 0.466616 -0.513165 -0.398452 0.274787 0.382399 -0.134580 -0.401029 0.040247 -0.132296 -0.460519 0.293975 -0.114876 -0.103222 -0.280637 0.284290 0.284323 0.314499 -0.203344 -1.439010 -0.070159 -0.052633 -0.181635 0.096121 0.366394 0.396876 0.061389 0.794791 0.155198 -0.152140 -0.282234 -0.519742 0.267516 0.368844 0.548304 0.041777 -0.362567 0.216828 0.027647 0.187945 -0.112207 0.262154 -0.148864 0.078177 -0.181172 -0.211842 0.101557 0.132268 0.171196 0.073076 0.279753 -0.420717 0.322425 -0.263753 0.220211 0.185407 -0.056800 -0.108207 -0.031474 0.276347 -0.322290 -0.090543 0.301047 0.073481 -0.098357 -0.437510 -0.282450 -0.680780
-0.370227 0.313910 0.294250 -0.606018 0.206128 -0.083281 0.044955 -0.013813 -0.780676 0.105187 -0.120881 -0.049905 0.185785 -0.133156 0.103547 0.356127 0.237458 -0.129270 0.201335 0.111528 0.162896 0.058114 0.290580 0.000545 0.135758 0.199680 -0.062399 0.233322 -0.214787 -0.037990 -0.125159 -0.211266 0.419424 -0.400087 0.028981 -0.148455 0.305832 0.702236 0.322463 0.051001 -0.074182 0.104829 -0.434849 0.010763 -0.389052 0.365587 -0.047027 -0.013239 -0.104244 0.145916 0.251400 0.249555 -0.972832 0.494213 -0.293041 0.344002 0.054518 -0.274664 -0.283899 -0.711432 -0.013671 -0.418488 -0.303741 -0.089891 -0.021787 0.202848 -0.047678 -0.074582 0.128017 0.218889 -0.436443 0.271878 0.255636 0.208479 0.356924 0.096952 -0.259241 0.390767 -0.645178 0.030160 -1.149813 -0.097646 0.370373 0.158086 -0.037043 0.465368 0.223022 0.318025 -0.339551 0.294037 -0.156347 -0.035610 -0.118247 -0.329943 -0.121597 0.400173 -0.003186 -0.257258 -0.312490 -0.065516 -0.000174 -0.328467 -0.095024 0.206189 -0.247016 -0.368419 -0.905329 -0.065576 0.182611 0.103408 -0.002885 -0.582135 0.082772 -0.360399 -0.013236 -0.059784 0.120894 -0.300709 -0.245126 -0.216672 0.117615 -0.378417 -0.153006 0.376257 -0.750449 0.545702 -0.393107 -0.121150
-1.018377 -0.149952 0.162370 -0.240113 -0.309857 -0.262051 -0.345840 -0.276817 0.123816 -0.016758 0.305184 0.264484 -0.012551 0.211117 -0.307114 -0.763233 0.460078 -0.068845 -0.262238 -0.148155 0.384355 -0.231602 -0.387276 0.265497 0.140027 -0.301011 -0.549287 0.182953 0.144119 -0.151191 -0.341581 0.173357 -0.475880 0.113409 -0.038139 0.092671 0.323854 -0.287335 0.242655 0.171832 -0.155191 -0.155152 -0.428183 0.048814 -0.330467 0.365377 -0.219594 -0.911367 -0.070863 0.075648 -0.008929 -0.407384 0.227033 0.388660 -0.368784 0.572589 0.156765 0.087203 -0.327836 -0.450476 -0.322948 -0.141301 0.201789 -0.448581 -0.266904 0.175293 0.178193 0.284361 0.025324 -0.044067 -0.337557 0.441970 0.206376 -0.054589 -0.423039 0.675625 -0.224485 -0.459663 -0.651452 -0.154532 -0.248306 -0.399620 -0.012410 0.411005 -0.117975 0.119623 0.216157 -0.424009 -0.283280 0.265030 0.120965 -0.357964 0.219662 -0.144911 -0.422153 -0.409378 -0.464627 -0.382189 0.043100 -0.292296 -0.087326 -0.113031 -0.291202 0.191657 0.052842 0.087804 -0.076287 0.227174 -0.535171 0.240364 -0.303195 0.469186 0.491716 -0.170822 0.206242 0.358821 0.292835 -0.148677 -0.043947 -0.470789 -0.745287 0.058987 -0.358376 -0.205124 -0.244215 0.371545 0.266446 -0.251117
-0.182176 0.022947 0.033811 -0.320698 0.213314 -0.185949 -0.165725 0.219843 0.293359 0.055767 0.168928 -0.022438 -0.313688 -0.110170 0.274503 0.079958 0.011036 -0.016127 0.078810 -0.271125 -0.004154 -0.714457 -0.029819 -0.043505 -0.303497 -0.040763 -0.132580 -0.327296 -0.341855 0.296030 0.234667 -0.236627 -0.308936 -0.241896 -0.372641 -0.516231 0.317991 0.014188 0.208697 0.040305 0.174084 0.253285 0.107947 0.255744 0.330981 0.145724 -0.011895 0.049389 -0.061472 -0.491297 -0.130140 0.528008 -0.101659 -0.008289 -0.148673 0.059100 -0.324568 -0.154592 -0.092555 -0.185105 0.062518 -0.085745 -0.929513 -0.848084 -0.091941 -0.709917 0.048219 0.053323 0.407086 -0.222285 0.288574 0.136298 -0.150136 -0.019788 0.198634 0.285319 0.119068 0.188865 0.049334 -0.213751 0.266848 -0.204441 -0.374415 0.136553 -0.053944 0.159393 -0.689372 0.262718 -0.849702 0.248649 -0.268277 -0.086559 -0.006299 -0.302362 -0.316391 -0.230593 -0.466570 0.501158 -0.182849 -0.027755 -0.487066 -0.530393 0.012958 0.197599 0.583321 0.799372 -0.029003 -0.029617 -0.219705 -0.207726 0.180412 -0.187437 -0.080695 -0.365895 -0.268057 -0.269458 0.116101 0.244107 -0.408853 -0.036167 0.008285 -0.401894 -0.301246 -0.012629 0.052940 0.170655 0.207475 0.170708
0.459011 0.310992 -0.243693 0.585052 -0.221165 -0.168131 0.392730 0.155084 -0.157405 0.081708 0.362064 0.021082 -0.474173 -0.563418 -0.122472 -0.267022 -0.338987 0.527991 -0.314381 -0.526076 0.007397 0.098271 -0.613372 -0.023113 0.132695 0.236189 0.000683 0.004182 0.447041 0.039585 0.103569 -0.239453 -0.410690 0.091050 0.115403 -0.202356 -0.198729 -0.118614 -0.119832 -0.182705 -0.099676 -0.519529 -0.475038 -0.181288 -0.003909 0.225359 0.182894 0.383676 0.265257 -0.097567 0.322303 -0.555217 -0.028105 -0.195462 -0.090521 -0.614892 -0.188709 0.089747 -0.025307 -0.053790 0.267283 -0.046600 0.083628 0.189082 -0.009702 -0.899300 0.034105 -0.083112 0.643504 -0.276149 -0.705689 0.044968 0.067665 -0.866728 0.433448 0.059267 -0.228439 -0.230054 -0.111122 -0.381335 -0.512532 -0.342316 -0.425755 0.065770 -0.309865 -0.541442 -0.182581 0.041312 0.282490 -0.582459 -0.088322 -0.300480 0.106255 0.162766 -0.050474 0.053657 -0.316170 0.082207 0.111057 0.092885 0.075534 0.398925 -0.658197 -0.137956 -0.270220 0.088127 0.020438 0.116070 -0.399604 0.104467 0.458870 0.223665 0.084726 0.013665 -0.050300 -0.084746 -0.260282 -0.114638 -0.229173 0.249442 -0.311639 0.167934 0.311693 0.047026 -1.020333 -0.076486 -0.242302 0.512749
-0.087500 -0.074915 0.204791 -0.301619 -0.399111 0.099314 -0.380257 -0.197892 -0.095232 0.066385 0.434543 -0.045878 -0.148599 -0.386395 -0.240778 -0.000371 0.202236 -0.061856 -0.029200 0.139017 0.025117 -0.166203 0.050655 0.094406 0.128932 -0.178240 -0.568968 0.010672 0.226821 -0.195800 0.009016 -0.647709 0.660997 -0.128486 -0.561971 -0.214034 -0.254868 -0.000227 0.419492 -0.057004 0.106405 -0.514578 -0.175531 -0.021798 -0.099274 0.048148 0.311478 -0.507523 -0.683915 -0.121790 0.080302 -0.347019 -0.232910 0.324275 -0.136355 0.071248 -0.469883 0.664840 -0.442283 0.204517 -0.196806 -0.469498 -0.308495 -0.149375 -0.361087 0.093874 0.335644 -0.467531 -0.356462 0.199030 -0.072261 -0.443164 0.516784 -0.021293 -0.396706 -0.260971 0.187069 0.044690 -0.157308 -0.392672 0.025933 0.088956 -0.044219 -0.426387 0.029228 0.307614 0.309555 0.510111 -0.140560 0.427129 0.171777 -0.221626 -0.115777 0.063915 0.212809 0.038610 -0.359191 -0.349792 0.071293 -0.516987 -0.175009 0.197756 0.000402 0.643277 0.255575 -0.032999 -0.163378 -0.428080 -0.059251 -0.054907 -0.075140 -0.163770 0.154204 -0.275245 0.222917 -0.712382 -0.159728 -0.173853 -0.022299 0.191737 -0.015539 0.209943 -0.039971 0.356394 -0.218313 0.209458 0.388255 -0.313133
-0.642691 0.101350 0.367170 -0.039206 -0.362904 0.086060 0.166792 0.068710 0.072095 0.088787 0.490076 0.305656 -0.881243 0.053976 -0.080403 -0.047329 -0.447189 -0.452397 0.361193 0.376747 -0.255048 0.222058 0.278915 -0.294320 0.346620 -0.345212 0.287479 -0.204890 0.291830 0.268086 0.040438 -0.199846 -0.076641 -0.299208 -0.068364 -0.132332 0.182886 0.571333 -0.365943 0.123222 -0.354280 0.274299 -0.407686 0.104670 -0.153288 -0.147633 -0.431601 0.313383 0.005517 0.330095 0.031672 0.241995 0.327417 -0.291297 0.215447 -0.694156 0.595799 -0.260091 0.437461 -0.281583 -0.288905 -0.378645 0.192388 -0.024766 0.185107 -0.447365 -0.346108 0.124625 0.096357 -0.225571 -0.083364 0.465094 -0.371912 0.111826 -0.118835 0.316700 0.459726 0.041323 -0.276728 0.203189 0.169310 0.311348 -0.003325 0.055127 0.122528 -0.011420 0.166944 -0.489177 -0.091237 0.244986 -0.072201 -0.635847 -0.356432 -0.231764 -0.586593 0.029635 -0.544432 0.051411 -0.085259 -0.036017 0.077947 -0.535405 0.191240 0.318415 -0.136041 -0.462649 -0.080604 -0.210565 0.213097 0.224407 -0.500417 0.211142 0.062110 -0.119135 -0.003747 0.376285 -0.120033 0.216369 0.034886 -0.497536 -0.123011 -0.197808 -0.472423 -0.312678 0.142550 -0.393128 -0.295998 -0.649773
0.026622 0.550159 0.233981 -0.293771 -0.354981 -0.172308 -0.218145 0.310529 0.278486 -0.328242 0.020446 -0.088100 -0.488618 -0.400454 0.099273 0.100227 0.067539 0.067492 -0.369309 -0.087664 -0.004903 0.207751 -0.126068 -0.078866 0.361334 -0.249640 -0.416213 0.183657 -0.534245 -0.576446 0.219953 -0.532686 0.255143 -0.348529 -0.286331 0.042357 -0.071473 0.132917 -0.137142 0.109330 0.242098 0.160936 0.152034 0.070684 -0.128944 -0.008202 0.312658 -0.754882 -0.135484 -0.259145 0.533271 0.061601 -0.436787 -0.260850 0.172152 -0.108509 -0.041596 -0.405833 -0.581835 -0.264410 0.117490 -0.476562 -0.313233 0.195722 0.119418 -0.240665 0.388904 0.514422 -0.220112 0.101408 0.043261 0.355867 -0.137980 -0.255184 -0.118816 -0.151889 0.386654 0.380241 0.223618 -0.356100 -0.229301 0.102296 0.104478 -0.568386 0.120238 0.638123 -0.035261 0.125458 -0.112922 -0.023402 0.097338 0.267159 0.243376 0.494746 -0.370278 -0.126659 0.014704 -0.247193 0.070547 -0.155673 -0.156938 -0.150811 0.350140 0.385703 -0.439225 -0.359245 -0.406130 -0.011525 0.369707 0.165099 0.254940 -0.376860 0.536723 0.078078 0.533769 -0.601680 0.159955 0.389615 0.000303 -0.408721 0.060220 -0.010452 0.209639 0.358828 -0.049941 0.152142 0.078911 0.074900
0.239730 -0.462381 -0.178087 -0.155668 0.110098 -0.040595 0.375629 0.134243 -0.092961 -0.094483 0.002656 -0.672939 -0.134393 -0.599992 -0.163305 -0.297055 -0.007671 -0.307650 -0.300945 0.122248 -0.050140 0.148015 0.290045 -0.367791 -0.071495 0.305472 -0.262578 -0.107117 -0.324274 0.277595 0.165402 -0.272276 0.120315 0.298715 0.464891 -0.339451 0.210472 -0.175346 -0.248297 0.625921 -0.286323 -0.245657 0.329441 0.444356 0.279397 -0.252224 0.110028 0.114950 -0.050793 -0.282929 -0.022659 0.031962 -0.410329 -0.660262 -0.011559 0.301839 0.273552 0.207949 0.212108 0.277309 -0.473981 0.096373 0.351574 -0.105661 -0.875406 0.381598 -0.452363 0.078960 -0.223227 0.087697 0.208597 -0.181861 0.197195 -0.581298 -0.090944 -0.159895 -0.150056 -0.042519 -0.358547 -0.570781 0.050280 -0.603399 -0.005088 -0.159633 -0.012822 -0.051590 0.019078 -0.214960 -0.240327 -0.640771 -0.131460 0.208393 -0.279450 -0.063574 -0.086572 0.233461 0.211036 -0.344237 -0.156702 -0.347031 -0.142816 -0.174628 -0.075195 -0.078171 -0.070819 -0.093709 -0.217897 -0.435116 0.363458 -0.217621 -0.624772 0.144428 -0.292753 -0.049455 0.330512 0.043784 0.024171 -0.048253 0.272210 0.005985 0.018019 0.109490 -0.275974 -0.614362 -0.145542 0.153524 0.305131 0.082980
-0.149972 -0.220424 -0.144945 0.281714 0.270990 -0.192478 -0.198460 0.090656 0.237525 -0.525045 0.091664 0.370753 -0.421454 0.567866 0.252602 -0.339277 -0.078893 0.321959 -0.261094 -0.457886 0.454695 -0.296628 -0.458633 -0.376403 -0.201069 0.254487 0.082828 -0.189377 0.557920 -0.262748 0.364440 -0.178945 0.005627 0.458038 -0.081774 -0.250452 -0.549051 0.125724 -0.560611 -0.081978 -0.021460 -0.130143 0.040059 -0.334424 -0.121135 0.363737 -0.063220 -0.060705 -0.134221 -0.157566 0.070173 -0.514714 -0.121767 -0.553176 -0.327248 -0.269922 -0.309024 0.308054 0.013160 -0.265309 -0.403844 0.093036 0.069933 -0.159021 0.218976 -0.199317 -0.637373 -0.046796 -0.435292 -0.305815 0.079619 -0.400293 -0.086575 -0.394075 -0.260562 -0.517252 -0.118786 -0.319453 0.189954 -0.004571 0.167663 0.116805 0.276694 0.092097 0.081114 -0.033320 -0.446141 0.498244 0.279245 -0.276798 -0.827672 0.006714 0.042090 0.743238 0.531874 -0.137202 -0.212140 -0.182700 0.004133 0.139910 -0.816407 -0.101891 0.270818 -0.468249 -0.570939 0.109789 0.214761 0.216733 -0.440051 0.067490 -0.060208 0.181444 -0.197999 -0.331544 -0.125571 0.104735 -0.265020 0.117219 0.304105 -0.052188 -0.141738 -0.012054 -0.114399 -0.095327 -0.245676 -0.123922 0.471639 0.170658
-0.053349 -0.275027 0.203818 -0.142909 -0.259369 -0.034051 0.443912 -0.241438 -0.013185 -0.092999 -0.025529 0.154003 0.225635 -0.138195 0.266203 -0.338625 -0.445023 -0.032742 0.342266 -0.476492 0.579502 -0.236262 0.041821 -0.265970 0.027070 -0.450109 0.202136 -0.831795 0.378022 0.227839 0.277331 -0.386774 0.170338 -0.190520 -0.205455 -0.000620 -0.191830 -0.075311 -0.310616 -0.581137 -0.359159 -0.347092 -0.176010 -0.520953 -0.301531 -0.074901 0.009810 -0.107704 -0.495440 -0.203111 0.076882 -0.150069 -0.046969 0.279804 -0.032615 0.523154 -0.325956 -0.174253 -0.081681 0.168621 -0.072783 -0.114828 -0.184151 -0.027354 -0.552255 -0.041048 0.300262 0.379876 0.343486 0.308536 0.018951 0.214771 0.212663 -0.356025 -0.356660 -0.245600 0.107925 0.105294 -0.043331 0.267880 -0.236020 -0.121837 0.125717 -0.345906 -0.050578 -0.260905 0.255347 -0.426890 0.004125 -0.447059 0.392553 0.248582 0.324540 0.027783 -0.384721 -1.108447 0.020071 -0.175027 0.213519 0.051607 -0.030379 0.224002 -0.005553 0.440516 -0.320678 -0.107433 0.161532 -0.110159 -0.037735 -0.372993 0.180457 -0.276832 -0.349795 0.245502 -0.127600 0.195027 0.098510 -0.345909 0.368647 -0.248759 -0.323145 0.258486 0.035516 -0.310590 0.747271 -0.757130 0.098145 0.333033
-0.629588 0.020370 -0.271609 -0.246584 0.010927 -0.025902 -0.125021 -0.305402 -0.077518 0.136579 -0.462014 0.026781 0.017078 0.097177 -0.053905 0.024436 0.338950 0.224647 0.183723 0.208475 0.268366 0.325176 -0.231034 0.074971 0.372905 0.042952 -0.218918 0.017868 -0.418677 -0.558301 -0.227670 0.150491 -0.048478 -0.197188 0.047486 -0.240034 -0.063248 0.167164 0.409486 0.350352 0.254806 -0.511013 -0.311449 0.046583 -0.155741 0.303545 -0.068357 -0.528013 0.402419 -0.079312 -0.411062 0.593629 -0.246140 0.531391 -0.607350 0.056228 0.155404 -0.248289 -0.927649 0.074226 0.064327 0.188950 -0.075542 -0.728909 -0.089747 0.180896 -0.751265 0.711325 -0.588053 -0.368207 -0.048957 0.127870 -0.213158 0.448673 -0.118596 -0.504071 0.180518 -0.051523 0.026342 0.148355 0.405648 0.282771 -0.167759 -0.288431 -0.414991 0.193698 0.067423 -0.054352 -0.497560 -0.171965 -0.659742 -0.365588 -0.002748 0.117033 -0.150779 0.031891 -0.282326 -0.213648 0.156200 -0.300307 -0.355818 -0.210017 -0.178348 0.012461 0.325721 -0.354306 0.085003 0.294118 0.751665 -0.085978 -0.049777 0.007376 0.183563 -0.176549 0.039405 -0.390756 0.008383 0.011245 -0.219506 -0.011327 -0.315223 -0.182758 0.086381 -0.039071 -0.025263 0.220445 -0.525065 0.069328
0.018269 0.070846 0.223012 0.194610 0.222416 0.057831 -0.114301 0.126469 0.131485 0.374805 0.118713 0.136784 -0.483624 -0.004134 0.363166 -0.052911 -0.217040 -0.044358 0.010938 0.347729 0.042583 -0.091749 -0.256916 0.214845 0.080581 0.396702 -0.026918 -0.197494 0.066834 0.011097 -0.060847 -0.563357 0.154763 -0.265978 0.122397 0.109654 0.496696 0.047778 -1.762458 -0.052738 0.219921 0.106040 0.003653 0.182918 0.246488 0.437556 -0.210691 0.159324 -0.032334 0.293666 -0.382430 0.228023 0.393018 -0.817979 -0.139179 -0.152129 0.050921 0.195554 0.170997 0.469380 0.323273 0.118727 -0.169901 -0.857406 0.330834 0.261662 -0.279770 -0.302808 0.164965 -0.080051 0.405129 0.016803 -0.054786 0.084838 -0.161574 0.347506 0.029771 -0.337004 -0.315363 -0.123911 -0.488990 -0.094205 -0.202299 0.151340 -0.175769 -0.137905 -0.281697 -0.982641 -0.219455 -0.473672 0.316347 -0.021488 -0.246150 -0.075723 0.437220 -0.022897 -0.849200 0.154515 0.027701 -0.305475 -0.023014 0.098392 0.089277 -0.095066 0.248193 0.233763 0.466268 -0.588050 0.241748 0.226931 -0.003287 0.128524 -0.055377 -0.161423 -0.412239 -0.192651 -0.049579 -0.498103 0.083707 0.167693 -0.274410 -0.019389 -0.336535 -0.130200 -0.185181 0.092104 0.063839 0.085630
0.126961 -0.539370 0.356583 0.192791 0.357381 -0.111318 0.165364 -0.315267 -0.555352 0.274052 0.112244 0.202190 -0.023314 -0.722847 0.375380 -0.459985 0.395916 -0.388816 -0.131905 -0.467555 -0.024290 -0.064087 -0.671601 -0.147883 -0.733904 0.013155 -0.192520 0.054591 -0.278089 0.328993 -0.182486 -0.136155 -0.277628 -0.076703 -0.088750 0.301099 0.005738 0.031537 0.091423 0.069715 -0.144787 0.316704 0.103116 -0.313330 -0.502097 0.017939 0.009399 -0.235240 -0.154913 0.524815 0.031632 0.280507 0.189764 -0.734393 -0.150077 -0.026149 -0.136145 -0.440336 -0.093928 0.066993 -0.170448 0.205280 -0.318626 -0.147435 -0.210776 -0.271715 0.172320 0.353431 -0.047496 -0.136570 -0.306785 0.205183 0.390198 -0.249250 -0.658662 -0.664202 -0.352281 0.266279 -0.082780 -0.211216 0.109787 0.164975 -0.568573 -0.246594 0.157335 0.176632 -0.465075 0.281029 -0.176762 0.034261 0.081899 0.133256 -0.008663 0.447096 0.234803 -0.067803 0.296459 -0.499820 -0.228455 -0.504186 -0.037104 0.000191 -0.141764 -0.739806 -0.105439 -0.142132 0.257878 -0.545281 -0.518414 0.263577 0.061476 0.146587 0.264272 -0.342841 -0.209683 -0.232240 -0.016909 -0.172991 0.231676 0.033629 -0.327282 0.350138 -0.384162 -0.159277 0.149895 0.460963 0.379755 0.134705
-0.351479 0.020839 0.549526 -0.426220 0.075957 0.198134 0.004312 -0.162960 -0.154018 0.447456 -0.058448 -0.083886 0.314699 0.232590 0.300709 -0.012211 -0.314024 0.229414 0.411267 -0.035849 0.184358 -0.041498 -0.202767 -0.202360 0.500088 0.293072 0.054547 -0.159720 0.385214 0.129472 -0.394588 0.102708 -0.111782 0.393553 -0.450878 -0.148609 0.070361 0.083764 -1.131651 0.332056 -0.252713 0.210920 -0.904818 0.344186 0.177024 -0.087473 -0.091070 -0.059311 -0.307164 -0.261994 -0.240541 -0.452096 0.028019 -1.058528 -0.259413 -0.183107 0.190642 0.022149 -0.061589 -0.301951 0.140103 -0.020417 0.067200 -0.337124 -0.121368 -0.260002 -0.352501 0.214324 -0.235235 -0.120670 0.223794 0.344210 -0.648642 0.197724 -0.086395 -0.352912 -0.145109 -0.199930 0.250185 -0.315956 -0.037837 0.524691 -0.167401 0.205423 -0.048314 -0.261916 -0.194057 -0.946275 0.149664 -1.185468 -0.380052 -0.292760 0.027509 0.405010 0.220938 0.035411 -0.701948 0.236960 0.204104 -0.027042 0.101305 0.283024 -0.128526 -0.226519 -0.133792 0.170688 0.283964 -0.192808 -0.190637 -0.409909 0.141366 0.346519 0.374040 -0.647986 0.338789 -0.517804 -0.030237 0.190255 -0.064743 -0.595797 0.278462 -0.162203 -0.358276 0.017689 -0.386365 -0.178799 0.496693 -0.541148
0.124092 0.794549 0.280471 0.065823 -0.020314 0.085851 0.051676 0.267462 -0.320977 0.045067 0.288753 0.102881 -0.067221 0.048103 -0.517343 -0.971569 -0.263185 -0.299509 -0.137063 0.283048 -0.081849 0.105519 -0.193197 0.144395 -0.158010 -0.222094 -0.221833 -0.451699 -0.067209 -0.483261 -0.208699 -0.193188 -0.097051 -0.000428 -0.463297 -0.367605 0.262449 -0.178263 0.605288 -0.244049 -0.222557 0.243333 -0.531475 0.384078 -0.170430 0.134133 -0.004656 0.042802 -0.192539 -0.634989 -0.177933 -0.250349 -0.045009 1.264364 -0.556786 -0.333390 -0.716066 0.090879 0.071014 -0.573520 0.153344 -0.106866 -0.270370 0.178128 -0.023130 -0.133494 -0.121593 -0.492158 -0.148059 -0.149089 -0.243625 0.712759 -0.182161 -1.332287 -0.003934 -0.045837 -0.093190 -0.077267 -0.313441 -1.402818 -0.078737 0.216419 -0.530722 -0.000816 -0.045315 0.076884 -0.127269 0.503464 0.147773 0.572731 -0.064413 -0.305379 -0.096120 -0.545826 0.028150 0.142898 -0.815796 0.054646 0.143597 -0.158522 0.033880 0.222050 0.280012 -0.133512 -0.183167 -0.235650 0.306603 -0.040262 1.209412 0.005888 0.188047 0.262623 -0.471189 -0.806253 0.246834 -0.188474 0.142048 -0.076433 -0.067591 -0.491935 0.475601 0.133065 0.125925 -0.192090 -0.019974 -0.267522 -0.215868 -0.574673
-0.289791 0.115891 -0.814348 -0.528181 -0.120544 0.046120 -0.577035 0.154008 -0.122744 -0.854416 -0.151630 0.080527 0.235108 -0.182128 -0.229381 -0.056234 -0.560553 -0.363142 -0.030823 0.101024 0.067248 -0.306564 -0.521297 -0.136430 -0.300384 -0.494240 -0.328851 -0.179933 0.141581 0.340128 -0.263901 -0.141057 -0.395097 -0.444330 0.139958 -0.296426 0.207882 0.147800 -0.086460 0.103478 0.091530 -0.232938 -0.092419 -0.119759 -0.014336 0.066619 -0.270305 -0.024905 0.131208 -0.466517 0.024178 -0.030832 0.075097 0.297001 0.464571 -0.564957 0.201711 0.019123 0.325767 -0.122955 -0.171095 -0.098441 -0.494333 -0.096654 0.039825 0.095077 0.220757 -0.267750 0.046332 -0.126459 0.358947 0.186061 -0.194744 -0.352013 -1.093636 0.210347 0.474656 -0.011796 0.247336 0.393968 -0.240608 -0.237994 -0.470901 -0.097511 -0.122282 -0.006188 0.297862 0.262580 0.289594 -0.394876 -0.296043 -0.118668 -0.162453 0.040133 0.067922 -0.388095 0.159591 -0.578700 -0.180847 -0.267627 0.100943 -0.512495 -0.380066 -0.600365 -0.470991 -0.056898 0.562356 0.245268 -0.595526 -0.259809 -0.521775 0.234844 -0.065709 0.114418 -0.095145 0.253521 0.006794 -0.108788 -0.128733 -0.116156 -0.151250 -0.258539 0.187219 0.145612 -0.251659 -0.619070 0.317644 -0.271056
-0.015434 -0.242295 -0.387533 0.015614 0.030404 -0.046697 0.311312 -0.675727 -0.029912 0.095887 -0.080085 0.085155 -0.004319 -0.024575 0.129693 -0.041579 -0.687169 -0.155581 0.498606 -0.350657 -0.001819 0.061484 0.137390 -0.355727 0.287364 0.243078 -0.306824 -0.119115 0.602807 0.106902 -0.428381 -0.581505 -0.339286 -0.296330 0.406248 0.576526 -0.631134 0.323489 0.179866 -0.450928 -0.316858 0.328296 0.076542 -0.017051 -0.441309 0.245677 0.401049 0.216459 -0.304775 0.105278 -0.150301 0.181963 0.530566 -0.063204 -0.112763 0.023873 0.014126 0.181451 -0.306769 0.523219 -0.747711 -0.288321 -0.462348 -0.104522 0.447385 0.035667 0.063075 -0.078332 -0.587614 0.205597 -0.413333 0.198206 0.352917 -0.183510 0.010568 -0.409534 0.103058 -0.092329 -0.252231 0.141952 0.352867 0.247753 0.096303 0.186909 -0.070858 -0.368091 -0.104354 0.374969 -0.494449 -0.672603 -0.091419 -0.115091 -0.073797 0.054772 -0.000381 -0.083563 -0.007827 -0.065072 -0.181656 -0.077853 0.011982 0.375156 0.278242 0.285389 0.387474 0.453189 -0.013980 0.038799 -0.139203 0.134996 -0.306190 -0.452657 0.428878 -0.675626 -0.348768 0.000809 -0.117093 -0.008078 -0.178947 -0.279153 0.071255 0.048628 -0.534012 0.125395 0.164203 -0.200988 -0.460410 0.226589
-0.681001 0.146283 -0.575971 0.120137 0.115629 -0.042703 0.119499 0.136202 0.173253 -0.166979 -0.246279 0.577510 -0.049043 0.400388 0.334678 0.011018 0.122228 0.489226 0.332166 0.019393 0.332357 -0.344216 0.309129 -0.414714 -0.092325 -0.322617 -0.132365 0.106705 0.207743 -0.478302 0.269515 -0.027144 0.264990 0.446082 -0.011208 -0.065023 -0.938589 0.003327 -0.582478 -0.322388 -0.475809 0.418947 -0.398287 0.205406 -0.077695 0.545939 -0.191036 -0.352648 -0.278196 0.458170 0.055694 -0.037188 0.221572 0.311155 -0.148953 0.020052 -0.062628 0.005023 -0.007230 -0.050326 -0.104090 -0.271795 -0.008020 0.279610 -0.074383 0.235860 0.062426 0.671988 0.034337 0.021123 -0.146971 0.041815 0.192858 -0.231728 -0.590778 0.120999 0.180972 0.139596 0.159905 0.580266 -1.024441 -0.166899 -0.253895 -0.133741 -0.026487 -0.478207 -0.304987 -0.116592 0.195294 0.427105 0.272532 -0.244663 0.283436 0.268039 0.069706 -0.183949 0.067068 -0.098647 0.123763 -0.104417 -1.405872 0.201790 0.155766 -0.409562 0.042386 -0.018076 0.108376 0.184332 0.672577 0.114607 0.316990 -0.217111 -0.198222 -0.021019 -0.223782 -0.591245 -0.208847 0.188620 -0.121582 -0.125023 0.395608 0.081962 -0.334489 -0.095849 0.300215 -0.035088 -0.015190 -0.149933
-0.363571 -0.167329 -0.259954 -0.567211 0.396086 0.109419 -0.150831 0.009591 -0.002821 0.177414 -0.115038 -0.250165 -0.399429 -0.080619 0.116779 0.017667 -0.201782 0.070154 -0.365643 -0.177162 0.293674 -0.006492 0.148124 0.103838 0.305433 0.003982 0.132503 -0.007204 0.154746 0.074566 -0.136970 0.015021 0.214448 -0.039427 -0.716220 0.290891 0.183058 0.436739 -0.247168 -0.106938 -0.084390 0.328049 0.256099 -0.068275 -0.236768 -0.047986 0.340789 0.370712 0.151613 -0.021179 0.151774 0.463603 0.484121 0.557960 0.110404 0.254385 -0.080506 0.210410 -0.062954 -0.188573 -0.020420 -0.256741 -0.044972 -0.688669 -0.346630 -0.127315 -0.647713 -0.282686 -0.034854 -0.295629 -0.172579 -0.251269 0.214706 -0.514556 -0.318906 0.268868 0.203241 0.446768 0.087713 -0.140503 -0.036984 -0.672267 0.483397 -0.072105 0.136162 -0.025810 -0.249724 -0.482542 -0.065280 -0.514053 -0.370677 -0.501547 -0.276277 -0.414639 -0.172320 0.410019 -0.226115 -0.246866 0.268177 -0.367730 0.104151 0.031840 0.077003 -0.061524 0.159541 -1.035280 0.003712 0.094351 -0.275396 -0.369529 -0.561445 0.577156 0.357843 -0.637266 -0.312898 -0.717811 0.149859 0.360880 0.062504 0.151607 -0.292740 0.075917 0.237298 -0.606664 -0.239516 0.081429 -0.543212 -0.168832
-0.287753 0.037029 0.032074 -0.192979 -0.316910 -0.086533 -0.182300 0.120239 0.161276 -0.069745 -0.099579 0.337161 -0.146981 -0.002426 -0.043629 -0.552398 0.149516 0.055761 -0.311417 0.336940 -0.090563 -0.238577 -0.065250 -0.279839 -0.259709 -0.200793 -0.597135 0.186079 -0.100571 0.031802 -0.046683 -0.334488 -0.036753 -0.673566 -0.078282 -0.485993 0.184497 0.351410 -0.867319 -0.232085 0.097501 0.017947 -0.303631 0.226114 -0.320982 0.098207 0.409475 -0.087972 -0.023884 -0.259125 0.155826 0.378806 0.089610 -0.173298 0.169487 0.509492 -0.047958 -0.447130 -0.373602 0.256036 -0.185871 -0.409382 -0.386367 -0.031702 0.465458 -0.250835 -0.065259 -0.458766 0.691771 0.236445 0.345045 0.769724 -0.074466 -0.013193 -0.473409 0.466399 -0.199281 0.245723 0.196764 -0.803010 -0.203821 0.306788 0.180635 -0.223968 -0.272862 -0.034861 0.284180 -0.006779 -0.191955 -0.104789 0.239878 0.186831 -0.621922 0.071319 -0.443704 -0.328379 0.139758 -0.101958 0.107788 0.135269 0.177814 -0.140995 0.221608 0.245866 -0.339969 0.229491 0.315385 0.106835 -0.017708 0.130693 0.102182 -0.218415 -0.102432 -0.353179 0.299602 0.472557 -0.067420 0.592324 0.023166 -0.546772 0.007615 0.063049 -0.252977 -0.278793 -0.235633 -0.244165 0.006371 -0.051249
0.191986 0.421805 -0.448918 0.612494 -0.143850 -0.020000 -0.107009 -0.206073 -0.822106 0.414560 -0.412446 -0.080460 0.139896 0.190973 -0.249492 0.123804 -0.212141 -0.457212 0.200335 0.540234 0.110225 -0.286691 -0.371767 -0.361681 -0.056690 -0.017877 0.144267 -0.338169 0.283943 0.150160 -0.167211 0.087632 -0.159835 -0.537282 0.048023 -0.034969 0.123979 -0.512583 -0.179267 0.168455 0.185300 0.221499 -0.331261 0.329294 -0.481090 -0.039426 -0.103318 -0.424669 0.108542 -0.154647 0.183783 -0.219440 -0.443330 0.141053 -0.582942 -0.055849 0.141616 -0.454013 -0.038749 0.392948 0.067779 0.024432 -0.167620 0.604651 0.098035 0.230433 0.299232 -0.156455 -0.369175 -0.092554 0.227099 0.281441 -0.372920 -0.844646 -0.216033 -0.912575 -0.296143 0.191686 -0.182972 -0.481263 -0.011137 -0.369228 -0.374947 -0.234013 -0.258320 0.207581 0.298338 -0.134797 0.146970 -0.276778 -0.324071 0.076949 0.075559 -0.003489 -0.347940 0.088482 -0.398320 -0.136538 0.047968 -0.443286 -0.263842 -0.454476 0.218643 -0.277795 -0.044480 -0.425415 0.033670 -0.381594 -0.255245 -0.482331 0.126419 0.461289 -0.263645 0.160663 -0.322455 -0.206609 0.007357 -0.377153 -0.349415 0.440870 -0.314932 0.164991 -0.235691 0.326684 -0.497969 0.378620 -0.476738 0.268818
-0.300283 -0.206477 0.058918 0.074741 -0.109860 0.036018 0.239873 -0.140530 0.112229 0.160268 0.168724 -0.362311 0.471287 0.102649 -0.117374 -0.270267 -0.401358 -0.098360 0.324987 -0.277328 -0.235276 0.057034 0.207557 -0.173291 -0.143815 -0.129302 0.152496 0.329445 -0.150275 -0.029311 -0.757375 0.475508 -0.069056 -0.238771 -0.092162 -0.429063 0.355488 0.323093 -0.176677 -0.018392 -0.541423 -0.061629 -0.214130 -0.419274 0.203530 -0.101463 0.033223 -0.770592 -0.346936 -0.157728 -0.310364 -0.065994 0.259994 0.077585 -0.057932 -0.438563 0.166130 -0.332796 0.256015 -0.088228 0.035336 0.104081 -0.025980 0.200277 0.057646 -0.014701 0.132517 -0.089720 -0.516573 -0.167951 0.293830 0.121241 0.265495 -0.191988 -0.109242 0.220924 0.331962 -0.893919 -0.663481 -0.480879 -0.617089 0.081268 0.447232 0.177644 -0.523197 0.037156 -0.131052 -0.370633 0.314551 0.052650 -0.380641 0.017400 -0.127993 -0.028535 -0.123644 -0.147043 -0.047405 -0.215208 -0.068996 -0.413118 0.301864 0.474847 -0.003771 0.032625 -0.470551 0.390149 -0.497262 0.254532 -0.612168 0.078305 -0.207686 -0.211247 -0.100385 0.248283 -0.238092 -0.173824 0.127237 0.112335 0.271605 -0.185657 -0.116948 0.276910 0.567120 -0.359390 -0.192137 -0.601364 -0.101945 -0.165949
0.008313 -0.275087 0.174005 -0.098821 0.046129 -0.261183 -0.015654 0.525363 0.032358 -0.666826 -0.137343 0.170124 -0.277551 -0.550876 0.349537 -0.399456 -0.377062 -0.157106 -0.045733 -0.569202 -0.194557 0.133076 0.373655 -0.675193 -0.086752 0.155938 -0.167259 0.021998 -0.075805 -0.369478 0.165022 0.062508 0.655125 -0.110947 -0.550002 0.398967 -0.015986 0.260705 -0.121401 0.151917 -0.036940 -0.069502 0.398990 -0.285038 0.009979 0.230854 -0.033080 -0.098757 -0.122241 0.177447 -0.146593 -0.558353 0.374769 -0.750090 0.370009 0.261958 0.184251 -0.242096 0.286271 -0.239337 -0.549585 0.074260 -0.109588 -0.151998 -0.429883 0.065052 -0.388265 -0.463313 -0.147161 0.332924 0.008928 0.091717 0.458884 -0.112519 -0.236948 -0.231887 -0.006837 -0.065771 0.153245 -0.788781 -0.457603 0.099756 0.151841 0.349737 0.405626 0.167556 -0.084236 0.133276 -0.108156 0.490678 -0.557669 -0.052272 0.436565 -0.031182 -0.327397 0.189847 0.193115 -0.222218 0.190927 0.026085 -0.513996 -0.069804 -0.025081 -0.309649 0.103548 -0.549277 -0.141284 -0.365807 0.077460 0.188298 0.068555 -0.261392 0.031047 -0.238504 -0.064072 -0.241919 -0.177363 -0.210057 -0.268995 0.478528 0.069332 0.163179 0.140442 -0.509647 0.449728 -0.360020 -0.366594 -0.504199
0.120930 0.175101 -0.026270 -0.377973 -0.230209 -0.027934 -0.487027 -0.099535 -0.469008 0.105338 0.088786 0.330097 -0.220599 0.078759 -0.152336 -0.086024 -0.227418 -0.043906 -0.035551 -0.436298 0.008025 -0.699630 -0.422252 -0.166263 -0.068282 0.371226 -0.070029 -0.333329 0.037235 -0.081724 -0.466725 0.134616 -0.055876 -0.508716 -0.099235 0.170457 0.025648 -0.349672 -0.642552 0.474782 0.328582 0.106315 0.027162 -0.207109 0.108424 -0.237539 -0.078876 -0.080445 -0.030736 -0.211257 -0.330622 -0.116891 -0.096557 -0.421692 -0.304161 -0.028930 -0.132235 -0.037225 -0.190932 -0.080570 -0.138252 -0.199720 0.180029 -0.382037 -0.030936 0.240759 -0.277588 0.237835 0.617987 0.082438 -0.417264 0.670774 -0.437375 0.531030 -0.387945 -0.562736 0.358366 0.102279 -0.298370 0.348737 0.286138 -0.306363 -0.313714 -0.013553 -0.031105 -0.567549 0.235363 -0.323045 -0.528878 0.109021 0.279894 -0.560400 0.247347 0.110052 -0.138174 0.019880 0.086424 -0.289098 -0.168321 -0.256908 -0.364187 -0.671979 0.269639 -0.255136 0.265745 0.244540 -0.554018 0.077046 -0.321177 -0.033864 0.416229 0.203379 -0.052154 -0.733474 -0.172269 -0.140432 -0.100994 -0.217179 -0.369416 -0.223951 0.428564 -0.686829 0.288175 0.277905 0.273694 -0.491943 0.215846 -0.129528
-0.331695 -0.571095 -0.508584 -0.150532 -0.201935 0.062961 -0.943021 0.034589 0.013474 -0.311692 -0.682234 0.058538 0.304808 -0.637089 0.272685 0.189144 -0.069001 -0.021011 -0.320938 0.271742 0.047148 -0.353305 -0.254452 -0.346212 0.138489 0.109288 0.018041 0.357636 0.212572 -0.238800 0.286109 -0.471804 -0.616604 -0.158577 -0.162918 -0.170450 0.133682 0.113393 0.689981 0.303019 -0.137895 -0.091909 -0.126194 0.154015 0.421329 0.544506 -0.254069 -0.623095 -0.354658 0.237668 -0.465172 0.234566 0.049853 -0.294260 0.191180 0.059169 0.056997 0.104145 -0.421146 -0.146859 0.599698 -0.293491 -0.295784 0.076717 -0.370664 -0.016832 -0.409361 0.139412 0.074429 -0.085038 -0.044721 0.195854 0.015476 -0.680641 -0.172948 0.266559 0.193423 -0.595940 0.013782 -0.279139 -0.506185 -0.013292 0.393998 0.269115 0.130394 0.549541 0.308093 0.463520 0.250281 -0.026514 0.062748 -0.064230 -0.018092 0.105355 0.373294 0.300161 0.474860 0.163067 -0.005936 0.244497 -0.063102 -0.153821 0.239966 0.115332 0.118991 -0.354668 -0.327956 -0.276741 -0.564622 -0.159147 -0.040167 -0.060593 0.008799 0.094788 0.013696 -0.011491 -0.034091 -0.594034 -0.255663 -0.533929 0.235368 -0.393716 -0.493088 -0.257486 0.108821 -0.249545 0.066296 0.193015
-0.251628 -0.299913 -0.192831 -0.407730 0.007149 0.026080 0.095372 -0.035480 0.402105 0.318079 0.387132 0.174488 -0.200055 0.081396 -0.111247 -0.089742 0.699237 0.196945 0.047732 0.061691 0.057177 -0.483963 -0.403743 0.190389 -0.780016 -0.559455 0.152124 0.262608 0.532817 0.275362 0.135241 0.064957 0.280321 -0.321169 -0.011517 0.122041 -0.109180 -0.401655 -0.022731 -0.293754 -0.062352 0.395178 0.175415 -0.195764 0.050728 -0.046856 0.152062 0.003961 -0.074197 0.056719 0.114575 0.138240 0.334516 0.433275 -0.458423 -0.258497 -0.278584 -0.218376 -0.120105 -0.007690 0.225291 -0.354541 -0.134806 -0.350946 -0.060263 0.124528 -0.231443 0.022849 -0.260385 -0.190254 -0.018426 -0.186117 0.388513 -0.706778 0.220604 -0.230795 -0.186247 -0.477790 -0.226283 -0.669659 -0.550706 -0.342751 -0.206435 0.137186 0.155267 -0.069571 -0.875754 -0.375835 -0.415323 -0.013985 -0.171088 0.241144 0.108132 -0.450584 -0.437937 0.195430 -0.425744 0.245233 -0.068484 0.290693 0.261656 -0.388043 0.129039 0.044038 -0.222447 -0.720606 0.494501 0.164387 0.355340 0.025572 0.058442 0.125464 0.025422 0.197551 0.296012 -0.397489 0.076794 -0.298384 -0.072089 0.117152 0.031592 0.304797 -0.671818 -0.309924 0.002280 0.117885 0.376019 -0.337015
-0.004730 0.356591 0.173663 0.467704 -0.035127 0.045661 -0.002945 0.155150 -0.234053 0.455808 -0.434013 -0.737812 -0.288701 0.505924 0.112811 -0.419680 -0.207196 0.170352 -0.269836 -0.084265 -0.023113 -0.178858 0.107367 -0.077941 -0.298210 -0.109887 -0.559718 -0.094946 0.231837 -0.085695 0.176557 -0.092724 -0.261538 0.060883 0.093309 -0.042101 -0.090634 0.099830 0.149860 0.373426 0.276219 0.093904 -0.099086 0.259222 -0.029475 0.113019 -0.588858 -0.341663 0.219122 -0.282225 -0.668962 -0.031512 -0.480377 0.145973 -0.537100 0.064533 -0.082770 -0.161539 -0.185527 -0.167181 0.170774 0.369415 -0.063292 0.207467 -0.106307 -0.255918 0.285946 -0.017674 0.064591 0.192988 0.108032 -0.087637 -0.592397 0.018165 0.374869 -0.274395 -0.083777 -0.686011 0.428440 -0.132323 0.159355 0.008421 -0.506679 0.193853 0.123508 -0.655295 0.420616 -0.220835 0.043773 -0.439209 -0.028710 0.051746 -0.205825 0.112772 -0.340133 0.510393 -0.073131 -0.214676 0.222795 -0.434699 -0.060451 -0.245994 -0.030560 -0.289115 0.341052 -0.496218 0.065086 0.573514 0.323176 -0.124698 0.273726 0.420465 -0.607403 -0.224784 -0.150364 0.300095 -0.091198 -0.430507 -0.327655 -0.596346 0.028913 -0.123847 0.335358 0.031074 -0.136844 -0.273801 0.038637 0.237405
-0.115600 -0.153972 0.537538 0.085453 0.117983 0.038301 -0.278199 -0.438775 0.263079 0.275937 0.190662 0.355575 -0.093159 0.182909 0.183406 0.703249 0.075365 -0.196966 0.289770 0.364683 0.097778 -0.296725 0.262956 0.297533 0.261640 -0.547870 0.415455 0.142210 -0.154913 -0.465388 -0.048782 -0.007264 0.129459 -0.320327 -0.204795 -0.554034 0.470847 0.363301 -0.079668 -0.077739 -0.205719 -0.211098 0.369408 -0.018262 0.209036 0.196081 -0.233232 0.031158 -0.098954 -0.095113 -0.052435 -0.638559 -0.523028 -0.321676 -0.130735 -0.002157 0.031446 -0.704902 -0.361041 0.356788 -0.523748 0.429243 -0.317009 -0.219989 0.335225 -0.029406 -0.510589 -0.393605 -0.330914 0.196936 -0.124080 0.097348 -0.502310 -0.076396 0.267606 0.319777 -0.281225 -0.366617 -0.631326 -0.213178 -0.044656 0.048155 -0.397264 -0.056263 0.351866 0.251877 -0.059448 -0.659604 -0.411601 0.022759 0.133317 0.121679 -0.338107 -0.098050 -0.596761 -0.083883 -0.380508 0.516074 0.003059 0.041769 -0.223668 0.234515 0.139055 0.429112 0.115778 0.379828 -0.333489 -0.063634 -0.272289 0.232108 0.161747 -0.097312 0.185833 0.074370 0.035306 -0.105887 0.065865 0.341094 0.543898 -0.127595 0.415216 -0.288782 -0.205294 -0.033182 0.156549 0.477079 -0.390988 -0.109064
-0.195940 -0.379496 -0.400696 -0.362727 -0.263819 -0.035352 0.194775 -0.572864 0.056713 -0.064726 0.200371 0.076208 0.123377 0.174669 0.389105 -0.298356 -0.179253 -0.056323 0.279936 -0.198603 -0.280277 0.383981 -0.489335 -0.179464 -0.062219 0.334205 0.032451 -0.487625 -0.099165 0.401365 0.158708 -0.152449 0.229332 -0.192929 0.088087 0.382210 -0.603889 -0.107844 -0.134899 0.109556 -0.162817 -0.731620 0.328508 -0.145785 -0.031321 -0.129370 -0.019170 -0.006118 -0.133638 0.117432 0.597528 0.073401 -0.163885 -0.099483 0.183277 -0.071246 0.292436 0.284444 0.014436 -0.192302 -0.444119 0.310069 -0.629515 -0.209600 0.309854 -0.529931 0.226115 -0.026922 -0.146865 -0.071555 0.041952 0.047643 -0.068564 0.255394 0.136567 0.097302 -0.020606 0.215662 0.041365 -0.773888 -0.284138 -0.096143 0.301796 -0.022790 0.135664 0.010105 -0.239023 -0.959321 0.006437 -0.843668 -0.797317 0.157647 -0.076812 0.198013 -0.753778 0.341491 -0.043688 0.326302 -0.091493 -0.418427 0.187931 -0.003161 -0.408534 -0.077188 0.518754 -0.218128 -0.135379 0.085167 -0.766878 0.015787 -0.643405 -0.509267 0.041579 -0.235126 -0.317659 -0.045045 -0.156285 0.157309 -0.070722 -0.525162 -0.020961 -0.328350 -0.058062 0.076552 0.051876 -0.238276 0.183005 0.177652
-0.159769 -0.005636 -0.139107 -0.232350 0.214378 0.113256 -0.120702 -0.208231 0.065682 -0.074123 0.610436 -0.367070 -0.259621 0.364022 -0.715953 0.286676 -0.580190 -0.060256 -0.445935 -0.136006 0.010016 -0.144531 -0.142102 0.368192 0.001743 -0.072876 0.174589 0.121166 0.237778 0.098366 -0.170727 0.317572 -0.649341 -0.456134 0.084406 0.346787 0.246184 -0.047338 0.091060 -0.347035 0.321418 -0.137457 -0.443728 -0.559918 -0.017492 0.080163 -0.287601 -0.072203 0.277570 0.357513 -0.045498 0.340691 0.336737 -0.059594 -0.160270 0.004719 -0.197787 0.213959 -0.174581 0.136268 -0.337624 0.385010 -0.239664 -0.577605 0.350806 -0.308205 0.369760 -0.434850 -0.263696 -0.096350 0.146162 -0.012477 -0.018672 -0.494520 0.140262 -0.513567 0.378048 0.072779 -0.507574 0.019729 -0.103996 0.254711 0.065461 -0.297771 -0.207910 0.372216 -0.094010 0.052937 -1.073627 -0.095523 -0.352742 0.210595 -0.074948 -0.256720 -0.177251 -0.008922 -0.048179 0.348879 0.054049 -0.618511 -0.289800 -0.032449 0.314040 -0.855078 0.149710 0.369934 -0.020207 -0.634034 -0.201512 0.046384 -0.319007 -0.088470 0.207894 -0.706428 -0.283983 -0.087579 -0.009573 0.033076 -0.357728 0.339977 0.217397 -0.100362 0.228500 -0.203892 0.140815 -0.031209 -0.248700 0.483924
0.086548 -0.260849 0.098863 0.091900 -0.441726 -0.195508 -0.206526 -0.151278 -0.118741 -0.170492 0.374899 0.408320 -0.071141 -0.295006 -0.406959 0.278090 -0.583404 0.309190 0.018841 -0.063615 0.155309 -0.438413 -0.216143 0.149324 0.695713 0.298100 -0.081634 0.575670 -0.271760 -0.358232 -0.040285 0.284924 -0.361654 0.101628 -0.122924 -0.051576 0.118682 0.062838 0.258396 -0.616274 -0.754218 0.265520 0.221051 -0.422123 -0.239143 0.201239 -0.131843 -0.224680 -0.218744 0.005241 0.020223 -0.443926 0.623701 0.183525 -0.195809 -0.418708 -0.077882 0.189116 0.256007 -0.004499 0.141197 0.340668 -0.132425 0.075578 0.235731 0.021963 -0.145946 0.482760 -0.383367 0.330789 0.348887 -0.061054 -0.132996 0.192004 -0.196991 -0.168242 0.332803 -0.231775 -0.392073 -0.060153 -0.236582 0.087555 -0.163189 -0.176350 -0.203752 -0.120112 -0.113394 0.085364 -0.052101 0.029536 -0.171499 -0.950631 0.321070 -0.173163 -0.152774 -0.466563 -0.090744 0.253206 -0.166842 -0.510520 -0.038787 -0.263912 -0.063139 0.445778 -0.734094 -0.005149 -0.143309 -0.080109 0.012539 0.026645 -0.031890 0.267132 -0.077724 -0.687756 -0.008200 0.114204 0.127566 0.191493 0.263927 0.224160 0.037577 -0.578161 0.369468 -0.095635 0.331417 -0.191978 -0.370922 0.124249
0.142331 0.007105 -0.349734 -0.264715 0.244413 -0.238188 -0.107745 0.295250 -0.150466 -0.400178 -0.226560 0.217527 -0.099057 0.468701 -0.668019 -0.153420 0.066363 0.233394 -0.083799 -0.722367 -0.241734 0.013453 0.079686 -0.375014 0.004824 -0.371289 -0.424231 -0.179635 -0.048561 -0.022289 0.240609 0.218028 -0.374454 -0.529409 -0.077593 -0.317155 0.403788 0.087980 0.453038 -0.207770 0.165250 0.190803 0.357599 0.140086 -0.266916 -0.712834 -0.021680 -0.347696 -0.053925 -0.361340 0.196177 0.299249 0.039515 0.443948 0.323893 0.076851 -0.103713 -0.326902 0.192433 0.171968 -0.399288 -0.496683 0.015643 -0.322522 -0.025544 -0.062452 -0.751644 -0.052315 -0.189418 0.097840 0.093423 -0.250115 0.579448 0.306155 0.311726 0.113460 -0.140160 0.087590 -0.091270 -0.156025 0.708039 -0.640177 -0.007991 -0.288564 -0.164485 -0.087964 0.235751 0.190073 0.514423 0.544841 0.151098 0.131148 0.405541 -0.079506 -0.453136 -0.059540 0.205392 0.205141 0.128917 -0.361090 0.169211 -0.178518 -0.181504 0.612843 0.008242 0.217776 0.040112 -0.417649 0.285830 -0.010233 0.021489 -0.473228 0.004517 -0.342928 -0.243817 0.143386 0.170588 -0.369502 -0.622836 -0.604957 -0.174760 -0.441017 -0.407811 0.608923 0.071011 -0.891673 -0.159077 0.140226
0.028916 0.190356 -0.107826 -0.026336 -0.057924 -0.016073 0.051090 -0.121853 -0.153320 0.201529 -0.383018 0.703710 0.477321 0.349832 0.084655 -0.060265 -0.142708 -0.308043 -0.189118 -0.033472 0.740924 -0.522399 -0.092508 0.070424 0.351141 0.326748 -0.214307 0.471669 -0.011998 -0.088520 -0.104203 -0.530053 0.186555 -0.035929 -0.035849 -0.308348 -0.000390 0.279849 0.077502 0.103939 -0.007959 -0.438629 -0.009741 0.064148 0.374826 0.060326 -0.954199 0.464097 0.068360 0.091557 -0.315616 0.445294 0.377511 -0.891508 -0.258104 -0.083896 -0.326802 -0.063094 0.182890 -0.055112 -0.437180 0.008830 0.107958 0.335101 -0.221836 -0.027289 -0.183819 0.254697 -0.284729 0.274388 -0.001880 0.056632 0.042092 0.195506 -0.314813 -0.192991 0.321785 -0.261375 -0.108184 -0.603115 -0.785243 -0.321538 0.802519 -0.096212 0.104291 0.203644 0.168023 0.196148 -0.469894 -0.317135 -0.133823 -0.005656 -0.111698 0.184800 -0.079635 -0.501584 0.026811 0.016224 -0.213130 -0.120944 0.008021 0.132646 -0.005319 -0.899477 0.258714 0.454371 -0.191373 0.012882 -0.210642 -0.702970 0.376006 -0.115278 -0.410811 0.013929 0.083762 -0.050563 0.014856 -0.569218 0.551338 -0.344453 0.137160 0.029560 -0.360639 0.079383 0.784743 -0.064539 -0.221411 -0.143550
-0.048176 0.432516 0.394256 -0.315652 -0.791408 -0.123534 0.073858 0.352834 -0.054415 0.073926 -0.065474 -0.256206 -0.206209 0.035955 0.323794 -0.259483 -0.674302 -0.241239 -0.699448 0.180429 0.299033 0.186837 -0.247939 0.181430 -0.251826 -0.465983 0.073119 0.334045 0.170976 0.058893 0.390688 0.303511 -0.611748 0.111992 -0.462975 0.191549 0.123431 0.131724 -1.034591 -0.259776 -0.221807 0.098042 -0.263960 0.224230 0.277860 -0.398260 -0.205185 0.260044 0.032564 0.203706 0.216803 -0.321697 -0.490773 -0.204214 -0.009389 -0.354039 0.159927 0.104123 0.627667 -0.616331 0.286206 0.097536 -0.227888 -0.200103 0.088849 -0.047254 -0.158910 0.365266 0.033009 0.183639 0.267639 0.217539 -0.384970 0.308651 0.354596 -0.179117 -0.346789 0.011108 -0.210787 -0.439413 -0.136607 0.183601 -0.064326 -0.158389 -0.330334 0.205330 0.068486 -0.548940 0.195858 -0.850533 -0.982483 0.186357 -0.510775 0.060088 0.219806 -0.469325 -0.273456 -0.134033 0.083523 0.436931 -0.202360 -0.282440 -0.062726 -0.258602 -0.193817 -0.009776 0.215928 0.222127 -0.524630 0.067547 -0.429962 0.049060 0.108303 0.082085 -0.418891 -0.217021 -0.067970 0.120988 -0.333435 0.602389 -0.511747 0.054521 -0.292124 0.300799 -0.757980 -0.383038 0.286541 -0.188381
0.503461 0.308838 0.726076 0.248947 -0.025589 -0.125731 0.469920 0.088289 0.016566 0.041076 -0.202338 0.097550 0.098810 0.172520 -0.225153 0.299063 -0.466464 -0.226030 -0.072204 0.164924 0.058457 0.012152 -0.682041 0.451480 -0.060886 -0.450629 0.198841 -0.131517 -0.636574 -0.146913 -0.312662 -0.242554 0.438338 0.150348 0.066417 0.226310 0.008896 0.311648 -0.411746 -0.708105 0.077022 -0.289715 -0.232390 -0.056609 -0.100833 -0.192563 -0.023032 0.124886 -0.365478 0.235888 -0.405660 0.184015 -0.060575 -0.431150 -0.041646 -0.119382 0.094644 0.351836 -0.235982 0.104745 0.222500 -0.072463 -0.084907 0.174203 0.517211 -0.237955 -0.108003 -0.072715 -0.276551 -0.090105 0.481724 -0.087026 -0.481199 0.115048 0.290214 0.026107 0.383328 0.523366 0.047867 -0.708386 -1.223665 0.070965 -0.352099 -0.544143 -0.175192 0.220342 0.124303 -0.345847 0.115645 -0.142162 -0.436439 0.344060 -0.645021 0.107888 0.250582 -0.155816 0.114059 -0.247704 0.048526 -0.852010 0.128229 0.346238 0.232923 -0.017020 -0.252865 -0.198950 -0.403113 0.069742 0.125638 -0.384504 0.079063 0.108858 -0.139184 -0.309043 -0.278664 0.207991 -0.033152 0.225289 -0.454465 -0.820304 -0.792586 -0.287888 -0.505814 0.207430 -0.186105 -0.369109 -0.024674 -0.184130
0.166980 -0.064985 -0.099907 0.362399 0.011851 0.068613 0.053418 0.120524 -0.111825 0.220548 0.300145 0.319949 -0.271607 -0.403597 0.264114 0.186623 -0.025204 0.166880 -0.384780 0.004390 -0.522565 0.257629 0.202571 -0.174791 0.055984 0.372504 -0.038569 0.178581 0.263638 0.004664 -0.141405 -0.505022 -0.044239 -0.345595 -0.060845 0.146640 -0.385454 -0.463473 -0.171422 0.069142 -0.006936 -0.322049 0.011003 -0.051186 0.422107 -0.533970 -0.497510 -0.153059 0.371002 -0.278648 -0.542080 0.273668 0.592281 -0.097354 0.224051 -0.172279 0.260809 0.160391 -0.108468 -0.089055 0.101009 0.270001 -0.265759 0.062547 -0.283828 -0.807989 0.098750 0.226789 0.038083 0.018811 -0.280250 -0.107215 -0.296224 -0.495342 -0.204907 0.208627 -0.111176 -0.497101 0.020949 0.311548 0.507074 -0.133544 -0.135144 -0.016792 -0.260648 0.070454 -0.429947 -0.639766 -0.586076 -0.256730 -0.227095 -0.656335 -0.155667 -0.409538 -0.611148 0.194380 0.092038 0.364918 0.142225 0.053340 -0.221320 -0.425666 -0.877926 0.217787 0.044363 0.203304 -0.150422 -0.163281 -0.454626 0.352253 -0.215151 -0.528934 0.085962 -0.026163 0.174707 -0.604968 -0.069189 -0.285832 -0.619401 -0.070475 -0.095803 0.119899 -0.146596 -0.400777 -0.365153 -0.021160 0.378980 0.395453
0.234944 -0.242494 -0.292400 -0.010864 0.091397 0.132277 -0.022937 -0.484801 0.019643 0.057472 -0.443969 -0.106338 0.245883 -0.166409 0.054322 0.287935 -0.370389 0.093614 -0.102047 0.324455 -0.110079 0.088518 0.118576 -0.082793 -0.232928 -0.182348 -0.264481 -0.363717 -0.132048 0.036934 0.423892 -0.017290 -0.439975 -0.151261 0.570561 -0.220678 -0.262260 0.027300 -0.716648 -0.305542 -0.362429 -0.433948 0.316126 -0.253940 -0.339423 0.112146 -0.044701 -0.312771 -0.002697 -0.334320 -0.554608 -0.088587 0.080702 -0.159745 -0.200330 -0.185578 -0.110719 -0.693412 -0.223989 -0.232192 0.479005 0.401136 -0.048032 0.198367 -0.203825 -0.176544 -0.243799 -0.016819 1.202128 0.313106 -0.102272 -0.595820 -0.047492 0.317807 -0.526827 0.365217 -0.192334 0.014662 -0.227003 -0.489459 -0.046793 0.174858 0.194254 -0.418119 -0.094191 -0.319659 -0.189786 -0.379604 -0.105449 -0.590028 0.154030 -0.374753 -0.054371 -0.192316 -0.146115 0.053301 -0.181489 -0.088297 0.088146 -0.328528 -0.076717 -0.073447 -0.086156 -0.138750 -0.287579 -0.159905 0.118418 0.416732 -0.281066 0.042274 0.158559 -0.002712 -0.551423 0.352865 0.226066 -0.404790 0.066956 -0.077761 0.116165 -0.635586 -0.243830 -0.168608 -0.178644 -0.847844 0.068382 -0.724329 -0.119856 0.253943
0.200911 -0.108439 0.165075 0.144369 -0.228785 0.042398 0.489449 0.209721 0.224093 -0.003103 -0.372618 -0.412047 0.152577 -0.000054 0.077533 -0.594911 -0.152341 -0.152958 0.829574 0.072823 -0.239150 -0.116266 0.242166 -0.311318 -0.214015 -0.141659 0.215313 -0.136809 -0.559916 -0.189230 0.390553 0.094086 -0.422467 0.246692 -0.056651 -0.027787 0.082089 -0.100469 0.196817 -0.027847 -0.060820 -0.192779 0.309895 -0.017876 0.213232 -0.204429 -0.290282 0.194108 -0.206993 -0.456880 -0.358006 -0.112083 -0.481397 0.063927 0.048560 -0.238559 -0.036594 0.153371 -0.480319 -0.653106 -0.281446 0.416936 0.067002 0.199606 -0.475217 -0.101678 -0.137067 -0.317687 -0.074525 0.280758 0.171793 -0.519167 -0.149630 -0.158593 0.161315 0.215341 -0.125614 -0.437721 0.150705 0.275565 -0.344442 0.091688 -0.397655 0.218329 0.302493 0.181281 -0.156603 0.103992 -0.313311 -0.245006 0.280081 -0.231508 -0.070859 0.009416 -0.831207 -0.280566 -0.202843 -0.349641 -0.045888 0.114173 -0.067878 -0.680799 -0.043569 0.037694 -0.046349 0.169232 -0.354223 -0.019321 -0.035921 0.434625 0.007837 -0.171072 -0.059377 -0.130411 0.409127 -0.034460 -0.165776 0.131727 -0.054101 -0.005948 -0.534435 -0.314930 0.175020 -0.567579 0.174430 -0.178891 0.273264 -0.205757
-0.090524 -0.258423 -0.139050 0.250531 -0.197582 0.107159 0.177944 -0.142436 0.044821 0.333293 0.227921 0.239828 0.018012 0.169568 0.008774 -0.158527 -0.663349 -0.053248 0.011060 -0.139580 -0.014245 -0.401519 0.005606 -0.055772 0.117939 0.531896 -0.371833 0.067666 -0.529033 -0.092654 -0.326698 -0.160305 -0.518691 0.072195 -0.157816 0.575326 -0.511586 -0.033917 -0.217523 -0.138443 0.571695 0.194540 0.132034 0.166466 -0.024127 -0.168679 0.603211 -0.190896 -0.054668 -0.424857 -0.124101 -0.160380 -0.141871 0.131297 0.358742 0.230734 -0.143253 -0.181632 0.101210 -0.167702 -0.030024 0.150513 -0.212458 0.024197 0.419597 0.015974 0.439425 -0.425954 0.162110 -0.537601 0.086898 -0.308110 -0.932772 0.142789 0.384484 -0.163298 0.004424 0.097113 0.124203 0.124763 -0.280994 -0.101955 0.278101 -0.073358 -0.645997 -0.098878 -0.042260 -0.716749 -0.258131 0.191868 -0.335907 0.082023 0.143932 -0.275969 0.142799 -0.046636 0.068888 0.573385 -0.160100 -0.194316 0.347873 0.137460 0.319432 0.524604 0.100847 0.266537 0.208834 0.296673 -0.149481 0.386524 0.228317 -0.221092 0.306370 0.099320 0.020993 0.286927 0.051468 -0.054502 0.038001 -0.399511 0.129670 0.126323 -0.087104 0.021071 -0.762859 0.172237 -0.108625 -0.496798
-0.017841 -0.164714 0.297418 -0.326648 -0.418302 -0.020790 -0.463222 0.120827 -0.252456 0.119152 0.434355 -0.337400 0.158984 -0.160753 -0.294341 -0.057134 -0.155753 0.013651 -0.019625 0.234142 -0.023664 0.151862 -0.438959 -0.492189 -0.120642 0.059091 -0.276818 -0.097258 -0.144283 -0.503303 -0.515936 -0.170813 0.357583 -0.301231 -0.491653 0.234300 -0.544681 0.722504 -0.029444 0.088431 0.346328 -0.448989 -0.478343 0.136366 -0.031604 -0.415756 -0.038692 0.313373 0.106694 -0.197988 0.064215 0.092637 0.429498 0.428766 0.250605 -0.082027 -0.157036 0.413542 -0.177159 0.329557 -0.222516 -0.044239 0.341309 -0.829838 0.156940 0.533756 -0.014637 0.113732 -0.182177 -0.236343 -0.162658 0.130500 -0.333333 0.394681 -0.103690 0.420402 -0.107739 0.179538 -0.301746 -1.174998 -0.638424 -0.055519 -0.064452 -0.288137 -0.055425 -0.131176 0.029677 -0.182472 -0.652783 0.372159 0.328726 -0.204323 -0.146919 0.350964 -0.150364 -0.033170 0.141566 -0.340761 0.137583 0.171427 -0.190045 -0.033158 -0.553529 0.133207 -0.335402 0.048184 -0.222261 -0.406811 -0.051177 -0.028059 0.256441 -0.192392 -0.122949 -0.128380 0.559637 -0.593314 0.049849 -0.118363 -0.157042 -0.540931 0.057305 -0.206018 0.370051 -0.051215 0.507628 0.254941 0.113685 0.103359
0.054266 0.198217 -0.121365 -0.320411 0.035709 -0.143205 -0.005003 0.171699 -0.384227 -0.164194 -1.140311 -0.026034 0.489537 -0.103842 0.039884 -0.269006 0.006968 -0.241283 0.245780 -0.153429 0.377625 -0.161545 -0.346917 -0.410392 0.352150 -0.489308 0.293316 0.032654 -0.449870 -0.025329 0.117383 -0.020893 0.122486 -0.216220 -0.400394 -0.807780 0.121992 -0.124345 0.382682 0.138581 0.770714 0.304644 -0.092725 -0.005005 -0.576874 -0.379936 -0.208769 -0.256288 -0.143558 -0.022234 -0.429346 0.347434 0.114451 0.105731 -0.033648 -0.102855 0.176830 -0.821991 0.098846 0.051816 -0.355294 -0.153520 0.059926 -0.050458 0.098618 -0.327858 0.194838 0.282966 -0.577933 0.400196 0.319771 -0.181823 -0.117839 0.274716 -0.052361 -0.209750 -0.311655 0.198143 -0.041914 -0.272467 -0.069679 -0.231626 0.312503 -0.033068 0.488060 -0.072742 0.022401 -0.064848 -0.292153 0.113984 -0.206655 -0.157866 0.208161 -0.363693 0.147581 -0.570346 -0.275871 -0.115897 0.020892 0.059468 0.201434 -0.102172 0.139095 0.073127 0.264984 -0.660412 -0.202138 0.225665 -0.077965 -0.475319 -0.399297 -0.207293 0.040553 0.410504 -0.087025 0.379886 0.106977 0.110378 -0.191113 0.292937 0.057224 -0.199324 0.216369 0.269984 -0.091335 0.195349 -0.011635 0.333660
-0.352041 0.068609 -0.262858 0.357293 -0.586119 0.094650 -0.241443 0.075318 -0.001722 -0.188123 -0.399105 -0.316697 -0.148450 0.239090 0.013113 0.413709 0.001777 -0.130134 -0.099516 0.079239 -0.192757 -0.002864 0.242129 0.171552 -0.024091 0.291411 -0.287865 -0.656759 0.297659 0.241036 -0.160978 0.054952 -0.632632 0.045234 -0.071204 -0.260847 -0.070707 -0.106220 -0.124532 0.232609 -0.257420 -0.047440 -0.240207 -0.084913 -0.000765 -0.142106 0.382689 -0.121297 0.172014 -0.462337 0.021902 -0.548135 -0.774729 -0.172537 -0.065052 0.135257 0.062114 -0.209376 -0.175789 -0.187772 -0.424200 0.344667 -0.450794 -0.072233 -0.052084 0.433325 0.070374 0.080822 -0.327541 0.275885 -0.145900 0.242205 0.102056 0.323192 0.006878 -0.164926 0.352200 -0.589357 -0.336189 -0.441439 0.516090 0.193672 -0.690917 -0.151354 0.565168 0.213460 -0.225866 0.192748 0.240772 -0.221264 -0.064238 0.326761 0.077716 -0.438398 0.189381 0.013765 -0.030687 0.354686 0.081086 0.265336 0.052423 -0.213726 0.185649 -0.276375 -0.106426 -0.345559 -0.309313 -0.117469 0.167327 0.143882 -0.149857 -0.101645 0.444480 -0.406446 -0.934799 -0.425556 -0.001147 0.147183 -0.006146 0.141768 0.493544 -0.013561 0.561724 0.099473 0.231722 -0.056276 -0.281817 -0.659211
0.163420 0.357882 -0.291561 -0.603702 -0.122037 0.096965 -0.256016 -0.393091 -0.189512 0.258064 0.275993 -0.099566 0.065673 0.205681 0.204244 -0.634073 0.138339 -0.451482 -0.300506 0.038540 -0.022487 0.107716 -0.287127 -0.052467 0.007484 -0.338463 -0.161746 -0.686194 0.131619 0.167081 -0.353913 0.068388 -0.642702 -0.137892 -0.054076 0.073786 0.093062 -0.034236 0.035405 0.237415 -0.362441 0.095330 -0.089621 0.264735 0.004768 -0.911831 -0.694753 0.078081 -0.383726 0.067523 0.201526 0.364968 0.190523 -0.377049 0.148097 0.327611 0.447951 0.589068 -0.454924 -0.226276 0.188638 0.239009 -0.130896 -0.044844 0.279933 -0.479933 -0.204011 0.128466 0.041184 0.357897 -0.139378 -0.042414 -0.333842 0.108507 -0.179601 -0.269824 0.329756 -0.573093 -0.069739 -0.543472 0.154784 0.229236 -0.453122 -0.040689 -0.474776 -0.052427 0.067022 -0.175496 -0.403336 -0.441601 0.088144 -0.420493 0.210396 0.216111 -0.492566 -0.379623 0.260873 -0.003011 -0.084628 -0.046005 0.022562 -0.897609 -0.165812 -0.306632 0.058946 -0.831358 -0.261883 -0.070132 -0.531543 0.390247 -0.202755 0.163801 0.300748 -0.451836 -0.079660 -0.353006 0.192846 0.055338 -0.434465 -0.238665 -0.169811 -0.207007 0.051296 0.156575 0.054433 -0.317906 -0.323949 0.332447
-0.012159 0.588636 -0.358244 0.328118 0.059880 0.121019 0.149999 -0.531597 -0.021255 0.234308 -0.204302 -0.030440 0.108613 -0.362659 0.223280 -0.125807 0.483375 -0.148821 -0.258212 -0.276933 0.424164 -0.056902 0.168078 0.332736 -0.509515 0.139614 0.105726 -0.197586 0.017124 -0.399938 -0.783428 -0.266093 0.099434 0.257792 0.066385 -0.181959 -0.057012 -0.020083 -0.056594 -0.208943 -0.268612 -0.372667 -0.608436 -0.199066 0.236123 -0.269369 0.099760 -0.080074 -0.286001 -0.009150 -0.336691 0.044699 -0.147129 -0.328392 -1.089509 0.052819 -0.726475 -0.028921 -0.423613 0.484200 0.209624 -0.303123 -0.743471 -0.149154 0.957408 -0.218930 0.121993 0.051672 0.180695 -0.322392 -0.664083 0.200965 0.249655 -0.144646 0.208148 0.103758 -0.206694 -0.103939 -0.371346 -0.036207 -0.503574 0.032680 0.139596 -0.018281 -0.133314 -0.237120 -0.154012 0.313335 0.183562 0.055415 -0.025311 -0.696936 0.176729 -0.366739 -0.187224 -0.713220 0.128354 0.306956 -0.054523 -0.877950 0.156380 0.156985 -0.095273 0.103959 0.392359 0.122038 -0.371888 0.152165 -0.356279 0.177941 0.040501 0.507229 -0.240062 0.032296 -0.277813 -0.249871 -0.259043 0.345684 -0.565913 0.053468 -0.276501 -0.290824 -0.074259 -0.089224 -0.018184 -0.134239 -0.289781 -0.131675
-0.686907 -0.097430 0.041203 -0.226880 -0.150452 -0.144265 0.060082 0.096878 0.111263 -0.349256 0.284370 -0.024976 0.099740 -0.574906 0.000587 -0.168928 0.385619 -0.087646 -0.075728 -0.397796 0.200129 -0.041961 0.347255 0.541927 -0.038524 -0.042402 -0.768298 0.021210 -0.528264 -0.375859 -0.102370 -0.444604 0.021600 0.358711 0.361326 0.123752 0.518512 -0.008569 -0.251918 -0.396827 0.068442 -0.088698 -0.492144 0.144670 -0.286769 -0.451281 -0.151584 -0.002687 -0.460094 0.191913 -0.399035 -0.491688 -0.034297 -0.648670 0.141271 0.207079 -0.253338 0.035504 0.881215 -0.061782 -0.419557 0.051070 0.002757 -0.032910 0.508941 -0.356926 -0.175593 0.035885 0.154708 0.376900 -0.435086 -0.441054 0.378884 0.357176 -0.438640 0.026009 0.179664 0.333581 -0.249320 -0.422625 -0.413814 0.386305 -0.633521 0.179426 0.249395 -0.307563 -0.204096 -0.643572 -0.176993 0.242121 0.047290 0.117357 0.258435 0.259917 0.056526 -0.308697 -0.322102 0.160346 0.106698 0.034227 -0.088359 0.217067 -0.218128 0.299844 0.018709 0.211822 0.074557 -0.163799 -0.234782 -0.068983 0.239648 0.013338 -0.983613 -0.049850 0.110537 -0.561755 -0.269699 -0.244532 -0.181137 -0.163274 0.340501 0.072310 -0.150147 -0.019175 0.339466 0.199932 -0.261076 -0.357641
0.057328 -0.361677 0.116614 -0.465193 -0.129532 -0.123857 -0.309804 -0.322763 0.431105 0.020722 0.017541 -0.236847 0.314832 0.094745 0.401795 -0.894302 -0.091166 0.225478 -0.187449 -0.147622 0.461644 -0.050355 0.110022 0.021190 -0.748964 0.347650 -0.273989 -0.433225 0.189460 0.282170 -0.151165 -0.273526 -0.037214 -0.356527 0.155856 0.032430 -0.058250 -0.002027 -0.458092 -0.098410 0.264206 -0.425610 -0.216704 -0.150495 -0.006922 -0.123973 -0.119591 0.029974 0.149020 0.015117 -0.230328 -0.295199 0.051995 -0.424181 0.227925 -0.684853 -0.218416 -0.081446 0.311582 -0.024717 -0.490121 0.197651 -0.016096 -0.295414 -0.203634 -0.602284 0.275951 -0.688965 0.053852 -0.190071 0.103247 -0.787189 -0.086426 -0.754296 0.151522 0.144145 0.142456 -0.698572 0.031799 -0.501084 0.250869 0.430360 0.087931 -0.060274 0.313734 -0.221265 -0.276834 -0.121999 -0.184222 -0.593274 0.201267 0.281656 -0.565434 0.380297 -0.612948 0.308385 -0.143819 0.232343 0.035520 -0.217830 0.100950 0.312414 0.076991 -0.058098 0.265271 -0.094561 -0.164199 -0.039879 -0.709879 -0.330504 -0.055487 -0.040235 0.093253 0.064919 -0.003883 -0.399420 0.291631 -0.226808 -0.021472 -0.280278 -0.462655 -0.173555 -0.253916 -0.073055 -0.270467 0.272333 0.311076 -0.194870
-0.390932 0.077627 -0.471442 0.272947 0.050406 0.002546 -0.381387 -0.474479 0.272670 0.093266 -0.388452 0.550207 -0.659834 0.154662 0.411328 -0.417598 0.007576 0.323236 -0.262587 -0.164273 0.275819 0.045885 -0.066718 -0.630130 0.014679 -0.119101 0.167861 -0.195956 0.257761 -0.168808 -0.115880 -0.019453 0.049198 0.625815 -0.199604 -0.469895 -0.413267 -0.069416 -0.351990 0.252603 -0.302255 -0.149754 -0.099971 0.349507 -0.010695 0.306697 -0.309094 -0.053385 0.107690 0.095067 0.133335 0.634231 0.295612 0.552972 -0.663085 0.074544 -0.176565 -0.158321 -0.118623 0.256971 0.015147 -0.355426 0.218696 -0.046912 0.301152 -0.003514 0.225708 0.398817 -0.488092 -0.461848 -0.046549 -0.196297 -0.475522 -0.180581 0.161438 0.224107 -0.403264 -0.030725 0.221080 0.017484 0.930994 -0.572096 -0.168825 -0.917088 -0.129177 -0.015741 0.255372 -0.181767 -0.000872 -0.647536 0.159773 0.073991 0.019537 0.224813 0.214019 -0.422029 -0.148543 0.271941 0.084570 0.120899 -0.974271 -0.444359 0.242354 -0.291814 0.256065 0.508720 0.294377 -0.696858 0.662107 -0.356588 0.474025 -0.229423 -0.029279 0.023562 -0.152050 -0.189802 0.073688 0.034387 -0.180424 -0.186902 -0.325069 0.152268 -0.787645 0.376598 -0.453918 -0.002384 -0.056630 0.459040
-0.252691 0.153731 -0.010218 0.130436 -0.029285 0.336922 0.089652 -0.147182 0.304450 0.433688 -0.175257 0.290490 0.337968 0.305966 0.118033 -0.105545 0.503644 -0.248370 0.015793 0.210213 -0.526608 0.110078 -0.109771 0.648112 -0.534536 0.326119 0.174745 -0.262246 0.552248 -0.151694 0.064135 0.111053 -0.065751 -0.281104 0.190736 -0.153267 0.098875 0.025329 -0.050069 -0.164226 0.335057 0.064411 0.319641 -0.050252 -0.039424 0.304527 -0.274628 0.402391 -0.339922 -0.084780 -0.159849 -0.517972 0.236932 -0.124140 -0.344014 0.518121 -0.242645 -0.191072 0.449157 -0.182462 0.265251 0.073609 -0.104764 -0.108805 -0.040792 -0.499566 -0.291797 -0.104924 -0.043417 0.052855 -0.373609 -0.181154 -0.047638 0.208946 -0.003397 -0.358662 -0.207801 0.153117 -0.343252 -0.301309 0.521252 0.172621 0.480681 0.275128 0.131784 0.259297 -0.029144 0.601405 -0.377021 0.331600 -0.123158 0.141933 -0.718690 -0.065902 0.039666 0.083581 0.116653 0.107910 -0.121582 -0.178969 0.266341 -0.140727 0.129116 -0.452351 0.318443 0.055230 0.202271 -0.238044 -0.397377 0.164792 0.176898 -0.052098 0.177178 -0.330015 -0.310722 -0.342671 -0.002823 0.077035 0.168383 -0.117862 0.442820 0.415584 -0.579772 -0.410903 -0.032189 0.134178 -0.406956 -0.399031
-0.075050 -0.451129 0.090165 -0.075319 0.173725 -0.026211 0.390101 0.021331 -0.051154 0.214370 -0.223835 -0.237592 0.205034 -0.641485 -0.338319 0.074389 -0.300486 -0.036942 0.096889 -0.017182 0.005785 0.196487 0.100254 0.194784 0.038015 0.104418 -0.004964 0.026730 0.624629 0.061291 0.165628 -0.459939 0.440804 -0.024063 -0.143947 0.096309 -0.192757 -0.084548 0.240877 -0.281192 -0.554766 0.567320 0.075269 -0.446085 0.217062 -0.125870 0.348437 0.533206 -0.769496 0.108150 -0.035104 0.166904 0.290208 -0.340829 -0.080075 0.288865 0.046035 0.274114 -0.119370 0.203259 -0.219427 -0.302941 -0.202710 0.179588 0.260129 0.462832 -0.250756 0.048187 -0.311551 0.052274 -0.016029 0.140343 -0.110295 -0.466116 0.006424 -0.638204 -0.536288 0.255193 0.141565 -0.100787 0.184510 -0.273448 0.300679 -0.018843 -0.064089 -0.294085 -0.400286 0.256748 0.076216 -0.223691 -0.009082 0.543365 0.154504 -0.113483 0.480033 -0.180173 0.076084 -0.012415 0.211306 -0.686825 -0.181952 -0.241146 0.346845 0.256738 0.046654 0.512536 -0.336191 -0.210589 -0.146358 0.440407 -0.083278 -0.334726 -0.172911 -0.197094 -0.047975 -0.169224 -0.027987 0.239904 -0.449580 -0.038948 -0.156810 0.235224 0.118876 0.296266 0.009374 -0.288156 -0.461680 0.529434
-0.221306 -0.070024 -0.267859 0.280735 0.500978 -0.072678 0.296627 -0.133699 -0.277899 0.306120 0.021852 -0.040207 0.197905 0.153118 -0.335901 0.112606 -0.395265 -0.245160 0.036265 0.211272 -0.115743 -0.080212 -0.176957 0.178461 0.015478 -0.853815 0.112699 -0.294167 -0.068626 -0.085399 -0.508505 0.232822 -0.318986 -0.101972 0.017938 -0.244065 -0.294620 -0.043340 -0.973132 -0.150004 0.191067 -0.163895 -0.168355 0.677904 -0.168440 0.139427 0.139312 0.238856 0.122186 -0.279828 0.068174 -0.669774 -0.262172 0.216826 -0.984922 0.067749 -0.222925 -0.598387 -0.222475 0.390906 0.491371 0.213025 -0.581736 -0.336396 0.091391 0.272514 0.003963 -0.000375 0.040712 0.031226 0.069328 0.155291 0.160154 -0.488928 0.246863 -0.161392 -0.083574 0.060330 -0.680088 -0.484812 -0.106120 -0.080809 -0.336549 -0.085755 -0.226324 0.075406 -0.313684 0.555953 0.090463 0.307762 -0.118036 -0.050401 -0.797776 -0.723730 -0.076308 -0.359400 -0.612262 0.117489 -0.148116 -0.108903 -0.168133 -0.127618 0.123609 0.423711 -0.054906 -0.429722 0.144801 -0.084264 0.009194 0.032046 0.104573 0.126154 0.065259 0.289031 -0.135203 0.297553 0.154460 0.313621 0.087063 -0.094507 0.428926 0.425229 -0.257483 -0.154427 -0.112918 -0.076049 -0.156422 -0.000552
0.226643 -0.188359 -0.254324 0.017753 -0.245645 -0.113632 -0.397073 0.167325 -0.019608 0.322123 -0.122988 -0.190706 -0.043776 -0.243204 0.557831 0.178521 -0.274437 0.014658 -0.227926 -0.225476 0.092678 0.127099 0.112962 -0.367059 0.287755 0.148326 0.303221 -0.068207 0.251272 0.286274 -0.358762 -0.664059 -0.393882 -0.189441 0.318620 -0.499427 -0.329078 -0.086576 0.574860 0.128474 -0.531605 -0.214324 0.356473 -0.037553 0.129142 0.001201 0.046134 0.181184 0.247115 0.358012 -0.160297 0.038162 0.205938 0.090351 0.311850 -0.409306 0.071681 0.033999 0.288157 -0.338530 0.216480 -0.210275 0.138147 -0.174373 -0.046611 -0.046045 0.442538 -0.098078 0.105033 0.049711 0.443676 -0.576265 -0.140174 -0.258781 0.025258 -0.102710 -0.149189 -0.379969 0.132833 -0.557231 0.791508 0.271593 -0.343427 0.038416 0.226904 -0.079209 0.054322 -0.382126 -0.305767 -0.158578 -0.337129 -0.023282 -0.014242 0.093885 -0.172220 -0.447136 0.239981 0.306295 -0.036179 -0.068184 0.018887 -0.443059 -0.250147 0.504555 0.331176 0.227998 -0.229518 -0.393584 -0.936713 -0.666836 0.077988 -0.249492 -0.158934 -0.088995 0.035609 0.125407 0.239298 -0.279693 -0.392765 -0.124622 -0.136731 -0.298217 -0.163449 -0.103891 -0.369647 -0.457290 0.403236 -0.163416
-0.168864 -0.854116 0.039173 0.200154 0.095611 0.163129 0.434551 -0.049255 -0.503018 0.030703 -0.314910 0.055351 -0.212890 0.461040 0.153685 0.533571 0.093790 -0.235325 0.396479 -0.182442 -0.404862 0.397018 0.251687 0.143066 -0.216992 -0.525684 0.341556 0.205590 0.170851 -0.460716 -0.497867 0.159872 -0.066778 -0.005718 0.125504 0.157046 -0.347508 -0.793088 -0.523182 -0.141257 0.026304 -0.407354 0.454324 0.242266 0.363530 0.542126 0.062391 -0.353969 -0.126378 -0.240081 -0.183200 -0.043282 -0.190120 0.119298 -0.106992 0.060293 0.231217 -0.101158 -0.088388 0.385375 0.143124 -0.055725 -0.448694 -0.029827 -0.329380 -0.118478 -0.324540 -0.206436 -0.303899 -0.100636 -0.220835 -0.315431 0.165711 0.168598 -0.736617 0.046205 -0.044959 0.250769 0.036455 -0.027059 -0.346488 -0.565022 0.696031 -0.398967 0.557566 -0.119285 0.066693 -0.234959 -0.317030 0.150086 0.304545 0.148004 -0.195900 -0.010054 -0.093991 0.063896 -0.012070 0.016913 0.170539 -0.134318 -0.151388 0.002227 -0.116303 -0.135399 -0.678318 0.058754 0.050874 -0.303220 0.355040 -0.733438 0.086235 -0.022298 -0.335552 -0.377740 -0.045020 0.234900 0.041507 -0.007969 -0.193862 0.408291 0.013237 0.086333 -0.060521 -0.257429 -0.474125 0.113665 0.333643 0.359184
-0.136734 -0.441979 0.226566 -0.353799 0.301429 -0.161645 0.113427 -0.534031 -0.255441 0.139805 0.022351 0.265253 0.344689 -0.036169 -0.084579 0.015082 0.061365 -0.068864 -0.269291 -0.288922 0.379596 -0.005436 -0.498135 -0.310893 -0.012330 -0.304710 0.266866 -0.534900 -0.398347 -0.044201 -0.251689 -0.096325 -0.293018 0.127069 -0.247532 -0.174105 0.089748 -0.377087 0.633703 0.016525 0.385850 -0.030458 0.155436 0.101687 -0.295965 -0.130812 0.056278 0.166557 -0.196812 0.405646 0.197324 0.211269 -0.276341 0.120270 -0.529846 0.139135 -0.411692 -0.399362 0.214687 -0.329961 -0.464946 0.127406 -0.165105 -0.039739 -0.337466 0.574846 0.208102 0.517193 -0.144728 -0.351904 0.227199 0.342498 0.251716 -0.297269 0.140145 -0.198285 -0.035071 0.148418 0.176269 0.734312 -0.470754 0.216906 0.035551 0.308979 -0.687133 -0.226084 0.101122 -0.356459 0.147543 0.078255 -0.438042 -0.146648 -0.149810 -0.524494 -0.707341 -0.047951 -0.444192 0.136136 0.023066 -0.716143 0.001217 -0.485325 -0.246723 -0.227860 -0.241323 -0.456490 0.227555 -0.187014 0.541400 0.032016 -0.176694 0.460274 -0.382701 0.157657 0.118326 -0.260994 0.146437 -0.051532 -0.296242 -0.149578 0.127670 0.284466 -0.123288 -0.081103 -0.121751 0.075555 -0.209864 -0.188578
-0.662570 -0.207253 -0.567202 0.367840 0.113580 0.008571 -0.352673 0.044665 0.532035 0.555596 -0.428357 -0.122233 -0.577362 -0.099850 0.709058 0.090112 0.170904 0.169981 0.201719 0.204327 0.286480 -0.484876 0.168442 -0.578910 0.023280 -0.026345 0.200516 -0.394379 0.059921 -0.543518 -0.359615 -0.098966 0.143853 0.195520 -0.133859 -0.150715 -0.300474 -0.089707 0.273269 -0.187823 0.026594 -0.259785 0.110587 0.164678 0.023059 -0.099919 -0.330743 -0.032082 0.062299 0.151140 0.279872 0.073364 0.086667 0.506444 -0.561028 0.122079 0.009738 -0.059316 -0.375668 0.316096 -0.186239 -0.144798 -0.095170 0.275300 -0.070574 0.050349 -0.184101 0.009633 0.068353 -0.425783 -0.324223 -0.176134 -0.149106 0.246703 0.352742 0.598198 0.007163 -0.233599 0.225984 -0.559103 1.500617 -1.240100 -0.514659 0.096446 -0.391566 -0.728798 -0.090474 -0.442783 -0.041695 0.136538 -0.194646 -0.099236 -0.052267 0.088976 -0.160639 -0.147739 0.051384 0.226244 0.029277 -0.298894 -0.596405 0.242890 -0.099643 0.098491 0.822790 0.200662 0.046774 -0.018867 0.380284 -0.432494 0.042328 -0.018964 -0.259858 0.240000 -0.218206 -0.381459 0.060966 -0.474059 -0.239286 -0.144803 0.060514 -0.134176 0.008656 0.593011 -0.083986 -0.134168 0.185209 -0.167193
0.090400 0.159540 -0.613403 0.092422 0.557971 -0.003047 0.582507 0.130890 0.401341 0.114550 -0.041068 0.121059 -0.399601 0.307966 0.375555 -0.020579 0.406352 0.471874 0.487740 0.068588 0.384563 0.019065 -0.393829 -0.676194 -0.080344 0.044763 -0.137086 -0.231282 -0.198107 0.121913 -0.140415 -0.559223 0.177116 -0.533940 0.164327 -0.019785 -0.635591 -0.015643 -0.562705 -0.507114 0.123674 0.119300 0.395573 0.277387 -0.352995 0.130079 -0.304798 -0.072151 0.151771 -0.059997 0.123188 0.290674 -0.120851 -0.270455 -0.267461 0.214336 -0.217342 -0.225622 -0.020148 0.247378 -0.129010 -0.182359 0.222111 -0.207164 0.454668 -0.382733 -0.080913 0.439375 -0.065711 -0.386688 -0.097875 -0.309121 -0.132815 -0.372504 0.090928 0.046953 0.267648 0.005235 0.390571 0.146880 0.069896 -0.438380 -0.116144 0.248501 0.041676 0.228469 -0.047737 -0.424907 0.044396 -0.187588 0.384316 -0.098802 -0.514399 -0.048424 -0.189499 0.280397 -0.316366 0.616028 -0.031970 0.325263 -0.724236 0.165896 -0.308082 -0.298145 -0.247881 0.148521 0.190333 0.138527 -0.561165 -0.151598 0.428279 -0.648073 -0.226167 -0.235300 0.280853 0.295877 0.037015 -0.590599 0.114685 -0.332304 -0.160876 -0.258195 -0.409617 0.209216 0.255451 -0.512386 0.270010 -0.144258
0.395175 0.292185 0.800522 -0.562388 -0.045386 0.182656 -0.277444 0.039697 0.031511 -0.704540 -0.311168 -0.446823 -0.443493 -0.281706 -0.416708 -0.190198 -0.467537 -0.549241 -0.039209 -0.133051 0.274207 -0.210596 0.248563 -0.766910 -0.316392 -0.092088 0.013144 -0.055300 -0.029341 -0.182347 -0.006314 -0.062142 0.595083 0.326163 -0.322761 0.297272 0.329188 -0.369242 0.305944 -0.257665 -0.138341 -0.189229 0.060379 0.021957 -0.130032 -0.378512 -0.250714 0.187152 0.034052 -0.082980 0.354702 -0.290802 -0.071541 0.266633 0.036614 0.385664 0.000475 0.244542 0.297972 0.251273 0.285543 0.166942 0.323090 -0.148093 0.762415 0.432391 0.176175 -0.749850 0.013927 -0.339355 -0.416925 -0.277151 -0.731878 0.049913 0.130199 0.031591 -0.238520 0.023689 -0.572799 0.084085 0.168860 -0.162608 -0.612155 0.203944 0.192018 -0.231123 -0.441334 -0.181607 -0.051186 -0.141899 0.039886 0.057776 -0.450725 0.274205 0.225671 0.343200 -0.224194 0.250169 0.043760 0.193876 -0.205517 -0.162159 -0.252867 -0.134053 0.127533 -0.247796 0.008030 -0.175302 -0.410815 -0.136075 0.219147 0.129413 -0.001023 0.152187 0.081270 -0.170853 -0.195148 -0.500235 0.004634 0.078789 -0.257110 0.285503 0.075724 0.128939 -0.114791 -0.779334 -0.063643 -1.013634
-0.707350 0.075551 -0.338223 -0.061807 0.070192 0.090702 -0.415999 0.025256 0.201114 -0.123392 -0.088157 -0.044297 -0.271998 0.050316 -0.094818 -0.650741 -0.014089 -0.045494 -0.100094 -0.157416 -0.203995 0.036378 0.438504 0.136092 -0.943766 -0.191545 0.032802 -0.157826 -0.118820 -0.030227 0.116957 -0.107972 0.456404 -0.055793 0.196751 -0.024774 -0.441703 -0.350048 -0.195453 0.050976 -0.039959 -0.362534 -0.149840 0.213118 -0.128153 -0.098915 0.172579 0.344527 -0.063846 -0.375452 0.199398 -0.023862 -0.149364 -0.444469 -0.239691 -0.067489 0.152747 -0.053187 -0.312929 0.013678 0.374077 -0.186396 -0.158905 0.063525 -0.595328 -0.028771 -0.347309 -0.290185 0.132510 -0.527973 0.294423 0.556187 -0.008177 -0.049211 -0.693710 -0.222557 0.262203 -0.456599 0.120373 0.387947 0.054155 0.037714 0.427364 0.430344 -0.817542 -0.591389 0.386222 0.466680 -0.374821 0.127417 -0.616059 0.281107 0.047485 0.074269 -0.073853 -0.340695 0.212015 0.463828 -0.093046 0.281138 -0.345824 -0.040420 0.022961 -0.064604 0.465458 0.344117 0.030051 0.052825 -0.429330 0.081683 -0.185338 0.160493 -0.113642 0.107630 -0.068136 0.399411 0.102694 -0.340939 -0.090004 -0.306283 0.104058 0.113939 -0.565388 -0.234886 0.298845 0.053708 -0.445329 0.181522
-0.005120 0.115731 0.126796 -0.279481 0.555551 0.137085 -0.414617 0.319572 0.049459 -0.104926 -0.495670 0.003300 -0.002265 -0.161570 0.062638 -0.519556 -0.067387 -0.019484 0.127150 -0.443184 -0.503896 0.070637 0.120841 -0.212211 -0.939481 0.220986 0.073867 -0.341820 -0.136478 0.045123 -0.363655 -0.795192 0.335517 -0.399188 0.184260 -0.121367 -0.119750 0.266579 0.335983 -0.090396 0.053476 -0.081244 -0.343114 -1.284775 -0.339793 -0.340153 0.131933 -0.346179 -0.374803 0.088795 0.289784 -0.233061 -0.338764 0.349170 0.381746 -0.151489 0.016850 -0.191653 -0.062925 -0.523852 -0.227790 0.135055 0.144660 0.093909 0.092637 0.095915 0.096529 -0.193659 0.055037 -0.608024 0.196019 -0.361935 -0.204305 -0.568865 -0.343245 0.073508 0.191232 -0.020554 0.313050 -0.147421 -0.252525 0.248776 0.091550 -0.085165 -0.109112 -0.856808 0.229364 0.293386 0.259167 0.333163 -0.001255 -0.221350 -0.204904 0.296727 0.217621 0.470739 0.526340 -0.288536 -0.157569 0.077836 0.202394 -0.450369 0.237348 -0.043356 -0.082964 -0.203659 -0.361994 0.427572 -0.304333 -0.410890 -0.226127 -0.498747 0.095643 -0.398364 -0.342845 0.048486 -0.061830 -0.074858 -0.548654 0.459566 0.038932 0.031983 0.384083 -0.405338 -0.421837 -0.474695 -0.250763 0.471959
0.427116 -0.341550 -0.336008 0.454791 0.384027 0.143965 -0.103915 0.171879 -0.355694 0.104491 -0.160134 0.170222 0.286817 -0.320739 -0.347971 0.029648 0.162525 -0.544164 -0.318423 0.193980 0.293672 -0.086879 -0.335263 -0.252368 0.319392 -0.135317 0.390584 -0.726490 0.076352 -0.081731 -0.362144 -0.372118 -0.069608 -0.605626 0.369496 -0.812739 0.531665 -0.283021 0.037739 0.031671 0.253939 0.233640 0.633885 0.315403 -0.121348 0.095526 -0.182004 0.152167 0.064049 -0.501489 0.260597 0.257522 -0.026559 -0.580856 0.145587 0.265813 -0.275614 -0.177206 -0.033768 0.556691 -0.182472 -0.452144 0.071338 -0.308868 -0.257234 0.253419 -0.218000 0.094272 -0.308093 -0.095128 -0.075239 -0.274033 -0.302791 -0.444290 0.280827 -0.418869 0.191835 -0.006759 -0.125443 0.464866 0.770223 -0.299338 -0.022825 0.147668 0.093447 0.307231 -0.127618 -0.280498 -0.086252 -0.436741 0.225885 0.014037 -0.233488 -0.146583 0.078932 0.471162 -0.082891 -0.167620 -0.001629 0.042462 -0.103034 0.313315 0.178823 -0.307012 0.500400 0.273053 0.015515 -1.598011 -0.215103 -0.217675 -0.217940 -0.250246 -0.287334 -0.334060 -0.698658 0.698519 0.049908 -0.442145 0.429599 0.163246 0.073298 -0.701640 -0.249862 0.056682 0.315324 0.043341 0.205581 -0.000313
-0.401093 -0.157146 0.017483 -0.378897 -0.250566 -0.061240 0.126088 -0.317259 0.128588 -0.161254 0.439292 0.456440 0.134141 -0.161946 -0.374901 -0.414404 0.123468 0.336579 -0.137699 0.157726 -0.149964 -0.124446 -0.922741 -0.017791 0.044420 -0.159530 0.155370 0.049935 0.397473 -0.424421 0.242330 0.639941 -0.272414 0.345110 0.048754 0.149222 0.137467 -0.470756 -0.460526 0.058088 -0.471277 -0.491056 -0.830540 -0.307003 -0.492970 0.030434 -0.173908 -0.338244 0.211016 0.045711 0.076404 -0.296282 0.270467 -0.179656 0.105907 -0.239456 0.332306 0.500128 0.045513 0.259974 -0.234561 -0.098239 0.320327 -0.275669 -0.132869 -0.097346 0.226837 -0.256380 -0.004440 -0.019108 0.015345 -0.905442 -0.145920 -0.033400 -0.267039 -0.334420 -0.477246 -0.241044 -0.316626 -0.507294 0.033510 0.007497 -0.010511 0.415044 -0.415660 0.076892 0.016855 -0.610107 -0.065450 0.490611 0.230915 -0.285039 0.268724 -0.049130 0.286153 0.046390 0.470128 -0.516284 -0.084092 -0.099879 -0.083082 -0.232858 0.460147 0.023871 0.051571 -0.030810 -0.144574 -0.039495 -0.044755 0.061430 -0.413208 0.222807 -0.375869 0.169832 0.200258 -0.239550 -0.036240 0.134316 -0.467273 -0.501071 0.447285 -0.048777 -0.310169 -0.012089 -0.392864 0.398179 -0.096502 0.249793
