-0.036520
-0.025633
0.003836
0.153390
0.058359
-0.022852
-0.328993
-0.114237
-0.190313
-0.047409
-0.364471
-0.025455
0.182989
0.328992
-0.284072
0.042829
-0.602123
-1.020854
0.058316
-0.029659
-0.232101
0.044665
-0.113863
0.109824
-0.021594
-0.163776
-0.148848
0.006735
0.295116
-0.056734
-0.162884
0.133383
0.458329
0.090491
0.449901
-0.488927
0.238591
-0.145348
-0.144627
0.268608
0.097541
-0.160156
-0.253354
0.283933
0.080521
0.000451
0.102508
0.257818
0.112725
0.313840
0.107179
-0.280367
-0.279999
-0.000528
0.360465
-0.138930
0.167329
0.201952
0.078011
-0.061983
0.210110
0.055396
0.090203
0.155835
-0.206463
-0.130805
0.483313
0.127005
-0.116566
-0.207151
-0.098468
0.377969
0.077082
-0.087261
0.220448
-0.111105
-0.036073
0.145979
-0.067917
-0.391843
0.203286
0.062762
-0.378498
-0.055084
-0.025149
-0.046740
-0.033872
0.162008
-0.075856
-0.100862
0.152431
-0.446100
-0.420200
-0.166945
0.010889
0.374602
-0.275550
0.026980
-0.150815
0.011354
-0.267786
-0.169018
0.339473
-0.111097
-0.207828
0.009079
-0.185384
-0.081037
0.253375
-0.119235
-0.189465
0.160698
-0.141240
0.314476
0.245166
-0.327941
-0.032132
-0.299932
-0.034872
0.117682
0.282124
0.021338
-0.026723
-0.183349
-0.754794
0.081975
-0.103748
0.253622
