-0.281748 -0.023268 -0.113687 0.463449 0.012020 -0.349797 0.067128 0.027448 -0.024214 0.452224 0.280434 -0.241966 -0.007530 0.104201 0.723262 0.210508 0.072048 -2.581638 -0.019218 0.814971 -0.334569 -0.113563 -0.119464 0.020152 0.065405 0.365537 0.002600 0.087688 0.342498 -0.914812 -0.497386 0.139501 0.479323 -0.335393 0.338460 1.869434 0.002495 0.280230 -0.664887 -0.069576 -0.099251 -0.416480 -0.099363 -0.260879 0.033044 -0.160506 0.095123 -0.044759 0.724586 0.344079 -0.274597 0.310280 0.074328 0.236515 0.102525 -0.402651 0.101000 0.498624 -0.185890 -0.050975 0.179150 0.026691 -0.140656 -0.430783 0.751151 0.444943 0.376106 1.186861 -0.238135 0.240301 1.183872 0.026931 -0.132447 -0.138877 0.991283 -0.669795 -0.303996 0.037042 0.491345 -0.793394 -0.132423 0.201276 -0.883998 -0.009642 0.123199 0.228372 0.091300 0.278598 -0.426518 -0.138322 -0.089046 0.064858 -0.228743 -0.574601 0.435685 0.665873 -0.234529 -0.268900 -0.514253 0.132581 -0.558402 -0.264665 -0.216763 -0.256574 0.016886 -0.067021 0.274889 -0.422061 0.394031 0.107497 -0.552724 0.023392 0.038469 -0.073361 -0.097711 0.041812 -0.376468 -0.122314 -0.168389 0.205588 0.266460 -0.192466 0.300498 0.109370 -1.889555 -0.120457 0.371902 -0.376313
0.279804 0.022648 0.111913 -0.462918 -0.011064 0.348993 -0.066511 -0.027814 0.025015 -0.450240 -0.279375 0.245101 0.008507 -0.105502 -0.722473 -0.210583 -0.072958 2.581559 0.021481 -0.816699 0.334641 0.113659 0.118605 -0.018602 -0.066365 -0.366195 -0.002738 -0.087025 -0.341356 0.912704 0.497597 -0.139841 -0.480068 0.337426 -0.337970 -1.870417 -0.000796 -0.280311 0.662920 0.069875 0.098530 0.417041 0.098036 0.262057 -0.031689 0.160489 -0.094880 0.044604 -0.725189 -0.345660 0.271983 -0.310404 -0.073932 -0.236143 -0.102585 0.403805 -0.101050 -0.499696 0.185485 0.051267 -0.177847 -0.026148 0.141414 0.430214 -0.749000 -0.444478 -0.377080 -1.186785 0.239527 -0.239470 -1.183019 -0.029080 0.133106 0.139357 -0.990600 0.669637 0.302871 -0.037351 -0.491249 0.791314 0.134151 -0.203058 0.882209 0.008047 -0.123142 -0.227192 -0.093412 -0.278559 0.426680 0.138608 0.088460 -0.065010 0.229832 0.573703 -0.434773 -0.665069 0.236620 0.269973 0.513946 -0.131076 0.561819 0.263043 0.217675 0.256818 -0.015987 0.068401 -0.274712 0.422112 -0.395782 -0.105221 0.552138 -0.023028 -0.038179 0.075174 0.098488 -0.043106 0.379575 0.121629 0.166530 -0.205050 -0.264942 0.190645 -0.299830 -0.108842 1.891645 0.120078 -0.371123 0.379409
0.043590 -0.079617 0.558257 0.336474 -0.285843 0.134596 0.228329 0.495676 -0.402461 -0.261157 0.327822 0.499858 0.619673 0.475851 -0.488815 -0.022901 0.344865 -0.775500 0.125059 -1.279640 -0.301886 0.012607 -0.436842 -0.884297 0.057907 0.102230 -0.387649 0.293437 0.408598 -0.417039 0.100639 0.017809 0.560361 -0.005476 0.437603 -0.318326 0.188929 -0.530236 0.250032 0.261536 0.358897 0.077459 0.463940 0.046525 0.583592 0.159629 0.024211 0.174961 0.376826 -0.292486 0.552068 -0.362831 -0.513978 0.152981 0.276718 0.099949 0.274303 0.313283 0.332579 0.282157 0.149598 -0.155559 0.338109 0.066081 0.136413 -0.328314 0.076639 -0.238253 0.068073 0.133148 -0.355737 0.143773 0.367280 0.122765 -0.621527 0.752310 -0.366396 -0.074850 -0.854552 0.127702 -0.059941 0.090010 -0.948672 0.550022 0.030764 0.307623 0.572715 0.937939 0.453435 -0.277168 0.299067 0.130736 0.227174 -0.498674 0.308087 0.511049 -0.059778 -0.213341 -0.192490 -0.268624 -0.800242 -0.041822 0.007970 -0.419135 -0.217679 -0.030977 -0.318429 0.211949 0.223251 -0.353266 -0.589182 -0.005207 -0.770569 0.096004 0.041906 -0.166793 -0.028354 -0.470046 -0.480332 -0.703476 0.276817 0.419863 -0.444918 -0.139499 -0.404734 0.872707 -0.368662 0.158250
-0.282998 0.142938 -0.084261 0.935766 0.399071 0.752472 -0.475612 0.226795 -0.521024 -0.113182 0.442573 0.027119 0.181809 -0.087016 -0.050985 0.320117 -2.461481 0.362668 -0.134836 0.009957 0.517363 0.089028 0.560518 0.164835 -0.741315 0.451185 0.400134 -0.205821 0.378579 0.584512 0.148886 0.065967 0.094191 -0.406011 0.295701 -0.206855 0.522896 -0.082181 -0.082116 0.171171 -0.042814 -0.048608 0.292558 0.469824 0.450618 -0.174948 0.471828 0.177683 -0.035256 0.056952 -1.042997 -0.021779 0.468337 -0.119176 0.127262 0.244582 -0.253010 0.714416 -0.570248 -0.254515 -0.245692 0.327637 0.469302 0.147242 0.117267 -0.017295 0.354135 0.048684 0.054821 -0.678134 0.009562 0.319746 -0.069078 0.151594 0.101117 0.224004 0.209286 0.397810 0.210955 -0.496770 0.553209 -0.147174 -0.070658 -0.519717 -0.333466 0.015007 -0.070794 0.148620 -0.061627 0.118059 0.098212 -1.217847 -1.237516 -0.079321 -0.417142 -0.109309 -0.095589 0.018019 0.097241 0.220300 -0.310066 -0.295124 0.129613 0.297910 -0.026465 0.173074 0.306827 -0.158108 0.276715 -0.055836 -0.101680 0.369852 0.446349 0.437882 0.395001 -0.385303 0.070911 0.473085 0.549885 0.249683 0.203034 -0.427830 0.199579 -0.120620 0.276865 0.262388 0.062890 -0.162686
0.417449 0.224269 0.032452 -0.467412 -0.534307 0.274843 -0.915569 0.316636 0.085744 0.066255 -0.724801 -0.796906 0.326983 0.247057 -0.537150 -0.569927 0.142117 -0.158155 0.183478 -0.162815 -0.294229 0.616803 -0.234638 -0.002746 -0.434185 -0.366758 0.529495 0.431684 -0.217466 0.124837 -0.003849 -0.845694 -0.127712 0.247214 -0.335236 -0.008753 -0.513753 0.011409 0.010868 -0.566475 0.376573 -0.368137 0.378533 -0.021605 0.142723 -0.402959 0.265830 -0.249721 -0.096470 -0.537406 -0.085106 -0.144930 -1.030003 0.417308 -0.164960 0.491025 -0.316830 -0.088956 -0.001803 0.084929 0.253127 -0.833645 -0.099820 0.274858 1.374401 -0.498870 -0.373711 0.255910 -0.198967 0.079346 0.424495 -0.699538 0.690807 0.199541 -0.424667 -0.064552 -0.988853 -0.209280 0.115929 0.388509 0.279102 0.350062 -0.704616 -0.324919 0.079748 0.214636 0.519196 -0.150693 -0.425381 0.256568 0.226524 0.164162 0.289901 0.114654 0.365672 -0.174453 -0.185210 0.175793 -0.166607 0.295865 -0.154962 -0.434058 0.248802 -0.287207 0.289964 0.435412 0.529014 -0.353641 0.309334 0.379789 0.359815 -0.024109 0.783971 -0.600438 -0.365424 0.125428 0.144601 -0.027137 0.353565 0.825694 -0.342923 -0.292820 0.434399 -0.329860 0.025397 0.083883 0.362965 0.526704
0.018486 0.021087 -1.062036 -0.260304 0.408674 -0.382133 0.969444 -0.602512 -0.116793 -0.227436 0.081402 0.260636 -0.140990 -0.210914 -0.042247 -0.227444 0.214805 -2.293532 0.040729 0.520907 0.584899 -0.994975 0.281941 0.598494 0.027071 -0.037934 -0.848685 0.021048 -0.401413 -0.112255 0.550952 0.704901 0.022721 0.296976 0.457537 0.526274 -0.643824 -0.252485 -0.727205 -0.031961 -0.052949 0.449345 -0.780149 -0.237952 0.166944 0.425056 -0.544840 0.241545 0.322784 0.395838 0.129013 0.038016 0.357012 0.010873 0.059216 0.021763 0.450823 -0.000930 -0.136418 -0.007116 0.001180 -0.113578 0.265007 0.296540 -0.556585 0.028686 0.299759 0.480228 0.119772 0.456470 0.343883 0.412866 -0.101031 0.251867 0.741222 -0.257289 0.094042 -0.586414 0.096517 -0.853489 -0.318423 0.446713 0.500947 -0.108671 -0.173004 0.316358 -0.927657 0.019942 0.336559 0.252223 0.433773 -0.038663 0.074878 -0.484954 -0.523273 0.389270 0.259431 0.352710 0.001335 0.574633 -0.238776 0.665751 0.296624 0.128463 -0.237073 -0.439415 -0.195384 0.020824 -0.643081 -0.037922 -0.738018 -0.559121 -0.370642 0.288437 0.141008 -0.128797 0.140276 0.170169 -0.334474 -0.473353 -0.680483 -0.175864 -0.753062 0.210240 -1.905190 -0.360706 0.241053 -0.741585
-0.281771 0.482935 -0.076131 -0.503278 0.629024 -0.134602 -0.045909 -0.697416 0.255900 -0.007571 -0.337155 0.199584 0.215797 -0.384356 0.190814 0.102082 0.192818 0.148625 -0.220362 0.079348 0.457960 -0.457423 0.311007 -0.016097 -0.269729 -0.277221 -0.056557 -0.991782 -0.184911 0.131531 0.157978 0.363814 0.148847 0.637366 -0.286388 -0.079442 -0.114179 -0.097338 0.302456 0.146892 -0.766620 0.469450 0.345104 0.380830 -0.101691 0.174531 0.156824 -0.835439 -0.498627 -0.649431 0.141673 -0.535883 -0.165857 0.212346 -1.148525 -0.148107 0.010661 -1.049896 -0.461999 0.220179 0.397916 0.493702 -0.321737 0.352029 -0.271501 0.670284 -0.168072 -0.101718 0.463220 0.242360 -0.211814 -0.285856 -0.073120 0.134090 0.326185 -0.042854 0.574628 0.299773 0.044146 0.179343 0.356846 0.131309 0.246066 -0.629193 0.060757 -0.854005 0.223471 -0.999412 -0.611337 -0.009644 -0.153720 0.206246 -0.019769 0.148600 0.020075 -0.833981 -0.955604 0.114174 -0.515280 0.208897 0.382652 0.572282 0.236664 -0.170313 -0.543333 0.255019 0.111183 0.578196 0.367340 0.179460 -0.556252 -0.057252 0.207389 0.009790 0.091646 0.726787 0.537355 0.183113 -0.205545 -0.046779 -0.417528 0.147496 -0.307658 -0.169339 0.279121 -0.219857 0.143610 0.500029
0.542779 -0.077184 -0.380436 -0.210451 -0.122411 -0.264033 0.040652 0.039192 0.689703 0.273143 0.117974 0.435878 0.050093 -0.543224 0.306396 -0.478269 0.045259 0.282760 0.051380 0.201488 0.370154 0.448297 0.361907 -0.139488 0.065645 0.410340 -0.046710 0.078633 0.201406 -0.335308 0.577709 -0.153716 -0.104257 -0.633917 -0.057612 -0.149302 0.276151 0.821106 0.089562 0.560541 -0.154606 0.215386 0.206746 0.334925 0.349329 -0.669200 -0.384013 -0.331955 0.102294 0.276260 -0.139161 0.297521 -0.152604 -0.150897 0.053429 -0.281986 -0.650574 -0.189985 -0.020572 0.344811 0.494861 -0.153828 -0.346125 -0.379253 -0.309979 0.038013 -0.077735 0.055439 0.388773 -0.502868 -0.209377 0.140577 -0.390322 -0.699115 0.088623 0.034133 0.201208 -0.266974 0.240857 0.086781 0.072814 0.168332 0.192177 0.732427 0.989595 -0.259573 0.671345 -0.529551 -0.190923 0.050507 -0.137526 0.122729 -0.067497 0.434069 0.370627 -0.081596 0.870922 -0.303135 0.481426 -0.731717 -0.072579 0.021965 -0.069212 0.441719 0.455101 -0.325852 -0.332369 0.206612 -0.160910 0.376959 0.689695 0.001398 0.248325 0.364851 -0.212050 -0.472109 -0.050753 0.146008 -0.099563 0.006388 -0.002970 0.831053 0.102047 -0.197790 0.293921 -0.242790 0.269054 0.234666
-0.087491 0.154793 0.835100 0.322875 -0.838019 -0.857320 -1.452186 0.567228 -0.459961 -0.344805 0.731326 0.026663 -0.776160 0.423138 -0.160528 0.289839 0.019604 0.732531 0.560700 -0.324589 -1.485031 0.241344 -0.101056 0.178868 0.300522 -0.479073 0.471760 0.074650 -0.009063 0.024684 -0.520240 -0.446216 -0.267898 0.098897 -0.891626 0.799170 -0.096754 0.367766 -0.180344 -0.743983 -0.233300 0.152515 -0.026751 -0.321388 -0.964572 0.442059 -0.264962 0.564085 -0.372367 0.322334 0.595186 0.395628 0.298339 0.573339 0.282849 0.482430 0.247074 -0.000658 0.126467 -0.045521 -0.718316 0.303473 -0.593259 0.310242 -0.048203 0.510564 -0.649272 0.125612 -0.441593 0.035796 0.064579 0.126264 -0.066063 0.463902 -0.766590 -0.293799 0.416934 0.017373 0.356997 0.512914 -0.646121 -0.334526 -0.472590 0.126893 -0.373012 0.158567 -0.169938 0.438738 -0.317973 0.279622 -0.738136 0.200988 0.103121 -0.155909 -0.121675 -0.144867 0.431512 -0.220626 0.139101 -0.572557 1.048952 0.479986 0.006772 0.584245 0.641480 0.042382 -0.894281 -0.474866 -0.086326 0.353961 -0.011672 0.307301 0.149429 -0.328928 -0.308858 0.347008 -0.069178 -0.608801 -0.158848 0.493964 0.481686 -0.045745 -0.013368 -0.221563 0.276053 0.243630 0.367415 -0.403366
-0.416136 -0.695305 -0.021170 0.097545 0.294319 0.459961 0.883682 -0.353578 0.187571 0.341996 -0.204811 -0.459675 -0.187294 0.234610 0.359585 0.513839 0.121846 0.419654 -0.254442 0.410065 0.219892 -0.108098 -0.886274 -0.009190 0.435514 0.170454 -0.267901 0.078178 -0.226453 -0.045998 -0.670725 0.014560 0.026504 -0.111210 0.184524 -0.478072 0.347690 -0.090558 0.198350 0.022477 0.199079 -0.695443 -0.373886 -0.610823 -0.853052 0.147568 0.308757 0.082080 0.168786 0.074172 -0.349694 0.440637 0.548590 -0.609232 0.269312 -0.599810 0.061306 0.320551 0.526281 -0.366078 -0.221925 0.311282 0.165701 -0.725153 -0.269155 -0.230153 0.266529 -0.259503 -0.203199 0.369535 0.014332 0.056383 -0.314177 -0.223943 0.097477 0.098975 -0.096789 0.243314 -0.137614 0.141830 -0.363386 -0.521187 0.276950 0.003386 -0.244782 0.090811 -0.035000 0.543764 0.665142 -0.632661 0.162398 -0.026080 0.223201 0.178137 -0.004705 0.314975 0.096024 0.138326 0.001689 0.241736 0.146234 -0.927391 -0.752226 -0.413817 -0.254087 0.023347 0.444970 -0.169519 -0.257586 -0.738191 0.386389 0.070815 -0.473814 -0.078859 0.163156 0.087697 -0.499311 0.258446 0.206073 -0.170699 0.170542 -0.554881 0.313311 0.821646 0.510741 -0.327221 -0.801266 -0.113570
