-0.125000
0.277344
0.113281
-0.241211
0.087891
-0.002930
-0.163086
-0.248047
-0.149414
-0.328125
0.126953
-0.047852
-0.065430
-0.191406
0.108398
-0.145508
0.037109
-0.277344
0.094727
0.084961
-0.139648
0.183594
-0.314453
0.083984
-0.132812
-0.416992
-0.448242
0.043945
0.042969
-0.303711
0.161133
-0.100586
0.318359
-0.370117
-0.286133
0.134766
-0.040039
0.192383
0.247070
0.306641
0.044922
-0.195312
-0.137695
0.080078
-0.254883
-0.003906
0.034180
0.107422
-0.290039
0.222656
-0.039062
-0.089844
-0.053711
0.033203
0.243164
0.188477
0.184570
0.040039
-0.108398
-0.102539
0.017578
0.009766
0.012695
0.067383
0.235352
-0.034180
-0.290039
0.010742
0.068359
0.082031
-0.033203
-0.079102
0.141602
-0.090820
-0.269531
0.133789
0.170898
-0.016602
-0.090820
0.329102
-0.371094
0.093750
-0.013672
-0.015625
-0.030273
0.022461
0.204102
0.311523
-0.256836
0.293945
0.117188
0.081055
0.163086
0.082031
0.065430
-0.076172
0.043945
-0.090820
-0.002930
-0.077148
-0.095703
-0.242188
0.044922
0.193359
-0.072266
-0.321289
0.188477
-0.406250
-0.006836
-0.060547
0.009766
0.081055
0.038086
-0.277344
0.216797
0.018555
0.000000
0.002930
-0.486328
-0.122070
0.130859
0.015625
-0.174805
-0.227539
0.430664
0.377930
-0.092773
0.110352
