-0.645508
0.141602
0.319336
0.740234
-0.474609
-0.077148
-0.188477
0.535156
-0.557617
-0.422852
0.075195
-0.600586
-0.477539
-0.312500
0.286133
-0.397461
0.162109
0.370117
-0.301758
-0.330078
-0.070312
0.346680
0.390625
-0.256836
0.005859
0.001953
-0.577148
-0.288086
0.007812
0.097656
0.030273
-0.002930
-0.122070
0.150391
0.194336
-1.028320
-0.198242
-0.547852
0.266602
0.291992
-0.045898
-0.796875
-0.606445
0.074219
-0.310547
-0.322266
-0.460938
-0.145508
0.016602
0.136719
0.327148
0.216797
0.104492
0.113281
0.025391
0.074219
0.271484
0.350586
-0.281250
-0.154297
0.381836
0.350586
-0.563477
-0.651367
-0.601562
-0.506836
0.303711
-0.643555
0.493164
0.431641
-1.455078
-0.229492
0.434570
-0.375000
-0.688477
0.292969
0.614258
-0.065430
0.128906
-0.628906
0.287109
-0.351562
-0.041992
0.413086
0.015625
0.055664
-0.049805
-0.067383
0.333984
0.198242
0.148438
-0.020508
0.124023
0.445312
-0.570312
0.194336
-0.215820
-0.243164
-0.062500
-0.936523
-0.040039
-0.349609
-0.193359
-1.407227
-0.249023
0.296875
0.278320
-0.333008
-0.275391
-0.263672
0.475586
-0.190430
-0.315430
-0.509766
0.254883
0.126953
-0.020508
-0.081055
-0.007812
-0.205078
-0.157227
-0.096680
0.019531
-0.020508
0.364258
0.004883
0.009766
0.289062
0.260742
0.513672
-0.075195
0.355469
0.167969
0.386719
-0.223633
0.229492
-0.433594
0.139648
0.356445
-0.331055
-0.753906
-0.009766
0.101562
-0.106445
-0.333008
-0.247070
0.379883
0.258789
-0.283203
-0.986328
0.450195
-0.524414
0.130859
-0.129883
-0.414062
-0.197266
-0.537109
0.194336
0.013672
0.294922
0.312500
-0.452148
0.335938
0.118164
-0.063477
-0.043945
-0.130859
-0.029297
0.008789
-0.123047
0.127930
0.039062
-0.131836
-0.026367
0.029297
-0.039062
0.018555
-0.293945
-0.062500
-0.133789
0.111328
-0.004883
0.023438
0.014648
-0.163086
-0.197266
0.058594
-0.051758
-0.044922
-0.022461
-0.017578
0.037109
-0.175781
-0.101562
0.052734
-0.159180
-0.124023
0.218750
0.125977
-0.013672
-0.097656
-0.083008
0.060547
-0.351562
-0.022461
-0.134766
0.465820
0.730469
0.209961
-0.517578
0.036133
-0.197266
0.090820
-0.104492
0.082031
-0.022461
-0.223633
-0.143555
0.031250
-0.238281
-0.329102
-0.072266
-0.004883
-0.444336
0.401367
0.842773
-0.924805
0.423828
0.350586
-0.343750
0.113281
-0.310547
-0.754883
0.136719
-0.473633
0.176758
0.118164
-0.259766
0.403320
-0.553711
0.351562
0.419922
0.197266
-0.070312
-0.589844
0.307617
-0.244141
0.261719
0.582031
0.023438
0.249023
-0.435547
-0.214844
0.123047
-0.258789
-0.040039
0.095703
-0.122070
-0.208008
0.299805
-0.043945
0.107422
-0.085938
-0.446289
-0.010742
0.042969
-0.237305
0.865234
-0.572266
-0.269531
0.088867
-0.233398
0.301758
-0.092773
-0.852539
0.221680
-0.170898
0.498047
-0.070312
-0.614258
0.365234
0.231445
-0.883789
0.055664
-0.067383
-0.366211
-0.207031
0.154297
-0.140625
0.000977
0.144531
0.401367
-0.015625
0.208984
-0.135742
0.231445
-0.150391
0.115234
0.009766
-0.782227
-0.338867
0.041016
-0.206055
-0.122070
0.046875
0.263672
-0.576172
-0.345703
-0.378906
-0.120117
-0.345703
0.025391
0.019531
0.108398
-0.261719
-0.229492
-0.275391
0.179688
0.091797
-0.072266
-0.388672
0.081055
0.397461
0.258789
0.874023
-0.531250
-0.308594
0.481445
-0.245117
-0.082031
-0.007812
-0.804688
0.295898
-0.069336
-1.230469
-0.011719
0.207031
0.320312
0.217773
0.169922
-0.009766
0.710938
-0.023438
0.503906
0.051758
0.668945
-0.224609
-0.002930
0.000000
0.517578
0.258789
0.292969
-0.225586
0.020508
0.181641
-0.112305
0.003906
0.126953
-0.370117
0.333008
-0.467773
-0.097656
0.240234
0.349609
-0.097656
-0.034180
0.480469
-0.217773
0.034180
-0.331055
-1.083984
0.242188
-0.142578
-0.333984
-0.423828
0.783203
0.306641
0.193359
-0.239258
0.229492
-0.182617
-0.135742
-0.324219
0.289062
-0.027344
-0.078125
-0.725586
-0.157227
-0.062500
0.364258
-0.363281
0.130859
-0.112305
-0.193359
0.110352
-0.023438
0.009766
0.028320
0.390625
-0.042969
0.728516
-0.094727
0.075195
0.044922
0.286133
0.833984
-0.018555
-0.615234
-0.077148
-0.348633
-0.179688
-0.740234
-0.080078
-0.862305
-0.220703
-0.267578
-0.637695
-0.194336
-0.300781
-0.475586
-0.036133
0.289062
0.360352
-0.019531
-0.122070
-0.186523
-0.305664
-0.119141
0.029297
0.121094
-0.246094
-0.218750
-0.457031
-0.259766
-0.288086
0.166016
-0.229492
-1.288086
-0.122070
0.267578
-0.319336
-0.191406
0.199219
0.214844
0.458984
-0.104492
-0.325195
0.087891
-0.867188
0.223633
-0.681641
0.708008
0.049805
-0.118164
0.198242
-0.086914
0.048828
0.589844
-0.447266
0.282227
0.678711
0.294922
0.558594
0.248047
-0.441406
-0.367188
-1.791016
0.170898
0.400391
-0.164062
-0.550781
0.143555
-0.045898
0.038086
-0.085938
-0.377930
-0.598633
-0.047852
-0.094727
-0.026367
-0.365234
-0.049805
-0.237305
-0.321289
-0.289062
-0.241211
-0.169922
0.151367
0.635742
0.452148
-0.132812
0.027344
-0.482422
-0.104492
-0.286133
-0.429688
0.035156
-0.334961
-0.140625
-0.900391
-0.276367
0.552734
0.043945
-0.130859
-0.331055
-0.032227
0.310547
0.203125
0.180664
0.060547
-0.124023
0.036133
0.506836
0.272461
-0.125977
0.117188
0.535156
0.167969
0.149414
0.006836
0.350586
0.370117
-0.257812
-0.565430
-0.361328
-0.208008
1.066406
-0.054688
0.027344
-0.114258
0.072266
0.339844
-0.117188
0.263672
-1.050781
-0.654297
0.585938
-0.376953
0.150391
0.501953
-0.083008
0.959961
-0.007812
0.210938
-0.529297
-1.176758
-0.088867
-0.027344
-0.000977
0.247070
0.477539
0.412109
-0.152344
0.051758
0.457031
-0.079102
-0.067383
0.109375
0.182617
0.226562
0.335938
0.137695
-0.069336
-0.225586
0.786133
-0.396484
-0.370117
-0.030273
0.473633
-0.334961
-0.331055
-0.372070
-0.107422
-0.034180
0.071289
-0.686523
-0.666016
-0.076172
0.219727
0.191406
-0.367188
0.468750
-0.180664
0.007812
-0.132812
-0.289062
-0.172852
0.291992
0.164062
0.400391
0.104492
-0.238281
0.053711
-0.306641
0.306641
-0.217773
0.141602
0.008789
0.637695
-0.110352
0.079102
0.090820
-0.172852
0.257812
-0.526367
-0.261719
-0.934570
0.462891
0.327148
0.511719
-0.332031
-0.861328
-0.005859
0.549805
-0.729492
0.063477
0.605469
-0.050781
-0.412109
-0.089844
-0.190430
-0.012695
0.259766
0.054688
-0.398438
-0.310547
-0.302734
0.006836
0.107422
0.109375
0.379883
-0.123047
-0.195312
0.198242
-0.310547
-1.280273
-0.341797
0.282227
0.609375
0.633789
-1.029297
0.141602
-0.187500
-0.098633
-0.437500
0.333984
-0.064453
0.408203
-0.050781
0.158203
0.017578
0.228516
-0.078125
-0.402344
0.064453
0.347656
-0.317383
0.554688
-0.646484
-0.643555
0.045898
0.169922
-0.491211
-0.293945
-1.418945
-0.408203
0.232422
-0.232422
0.507812
-0.091797
0.154297
0.073242
-0.565430
-0.092773
-0.248047
-0.139648
0.023438
-0.504883
-0.387695
0.395508
-0.155273
0.446289
-0.277344
-0.194336
0.416992
0.417969
0.044922
0.401367
0.381836
-0.061523
-0.188477
-0.202148
-0.007812
0.327148
0.225586
0.311523
0.335938
0.532227
-0.131836
0.384766
0.160156
-0.159180
0.344727
0.345703
0.127930
-0.637695
0.279297
0.001953
-0.043945
-0.015625
-0.305664
0.147461
-0.996094
0.177734
0.085938
-0.123047
0.228516
-0.422852
-0.339844
-0.063477
-0.322266
-0.348633
0.073242
0.107422
-0.209961
-0.083984
-0.059570
0.166992
-1.115234
-0.219727
-1.160156
-0.514648
-0.093750
0.061523
-0.238281
0.882812
0.501953
0.168945
-0.106445
-0.363281
-0.086914
0.301758
-0.058594
0.014648
-0.251953
-0.104492
-0.015625
-0.139648
0.127930
0.100586
-0.278320
0.378906
0.934570
0.168945
-0.331055
-0.131836
0.021484
-0.019531
-0.091797
-0.076172
0.036133
0.125000
0.189453
-0.982422
-0.275391
0.703125
-0.146484
1.333008
-0.296875
-0.435547
-0.244141
-0.126953
0.374023
0.208984
-0.161133
-0.098633
-0.187500
0.136719
0.044922
0.157227
0.013672
-0.364258
0.165039
0.130859
-0.221680
0.896484
-0.046875
-0.560547
-0.250977
0.458008
-0.157227
-0.485352
-0.134766
0.113281
-0.202148
-0.249023
0.332031
-0.235352
0.179688
-0.089844
-0.221680
-0.954102
-0.229492
0.386719
-0.033203
-0.607422
0.292969
-0.123047
-0.345703
0.399414
-0.625977
0.220703
-0.064453
0.625000
-0.031250
0.029297
0.064453
0.402344
-0.158203
-0.286133
-0.199219
0.208984
0.202148
0.702148
0.920898
-0.011719
-0.222656
-0.123047
-0.422852
0.381836
-0.354492
-0.400391
0.840820
-0.116211
0.481445
0.084961
-0.413086
0.509766
-0.258789
-0.011719
-0.168945
-0.211914
-1.027344
-0.078125
-0.200195
0.162109
-0.099609
-0.039062
0.083008
-0.138672
0.218750
-0.077148
0.092773
-0.221680
0.438477
-0.437500
0.227539
-0.208008
-0.113281
0.016602
-0.160156
-0.196289
-0.064453
-0.498047
0.027344
0.440430
-0.375000
-0.271484
0.085938
0.052734
-0.413086
-0.361328
0.318359
0.131836
0.201172
-0.031250
0.398438
0.428711
-0.405273
0.291016
0.096680
-0.144531
-0.250000
-0.045898
0.036133
-0.359375
-0.375977
0.455078
0.221680
0.006836
0.217773
-0.211914
0.167969
-0.175781
0.349609
-0.875000
0.141602
-0.074219
-0.247070
-0.575195
-0.916016
0.165039
0.480469
0.328125
0.083984
0.226562
-0.071289
-0.052734
-0.130859
-0.130859
-0.352539
0.446289
0.537109
0.260742
-0.099609
-0.019531
-0.786133
-0.364258
0.092773
0.334961
0.694336
0.271484
0.334961
0.268555
0.163086
0.011719
-0.397461
0.612305
0.333984
-0.049805
0.043945
-0.183594
-0.988281
-0.003906
0.056641
0.235352
-0.052734
0.324219
-0.551758
-0.703125
0.397461
-1.509766
-0.417969
0.268555
-0.207031
0.104492
-0.187500
-0.791992
-0.017578
-0.171875
0.012695
-0.280273
0.233398
0.213867
-0.324219
-0.207031
0.020508
0.240234
0.276367
0.213867
-0.115234
1.385742
-0.537109
0.389648
0.495117
-1.247070
-0.320312
-0.230469
0.014648
-0.305664
-0.228516
-0.448242
0.144531
0.108398
-0.275391
0.021484
0.134766
-0.283203
-0.002930
0.132812
-0.019531
0.198242
-0.191406
-0.531250
0.261719
-0.176758
0.019531
0.293945
-0.281250
-0.098633
-0.183594
0.350586
-0.005859
-0.181641
-0.375977
0.545898
-0.113281
-0.566406
-0.620117
-0.225586
0.593750
0.122070
-0.001953
0.268555
0.066406
-0.041016
0.194336
-0.376953
0.573242
-0.046875
-0.719727
0.168945
0.359375
-0.329102
0.163086
-0.331055
-0.123047
0.128906
0.043945
0.259766
-0.226562
-0.141602
0.278320
0.110352
-0.007812
-0.089844
0.330078
0.556641
0.087891
-0.025391
-0.154297
-0.440430
-0.099609
0.244141
-0.336914
-0.949219
0.411133
0.727539
-0.182617
0.127930
-0.553711
-0.471680
0.385742
0.506836
-0.335938
0.130859
0.341797
0.015625
-0.545898
-0.041016
0.257812
-0.144531
0.190430
-0.647461
0.850586
-0.168945
0.307617
-0.120117
0.212891
0.949219
-0.021484
0.480469
-0.041992
-0.071289
-0.070312
0.477539
0.055664
-0.519531
0.225586
-0.015625
-0.209961
0.027344
-0.837891
1.047852
-0.184570
-0.212891
-0.079102
0.082031
-0.042969
-0.204102
0.315430
-0.202148
0.025391
0.113281
0.552734
0.077148
0.049805
-0.450195
-0.582031
0.114258
-0.270508
-0.615234
0.047852
-0.366211
-0.446289
-0.214844
0.151367
0.645508
0.189453
0.694336
-0.300781
-0.070312
0.101562
-0.114258
-0.223633
-0.088867
-0.589844
-0.226562
0.008789
0.064453
-0.175781
0.298828
-0.141602
0.119141
0.053711
0.774414
-0.335938
0.433594
0.526367
0.097656
0.032227
0.084961
-0.376953
0.296875
0.013672
0.221680
0.235352
-0.708984
0.151367
0.047852
-0.228516
-1.007812
-0.525391
-0.363281
-0.038086
-0.360352
-0.775391
-0.286133
-0.078125
-0.679688
0.286133
-0.173828
0.381836
-0.294922
0.147461
-0.053711
0.314453
0.415039
0.152344
0.411133
-0.063477
-0.171875
-0.046875
-0.080078
-0.109375
-0.151367
0.036133
0.249023
-0.338867
-0.796875
0.219727
-0.399414
-0.021484
0.348633
0.585938
0.055664
0.359375
0.185547
0.364258
0.718750
0.565430
0.010742
-0.610352
-0.414062
-0.375000
0.085938
-0.083008
0.172852
0.324219
-0.315430
-0.231445
-0.274414
0.216797
-0.204102
0.425781
-0.112305
-0.949219
-1.062500
0.080078
-1.157227
0.417969
0.317383
1.373047
0.137695
-0.268555
-0.014648
-0.713867
-0.220703
0.040039
-0.324219
-0.281250
0.130859
0.103516
-0.517578
-0.103516
-0.164062
-0.459961
-0.166016
0.291992
0.277344
0.487305
0.306641
-0.613281
-0.167969
0.250000
0.030273
-0.111328
-0.146484
0.127930
-0.281250
0.533203
-0.015625
0.061523
0.059570
-0.156250
0.336914
0.341797
-0.422852
0.204102
0.220703
0.231445
-0.637695
0.683594
0.151367
-0.851562
0.481445
-0.416992
-0.674805
0.062500
-0.279297
0.157227
0.232422
0.052734
-0.284180
0.163086
0.469727
-0.215820
-0.033203
0.330078
-0.293945
-0.375977
0.159180
-0.555664
-0.461914
-0.920898
-1.868164
0.596680
-0.238281
0.701172
0.009766
0.347656
-0.084961
-1.347656
0.301758
-0.146484
-0.431641
-0.022461
-0.135742
-0.362305
0.071289
0.052734
0.158203
-0.064453
0.070312
-0.041016
-0.097656
0.074219
0.112305
0.010742
0.152344
0.038086
0.210938
0.300781
-0.265625
-0.701172
0.468750
-0.348633
0.185547
0.202148
0.263672
0.076172
0.647461
0.317383
0.314453
-0.297852
-0.141602
-0.685547
0.266602
0.180664
-0.159180
-0.207031
0.501953
0.095703
-0.426758
-0.759766
-0.137695
-0.405273
-0.658203
0.625000
-0.134766
0.220703
0.132812
0.052734
0.396484
-0.316406
-0.143555
0.018555
-0.023438
-0.233398
-0.515625
0.083008
-0.078125
0.267578
-1.227539
-0.898438
0.113281
-0.335938
-0.313477
0.443359
-0.528320
-0.185547
-0.607422
0.308594
-0.442383
0.425781
0.271484
-0.119141
-0.142578
0.436523
0.177734
0.051758
0.123047
0.083984
-0.091797
0.033203
0.487305
-0.378906
-0.005859
0.071289
-0.096680
-0.251953
-0.588867
0.069336
0.692383
-1.154297
-0.173828
-0.519531
1.431641
0.056641
-0.355469
-0.009766
-0.707031
0.231445
-0.367188
-0.015625
-0.246094
0.201172
0.113281
-0.113281
-0.081055
0.092773
-0.316406
0.125000
-0.014648
0.218750
0.113281
-0.076172
-0.098633
0.225586
-0.044922
0.025391
0.276367
-0.083984
0.416992
-0.750977
0.206055
-0.297852
0.288086
-0.288086
-0.203125
0.209961
-0.127930
-0.219727
0.230469
0.418945
-0.188477
-0.246094
-0.166016
-0.275391
0.690430
-0.170898
-0.563477
0.224609
0.449219
-0.512695
0.072266
-0.091797
-0.210938
-0.107422
-0.227539
-0.538086
0.570312
-0.551758
-0.197266
-0.240234
-0.118164
0.259766
0.325195
0.045898
0.337891
-0.145508
-0.237305
0.138672
-1.120117
0.001953
0.002930
-0.214844
0.421875
-0.156250
0.234375
-0.166016
-0.144531
-0.137695
-0.371094
0.058594
-0.063477
0.548828
0.099609
-0.106445
-0.003906
-0.058594
0.190430
-0.285156
-0.346680
0.481445
-0.013672
-0.000977
0.391602
-0.633789
0.730469
-0.435547
-0.541992
0.201172
-0.042969
-0.112305
0.802734
-0.402344
-0.239258
-0.146484
0.414062
-1.400391
-0.395508
0.129883
0.085938
0.156250
0.421875
-0.567383
-0.064453
0.085938
0.159180
-0.436523
0.144531
-0.157227
-0.296875
-0.171875
-0.267578
-0.228516
-0.090820
0.552734
-0.624023
-0.360352
-0.152344
0.266602
0.150391
-0.077148
-0.033203
-0.143555
-0.189453
0.169922
-0.383789
0.146484
-0.416016
-0.090820
-0.104492
0.214844
-0.293945
0.023438
-0.426758
0.054688
-0.177734
-0.217773
-0.136719
-0.264648
-0.333008
0.508789
0.078125
-0.009766
-0.002930
0.736328
-0.581055
0.064453
-0.151367
0.213867
-0.184570
0.834961
0.637695
-0.340820
0.289062
-0.123047
0.407227
0.246094
0.569336
0.095703
0.348633
-0.257812
-0.073242
-0.105469
-0.227539
-0.666992
-0.769531
0.274414
-0.093750
-0.320312
-0.515625
-0.750977
0.487305
0.522461
0.331055
0.116211
-0.021484
-0.462891
0.344727
-0.450195
0.175781
0.416016
-0.119141
-0.395508
0.341797
0.109375
0.200195
0.227539
-0.176758
0.527344
0.046875
0.639648
-0.414062
-0.255859
0.365234
0.012695
0.057617
0.182617
-0.042969
-0.718750
-0.658203
0.168945
0.019531
-0.306641
0.208984
-0.038086
-0.366211
0.013672
0.146484
-0.564453
-0.437500
-0.512695
-0.432617
0.146484
-0.553711
0.328125
-0.069336
-0.337891
0.222656
-0.778320
-0.756836
0.083008
-0.064453
0.125000
-0.166992
0.541016
-0.153320
-0.257812
0.443359
0.107422
-0.808594
0.642578
0.237305
-0.337891
-0.061523
-0.334961
-0.060547
-0.066406
-0.280273
-0.305664
-0.670898
0.442383
0.413086
0.067383
-0.466797
-0.148438
0.041016
-0.102539
-0.214844
-0.030273
-0.246094
-0.139648
-0.084961
0.348633
0.096680
0.353516
-0.135742
0.196289
0.366211
0.211914
-0.011719
0.128906
-0.751953
-0.093750
-0.423828
-0.247070
-0.849609
-0.087891
-0.458984
0.098633
-0.194336
0.445312
-0.358398
0.154297
0.457031
0.231445
-0.030273
-0.375977
-0.060547
-0.180664
0.209961
-0.053711
-0.017578
0.797852
-0.465820
-0.361328
-0.200195
-0.371094
0.187500
0.233398
-0.004883
0.784180
0.282227
-0.577148
-0.020508
-0.627930
-0.316406
-0.478516
-1.144531
-0.255859
0.083008
-0.572266
0.494141
0.217773
0.420898
-0.226562
-0.507812
0.095703
0.399414
-0.250977
0.083984
-0.176758
0.142578
-0.246094
0.140625
0.116211
-0.318359
0.202148
-0.000000
-0.392578
-0.042969
-0.069336
-0.127930
0.228516
0.075195
0.094727
-0.263672
-0.043945
0.061523
0.614258
-0.058594
0.239258
-0.220703
0.234375
-0.442383
-1.182617
0.032227
0.496094
-0.113281
-0.641602
-0.172852
-0.798828
-0.106445
0.473633
-0.955078
0.344727
-0.182617
0.488281
-0.383789
-0.101562
-0.561523
0.569336
0.112305
0.046875
-0.219727
0.061523
0.917969
0.822266
-0.189453
0.109375
-0.511719
-0.170898
-0.406250
0.095703
0.346680
0.256836
0.181641
-0.750000
-0.698242
0.425781
-1.029297
0.145508
0.267578
0.334961
0.552734
-0.204102
-0.279297
-0.605469
-0.079102
0.136719
0.206055
-0.262695
0.416992
-0.563477
0.021484
0.373047
-0.589844
-1.005859
0.325195
-0.067383
-0.700195
-0.255859
0.280273
-0.056641
0.435547
-0.206055
0.178711
-0.501953
0.208984
-0.134766
-0.375977
-0.142578
-0.012695
0.034180
0.041016
0.034180
-0.023438
0.044922
0.062500
-0.198242
-0.072266
0.073242
0.219727
0.088867
0.867188
-0.247070
-1.580078
-0.606445
-0.625000
-0.104492
0.275391
0.764648
-0.132812
0.405273
-0.030273
0.893555
-0.042969
-0.309570
0.158203
0.157227
-0.204102
-0.150391
-0.049805
-0.337891
0.106445
0.178711
0.219727
-0.399414
0.270508
0.135742
0.016602
-0.347656
-0.265625
-0.164062
0.096680
-0.175781
-0.313477
-0.311523
-0.138672
-0.621094
-0.032227
-0.044922
-0.495117
0.110352
0.096680
-0.836914
0.378906
0.140625
0.372070
0.003906
1.816406
0.202148
0.094727
0.625977
0.193359
-0.535156
-0.247070
-0.221680
0.098633
0.441406
0.042969
-0.830078
-0.019531
0.114258
0.222656
0.616211
-0.037109
-0.051758
0.009766
-0.180664
-0.040039
0.088867
-0.421875
-0.551758
0.171875
-0.120117
0.175781
0.389648
0.006836
1.186523
0.147461
0.319336
-0.245117
-1.182617
0.299805
0.434570
0.214844
-0.196289
-0.477539
0.095703
0.095703
0.001953
-0.168945
-0.232422
-0.296875
0.080078
0.081055
0.078125
0.019531
-0.068359
-0.018555
0.310547
-0.214844
-0.163086
-0.332031
-0.041016
-0.682617
0.293945
-0.095703
-0.117188
0.211914
-0.106445
0.033203
0.049805
-0.005859
0.051758
-0.111328
0.053711
0.051758
0.034180
0.275391
0.974609
-0.112305
-0.227539
0.046875
-1.893555
0.153320
0.220703
0.210938
0.192383
-0.283203
0.429688
0.309570
-0.009766
0.130859
-0.107422
-0.143555
-0.228516
-0.011719
-0.950195
-1.150391
0.213867
-0.214844
0.110352
0.057617
-0.024414
-0.257812
0.313477
-0.243164
0.692383
0.139648
-0.002930
-0.144531
-0.581055
-0.396484
-0.185547
0.341797
0.484375
-1.455078
-0.547852
0.081055
-0.307617
0.361328
0.740234
-0.370117
-0.436523
0.179688
-0.097656
-0.290039
-0.110352
0.055664
0.075195
-0.120117
-0.303711
-0.064453
-0.042969
-0.774414
1.476562
-0.381836
-0.042969
-0.396484
-0.463867
-0.150391
0.414062
-0.670898
0.233398
0.216797
-0.413086
0.006836
0.169922
0.025391
-0.401367
0.310547
0.062500
-0.022461
-0.028320
-0.405273
-0.071289
-0.140625
0.781250
-0.077148
0.148438
0.094727
-0.048828
0.067383
0.554688
-0.193359
-0.102539
0.382812
0.125977
-0.294922
-1.114258
-0.235352
-0.015625
0.058594
0.187500
-0.943359
-0.215820
0.269531
-0.086914
0.065430
0.206055
-0.458008
0.146484
0.206055
0.149414
0.203125
0.222656
-0.382812
-0.090820
0.379883
-0.099609
-0.437500
0.000977
-0.366211
-0.029297
-0.336914
0.807617
-0.673828
-0.103516
-0.117188
0.116211
0.271484
-0.155273
-0.429688
-0.039062
0.318359
0.031250
-0.609375
0.555664
-1.058594
-0.086914
0.297852
-0.369141
0.676758
-0.250977
0.268555
-0.485352
-0.731445
0.081055
0.233398
0.104492
0.294922
-0.087891
0.041992
-0.319336
0.270508
-0.214844
-0.396484
-0.458008
0.059570
0.173828
0.382812
-0.369141
0.280273
-0.071289
0.721680
0.777344
-0.158203
0.549805
-0.027344
0.629883
-0.277344
0.588867
0.184570
0.116211
0.241211
0.015625
-0.276367
0.019531
-0.645508
0.277344
-0.158203
0.410156
0.143555
0.041992
-0.616211
0.398438
-0.123047
-0.446289
0.088867
0.296875
0.156250
-0.370117
-0.008789
0.012695
-1.136719
0.479492
0.052734
0.500000
-1.758789
0.333008
-0.149414
0.152344
-0.425781
0.100586
0.146484
0.270508
-0.105469
0.291992
-0.154297
0.574219
-0.151367
0.403320
-0.260742
0.207031
0.066406
-0.340820
0.406250
-0.245117
0.301758
-0.366211
0.036133
-0.186523
0.136719
-0.140625
0.003906
0.402344
0.080078
0.170898
0.189453
-2.176758
0.284180
-0.348633
0.030273
0.534180
-0.067383
0.102539
-0.373047
-0.420898
0.267578
-0.077148
-0.131836
-0.498047
0.020508
0.017578
0.154297
0.079102
0.125000
-0.005859
0.274414
-0.201172
0.258789
0.047852
-0.365234
0.590820
0.777344
-0.251953
-0.882812
-0.758789
-0.097656
-0.212891
-0.038086
0.158203
-0.029297
0.708008
0.626953
0.118164
-0.752930
-0.166992
0.025391
0.603516
0.250000
-0.593750
-0.207031
0.312500
0.574219
-0.200195
-0.012695
-0.119141
0.117188
0.191406
0.258789
-0.146484
-1.112305
-0.531250
0.793945
-0.101562
0.113281
-0.059570
-0.253906
0.033203
0.120117
0.111328
-0.219727
-0.311523
0.085938
-0.097656
-0.349609
0.527344
-0.349609
-0.093750
0.143555
0.217773
-1.056641
0.214844
-0.079102
0.476562
-0.991211
-0.358398
0.502930
0.126953
-0.135742
0.148438
0.091797
0.363281
0.064453
-0.224609
0.048828
0.313477
-0.611328
0.365234
-0.351562
0.229492
0.038086
-0.282227
0.201172
-0.052734
0.054688
0.341797
-0.203125
0.460938
-0.512695
0.092773
-0.238281
-0.518555
0.022461
-0.327148
1.083984
0.060547
-0.529297
0.550781
-0.127930
-0.231445
-0.096680
-0.276367
-1.146484
-0.616211
0.327148
0.478516
-0.449219
-0.452148
-0.360352
-0.026367
0.230469
-0.148438
0.359375
0.141602
-0.180664
-0.023438
-0.333008
-0.120117
-0.013672
0.139648
-0.679688
-0.413086
0.383789
0.050781
-0.236328
0.101562
0.109375
0.125000
0.098633
0.485352
-0.419922
-0.134766
-0.219727
0.303711
-0.025391
0.228516
0.424805
-0.813477
0.192383
0.265625
-0.393555
-0.742188
-0.550781
-0.022461
0.667969
0.207031
-0.551758
-0.175781
0.077148
0.190430
0.158203
0.044922
0.296875
-0.306641
0.429688
-0.057617
0.158203
-0.063477
-0.110352
0.205078
0.252930
0.207031
-0.527344
0.452148
-0.494141
-0.396484
-0.026367
0.889648
0.458984
-0.392578
-0.287109
-0.144531
0.549805
-0.390625
0.357422
-0.076172
0.013672
-0.221680
-0.154297
-0.322266
0.018555
-0.554688
0.708008
0.137695
0.124023
0.204102
-1.024414
0.196289
-0.006836
-0.013672
-0.084961
-0.958984
-0.000977
-1.133789
0.070312
-0.401367
-0.508789
0.007812
0.395508
0.172852
0.171875
0.137695
0.227539
0.454102
-0.589844
0.079102
0.092773
0.309570
-0.046875
-0.164062
-0.652344
0.033203
0.070312
0.140625
-0.095703
-0.181641
-0.343750
-0.360352
-0.242188
-0.395508
-0.002930
0.124023
-0.371094
0.041016
-0.733398
0.292969
-0.406250
-0.408203
0.585938
-0.424805
-0.566406
0.235352
0.050781
0.552734
0.450195
0.034180
0.298828
-0.367188
0.375977
-0.100586
-0.122070
-0.034180
0.094727
0.213867
-0.337891
0.152344
0.925781
-0.886719
-0.986328
0.440430
0.110352
-0.030273
0.588867
-0.176758
0.222656
-0.906250
-0.013672
-0.433594
0.729492
-0.573242
0.025391
0.010742
0.756836
-0.621094
0.081055
-0.423828
-1.178711
0.495117
-0.115234
-0.146484
0.329102
-0.469727
-0.014648
0.029297
-0.387695
-0.474609
0.168945
0.072266
0.591797
0.102539
0.167969
0.295898
0.119141
0.215820
-0.073242
-0.006836
-0.141602
-0.206055
-0.141602
0.008789
0.050781
0.356445
0.327148
-0.411133
0.112305
-0.092773
-0.174805
0.305664
-0.083984
0.535156
-0.627930
-0.500000
0.056641
-0.158203
-0.202148
0.124023
-0.092773
-0.232422
-0.206055
-0.094727
-0.132812
-0.179688
-0.083008
1.352539
0.063477
-0.013672
-0.143555
-0.845703
0.278320
-1.405273
-0.441406
0.184570
0.546875
-0.353516
-0.250000
-0.309570
0.120117
-0.826172
0.540039
-0.199219
0.047852
0.111328
0.239258
-0.206055
-0.077148
-0.003906
-0.076172
0.313477
0.154297
-0.046875
0.181641
-0.277344
-0.062500
0.500000
-0.082031
-0.209961
-0.181641
-0.227539
-0.515625
0.042969
-0.061523
-0.684570
-1.040039
0.169922
-0.139648
-0.209961
-0.581055
0.044922
-0.478516
0.837891
-0.530273
-0.408203
0.048828
-0.317383
0.358398
-0.163086
0.029297
0.109375
-0.022461
-0.026367
-0.062500
0.163086
-0.185547
-0.132812
0.284180
0.514648
0.097656
-0.404297
-0.689453
-0.105469
-0.590820
-0.342773
-0.249023
-0.041016
0.360352
-0.207031
0.105469
0.042969
-0.344727
0.075195
-0.215820
-0.701172
-0.183594
0.486328
0.053711
-0.186523
-0.363281
0.431641
-0.842773
-0.085938
0.030273
0.023438
0.286133
0.436523
0.343750
0.206055
0.337891
-0.246094
0.070312
-0.280273
-0.212891
-0.262695
-0.304688
-0.540039
0.001953
0.043945
0.351562
0.072266
-0.188477
0.341797
-0.528320
-0.225586
1.089844
0.648438
0.150391
-0.473633
0.358398
-0.899414
-0.202148
-0.476562
0.102539
0.427734
0.802734
-0.110352
-0.050781
0.341797
-0.790039
0.185547
-0.575195
-0.298828
-0.042969
0.046875
-0.355469
-0.360352
0.040039
0.174805
0.406250
0.015625
0.353516
0.102539
-0.963867
0.449219
-0.190430
0.150391
-0.318359
-0.208008
-0.876953
-0.765625
0.123047
0.199219
-0.458984
-0.522461
-0.653320
0.151367
0.369141
0.067383
0.190430
-0.156250
0.122070
-0.265625
-0.038086
0.269531
-0.218750
0.376953
-0.160156
0.652344
-0.048828
-0.345703
0.148438
-0.270508
-3.277344
0.289062
0.228516
-0.157227
-2.407227
0.376953
0.139648
0.033203
0.819336
0.208984
-0.150391
0.006836
0.112305
0.062500
-0.124023
0.152344
0.011719
0.368164
-0.266602
-0.178711
-0.022461
0.120117
0.125000
-0.191406
0.309570
0.041992
0.094727
0.208984
0.133789
0.073242
-0.207031
-0.362305
0.056641
-0.004883
0.024414
-3.086914
0.194336
-1.045898
-0.315430
-0.360352
0.053711
-0.641602
-0.151367
-0.112305
-0.056641
0.082031
0.027344
-0.273438
0.024414
-0.082031
0.207031
0.162109
0.028320
0.096680
0.095703
-0.028320
0.036133
0.114258
1.484375
-0.777344
-0.287109
-0.079102
-0.046875
-0.069336
-0.058594
-0.025391
-0.000977
-0.086914
0.965820
0.068359
-1.754883
-1.366211
0.724609
-0.106445
-0.296875
-0.438477
-0.204102
-0.180664
-0.302734
-0.088867
-0.107422
-0.137695
0.047852
-0.176758
-0.129883
0.005859
-0.093750
-0.266602
-0.152344
0.087891
-0.007812
0.235352
-0.208008
-0.425781
-0.218750
0.046875
0.002930
0.054688
-0.143555
-0.281250
0.172852
0.097656
-0.682617
1.775391
-0.167969
0.272461
-0.353516
0.747070
0.905273
-0.469727
0.064453
-0.482422
0.299805
-0.409180
-0.069336
-0.101562
0.189453
0.181641
-0.089844
0.239258
-0.211914
0.207031
0.045898
-0.897461
0.243164
0.249023
-0.063477
-0.001953
0.332031
0.012695
-0.807617
-0.386719
0.082031
-0.473633
0.218750
0.170898
-0.011719
0.345703
-0.409180
-0.322266
0.359375
-0.071289
-0.158203
0.118164
-0.194336
-0.151367
-0.870117
0.239258
-0.526367
-1.287109
-0.287109
-0.017578
0.160156
-0.164062
-0.112305
0.007812
0.295898
-0.036133
0.012695
0.284180
0.333008
0.386719
-0.171875
0.445312
-0.021484
0.230469
-0.138672
0.204102
-0.097656
0.458008
0.129883
-0.031250
0.099609
0.104492
0.368164
-0.176758
0.021484
0.000977
0.033203
0.363281
-0.514648
0.016602
-0.288086
-0.354492
-0.741211
-0.875000
-0.031250
0.637695
0.666016
0.144531
0.018555
-0.616211
-0.512695
-0.113281
-0.170898
0.058594
0.571289
-0.074219
-0.218750
-0.003906
0.134766
-0.128906
-0.330078
-0.089844
-0.243164
-0.312500
-1.208984
-0.608398
0.454102
0.428711
0.076172
-0.369141
-0.278320
0.054688
0.196289
0.445312
-0.435547
0.535156
0.259766
0.385742
0.575195
-0.058594
0.041016
0.428711
-0.546875
-0.482422
0.000977
0.523438
-0.135742
-0.578125
-0.137695
-0.589844
0.429688
0.121094
0.272461
0.220703
0.196289
0.224609
0.132812
-0.337891
-0.034180
-0.135742
0.402344
-0.109375
-0.844727
0.206055
0.041016
-0.277344
0.088867
-0.506836
0.139648
0.085938
0.185547
-0.017578
0.809570
-0.127930
-0.036133
-0.540039
0.243164
0.280273
-0.165039
-0.120117
-0.120117
-0.092773
-1.693359
-0.350586
0.183594
-0.024414
0.033203
0.040039
0.081055
-0.054688
-1.909180
-0.137695
-0.401367
-0.282227
-0.443359
0.049805
-0.832031
-0.210938
0.040039
0.341797
-0.301758
0.044922
0.000977
0.057617
-0.045898
0.212891
0.081055
0.071289
0.228516
0.026367
-0.187500
0.464844
0.730469
0.399414
-0.906250
-0.361328
-0.166992
-0.209961
0.253906
0.345703
-0.068359
-0.869141
0.580078
-0.890625
-0.380859
0.090820
0.118164
-0.001953
0.385742
0.114258
-0.478516
-0.185547
-0.427734
0.098633
0.445312
-0.490234
0.630859
-0.643555
0.130859
0.113281
-0.291016
0.194336
0.008789
0.330078
-0.013672
0.228516
0.603516
-0.094727
-0.874023
-0.900391
0.640625
-0.022461
-0.624023
0.238281
0.527344
-0.061523
0.648438
-0.409180
0.042969
0.822266
-0.097656
0.463867
0.533203
0.197266
0.062500
-0.365234
-0.092773
0.009766
0.257812
0.061523
0.373047
0.057617
-0.050781
0.186523
-0.104492
-0.051758
0.049805
-0.223633
0.350586
-0.565430
-0.931641
-0.682617
0.076172
0.035156
-0.491211
-0.282227
-0.054688
-0.227539
-0.157227
-0.020508
0.522461
-0.132812
0.688477
-0.263672
0.889648
0.512695
-0.300781
0.027344
-1.147461
0.322266
-0.187500
0.376953
0.010742
0.161133
-0.174805
0.054688
-0.013672
0.111328
0.174805
0.122070
-0.736328
-0.812500
0.197266
0.061523
-0.229492
0.483398
0.258789
0.371094
0.393555
-0.143555
0.193359
-0.175781
0.175781
0.387695
-0.851562
0.117188
-0.230469
0.308594
0.041992
0.641602
0.026367
0.345703
0.100586
0.143555
-0.429688
-0.424805
-0.155273
-0.418945
0.240234
0.351562
-0.362305
-0.090820
-0.188477
-0.088867
-0.175781
-0.229492
-0.246094
0.198242
0.298828
-0.919922
-0.801758
0.427734
0.231445
0.356445
-0.248047
-0.154297
0.202148
-0.393555
-0.212891
0.446289
0.122070
-0.092773
-0.740234
-0.281250
-0.348633
-0.027344
0.320312
0.003906
0.137695
0.626953
0.309570
-0.201172
-0.097656
0.406250
0.083984
-0.190430
-0.032227
-0.059570
0.138672
-0.094727
-0.011719
0.103516
-0.135742
0.219727
0.125000
-0.001953
0.028320
-0.261719
-1.047852
-0.298828
0.189453
-0.730469
0.349609
0.114258
0.321289
-0.132812
0.035156
0.525391
-0.066406
0.113281
-0.569336
-0.126953
0.371094
0.209961
0.055664
0.099609
0.035156
0.495117
0.390625
0.270508
-0.566406
-0.587891
-0.264648
-0.027344
-0.643555
0.132812
0.003906
-0.290039
-0.213867
0.078125
-0.003906
-0.099609
0.811523
0.099609
0.180664
-0.504883
-0.267578
0.510742
-0.619141
0.244141
0.144531
-0.449219
-0.480469
-0.258789
0.015625
-0.677734
-1.066406
-0.394531
0.123047
0.111328
-0.308594
-0.099609
0.539062
0.349609
-1.356445
-1.045898
0.300781
-0.346680
-0.051758
-0.068359
-0.292969
-0.139648
-0.360352
-0.346680
-0.353516
-0.229492
0.342773
-0.165039
0.506836
-0.595703
0.408203
0.045898
0.168945
-1.291992
-0.204102
-1.110352
0.363281
-0.051758
-0.283203
0.819336
0.354492
0.151367
-0.208984
0.330078
-0.177734
0.006836
-0.138672
-0.108398
0.441406
-0.983398
0.363281
0.556641
-0.136719
0.114258
0.274414
-0.233398
-0.042969
-0.463867
-0.043945
0.253906
-0.220703
0.088867
0.346680
0.402344
0.473633
-0.194336
-0.878906
0.110352
0.344727
0.026367
0.118164
-0.024414
0.021484
-0.165039
0.210938
0.031250
0.034180
-0.201172
-0.019531
-0.468750
-0.382812
-0.209961
0.098633
-1.010742
-0.121094
-0.431641
-0.712891
-0.117188
-0.276367
0.126953
-0.604492
0.243164
-0.018555
0.080078
-0.241211
-1.139648
-0.207031
0.736328
-0.183594
-0.070312
0.212891
-0.126953
-0.174805
0.698242
0.316406
0.231445
0.477539
0.018555
-0.135742
0.167969
0.047852
-0.123047
-0.490234
0.416992
-0.063477
-0.091797
-0.461914
-0.017578
-0.190430
-0.026367
-0.128906
-0.126953
0.001953
0.190430
0.128906
0.103516
0.054688
-0.088867
0.056641
-0.115234
0.040039
-0.140625
-0.115234
0.123047
0.141602
-0.180664
-0.060547
-0.100586
0.002930
-0.185547
-0.092773
-0.260742
0.141602
0.054688
-0.139648
-0.241211
0.114258
0.125977
0.263672
0.069336
-0.169922
-0.452148
-0.611328
-0.150391
0.123047
0.110352
-0.917969
-0.517578
0.946289
0.333984
0.565430
-0.015625
0.086914
-0.279297
0.253906
0.328125
-0.299805
-0.111328
-0.369141
-0.326172
-0.533203
-0.371094
-0.072266
-0.317383
-0.365234
0.132812
-0.006836
0.529297
-0.196289
0.219727
-0.090820
0.111328
-0.104492
0.649414
-0.405273
1.346680
-0.143555
0.071289
0.081055
0.433594
0.011719
-0.079102
0.040039
-0.090820
0.037109
-0.242188
-0.025391
-0.025391
0.201172
0.161133
-0.105469
-0.160156
-0.281250
-0.248047
-0.316406
-0.098633
0.203125
0.013672
0.090820
-0.773438
-0.173828
0.182617
0.210938
-0.109375
0.168945
-0.119141
-0.228516
1.350586
-0.798828
0.002930
-0.436523
0.357422
-0.401367
-0.402344
0.371094
-0.070312
-0.042969
-0.283203
0.105469
0.073242
-0.588867
0.414062
-0.034180
0.224609
-0.030273
-0.402344
-0.292969
0.384766
0.349609
0.190430
-0.272461
0.377930
-0.059570
0.249023
-0.020508
0.483398
0.088867
0.133789
0.172852
0.144531
0.362305
0.868164
-0.203125
0.266602
-0.522461
-0.206055
0.161133
0.369141
0.032227
-0.004883
-0.334961
0.094727
-0.529297
0.262695
0.187500
-0.157227
0.334961
-0.138672
0.044922
-0.277344
0.265625
0.331055
-0.090820
-0.247070
-0.170898
-0.205078
0.334961
0.504883
0.458008
-0.452148
0.020508
-1.496094
0.248047
0.584961
-0.027344
0.197266
-0.173828
0.134766
0.412109
-0.714844
-0.584961
0.168945
-0.289062
-0.021484
-0.037109
0.348633
0.034180
0.765625
0.221680
0.001953
-0.311523
-0.240234
-0.062500
0.202148
0.338867
0.102539
0.248047
0.153320
-0.478516
-0.166016
-0.364258
0.125977
-0.815430
0.057617
0.167969
-1.410156
-0.012695
-0.683594
-0.067383
0.083008
0.024414
0.009766
-0.080078
-0.884766
-0.623047
0.132812
-0.719727
-0.338867
-0.341797
0.116211
-0.402344
-0.089844
-0.096680
-0.032227
-0.104492
-0.004883
0.052734
0.161133
0.550781
0.619141
-0.025391
-0.430664
0.310547
0.101562
-0.013672
0.006836
-0.187500
0.156250
-0.795898
-0.640625
0.369141
-0.543945
-0.273438
0.309570
-0.446289
-0.375000
-0.125000
-0.116211
0.131836
0.001953
-0.846680
0.038086
-0.058594
0.424805
-0.374023
0.520508
-0.372070
-0.522461
-0.449219
0.087891
0.247070
0.342773
0.357422
0.497070
-0.271484
-0.403320
-0.072266
0.276367
0.115234
0.371094
-0.447266
0.124023
0.521484
-0.727539
0.064453
-0.102539
-0.248047
0.025391
-0.531250
-0.729492
-0.720703
0.164062
-0.145508
-0.020508
0.119141
0.266602
-0.910156
0.046875
0.581055
-0.320312
0.213867
-0.375000
0.268555
0.007812
-0.118164
0.206055
-0.208984
0.531250
-0.618164
0.536133
-0.351562
0.130859
-0.138672
0.135742
-0.204102
0.164062
-0.916016
-0.255859
-0.623047
0.261719
-0.390625
-0.318359
-0.001953
0.004883
-0.435547
0.049805
0.155273
0.011719
-0.081055
0.153320
-0.693359
0.097656
-0.256836
-0.014648
-0.097656
-0.043945
-0.269531
-0.384766
0.497070
0.693359
0.117188
-0.081055
0.005859
0.694336
-0.012695
-0.063477
-0.622070
-0.116211
0.136719
-0.242188
0.028320
-0.125000
-0.094727
-0.568359
0.706055
-0.213867
0.289062
-0.304688
0.273438
0.168945
-0.084961
0.159180
-0.198242
-0.233398
0.056641
0.139648
0.125000
0.182617
-0.085938
0.103516
0.334961
0.196289
-0.837891
1.210938
-0.536133
-1.037109
-0.700195
-0.808594
-0.177734
-0.038086
0.000977
0.416016
-1.590820
-0.615234
0.151367
-0.208984
0.507812
-0.328125
-0.244141
0.399414
0.433594
0.054688
0.052734
0.117188
-0.005859
-0.310547
-0.522461
-0.067383
-0.426758
-0.190430
0.132812
-0.240234
-0.019531
-0.100586
-0.168945
0.450195
0.031250
0.335938
-0.122070
-0.077148
0.837891
0.297852
-0.331055
-0.275391
-0.221680
-0.739258
-0.215820
0.229492
0.135742
0.502930
0.309570
0.128906
-0.189453
-0.070312
0.291016
-0.184570
-0.364258
-0.101562
-0.044922
0.559570
-0.208984
-0.541016
0.239258
-0.261719
-0.021484
0.158203
0.201172
-0.146484
0.841797
-0.197266
-0.860352
-0.099609
0.311523
0.271484
0.068359
-0.640625
0.131836
-0.920898
-0.546875
0.244141
-0.126953
-0.260742
0.458008
0.238281
0.203125
0.275391
0.430664
0.289062
-0.081055
-0.335938
0.108398
-1.240234
-0.012695
0.023438
0.216797
0.354492
0.588867
-0.253906
0.325195
-0.055664
0.131836
-0.118164
-0.044922
-0.001953
0.593750
0.103516
-0.097656
0.114258
-0.088867
-0.099609
-0.367188
0.647461
0.017578
0.107422
-0.239258
-0.529297
-0.160156
-0.494141
-0.342773
0.327148
0.580078
0.013672
0.061523
0.339844
1.197266
-0.235352
0.100586
0.627930
0.061523
0.219727
0.166016
-0.156250
-0.300781
-0.380859
0.118164
-0.366211
0.186523
-0.074219
-0.117188
-0.201172
-0.166992
0.454102
-0.100586
-0.228516
0.443359
-0.364258
-0.177734
0.254883
0.359375
-0.843750
0.028320
0.189453
-0.012695
0.261719
0.406250
0.088867
-0.116211
-0.196289
-0.048828
0.171875
-0.077148
-0.286133
-0.433594
-0.333984
0.269531
-0.196289
0.694336
-0.589844
-0.187500
-0.018555
0.083008
-0.002930
0.217773
0.251953
0.113281
0.151367
0.706055
-0.175781
-0.075195
0.269531
-0.027344
1.055664
-0.439453
-0.102539
0.682617
0.113281
-0.618164
0.541016
-0.048828
-0.181641
-0.081055
0.086914
0.318359
-0.237305
-0.286133
0.574219
-0.508789
-0.213867
-0.496094
-0.237305
-0.006836
0.092773
-0.181641
-0.374023
0.147461
0.369141
-0.261719
0.239258
-0.132812
0.044922
-0.558594
0.217773
-0.140625
-0.355469
-0.379883
-0.394531
-0.431641
-0.263672
0.267578
-0.362305
-0.166992
0.587891
0.457031
-0.044922
0.542969
0.185547
0.658203
-0.976562
-0.740234
-0.669922
0.382812
-0.031250
-0.579102
-0.290039
-0.245117
-0.016602
-0.070312
0.089844
0.130859
0.019531
-0.028320
-0.140625
-0.093750
0.011719
-0.086914
-0.004883
-0.034180
0.117188
0.004883
-0.093750
-0.192383
-0.009766
-0.039062
-0.088867
-0.092773
-0.048828
0.016602
0.176758
-0.030273
0.002930
-0.191406
-0.077148
-0.065430
-0.354492
-0.035156
-0.018555
0.088867
-0.229492
-0.046875
-0.144531
-0.034180
0.036133
0.162109
-0.314453
-0.101562
0.380859
0.402344
-0.161133
-0.289062
-0.122070
0.125977
-0.484375
-0.316406
-0.119141
-0.162109
-0.038086
-0.118164
0.366211
0.275391
0.936523
0.318359
0.200195
0.130859
-0.075195
-0.042969
-0.112305
-0.115234
-0.415039
0.790039
-0.789062
-0.127930
0.281250
0.126953
0.366211
-0.019531
0.030273
-0.227539
-0.107422
-0.098633
-0.315430
-0.456055
-0.315430
0.587891
0.101562
-0.253906
0.315430
-0.144531
-0.104492
0.137695
-0.258789
-0.116211
0.189453
0.178711
-0.374023
-0.196289
-0.379883
-0.112305
-0.733398
-0.056641
0.072266
0.222656
-0.238281
-0.375000
-0.128906
0.048828
0.562500
0.152344
0.767578
-0.310547
0.164062
0.147461
-0.579102
0.007812
-0.131836
-0.148438
0.261719
0.337891
-0.136719
0.532227
-0.368164
0.691406
-0.098633
1.007812
0.893555
0.032227
0.095703
-0.021484
0.179688
-0.240234
0.280273
-0.171875
-0.274414
-0.420898
-0.219727
-0.625000
-0.211914
-0.406250
0.212891
-0.155273
0.134766
0.050781
0.215820
-0.489258
0.156250
-0.163086
0.269531
-0.002930
0.203125
0.153320
-0.773438
0.135742
-1.013672
0.111328
0.295898
-0.139648
-0.083984
-0.186523
0.022461
0.250000
0.427734
-0.467773
0.117188
0.252930
0.265625
0.196289
0.205078
0.211914
0.124023
-0.926758
0.122070
-0.359375
-0.829102
0.052734
0.164062
0.229492
0.008789
0.000977
0.285156
0.450195
-0.280273
0.639648
0.402344
1.016602
0.845703
-0.438477
-0.232422
0.514648
0.126953
0.018555
0.211914
-0.202148
0.346680
-0.153320
-0.056641
-0.225586
-0.048828
-0.030273
-0.269531
-0.207031
-0.457031
-0.404297
-0.207031
0.318359
-0.262695
0.653320
-0.334961
0.106445
-0.162109
-0.169922
0.208008
-1.054688
-0.741211
0.158203
-0.727539
0.663086
-1.195312
0.463867
0.157227
0.083008
0.581055
-0.826172
-0.104492
-0.389648
-0.103516
0.987305
-0.332031
-0.185547
-0.100586
-0.048828
0.061523
0.067383
0.261719
-0.325195
-0.040039
-0.276367
-0.206055
0.070312
0.035156
0.327148
0.001953
0.049805
0.091797
-0.594727
-0.707031
-0.092773
-0.120117
-0.059570
-0.338867
-0.450195
-0.719727
0.234375
0.061523
-0.007812
0.408203
0.336914
-0.004883
-0.074219
0.618164
0.253906
0.403320
-0.440430
0.142578
-0.075195
-0.218750
0.172852
0.499023
0.104492
0.709961
-0.727539
-0.063477
0.027344
-0.109375
-0.236328
0.051758
0.087891
0.229492
-0.263672
0.841797
0.138672
0.449219
-0.105469
0.449219
0.355469
0.208008
0.496094
0.087891
0.537109
-0.323242
0.330078
-0.170898
-1.129883
-0.069336
0.132812
0.232422
-0.262695
0.563477
0.071289
0.000000
0.284180
-0.345703
-0.018555
-0.126953
-1.230469
-1.160156
-0.277344
-0.146484
0.601562
0.162109
0.147461
0.006836
0.103516
0.225586
0.083008
-0.561523
0.361328
-0.358398
0.313477
-0.537109
0.136719
0.257812
-0.245117
0.601562
-0.351562
-0.236328
0.054688
0.159180
0.324219
0.217773
0.248047
-0.014648
0.086914
-0.090820
-0.152344
-0.481445
-0.207031
0.148438
0.164062
-0.271484
0.131836
0.350586
0.070312
0.022461
-0.447266
-0.355469
0.120117
-0.420898
0.156250
-0.435547
-0.889648
-0.453125
0.576172
-0.637695
-0.026367
0.324219
-0.036133
-0.190430
-0.109375
-0.369141
-0.442383
-0.490234
-0.232422
-0.236328
-0.078125
-0.102539
0.596680
-0.205078
0.056641
0.118164
0.298828
-0.420898
-0.281250
-0.599609
-0.376953
0.420898
0.134766
-0.530273
0.717773
0.203125
-0.285156
-0.336914
-0.872070
-0.201172
0.075195
-0.517578
1.141602
-0.268555
-0.521484
0.216797
-0.178711
-0.834961
-0.170898
-0.168945
0.467773
0.019531
0.418945
-0.077148
-0.257812
0.189453
-0.107422
0.041992
0.088867
0.179688
-0.079102
-0.448242
-0.064453
