-0.036133
-0.025391
0.003906
0.153320
0.058594
-0.022461
-0.329102
-0.114258
-0.190430
-0.047852
-0.364258
-0.025391
0.182617
0.329102
-0.284180
0.042969
-0.602539
-1.020508
0.058594
-0.029297
-0.232422
0.044922
-0.114258
0.109375
-0.021484
-0.164062
-0.148438
0.006836
0.294922
-0.056641
-0.163086
0.133789
0.458008
0.090820
0.450195
-0.489258
0.238281
-0.145508
-0.144531
0.268555
0.097656
-0.160156
-0.252930
0.284180
0.080078
0.000000
0.102539
0.257812
0.112305
0.313477
0.107422
-0.280273
-0.280273
-0.000977
0.360352
-0.138672
0.166992
0.202148
0.078125
-0.061523
0.209961
0.055664
0.089844
0.156250
-0.206055
-0.130859
0.483398
0.126953
-0.116211
-0.207031
-0.098633
0.377930
0.077148
-0.086914
0.220703
-0.111328
-0.036133
0.145508
-0.068359
-0.391602
0.203125
0.062500
-0.378906
-0.054688
-0.025391
-0.046875
-0.034180
0.162109
-0.076172
-0.100586
0.152344
-0.446289
-0.419922
-0.166992
0.010742
0.375000
-0.275391
0.027344
-0.150391
0.011719
-0.267578
-0.168945
0.339844
-0.111328
-0.208008
0.008789
-0.185547
-0.081055
0.252930
-0.119141
-0.189453
0.161133
-0.141602
0.314453
0.245117
-0.328125
-0.032227
-0.299805
-0.035156
0.118164
0.282227
0.021484
-0.026367
-0.183594
-0.754883
0.082031
-0.103516
0.253906
