-0.141602
-0.453125
-0.621094
-0.030273
-0.223633
0.082031
-0.388672
-0.398438
0.203125
-0.068359
-0.037109
0.091797
-0.309570
-0.552734
-0.537109
0.285156
0.349609
0.291992
0.113281
0.164062
0.485352
-0.390625
-0.663086
-0.041016
0.004883
-0.269531
-0.308594
0.016602
-0.201172
-0.141602
-0.156250
0.278320
-0.031250
0.012695
0.047852
-0.507812
-0.349609
-0.135742
-0.543945
0.397461
0.053711
0.324219
-0.083008
-0.061523
0.151367
-0.106445
-0.305664
-0.556641
0.186523
-0.041016
-0.927734
-0.009766
-0.061523
-0.125977
0.195312
0.500000
0.221680
0.235352
-0.048828
-0.333984
0.450195
0.316406
-0.009766
-0.260742
-1.118164
-0.181641
-0.029297
-0.088867
-0.212891
-0.076172
0.160156
0.125977
0.468750
-0.130859
0.230469
0.458008
0.021484
0.367188
0.386719
0.250000
-0.002930
0.233398
0.136719
-0.144531
0.062500
0.493164
0.126953
-0.016602
-0.079102
-0.034180
0.060547
0.261719
-0.558594
-0.018555
-0.086914
-0.199219
-0.151367
0.090820
0.250977
-0.499023
-0.400391
-0.257812
0.193359
-0.531250
0.163086
-0.222656
0.166016
-0.109375
0.514648
-0.041016
0.090820
-0.020508
-0.167969
0.002930
0.430664
-0.127930
0.053711
0.177734
-0.121094
-0.198242
0.211914
-0.623047
-0.068359
0.068359
-0.116211
-0.070312
0.192383
-0.512695
0.065430
-0.117188
0.040039
0.242188
-0.676758
-0.142578
-0.062500
-0.078125
0.137695
-0.094727
0.394531
-0.034180
-0.075195
0.113281
-0.469727
-0.438477
0.063477
-0.074219
-0.107422
0.536133
-0.437500
-0.320312
-0.248047
0.252930
-0.140625
0.285156
-0.193359
0.063477
-0.132812
-0.223633
-0.027344
0.017578
0.291992
0.132812
-0.321289
0.340820
-0.433594
-0.195312
0.084961
-0.132812
0.460938
-0.079102
-0.139648
-0.081055
-0.173828
-0.305664
0.129883
-0.410156
0.235352
-1.078125
-0.255859
-0.278320
0.516602
-0.446289
-0.143555
0.526367
-0.367188
0.507812
0.455078
0.400391
0.100586
-0.684570
-0.026367
-0.003906
0.337891
-0.522461
-0.038086
-0.537109
0.034180
0.116211
-0.171875
-0.271484
-0.280273
0.019531
0.369141
-0.125977
-0.411133
-0.046875
-0.210938
0.199219
-0.083984
0.279297
0.125000
0.364258
-0.443359
-0.044922
0.102539
-0.683594
-0.115234
0.261719
0.159180
-0.154297
-0.291992
-0.082031
-0.622070
0.354492
-0.299805
0.051758
-0.112305
-0.310547
-0.008789
-0.306641
-0.348633
0.486328
0.185547
-0.293945
0.071289
-0.074219
0.068359
0.202148
0.078125
0.536133
-0.153320
0.312500
-0.181641
-0.252930
0.089844
0.177734
-0.377930
0.027344
0.047852
0.253906
-0.599609
-0.518555
0.022461
-0.312500
0.166016
-0.128906
0.400391
0.235352
-0.285156
0.199219
0.071289
-0.053711
-0.399414
-0.050781
0.398438
-0.351562
-0.598633
0.033203
-0.383789
0.109375
-0.157227
0.055664
-0.196289
0.390625
-0.029297
-0.428711
-0.550781
0.147461
-0.232422
-0.160156
0.110352
-0.602539
0.175781
0.064453
-0.401367
0.090820
-0.020508
-0.012695
-0.095703
0.000977
0.050781
-0.243164
-0.614258
-0.427734
-0.065430
-1.166992
-0.089844
-0.633789
0.302734
-0.171875
0.589844
-0.224609
-0.130859
0.041992
0.247070
-0.544922
-0.048828
0.059570
-0.027344
-0.114258
0.318359
-0.798828
0.011719
-0.391602
0.298828
0.615234
-0.261719
0.333984
0.008789
0.001953
0.296875
-0.159180
0.141602
-0.308594
-0.315430
0.297852
-0.764648
-0.158203
-0.065430
-0.273438
-0.070312
0.083008
0.098633
0.176758
-0.720703
-0.177734
-0.771484
-0.603516
-0.156250
-0.169922
-0.111328
-0.083984
-0.119141
0.222656
-0.337891
0.450195
0.139648
0.235352
0.175781
-0.198242
0.341797
-0.522461
0.127930
-0.248047
0.106445
-0.152344
-0.150391
0.386719
-0.134766
-0.269531
0.525391
-0.333008
-0.084961
0.125000
-0.066406
0.044922
-0.255859
-0.495117
-0.039062
0.137695
0.225586
-0.355469
0.124023
-0.554688
-0.073242
-0.335938
0.088867
-0.153320
-0.189453
-0.334961
-0.116211
-0.241211
0.008789
-0.436523
0.028320
0.051758
-0.081055
-0.178711
-0.496094
0.155273
0.149414
-0.416992
0.466797
-0.290039
0.105469
0.272461
-0.233398
-0.060547
-0.589844
-0.411133
-0.539062
0.255859
0.297852
-0.501953
0.118164
-0.486328
-0.309570
0.309570
-0.751953
-0.550781
-0.183594
-0.251953
-0.288086
0.090820
-0.200195
-0.036133
0.060547
-0.089844
-0.000977
0.241211
-0.121094
-0.129883
-0.111328
-0.492188
-0.264648
0.298828
0.101562
-0.007812
-0.101562
0.041992
-0.133789
-0.702148
-0.994141
-0.549805
0.116211
0.062500
-0.278320
-0.166992
-0.421875
-0.125977
-0.359375
-0.146484
-0.478516
-0.201172
0.236328
0.004883
-0.080078
0.407227
0.345703
0.348633
-0.354492
0.178711
0.015625
0.271484
0.045898
0.063477
0.204102
-0.030273
0.019531
-0.771484
0.119141
0.194336
-0.068359
-0.336914
-0.326172
0.035156
0.147461
-0.367188
-0.102539
0.262695
-0.476562
-0.581055
0.409180
0.070312
-0.713867
0.029297
0.156250
0.272461
0.010742
0.152344
-0.253906
0.199219
0.144531
0.201172
-0.326172
0.273438
0.584961
0.247070
-0.165039
0.346680
0.313477
-0.355469
0.266602
0.268555
0.797852
-0.266602
0.350586
0.023438
0.035156
-0.143555
0.113281
0.622070
-0.092773
-0.179688
0.228516
0.300781
-0.152344
-0.003906
-0.530273
-0.243164
-0.443359
-0.152344
-0.169922
-0.248047
0.145508
-0.273438
0.404297
-0.083008
-0.034180
-0.080078
0.223633
0.362305
-0.348633
0.563477
-0.148438
0.081055
0.480469
0.331055
-0.029297
0.157227
-0.014648
0.089844
0.365234
-0.205078
0.796875
0.103516
-0.208984
-0.163086
0.115234
-0.347656
0.313477
-0.229492
0.374023
0.058594
0.202148
-0.114258
0.153320
-0.039062
0.245117
0.276367
-0.921875
0.113281
-0.391602
-0.068359
-0.185547
-0.129883
0.000000
-0.422852
-0.266602
-0.041992
0.225586
0.329102
0.061523
-0.095703
0.028320
-0.604492
-0.494141
-0.296875
0.429688
0.200195
0.072266
0.411133
-0.085938
-0.225586
-0.062500
0.068359
-0.485352
-0.177734
0.283203
0.244141
0.325195
-0.204102
-0.276367
0.075195
0.201172
-0.207031
-0.211914
0.243164
0.039062
0.076172
0.472656
0.172852
1.062500
-0.423828
-0.135742
0.307617
-0.003906
-0.288086
0.151367
-0.134766
0.113281
-0.463867
-0.725586
-0.213867
-0.512695
0.148438
0.013672
0.085938
-0.414062
0.098633
-0.148438
-0.279297
-1.065430
-0.072266
0.028320
0.079102
0.544922
0.247070
0.080078
0.205078
0.136719
0.138672
0.016602
-0.660156
-0.407227
0.008789
-0.191406
0.194336
0.205078
0.076172
-0.445312
0.071289
0.383789
-0.392578
-0.055664
0.159180
-0.196289
-0.370117
-0.143555
-0.170898
-0.225586
-0.254883
0.066406
-0.609375
-0.254883
0.004883
0.137695
-0.050781
0.039062
-0.161133
-0.583008
-0.208984
-0.218750
-0.351562
0.246094
-0.348633
0.109375
-0.179688
-0.739258
-0.539062
-0.228516
-0.259766
-0.260742
0.211914
-0.532227
0.002930
0.166016
0.108398
0.078125
0.119141
0.188477
0.081055
-0.040039
-0.748047
-0.155273
0.066406
0.225586
0.333008
0.450195
0.477539
-0.068359
-0.200195
0.100586
-0.053711
0.337891
-0.049805
-0.093750
-0.131836
-0.760742
-0.477539
-0.223633
-0.126953
-0.867188
0.455078
-0.381836
0.479492
0.369141
0.372070
-0.403320
-0.411133
0.458984
-0.094727
-0.003906
-0.870117
-0.074219
-0.160156
-0.424805
0.521484
0.054688
-0.292969
0.031250
0.129883
0.349609
-0.353516
-0.137695
0.138672
-0.218750
0.439453
-0.474609
-0.130859
-0.279297
0.017578
0.366211
-0.554688
-0.009766
-0.641602
-0.110352
0.030273
0.057617
0.070312
0.142578
-0.096680
-0.402344
0.205078
0.009766
0.366211
0.065430
0.133789
0.063477
0.115234
0.067383
-0.205078
-0.210938
0.333008
0.218750
0.423828
-0.081055
-0.315430
-0.197266
-0.188477
0.080078
-0.430664
0.119141
-0.076172
-0.159180
-0.372070
0.010742
0.475586
-0.299805
0.086914
-0.272461
0.316406
-0.131836
0.380859
0.237305
-0.239258
0.075195
-0.677734
0.162109
-0.339844
-0.163086
-0.099609
-0.383789
-0.000977
-0.091797
0.133789
-0.057617
-0.289062
0.086914
-0.553711
-0.447266
-0.193359
-0.528320
-0.423828
0.406250
-0.298828
-0.153320
0.057617
-0.221680
-0.034180
-0.732422
-0.575195
0.353516
-0.367188
0.035156
0.359375
-0.092773
-0.055664
0.010742
0.275391
-0.020508
-0.232422
-0.166016
0.307617
0.315430
-0.456055
1.031250
0.173828
-0.721680
-0.753906
-0.267578
-0.329102
-0.431641
0.036133
-0.353516
-0.620117
-0.651367
0.368164
0.308594
0.269531
0.218750
0.090820
-0.250977
-0.183594
0.002930
-0.262695
-0.111328
0.045898
-0.489258
0.166016
0.017578
-0.537109
-0.171875
-0.387695
-0.165039
-0.313477
-0.250977
-0.015625
-0.082031
0.439453
0.391602
-0.257812
-0.768555
0.443359
0.355469
-0.330078
0.013672
-1.507812
-0.146484
-0.101562
0.311523
0.173828
0.339844
0.424805
-0.389648
0.464844
-0.110352
0.423828
0.200195
-0.639648
0.195312
0.083008
0.518555
-0.265625
-0.416992
0.549805
-0.120117
-0.590820
-0.197266
0.134766
0.342773
0.414062
0.276367
-0.375977
-0.252930
-0.117188
0.199219
-0.126953
-0.033203
0.076172
0.222656
-0.562500
-0.104492
-0.202148
-0.056641
0.097656
-0.072266
0.395508
-0.294922
-0.084961
-0.077148
-0.705078
0.493164
0.061523
-0.018555
0.035156
-0.485352
0.239258
-0.466797
-0.058594
0.314453
0.038086
0.114258
-0.329102
-0.169922
-0.143555
-0.527344
0.390625
0.143555
-0.134766
0.090820
-0.419922
0.497070
-0.062500
-0.392578
0.159180
0.407227
0.130859
-0.496094
0.108398
-0.823242
-0.269531
-0.263672
0.175781
0.357422
-0.590820
0.310547
-0.123047
-0.030273
-0.401367
-0.175781
-0.118164
-0.115234
-0.095703
0.151367
-0.310547
-0.116211
-0.375000
-0.117188
0.119141
-0.258789
-0.004883
0.135742
-0.003906
-0.132812
0.042969
0.213867
0.097656
0.080078
-0.014648
0.299805
0.233398
-0.189453
-0.022461
-0.322266
-0.209961
0.383789
-0.652344
0.218750
0.132812
-0.508789
0.331055
-0.224609
0.512695
-0.141602
-0.294922
-0.281250
-0.278320
0.273438
-0.241211
-0.375000
-0.100586
0.117188
0.131836
-0.466797
0.023438
-0.505859
0.006836
0.163086
0.184570
-0.707031
-0.138672
-0.333984
0.023438
-0.095703
0.209961
0.282227
-0.585938
-0.076172
0.034180
-0.329102
-0.095703
0.132812
-0.227539
-0.005859
0.195312
-0.078125
-0.124023
0.080078
-0.288086
-0.284180
-0.548828
-0.398438
-0.272461
0.408203
-0.141602
-0.252930
0.273438
-0.309570
-0.378906
0.087891
0.079102
-0.349609
-0.114258
-0.182617
-0.709961
-0.184570
-0.572266
0.262695
-0.262695
0.154297
-0.124023
-0.765625
0.015625
0.249023
-0.247070
0.182617
0.034180
0.004883
-0.220703
-0.238281
0.313477
-0.236328
0.145508
-0.250000
-0.140625
-0.245117
-0.524414
-0.302734
-0.300781
-0.526367
0.029297
0.126953
0.329102
-0.598633
0.298828
-0.275391
-0.763672
-0.137695
-0.004883
0.054688
0.095703
0.043945
0.346680
-0.114258
-0.332031
-0.443359
-0.789062
-0.246094
-0.193359
0.263672
-0.153320
-0.582031
-0.161133
-0.293945
-0.248047
0.311523
-0.197266
-0.214844
-0.407227
0.534180
-0.675781
0.428711
0.096680
0.345703
-0.007812
-0.634766
0.298828
0.130859
-0.015625
-0.030273
-0.146484
-0.178711
0.293945
-0.049805
0.068359
-0.125977
-0.646484
0.000000
-0.391602
-0.041016
-0.070312
-0.089844
0.344727
0.151367
0.004883
0.037109
-0.027344
0.251953
0.011719
0.069336
-0.464844
0.068359
-0.719727
0.025391
-0.227539
-0.478516
-0.305664
0.246094
-0.364258
-0.164062
-0.375977
-0.387695
-0.384766
0.166992
0.137695
-0.283203
-0.227539
0.246094
0.087891
-0.796875
-0.105469
-0.076172
0.081055
0.244141
-0.241211
0.246094
0.369141
0.169922
-0.154297
-0.010742
0.173828
0.212891
-0.151367
-0.049805
-1.105469
-0.031250
0.064453
0.061523
-0.240234
-0.240234
-0.361328
0.070312
0.053711
-0.218750
0.555664
-0.095703
-0.228516
0.259766
-0.362305
0.388672
-0.181641
-0.097656
0.083008
0.434570
-0.274414
-0.036133
0.013672
0.264648
0.254883
-0.057617
0.006836
0.268555
-0.478516
0.028320
0.008789
-0.014648
-0.335938
0.357422
0.020508
0.304688
-0.522461
-0.310547
-0.174805
-0.062500
-0.096680
-0.431641
0.093750
0.296875
-0.332031
-0.108398
-0.169922
-0.089844
0.445312
0.048828
0.038086
-0.625000
-0.066406
-0.188477
-0.005859
0.546875
-0.057617
0.041016
-0.365234
-0.114258
-0.301758
-0.032227
-0.607422
-0.174805
0.055664
-0.717773
0.352539
-0.400391
-0.045898
-0.177734
0.649414
0.122070
-0.641602
-0.251953
-0.581055
0.144531
0.220703
-0.268555
-0.073242
-0.609375
-0.165039
0.048828
0.366211
-0.353516
-0.464844
-0.256836
0.482422
0.349609
-0.532227
0.458984
-0.075195
0.582031
0.120117
0.147461
-0.193359
-0.057617
-0.791016
-0.081055
0.325195
0.059570
0.078125
0.020508
0.258789
-0.401367
0.024414
-0.217773
0.235352
0.326172
-0.012695
-0.306641
-0.141602
0.255859
0.177734
-0.170898
0.077148
0.022461
0.129883
0.026367
0.328125
-0.505859
0.291992
0.157227
-0.728516
0.221680
0.241211
-0.040039
0.032227
0.497070
-0.239258
0.202148
-0.613281
-0.359375
0.085938
-0.140625
0.259766
0.004883
0.042969
-0.236328
-0.226562
-0.056641
0.053711
-0.060547
0.142578
0.241211
-0.613281
0.326172
-0.238281
0.193359
-0.416016
0.325195
-0.120117
0.172852
0.438477
-0.248047
-0.125977
0.164062
-0.172852
-0.195312
-0.489258
-0.702148
-0.320312
0.283203
-0.159180
-0.232422
0.077148
0.124023
0.439453
-0.288086
0.422852
-0.218750
-0.005859
-0.386719
-0.088867
0.045898
-0.556641
-0.416992
0.201172
-0.455078
-0.011719
-0.136719
0.262695
0.303711
-0.243164
0.905273
-0.249023
0.039062
-0.369141
0.217773
-0.366211
-0.512695
0.190430
-0.493164
-0.245117
0.039062
0.037109
-0.129883
-0.059570
-0.183594
0.478516
0.187500
0.026367
-0.175781
-0.184570
0.076172
0.357422
-0.043945
0.017578
-0.117188
-0.204102
-0.113281
-0.098633
-0.073242
0.284180
-0.117188
-0.460938
-0.053711
0.054688
0.458008
-0.069336
-0.138672
0.418945
0.132812
0.258789
-0.201172
0.244141
-0.000000
0.031250
0.168945
-0.095703
-0.271484
-0.044922
-0.235352
0.855469
-0.065430
0.694336
0.103516
-0.225586
-0.104492
-0.070312
0.290039
-0.700195
0.064453
0.167969
0.074219
-0.018555
0.027344
-0.650391
-0.067383
0.404297
-0.024414
0.300781
-0.140625
-0.323242
0.083984
-0.000977
-0.083008
-0.080078
0.565430
-0.084961
-0.625000
-0.343750
0.066406
0.265625
-0.080078
-0.437500
-0.286133
0.245117
-0.042969
0.136719
0.508789
0.137695
-0.112305
-0.238281
-0.312500
0.256836
-0.569336
-0.425781
0.066406
0.001953
0.086914
-0.272461
-0.014648
0.181641
-0.559570
0.135742
-0.365234
-0.044922
-0.302734
-0.344727
0.005859
-0.254883
0.333984
-0.281250
0.041016
-0.200195
-1.131836
0.425781
0.122070
-0.274414
0.014648
0.089844
-0.020508
-0.002930
0.186523
-0.106445
-0.100586
0.004883
0.385742
0.129883
-0.241211
0.222656
-0.509766
-0.057617
-0.495117
0.177734
-0.376953
-0.000977
0.214844
-0.117188
0.182617
0.449219
-0.044922
0.099609
0.161133
-0.322266
0.669922
-0.633789
-0.176758
0.188477
0.239258
0.426758
0.111328
0.125000
0.112305
-0.865234
0.076172
0.117188
-0.869141
-0.028320
-0.166016
0.152344
-0.166016
0.179688
-0.389648
-0.229492
-0.081055
-0.248047
-0.107422
-0.576172
0.046875
0.054688
0.243164
0.111328
-0.389648
-0.177734
-0.074219
0.274414
0.055664
-0.623047
-0.597656
-0.277344
0.649414
0.287109
-0.156250
0.127930
-0.166016
-0.162109
-0.314453
-0.433594
0.188477
-0.716797
-0.045898
0.075195
-0.045898
-0.088867
-0.132812
0.130859
0.082031
-0.027344
0.397461
0.081055
0.277344
0.088867
0.621094
-0.034180
-0.151367
0.155273
-0.653320
0.552734
-0.043945
-0.218750
-0.015625
0.351562
-0.017578
0.040039
-0.404297
-0.059570
0.289062
-0.108398
-0.324219
-0.188477
0.055664
0.092773
-0.228516
0.006836
0.005859
0.001953
0.650391
0.265625
-0.277344
-0.090820
-0.116211
0.158203
-0.011719
0.158203
0.013672
0.054688
-0.045898
-0.101562
0.256836
-0.139648
-0.640625
-0.103516
0.295898
0.093750
-0.571289
-0.176758
-0.007812
0.173828
-0.327148
0.059570
0.056641
-0.370117
-0.051758
-0.264648
-0.226562
0.445312
0.220703
0.163086
-0.526367
0.061523
-0.066406
-0.294922
-0.459961
-0.467773
-0.235352
-0.289062
-0.496094
-0.340820
-0.255859
0.146484
0.116211
-0.288086
0.014648
-0.338867
-0.360352
-0.139648
0.317383
0.278320
0.315430
-0.187500
-0.032227
0.157227
-0.093750
0.028320
0.488281
-0.269531
0.152344
-0.280273
-0.039062
-0.163086
0.195312
-0.104492
-0.144531
0.125000
0.336914
0.211914
0.441406
0.291016
0.197266
-1.476562
0.172852
0.188477
-0.348633
0.110352
-0.171875
0.294922
-0.181641
0.026367
0.159180
0.455078
0.013672
-0.355469
-0.141602
-0.180664
0.070312
0.038086
0.343750
-0.606445
-0.167969
-0.183594
0.056641
-0.325195
-0.045898
0.301758
-0.057617
-0.254883
0.236328
0.094727
0.085938
-0.213867
-0.455078
0.352539
-0.045898
-0.567383
0.096680
0.067383
0.025391
0.661133
-0.263672
0.207031
0.113281
-0.092773
0.035156
-0.240234
-0.355469
-0.216797
0.303711
-0.331055
0.045898
-0.063477
-0.217773
-0.443359
-0.192383
-0.121094
-0.492188
0.046875
0.232422
-0.026367
0.071289
0.085938
-0.083008
-0.330078
-0.184570
-0.554688
0.048828
-0.404297
-0.166992
-0.262695
-0.087891
-0.485352
-0.178711
-0.166016
0.004883
0.067383
0.187500
0.162109
0.335938
0.317383
0.125000
0.047852
0.194336
-0.019531
-0.174805
-0.023438
-0.579102
-0.058594
-0.257812
0.347656
0.139648
-0.166992
0.121094
0.282227
-0.316406
0.224609
0.634766
0.195312
-0.045898
0.022461
-0.248047
-0.663086
-0.302734
0.067383
0.240234
-0.234375
-0.049805
-0.283203
0.273438
0.099609
-0.243164
0.312500
0.078125
-0.281250
-0.230469
0.412109
-0.600586
0.081055
-0.760742
-0.182617
-0.297852
-0.043945
-0.050781
-0.005859
0.101562
-0.007812
0.381836
0.097656
-0.124023
-0.266602
-0.551758
0.150391
-0.410156
0.524414
-0.269531
0.285156
-0.228516
0.054688
0.222656
-0.463867
-0.748047
0.360352
-0.744141
-0.125000
-0.313477
0.065430
0.036133
0.109375
0.017578
0.364258
-0.166016
-0.025391
0.283203
-0.852539
0.081055
-0.368164
-0.312500
-0.100586
0.224609
-0.141602
-0.618164
-0.010742
-0.692383
0.303711
0.002930
0.137695
-0.045898
-0.276367
-0.088867
-0.194336
-0.397461
-0.128906
0.303711
-0.157227
-1.162109
-0.138672
0.212891
-0.056641
-0.033203
0.111328
-0.472656
-0.459961
-0.394531
0.199219
0.142578
0.053711
0.083984
-0.413086
-0.087891
-0.291016
-0.379883
0.293945
-0.288086
-0.567383
-0.121094
-0.216797
-0.166992
0.199219
0.031250
0.096680
-0.637695
-0.041992
0.418945
0.109375
-0.111328
0.091797
0.039062
0.289062
-0.094727
0.076172
-0.254883
0.118164
-0.242188
-0.655273
-0.007812
-0.232422
-0.066406
-0.325195
-0.713867
-0.097656
0.070312
-0.214844
0.470703
-0.310547
0.257812
0.035156
0.408203
0.037109
0.255859
-0.076172
-0.393555
0.004883
0.197266
-0.125000
0.289062
0.695312
-0.116211
-0.025391
0.138672
-0.141602
0.234375
-0.712891
0.076172
0.088867
0.110352
0.286133
-0.261719
0.201172
-0.238281
-0.199219
-0.090820
0.278320
-0.182617
-0.102539
0.139648
-0.436523
-0.410156
-0.566406
0.189453
-0.441406
0.484375
-0.400391
-0.054688
0.046875
0.506836
-0.087891
0.127930
-0.547852
-0.046875
0.005859
0.136719
-0.356445
0.261719
-0.576172
0.125977
-0.115234
-0.139648
0.517578
-0.294922
0.215820
-0.000977
-0.047852
-0.524414
0.017578
-0.725586
-0.208984
-0.404297
0.209961
-0.175781
-0.135742
-0.022461
0.331055
-0.172852
0.169922
-0.117188
-0.360352
0.225586
-0.056641
-0.796875
0.449219
0.138672
-0.513672
0.147461
-0.129883
-0.421875
0.032227
0.110352
0.285156
0.320312
0.490234
-0.077148
-0.092773
-0.158203
-0.514648
0.008789
0.000977
-0.174805
0.366211
-0.311523
-0.070312
-0.285156
0.542969
0.543945
-0.121094
0.371094
-0.110352
-0.194336
-0.051758
-0.254883
0.227539
0.319336
-0.125977
-0.161133
0.251953
-0.429688
-0.391602
-0.607422
-0.629883
-0.221680
-0.486328
-0.035156
0.002930
-0.399414
0.214844
-0.406250
-0.037109
0.054688
-0.198242
0.271484
0.253906
0.047852
0.428711
0.058594
-0.189453
-0.041016
-0.071289
-0.385742
0.082031
-0.166992
-0.100586
0.093750
0.137695
0.206055
-0.207031
-0.108398
0.394531
-0.040039
0.428711
-0.246094
0.212891
0.139648
-0.737305
-0.325195
-0.483398
-0.118164
-0.076172
0.336914
-0.275391
-0.412109
0.269531
0.259766
-0.050781
-0.029297
0.080078
-0.697266
0.534180
-0.186523
-0.265625
0.044922
0.067383
0.012695
0.147461
0.504883
0.156250
-0.336914
-0.588867
0.033203
-0.327148
0.114258
0.064453
-0.495117
0.184570
0.006836
0.263672
0.074219
-0.525391
0.239258
0.319336
-0.009766
0.108398
-0.096680
-0.044922
-0.373047
-0.347656
0.177734
-0.065430
0.007812
-0.059570
0.548828
-0.516602
0.244141
-0.221680
0.051758
0.266602
-0.033203
0.456055
0.194336
-0.366211
-0.046875
-0.253906
0.580078
0.376953
-0.554688
-0.144531
0.603516
-0.107422
-0.227539
0.437500
-0.444336
0.039062
-0.265625
0.505859
-0.209961
0.362305
0.222656
-0.136719
-0.100586
-0.114258
-0.261719
0.253906
0.157227
0.496094
-0.141602
-0.163086
-0.079102
-0.003906
0.343750
-0.622070
-0.533203
1.109375
0.569336
-0.293945
-0.196289
0.601562
-0.758789
-0.177734
-0.071289
0.484375
0.292969
-0.224609
0.296875
-0.059570
0.133789
-0.517578
-0.235352
0.276367
0.060547
-0.293945
0.169922
-0.398438
-0.156250
0.095703
0.262695
0.100586
-0.014648
0.209961
-0.387695
-0.395508
-0.634766
0.077148
-0.426758
-0.157227
-0.253906
-0.317383
0.104492
-0.519531
0.025391
0.180664
-0.417969
-0.145508
-0.284180
-0.619141
-0.094727
-0.076172
0.193359
0.290039
-0.004883
-0.354492
0.610352
0.147461
0.024414
-0.412109
-0.235352
0.020508
-0.112305
-0.340820
-0.319336
-0.727539
0.087891
-0.261719
-0.131836
0.013672
0.488281
0.073242
-0.240234
-0.856445
0.035156
-0.030273
-0.351562
-0.312500
0.140625
0.335938
0.113281
-0.234375
-0.099609
0.365234
-0.782227
-0.363281
0.127930
0.307617
-0.490234
0.111328
-0.194336
-0.608398
0.190430
-0.015625
-0.677734
0.223633
0.156250
-0.045898
-0.005859
-0.045898
0.393555
0.170898
0.053711
0.234375
0.456055
-0.460938
-0.216797
-0.813477
-0.114258
-0.432617
-0.487305
-0.581055
-0.114258
0.341797
-0.184570
-0.071289
0.056641
-0.279297
0.169922
0.284180
-0.079102
0.251953
-0.097656
0.110352
0.133789
0.206055
-0.126953
0.023438
-0.114258
-0.191406
0.199219
-0.286133
0.874023
0.764648
0.071289
-0.184570
0.109375
-0.275391
0.204102
-0.960938
-0.307617
-0.522461
-0.243164
0.760742
-0.019531
-0.514648
-0.308594
-0.203125
-0.116211
0.271484
-0.290039
-0.275391
-0.204102
0.176758
0.460938
-0.197266
-0.283203
0.152344
-0.121094
0.101562
0.054688
0.038086
0.046875
-0.052734
-0.628906
-0.293945
0.047852
-0.104492
-0.097656
0.576172
-0.157227
0.064453
-0.378906
0.175781
-0.864258
0.156250
0.158203
-0.008789
-0.545898
-0.329102
-0.294922
0.210938
-0.470703
-0.341797
0.471680
0.376953
-0.015625
-0.451172
0.082031
-0.124023
2.203125
-2.593750
-0.253906
-0.219727
-0.241211
0.039062
-0.120117
0.106445
-0.000000
-0.410156
0.221680
-0.357422
-0.199219
-0.004883
0.324219
-0.193359
-0.396484
0.470703
0.156250
-0.538086
-0.525391
-0.208008
-0.291992
0.254883
0.735352
0.185547
0.324219
0.018555
0.215820
-0.402344
0.193359
-0.153320
-0.521484
0.541016
-0.379883
-0.645508
0.015625
0.633789
-0.007812
-0.310547
-0.017578
-0.599609
-0.671875
0.205078
-0.466797
-0.291992
-0.092773
-0.300781
-0.185547
0.401367
0.634766
0.061523
0.394531
-0.145508
0.122070
0.209961
-0.083984
-0.461914
0.096680
-0.444336
-0.002930
0.119141
0.379883
-0.192383
0.442383
0.420898
-0.256836
0.255859
-0.035156
0.242188
-0.066406
-0.037109
-0.077148
0.014648
0.103516
0.274414
0.122070
-0.299805
0.262695
-0.535156
-0.245117
0.328125
-0.242188
0.215820
-0.443359
-0.097656
-0.072266
0.280273
-0.358398
-0.230469
0.057617
-0.458984
0.307617
-0.343750
-0.131836
-0.000000
0.097656
0.083984
-0.767578
0.093750
0.387695
0.035156
-0.126953
-0.115234
0.172852
-0.074219
-0.139648
-0.749023
0.216797
-0.000977
-0.065430
0.101562
0.431641
0.089844
0.062500
0.246094
0.110352
-0.034180
-0.499023
0.176758
-0.126953
-0.045898
0.229492
-0.024414
-0.426758
0.027344
0.054688
-0.573242
-0.344727
0.112305
-0.204102
-0.558594
-0.290039
-0.029297
0.018555
-0.110352
-0.499023
0.447266
-0.284180
-0.735352
0.458984
0.375000
-0.210938
-0.149414
0.028320
-0.182617
0.032227
0.306641
0.185547
-0.143555
-0.040039
-0.517578
0.153320
0.028320
-0.183594
0.144531
0.200195
-0.006836
-0.482422
-0.071289
-0.199219
-0.155273
-0.147461
-0.237305
0.018555
-0.260742
0.051758
-0.108398
-0.632812
-0.208984
0.104492
-0.196289
0.124023
-0.039062
-0.111328
0.164062
0.072266
-0.180664
0.018555
-0.830078
0.162109
-0.027344
-0.426758
0.007812
-0.096680
-0.290039
-0.515625
-0.296875
0.250977
0.008789
-0.607422
-0.510742
-0.297852
-0.454102
0.000977
-0.699219
-0.360352
0.054688
-0.077148
-0.504883
0.099609
0.242188
-0.168945
-0.256836
-0.062500
0.419922
-0.508789
-0.033203
-0.223633
-0.265625
0.274414
-0.157227
0.199219
0.025391
0.213867
0.409180
-0.232422
-0.979492
0.204102
-0.900391
-0.753906
-0.340820
-0.021484
0.335938
-0.476562
0.235352
-0.050781
0.309570
-0.147461
-0.718750
-0.030273
0.212891
0.601562
-0.224609
0.129883
0.095703
-0.397461
0.357422
0.340820
-0.640625
0.045898
-0.000977
0.103516
0.167969
0.215820
-0.103516
0.026367
-0.363281
-0.045898
0.106445
-0.501953
-0.069336
-0.010742
0.159180
0.373047
-0.846680
-0.331055
-0.626953
0.456055
-0.087891
0.149414
-0.335938
0.155273
0.297852
0.114258
-0.675781
0.474609
0.195312
0.496094
-0.208008
-0.029297
0.177734
-0.182617
-0.663086
-0.000977
-0.770508
0.306641
-0.352539
0.047852
-0.456055
-0.536133
0.348633
-0.125000
-0.126953
-0.022461
-0.432617
-0.301758
0.096680
-0.170898
0.017578
-0.057617
-0.003906
-0.093750
0.145508
-0.376953
-0.043945
-0.172852
0.491211
-0.500000
-0.102539
0.045898
-0.442383
0.421875
0.067383
-0.455078
0.142578
-0.041016
0.129883
0.258789
-0.115234
-0.036133
-0.260742
-0.197266
-0.630859
0.079102
-0.247070
0.097656
0.209961
-0.113281
-0.355469
0.113281
0.014648
0.027344
-0.191406
-0.242188
-0.255859
-0.439453
-0.597656
0.185547
-0.045898
-0.107422
-0.466797
0.192383
-0.212891
0.161133
0.020508
-0.505859
-0.178711
-0.460938
-0.414062
-0.166992
0.336914
1.043945
-0.336914
0.068359
-0.837891
0.063477
-0.597656
0.082031
-0.147461
-0.237305
-0.265625
-0.097656
-0.018555
-0.006836
-0.191406
0.065430
0.444336
0.082031
-0.911133
0.114258
0.084961
-0.147461
-0.218750
-0.094727
0.466797
-0.512695
-0.398438
0.274414
0.382812
-0.134766
-0.401367
0.040039
-0.131836
-0.460938
0.293945
-0.115234
-0.103516
-0.280273
0.284180
0.284180
0.314453
-0.203125
-1.439453
-0.070312
-0.052734
-0.181641
0.095703
0.366211
0.396484
0.061523
0.794922
0.155273
-0.152344
-0.282227
-0.519531
0.267578
0.369141
0.547852
0.041992
-0.362305
0.216797
0.027344
0.187500
-0.112305
0.261719
-0.148438
0.078125
-0.181641
-0.211914
0.101562
0.131836
0.170898
0.073242
0.279297
-0.420898
0.322266
-0.263672
0.219727
0.185547
-0.056641
-0.108398
-0.031250
0.276367
-0.322266
-0.090820
0.300781
0.073242
-0.098633
-0.437500
-0.282227
-0.680664
-0.370117
0.313477
0.293945
-0.606445
0.206055
-0.083008
0.044922
-0.013672
-0.780273
0.105469
-0.121094
-0.049805
0.185547
-0.132812
0.103516
0.356445
0.237305
-0.128906
0.201172
0.111328
0.163086
0.058594
0.291016
0.000977
0.135742
0.199219
-0.062500
0.233398
-0.214844
-0.038086
-0.125000
-0.210938
0.418945
-0.400391
0.029297
-0.148438
0.305664
0.702148
0.322266
0.050781
-0.074219
0.104492
-0.434570
0.010742
-0.388672
0.365234
-0.046875
-0.013672
-0.104492
0.145508
0.250977
0.250000
-0.972656
0.494141
-0.292969
0.343750
0.054688
-0.274414
-0.284180
-0.711914
-0.013672
-0.418945
-0.303711
-0.089844
-0.021484
0.203125
-0.047852
-0.074219
0.127930
0.218750
-0.436523
0.271484
0.255859
0.208008
0.356445
0.096680
-0.258789
0.390625
-0.645508
0.030273
-1.149414
-0.097656
0.370117
0.158203
-0.037109
0.465820
0.222656
0.318359
-0.339844
0.293945
-0.156250
-0.035156
-0.118164
-0.330078
-0.122070
0.400391
-0.002930
-0.256836
-0.312500
-0.065430
-0.000000
-0.328125
-0.094727
0.206055
-0.247070
-0.368164
-0.905273
-0.065430
0.182617
0.103516
-0.002930
-0.582031
0.083008
-0.360352
-0.013672
-0.059570
0.121094
-0.300781
-0.245117
-0.216797
0.117188
-0.377930
-0.153320
0.375977
-0.750000
0.545898
-0.393555
-0.121094
-1.018555
-0.150391
0.162109
-0.240234
-0.309570
-0.261719
-0.345703
-0.276367
0.124023
-0.016602
0.305664
0.264648
-0.012695
0.210938
-0.306641
-0.763672
0.459961
-0.068359
-0.262695
-0.148438
0.384766
-0.231445
-0.387695
0.265625
0.139648
-0.300781
-0.548828
0.182617
0.144531
-0.151367
-0.341797
0.173828
-0.475586
0.113281
-0.038086
0.092773
0.324219
-0.287109
0.242188
0.171875
-0.155273
-0.155273
-0.427734
0.048828
-0.330078
0.365234
-0.219727
-0.911133
-0.071289
0.075195
-0.008789
-0.407227
0.226562
0.388672
-0.369141
0.572266
0.157227
0.086914
-0.328125
-0.450195
-0.323242
-0.141602
0.202148
-0.448242
-0.266602
0.174805
0.177734
0.284180
0.025391
-0.043945
-0.337891
0.442383
0.206055
-0.054688
-0.422852
0.675781
-0.224609
-0.459961
-0.651367
-0.154297
-0.248047
-0.399414
-0.012695
0.411133
-0.118164
0.119141
0.215820
-0.423828
-0.283203
0.264648
0.121094
-0.358398
0.219727
-0.144531
-0.421875
-0.409180
-0.464844
-0.381836
0.042969
-0.291992
-0.086914
-0.113281
-0.291016
0.191406
0.052734
0.087891
-0.076172
0.227539
-0.535156
0.240234
-0.302734
0.468750
0.492188
-0.170898
0.206055
0.358398
0.292969
-0.148438
-0.043945
-0.470703
-0.745117
0.058594
-0.358398
-0.205078
-0.244141
0.371094
0.266602
-0.250977
-0.182617
0.022461
0.034180
-0.320312
0.212891
-0.185547
-0.166016
0.219727
0.292969
0.055664
0.168945
-0.022461
-0.313477
-0.110352
0.274414
0.080078
0.010742
-0.016602
0.079102
-0.271484
-0.003906
-0.714844
-0.030273
-0.043945
-0.303711
-0.041016
-0.132812
-0.327148
-0.341797
0.295898
0.234375
-0.236328
-0.308594
-0.242188
-0.373047
-0.516602
0.318359
0.014648
0.208984
0.040039
0.173828
0.252930
0.108398
0.255859
0.331055
0.145508
-0.011719
0.049805
-0.061523
-0.491211
-0.129883
0.528320
-0.101562
-0.007812
-0.148438
0.059570
-0.324219
-0.154297
-0.092773
-0.185547
0.062500
-0.085938
-0.929688
-0.847656
-0.091797
-0.709961
0.047852
0.053711
0.407227
-0.222656
0.288086
0.136719
-0.150391
-0.019531
0.198242
0.285156
0.119141
0.188477
0.049805
-0.213867
0.266602
-0.204102
-0.374023
0.136719
-0.053711
0.159180
-0.689453
0.262695
-0.849609
0.249023
-0.268555
-0.086914
-0.005859
-0.302734
-0.316406
-0.230469
-0.466797
0.500977
-0.182617
-0.027344
-0.487305
-0.530273
0.012695
0.197266
0.583008
0.799805
-0.029297
-0.029297
-0.219727
-0.208008
0.180664
-0.187500
-0.081055
-0.366211
-0.267578
-0.269531
0.116211
0.244141
-0.409180
-0.036133
0.007812
-0.402344
-0.300781
-0.012695
0.052734
0.170898
0.207031
0.170898
0.458984
0.310547
-0.244141
0.584961
-0.220703
-0.167969
0.392578
0.155273
-0.157227
0.082031
0.362305
0.021484
-0.474609
-0.563477
-0.122070
-0.266602
-0.338867
0.528320
-0.314453
-0.526367
0.007812
0.098633
-0.613281
-0.023438
0.132812
0.236328
0.000977
0.003906
0.447266
0.040039
0.103516
-0.239258
-0.411133
0.090820
0.115234
-0.202148
-0.198242
-0.118164
-0.120117
-0.182617
-0.099609
-0.519531
-0.474609
-0.181641
-0.003906
0.225586
0.182617
0.383789
0.265625
-0.097656
0.322266
-0.555664
-0.028320
-0.195312
-0.090820
-0.615234
-0.188477
0.089844
-0.025391
-0.053711
0.267578
-0.046875
0.083984
0.189453
-0.009766
-0.899414
0.034180
-0.083008
0.643555
-0.276367
-0.706055
0.044922
0.067383
-0.867188
0.433594
0.059570
-0.228516
-0.230469
-0.111328
-0.380859
-0.512695
-0.342773
-0.425781
0.065430
-0.309570
-0.541016
-0.182617
0.041016
0.282227
-0.582031
-0.087891
-0.300781
0.106445
0.163086
-0.050781
0.053711
-0.316406
0.082031
0.111328
0.092773
0.075195
0.398438
-0.658203
-0.137695
-0.270508
0.087891
0.020508
0.116211
-0.399414
0.104492
0.458984
0.223633
0.084961
0.013672
-0.050781
-0.084961
-0.260742
-0.114258
-0.229492
0.249023
-0.311523
0.167969
0.311523
0.046875
-1.020508
-0.076172
-0.242188
0.512695
-0.087891
-0.075195
0.205078
-0.301758
-0.399414
0.099609
-0.379883
-0.198242
-0.095703
0.066406
0.434570
-0.045898
-0.148438
-0.386719
-0.241211
-0.000000
0.202148
-0.061523
-0.029297
0.138672
0.025391
-0.166016
0.050781
0.094727
0.128906
-0.178711
-0.569336
0.010742
0.226562
-0.195312
0.008789
-0.647461
0.661133
-0.128906
-0.561523
-0.213867
-0.254883
-0.000000
0.419922
-0.056641
0.106445
-0.514648
-0.175781
-0.021484
-0.099609
0.047852
0.311523
-0.507812
-0.683594
-0.122070
0.080078
-0.346680
-0.232422
0.324219
-0.136719
0.071289
-0.469727
0.665039
-0.442383
0.204102
-0.197266
-0.469727
-0.308594
-0.149414
-0.361328
0.093750
0.335938
-0.467773
-0.356445
0.199219
-0.072266
-0.443359
0.516602
-0.021484
-0.396484
-0.260742
0.187500
0.044922
-0.157227
-0.392578
0.026367
0.088867
-0.043945
-0.426758
0.029297
0.307617
0.309570
0.509766
-0.140625
0.426758
0.171875
-0.221680
-0.116211
0.063477
0.212891
0.039062
-0.359375
-0.349609
0.071289
-0.516602
-0.174805
0.198242
0.000000
0.643555
0.255859
-0.033203
-0.163086
-0.427734
-0.059570
-0.054688
-0.075195
-0.164062
0.154297
-0.275391
0.222656
-0.711914
-0.160156
-0.173828
-0.022461
0.191406
-0.015625
0.209961
-0.040039
0.356445
-0.218750
0.208984
0.388672
-0.313477
-0.642578
0.101562
0.367188
-0.039062
-0.363281
0.085938
0.166992
0.068359
0.072266
0.088867
0.490234
0.305664
-0.880859
0.053711
-0.080078
-0.046875
-0.447266
-0.452148
0.361328
0.376953
-0.254883
0.221680
0.279297
-0.293945
0.346680
-0.344727
0.287109
-0.205078
0.291992
0.268555
0.040039
-0.200195
-0.076172
-0.298828
-0.068359
-0.132812
0.182617
0.571289
-0.366211
0.123047
-0.354492
0.274414
-0.407227
0.104492
-0.153320
-0.147461
-0.431641
0.313477
0.005859
0.330078
0.031250
0.242188
0.327148
-0.291016
0.215820
-0.694336
0.595703
-0.259766
0.437500
-0.281250
-0.289062
-0.378906
0.192383
-0.024414
0.185547
-0.447266
-0.345703
0.125000
0.096680
-0.225586
-0.083008
0.464844
-0.372070
0.112305
-0.119141
0.316406
0.459961
0.041016
-0.276367
0.203125
0.168945
0.311523
-0.002930
0.054688
0.122070
-0.011719
0.166992
-0.489258
-0.090820
0.245117
-0.072266
-0.635742
-0.356445
-0.231445
-0.586914
0.029297
-0.543945
0.051758
-0.084961
-0.036133
0.078125
-0.535156
0.191406
0.318359
-0.135742
-0.462891
-0.081055
-0.210938
0.212891
0.224609
-0.500000
0.210938
0.062500
-0.119141
-0.003906
0.375977
-0.120117
0.216797
0.035156
-0.497070
-0.123047
-0.198242
-0.472656
-0.312500
0.142578
-0.393555
-0.295898
-0.649414
0.026367
0.549805
0.234375
-0.293945
-0.355469
-0.171875
-0.217773
0.310547
0.278320
-0.328125
0.020508
-0.087891
-0.488281
-0.400391
0.099609
0.100586
0.067383
0.067383
-0.369141
-0.087891
-0.004883
0.208008
-0.125977
-0.079102
0.361328
-0.250000
-0.416016
0.183594
-0.534180
-0.576172
0.219727
-0.532227
0.254883
-0.348633
-0.286133
0.041992
-0.071289
0.132812
-0.136719
0.109375
0.242188
0.161133
0.152344
0.070312
-0.128906
-0.007812
0.312500
-0.754883
-0.135742
-0.258789
0.533203
0.061523
-0.436523
-0.260742
0.171875
-0.108398
-0.041992
-0.406250
-0.582031
-0.264648
0.117188
-0.476562
-0.313477
0.195312
0.119141
-0.240234
0.388672
0.514648
-0.219727
0.101562
0.042969
0.355469
-0.137695
-0.254883
-0.119141
-0.152344
0.386719
0.379883
0.223633
-0.356445
-0.229492
0.102539
0.104492
-0.568359
0.120117
0.637695
-0.035156
0.125000
-0.113281
-0.023438
0.097656
0.267578
0.243164
0.495117
-0.370117
-0.126953
0.014648
-0.247070
0.070312
-0.155273
-0.157227
-0.150391
0.350586
0.385742
-0.439453
-0.359375
-0.406250
-0.011719
0.370117
0.165039
0.254883
-0.376953
0.537109
0.078125
0.534180
-0.601562
0.160156
0.389648
0.000000
-0.409180
0.060547
-0.010742
0.209961
0.358398
-0.049805
0.152344
0.079102
0.075195
0.239258
-0.461914
-0.177734
-0.155273
0.110352
-0.041016
0.375977
0.133789
-0.092773
-0.094727
0.002930
-0.672852
-0.134766
-0.599609
-0.163086
-0.296875
-0.007812
-0.307617
-0.300781
0.122070
-0.049805
0.148438
0.290039
-0.368164
-0.071289
0.305664
-0.262695
-0.107422
-0.324219
0.277344
0.165039
-0.272461
0.120117
0.298828
0.464844
-0.339844
0.210938
-0.175781
-0.248047
0.625977
-0.286133
-0.246094
0.329102
0.444336
0.279297
-0.251953
0.110352
0.115234
-0.050781
-0.283203
-0.022461
0.032227
-0.410156
-0.660156
-0.011719
0.301758
0.273438
0.208008
0.211914
0.277344
-0.473633
0.096680
0.351562
-0.105469
-0.875000
0.381836
-0.452148
0.079102
-0.223633
0.087891
0.208984
-0.181641
0.197266
-0.581055
-0.090820
-0.160156
-0.150391
-0.042969
-0.358398
-0.570312
0.049805
-0.603516
-0.004883
-0.159180
-0.012695
-0.051758
0.019531
-0.214844
-0.240234
-0.640625
-0.131836
0.208008
-0.279297
-0.063477
-0.086914
0.233398
0.210938
-0.343750
-0.156250
-0.346680
-0.142578
-0.174805
-0.075195
-0.078125
-0.071289
-0.093750
-0.217773
-0.435547
0.363281
-0.217773
-0.625000
0.144531
-0.292969
-0.049805
0.330078
0.043945
0.024414
-0.047852
0.272461
0.005859
0.017578
0.109375
-0.276367
-0.614258
-0.145508
0.153320
0.304688
0.083008
-0.150391
-0.220703
-0.144531
0.281250
0.270508
-0.192383
-0.198242
0.090820
0.237305
-0.525391
0.091797
0.371094
-0.421875
0.567383
0.252930
-0.338867
-0.079102
0.322266
-0.260742
-0.458008
0.455078
-0.296875
-0.458984
-0.375977
-0.201172
0.254883
0.083008
-0.189453
0.557617
-0.262695
0.364258
-0.178711
0.005859
0.458008
-0.082031
-0.250000
-0.548828
0.125977
-0.560547
-0.082031
-0.021484
-0.129883
0.040039
-0.333984
-0.121094
0.363281
-0.063477
-0.060547
-0.133789
-0.157227
0.070312
-0.514648
-0.122070
-0.552734
-0.327148
-0.269531
-0.308594
0.307617
0.012695
-0.265625
-0.404297
0.092773
0.070312
-0.159180
0.218750
-0.199219
-0.637695
-0.046875
-0.435547
-0.305664
0.080078
-0.400391
-0.086914
-0.394531
-0.260742
-0.517578
-0.119141
-0.319336
0.190430
-0.004883
0.167969
0.117188
0.276367
0.091797
0.081055
-0.033203
-0.446289
0.498047
0.279297
-0.276367
-0.828125
0.006836
0.041992
0.743164
0.532227
-0.136719
-0.211914
-0.182617
0.003906
0.139648
-0.816406
-0.101562
0.270508
-0.467773
-0.571289
0.109375
0.214844
0.216797
-0.440430
0.067383
-0.060547
0.181641
-0.198242
-0.332031
-0.125977
0.104492
-0.264648
0.117188
0.303711
-0.051758
-0.141602
-0.011719
-0.114258
-0.095703
-0.246094
-0.124023
0.471680
0.170898
-0.053711
-0.275391
0.204102
-0.142578
-0.259766
-0.034180
0.444336
-0.241211
-0.013672
-0.092773
-0.025391
0.154297
0.225586
-0.138672
0.266602
-0.338867
-0.445312
-0.033203
0.341797
-0.476562
0.579102
-0.236328
0.041992
-0.265625
0.027344
-0.450195
0.202148
-0.832031
0.377930
0.227539
0.277344
-0.386719
0.169922
-0.190430
-0.205078
-0.000977
-0.191406
-0.075195
-0.310547
-0.581055
-0.359375
-0.346680
-0.175781
-0.520508
-0.301758
-0.075195
0.009766
-0.107422
-0.495117
-0.203125
0.077148
-0.150391
-0.046875
0.280273
-0.032227
0.523438
-0.326172
-0.173828
-0.082031
0.168945
-0.073242
-0.115234
-0.184570
-0.027344
-0.552734
-0.041016
0.299805
0.379883
0.343750
0.308594
0.018555
0.214844
0.212891
-0.356445
-0.356445
-0.245117
0.108398
0.105469
-0.042969
0.267578
-0.236328
-0.122070
0.125977
-0.345703
-0.050781
-0.260742
0.254883
-0.426758
0.003906
-0.447266
0.392578
0.249023
0.324219
0.027344
-0.384766
-1.108398
0.020508
-0.174805
0.213867
0.051758
-0.030273
0.223633
-0.005859
0.440430
-0.320312
-0.107422
0.161133
-0.110352
-0.038086
-0.373047
0.180664
-0.276367
-0.349609
0.245117
-0.127930
0.195312
0.098633
-0.345703
0.368164
-0.249023
-0.323242
0.258789
0.035156
-0.310547
0.747070
-0.756836
0.098633
0.333008
-0.629883
0.020508
-0.271484
-0.247070
0.010742
-0.026367
-0.125000
-0.305664
-0.077148
0.136719
-0.461914
0.026367
0.016602
0.097656
-0.053711
0.024414
0.338867
0.224609
0.183594
0.208008
0.268555
0.325195
-0.231445
0.075195
0.373047
0.042969
-0.218750
0.017578
-0.418945
-0.558594
-0.227539
0.150391
-0.048828
-0.197266
0.047852
-0.240234
-0.063477
0.166992
0.409180
0.350586
0.254883
-0.510742
-0.311523
0.046875
-0.155273
0.303711
-0.068359
-0.528320
0.402344
-0.079102
-0.411133
0.593750
-0.246094
0.531250
-0.607422
0.056641
0.155273
-0.248047
-0.927734
0.074219
0.064453
0.188477
-0.075195
-0.728516
-0.089844
0.180664
-0.750977
0.710938
-0.587891
-0.368164
-0.048828
0.127930
-0.212891
0.448242
-0.118164
-0.503906
0.180664
-0.051758
0.026367
0.148438
0.405273
0.283203
-0.167969
-0.288086
-0.415039
0.193359
0.067383
-0.054688
-0.498047
-0.171875
-0.660156
-0.365234
-0.002930
0.117188
-0.150391
0.032227
-0.282227
-0.213867
0.156250
-0.300781
-0.355469
-0.209961
-0.178711
0.012695
0.326172
-0.354492
0.084961
0.293945
0.751953
-0.085938
-0.049805
0.007812
0.183594
-0.176758
0.039062
-0.390625
0.008789
0.011719
-0.219727
-0.011719
-0.315430
-0.182617
0.085938
-0.039062
-0.025391
0.220703
-0.525391
0.069336
0.018555
0.071289
0.222656
0.194336
0.222656
0.057617
-0.114258
0.126953
0.131836
0.375000
0.119141
0.136719
-0.483398
-0.003906
0.363281
-0.052734
-0.216797
-0.043945
0.010742
0.347656
0.042969
-0.091797
-0.256836
0.214844
0.081055
0.396484
-0.027344
-0.197266
0.066406
0.010742
-0.060547
-0.563477
0.154297
-0.265625
0.122070
0.109375
0.497070
0.047852
-1.762695
-0.052734
0.219727
0.106445
0.003906
0.182617
0.246094
0.437500
-0.210938
0.159180
-0.032227
0.293945
-0.382812
0.227539
0.392578
-0.818359
-0.139648
-0.152344
0.050781
0.195312
0.170898
0.469727
0.323242
0.119141
-0.169922
-0.857422
0.331055
0.261719
-0.279297
-0.302734
0.165039
-0.080078
0.405273
0.016602
-0.054688
0.084961
-0.161133
0.347656
0.029297
-0.336914
-0.315430
-0.124023
-0.489258
-0.093750
-0.202148
0.151367
-0.175781
-0.137695
-0.281250
-0.982422
-0.219727
-0.473633
0.316406
-0.021484
-0.246094
-0.076172
0.437500
-0.022461
-0.849609
0.154297
0.027344
-0.305664
-0.023438
0.098633
0.088867
-0.094727
0.248047
0.233398
0.465820
-0.587891
0.242188
0.226562
-0.002930
0.128906
-0.055664
-0.161133
-0.412109
-0.192383
-0.049805
-0.498047
0.083984
0.167969
-0.274414
-0.019531
-0.336914
-0.129883
-0.185547
0.091797
0.063477
0.085938
0.126953
-0.539062
0.356445
0.192383
0.357422
-0.111328
0.165039
-0.315430
-0.555664
0.274414
0.112305
0.202148
-0.023438
-0.722656
0.375000
-0.459961
0.395508
-0.388672
-0.131836
-0.467773
-0.024414
-0.064453
-0.671875
-0.147461
-0.734375
0.012695
-0.192383
0.054688
-0.278320
0.329102
-0.182617
-0.135742
-0.277344
-0.077148
-0.088867
0.300781
0.005859
0.031250
0.091797
0.069336
-0.144531
0.316406
0.103516
-0.313477
-0.501953
0.017578
0.009766
-0.235352
-0.155273
0.524414
0.031250
0.280273
0.189453
-0.734375
-0.150391
-0.026367
-0.135742
-0.440430
-0.093750
0.067383
-0.170898
0.205078
-0.318359
-0.147461
-0.210938
-0.271484
0.171875
0.353516
-0.047852
-0.136719
-0.306641
0.205078
0.390625
-0.249023
-0.658203
-0.664062
-0.352539
0.266602
-0.083008
-0.210938
0.109375
0.165039
-0.568359
-0.247070
0.157227
0.176758
-0.464844
0.281250
-0.176758
0.034180
0.082031
0.132812
-0.008789
0.447266
0.234375
-0.067383
0.296875
-0.500000
-0.228516
-0.503906
-0.037109
0.000000
-0.141602
-0.740234
-0.105469
-0.142578
0.257812
-0.544922
-0.518555
0.263672
0.061523
0.146484
0.264648
-0.342773
-0.209961
-0.232422
-0.016602
-0.172852
0.231445
0.033203
-0.327148
0.350586
-0.383789
-0.159180
0.149414
0.460938
0.379883
0.134766
-0.351562
0.020508
0.549805
-0.425781
0.076172
0.198242
0.003906
-0.163086
-0.154297
0.447266
-0.058594
-0.083984
0.314453
0.232422
0.300781
-0.012695
-0.314453
0.229492
0.411133
-0.036133
0.184570
-0.041016
-0.203125
-0.202148
0.500000
0.292969
0.054688
-0.160156
0.384766
0.129883
-0.394531
0.102539
-0.111328
0.393555
-0.451172
-0.148438
0.070312
0.083984
-1.131836
0.332031
-0.252930
0.210938
-0.905273
0.343750
0.176758
-0.087891
-0.090820
-0.059570
-0.307617
-0.261719
-0.240234
-0.452148
0.028320
-1.058594
-0.259766
-0.183594
0.190430
0.022461
-0.061523
-0.301758
0.139648
-0.020508
0.067383
-0.336914
-0.121094
-0.259766
-0.352539
0.213867
-0.235352
-0.121094
0.223633
0.343750
-0.648438
0.197266
-0.085938
-0.352539
-0.145508
-0.200195
0.250000
-0.316406
-0.038086
0.524414
-0.166992
0.205078
-0.047852
-0.261719
-0.194336
-0.946289
0.149414
-1.185547
-0.379883
-0.292969
0.027344
0.405273
0.220703
0.035156
-0.702148
0.237305
0.204102
-0.027344
0.101562
0.283203
-0.128906
-0.226562
-0.133789
0.170898
0.284180
-0.192383
-0.190430
-0.410156
0.141602
0.346680
0.374023
-0.648438
0.338867
-0.517578
-0.030273
0.190430
-0.064453
-0.595703
0.278320
-0.162109
-0.358398
0.017578
-0.386719
-0.178711
0.497070
-0.541016
0.124023
0.794922
0.280273
0.065430
-0.020508
0.085938
0.051758
0.267578
-0.321289
0.044922
0.289062
0.102539
-0.067383
0.047852
-0.517578
-0.971680
-0.263672
-0.299805
-0.136719
0.283203
-0.082031
0.105469
-0.193359
0.144531
-0.158203
-0.221680
-0.221680
-0.452148
-0.067383
-0.483398
-0.208984
-0.193359
-0.096680
-0.000000
-0.462891
-0.367188
0.262695
-0.178711
0.605469
-0.244141
-0.222656
0.243164
-0.531250
0.383789
-0.170898
0.133789
-0.004883
0.042969
-0.192383
-0.634766
-0.177734
-0.250000
-0.044922
1.264648
-0.556641
-0.333008
-0.715820
0.090820
0.071289
-0.573242
0.153320
-0.106445
-0.270508
0.177734
-0.023438
-0.133789
-0.122070
-0.492188
-0.148438
-0.149414
-0.243164
0.712891
-0.182617
-1.332031
-0.003906
-0.045898
-0.092773
-0.077148
-0.313477
-1.402344
-0.079102
0.216797
-0.530273
-0.000977
-0.044922
0.077148
-0.126953
0.503906
0.147461
0.572266
-0.064453
-0.305664
-0.095703
-0.545898
0.028320
0.142578
-0.815430
0.054688
0.143555
-0.158203
0.034180
0.221680
0.280273
-0.133789
-0.183594
-0.235352
0.306641
-0.040039
1.208984
0.005859
0.188477
0.262695
-0.470703
-0.806641
0.247070
-0.188477
0.141602
-0.076172
-0.067383
-0.492188
0.475586
0.132812
0.125977
-0.192383
-0.019531
-0.267578
-0.215820
-0.574219
-0.290039
0.116211
-0.814453
-0.528320
-0.120117
0.045898
-0.577148
0.154297
-0.123047
-0.854492
-0.151367
0.080078
0.235352
-0.181641
-0.229492
-0.056641
-0.560547
-0.363281
-0.031250
0.100586
0.067383
-0.306641
-0.521484
-0.136719
-0.300781
-0.494141
-0.329102
-0.179688
0.141602
0.339844
-0.263672
-0.140625
-0.395508
-0.444336
0.139648
-0.296875
0.208008
0.147461
-0.086914
0.103516
0.091797
-0.233398
-0.092773
-0.120117
-0.014648
0.066406
-0.270508
-0.025391
0.130859
-0.466797
0.024414
-0.031250
0.075195
0.296875
0.464844
-0.565430
0.202148
0.019531
0.326172
-0.123047
-0.170898
-0.098633
-0.494141
-0.096680
0.040039
0.094727
0.220703
-0.267578
0.045898
-0.125977
0.359375
0.186523
-0.194336
-0.351562
-1.093750
0.209961
0.474609
-0.011719
0.247070
0.393555
-0.240234
-0.238281
-0.470703
-0.097656
-0.122070
-0.005859
0.297852
0.262695
0.290039
-0.394531
-0.295898
-0.119141
-0.162109
0.040039
0.068359
-0.387695
0.159180
-0.579102
-0.180664
-0.267578
0.100586
-0.512695
-0.379883
-0.600586
-0.470703
-0.056641
0.562500
0.245117
-0.595703
-0.259766
-0.521484
0.234375
-0.065430
0.114258
-0.094727
0.253906
0.006836
-0.108398
-0.128906
-0.116211
-0.151367
-0.258789
0.187500
0.145508
-0.251953
-0.619141
0.317383
-0.271484
-0.015625
-0.242188
-0.387695
0.015625
0.030273
-0.046875
0.311523
-0.675781
-0.030273
0.095703
-0.080078
0.084961
-0.003906
-0.024414
0.129883
-0.041992
-0.687500
-0.155273
0.499023
-0.350586
-0.001953
0.061523
0.137695
-0.355469
0.287109
0.243164
-0.306641
-0.119141
0.602539
0.106445
-0.428711
-0.581055
-0.338867
-0.295898
0.406250
0.576172
-0.630859
0.323242
0.179688
-0.451172
-0.316406
0.328125
0.076172
-0.016602
-0.441406
0.246094
0.401367
0.216797
-0.304688
0.105469
-0.150391
0.181641
0.530273
-0.063477
-0.112305
0.023438
0.013672
0.181641
-0.306641
0.523438
-0.748047
-0.288086
-0.461914
-0.104492
0.447266
0.036133
0.063477
-0.078125
-0.587891
0.206055
-0.413086
0.198242
0.352539
-0.183594
0.010742
-0.409180
0.103516
-0.092773
-0.251953
0.141602
0.352539
0.248047
0.096680
0.186523
-0.071289
-0.368164
-0.104492
0.375000
-0.494141
-0.672852
-0.091797
-0.115234
-0.074219
0.054688
-0.000000
-0.083984
-0.007812
-0.065430
-0.181641
-0.078125
0.011719
0.375000
0.278320
0.285156
0.387695
0.453125
-0.013672
0.039062
-0.139648
0.134766
-0.306641
-0.453125
0.428711
-0.675781
-0.348633
0.000977
-0.117188
-0.007812
-0.178711
-0.279297
0.071289
0.048828
-0.534180
0.125000
0.164062
-0.201172
-0.459961
0.226562
-0.680664
0.146484
-0.576172
0.120117
0.115234
-0.042969
0.119141
0.135742
0.172852
-0.166992
-0.246094
0.577148
-0.048828
0.400391
0.334961
0.010742
0.122070
0.489258
0.332031
0.019531
0.332031
-0.343750
0.309570
-0.415039
-0.092773
-0.322266
-0.132812
0.106445
0.208008
-0.478516
0.269531
-0.027344
0.264648
0.446289
-0.010742
-0.065430
-0.938477
0.002930
-0.582031
-0.322266
-0.475586
0.418945
-0.398438
0.205078
-0.078125
0.545898
-0.191406
-0.352539
-0.278320
0.458008
0.055664
-0.037109
0.221680
0.311523
-0.149414
0.020508
-0.062500
0.004883
-0.006836
-0.050781
-0.104492
-0.271484
-0.007812
0.279297
-0.074219
0.236328
0.062500
0.671875
0.034180
0.021484
-0.146484
0.041992
0.192383
-0.231445
-0.590820
0.121094
0.180664
0.139648
0.160156
0.580078
-1.024414
-0.166992
-0.253906
-0.133789
-0.026367
-0.478516
-0.304688
-0.116211
0.195312
0.426758
0.272461
-0.245117
0.283203
0.267578
0.069336
-0.183594
0.067383
-0.098633
0.124023
-0.104492
-1.406250
0.202148
0.156250
-0.409180
0.041992
-0.018555
0.108398
0.184570
0.672852
0.114258
0.317383
-0.216797
-0.198242
-0.021484
-0.223633
-0.590820
-0.208984
0.188477
-0.122070
-0.125000
0.395508
0.082031
-0.334961
-0.095703
0.299805
-0.035156
-0.015625
-0.150391
-0.363281
-0.166992
-0.259766
-0.567383
0.396484
0.109375
-0.150391
0.009766
-0.002930
0.177734
-0.115234
-0.250000
-0.399414
-0.081055
0.117188
0.017578
-0.202148
0.070312
-0.365234
-0.176758
0.293945
-0.006836
0.148438
0.103516
0.305664
0.003906
0.132812
-0.006836
0.154297
0.074219
-0.136719
0.014648
0.214844
-0.039062
-0.715820
0.291016
0.182617
0.436523
-0.247070
-0.107422
-0.083984
0.328125
0.255859
-0.068359
-0.236328
-0.047852
0.340820
0.371094
0.151367
-0.021484
0.151367
0.463867
0.484375
0.557617
0.110352
0.253906
-0.080078
0.209961
-0.062500
-0.188477
-0.020508
-0.256836
-0.044922
-0.688477
-0.346680
-0.126953
-0.647461
-0.282227
-0.035156
-0.295898
-0.172852
-0.250977
0.214844
-0.514648
-0.319336
0.268555
0.203125
0.446289
0.087891
-0.140625
-0.037109
-0.671875
0.483398
-0.072266
0.135742
-0.025391
-0.250000
-0.482422
-0.065430
-0.513672
-0.371094
-0.501953
-0.276367
-0.415039
-0.171875
0.410156
-0.226562
-0.247070
0.268555
-0.368164
0.104492
0.032227
0.077148
-0.061523
0.159180
-1.035156
0.003906
0.094727
-0.275391
-0.369141
-0.561523
0.577148
0.357422
-0.637695
-0.312500
-0.717773
0.149414
0.361328
0.062500
0.151367
-0.292969
0.076172
0.237305
-0.606445
-0.239258
0.081055
-0.542969
-0.168945
-0.288086
0.037109
0.032227
-0.193359
-0.317383
-0.086914
-0.182617
0.120117
0.161133
-0.069336
-0.099609
0.336914
-0.147461
-0.001953
-0.043945
-0.552734
0.149414
0.055664
-0.311523
0.336914
-0.090820
-0.238281
-0.065430
-0.280273
-0.259766
-0.201172
-0.596680
0.186523
-0.100586
0.032227
-0.046875
-0.334961
-0.037109
-0.673828
-0.078125
-0.486328
0.184570
0.351562
-0.867188
-0.232422
0.097656
0.017578
-0.303711
0.226562
-0.321289
0.098633
0.409180
-0.087891
-0.023438
-0.258789
0.156250
0.378906
0.089844
-0.172852
0.169922
0.509766
-0.047852
-0.447266
-0.374023
0.255859
-0.185547
-0.409180
-0.386719
-0.031250
0.465820
-0.250977
-0.065430
-0.458984
0.691406
0.236328
0.344727
0.769531
-0.074219
-0.013672
-0.473633
0.466797
-0.199219
0.246094
0.196289
-0.802734
-0.204102
0.306641
0.180664
-0.223633
-0.272461
-0.035156
0.284180
-0.006836
-0.192383
-0.104492
0.240234
0.186523
-0.622070
0.071289
-0.443359
-0.328125
0.139648
-0.101562
0.107422
0.135742
0.177734
-0.140625
0.221680
0.246094
-0.339844
0.229492
0.315430
0.106445
-0.017578
0.130859
0.102539
-0.218750
-0.102539
-0.353516
0.299805
0.472656
-0.067383
0.592773
0.023438
-0.546875
0.007812
0.063477
-0.252930
-0.278320
-0.235352
-0.244141
0.006836
-0.050781
0.192383
0.421875
-0.449219
0.612305
-0.143555
-0.019531
-0.107422
-0.206055
-0.822266
0.415039
-0.412109
-0.080078
0.139648
0.191406
-0.249023
0.124023
-0.211914
-0.457031
0.200195
0.540039
0.110352
-0.287109
-0.372070
-0.361328
-0.056641
-0.017578
0.144531
-0.337891
0.284180
0.150391
-0.166992
0.087891
-0.160156
-0.537109
0.047852
-0.035156
0.124023
-0.512695
-0.179688
0.167969
0.185547
0.221680
-0.331055
0.329102
-0.481445
-0.039062
-0.103516
-0.424805
0.108398
-0.154297
0.183594
-0.219727
-0.443359
0.140625
-0.583008
-0.055664
0.141602
-0.454102
-0.039062
0.392578
0.067383
0.024414
-0.167969
0.604492
0.097656
0.230469
0.298828
-0.156250
-0.369141
-0.092773
0.227539
0.281250
-0.373047
-0.844727
-0.215820
-0.912109
-0.295898
0.191406
-0.182617
-0.481445
-0.010742
-0.369141
-0.375000
-0.234375
-0.258789
0.208008
0.297852
-0.134766
0.146484
-0.276367
-0.324219
0.077148
0.075195
-0.003906
-0.347656
0.088867
-0.398438
-0.136719
0.047852
-0.443359
-0.263672
-0.454102
0.218750
-0.277344
-0.044922
-0.425781
0.033203
-0.381836
-0.254883
-0.482422
0.125977
0.460938
-0.263672
0.161133
-0.322266
-0.207031
0.007812
-0.376953
-0.349609
0.440430
-0.314453
0.165039
-0.235352
0.327148
-0.498047
0.378906
-0.476562
0.268555
-0.299805
-0.206055
0.058594
0.075195
-0.109375
0.036133
0.240234
-0.140625
0.112305
0.160156
0.168945
-0.362305
0.471680
0.102539
-0.117188
-0.270508
-0.401367
-0.098633
0.325195
-0.277344
-0.235352
0.056641
0.208008
-0.172852
-0.143555
-0.128906
0.152344
0.329102
-0.150391
-0.029297
-0.757812
0.475586
-0.069336
-0.239258
-0.091797
-0.428711
0.355469
0.323242
-0.176758
-0.018555
-0.541016
-0.061523
-0.213867
-0.418945
0.203125
-0.101562
0.033203
-0.770508
-0.346680
-0.158203
-0.310547
-0.066406
0.259766
0.077148
-0.057617
-0.438477
0.166016
-0.333008
0.255859
-0.087891
0.035156
0.104492
-0.026367
0.200195
0.057617
-0.014648
0.132812
-0.089844
-0.516602
-0.167969
0.293945
0.121094
0.265625
-0.192383
-0.109375
0.220703
0.332031
-0.893555
-0.663086
-0.480469
-0.617188
0.081055
0.447266
0.177734
-0.523438
0.037109
-0.130859
-0.371094
0.314453
0.052734
-0.380859
0.017578
-0.127930
-0.028320
-0.124023
-0.147461
-0.047852
-0.214844
-0.069336
-0.413086
0.301758
0.474609
-0.003906
0.032227
-0.470703
0.390625
-0.497070
0.254883
-0.612305
0.078125
-0.208008
-0.210938
-0.100586
0.248047
-0.238281
-0.173828
0.126953
0.112305
0.271484
-0.185547
-0.117188
0.277344
0.567383
-0.359375
-0.192383
-0.601562
-0.101562
-0.166016
0.008789
-0.275391
0.173828
-0.098633
0.045898
-0.260742
-0.015625
0.525391
0.032227
-0.666992
-0.137695
0.169922
-0.277344
-0.550781
0.349609
-0.399414
-0.376953
-0.157227
-0.045898
-0.569336
-0.194336
0.132812
0.374023
-0.674805
-0.086914
0.156250
-0.166992
0.022461
-0.076172
-0.369141
0.165039
0.062500
0.655273
-0.111328
-0.549805
0.399414
-0.015625
0.260742
-0.121094
0.152344
-0.037109
-0.069336
0.399414
-0.285156
0.009766
0.230469
-0.033203
-0.098633
-0.122070
0.177734
-0.146484
-0.558594
0.375000
-0.750000
0.370117
0.261719
0.184570
-0.242188
0.286133
-0.239258
-0.549805
0.074219
-0.109375
-0.152344
-0.429688
0.065430
-0.388672
-0.462891
-0.147461
0.333008
0.008789
0.091797
0.458984
-0.112305
-0.237305
-0.231445
-0.006836
-0.065430
0.153320
-0.789062
-0.458008
0.099609
0.151367
0.349609
0.405273
0.167969
-0.083984
0.132812
-0.108398
0.490234
-0.557617
-0.052734
0.436523
-0.031250
-0.327148
0.189453
0.193359
-0.222656
0.191406
0.026367
-0.513672
-0.069336
-0.025391
-0.309570
0.103516
-0.548828
-0.141602
-0.366211
0.077148
0.188477
0.068359
-0.261719
0.031250
-0.238281
-0.064453
-0.242188
-0.177734
-0.209961
-0.268555
0.478516
0.069336
0.163086
0.140625
-0.509766
0.450195
-0.360352
-0.366211
-0.503906
0.121094
0.174805
-0.026367
-0.377930
-0.230469
-0.028320
-0.487305
-0.099609
-0.468750
0.105469
0.088867
0.330078
-0.220703
0.079102
-0.152344
-0.085938
-0.227539
-0.043945
-0.035156
-0.436523
0.007812
-0.699219
-0.421875
-0.166016
-0.068359
0.371094
-0.070312
-0.333008
0.037109
-0.082031
-0.466797
0.134766
-0.055664
-0.508789
-0.099609
0.170898
0.025391
-0.349609
-0.642578
0.474609
0.328125
0.106445
0.027344
-0.207031
0.108398
-0.237305
-0.079102
-0.080078
-0.030273
-0.210938
-0.331055
-0.117188
-0.096680
-0.421875
-0.303711
-0.029297
-0.131836
-0.037109
-0.191406
-0.081055
-0.138672
-0.200195
0.179688
-0.381836
-0.031250
0.241211
-0.277344
0.238281
0.618164
0.082031
-0.416992
0.670898
-0.437500
0.531250
-0.387695
-0.562500
0.358398
0.102539
-0.298828
0.348633
0.286133
-0.306641
-0.313477
-0.013672
-0.031250
-0.567383
0.235352
-0.323242
-0.529297
0.109375
0.280273
-0.560547
0.247070
0.110352
-0.137695
0.019531
0.085938
-0.289062
-0.167969
-0.256836
-0.364258
-0.671875
0.269531
-0.254883
0.265625
0.244141
-0.553711
0.077148
-0.321289
-0.034180
0.416016
0.203125
-0.051758
-0.733398
-0.171875
-0.140625
-0.100586
-0.216797
-0.369141
-0.223633
0.428711
-0.686523
0.288086
0.278320
0.273438
-0.492188
0.215820
-0.129883
-0.332031
-0.571289
-0.508789
-0.150391
-0.202148
0.062500
-0.943359
0.034180
0.013672
-0.311523
-0.682617
0.058594
0.304688
-0.636719
0.272461
0.189453
-0.069336
-0.021484
-0.321289
0.271484
0.046875
-0.353516
-0.254883
-0.346680
0.138672
0.109375
0.017578
0.357422
0.212891
-0.239258
0.286133
-0.471680
-0.616211
-0.158203
-0.163086
-0.170898
0.133789
0.113281
0.690430
0.302734
-0.137695
-0.091797
-0.125977
0.154297
0.420898
0.544922
-0.253906
-0.623047
-0.354492
0.237305
-0.464844
0.234375
0.049805
-0.293945
0.191406
0.059570
0.056641
0.104492
-0.420898
-0.146484
0.599609
-0.293945
-0.295898
0.077148
-0.371094
-0.016602
-0.409180
0.139648
0.074219
-0.084961
-0.044922
0.196289
0.015625
-0.680664
-0.172852
0.266602
0.193359
-0.595703
0.013672
-0.279297
-0.505859
-0.013672
0.393555
0.269531
0.130859
0.549805
0.307617
0.463867
0.250000
-0.026367
0.062500
-0.064453
-0.018555
0.105469
0.373047
0.299805
0.474609
0.163086
-0.005859
0.244141
-0.063477
-0.154297
0.240234
0.115234
0.119141
-0.354492
-0.328125
-0.276367
-0.564453
-0.159180
-0.040039
-0.060547
0.008789
0.094727
0.013672
-0.011719
-0.034180
-0.593750
-0.255859
-0.534180
0.235352
-0.393555
-0.493164
-0.257812
0.108398
-0.250000
0.066406
0.193359
-0.251953
-0.299805
-0.192383
-0.408203
0.006836
0.026367
0.095703
-0.035156
0.402344
0.318359
0.386719
0.174805
-0.200195
0.081055
-0.111328
-0.089844
0.699219
0.197266
0.047852
0.061523
0.057617
-0.484375
-0.403320
0.190430
-0.780273
-0.559570
0.152344
0.262695
0.533203
0.275391
0.134766
0.065430
0.280273
-0.321289
-0.011719
0.122070
-0.109375
-0.401367
-0.022461
-0.293945
-0.062500
0.395508
0.175781
-0.195312
0.050781
-0.046875
0.152344
0.003906
-0.074219
0.056641
0.114258
0.138672
0.334961
0.433594
-0.458008
-0.258789
-0.278320
-0.218750
-0.120117
-0.007812
0.225586
-0.354492
-0.134766
-0.350586
-0.060547
0.125000
-0.231445
0.022461
-0.260742
-0.190430
-0.018555
-0.186523
0.388672
-0.707031
0.220703
-0.230469
-0.186523
-0.477539
-0.226562
-0.669922
-0.550781
-0.342773
-0.206055
0.136719
0.155273
-0.069336
-0.875977
-0.375977
-0.415039
-0.013672
-0.170898
0.241211
0.108398
-0.450195
-0.437500
0.195312
-0.425781
0.245117
-0.068359
0.291016
0.261719
-0.387695
0.128906
0.043945
-0.222656
-0.720703
0.494141
0.164062
0.355469
0.025391
0.058594
0.125000
0.025391
0.197266
0.295898
-0.397461
0.077148
-0.298828
-0.072266
0.117188
0.031250
0.304688
-0.671875
-0.309570
0.001953
0.118164
0.375977
-0.336914
-0.004883
0.356445
0.173828
0.467773
-0.035156
0.045898
-0.002930
0.155273
-0.234375
0.456055
-0.433594
-0.738281
-0.289062
0.505859
0.113281
-0.419922
-0.207031
0.169922
-0.269531
-0.083984
-0.023438
-0.178711
0.107422
-0.078125
-0.297852
-0.110352
-0.559570
-0.094727
0.231445
-0.085938
0.176758
-0.092773
-0.261719
0.060547
0.093750
-0.041992
-0.090820
0.099609
0.149414
0.373047
0.276367
0.093750
-0.098633
0.258789
-0.029297
0.113281
-0.588867
-0.341797
0.218750
-0.282227
-0.668945
-0.031250
-0.480469
0.145508
-0.537109
0.064453
-0.083008
-0.161133
-0.185547
-0.166992
0.170898
0.369141
-0.063477
0.207031
-0.106445
-0.255859
0.286133
-0.017578
0.064453
0.193359
0.108398
-0.087891
-0.592773
0.018555
0.375000
-0.274414
-0.083984
-0.685547
0.428711
-0.131836
0.159180
0.008789
-0.506836
0.194336
0.123047
-0.655273
0.420898
-0.220703
0.043945
-0.439453
-0.028320
0.051758
-0.206055
0.112305
-0.339844
0.510742
-0.073242
-0.214844
0.222656
-0.434570
-0.060547
-0.246094
-0.030273
-0.289062
0.340820
-0.496094
0.065430
0.573242
0.323242
-0.125000
0.273438
0.420898
-0.607422
-0.224609
-0.150391
0.299805
-0.090820
-0.430664
-0.328125
-0.596680
0.029297
-0.124023
0.334961
0.031250
-0.136719
-0.273438
0.039062
0.237305
-0.115234
-0.154297
0.537109
0.085938
0.118164
0.038086
-0.278320
-0.438477
0.262695
0.276367
0.190430
0.355469
-0.092773
0.182617
0.183594
0.703125
0.075195
-0.197266
0.290039
0.364258
0.097656
-0.296875
0.262695
0.297852
0.261719
-0.547852
0.415039
0.142578
-0.155273
-0.465820
-0.048828
-0.006836
0.129883
-0.320312
-0.205078
-0.553711
0.470703
0.363281
-0.080078
-0.078125
-0.206055
-0.210938
0.369141
-0.018555
0.208984
0.196289
-0.233398
0.031250
-0.098633
-0.094727
-0.052734
-0.638672
-0.523438
-0.321289
-0.130859
-0.001953
0.031250
-0.705078
-0.361328
0.356445
-0.523438
0.429688
-0.317383
-0.219727
0.334961
-0.029297
-0.510742
-0.393555
-0.331055
0.197266
-0.124023
0.097656
-0.501953
-0.076172
0.267578
0.319336
-0.281250
-0.366211
-0.630859
-0.212891
-0.044922
0.047852
-0.397461
-0.056641
0.351562
0.251953
-0.059570
-0.659180
-0.411133
0.022461
0.133789
0.122070
-0.337891
-0.097656
-0.596680
-0.083984
-0.380859
0.515625
0.002930
0.041992
-0.223633
0.234375
0.138672
0.428711
0.116211
0.379883
-0.333008
-0.063477
-0.272461
0.232422
0.162109
-0.097656
0.185547
0.074219
0.035156
-0.105469
0.065430
0.340820
0.543945
-0.127930
0.415039
-0.289062
-0.205078
-0.033203
0.156250
0.477539
-0.390625
-0.109375
-0.196289
-0.379883
-0.400391
-0.362305
-0.263672
-0.035156
0.194336
-0.573242
0.056641
-0.064453
0.200195
0.076172
0.123047
0.174805
0.388672
-0.298828
-0.179688
-0.056641
0.280273
-0.198242
-0.280273
0.383789
-0.489258
-0.179688
-0.062500
0.333984
0.032227
-0.487305
-0.099609
0.401367
0.159180
-0.152344
0.229492
-0.193359
0.087891
0.381836
-0.603516
-0.107422
-0.134766
0.109375
-0.163086
-0.731445
0.328125
-0.145508
-0.031250
-0.128906
-0.019531
-0.005859
-0.133789
0.117188
0.597656
0.073242
-0.164062
-0.099609
0.183594
-0.071289
0.291992
0.284180
0.014648
-0.192383
-0.444336
0.310547
-0.629883
-0.209961
0.309570
-0.530273
0.226562
-0.027344
-0.146484
-0.071289
0.041992
0.047852
-0.068359
0.255859
0.136719
0.097656
-0.020508
0.215820
0.041016
-0.773438
-0.284180
-0.095703
0.301758
-0.022461
0.135742
0.009766
-0.239258
-0.958984
0.006836
-0.843750
-0.796875
0.157227
-0.077148
0.198242
-0.753906
0.341797
-0.043945
0.326172
-0.091797
-0.417969
0.187500
-0.002930
-0.408203
-0.077148
0.518555
-0.217773
-0.135742
0.084961
-0.766602
0.015625
-0.643555
-0.508789
0.041992
-0.235352
-0.317383
-0.044922
-0.156250
0.157227
-0.070312
-0.525391
-0.020508
-0.328125
-0.057617
0.076172
0.051758
-0.238281
0.182617
0.177734
-0.160156
-0.005859
-0.138672
-0.232422
0.214844
0.113281
-0.121094
-0.208008
0.065430
-0.074219
0.610352
-0.367188
-0.259766
0.364258
-0.715820
0.287109
-0.580078
-0.060547
-0.446289
-0.135742
0.009766
-0.144531
-0.142578
0.368164
0.001953
-0.073242
0.174805
0.121094
0.237305
0.098633
-0.170898
0.317383
-0.649414
-0.456055
0.083984
0.346680
0.246094
-0.046875
0.090820
-0.346680
0.321289
-0.137695
-0.443359
-0.559570
-0.017578
0.080078
-0.288086
-0.072266
0.277344
0.357422
-0.045898
0.340820
0.336914
-0.059570
-0.160156
0.004883
-0.198242
0.213867
-0.174805
0.136719
-0.337891
0.384766
-0.239258
-0.577148
0.350586
-0.308594
0.370117
-0.434570
-0.263672
-0.096680
0.146484
-0.012695
-0.018555
-0.494141
0.140625
-0.513672
0.377930
0.073242
-0.507812
0.019531
-0.103516
0.254883
0.065430
-0.297852
-0.208008
0.372070
-0.093750
0.052734
-1.073242
-0.095703
-0.352539
0.210938
-0.075195
-0.256836
-0.177734
-0.008789
-0.047852
0.348633
0.053711
-0.618164
-0.290039
-0.032227
0.314453
-0.855469
0.149414
0.370117
-0.020508
-0.633789
-0.201172
0.045898
-0.319336
-0.088867
0.208008
-0.706055
-0.284180
-0.087891
-0.009766
0.033203
-0.357422
0.339844
0.217773
-0.100586
0.228516
-0.204102
0.140625
-0.031250
-0.249023
0.484375
0.086914
-0.260742
0.098633
0.091797
-0.441406
-0.195312
-0.206055
-0.151367
-0.119141
-0.170898
0.375000
0.408203
-0.071289
-0.294922
-0.407227
0.278320
-0.583008
0.309570
0.018555
-0.063477
0.155273
-0.438477
-0.215820
0.149414
0.695312
0.297852
-0.082031
0.575195
-0.271484
-0.358398
-0.040039
0.285156
-0.361328
0.101562
-0.123047
-0.051758
0.119141
0.062500
0.258789
-0.616211
-0.753906
0.265625
0.220703
-0.421875
-0.239258
0.201172
-0.131836
-0.224609
-0.218750
0.004883
0.020508
-0.444336
0.624023
0.183594
-0.196289
-0.418945
-0.078125
0.189453
0.255859
-0.004883
0.141602
0.340820
-0.132812
0.075195
0.235352
0.021484
-0.145508
0.482422
-0.383789
0.331055
0.348633
-0.061523
-0.132812
0.192383
-0.197266
-0.167969
0.333008
-0.231445
-0.391602
-0.060547
-0.236328
0.087891
-0.163086
-0.176758
-0.204102
-0.120117
-0.113281
0.084961
-0.051758
0.029297
-0.171875
-0.950195
0.321289
-0.172852
-0.152344
-0.466797
-0.090820
0.252930
-0.166992
-0.510742
-0.039062
-0.263672
-0.063477
0.445312
-0.734375
-0.004883
-0.143555
-0.080078
0.012695
0.026367
-0.032227
0.267578
-0.078125
-0.687500
-0.007812
0.114258
0.127930
0.191406
0.263672
0.224609
0.037109
-0.578125
0.369141
-0.095703
0.331055
-0.192383
-0.371094
0.124023
0.142578
0.006836
-0.349609
-0.264648
0.244141
-0.238281
-0.107422
0.294922
-0.150391
-0.400391
-0.226562
0.217773
-0.098633
0.468750
-0.667969
-0.153320
0.066406
0.233398
-0.083984
-0.722656
-0.242188
0.013672
0.080078
-0.375000
0.004883
-0.371094
-0.423828
-0.179688
-0.048828
-0.022461
0.240234
0.217773
-0.374023
-0.529297
-0.077148
-0.317383
0.403320
0.087891
0.453125
-0.208008
0.165039
0.190430
0.357422
0.139648
-0.266602
-0.712891
-0.021484
-0.347656
-0.053711
-0.361328
0.196289
0.298828
0.039062
0.444336
0.324219
0.077148
-0.103516
-0.327148
0.192383
0.171875
-0.399414
-0.497070
0.015625
-0.322266
-0.025391
-0.062500
-0.751953
-0.052734
-0.189453
0.097656
0.093750
-0.250000
0.579102
0.306641
0.311523
0.113281
-0.140625
0.087891
-0.090820
-0.156250
0.708008
-0.640625
-0.007812
-0.288086
-0.164062
-0.087891
0.235352
0.190430
0.514648
0.544922
0.151367
0.130859
0.405273
-0.079102
-0.453125
-0.059570
0.205078
0.205078
0.128906
-0.361328
0.168945
-0.178711
-0.181641
0.613281
0.007812
0.217773
0.040039
-0.417969
0.286133
-0.009766
0.021484
-0.473633
0.004883
-0.342773
-0.244141
0.143555
0.170898
-0.369141
-0.623047
-0.604492
-0.174805
-0.441406
-0.408203
0.609375
0.071289
-0.891602
-0.159180
0.140625
0.029297
0.190430
-0.107422
-0.026367
-0.057617
-0.015625
0.050781
-0.122070
-0.153320
0.201172
-0.382812
0.704102
0.477539
0.349609
0.084961
-0.060547
-0.142578
-0.307617
-0.189453
-0.033203
0.741211
-0.522461
-0.092773
0.070312
0.351562
0.327148
-0.213867
0.471680
-0.011719
-0.088867
-0.104492
-0.530273
0.186523
-0.036133
-0.036133
-0.308594
-0.000000
0.280273
0.077148
0.103516
-0.007812
-0.438477
-0.009766
0.064453
0.375000
0.060547
-0.954102
0.463867
0.068359
0.091797
-0.315430
0.445312
0.377930
-0.891602
-0.257812
-0.083984
-0.327148
-0.063477
0.182617
-0.054688
-0.437500
0.008789
0.108398
0.334961
-0.221680
-0.027344
-0.183594
0.254883
-0.285156
0.274414
-0.001953
0.056641
0.041992
0.195312
-0.314453
-0.193359
0.322266
-0.261719
-0.108398
-0.603516
-0.785156
-0.321289
0.802734
-0.096680
0.104492
0.204102
0.167969
0.196289
-0.469727
-0.317383
-0.133789
-0.005859
-0.111328
0.184570
-0.080078
-0.501953
0.026367
0.016602
-0.212891
-0.121094
0.007812
0.132812
-0.004883
-0.899414
0.258789
0.454102
-0.191406
0.012695
-0.210938
-0.703125
0.375977
-0.115234
-0.411133
0.013672
0.083984
-0.050781
0.014648
-0.569336
0.551758
-0.344727
0.136719
0.029297
-0.360352
0.079102
0.785156
-0.064453
-0.221680
-0.143555
-0.047852
0.432617
0.394531
-0.315430
-0.791016
-0.123047
0.074219
0.352539
-0.054688
0.074219
-0.065430
-0.255859
-0.206055
0.036133
0.324219
-0.259766
-0.673828
-0.241211
-0.699219
0.180664
0.298828
0.186523
-0.248047
0.181641
-0.251953
-0.465820
0.073242
0.333984
0.170898
0.058594
0.390625
0.303711
-0.611328
0.112305
-0.462891
0.191406
0.123047
0.131836
-1.034180
-0.259766
-0.221680
0.097656
-0.263672
0.224609
0.278320
-0.398438
-0.205078
0.259766
0.032227
0.204102
0.216797
-0.321289
-0.491211
-0.204102
-0.009766
-0.354492
0.160156
0.104492
0.627930
-0.616211
0.286133
0.097656
-0.227539
-0.200195
0.088867
-0.046875
-0.159180
0.365234
0.033203
0.183594
0.267578
0.217773
-0.384766
0.308594
0.354492
-0.178711
-0.346680
0.010742
-0.210938
-0.439453
-0.136719
0.183594
-0.064453
-0.158203
-0.330078
0.205078
0.068359
-0.548828
0.196289
-0.850586
-0.982422
0.186523
-0.510742
0.060547
0.219727
-0.469727
-0.273438
-0.133789
0.083984
0.436523
-0.202148
-0.282227
-0.062500
-0.258789
-0.193359
-0.009766
0.215820
0.221680
-0.524414
0.067383
-0.429688
0.048828
0.108398
0.082031
-0.418945
-0.216797
-0.068359
0.121094
-0.333008
0.602539
-0.511719
0.054688
-0.291992
0.300781
-0.757812
-0.382812
0.286133
-0.188477
0.503906
0.308594
0.726562
0.249023
-0.025391
-0.125977
0.469727
0.087891
0.016602
0.041016
-0.202148
0.097656
0.098633
0.172852
-0.225586
0.298828
-0.466797
-0.225586
-0.072266
0.165039
0.058594
0.011719
-0.681641
0.451172
-0.060547
-0.450195
0.199219
-0.131836
-0.636719
-0.146484
-0.312500
-0.242188
0.438477
0.150391
0.066406
0.226562
0.008789
0.311523
-0.412109
-0.708008
0.077148
-0.290039
-0.232422
-0.056641
-0.100586
-0.192383
-0.023438
0.125000
-0.365234
0.236328
-0.405273
0.183594
-0.060547
-0.430664
-0.041992
-0.119141
0.094727
0.351562
-0.236328
0.104492
0.222656
-0.072266
-0.084961
0.173828
0.517578
-0.238281
-0.108398
-0.072266
-0.276367
-0.089844
0.481445
-0.086914
-0.481445
0.115234
0.290039
0.026367
0.383789
0.523438
0.047852
-0.708008
-1.223633
0.071289
-0.352539
-0.543945
-0.174805
0.220703
0.124023
-0.345703
0.115234
-0.142578
-0.436523
0.343750
-0.645508
0.107422
0.250977
-0.156250
0.114258
-0.248047
0.048828
-0.851562
0.127930
0.346680
0.233398
-0.016602
-0.252930
-0.199219
-0.403320
0.069336
0.125977
-0.384766
0.079102
0.108398
-0.139648
-0.308594
-0.278320
0.208008
-0.033203
0.225586
-0.454102
-0.820312
-0.792969
-0.288086
-0.505859
0.207031
-0.186523
-0.369141
-0.024414
-0.184570
0.166992
-0.065430
-0.099609
0.362305
0.011719
0.068359
0.053711
0.120117
-0.112305
0.220703
0.299805
0.320312
-0.271484
-0.403320
0.263672
0.186523
-0.025391
0.166992
-0.384766
0.003906
-0.522461
0.257812
0.202148
-0.174805
0.055664
0.372070
-0.038086
0.178711
0.263672
0.004883
-0.141602
-0.504883
-0.043945
-0.345703
-0.060547
0.146484
-0.385742
-0.463867
-0.171875
0.069336
-0.006836
-0.322266
0.010742
-0.050781
0.421875
-0.534180
-0.497070
-0.153320
0.371094
-0.278320
-0.541992
0.273438
0.591797
-0.097656
0.223633
-0.171875
0.260742
0.160156
-0.108398
-0.088867
0.100586
0.269531
-0.265625
0.062500
-0.284180
-0.807617
0.098633
0.226562
0.038086
0.018555
-0.280273
-0.107422
-0.295898
-0.495117
-0.205078
0.208984
-0.111328
-0.497070
0.020508
0.311523
0.506836
-0.133789
-0.134766
-0.016602
-0.260742
0.070312
-0.429688
-0.639648
-0.585938
-0.256836
-0.227539
-0.656250
-0.155273
-0.409180
-0.611328
0.194336
0.091797
0.365234
0.142578
0.053711
-0.221680
-0.425781
-0.877930
0.217773
0.043945
0.203125
-0.150391
-0.163086
-0.455078
0.352539
-0.214844
-0.529297
0.085938
-0.026367
0.174805
-0.604492
-0.069336
-0.286133
-0.619141
-0.070312
-0.095703
0.120117
-0.146484
-0.400391
-0.365234
-0.021484
0.378906
0.395508
0.235352
-0.242188
-0.291992
-0.010742
0.091797
0.131836
-0.022461
-0.484375
0.019531
0.057617
-0.444336
-0.106445
0.246094
-0.166016
0.054688
0.288086
-0.370117
0.093750
-0.101562
0.324219
-0.110352
0.088867
0.118164
-0.083008
-0.233398
-0.182617
-0.264648
-0.363281
-0.131836
0.037109
0.423828
-0.017578
-0.440430
-0.151367
0.570312
-0.220703
-0.262695
0.027344
-0.716797
-0.305664
-0.362305
-0.433594
0.316406
-0.253906
-0.339844
0.112305
-0.044922
-0.312500
-0.002930
-0.333984
-0.554688
-0.088867
0.081055
-0.160156
-0.200195
-0.185547
-0.110352
-0.693359
-0.223633
-0.232422
0.479492
0.401367
-0.047852
0.198242
-0.204102
-0.176758
-0.244141
-0.016602
1.202148
0.313477
-0.102539
-0.595703
-0.047852
0.317383
-0.526367
0.365234
-0.192383
0.014648
-0.226562
-0.489258
-0.046875
0.174805
0.194336
-0.417969
-0.093750
-0.319336
-0.189453
-0.379883
-0.105469
-0.589844
0.154297
-0.375000
-0.054688
-0.192383
-0.146484
0.053711
-0.181641
-0.087891
0.087891
-0.328125
-0.077148
-0.073242
-0.085938
-0.138672
-0.287109
-0.160156
0.118164
0.416992
-0.281250
0.041992
0.158203
-0.002930
-0.551758
0.352539
0.225586
-0.405273
0.067383
-0.078125
0.116211
-0.635742
-0.244141
-0.168945
-0.178711
-0.847656
0.068359
-0.724609
-0.120117
0.253906
0.201172
-0.108398
0.165039
0.144531
-0.228516
0.041992
0.489258
0.209961
0.223633
-0.002930
-0.373047
-0.412109
0.152344
-0.000000
0.077148
-0.594727
-0.152344
-0.153320
0.829102
0.073242
-0.239258
-0.116211
0.242188
-0.311523
-0.213867
-0.141602
0.214844
-0.136719
-0.559570
-0.189453
0.390625
0.093750
-0.422852
0.247070
-0.056641
-0.027344
0.082031
-0.100586
0.197266
-0.028320
-0.060547
-0.192383
0.309570
-0.017578
0.212891
-0.204102
-0.290039
0.194336
-0.207031
-0.457031
-0.358398
-0.112305
-0.481445
0.063477
0.048828
-0.238281
-0.036133
0.153320
-0.480469
-0.653320
-0.281250
0.416992
0.067383
0.199219
-0.475586
-0.101562
-0.136719
-0.317383
-0.074219
0.280273
0.171875
-0.519531
-0.149414
-0.158203
0.161133
0.215820
-0.125977
-0.437500
0.150391
0.275391
-0.344727
0.091797
-0.397461
0.218750
0.302734
0.181641
-0.156250
0.103516
-0.313477
-0.245117
0.280273
-0.231445
-0.071289
0.009766
-0.831055
-0.280273
-0.203125
-0.349609
-0.045898
0.114258
-0.068359
-0.680664
-0.043945
0.038086
-0.045898
0.168945
-0.354492
-0.019531
-0.036133
0.434570
0.007812
-0.170898
-0.059570
-0.130859
0.409180
-0.034180
-0.166016
0.131836
-0.053711
-0.005859
-0.534180
-0.314453
0.174805
-0.567383
0.174805
-0.178711
0.273438
-0.206055
-0.090820
-0.258789
-0.138672
0.250977
-0.197266
0.107422
0.177734
-0.142578
0.044922
0.333008
0.227539
0.240234
0.017578
0.169922
0.008789
-0.158203
-0.663086
-0.053711
0.010742
-0.139648
-0.014648
-0.401367
0.005859
-0.055664
0.118164
0.532227
-0.372070
0.067383
-0.529297
-0.092773
-0.327148
-0.160156
-0.518555
0.072266
-0.158203
0.575195
-0.511719
-0.034180
-0.217773
-0.138672
0.571289
0.194336
0.131836
0.166016
-0.024414
-0.168945
0.603516
-0.190430
-0.054688
-0.424805
-0.124023
-0.160156
-0.141602
0.130859
0.358398
0.230469
-0.143555
-0.181641
0.101562
-0.167969
-0.030273
0.150391
-0.212891
0.024414
0.419922
0.015625
0.439453
-0.425781
0.162109
-0.538086
0.086914
-0.308594
-0.932617
0.142578
0.384766
-0.163086
0.004883
0.096680
0.124023
0.125000
-0.281250
-0.101562
0.278320
-0.073242
-0.646484
-0.098633
-0.041992
-0.716797
-0.257812
0.191406
-0.335938
0.082031
0.143555
-0.276367
0.142578
-0.046875
0.069336
0.573242
-0.160156
-0.194336
0.347656
0.137695
0.319336
0.524414
0.100586
0.266602
0.208984
0.296875
-0.149414
0.386719
0.228516
-0.220703
0.306641
0.099609
0.020508
0.287109
0.051758
-0.054688
0.038086
-0.399414
0.129883
0.125977
-0.086914
0.021484
-0.762695
0.171875
-0.108398
-0.497070
-0.017578
-0.165039
0.297852
-0.326172
-0.417969
-0.020508
-0.462891
0.121094
-0.252930
0.119141
0.434570
-0.336914
0.159180
-0.161133
-0.293945
-0.057617
-0.155273
0.013672
-0.019531
0.234375
-0.023438
0.152344
-0.438477
-0.492188
-0.121094
0.059570
-0.276367
-0.097656
-0.144531
-0.502930
-0.515625
-0.170898
0.357422
-0.300781
-0.491211
0.234375
-0.544922
0.722656
-0.029297
0.088867
0.346680
-0.449219
-0.478516
0.136719
-0.031250
-0.416016
-0.039062
0.313477
0.106445
-0.198242
0.064453
0.092773
0.429688
0.428711
0.250977
-0.082031
-0.157227
0.413086
-0.176758
0.329102
-0.222656
-0.043945
0.340820
-0.830078
0.157227
0.534180
-0.014648
0.113281
-0.182617
-0.236328
-0.163086
0.130859
-0.333008
0.394531
-0.103516
0.419922
-0.107422
0.179688
-0.301758
-1.174805
-0.638672
-0.055664
-0.064453
-0.288086
-0.055664
-0.130859
0.029297
-0.182617
-0.652344
0.372070
0.329102
-0.204102
-0.146484
0.350586
-0.150391
-0.033203
0.141602
-0.340820
0.137695
0.171875
-0.190430
-0.033203
-0.553711
0.132812
-0.334961
0.047852
-0.222656
-0.407227
-0.050781
-0.028320
0.256836
-0.192383
-0.123047
-0.127930
0.559570
-0.593750
0.049805
-0.118164
-0.157227
-0.541016
0.057617
-0.206055
0.370117
-0.050781
0.507812
0.254883
0.113281
0.103516
0.054688
0.198242
-0.121094
-0.320312
0.036133
-0.143555
-0.004883
0.171875
-0.383789
-0.164062
-1.140625
-0.026367
0.489258
-0.103516
0.040039
-0.268555
0.006836
-0.241211
0.246094
-0.153320
0.377930
-0.161133
-0.346680
-0.410156
0.352539
-0.489258
0.292969
0.032227
-0.450195
-0.025391
0.117188
-0.020508
0.122070
-0.215820
-0.400391
-0.807617
0.122070
-0.124023
0.382812
0.138672
0.770508
0.304688
-0.092773
-0.004883
-0.577148
-0.379883
-0.208984
-0.255859
-0.143555
-0.022461
-0.429688
0.347656
0.114258
0.105469
-0.033203
-0.102539
0.176758
-0.822266
0.098633
0.051758
-0.355469
-0.153320
0.059570
-0.050781
0.098633
-0.328125
0.195312
0.283203
-0.578125
0.400391
0.319336
-0.181641
-0.118164
0.274414
-0.052734
-0.209961
-0.311523
0.198242
-0.041992
-0.272461
-0.069336
-0.231445
0.312500
-0.033203
0.488281
-0.072266
0.022461
-0.064453
-0.291992
0.114258
-0.207031
-0.158203
0.208008
-0.363281
0.147461
-0.570312
-0.275391
-0.116211
0.020508
0.059570
0.201172
-0.102539
0.138672
0.073242
0.264648
-0.660156
-0.202148
0.225586
-0.078125
-0.475586
-0.399414
-0.207031
0.041016
0.410156
-0.086914
0.379883
0.107422
0.110352
-0.191406
0.292969
0.057617
-0.199219
0.216797
0.269531
-0.091797
0.195312
-0.011719
0.333984
-0.351562
0.068359
-0.262695
0.357422
-0.585938
0.094727
-0.241211
0.075195
-0.001953
-0.188477
-0.399414
-0.316406
-0.148438
0.239258
0.012695
0.414062
0.001953
-0.129883
-0.099609
0.079102
-0.192383
-0.002930
0.242188
0.171875
-0.024414
0.291016
-0.288086
-0.657227
0.297852
0.241211
-0.161133
0.054688
-0.632812
0.044922
-0.071289
-0.260742
-0.070312
-0.106445
-0.125000
0.232422
-0.257812
-0.047852
-0.240234
-0.084961
-0.000977
-0.142578
0.382812
-0.121094
0.171875
-0.461914
0.021484
-0.547852
-0.774414
-0.172852
-0.065430
0.135742
0.062500
-0.208984
-0.175781
-0.187500
-0.423828
0.344727
-0.451172
-0.072266
-0.051758
0.433594
0.070312
0.081055
-0.327148
0.276367
-0.145508
0.242188
0.102539
0.323242
0.006836
-0.165039
0.352539
-0.589844
-0.335938
-0.441406
0.515625
0.193359
-0.690430
-0.151367
0.565430
0.213867
-0.225586
0.192383
0.241211
-0.221680
-0.064453
0.327148
0.078125
-0.438477
0.189453
0.013672
-0.030273
0.354492
0.081055
0.265625
0.052734
-0.213867
0.185547
-0.276367
-0.106445
-0.345703
-0.309570
-0.117188
0.166992
0.143555
-0.149414
-0.101562
0.444336
-0.406250
-0.934570
-0.425781
-0.000977
0.147461
-0.005859
0.141602
0.493164
-0.013672
0.561523
0.099609
0.231445
-0.056641
-0.282227
-0.659180
0.163086
0.357422
-0.291992
-0.603516
-0.122070
0.096680
-0.255859
-0.393555
-0.189453
0.257812
0.276367
-0.099609
0.065430
0.206055
0.204102
-0.633789
0.138672
-0.451172
-0.300781
0.038086
-0.022461
0.107422
-0.287109
-0.052734
0.007812
-0.338867
-0.162109
-0.686523
0.131836
0.166992
-0.353516
0.068359
-0.642578
-0.137695
-0.053711
0.074219
0.092773
-0.034180
0.035156
0.237305
-0.362305
0.095703
-0.089844
0.264648
0.004883
-0.912109
-0.694336
0.078125
-0.383789
0.067383
0.201172
0.365234
0.190430
-0.376953
0.148438
0.327148
0.448242
0.588867
-0.455078
-0.226562
0.188477
0.239258
-0.130859
-0.044922
0.280273
-0.479492
-0.204102
0.128906
0.041016
0.357422
-0.139648
-0.041992
-0.333984
0.108398
-0.179688
-0.269531
0.330078
-0.573242
-0.069336
-0.543945
0.154297
0.229492
-0.453125
-0.041016
-0.474609
-0.052734
0.067383
-0.175781
-0.403320
-0.441406
0.087891
-0.420898
0.209961
0.215820
-0.492188
-0.379883
0.260742
-0.002930
-0.084961
-0.045898
0.022461
-0.897461
-0.166016
-0.306641
0.058594
-0.831055
-0.261719
-0.070312
-0.531250
0.390625
-0.203125
0.164062
0.300781
-0.452148
-0.080078
-0.352539
0.192383
0.055664
-0.434570
-0.238281
-0.169922
-0.207031
0.051758
0.156250
0.054688
-0.318359
-0.324219
0.332031
-0.011719
0.588867
-0.358398
0.328125
0.059570
0.121094
0.150391
-0.531250
-0.021484
0.234375
-0.204102
-0.030273
0.108398
-0.362305
0.223633
-0.125977
0.483398
-0.148438
-0.257812
-0.277344
0.423828
-0.056641
0.167969
0.333008
-0.509766
0.139648
0.105469
-0.197266
0.017578
-0.400391
-0.783203
-0.265625
0.099609
0.257812
0.066406
-0.181641
-0.056641
-0.020508
-0.056641
-0.208984
-0.268555
-0.373047
-0.608398
-0.199219
0.236328
-0.269531
0.099609
-0.080078
-0.286133
-0.008789
-0.336914
0.044922
-0.147461
-0.328125
-1.089844
0.052734
-0.726562
-0.029297
-0.423828
0.484375
0.209961
-0.302734
-0.743164
-0.149414
0.957031
-0.218750
0.122070
0.051758
0.180664
-0.322266
-0.664062
0.201172
0.250000
-0.144531
0.208008
0.103516
-0.207031
-0.103516
-0.371094
-0.036133
-0.503906
0.032227
0.139648
-0.018555
-0.133789
-0.237305
-0.154297
0.313477
0.183594
0.055664
-0.025391
-0.697266
0.176758
-0.367188
-0.187500
-0.712891
0.127930
0.306641
-0.054688
-0.877930
0.156250
0.157227
-0.095703
0.103516
0.392578
0.122070
-0.372070
0.152344
-0.356445
0.177734
0.040039
0.506836
-0.240234
0.032227
-0.277344
-0.250000
-0.258789
0.345703
-0.565430
0.053711
-0.276367
-0.291016
-0.074219
-0.088867
-0.018555
-0.133789
-0.290039
-0.131836
-0.686523
-0.097656
0.041016
-0.226562
-0.150391
-0.144531
0.060547
0.096680
0.111328
-0.349609
0.284180
-0.025391
0.099609
-0.575195
0.000977
-0.168945
0.385742
-0.087891
-0.076172
-0.397461
0.200195
-0.041992
0.347656
0.541992
-0.038086
-0.041992
-0.768555
0.021484
-0.528320
-0.375977
-0.102539
-0.444336
0.021484
0.358398
0.361328
0.124023
0.518555
-0.008789
-0.251953
-0.396484
0.068359
-0.088867
-0.492188
0.144531
-0.287109
-0.451172
-0.151367
-0.002930
-0.459961
0.192383
-0.399414
-0.491211
-0.034180
-0.648438
0.141602
0.207031
-0.252930
0.035156
0.880859
-0.061523
-0.419922
0.050781
0.002930
-0.033203
0.508789
-0.356445
-0.175781
0.036133
0.154297
0.376953
-0.435547
-0.441406
0.378906
0.357422
-0.438477
0.026367
0.179688
0.333984
-0.249023
-0.422852
-0.414062
0.386719
-0.633789
0.179688
0.249023
-0.307617
-0.204102
-0.643555
-0.176758
0.242188
0.046875
0.117188
0.258789
0.259766
0.056641
-0.308594
-0.322266
0.160156
0.106445
0.034180
-0.087891
0.216797
-0.217773
0.299805
0.018555
0.211914
0.074219
-0.164062
-0.234375
-0.069336
0.239258
0.013672
-0.983398
-0.049805
0.110352
-0.561523
-0.269531
-0.244141
-0.180664
-0.163086
0.340820
0.072266
-0.150391
-0.019531
0.339844
0.200195
-0.260742
-0.357422
0.057617
-0.361328
0.116211
-0.464844
-0.129883
-0.124023
-0.309570
-0.323242
0.430664
0.020508
0.017578
-0.237305
0.314453
0.094727
0.401367
-0.894531
-0.090820
0.225586
-0.187500
-0.147461
0.461914
-0.050781
0.110352
0.021484
-0.749023
0.347656
-0.274414
-0.433594
0.189453
0.282227
-0.151367
-0.273438
-0.037109
-0.356445
0.156250
0.032227
-0.058594
-0.001953
-0.458008
-0.098633
0.264648
-0.425781
-0.216797
-0.150391
-0.006836
-0.124023
-0.119141
0.030273
0.149414
0.014648
-0.230469
-0.294922
0.051758
-0.423828
0.227539
-0.684570
-0.218750
-0.081055
0.311523
-0.024414
-0.490234
0.197266
-0.015625
-0.295898
-0.204102
-0.602539
0.276367
-0.689453
0.053711
-0.190430
0.103516
-0.787109
-0.086914
-0.753906
0.151367
0.144531
0.142578
-0.698242
0.032227
-0.500977
0.250977
0.430664
0.087891
-0.060547
0.313477
-0.221680
-0.276367
-0.122070
-0.184570
-0.593750
0.201172
0.281250
-0.565430
0.379883
-0.613281
0.308594
-0.143555
0.232422
0.035156
-0.217773
0.100586
0.312500
0.077148
-0.057617
0.265625
-0.094727
-0.164062
-0.040039
-0.709961
-0.330078
-0.055664
-0.040039
0.092773
0.064453
-0.003906
-0.399414
0.291992
-0.226562
-0.021484
-0.280273
-0.462891
-0.173828
-0.253906
-0.073242
-0.270508
0.272461
0.311523
-0.195312
-0.390625
0.077148
-0.471680
0.272461
0.050781
0.002930
-0.381836
-0.474609
0.272461
0.093750
-0.388672
0.549805
-0.660156
0.154297
0.411133
-0.417969
0.007812
0.323242
-0.262695
-0.164062
0.275391
0.045898
-0.066406
-0.629883
0.014648
-0.119141
0.167969
-0.196289
0.257812
-0.168945
-0.116211
-0.019531
0.048828
0.625977
-0.199219
-0.469727
-0.413086
-0.069336
-0.351562
0.252930
-0.302734
-0.149414
-0.099609
0.349609
-0.010742
0.306641
-0.309570
-0.053711
0.107422
0.094727
0.133789
0.633789
0.295898
0.552734
-0.663086
0.074219
-0.176758
-0.158203
-0.118164
0.256836
0.015625
-0.355469
0.218750
-0.046875
0.300781
-0.003906
0.225586
0.398438
-0.488281
-0.461914
-0.046875
-0.196289
-0.475586
-0.180664
0.161133
0.223633
-0.403320
-0.030273
0.220703
0.017578
0.930664
-0.572266
-0.168945
-0.916992
-0.128906
-0.015625
0.255859
-0.181641
-0.000977
-0.647461
0.160156
0.074219
0.019531
0.224609
0.213867
-0.421875
-0.148438
0.271484
0.084961
0.121094
-0.974609
-0.444336
0.242188
-0.291992
0.255859
0.508789
0.293945
-0.697266
0.662109
-0.356445
0.473633
-0.229492
-0.029297
0.023438
-0.152344
-0.189453
0.073242
0.034180
-0.180664
-0.186523
-0.325195
0.152344
-0.788086
0.376953
-0.454102
-0.001953
-0.056641
0.458984
-0.252930
0.153320
-0.009766
0.130859
-0.029297
0.336914
0.089844
-0.147461
0.304688
0.433594
-0.174805
0.290039
0.337891
0.305664
0.118164
-0.105469
0.503906
-0.248047
0.015625
0.209961
-0.526367
0.110352
-0.109375
0.648438
-0.534180
0.326172
0.174805
-0.262695
0.552734
-0.151367
0.064453
0.111328
-0.065430
-0.281250
0.190430
-0.153320
0.098633
0.025391
-0.049805
-0.164062
0.334961
0.064453
0.319336
-0.049805
-0.039062
0.304688
-0.274414
0.402344
-0.339844
-0.084961
-0.160156
-0.517578
0.237305
-0.124023
-0.343750
0.518555
-0.242188
-0.191406
0.449219
-0.182617
0.265625
0.073242
-0.104492
-0.108398
-0.041016
-0.500000
-0.291992
-0.104492
-0.042969
0.052734
-0.374023
-0.181641
-0.047852
0.208984
-0.002930
-0.358398
-0.208008
0.153320
-0.342773
-0.301758
0.521484
0.172852
0.480469
0.275391
0.131836
0.259766
-0.029297
0.601562
-0.376953
0.332031
-0.123047
0.141602
-0.718750
-0.065430
0.040039
0.083984
0.116211
0.107422
-0.121094
-0.178711
0.266602
-0.140625
0.128906
-0.452148
0.318359
0.055664
0.202148
-0.238281
-0.397461
0.165039
0.176758
-0.051758
0.176758
-0.330078
-0.310547
-0.342773
-0.002930
0.077148
0.167969
-0.118164
0.442383
0.416016
-0.580078
-0.411133
-0.032227
0.133789
-0.407227
-0.399414
-0.075195
-0.451172
0.089844
-0.075195
0.173828
-0.026367
0.389648
0.021484
-0.050781
0.214844
-0.223633
-0.237305
0.205078
-0.641602
-0.337891
0.074219
-0.300781
-0.037109
0.096680
-0.017578
0.005859
0.196289
0.100586
0.194336
0.038086
0.104492
-0.004883
0.026367
0.625000
0.061523
0.166016
-0.459961
0.440430
-0.024414
-0.143555
0.096680
-0.192383
-0.084961
0.241211
-0.281250
-0.554688
0.567383
0.075195
-0.446289
0.216797
-0.125977
0.348633
0.533203
-0.769531
0.108398
-0.035156
0.166992
0.290039
-0.340820
-0.080078
0.289062
0.045898
0.274414
-0.119141
0.203125
-0.219727
-0.302734
-0.203125
0.179688
0.259766
0.462891
-0.250977
0.047852
-0.311523
0.052734
-0.015625
0.140625
-0.110352
-0.465820
0.006836
-0.638672
-0.536133
0.254883
0.141602
-0.100586
0.184570
-0.273438
0.300781
-0.018555
-0.064453
-0.293945
-0.400391
0.256836
0.076172
-0.223633
-0.008789
0.542969
0.154297
-0.113281
0.480469
-0.179688
0.076172
-0.012695
0.210938
-0.686523
-0.181641
-0.241211
0.346680
0.256836
0.046875
0.512695
-0.335938
-0.210938
-0.146484
0.440430
-0.083008
-0.334961
-0.172852
-0.197266
-0.047852
-0.168945
-0.028320
0.240234
-0.449219
-0.039062
-0.157227
0.235352
0.119141
0.295898
0.009766
-0.288086
-0.461914
0.529297
-0.221680
-0.070312
-0.267578
0.280273
0.500977
-0.072266
0.296875
-0.133789
-0.278320
0.305664
0.021484
-0.040039
0.198242
0.153320
-0.335938
0.112305
-0.395508
-0.245117
0.036133
0.210938
-0.116211
-0.080078
-0.176758
0.178711
0.015625
-0.853516
0.112305
-0.293945
-0.068359
-0.084961
-0.508789
0.232422
-0.319336
-0.101562
0.017578
-0.244141
-0.294922
-0.042969
-0.972656
-0.150391
0.191406
-0.164062
-0.167969
0.677734
-0.167969
0.139648
0.139648
0.239258
0.122070
-0.280273
0.068359
-0.669922
-0.261719
0.216797
-0.985352
0.067383
-0.222656
-0.598633
-0.222656
0.390625
0.491211
0.212891
-0.582031
-0.335938
0.091797
0.272461
0.003906
-0.000000
0.041016
0.031250
0.069336
0.155273
0.160156
-0.489258
0.247070
-0.161133
-0.083984
0.060547
-0.679688
-0.484375
-0.106445
-0.081055
-0.336914
-0.085938
-0.226562
0.075195
-0.313477
0.555664
0.090820
0.307617
-0.118164
-0.050781
-0.797852
-0.723633
-0.076172
-0.359375
-0.612305
0.117188
-0.148438
-0.109375
-0.167969
-0.127930
0.124023
0.423828
-0.054688
-0.429688
0.144531
-0.083984
0.008789
0.032227
0.104492
0.125977
0.065430
0.289062
-0.134766
0.297852
0.154297
0.313477
0.086914
-0.094727
0.428711
0.424805
-0.257812
-0.154297
-0.113281
-0.076172
-0.156250
-0.000977
0.226562
-0.188477
-0.253906
0.017578
-0.246094
-0.113281
-0.397461
0.166992
-0.019531
0.322266
-0.123047
-0.190430
-0.043945
-0.243164
0.557617
0.178711
-0.274414
0.014648
-0.227539
-0.225586
0.092773
0.126953
0.113281
-0.367188
0.288086
0.148438
0.302734
-0.068359
0.250977
0.286133
-0.358398
-0.664062
-0.393555
-0.189453
0.318359
-0.499023
-0.329102
-0.086914
0.575195
0.128906
-0.531250
-0.213867
0.356445
-0.037109
0.128906
0.000977
0.045898
0.181641
0.247070
0.358398
-0.160156
0.038086
0.206055
0.090820
0.311523
-0.409180
0.071289
0.034180
0.288086
-0.338867
0.216797
-0.209961
0.137695
-0.174805
-0.046875
-0.045898
0.442383
-0.097656
0.105469
0.049805
0.443359
-0.576172
-0.140625
-0.258789
0.025391
-0.102539
-0.149414
-0.379883
0.132812
-0.557617
0.791992
0.271484
-0.343750
0.038086
0.226562
-0.079102
0.054688
-0.381836
-0.305664
-0.158203
-0.336914
-0.023438
-0.014648
0.093750
-0.171875
-0.447266
0.240234
0.306641
-0.036133
-0.068359
0.018555
-0.443359
-0.250000
0.504883
0.331055
0.227539
-0.229492
-0.393555
-0.936523
-0.666992
0.078125
-0.249023
-0.159180
-0.088867
0.035156
0.125000
0.239258
-0.279297
-0.392578
-0.125000
-0.136719
-0.297852
-0.163086
-0.103516
-0.370117
-0.457031
0.403320
-0.163086
-0.168945
-0.854492
0.039062
0.200195
0.095703
0.163086
0.434570
-0.048828
-0.502930
0.030273
-0.314453
0.055664
-0.212891
0.460938
0.153320
0.533203
0.093750
-0.235352
0.396484
-0.182617
-0.405273
0.397461
0.251953
0.142578
-0.216797
-0.525391
0.341797
0.206055
0.170898
-0.460938
-0.498047
0.160156
-0.066406
-0.005859
0.125977
0.157227
-0.347656
-0.792969
-0.523438
-0.141602
0.026367
-0.407227
0.454102
0.242188
0.363281
0.541992
0.062500
-0.353516
-0.125977
-0.240234
-0.183594
-0.042969
-0.190430
0.119141
-0.107422
0.060547
0.231445
-0.101562
-0.088867
0.385742
0.143555
-0.055664
-0.448242
-0.030273
-0.329102
-0.118164
-0.324219
-0.206055
-0.303711
-0.100586
-0.220703
-0.315430
0.166016
0.168945
-0.736328
0.045898
-0.044922
0.250977
0.036133
-0.027344
-0.346680
-0.565430
0.696289
-0.399414
0.557617
-0.119141
0.066406
-0.235352
-0.317383
0.150391
0.304688
0.148438
-0.196289
-0.009766
-0.093750
0.063477
-0.011719
0.016602
0.170898
-0.134766
-0.151367
0.001953
-0.116211
-0.135742
-0.678711
0.058594
0.050781
-0.302734
0.355469
-0.733398
0.085938
-0.022461
-0.335938
-0.377930
-0.044922
0.235352
0.041992
-0.007812
-0.194336
0.408203
0.013672
0.085938
-0.060547
-0.257812
-0.474609
0.113281
0.333984
0.359375
-0.136719
-0.442383
0.226562
-0.353516
0.301758
-0.162109
0.113281
-0.534180
-0.255859
0.139648
0.022461
0.265625
0.344727
-0.036133
-0.084961
0.014648
0.061523
-0.069336
-0.269531
-0.289062
0.379883
-0.005859
-0.498047
-0.310547
-0.012695
-0.304688
0.266602
-0.535156
-0.398438
-0.043945
-0.251953
-0.096680
-0.292969
0.126953
-0.247070
-0.173828
0.089844
-0.376953
0.633789
0.016602
0.385742
-0.030273
0.155273
0.101562
-0.295898
-0.130859
0.056641
0.166992
-0.197266
0.405273
0.197266
0.210938
-0.276367
0.120117
-0.530273
0.138672
-0.412109
-0.399414
0.214844
-0.330078
-0.464844
0.126953
-0.165039
-0.040039
-0.337891
0.575195
0.208008
0.517578
-0.144531
-0.351562
0.227539
0.342773
0.251953
-0.296875
0.140625
-0.198242
-0.035156
0.148438
0.175781
0.734375
-0.470703
0.216797
0.035156
0.308594
-0.687500
-0.226562
0.101562
-0.356445
0.147461
0.078125
-0.438477
-0.146484
-0.149414
-0.524414
-0.707031
-0.047852
-0.444336
0.135742
0.023438
-0.715820
0.000977
-0.485352
-0.247070
-0.227539
-0.241211
-0.456055
0.227539
-0.187500
0.541016
0.032227
-0.176758
0.459961
-0.382812
0.157227
0.118164
-0.260742
0.146484
-0.051758
-0.295898
-0.149414
0.127930
0.284180
-0.123047
-0.081055
-0.122070
0.075195
-0.209961
-0.188477
-0.662109
-0.207031
-0.567383
0.368164
0.113281
0.008789
-0.352539
0.044922
0.532227
0.555664
-0.428711
-0.122070
-0.577148
-0.099609
0.708984
0.089844
0.170898
0.169922
0.202148
0.204102
0.286133
-0.485352
0.167969
-0.579102
0.023438
-0.026367
0.200195
-0.394531
0.059570
-0.543945
-0.359375
-0.098633
0.143555
0.195312
-0.133789
-0.150391
-0.300781
-0.089844
0.273438
-0.187500
0.026367
-0.259766
0.110352
0.165039
0.023438
-0.099609
-0.331055
-0.032227
0.062500
0.151367
0.280273
0.073242
0.086914
0.506836
-0.560547
0.122070
0.009766
-0.059570
-0.375977
0.316406
-0.186523
-0.144531
-0.094727
0.275391
-0.070312
0.050781
-0.184570
0.009766
0.068359
-0.425781
-0.324219
-0.175781
-0.149414
0.247070
0.352539
0.598633
0.006836
-0.233398
0.225586
-0.559570
1.500977
-1.240234
-0.514648
0.096680
-0.391602
-0.728516
-0.090820
-0.442383
-0.041992
0.136719
-0.194336
-0.099609
-0.052734
0.088867
-0.160156
-0.147461
0.051758
0.226562
0.029297
-0.298828
-0.596680
0.243164
-0.099609
0.098633
0.823242
0.200195
0.046875
-0.018555
0.379883
-0.432617
0.041992
-0.018555
-0.259766
0.240234
-0.217773
-0.381836
0.060547
-0.473633
-0.239258
-0.144531
0.060547
-0.133789
0.008789
0.592773
-0.083984
-0.133789
0.185547
-0.166992
0.090820
0.159180
-0.613281
0.092773
0.557617
-0.002930
0.582031
0.130859
0.401367
0.114258
-0.041016
0.121094
-0.399414
0.307617
0.375977
-0.020508
0.406250
0.471680
0.487305
0.068359
0.384766
0.019531
-0.393555
-0.675781
-0.080078
0.044922
-0.136719
-0.231445
-0.198242
0.122070
-0.140625
-0.559570
0.176758
-0.534180
0.164062
-0.019531
-0.635742
-0.015625
-0.562500
-0.506836
0.124023
0.119141
0.395508
0.277344
-0.352539
0.129883
-0.304688
-0.072266
0.151367
-0.059570
0.123047
0.291016
-0.121094
-0.270508
-0.267578
0.213867
-0.217773
-0.225586
-0.020508
0.247070
-0.128906
-0.182617
0.221680
-0.207031
0.455078
-0.382812
-0.081055
0.439453
-0.065430
-0.386719
-0.097656
-0.309570
-0.132812
-0.372070
0.090820
0.046875
0.267578
0.004883
0.390625
0.146484
0.070312
-0.438477
-0.116211
0.248047
0.041992
0.228516
-0.047852
-0.424805
0.043945
-0.187500
0.384766
-0.098633
-0.514648
-0.048828
-0.189453
0.280273
-0.316406
0.616211
-0.032227
0.325195
-0.724609
0.166016
-0.307617
-0.297852
-0.248047
0.148438
0.190430
0.138672
-0.561523
-0.151367
0.428711
-0.648438
-0.226562
-0.235352
0.281250
0.295898
0.037109
-0.590820
0.114258
-0.332031
-0.161133
-0.257812
-0.409180
0.208984
0.255859
-0.512695
0.269531
-0.144531
0.395508
0.291992
0.800781
-0.562500
-0.044922
0.182617
-0.277344
0.040039
0.031250
-0.704102
-0.311523
-0.447266
-0.443359
-0.281250
-0.416992
-0.190430
-0.467773
-0.548828
-0.039062
-0.132812
0.274414
-0.210938
0.249023
-0.766602
-0.316406
-0.091797
0.012695
-0.055664
-0.029297
-0.182617
-0.005859
-0.062500
0.594727
0.326172
-0.323242
0.296875
0.329102
-0.369141
0.305664
-0.257812
-0.138672
-0.189453
0.060547
0.021484
-0.129883
-0.378906
-0.250977
0.187500
0.034180
-0.083008
0.354492
-0.291016
-0.071289
0.266602
0.036133
0.385742
0.000000
0.244141
0.297852
0.250977
0.285156
0.166992
0.323242
-0.148438
0.762695
0.432617
0.175781
-0.750000
0.013672
-0.338867
-0.416992
-0.277344
-0.731445
0.049805
0.129883
0.031250
-0.238281
0.023438
-0.573242
0.083984
0.168945
-0.163086
-0.612305
0.204102
0.192383
-0.231445
-0.441406
-0.181641
-0.050781
-0.141602
0.040039
0.057617
-0.451172
0.274414
0.225586
0.342773
-0.224609
0.250000
0.043945
0.194336
-0.205078
-0.162109
-0.252930
-0.133789
0.127930
-0.248047
0.007812
-0.175781
-0.411133
-0.135742
0.218750
0.129883
-0.000977
0.152344
0.081055
-0.170898
-0.195312
-0.500000
0.004883
0.079102
-0.256836
0.285156
0.076172
0.128906
-0.115234
-0.779297
-0.063477
-1.013672
-0.707031
0.075195
-0.337891
-0.061523
0.070312
0.090820
-0.416016
0.025391
0.201172
-0.123047
-0.087891
-0.043945
-0.272461
0.050781
-0.094727
-0.650391
-0.013672
-0.045898
-0.099609
-0.157227
-0.204102
0.036133
0.438477
0.135742
-0.943359
-0.191406
0.033203
-0.158203
-0.119141
-0.030273
0.117188
-0.108398
0.456055
-0.055664
0.196289
-0.024414
-0.441406
-0.349609
-0.195312
0.050781
-0.040039
-0.362305
-0.149414
0.212891
-0.127930
-0.098633
0.172852
0.344727
-0.063477
-0.375000
0.199219
-0.023438
-0.149414
-0.444336
-0.239258
-0.067383
0.152344
-0.052734
-0.312500
0.013672
0.374023
-0.186523
-0.159180
0.063477
-0.595703
-0.028320
-0.347656
-0.290039
0.132812
-0.528320
0.293945
0.556641
-0.007812
-0.048828
-0.693359
-0.222656
0.261719
-0.457031
0.120117
0.387695
0.053711
0.038086
0.427734
0.430664
-0.817383
-0.591797
0.385742
0.466797
-0.375000
0.126953
-0.616211
0.281250
0.047852
0.074219
-0.074219
-0.340820
0.211914
0.463867
-0.092773
0.281250
-0.345703
-0.040039
0.023438
-0.064453
0.465820
0.343750
0.030273
0.052734
-0.429688
0.082031
-0.185547
0.160156
-0.113281
0.107422
-0.068359
0.399414
0.102539
-0.340820
-0.089844
-0.306641
0.104492
0.114258
-0.565430
-0.235352
0.298828
0.053711
-0.445312
0.181641
-0.004883
0.116211
0.126953
-0.279297
0.555664
0.136719
-0.415039
0.319336
0.049805
-0.104492
-0.496094
0.002930
-0.001953
-0.161133
0.062500
-0.519531
-0.067383
-0.019531
0.126953
-0.443359
-0.503906
0.070312
0.121094
-0.211914
-0.939453
0.220703
0.074219
-0.341797
-0.136719
0.044922
-0.363281
-0.794922
0.335938
-0.399414
0.184570
-0.121094
-0.120117
0.266602
0.335938
-0.090820
0.053711
-0.081055
-0.342773
-1.285156
-0.339844
-0.339844
0.131836
-0.345703
-0.375000
0.088867
0.290039
-0.233398
-0.338867
0.349609
0.381836
-0.151367
0.016602
-0.191406
-0.062500
-0.523438
-0.227539
0.134766
0.144531
0.093750
0.092773
0.095703
0.096680
-0.193359
0.054688
-0.608398
0.196289
-0.362305
-0.204102
-0.569336
-0.342773
0.073242
0.191406
-0.020508
0.313477
-0.147461
-0.252930
0.249023
0.091797
-0.084961
-0.109375
-0.856445
0.229492
0.292969
0.258789
0.333008
-0.000977
-0.221680
-0.205078
0.296875
0.217773
0.470703
0.526367
-0.288086
-0.157227
0.078125
0.202148
-0.450195
0.237305
-0.042969
-0.083008
-0.204102
-0.362305
0.427734
-0.304688
-0.411133
-0.226562
-0.499023
0.095703
-0.398438
-0.342773
0.048828
-0.061523
-0.075195
-0.548828
0.459961
0.039062
0.032227
0.383789
-0.405273
-0.421875
-0.474609
-0.250977
0.471680
0.426758
-0.341797
-0.335938
0.455078
0.383789
0.143555
-0.103516
0.171875
-0.355469
0.104492
-0.160156
0.169922
0.287109
-0.320312
-0.347656
0.029297
0.162109
-0.543945
-0.318359
0.194336
0.293945
-0.086914
-0.334961
-0.251953
0.319336
-0.135742
0.390625
-0.726562
0.076172
-0.082031
-0.362305
-0.372070
-0.069336
-0.605469
0.369141
-0.812500
0.531250
-0.283203
0.038086
0.031250
0.253906
0.233398
0.633789
0.315430
-0.121094
0.095703
-0.181641
0.152344
0.064453
-0.501953
0.260742
0.257812
-0.026367
-0.581055
0.145508
0.265625
-0.275391
-0.176758
-0.034180
0.556641
-0.182617
-0.452148
0.071289
-0.308594
-0.256836
0.253906
-0.217773
0.094727
-0.307617
-0.094727
-0.075195
-0.274414
-0.302734
-0.444336
0.281250
-0.418945
0.191406
-0.006836
-0.125000
0.464844
0.770508
-0.299805
-0.022461
0.147461
0.093750
0.307617
-0.127930
-0.280273
-0.085938
-0.436523
0.225586
0.013672
-0.233398
-0.146484
0.079102
0.470703
-0.083008
-0.167969
-0.001953
0.041992
-0.103516
0.313477
0.178711
-0.306641
0.500000
0.273438
0.015625
-1.597656
-0.214844
-0.217773
-0.217773
-0.250000
-0.287109
-0.333984
-0.698242
0.698242
0.049805
-0.442383
0.429688
0.163086
0.073242
-0.701172
-0.250000
0.056641
0.315430
0.042969
0.206055
-0.000000
-0.401367
-0.157227
0.017578
-0.378906
-0.250977
-0.061523
0.125977
-0.317383
0.128906
-0.161133
0.439453
0.456055
0.133789
-0.162109
-0.375000
-0.414062
0.123047
0.336914
-0.137695
0.158203
-0.150391
-0.124023
-0.922852
-0.017578
0.043945
-0.159180
0.155273
0.049805
0.397461
-0.424805
0.242188
0.639648
-0.272461
0.344727
0.048828
0.149414
0.137695
-0.470703
-0.460938
0.057617
-0.471680
-0.491211
-0.830078
-0.306641
-0.493164
0.030273
-0.173828
-0.337891
0.210938
0.045898
0.076172
-0.295898
0.270508
-0.179688
0.105469
-0.239258
0.332031
0.500000
0.045898
0.259766
-0.234375
-0.098633
0.320312
-0.275391
-0.132812
-0.097656
0.226562
-0.256836
-0.004883
-0.019531
0.015625
-0.905273
-0.145508
-0.033203
-0.266602
-0.333984
-0.477539
-0.241211
-0.316406
-0.506836
0.033203
0.007812
-0.010742
0.415039
-0.416016
0.077148
0.016602
-0.610352
-0.065430
0.490234
0.230469
-0.285156
0.268555
-0.048828
0.286133
0.046875
0.469727
-0.516602
-0.083984
-0.099609
-0.083008
-0.232422
0.459961
0.023438
0.051758
-0.031250
-0.144531
-0.039062
-0.044922
0.061523
-0.413086
0.222656
-0.375977
0.169922
0.200195
-0.239258
-0.036133
0.134766
-0.466797
-0.500977
0.447266
-0.048828
-0.310547
-0.011719
-0.392578
0.398438
-0.096680
0.250000
0.496094
0.199219
0.185547
-0.055664
0.034180
-0.032227
-0.336914
-0.638672
-0.083984
-0.075195
-0.147461
0.173828
-0.049805
0.122070
0.380859
0.135742
0.039062
-0.065430
0.033203
-0.028320
0.375977
-0.371094
0.015625
-0.026367
-0.053711
0.023438
-0.316406
-0.266602
0.026367
-0.316406
-0.206055
-0.085938
0.064453
0.017578
0.336914
0.125000
0.159180
-0.128906
-0.478516
-0.208008
0.313477
0.105469
-0.205078
0.357422
0.097656
-0.254883
-0.279297
-0.336914
0.063477
0.055664
-0.033203
0.207031
0.035156
-0.413086
-0.410156
-0.590820
-0.232422
0.419922
-0.409180
0.097656
-0.098633
-0.166016
-0.580078
-0.031250
-0.031250
-0.088867
0.162109
0.234375
-0.792969
0.042969
-0.134766
0.069336
0.487305
-0.321289
0.549805
0.064453
-0.037109
-0.399414
-0.202148
-0.412109
0.034180
-0.634766
-0.652344
-0.446289
-0.321289
-0.035156
0.504883
0.205078
-0.031250
-0.064453
0.415039
-0.600586
0.074219
