-0.282227
-0.023438
-0.113281
0.463867
0.011719
-0.349609
0.067383
0.027344
-0.024414
0.452148
0.280273
-0.242188
-0.007812
0.104492
0.723633
0.210938
0.072266
-2.582031
-0.019531
0.815430
-0.334961
-0.113281
-0.119141
0.020508
0.065430
0.365234
0.002930
0.087891
0.342773
-0.915039
-0.497070
0.139648
0.479492
-0.334961
0.338867
1.869141
0.002930
0.280273
-0.665039
-0.069336
-0.099609
-0.416016
-0.099609
-0.260742
0.033203
-0.160156
0.094727
-0.044922
0.724609
0.343750
-0.274414
0.310547
0.074219
0.236328
0.102539
-0.402344
0.100586
0.499023
-0.185547
-0.050781
0.178711
0.026367
-0.140625
-0.430664
0.750977
0.445312
0.375977
1.186523
-0.238281
0.240234
1.183594
0.027344
-0.132812
-0.138672
0.991211
-0.669922
-0.303711
0.037109
0.491211
-0.792969
-0.132812
0.201172
-0.883789
-0.009766
0.123047
0.228516
0.090820
0.278320
-0.426758
-0.138672
-0.088867
0.064453
-0.228516
-0.574219
0.435547
0.666016
-0.234375
-0.268555
-0.514648
0.132812
-0.558594
-0.264648
-0.216797
-0.256836
0.016602
-0.067383
0.274414
-0.421875
0.393555
0.107422
-0.552734
0.023438
0.038086
-0.073242
-0.097656
0.041992
-0.376953
-0.122070
-0.167969
0.206055
0.266602
-0.192383
0.300781
0.109375
-1.889648
-0.120117
0.372070
-0.375977
0.280273
0.022461
0.112305
-0.462891
-0.010742
0.348633
-0.066406
-0.027344
0.025391
-0.450195
-0.279297
0.245117
0.008789
-0.105469
-0.722656
-0.210938
-0.073242
2.582031
0.021484
-0.816406
0.334961
0.113281
0.118164
-0.018555
-0.066406
-0.366211
-0.002930
-0.086914
-0.341797
0.913086
0.498047
-0.139648
-0.480469
0.337891
-0.337891
-1.870117
-0.000977
-0.280273
0.663086
0.070312
0.098633
0.416992
0.097656
0.261719
-0.031250
0.160156
-0.094727
0.044922
-0.725586
-0.345703
0.272461
-0.310547
-0.074219
-0.236328
-0.102539
0.403320
-0.100586
-0.500000
0.185547
0.050781
-0.177734
-0.026367
0.141602
0.430664
-0.749023
-0.444336
-0.376953
-1.186523
0.239258
-0.239258
-1.182617
-0.029297
0.132812
0.139648
-0.990234
0.669922
0.302734
-0.037109
-0.491211
0.791016
0.133789
-0.203125
0.881836
0.007812
-0.123047
-0.227539
-0.093750
-0.278320
0.426758
0.138672
0.088867
-0.065430
0.229492
0.573242
-0.434570
-0.665039
0.236328
0.269531
0.513672
-0.130859
0.561523
0.262695
0.217773
0.256836
-0.015625
0.068359
-0.274414
0.421875
-0.395508
-0.105469
0.551758
-0.023438
-0.038086
0.075195
0.098633
-0.042969
0.379883
0.122070
0.166992
-0.205078
-0.264648
0.190430
-0.299805
-0.108398
1.891602
0.120117
-0.371094
0.379883
0.043945
-0.080078
0.558594
0.336914
-0.286133
0.134766
0.228516
0.496094
-0.402344
-0.260742
0.328125
0.500000
0.620117
0.475586
-0.489258
-0.022461
0.344727
-0.775391
0.125000
-1.279297
-0.301758
0.012695
-0.436523
-0.884766
0.057617
0.102539
-0.387695
0.292969
0.408203
-0.416992
0.100586
0.017578
0.560547
-0.005859
0.437500
-0.318359
0.188477
-0.530273
0.250000
0.261719
0.359375
0.077148
0.463867
0.046875
0.583984
0.159180
0.024414
0.174805
0.376953
-0.292969
0.551758
-0.363281
-0.513672
0.153320
0.276367
0.099609
0.274414
0.313477
0.333008
0.282227
0.149414
-0.155273
0.337891
0.066406
0.136719
-0.328125
0.076172
-0.238281
0.068359
0.132812
-0.355469
0.143555
0.367188
0.123047
-0.621094
0.751953
-0.366211
-0.075195
-0.854492
0.127930
-0.059570
0.089844
-0.948242
0.549805
0.031250
0.307617
0.572266
0.937500
0.453125
-0.277344
0.298828
0.130859
0.227539
-0.499023
0.307617
0.510742
-0.059570
-0.212891
-0.192383
-0.268555
-0.799805
-0.041992
0.007812
-0.418945
-0.217773
-0.031250
-0.318359
0.211914
0.223633
-0.353516
-0.588867
-0.004883
-0.770508
0.095703
0.041992
-0.166992
-0.028320
-0.469727
-0.480469
-0.703125
0.276367
0.419922
-0.445312
-0.139648
-0.404297
0.873047
-0.369141
0.158203
-0.283203
0.142578
-0.083984
0.935547
0.399414
0.752930
-0.475586
0.226562
-0.521484
-0.113281
0.442383
0.027344
0.181641
-0.086914
-0.050781
0.320312
-2.461914
0.362305
-0.134766
0.009766
0.517578
0.088867
0.560547
0.165039
-0.741211
0.451172
0.400391
-0.206055
0.378906
0.584961
0.148438
0.066406
0.093750
-0.406250
0.295898
-0.207031
0.522461
-0.082031
-0.082031
0.170898
-0.042969
-0.048828
0.292969
0.469727
0.450195
-0.174805
0.471680
0.177734
-0.035156
0.056641
-1.042969
-0.021484
0.468750
-0.119141
0.126953
0.244141
-0.252930
0.714844
-0.570312
-0.254883
-0.246094
0.328125
0.469727
0.147461
0.117188
-0.017578
0.354492
0.048828
0.054688
-0.677734
0.009766
0.319336
-0.069336
0.151367
0.101562
0.223633
0.208984
0.397461
0.210938
-0.497070
0.552734
-0.147461
-0.070312
-0.519531
-0.333008
0.014648
-0.070312
0.148438
-0.061523
0.118164
0.098633
-1.217773
-1.237305
-0.079102
-0.416992
-0.109375
-0.095703
0.017578
0.097656
0.220703
-0.310547
-0.294922
0.129883
0.297852
-0.026367
0.172852
0.306641
-0.158203
0.276367
-0.055664
-0.101562
0.370117
0.446289
0.437500
0.394531
-0.385742
0.071289
0.472656
0.549805
0.250000
0.203125
-0.427734
0.199219
-0.121094
0.277344
0.262695
0.062500
-0.163086
0.416992
0.224609
0.032227
-0.467773
-0.534180
0.274414
-0.916016
0.316406
0.085938
0.066406
-0.724609
-0.796875
0.327148
0.247070
-0.537109
-0.570312
0.142578
-0.158203
0.183594
-0.163086
-0.293945
0.617188
-0.234375
-0.002930
-0.434570
-0.367188
0.529297
0.431641
-0.217773
0.125000
-0.003906
-0.845703
-0.127930
0.247070
-0.334961
-0.008789
-0.513672
0.011719
0.010742
-0.566406
0.376953
-0.368164
0.378906
-0.021484
0.142578
-0.403320
0.265625
-0.250000
-0.096680
-0.537109
-0.084961
-0.144531
-1.030273
0.416992
-0.165039
0.491211
-0.316406
-0.088867
-0.001953
0.084961
0.252930
-0.833984
-0.099609
0.274414
1.374023
-0.499023
-0.374023
0.255859
-0.199219
0.079102
0.424805
-0.699219
0.690430
0.199219
-0.424805
-0.064453
-0.989258
-0.208984
0.116211
0.388672
0.279297
0.349609
-0.705078
-0.325195
0.080078
0.214844
0.519531
-0.150391
-0.425781
0.256836
0.226562
0.164062
0.290039
0.114258
0.365234
-0.174805
-0.185547
0.175781
-0.166992
0.295898
-0.155273
-0.433594
0.249023
-0.287109
0.290039
0.435547
0.529297
-0.353516
0.309570
0.379883
0.359375
-0.024414
0.784180
-0.600586
-0.365234
0.125000
0.144531
-0.027344
0.353516
0.826172
-0.342773
-0.292969
0.434570
-0.330078
0.025391
0.083984
0.363281
0.526367
0.018555
0.021484
-1.062500
-0.260742
0.408203
-0.381836
0.969727
-0.602539
-0.117188
-0.227539
0.081055
0.260742
-0.140625
-0.210938
-0.041992
-0.227539
0.214844
-2.293945
0.041016
0.520508
0.584961
-0.995117
0.282227
0.598633
0.027344
-0.038086
-0.848633
0.021484
-0.401367
-0.112305
0.550781
0.705078
0.022461
0.296875
0.458008
0.526367
-0.643555
-0.252930
-0.727539
-0.032227
-0.052734
0.449219
-0.780273
-0.238281
0.166992
0.424805
-0.544922
0.241211
0.323242
0.395508
0.128906
0.038086
0.357422
0.010742
0.059570
0.021484
0.451172
-0.000977
-0.136719
-0.006836
0.000977
-0.113281
0.264648
0.296875
-0.556641
0.028320
0.299805
0.480469
0.120117
0.456055
0.343750
0.413086
-0.100586
0.251953
0.741211
-0.256836
0.093750
-0.585938
0.096680
-0.853516
-0.318359
0.446289
0.500977
-0.108398
-0.172852
0.316406
-0.927734
0.019531
0.336914
0.251953
0.433594
-0.039062
0.075195
-0.485352
-0.523438
0.389648
0.259766
0.352539
0.000977
0.574219
-0.239258
0.666016
0.296875
0.128906
-0.237305
-0.439453
-0.195312
0.020508
-0.643555
-0.038086
-0.738281
-0.559570
-0.371094
0.288086
0.140625
-0.128906
0.140625
0.169922
-0.334961
-0.473633
-0.680664
-0.175781
-0.752930
0.209961
-1.905273
-0.360352
0.241211
-0.741211
-0.282227
0.483398
-0.076172
-0.502930
0.628906
-0.134766
-0.045898
-0.697266
0.255859
-0.007812
-0.336914
0.199219
0.215820
-0.384766
0.190430
0.102539
0.192383
0.148438
-0.220703
0.079102
0.458008
-0.457031
0.310547
-0.015625
-0.269531
-0.277344
-0.056641
-0.992188
-0.184570
0.131836
0.158203
0.364258
0.148438
0.637695
-0.286133
-0.079102
-0.114258
-0.097656
0.302734
0.146484
-0.766602
0.469727
0.344727
0.380859
-0.101562
0.174805
0.157227
-0.834961
-0.499023
-0.649414
0.141602
-0.536133
-0.166016
0.211914
-1.148438
-0.148438
0.010742
-1.049805
-0.461914
0.219727
0.397461
0.494141
-0.321289
0.351562
-0.271484
0.669922
-0.167969
-0.101562
0.462891
0.242188
-0.211914
-0.286133
-0.073242
0.133789
0.326172
-0.042969
0.574219
0.299805
0.043945
0.179688
0.356445
0.130859
0.246094
-0.628906
0.060547
-0.854492
0.223633
-0.999023
-0.611328
-0.009766
-0.153320
0.206055
-0.019531
0.148438
0.020508
-0.833984
-0.956055
0.114258
-0.515625
0.208984
0.382812
0.572266
0.236328
-0.169922
-0.542969
0.254883
0.111328
0.578125
0.367188
0.179688
-0.556641
-0.057617
0.207031
0.009766
0.091797
0.726562
0.537109
0.183594
-0.205078
-0.046875
-0.417969
0.147461
-0.307617
-0.168945
0.279297
-0.219727
0.143555
0.500000
0.542969
-0.077148
-0.380859
-0.210938
-0.122070
-0.263672
0.041016
0.039062
0.689453
0.273438
0.118164
0.435547
0.049805
-0.542969
0.306641
-0.478516
0.044922
0.283203
0.051758
0.201172
0.370117
0.448242
0.362305
-0.139648
0.065430
0.410156
-0.046875
0.079102
0.201172
-0.334961
0.578125
-0.153320
-0.104492
-0.633789
-0.057617
-0.149414
0.276367
0.821289
0.089844
0.560547
-0.154297
0.215820
0.207031
0.334961
0.349609
-0.668945
-0.383789
-0.332031
0.102539
0.276367
-0.139648
0.297852
-0.152344
-0.151367
0.053711
-0.282227
-0.650391
-0.190430
-0.020508
0.344727
0.495117
-0.154297
-0.345703
-0.378906
-0.309570
0.038086
-0.078125
0.055664
0.388672
-0.502930
-0.208984
0.140625
-0.390625
-0.699219
0.088867
0.034180
0.201172
-0.266602
0.241211
0.086914
0.073242
0.167969
0.192383
0.732422
0.989258
-0.259766
0.670898
-0.529297
-0.191406
0.050781
-0.137695
0.123047
-0.067383
0.433594
0.371094
-0.082031
0.871094
-0.302734
0.481445
-0.731445
-0.072266
0.021484
-0.069336
0.441406
0.455078
-0.326172
-0.332031
0.207031
-0.161133
0.376953
0.689453
0.000977
0.248047
0.365234
-0.211914
-0.471680
-0.050781
0.146484
-0.099609
0.006836
-0.002930
0.831055
0.101562
-0.198242
0.293945
-0.243164
0.269531
0.234375
-0.087891
0.155273
0.834961
0.323242
-0.837891
-0.857422
-1.452148
0.567383
-0.459961
-0.344727
0.731445
0.026367
-0.776367
0.422852
-0.160156
0.290039
0.019531
0.732422
0.560547
-0.324219
-1.485352
0.241211
-0.100586
0.178711
0.300781
-0.479492
0.471680
0.074219
-0.008789
0.024414
-0.520508
-0.446289
-0.267578
0.098633
-0.891602
0.798828
-0.096680
0.368164
-0.180664
-0.744141
-0.233398
0.152344
-0.026367
-0.321289
-0.964844
0.442383
-0.264648
0.564453
-0.372070
0.322266
0.594727
0.395508
0.297852
0.573242
0.283203
0.482422
0.247070
-0.000977
0.126953
-0.045898
-0.718750
0.303711
-0.592773
0.310547
-0.047852
0.510742
-0.649414
0.125977
-0.441406
0.036133
0.064453
0.125977
-0.066406
0.463867
-0.766602
-0.293945
0.416992
0.017578
0.357422
0.512695
-0.646484
-0.334961
-0.472656
0.126953
-0.373047
0.158203
-0.169922
0.438477
-0.318359
0.279297
-0.738281
0.201172
0.103516
-0.156250
-0.122070
-0.144531
0.431641
-0.220703
0.138672
-0.572266
1.048828
0.480469
0.006836
0.583984
0.641602
0.041992
-0.894531
-0.474609
-0.085938
0.353516
-0.011719
0.307617
0.149414
-0.329102
-0.308594
0.346680
-0.069336
-0.608398
-0.159180
0.494141
0.481445
-0.045898
-0.013672
-0.221680
0.276367
0.243164
0.367188
-0.403320
-0.416016
-0.695312
-0.021484
0.097656
0.293945
0.459961
0.883789
-0.353516
0.187500
0.341797
-0.205078
-0.459961
-0.187500
0.234375
0.359375
0.513672
0.122070
0.419922
-0.254883
0.410156
0.219727
-0.108398
-0.886719
-0.008789
0.435547
0.170898
-0.267578
0.078125
-0.226562
-0.045898
-0.670898
0.014648
0.026367
-0.111328
0.184570
-0.478516
0.347656
-0.090820
0.198242
0.022461
0.199219
-0.695312
-0.374023
-0.610352
-0.853516
0.147461
0.308594
0.082031
0.168945
0.074219
-0.349609
0.440430
0.548828
-0.609375
0.269531
-0.599609
0.061523
0.320312
0.526367
-0.366211
-0.221680
0.311523
0.166016
-0.725586
-0.269531
-0.230469
0.266602
-0.259766
-0.203125
0.369141
0.014648
0.056641
-0.314453
-0.223633
0.097656
0.098633
-0.096680
0.243164
-0.137695
0.141602
-0.363281
-0.521484
0.277344
0.002930
-0.245117
0.090820
-0.035156
0.543945
0.665039
-0.632812
0.162109
-0.026367
0.223633
0.177734
-0.004883
0.315430
0.095703
0.138672
0.001953
0.242188
0.146484
-0.927734
-0.751953
-0.414062
-0.253906
0.023438
0.445312
-0.169922
-0.257812
-0.738281
0.386719
0.071289
-0.473633
-0.079102
0.163086
0.087891
-0.499023
0.258789
0.206055
-0.170898
0.170898
-0.554688
0.313477
0.821289
0.510742
-0.327148
-0.800781
-0.113281
