0.325947
0.096207
0.292420
0.354270
-1.221109
-0.516319
-0.995429
-0.023371
-0.246621
-0.999442
0.035373
-0.081947
-0.227596
0.196959
0.823934
0.114729
-0.244384
-0.112470
0.224742
-0.103214
-0.048937
0.064642
-1.516974
0.022345
-0.033358
-0.138169
-0.074853
-0.246037
0.082820
-0.569610
-0.142339
0.166232
0.255743
-0.140103
0.261629
-0.123287
0.020317
-0.038963
-0.046177
-0.093780
-0.844511
-0.045953
0.125806
-0.113335
0.276717
-0.052614
0.109072
0.040361
0.036790
-0.149055
-1.503043
0.433487
0.298432
-0.204066
0.318753
0.269043
0.096372
0.008950
-0.095466
0.226082
0.067261
-0.092714
0.353486
-0.197166
-0.273632
-0.190380
-0.019690
0.514810
-0.060370
0.477593
0.076067
0.090519
0.126720
-1.133736
-0.248059
-0.097768
-0.531934
-0.032309
0.697758
0.104314
-0.049504
0.097728
-0.108505
-1.128162
0.079618
0.788468
-0.272876
1.335322
-0.181553
0.476295
-0.006775
0.026773
0.052145
-0.054350
-0.134290
0.109465
0.132100
-0.091547
0.252091
0.026762
0.314960
-0.474635
-0.682405
0.179663
-0.089479
-0.111013
-0.047104
0.233951
-0.458436
1.137197
-0.140652
-0.446471
0.322940
-1.152199
0.446269
0.093415
-0.162637
0.066181
-0.111787
-0.139762
0.072067
-0.101388
-0.080837
-0.326605
0.456092
-0.064732
-0.397311
-0.308261
-0.324121
-0.095247
-0.290590
-0.352074
1.221818
0.517803
0.995307
0.024338
0.244981
1.002028
-0.031744
0.083778
0.229367
-0.196863
-0.824873
-0.114234
0.242410
0.111626
-0.223965
0.103263
0.047729
-0.066018
1.515792
-0.024566
0.032382
0.139736
0.074610
0.245249
-0.083230
0.568812
0.143475
-0.166444
-0.256373
0.140176
-0.261462
0.123091
-0.021112
0.038517
0.045112
0.093051
0.846081
0.045905
-0.125181
0.110694
-0.274614
0.053990
-0.107076
-0.038836
-0.036410
0.146991
1.503814
-0.431111
-0.297698
0.202558
-0.320312
-0.267244
-0.096325
-0.009724
0.095306
-0.225192
-0.065944
0.093650
-0.351130
0.198735
0.273614
0.189102
0.019905
-0.515592
0.058966
-0.476373
-0.077076
-0.089247
-0.126128
1.133271
0.248644
0.098233
0.531792
0.034064
-0.697996
-0.102195
0.049159
-0.096990
0.108827
1.128288
-0.079050
-0.787494
0.273396
-1.334761
0.179839
-0.476978
0.008573
-0.026244
-0.050010
0.053944
0.135063
-0.109900
-0.131856
0.091390
-0.253406
-0.026921
-0.314015
0.473102
0.681941
-0.178615
0.088025
0.109502
0.046473
-0.233604
0.460669
-1.135856
0.141671
0.445876
-0.323344
1.153931
-0.448194
-0.093032
0.161939
-0.065379
0.114401
0.139313
-0.073432
0.100466
0.081191
0.325610
-0.454777
0.065949
0.396096
0.309015
0.156987
-0.128008
-0.385906
-0.365799
-0.095961
-0.019439
-0.182149
0.055591
0.075007
-0.538443
0.321599
-0.255582
-0.199219
0.372530
-0.132845
-0.186091
0.060617
0.050488
-0.115776
0.224601
0.202426
0.073082
-0.025459
0.162565
-0.276513
-0.050154
-0.067683
0.234713
-0.282805
-0.111649
-0.032881
0.180846
0.151679
0.309724
-0.207505
-0.421790
0.084842
0.015849
-0.708551
0.208644
-0.347108
-0.038599
0.002454
-0.250120
-0.318240
-0.031473
0.171606
-0.377317
0.365374
-0.112589
-0.383555
0.104897
0.133659
-0.054770
-0.054596
0.278528
0.121787
0.300396
0.425365
-0.065702
0.160523
0.037978
-0.795836
-0.255502
0.362113
0.024716
-0.128683
-0.043569
0.218352
0.165476
-0.067612
-0.166486
0.061537
0.032715
0.143438
-0.163578
-0.148616
-0.175776
0.220530
0.088199
-0.393235
-0.106305
0.109128
0.075093
0.149170
0.125278
0.148526
0.203777
-0.127068
0.247476
0.114128
0.026890
-0.140430
-0.065055
-0.310946
-0.075260
0.104363
0.202779
-0.518637
0.245137
0.112494
0.160039
-0.480063
0.326045
-0.067424
-0.291098
-0.013337
-0.417596
-0.565373
-0.022015
-0.209574
-0.130028
0.325681
-0.197714
0.422656
-0.115225
-0.077922
-0.036183
0.084318
-0.439374
-0.047065
-0.008617
0.258633
0.043063
0.434110
-0.100269
-0.105078
-0.017214
-0.111547
0.256291
0.220098
-0.020372
0.152786
0.043366
0.114547
-0.092050
-0.187457
0.296830
-0.181702
0.054292
0.230195
0.016364
0.047935
-0.123130
0.041390
-0.345136
-0.091938
-0.051888
0.118312
-0.087383
-0.208350
-0.337647
-0.113698
-0.327887
0.059541
-0.096437
-0.055432
0.110574
-0.062757
0.056141
-0.318016
-0.018045
1.214932
0.008848
-0.146464
0.091647
-0.141863
0.177887
0.218134
-0.180412
-0.048222
-0.254193
0.049255
0.000482
0.416272
-0.134837
-0.044803
-0.044127
0.266432
-0.111951
-0.001012
-0.278903
0.042584
-0.176983
-0.115919
0.130586
-0.396644
-0.108329
-0.065111
0.041356
0.272640
0.439962
0.289080
-0.133635
-0.254931
-0.174949
-0.197686
-0.012866
1.314842
0.201860
0.167319
0.180430
0.054865
0.000701
0.210509
-0.221451
0.015314
-0.254224
0.810359
0.269366
-1.487884
-0.103067
0.043904
-0.071837
0.235708
-0.201370
0.026756
-0.083159
-0.151853
-0.131108
0.086787
0.110987
0.099801
0.151434
0.303433
-0.159049
0.207430
0.219071
-0.009448
0.043054
0.397423
0.104675
-0.250449
-0.226786
-0.079570
-0.115845
0.024797
-0.066493
0.160175
-0.008649
-0.165263
0.245504
-0.192554
0.138314
-0.031917
0.313861
0.219309
-0.206988
1.375132
-0.249508
-0.132909
-0.043769
-0.301213
-0.007185
0.209865
0.014857
-0.418343
0.035377
-0.193470
-0.029000
-0.551903
0.256610
-0.161082
0.255266
-0.182748
-0.167006
-0.109229
0.284080
-0.086349
-0.161021
-0.238249
0.094403
0.189710
0.144638
0.244245
0.129846
-0.036010
-0.387305
0.178506
0.007051
0.158485
0.125332
0.183643
-0.144289
0.464353
-0.182917
-0.349712
-0.048859
0.167208
-0.061740
-0.100648
-0.077422
0.060442
-0.087378
0.285593
0.144020
-0.318557
-0.130304
0.131895
0.177499
0.332334
-0.126249
0.083144
0.072294
-0.022428
-0.141631
-0.662235
0.145716
0.094317
-0.386602
0.076644
0.208220
0.220764
-0.080703
-0.158034
0.257007
0.086931
-0.136299
0.034361
-0.344301
0.043250
-0.389209
0.416556
-0.392871
0.387831
0.198048
-0.372235
0.060572
-0.187098
0.064542
-0.187135
-0.183116
-0.478825
0.128478
0.049704
0.425992
0.123311
0.023304
0.052849
-0.360181
0.089863
0.637580
-0.081914
0.126270
-0.053581
0.105764
0.143173
-0.165409
0.020123
-0.208989
0.047608
0.011480
0.141894
-0.315384
-0.374022
0.278067
0.650999
0.062926
-0.884445
0.095219
0.273475
-0.151389
0.349469
0.014182
-0.390249
0.027389
-0.316433
-0.676302
0.259861
-0.503171
-0.144690
0.058967
-0.208601
0.278797
-0.268376
0.084083
-0.095562
0.023420
0.020981
0.235006
-0.383291
-0.323991
0.265966
0.120940
0.216642
0.712803
0.035064
0.483630
0.518259
0.149782
0.135687
0.046868
-0.052183
-0.055282
0.027587
-0.268411
0.102656
-0.405737
0.407037
0.108502
-0.205100
-0.120315
-0.119300
-0.037428
-0.045580
0.320301
-0.398795
-0.089000
-0.061109
0.329474
0.132795
-0.057377
0.001000
-0.355684
-0.075378
0.080376
-0.048721
-0.092824
-0.191065
0.313803
0.099743
0.040563
-0.021718
-0.200945
0.050863
0.183586
-0.099180
0.133851
0.161368
0.034588
0.117934
-0.051196
0.215448
-0.053949
0.473088
0.317194
-0.395582
0.218646
-0.155739
0.356401
0.137840
-0.070217
0.048181
0.023063
-0.020430
-0.240220
0.049467
-0.066927
-2.181684
-0.083626
0.097907
0.009349
-0.238961
0.236538
-0.059871
-0.275061
0.380052
-0.254109
-0.198453
0.534170
0.228269
-0.177879
0.050328
-0.212273
-0.014444
0.124081
0.182689
0.082386
-0.220102
-0.366791
0.105560
0.102727
-0.123294
-0.286536
0.082898
0.218241
-0.076343
0.230731
-0.214382
-0.136944
-0.004459
-0.014221
0.016057
-0.264370
0.105454
-0.492109
0.108282
0.396958
0.028533
0.038365
0.152700
-0.107661
-0.008132
-0.076920
0.148697
0.520442
0.092165
0.677198
0.200888
0.077900
0.036125
0.642273
0.230900
0.292226
-0.200874
0.106269
-0.248036
-0.319852
0.077986
0.159252
-0.318713
-0.108515
-0.125204
0.179118
0.203170
0.152520
-0.151627
0.072696
0.145787
-0.200416
0.391004
-0.011309
0.013501
-0.057329
-0.156585
-0.309456
-0.172872
0.254077
-0.208219
-0.108658
-0.192247
-0.526936
0.334183
-0.155166
0.078527
0.292322
-0.126053
-0.226422
-0.189153
0.376896
-0.158851
0.011138
0.013458
0.064676
-0.176488
-0.044406
0.356783
-0.108487
-0.127787
-0.042853
0.680561
-0.419080
-0.123417
0.076528
-0.148813
0.049733
-0.303903
-0.025375
-0.204147
-0.132594
-0.174091
-0.028552
0.073528
-0.021597
0.001899
0.154114
0.301802
-0.099256
0.081944
-0.122265
0.113310
0.175566
-0.280241
0.238087
-0.013361
0.357073
0.348399
0.054727
-0.164910
-0.087433
0.085026
-0.221867
-0.208717
0.217823
-0.342399
0.435644
-0.045605
-0.016875
0.027219
0.064916
-0.262111
-0.029865
-0.016094
-0.139443
0.123900
-0.134095
-0.223958
-0.256439
-0.177199
-0.539493
0.096122
-0.074775
-0.020672
0.241899
-0.220445
0.233830
-0.004437
0.350733
-0.294846
-0.006554
0.031813
-0.266971
-0.293917
-0.367882
0.392086
-0.080467
0.170826
0.349205
-0.041097
0.504186
0.279785
-0.316747
-0.179649
0.353762
-0.165731
-0.079313
-0.240753
0.228916
0.291158
0.026935
-0.009778
0.042621
-0.204492
-0.121678
0.375267
0.087141
0.026327
-0.031878
-0.089382
0.117472
-0.085806
-0.301248
-0.099176
0.045475
-0.211493
-0.222352
-0.213420
-0.201194
-0.116716
0.124821
0.005192
0.246690
0.046602
-0.209868
-0.248841
0.101119
0.113487
0.085603
0.306065
-0.228111
-0.254981
0.404829
0.257497
-0.022607
0.276386
0.218727
0.215264
-0.039695
-0.235944
-0.034876
0.119752
-0.072595
0.077097
-0.174967
-0.110626
-0.038323
0.205567
-0.218002
0.114167
-0.096236
-0.192716
0.261609
-0.226326
0.194510
0.109265
-0.060090
-0.336430
0.337128
-0.027675
-0.202927
-0.049105
-0.055007
0.285872
0.130112
0.235213
-0.195528
-0.203194
-0.077568
0.100676
-0.134828
-0.140539
0.157676
-0.007339
0.048405
0.049932
0.319247
-0.138033
0.226950
-0.266378
0.070441
-0.239395
-0.317520
0.012178
-0.089127
-0.032234
-0.127645
-0.186957
-0.028928
-0.310323
-0.033176
-0.040420
-0.321032
0.130727
-0.142219
-0.191804
0.177141
0.013007
0.054913
-0.105004
-0.196597
0.051262
-0.109032
0.279202
0.062345
-0.009848
0.120868
0.037879
-0.078739
0.102975
-0.251934
-0.290014
0.224631
0.386624
-0.340666
-0.089243
0.153427
-0.264592
0.198379
0.085083
0.265495
0.207444
-0.303352
-0.059762
-0.339533
0.020023
-0.184588
0.177520
-0.282428
-0.282085
0.180312
-0.051396
0.156941
-0.044572
-0.213951
0.057936
0.294719
-0.154081
-0.103085
0.267069
-0.567537
0.200050
-0.212527
0.256001
-0.167222
0.175995
0.066024
0.008103
0.283115
-0.085869
-0.020705
0.077489
0.563546
0.223387
-0.217511
0.067508
0.129907
-0.071996
0.349735
-0.157543
-0.154290
0.009437
-0.126564
0.073899
-0.145245
-0.246502
-0.235673
0.193726
0.459298
0.318140
-0.172131
-0.004370
0.077064
-0.331654
0.203792
-0.201679
0.185402
-0.182341
0.172327
0.580355
-0.181423
0.304209
-0.176893
-0.062229
0.160102
-0.065029
0.102736
-0.321120
0.473966
0.276634
-0.313813
-0.098025
0.111074
-0.342362
-0.377764
-0.125901
-0.013694
-0.214081
-0.173642
0.239166
-0.070791
0.381580
0.015403
1.056554
0.086659
0.064608
0.275955
0.012516
-0.333658
0.093271
0.279653
-0.018511
-0.177135
0.222995
-0.085203
0.338074
0.259096
0.166493
-0.062127
-0.109295
0.141814
0.236536
0.408719
0.349374
-0.242105
-0.086424
0.159933
0.215204
0.208341
-0.191305
-0.105270
0.011073
-0.304673
0.287001
-0.224681
-0.178606
0.276296
0.435977
0.108706
-0.146510
0.297817
0.087174
-0.336668
-0.162688
0.065562
-0.083656
-0.061988
0.420518
0.070106
0.103902
0.192094
-0.268080
0.179190
-0.091480
-0.103220
-0.103683
-0.710349
0.112200
-0.020519
-0.201582
-0.007319
-0.208937
0.243660
0.027290
0.008054
0.182393
-0.040406
