-0.146119
-0.326482
-0.084038
-0.363563
0.228975
0.063519
0.008348
0.428450
0.177532
0.148227
-0.185469
-0.369474
0.006217
-0.404811
-0.363100
-0.103362
0.602931
0.183933
-0.164873
0.503258
0.320977
0.261603
0.551298
0.163976
0.057639
-0.430504
0.096686
0.139465
-0.005735
0.075958
0.285853
0.284279
0.054111
0.150378
0.029669
0.007467
0.427601
-0.239175
-0.068406
-0.200522
0.734834
-0.064927
-0.191096
-0.053297
-0.025272
-0.405081
0.260003
-0.148946
0.245652
-0.087897
-0.307777
0.023704
0.073989
-0.189783
-0.062323
-0.039057
-0.007130
-0.151926
-0.116489
-0.161065
-0.727272
-0.105803
0.262522
0.029550
0.219719
0.250868
0.157233
0.168908
0.082642
0.092023
0.663479
-0.241038
-0.391640
0.052195
-0.240842
0.049031
-0.204854
-0.199457
-0.149212
-0.208653
0.203137
0.268220
-0.003354
-0.434573
0.539648
0.061786
0.258760
0.002962
0.108779
0.178394
-0.301125
0.059888
0.174911
-0.243281
0.395178
0.309733
0.149944
-0.092120
0.379889
-0.235018
0.259828
0.073117
0.246466
-0.201036
0.126876
-0.038719
0.033393
0.349586
-0.430577
0.205878
-0.398002
0.000217
0.189835
0.073899
-0.047852
-0.193532
-0.070958
-0.256739
-0.106652
0.247392
-0.255076
-0.035343
0.379963
-0.070646
-0.122120
-0.863685
0.297601
0.250442
-0.683753
0.585725
-0.235254
0.062063
0.176692
-0.157817
-0.308007
0.026528
-0.029277
-0.032928
-0.274835
-0.140207
0.588863
0.201046
0.202595
0.524357
0.515174
-0.040945
-0.272382
-0.737160
-0.490234
-0.289769
0.061226
-0.344258
-0.299800
-0.024671
0.110323
0.426962
0.019389
-0.703587
-0.037236
-0.561476
-0.329024
0.056304
-0.198700
-0.053452
-0.330567
-0.136730
0.238216
0.094080
-0.470872
-0.260817
-0.008764
0.175929
-0.063322
0.302415
-0.050365
-0.106952
-0.233097
-0.309668
0.292717
0.066042
-0.872490
-0.186299
-0.062945
0.113255
-0.003250
-0.020605
0.291766
-0.027429
-0.144062
0.274157
-0.395140
0.371447
-0.286630
-0.044643
0.060667
0.165335
0.335030
0.296491
-0.030919
0.020551
0.073685
-0.181337
-0.238888
0.031549
0.114158
0.249065
0.312762
0.032630
-0.086659
-0.011931
-0.063875
0.788635
-0.093946
-0.086947
-0.060571
-0.253240
-0.290401
0.000375
-0.464949
0.009264
-0.433338
-0.039635
0.194706
-0.446825
-0.070225
-0.030467
-0.292669
-0.245728
0.000576
-0.036796
0.375138
-0.027435
-0.307282
-1.182197
-0.153355
-0.308647
-0.460774
0.030257
0.070879
0.474461
-0.137199
-0.002843
-0.023635
0.004891
-0.096311
0.158762
0.360635
-0.351174
0.323798
-0.076894
-0.375948
0.108662
-0.138746
-0.085010
-0.265599
0.063469
-0.117755
-0.400717
-0.427066
0.518896
0.004260
-0.085787
0.143515
0.024906
-0.233784
0.005796
0.132021
-0.217657
-0.511756
0.173115
0.121434
-0.255010
0.103563
-0.311373
0.044244
0.166684
-0.287976
0.257623
-0.111061
0.488646
-0.071930
0.047188
-0.250936
0.215971
0.317966
0.024481
-0.101291
-0.138360
-0.165443
0.340023
-0.008924
-0.367312
-0.113562
-0.180816
0.185662
0.068429
0.159202
-0.190880
0.383771
-0.184844
-0.302805
-0.062307
0.277874
-0.341907
0.252857
-0.406178
0.034914
0.032533
-0.114659
0.108908
0.157901
-0.205630
-0.097841
0.105194
-0.043327
0.050618
-0.398676
-0.321442
0.157405
-0.170365
0.177214
-0.200660
-0.016124
0.168968
0.312012
0.029008
0.335634
0.046382
-0.380408
0.302360
-0.587294
0.098107
0.001726
-0.287123
-0.014654
0.010367
-0.138030
0.412466
0.278933
0.058146
0.013537
-0.140040
0.131336
-0.173757
-0.260815
0.034916
0.047136
0.085115
-0.044946
0.068325
0.292602
-0.162423
-0.390295
0.430292
-0.426493
-0.143889
-0.368554
-0.063404
-0.135312
-0.412591
-0.031855
0.233771
-0.045157
-0.178900
-0.110363
0.888532
0.436369
-0.085201
-0.003699
0.012662
-0.012314
-0.587837
-0.092936
-0.119414
0.239124
0.207517
-0.560081
0.022433
0.222250
-0.219481
-0.315636
-0.008530
0.290442
-0.122164
0.167230
0.008638
-0.270632
-0.077953
0.202140
0.152440
0.699148
0.210066
-0.200287
0.689456
0.267317
-0.007266
-0.176097
-0.110201
0.456277
0.148938
0.534971
-0.089099
0.054237
0.004059
0.077469
0.167489
0.541582
-0.150790
0.046195
-0.168557
0.230328
-0.210069
-0.062972
0.294229
-0.538860
-0.015573
-0.009704
-0.213872
-0.411677
0.374121
0.243787
-0.475772
0.234420
0.173009
0.322259
0.199732
0.092249
-0.252499
0.188570
0.353785
0.126605
0.110559
-0.285726
-0.377727
0.050514
-0.031013
0.163242
0.277190
0.002204
0.426931
0.222078
0.438591
0.334240
0.048508
-0.085007
-0.091588
0.171425
0.205315
-0.183218
-0.254299
-0.266054
-0.094874
0.676587
-0.220417
0.263347
0.250965
0.091248
-0.238042
-0.365232
-0.013351
0.160518
-0.054432
-0.233818
-0.157463
0.255966
0.119313
0.307114
0.075076
0.122885
-0.457171
-0.349517
0.605189
0.019921
0.215966
0.231614
-0.397520
0.131680
-0.193838
0.365454
-0.088866
0.195822
0.187771
-0.325654
0.152562
-0.064256
-0.037000
0.408701
-0.141364
-0.357100
0.231988
-0.030121
-0.116339
0.437352
0.430786
0.145085
-0.261003
0.114012
0.085055
0.191996
-0.280574
0.010719
0.094672
0.099887
-0.363575
-0.318262
-0.273451
0.064415
-0.638815
-0.264370
-0.023703
0.128187
0.399150
-0.051154
0.109591
-0.188729
0.299162
0.177436
-0.238687
0.008276
-0.638846
0.172628
-0.491786
-0.400057
-0.143253
0.177169
-0.014784
0.060414
-0.068256
-0.139389
-0.063868
-0.812179
-0.387143
0.050026
-0.287680
-0.481457
-0.072026
-0.397164
0.589624
0.098850
0.106716
-0.323528
0.291581
0.217216
0.551977
0.423430
0.714148
-0.115556
-0.365405
-0.005768
1.403816
-0.042909
0.271138
-0.094686
0.290089
0.333791
0.422095
0.105821
0.191398
-0.009214
-0.102336
0.554762
0.453810
0.198020
0.289094
-0.050537
-0.305887
0.040666
-0.040105
0.103003
-0.527747
-0.561573
0.103211
0.290906
0.462382
-0.207926
-0.604393
0.016868
0.212608
0.798937
0.266703
-0.024445
0.211935
-0.010618
-0.731661
-0.048793
0.318055
-0.072017
0.125769
0.242181
-0.400117
0.353580
0.027233
0.034528
-0.139828
-0.201823
-0.262705
0.260273
0.374640
-0.183309
-2.311354
-0.269689
-0.670549
0.145708
0.319140
-0.512178
-0.044954
0.133552
-0.124103
0.054058
0.173477
0.635577
-0.584090
0.162444
0.159884
-0.402369
-0.761000
0.590032
0.177934
0.172324
0.370832
0.015431
-0.406038
0.247398
-0.155638
-0.408208
-0.593322
-0.272532
-0.070189
0.170706
-0.176044
0.073724
-0.011060
-0.167852
-0.312791
0.272592
0.119807
0.290696
-0.379467
0.262524
-0.337294
0.431243
-0.044484
-0.090794
-0.228909
-0.249011
0.145003
0.084306
0.015875
0.042532
-0.021554
-0.511644
-0.226814
-0.331639
-0.400921
0.010702
0.332504
-0.178986
0.404312
0.566100
0.067299
0.408749
0.227048
-0.053365
0.082280
-0.211699
0.252062
-0.238853
-0.186386
-0.183416
-0.017933
-0.217616
0.374180
-0.357284
-0.167442
0.065694
-0.031924
0.012060
-0.421627
0.211760
-0.063739
-0.535127
0.197409
-0.209466
0.095363
-0.005050
-0.351942
-0.217782
-0.261206
0.090979
0.186487
-0.072553
-0.298890
-0.062095
0.121864
0.169167
0.213323
0.011217
-0.368002
0.212473
0.063450
-0.127656
0.079372
-0.447442
0.619092
0.185203
-0.254677
-0.235193
-0.402140
-0.156214
-0.506845
-0.037496
0.485312
-0.041088
-0.618392
-0.110297
0.008167
-0.070180
-0.192795
0.101336
-0.394484
0.117858
-0.204315
-0.353449
-0.152341
0.057927
-0.290432
-0.060502
0.795846
0.240028
0.357323
-0.044097
0.188766
0.454875
-0.429567
-0.259131
0.224430
0.235904
0.045898
0.090532
0.377919
-0.153953
-0.173960
0.066875
0.509126
-0.433556
0.200391
0.311216
0.037207
-0.181029
-0.067609
-0.193486
0.093731
-0.105082
-0.384602
0.143782
0.995718
0.110937
0.032008
-0.171156
0.354778
-0.143524
0.418837
0.051212
-0.039120
0.243711
0.118011
0.166228
0.094372
-0.023177
-0.026250
-0.173444
-0.140196
-0.432920
0.079414
-0.409977
0.169323
0.372658
0.019283
0.187178
0.063735
-0.191490
-0.143319
-0.361460
0.256802
-0.163490
0.025154
0.503026
-0.076929
0.125314
0.085074
-0.423779
0.193882
0.059003
0.333825
-0.096208
-0.420871
-0.128164
0.257271
-0.016030
0.107283
-0.300743
-0.060341
0.286799
0.015535
0.115912
-0.197769
0.306069
0.002661
0.017012
-0.089086
-0.407615
0.505679
0.500064
-0.090271
-0.007646
-0.003375
0.247491
0.203654
0.290935
0.009729
-0.304184
0.268898
-0.268749
0.128238
-0.042925
0.071415
-0.617650
-0.106243
-0.414662
-0.157375
-0.011988
0.783832
-0.148297
-0.301694
-0.427988
-0.354061
-0.451072
0.610407
-0.134820
-0.034207
0.448896
-0.242533
0.360427
-0.895648
0.726089
-0.050160
-0.340969
0.129301
0.012995
0.083503
-0.251361
-0.093766
-0.339648
0.037737
0.306648
-0.474241
-0.191546
1.106698
0.035433
-0.227103
0.199269
0.098880
-0.300057
-0.041057
0.155697
-0.326806
-0.370419
-0.096529
-0.066935
-0.173402
0.174579
0.284426
-0.058805
0.121524
-0.042921
0.245464
0.088494
-0.151108
-0.019481
0.035892
0.209914
0.508209
0.120488
0.171023
-0.524962
-0.000287
-0.054207
0.236488
0.072294
0.303165
0.171657
0.417276
0.322755
0.275611
0.032330
0.062717
-0.024799
-0.158283
0.210940
0.326364
0.043035
0.081921
-0.589067
0.204791
0.484779
-0.182169
-0.126309
-0.493409
-0.047962
-0.168164
0.156312
0.023672
0.278583
0.044860
-0.051804
0.368196
-0.089164
-0.109694
0.182243
-0.164738
0.095022
0.087230
-0.251569
0.100123
-0.098246
0.615075
0.153432
-0.847350
-0.314053
0.299351
0.058364
-0.228625
-0.123751
-0.404449
0.694931
0.208226
-0.164796
-0.117861
0.277976
-0.047913
-0.245278
0.028198
-0.008760
0.032189
0.121538
0.225465
0.090894
0.295201
-0.134161
-0.157126
0.030399
-0.046346
0.339312
0.221685
0.187658
-0.239226
-0.025006
-0.344304
-0.594371
-0.098974
0.163795
-0.061726
-0.160547
-0.000365
0.458960
0.141003
-0.012611
0.332739
-0.142419
-0.042918
0.047579
-0.292821
0.783958
0.038072
-0.190520
0.155808
-0.148260
-0.552325
-0.018844
0.090879
-0.367790
-0.213528
-0.349338
0.062857
-0.155885
0.126783
-0.199551
-0.325724
-0.129811
0.214523
-0.197159
0.191159
0.153433
0.064739
0.076412
0.329346
-0.016900
-0.422624
0.181859
-0.169207
0.171031
0.059102
-0.754012
0.174774
-0.691629
0.120078
0.019594
0.121741
0.326223
0.105446
-0.089837
0.177227
0.267088
0.338081
0.024929
0.129477
-0.213241
0.047673
0.049349
-0.505866
-0.513717
0.115147
0.339315
-0.133927
-0.475204
0.512586
0.351513
-0.169298
0.032093
0.026604
0.281249
0.061465
-0.403513
0.057106
0.115153
0.188530
0.089939
0.182722
-0.296197
-0.051327
-0.320758
0.063286
0.199864
-0.122394
0.091711
-0.010171
-0.090552
-0.277340
0.081989
0.599054
-0.123979
-0.801695
0.655512
-0.453331
-0.078786
-0.396258
-0.163739
-0.198693
-0.494262
-0.137532
0.160907
0.070737
-0.116391
-0.014331
0.126388
-0.067117
0.307169
0.175343
-0.067147
-0.026977
-0.440870
-0.049933
-0.263412
-0.215159
0.208408
-0.018787
0.104578
0.234599
-0.015030
0.313560
-0.084533
-0.088889
-0.394700
-0.286320
0.075038
0.034732
-0.259756
-0.290563
0.203114
0.343901
0.114530
0.430203
0.108814
-0.244121
0.115482
-0.391612
0.180538
-0.198480
-0.059837
-0.305718
-0.149240
0.152684
-0.375381
-0.045706
-0.393629
-0.398925
0.233593
0.170744
-0.211408
0.162133
0.126650
-0.217366
0.045651
0.036371
0.042389
-0.063464
0.120081
0.270369
0.217848
-0.093142
-0.588194
-0.321396
-0.099915
0.412387
-0.165851
-0.307228
-0.318191
-0.227219
0.803824
0.195222
0.496268
-0.141290
-0.063613
-0.073155
0.061297
0.269343
0.146784
0.066020
-0.037486
-0.341142
0.089044
-0.607690
0.070529
-0.207822
0.052696
-0.081206
0.161058
-0.129091
-0.259966
0.081545
-0.016329
0.104678
0.384395
0.351118
0.002277
-0.056046
-0.007456
0.137202
-0.089213
-0.157240
0.326517
-0.181486
0.031635
0.454133
0.053075
-0.130783
0.150397
0.104589
-1.284535
0.086322
-0.356647
-0.054831
0.237134
-0.098760
-1.338174
-0.392211
-0.364501
0.100493
-0.011141
-0.407422
-0.206336
0.047227
0.053365
0.453977
-0.353957
0.103132
0.329668
-0.120386
0.380001
-0.125818
0.000226
0.276537
-0.293723
0.066554
0.165957
0.000218
0.246103
-0.084347
-0.283096
0.059556
0.299881
0.439581
0.179638
0.389442
-0.341797
0.109561
-0.106868
-0.401006
0.683640
0.207658
-0.278003
0.720059
0.730712
-0.175364
0.180829
-0.218327
-0.064525
0.215457
0.127368
-0.600720
-0.060984
0.425660
-0.803296
0.116179
0.476144
-0.015089
-0.070193
0.133076
0.246689
0.112723
-0.430034
-0.179368
0.082751
-0.204011
0.206405
0.190986
-0.143399
-0.211635
-0.230133
-0.041127
-0.335295
-0.154017
-0.286307
-0.307109
0.153034
0.053184
-0.094176
0.316503
0.013809
-0.380261
0.008820
-0.291858
0.378874
-0.257459
-0.711204
-0.065605
-0.204386
-0.042659
-0.103157
-0.328303
0.292735
-0.085662
0.492070
0.293369
-0.007443
-0.087842
-0.350506
0.361236
0.109430
0.168970
-0.273031
0.160977
0.139106
0.065872
-0.001014
-0.047714
0.254702
0.354427
-0.138830
-0.104141
-0.022247
-0.184327
0.050181
0.018602
-0.265281
-0.299142
-0.331708
0.194673
0.145462
0.024274
-0.071099
0.429583
-0.072190
0.021758
-0.122097
-0.250537
0.262777
0.155621
0.029000
0.097593
-0.321883
-0.113680
0.415659
0.041303
-0.324000
-0.067387
-0.572959
0.106517
-0.087647
0.169386
0.084497
0.070368
-0.461657
-0.056282
0.014281
-0.188192
0.061873
-0.106656
0.211177
-0.073267
-0.222059
0.178072
0.138589
0.014730
-0.068660
-0.126233
-0.449457
-0.030818
0.209016
-0.139699
0.306970
-0.118630
-0.061775
-0.101158
0.263757
0.101712
-0.076407
-0.029822
0.246789
-0.238258
0.311913
-0.362969
0.002346
0.455157
0.288469
0.187675
-0.189630
0.030101
0.142095
-0.107925
-0.353354
0.299792
0.039236
-0.071415
0.184556
-0.115199
0.162666
0.158058
-0.436415
-0.178796
0.017297
-0.264255
-0.158715
-0.034155
0.371790
0.001425
-0.204532
0.097722
-0.303865
0.134784
-0.001495
-0.152305
0.234801
0.030936
0.119809
-0.204682
0.201460
-0.114707
-0.081396
-0.186895
-0.171405
0.151428
-0.186552
-0.031773
0.074959
-0.198254
-0.108902
-0.314669
-0.335171
-0.074572
0.162335
-0.016090
0.247967
-0.387110
-0.100922
0.280647
-0.173517
0.678711
-0.241959
0.024153
0.333073
-0.259042
0.428306
0.243692
-0.212301
-0.025572
-0.165456
-0.223142
-0.010605
-0.123234
0.180984
0.072392
0.242102
-0.041055
-0.168324
-0.146756
-0.096981
0.099656
-0.091660
0.381977
-0.014320
0.354523
0.066416
0.328274
-0.262597
-0.205272
0.119451
-0.113352
0.034219
0.182753
-0.368831
0.020107
0.132790
-0.199064
0.559193
0.163158
-0.420322
0.150231
0.131679
-0.010936
0.440803
0.002559
0.128795
-0.056200
0.417732
-0.192165
-0.036236
0.226559
0.026836
0.299283
-0.225293
-0.244825
0.129329
0.054176
0.043844
0.241064
0.041556
-0.012484
-0.138899
0.448006
0.078381
-0.005921
-0.093794
-0.102649
0.452118
0.133857
-0.423266
0.888679
-0.193674
-0.119480
0.060703
0.066986
0.389467
-0.112078
-0.214819
-0.116086
0.096489
0.246686
-0.223213
-0.131839
0.329306
-0.138255
0.173884
0.330317
0.184270
-0.175037
-0.093144
-0.078297
0.096277
0.954573
-0.495745
-0.309539
-0.134859
0.219941
0.445580
-0.314135
-0.686041
-0.154600
0.445594
0.267087
-0.068389
-0.423973
-0.086683
0.206161
0.159889
-0.259132
0.335955
0.061615
0.452199
-0.013379
-0.187449
0.491413
-0.035656
-0.117084
-0.251767
-0.267508
0.059674
-0.436051
-0.256472
-0.668710
-0.177299
-0.132623
-0.163592
0.139058
-0.096249
-0.447462
-0.259702
-0.476722
-0.229115
-0.110499
0.000180
0.254532
0.099168
0.334612
-0.252457
0.030503
-0.012323
-0.078397
0.315265
0.037490
0.223272
0.363092
-0.465918
0.093329
0.243906
-0.044090
0.060375
-0.489459
-0.532919
0.160949
0.180802
0.019946
-0.182463
0.154470
-0.124810
0.069615
-0.062695
0.167158
0.137983
-0.001159
0.158600
-0.055639
0.019435
0.116969
0.472739
-0.218251
-0.160061
-0.618437
-0.321880
-0.534722
-0.225552
0.140216
-0.287349
0.123962
0.200748
-0.183485
0.040357
0.387844
0.367220
-0.329065
-0.347955
0.174068
-0.107815
0.007364
0.158779
-0.020727
0.059850
0.259425
-0.087892
-0.008012
-0.358528
-0.009041
-0.033989
0.157100
-0.348583
-0.061395
0.146953
0.029433
-0.176584
0.148426
0.445342
-0.018274
0.231861
0.466710
0.221994
0.027571
0.240357
0.060240
0.137791
-0.129864
-0.117065
-0.193085
0.062196
0.612774
-0.210953
0.169464
-0.102150
-0.362973
0.326203
0.093012
-0.141074
-0.074957
0.301483
-0.410064
0.119581
0.128604
-0.459782
-0.327670
-0.221426
0.654885
0.247482
0.044940
-0.382156
0.080003
0.137877
0.072321
-0.183646
0.073307
-0.084992
-0.032875
0.411246
0.192287
0.053270
-0.007805
-0.527358
0.082573
0.039984
-0.126663
0.039709
-0.012826
0.101486
-0.272927
0.214464
-0.147130
-0.370488
-0.030794
-0.056511
-0.118060
-0.165591
-0.186991
-0.248041
0.193332
0.216950
-0.111528
-0.054824
0.261557
-0.194326
0.787579
0.293974
-0.021678
0.034501
0.202275
0.269210
-0.267731
0.000364
0.087227
0.190924
-0.371973
0.783238
-0.055736
0.285876
0.132248
-0.615612
0.231826
-0.279906
-0.185307
0.038325
0.223719
0.093366
0.024530
-0.115662
0.434670
0.113478
0.322764
0.225898
-0.244950
0.220825
0.322715
0.113218
0.187734
-0.367805
-0.095399
0.463275
0.406983
-0.219284
-0.227722
0.286793
0.302049
-0.039392
0.140097
0.259326
0.254197
0.174472
-0.073378
-0.120409
0.038602
0.036835
-0.596333
-0.145718
-0.327881
0.012143
0.219192
0.128147
-0.057805
0.010516
-0.074944
-0.344417
-0.303650
-0.147562
0.026707
-0.028168
-0.308341
0.504792
0.591254
-0.085250
-0.136234
-0.154825
0.366409
-0.021460
-0.396090
0.863298
0.217978
0.057605
0.011223
-0.027471
-0.066179
-0.123475
0.059728
-0.175987
-0.189355
-0.544554
-0.280513
0.037928
-0.234385
0.283456
0.175324
-0.586442
-0.232474
-0.315966
-0.074902
0.421238
-0.199890
0.406272
-0.275881
0.216569
-0.028919
-0.194132
-0.544461
-0.238960
-0.468712
-0.718761
-0.306247
-0.384969
0.164277
0.468907
-0.069448
-0.020241
-0.112814
-0.054809
0.074384
0.054476
0.462979
0.105520
-0.198068
-0.096324
-0.346611
-0.003636
-0.720881
-0.662433
0.052274
-0.006870
-0.099614
-0.346550
0.022015
-0.277611
0.756623
0.093877
-0.151456
-0.031501
-0.657372
0.026145
-0.202013
0.314198
0.348785
0.029503
0.350217
0.483510
-0.186624
-0.116548
-0.042417
-0.843010
-0.093126
-0.096136
-0.204750
-0.245963
0.045417
0.146591
-0.382594
-0.172424
0.333471
-0.030255
-0.285350
-0.120355
-0.196572
0.022849
0.715401
-0.014005
0.015662
-0.123512
0.579357
-0.128153
-0.008901
-0.266951
-0.352953
0.160269
0.349175
0.170892
0.105835
0.476249
-0.049858
0.311941
0.256220
0.158142
0.234398
-0.131873
-0.383283
-0.043894
-0.492813
0.092245
-0.314793
-0.074117
-0.076758
-0.103618
-0.005640
0.524417
-0.557929
0.211320
0.380631
0.566293
0.368893
0.035960
0.229867
0.143743
-0.604668
-0.158590
0.385149
0.011128
0.373536
0.072263
-0.022372
0.056460
-0.019869
0.052909
0.268133
0.150328
-0.075131
0.068382
0.273546
-0.287360
-1.178886
-0.036277
-0.638812
0.078705
0.202021
-0.571990
0.209454
0.366091
-0.047096
-0.134678
0.060928
0.345904
-0.427467
0.172908
0.080643
-0.265967
-0.541975
0.171962
-0.443720
0.265369
-0.085642
0.043191
0.066505
0.440942
-0.045634
0.251292
-0.046902
-0.332248
-0.325162
-0.025553
0.071934
0.206407
0.459690
0.133797
0.118235
0.228014
0.167490
-0.095751
-0.098294
-0.142888
-0.152199
0.028994
0.258489
-0.020720
-0.286323
-0.163298
0.157307
-0.393825
-0.270128
0.039027
0.167409
0.146238
-0.158206
-0.135879
0.090138
0.123232
0.133723
0.169943
0.269017
0.127622
-0.298922
-0.234069
0.306748
0.207989
0.176453
-0.587238
0.086924
0.401414
0.237441
0.027890
-0.471984
0.090146
-0.191735
-0.123967
0.281304
-0.156991
-0.387200
-0.039843
0.019954
-0.050806
-0.118674
-0.318408
0.255507
0.253634
-0.447474
-0.064549
0.541108
-0.224933
-0.113800
-0.390468
-0.161519
-0.030938
-0.067941
-0.095134
0.043657
-0.025296
-0.075041
-0.526223
0.106830
-0.285485
0.154038
-0.114174
0.175465
0.724366
0.461382
0.444172
0.279656
-0.180811
0.165372
-0.120078
-0.382282
-0.166792
-0.272189
0.284063
0.018574
-0.078516
0.244168
-0.495145
0.092093
0.109109
0.276334
0.424870
-0.291063
0.107923
0.049082
0.114153
0.171101
0.624662
0.262057
-0.348799
0.161806
-0.126247
0.031546
-0.150575
0.215224
0.674426
-0.143814
0.142044
0.057115
-0.070763
0.107725
-0.420979
0.585790
0.178651
0.052697
0.167785
-0.182870
0.475513
0.254798
-0.482543
0.349403
0.125548
-0.284456
-0.054981
0.049531
-0.427283
-0.094196
-0.421505
-0.139061
-0.185513
-0.234092
-0.047700
0.083153
0.061051
0.103649
-0.061355
0.158133
-0.058805
0.136696
0.046276
0.235503
0.182417
-0.074276
-0.237408
-0.117015
-0.000942
0.032305
-0.058285
0.101551
-0.198773
0.028954
-0.288625
-0.063894
0.134523
0.083101
0.283887
0.231432
-0.047581
0.306289
-0.059489
0.194132
0.023850
0.160202
-0.296758
0.134488
-0.398171
0.276879
0.337735
-0.409790
-0.319536
-0.147221
-0.000865
-0.120071
-0.194811
-0.055997
-0.468596
0.346413
-0.064871
-0.263877
0.259841
0.648155
0.214716
0.448141
-0.150038
-0.004835
-0.440485
-0.360268
-0.233081
-0.364910
-0.367004
-0.435954
0.194454
-0.204206
0.704892
0.345444
-0.429229
0.259402
0.145041
-0.283040
-0.260534
0.239321
0.434817
0.188201
0.548962
-0.250649
-0.148901
0.366395
-0.153647
-0.334443
0.196378
0.185610
-0.309795
0.102612
-0.300004
0.153172
-0.501151
0.214452
0.303445
0.618318
-0.227132
-0.240135
0.062562
0.427442
0.113598
-0.264552
0.479212
-0.242833
0.276638
-0.115317
-0.072375
-0.076641
-0.274819
0.543900
0.331141
-0.407627
0.143551
-0.227908
-0.013222
0.103046
-0.330803
0.658923
0.085085
0.308934
-0.103350
-0.158691
0.308014
0.196983
0.253564
0.061251
0.069130
-0.373208
-0.053660
-0.284159
-0.149738
-0.244606
0.041359
0.263991
0.038723
-0.073830
0.152474
0.343524
-0.188479
0.243580
0.103389
-0.177473
0.169946
0.272498
0.168864
0.027202
-0.075939
0.176416
-0.221799
0.082476
-0.178475
0.137458
-0.298291
-0.069409
-0.409890
-0.258333
0.113878
-0.301658
0.144787
-0.591806
0.372785
0.105604
0.029339
0.267152
-0.202243
-0.053212
-0.108650
0.289645
0.103521
-0.094428
-0.304213
0.327886
-0.137736
-0.503752
-0.259501
-0.189826
-0.210391
-0.065041
-0.088569
0.016457
-0.883944
0.119880
0.279048
0.004021
0.083300
0.002926
-0.154250
-0.012923
0.000430
0.107291
-0.041202
-0.606732
0.043406
-0.626502
-0.741093
-0.049602
-0.278917
-0.200147
0.320758
0.131659
-0.056940
0.320591
-0.008628
-0.113040
-0.188957
-0.026861
-0.004515
-0.292961
0.641051
0.113262
-0.205765
0.239328
0.403623
0.088066
-0.125985
0.103749
-0.346933
0.020270
-0.143331
0.261633
-0.031246
-0.093859
-0.235389
-0.159679
-0.437348
-0.079662
-0.039364
0.171794
0.003028
0.118598
0.090675
-0.134497
-0.290696
-0.098658
-0.201385
-0.021628
-0.021918
0.436852
0.204671
-0.258800
-0.036087
-0.030353
0.292680
0.089089
-0.202978
0.339172
-0.112283
0.284506
0.296119
-0.080959
0.134275
0.276501
-0.050826
-0.143910
-0.068725
0.050006
0.277300
-0.445210
0.189087
0.363449
-0.108401
0.361636
0.081908
-0.002759
0.263109
0.118515
-0.373826
0.093614
-0.082292
-0.546773
0.328410
0.015450
-0.397415
-0.006335
0.117857
0.040750
0.174316
0.052462
0.151215
-0.235985
0.073105
0.463226
-0.143764
-0.570571
0.210622
0.396666
0.296261
-0.319899
-0.109170
-0.025791
-0.435059
-0.188463
-0.359492
0.053084
-0.056482
-0.033435
0.047807
-0.538431
0.200756
0.530673
0.129318
-0.535240
-0.084951
0.102244
-0.086174
-0.110509
-0.407501
-0.176601
0.012935
0.680925
0.088720
0.011729
-0.001983
-0.000745
0.270461
-0.419659
0.027704
0.109981
-0.251175
-0.385110
0.125151
-0.168867
0.069440
0.377188
0.219815
-0.685387
-0.181205
-0.107215
-0.273410
-0.165446
0.037850
0.115517
0.031926
0.161958
-0.131114
-0.404325
-0.160662
-0.152572
0.129434
-0.018551
0.105340
-0.322511
-0.219811
0.086811
0.015114
0.144259
-0.067910
0.375319
-0.452378
-0.011127
0.066701
0.230016
-0.147560
-0.185338
0.509553
0.085297
0.110361
-0.234409
0.102599
-0.121498
0.023701
-0.706335
0.110865
0.152530
-0.220111
0.038691
0.352524
-0.120854
-0.067837
-0.088044
0.013052
-0.125998
-0.127942
0.085450
0.099972
-0.109965
0.133955
-0.016608
-0.004622
0.204859
0.084669
0.175101
0.327024
0.218183
-0.082577
-0.002295
-0.449035
-0.161715
-0.127095
-0.186553
-0.401751
-0.094888
0.003806
-0.197936
-0.070708
-0.136349
-0.205426
0.057408
0.038843
-0.295589
0.329522
0.240935
-0.362517
-0.384091
0.219561
-0.178226
-0.099151
-0.170673
-0.296751
-0.050813
0.234599
-0.300072
-0.335525
-0.082806
0.398879
-0.265413
-0.124272
0.250103
0.255913
0.031725
0.400538
-0.270016
-0.327487
0.060258
0.062246
-0.216971
0.203466
0.267852
-0.105078
-0.225308
0.119518
0.079712
-0.008554
-0.291385
-0.041466
0.116480
0.375243
0.214473
-0.040256
-0.450780
0.309328
0.099794
0.224617
0.072155
0.701700
0.099061
-0.240382
0.258747
-0.402003
0.260236
0.083669
0.298452
-0.426253
-0.007762
-0.406910
0.415235
0.575402
0.228820
-0.259446
-0.048242
0.020255
0.089822
0.336748
-0.077089
0.019994
-0.297864
0.406541
0.277278
-0.071663
0.190187
-0.225905
0.089319
0.183418
0.395860
-0.244067
0.156020
-0.263908
-0.070632
0.489102
-0.011301
-0.127336
-0.248762
0.124258
0.047340
-0.326070
0.303453
0.041436
0.035516
0.088976
0.057583
-0.541794
0.274775
-0.075125
0.051422
0.174278
0.093066
-0.203459
-0.152937
0.220795
-0.590311
0.384487
0.342939
-0.241065
-0.121101
-0.241948
0.236791
0.692724
-0.099578
0.277156
0.128157
0.050721
0.435870
-0.024331
0.144172
-0.662042
-0.687156
-0.089292
-0.067139
-0.210678
0.062678
0.168717
-0.248176
-0.266448
-0.078360
0.147233
0.184730
0.069303
0.497338
-0.240850
0.186577
-0.194035
-0.002355
-0.370708
0.111841
-0.063599
0.049226
0.270248
-0.183979
0.132641
-0.562442
0.151826
-0.012592
0.107339
-0.086766
-0.113283
0.023435
0.076788
-0.316039
-0.143342
-0.130509
0.373834
0.275901
0.235462
0.033096
0.313435
0.598082
0.090025
-0.287287
0.133236
0.225748
-0.104095
0.448959
0.071663
0.027218
0.022357
0.384455
0.175335
0.000015
0.343466
-0.263210
-0.352345
0.084206
-0.089358
-0.346217
-0.044379
-0.154647
0.098650
0.062681
0.264544
-0.321560
-0.142636
-0.258744
0.167047
0.285932
-0.063747
0.113138
0.070223
-0.286132
-0.705725
0.241096
0.053565
0.142498
-0.134945
0.253531
0.234742
0.141537
0.611258
-0.015680
0.114615
-0.519442
0.035200
-0.252388
0.009468
0.207922
-0.114925
-0.331214
0.434685
-0.004815
-0.427072
0.249756
-0.098037
0.056834
0.143969
0.227318
0.289950
0.026536
0.128775
0.031899
-0.443131
0.288654
0.146171
-0.109108
0.584007
-0.168741
-0.692344
-0.026595
0.222390
0.196788
0.319514
0.387122
0.027633
0.110016
-0.037807
-0.347571
0.127040
0.030852
-0.124319
0.103530
-0.068433
0.109830
-0.122312
-0.070835
0.069312
0.116648
-0.339298
-0.231753
0.240478
-0.371673
0.162035
0.013666
-0.439114
-0.006083
-0.139597
0.150241
0.041143
0.192934
0.262652
-0.231494
-0.232426
0.309008
-0.124997
0.163813
0.047669
-0.075339
-0.122523
0.259375
0.033132
0.474447
0.021722
-0.155875
0.251459
-0.120608
-0.264788
-0.157452
0.093544
-0.251371
0.142549
0.255174
-0.067595
-0.078087
0.449578
-0.369608
-0.296216
-0.251175
-0.031751
0.200541
0.042420
0.319421
0.045308
-0.016496
0.168112
0.004180
0.173898
-0.446464
-0.205601
-0.197257
-0.241830
-0.057958
0.079708
-0.363520
-0.115460
-0.128678
-0.046745
0.231165
-0.201934
0.332386
0.217589
-0.592994
0.091725
-0.009526
0.457019
0.116151
0.194806
0.378634
0.390023
-0.367381
0.289869
0.126712
0.212496
-0.015120
-0.300218
-0.572608
-0.450056
-0.157978
0.439299
0.141335
0.166270
0.152661
-0.039629
-0.003413
-0.176397
-0.276678
-0.266485
-0.030648
0.132974
-0.124385
-0.120558
0.061387
0.380654
-0.520580
0.487843
0.004640
-0.154611
0.774395
0.303415
0.081925
-0.182496
-0.011965
-0.046195
-0.315958
-0.289775
0.053516
-0.121086
0.179175
-0.831316
-0.069830
-0.227186
-0.371777
0.175934
-0.052382
-0.333199
-0.001618
-0.446043
-0.202436
0.080649
0.373732
0.143325
-0.009615
0.080629
-0.044279
0.561136
0.018001
0.043580
0.162645
0.450413
0.220515
-0.214871
0.053988
-0.098878
-0.277000
-0.177575
-0.156523
0.134324
-0.171616
-0.094739
-0.179694
-0.232418
0.345668
-0.150994
0.059941
0.082855
-0.261720
-0.180338
-0.036670
0.119266
0.363600
0.122134
0.152652
0.295924
-0.058874
-0.167481
0.025110
-0.794962
0.244033
-0.867182
-0.120962
0.144424
0.171087
0.059642
-0.418180
-0.284142
0.055466
0.229737
0.031617
0.002062
-0.565587
0.135749
0.387548
-0.551007
-0.383312
-0.078789
-0.069167
-0.490355
-0.113287
-0.051890
0.222688
0.603664
-0.018586
-0.189595
0.026062
0.649894
0.170942
0.089067
-0.085899
-0.287121
0.191215
0.098679
-0.496534
0.275891
-0.193431
0.133347
0.117366
0.197893
-0.051317
-0.488943
0.218423
0.426594
-0.697831
-0.016430
0.423664
0.142647
0.265157
0.216725
0.281195
0.167220
-0.256328
0.029578
0.296577
-0.863041
-0.143947
0.419593
-0.296623
0.022354
0.042377
0.253754
0.486274
0.375248
0.107073
0.041492
0.309872
-0.179257
-0.207663
-0.288681
-0.674879
0.304491
-0.159402
-0.550835
0.241357
0.137506
-0.266719
0.249304
0.254966
-0.175193
-0.432165
0.093170
-0.072765
0.108980
-0.819981
0.123912
-0.072389
-0.430041
-0.215045
-0.060832
0.386025
0.934880
-0.259058
-0.071113
0.070197
-0.134498
-1.022769
-0.432080
0.387010
0.203866
-0.117031
-0.187339
-0.051821
0.149921
-0.886495
-0.619072
0.055680
0.121586
0.041416
-0.147247
-0.117461
-0.306840
0.141313
0.328961
-0.135902
0.084103
0.143946
0.193247
-0.085643
0.194557
-0.236224
0.527158
-0.303514
0.103675
0.179800
-0.238600
0.195667
-0.052762
-0.681302
0.027380
-0.071416
-0.108826
-0.634101
-0.184160
0.179758
0.125760
0.040867
0.110030
-0.052825
-0.050472
-0.168534
-0.195337
0.255291
-0.125248
-0.074304
0.066769
0.099429
0.418911
-0.075446
-0.255657
0.142130
0.271534
0.525669
-0.130853
-0.050781
-0.150628
0.358737
-0.158446
0.463478
0.349242
0.165869
-0.376124
-0.267843
-0.325558
-0.239706
-0.048561
-0.166774
0.062540
-0.101965
0.423322
0.040872
0.103473
0.337098
-0.230576
0.193266
-0.000049
0.267111
0.168866
0.339878
0.009148
-0.387618
-0.090920
0.457847
0.680476
-0.429925
0.103241
-0.033977
0.117002
0.446429
-0.007405
0.085853
-0.147609
0.050846
0.162078
0.153894
-0.105661
-0.004178
-0.536239
-0.215791
0.379940
-0.342220
-0.052533
-0.148981
-0.045865
-0.101922
0.432535
-0.246770
0.765634
-0.137394
-0.020400
0.355279
0.068014
0.305981
0.044105
-0.182442
-0.062458
-0.005801
-0.230483
-0.218922
-0.049138
0.334424
0.144515
-0.249917
-0.341378
0.163881
0.212343
-0.104971
0.378975
-0.399485
-0.148853
0.192484
0.236750
0.240428
0.325756
-0.225881
0.138983
0.072451
0.388330
0.003464
0.364149
0.304589
0.150441
0.135956
-0.421399
-0.057568
0.320519
0.141466
-0.354992
0.287191
-0.119416
0.403316
-0.259531
-0.095175
-0.237039
0.143237
0.087094
0.198092
0.281482
-0.017472
0.005362
-0.156163
0.011933
-0.028064
-0.155871
-0.184703
-0.148124
0.047898
0.796319
0.365186
0.223112
-0.137405
0.530280
0.037201
0.034958
-0.093437
-0.383654
-0.427207
0.276830
-0.126054
-0.089361
-0.201812
0.483708
-0.202843
0.489164
0.357769
0.177473
0.231438
-0.163746
-0.213758
0.341906
0.132574
0.176252
0.338111
0.466490
0.101976
0.100541
0.109948
0.159764
-0.115583
0.172605
-0.343485
-0.135431
-0.076460
0.306824
-0.599929
0.002685
0.398525
-0.086416
-0.275378
0.015361
-0.022297
0.159921
0.360286
0.008973
-0.200484
-0.067177
-0.191831
0.040352
0.252153
-0.226131
-0.253717
0.383492
0.309542
0.146298
-0.032915
0.024557
0.245456
0.149102
0.161842
0.186884
-0.222609
-0.262838
0.352984
-0.447625
-0.034159
0.037632
0.260892
0.461267
-0.337335
-0.027361
0.334977
0.141514
0.171330
-0.303574
-0.060512
0.424428
-0.208770
-0.213366
0.350098
0.353940
-0.068310
-0.033408
0.256282
0.146540
-0.384783
-0.256331
-0.253306
0.005446
0.140654
-0.265913
0.401215
0.502542
-0.006162
0.137915
-0.170384
0.550266
-0.251362
-0.376376
-0.135301
-0.007905
-0.050951
0.168356
0.244792
-0.148514
0.178762
0.108077
0.419577
0.284702
-0.259888
0.342850
-0.115946
0.273465
-0.035734
0.123814
-0.221950
0.294743
-0.114705
0.314280
-0.289052
0.235038
-0.628841
0.221339
0.005697
-0.331426
0.252138
0.178038
0.291374
0.420305
0.025828
0.094013
-0.070888
0.080923
-0.181292
0.015701
-0.018104
0.187891
0.072075
-0.099166
-0.193392
0.311530
-0.127679
0.155844
0.330533
-0.190082
0.013174
-0.560268
-0.199336
0.039892
0.091720
-0.068269
0.113121
0.170296
-0.027372
0.399891
0.520800
-0.149984
-0.281402
0.159883
0.409578
-0.492298
-0.304908
0.016343
-0.606484
0.253129
-0.093843
0.179373
-0.151475
-0.083114
0.154431
0.087065
-0.258120
-0.171502
-0.148337
-0.028066
-0.411288
-0.285005
0.603272
0.230307
-0.502858
0.366281
0.376456
-0.175599
0.320248
-0.051044
0.288467
0.147499
0.204801
-0.007557
-0.836134
-0.436415
0.222727
0.298410
-0.118534
0.172163
0.147743
0.367715
-0.139915
0.015021
0.071279
-0.409614
0.189348
-0.165945
0.591006
0.154562
0.107495
0.035444
0.351576
0.012350
0.066282
0.287201
-0.207608
-0.092122
0.107388
-0.095259
-0.065508
-0.203229
0.039496
0.244337
-0.146459
-0.088251
-0.425457
-0.053708
0.154042
-0.328216
-0.230666
-0.096257
-0.102887
0.050117
0.094660
-0.273592
0.157329
0.167615
-0.067223
0.105442
-0.355757
0.000860
-0.307732
0.223179
0.125295
0.076478
-0.011963
0.227478
0.063547
-0.287919
0.098518
0.065776
0.463419
0.000110
-0.050607
0.105568
0.287194
-0.011765
0.063337
-0.134023
-0.394786
-0.083694
-0.101134
-0.099188
-0.275148
-0.084188
-0.169467
0.493540
0.364330
-0.250532
-0.031166
-0.381247
0.188264
-0.404987
0.030983
-0.420460
0.102477
0.264351
-0.335047
0.111478
-0.355772
-0.196761
-0.163558
0.232135
-0.061318
-0.210655
0.242267
0.030798
-0.264712
-0.194348
-0.328597
-0.071165
0.206610
0.395621
-0.313525
0.008246
0.274687
0.200566
0.009682
0.217668
-0.258880
-0.435735
-0.132688
-0.127494
0.027910
-0.644833
-0.093392
0.039558
0.334312
0.033322
-0.082904
-0.093301
-0.115777
0.159804
-0.202811
-0.056880
0.374123
-0.023304
-0.186723
-0.446832
-0.302349
0.252977
-0.064347
0.298069
-0.043900
0.325731
0.498790
0.145099
0.005178
-0.111180
0.477038
0.026483
0.030384
-0.172410
-0.339134
-0.096449
0.112794
-0.333551
0.157478
-0.198015
-0.302456
0.104102
0.195351
0.031071
0.446252
0.097046
-0.256942
0.062449
-0.087094
-0.403692
-0.430683
-0.089452
0.382230
-0.170650
-0.432884
0.599616
-0.484029
-0.077696
0.075159
-0.184071
0.002144
-0.403106
-0.047496
-0.107052
0.321334
0.452474
0.045565
0.132790
0.133183
0.010763
-0.017446
-0.522416
-0.127975
0.017131
0.345200
0.391587
-0.053823
0.179155
-0.077230
0.010721
0.046809
-0.147133
0.598883
-0.525319
-0.478772
-0.099727
0.038279
0.292333
0.048935
-0.292159
0.229195
0.075854
0.185555
-0.110052
-0.104089
-0.056644
-0.064100
-0.145249
-0.050951
0.104509
-0.048614
0.344091
-0.072914
0.231955
0.011047
0.531389
0.254499
0.103744
-0.378974
-0.398516
0.116702
0.503187
0.301783
0.220524
-0.457109
-0.323622
-0.215359
-0.009806
-0.044555
0.105476
0.661536
0.255329
0.215961
-0.122594
-0.527360
-0.181789
0.008527
-0.233262
0.290870
-0.208881
0.260447
0.153084
-0.699996
0.328981
-0.397666
-0.109668
-0.133410
-0.181825
-0.263501
-0.478904
-0.328054
0.013576
-0.120068
-0.255015
0.403331
-0.227621
0.681036
0.133520
0.145011
-0.117437
0.253177
-0.188234
-0.069925
0.293339
-0.177797
0.180722
-0.421272
0.270091
-0.346758
-0.252571
-0.025942
0.062443
0.240874
-0.139345
-0.153890
0.310138
0.023199
0.027180
0.072364
0.349288
-0.124521
-0.151845
0.310142
-0.349898
0.237322
-0.182589
0.140460
0.278930
0.233248
-0.005844
-0.022630
-0.223898
0.173701
0.203340
-0.188515
-0.250941
-0.018962
0.277544
-0.162471
0.304759
-0.246966
-0.408522
-0.009389
-0.091147
-0.270533
0.169487
-0.002291
-0.119076
-0.055380
-0.174323
0.113432
0.026679
-0.106187
0.056804
0.032823
0.120587
-0.071378
-0.293515
-0.064460
-0.055810
0.273293
0.274353
-0.067805
0.069328
0.029015
0.006302
0.148386
-0.127601
-0.095898
0.290962
0.109926
0.366867
0.482374
0.177896
0.097424
-0.319986
-0.093597
0.005220
0.279948
-0.357542
0.127564
-0.200650
0.395143
0.327165
0.192734
0.021664
0.878052
-0.270664
-0.248164
-0.636656
0.086668
-0.258565
-0.284469
-0.395740
0.159544
0.083320
-0.255167
-0.284173
0.011088
0.060652
-0.237414
0.021766
0.289999
-0.183570
0.037708
-0.084727
-0.195677
0.170435
-0.312468
0.187618
0.032292
0.043080
0.305825
-0.420775
0.144113
-0.069381
-0.342912
-0.129380
0.001386
-0.654355
0.214601
-0.054050
-0.200927
-0.081284
0.432813
-0.071250
-0.156307
0.401289
-0.133514
-0.162577
0.342501
-0.049842
-0.107340
0.100914
-0.145152
-0.025078
0.261206
-0.137382
-0.065991
0.344102
0.035500
0.401160
0.348318
0.037230
0.160284
-0.204142
0.495854
-0.044630
0.642214
-0.022995
0.203785
-0.163135
-0.214061
0.168394
0.110220
-0.501552
-0.040567
0.400152
0.611250
0.157040
0.089479
0.045408
0.059593
0.022150
-0.049691
-0.502935
-0.314345
-0.122667
0.170373
0.128709
0.121074
-0.566590
0.158284
0.158802
0.128286
-0.084105
-0.470313
0.020828
0.332240
-0.002900
0.354226
0.646607
-0.121425
0.160844
0.193903
-0.345033
-0.038495
0.306571
-0.208099
-0.029286
-0.354770
-0.277282
0.308772
-0.507002
0.347701
-0.129340
-0.418585
-0.406734
0.173842
0.018397
-0.490328
0.259978
-0.115870
0.245221
-0.216953
-0.317741
0.157670
0.068892
0.247591
-0.137084
0.204066
-0.105262
0.027168
-0.148909
-0.027790
-0.170956
0.090989
-0.018060
0.071696
0.200223
-0.124229
0.280764
-0.085650
0.043630
0.034765
-0.581261
0.647243
-0.262486
-0.413927
-0.548985
-0.365971
0.246377
-0.356033
-0.172464
0.405707
-0.100359
-0.349011
-0.268212
-0.533320
0.207657
-0.127944
-0.169722
-0.012733
-0.200513
0.293008
-0.173494
0.043520
-0.271841
-0.207741
-0.319968
0.850099
0.011932
0.284786
-0.110103
-0.254499
0.638549
-0.263734
-0.019938
0.138524
0.388841
-0.399360
0.166331
-0.125645
-0.064356
-0.003023
0.007365
0.195442
-0.170228
-0.040012
-0.210498
0.142462
0.085577
0.237369
0.278565
-0.188803
0.375849
0.291530
0.137840
0.003406
-0.347337
0.195370
0.416186
0.091706
0.024820
0.068283
-0.269387
-0.220817
-0.133666
-0.242183
0.010617
0.020384
-0.075963
-0.234873
0.365392
0.185660
-0.166333
0.063677
-0.006123
-0.030336
0.214729
0.027146
0.100796
-0.207088
-0.235122
-0.225772
-0.171526
-0.000022
0.186495
0.007454
-0.016678
0.840287
0.078497
0.117644
-0.054415
-0.327050
0.138754
0.103807
-0.109841
-0.371699
0.493165
0.230512
0.251269
-0.333121
0.278285
-0.366195
0.293624
-0.144810
-0.162785
-0.164291
-0.000795
-0.339988
0.334124
0.132053
0.347003
0.278183
-0.323596
-0.381956
0.103770
0.196263
0.525177
0.021150
-0.194175
-0.217073
0.127325
0.289150
-0.106754
0.036584
0.350207
-0.039522
-0.078857
0.100617
-0.225931
-0.699030
-0.109070
-0.855227
-0.041199
0.253794
0.256727
-0.016263
-0.233786
-0.119392
0.059252
-0.391840
-0.240526
-0.095047
-0.138138
0.116624
0.162195
0.097242
-0.179447
-0.281200
-0.324832
0.108609
0.142420
0.070868
0.118055
-0.045283
-0.323879
0.060338
-0.058486
0.019670
0.082980
-0.321943
0.337605
0.310160
-0.127027
0.347498
-0.373930
0.116481
0.005385
0.100889
0.455517
-0.501775
0.020970
0.140480
0.043829
0.354902
-0.414543
0.506501
-0.185844
-0.453147
0.081382
0.414174
-0.135786
-0.040524
0.550679
-0.080516
0.300726
0.329760
-0.207685
-0.179267
-0.628139
-0.060765
0.012012
-0.298375
-0.058003
-0.266075
0.436752
-0.154290
0.349848
0.061618
0.182022
-0.016717
-0.545931
-0.034087
0.096606
-0.055599
0.151941
0.060288
-0.073569
0.038137
0.097478
-0.149797
0.241884
-0.378764
0.271215
0.069874
-0.147277
-0.393347
-0.109793
-0.099725
0.286676
-0.077971
-0.266339
-0.043504
0.038826
0.018815
0.530993
-0.288530
0.281111
0.093898
-0.479434
0.144013
0.154956
-0.024763
-0.109725
-0.291713
0.078828
0.222962
0.345729
-0.377928
-0.168501
-0.573663
-0.228025
0.255804
0.357776
0.343357
-0.020103
0.103205
0.265894
-0.269190
0.080021
-0.334880
0.421952
0.092387
0.422309
0.340611
0.294959
-0.122198
-0.041094
-0.084031
0.526506
-0.114296
-0.176218
0.513745
0.318283
-0.186608
0.265852
-0.186379
0.278087
0.125634
0.195813
-0.053092
0.005546
0.229436
-0.441584
-0.019665
-0.061882
0.158067
0.138373
-0.343457
0.504491
0.055969
0.114011
0.058658
0.100172
0.284714
0.409506
0.035822
-0.154808
0.380669
0.009653
0.106903
0.157310
0.502020
-0.511240
0.280278
-0.330928
-0.008786
0.370225
-0.055331
-0.053420
-0.185172
0.089332
0.141832
-0.045953
0.114814
-0.105300
0.418086
-0.047164
0.259374
0.374117
-0.364522
0.099744
0.005903
0.041069
-0.305960
-0.131366
-0.285733
-0.154059
-0.255469
-0.143805
-0.192939
-0.334732
-0.063852
-0.074619
-0.519571
0.277746
-0.134474
-0.660087
-0.221493
-0.049161
-0.320488
0.152442
-0.021285
-0.281325
-0.214189
0.141409
0.046680
0.053971
-0.037634
-0.074328
-0.192862
0.394018
0.255397
0.053151
-0.503889
-0.026723
-0.096744
0.426342
0.071287
-0.254404
0.109167
0.132422
0.007306
-0.292325
-0.502070
-0.161099
0.355944
0.063209
-0.281829
-0.305514
0.105088
0.023448
-0.121940
-0.291277
0.045594
0.293040
0.274108
0.265159
0.030384
-0.052361
-0.050518
0.432067
-0.102170
-0.296612
0.323585
0.280492
0.009105
-0.203737
0.165245
0.265988
0.339939
0.272502
-0.153353
-0.312413
-0.238800
-0.013828
0.579371
-0.109857
0.023735
-0.121668
0.182251
0.152925
-0.392204
-0.107892
0.236724
-0.253823
-0.145248
-0.150854
0.052985
-0.587270
0.485847
-0.445523
-0.412587
0.715662
-0.311372
0.488562
0.008266
-0.153666
0.112524
0.105992
0.230415
-0.034750
0.190097
0.044884
-0.258156
-0.355104
0.442578
-0.010865
-0.627125
0.288103
0.182131
0.140349
-0.133313
0.298636
0.003159
0.368539
0.341115
0.205074
-0.052271
-0.563126
-0.001730
0.565613
-0.037267
-0.080761
0.032395
-0.198573
0.068985
-0.180776
-0.319400
0.057100
-0.079595
-0.378058
-0.006234
0.336986
-0.316437
0.354184
-0.192152
-0.488105
0.208173
0.086166
0.094094
-0.134745
0.046511
-0.195840
-0.123536
0.296497
-0.251909
-0.428706
0.178917
0.129038
-0.040473
-0.435823
-0.198956
-0.282365
-0.334206
0.001739
-0.157354
-0.313928
-0.284814
0.506417
-0.125689
0.150712
-0.348925
-0.006119
0.169348
0.407580
0.000134
-0.533341
0.067512
-0.045080
-0.087852
0.268791
-0.030696
0.178716
-0.067022
-0.149780
0.058217
0.140767
-0.001546
-0.303643
-0.262128
-0.483329
-0.158852
0.000297
-0.449815
0.060111
-0.016898
-0.154040
-0.546860
0.446122
0.097358
-0.145505
-0.209015
-0.020835
0.071383
-0.227130
-0.069715
0.479016
0.407520
0.151081
0.085195
0.213556
-0.557943
-0.193019
0.400787
0.023929
0.204873
-0.136927
0.315717
0.083009
0.000306
0.115797
0.001285
0.334505
-0.618713
-0.016102
0.010950
-0.234671
-0.301588
-0.072674
-0.198927
0.468460
0.067703
0.337816
0.254014
0.071536
0.112822
0.321368
0.220925
-0.030862
-0.044281
0.348228
0.143343
-0.006026
0.527878
-0.146258
-0.299200
0.390136
0.092193
-0.269251
0.081755
-0.114583
0.083501
0.009151
0.019861
-0.049081
0.006780
-0.278309
-0.272568
0.279265
0.159102
0.098715
-0.097610
0.032667
0.086523
0.326795
-0.614072
-0.208448
-0.224903
-0.178112
-0.601967
0.241407
-0.551275
0.143573
0.241234
-0.041129
0.056223
0.048326
-0.114968
-0.370299
0.050635
0.323706
-0.251100
-0.562783
-0.072332
-0.450796
0.728671
0.039264
-0.335965
-0.278207
0.483827
-0.256061
-0.234593
0.334084
-0.360871
-0.326563
0.070488
-0.004079
0.023193
-0.213337
-0.452747
0.115750
0.788608
0.243531
-0.159275
0.150446
-0.232434
0.109902
0.399754
-0.420330
-0.050223
0.275179
0.105491
0.219975
0.287785
0.239458
0.252014
0.278267
-0.222242
0.107458
-0.530717
0.299744
-0.123950
-0.196836
-0.066110
0.420956
0.105989
0.383204
0.261614
-0.668702
-0.073716
-0.030455
-0.135370
-0.193452
0.175961
-0.193782
0.560272
0.227765
-0.103039
-0.147831
0.034211
-0.345509
0.673896
0.162454
0.202819
-0.232718
-0.130704
-0.107404
-0.193130
0.058587
-0.052387
-0.153163
0.144046
0.024981
0.162058
-0.362061
0.136813
0.006713
-0.264513
0.598395
0.079142
0.259366
0.176291
-0.151100
0.024303
0.396386
-0.159767
0.245715
0.514949
0.303964
-0.062657
0.113487
0.312552
-0.247625
-0.550754
-0.096680
-0.253105
-0.185017
-0.195647
0.177099
0.135276
0.268219
-0.039033
0.358662
0.238186
-0.598006
0.066928
-0.003163
-0.078846
0.315949
-0.141488
-0.229450
0.019837
0.403014
-0.464068
-0.176545
0.072267
-0.043366
0.059358
0.099374
0.133024
0.744094
0.461443
-0.710526
0.108016
0.278634
0.345291
-0.329483
0.391661
0.138244
0.078453
-0.264287
0.242688
0.132974
0.238909
-0.071371
0.413568
-0.048237
0.100112
0.191581
-0.086527
0.363258
-0.386600
-0.183981
0.158518
-0.699332
0.311683
0.320033
-0.291027
-0.191674
0.026115
-0.486468
0.056116
0.038668
0.023785
-0.060827
0.289112
-0.058915
-0.163813
0.283506
-0.069224
0.046688
-0.623208
0.071092
0.649693
0.416295
-0.196750
0.031154
-0.112283
0.145172
-0.220596
-0.158213
0.188316
0.435310
-0.160081
-0.111867
0.150378
-0.048808
-0.140320
-0.320892
0.023336
-0.592903
0.220095
0.066598
0.047198
0.522928
-0.146542
-0.120184
0.119243
0.102965
0.000756
0.014400
0.701175
-0.065472
0.163750
-0.128621
-0.010208
0.071775
0.376098
0.094397
0.159418
-0.148667
0.291014
-0.489903
-0.465119
0.702567
-0.105677
0.172548
-0.013292
-0.013970
-0.032941
-0.308487
0.085056
-0.096413
-0.113343
0.047417
0.034125
-0.243040
0.567534
0.381356
0.054686
-0.248416
0.080474
-0.436151
-0.216144
0.103811
0.047622
0.111088
0.005175
0.079948
-0.024744
-0.074627
-0.004790
-0.444434
-0.304721
-0.268204
-0.029975
0.057460
0.110957
-0.297362
0.149333
0.006990
-0.030121
0.144392
-0.038991
-0.355010
0.237157
-0.034613
-0.271937
0.375389
0.477755
-0.256701
0.246785
-0.401546
0.031973
-0.478652
0.051937
-0.147392
0.288903
-0.076680
0.150898
-0.209793
-0.060909
0.015362
-0.146109
0.135415
0.052870
-0.267380
0.365383
-0.239184
-0.022755
0.146075
-0.302340
0.091707
-0.054099
0.028352
0.217733
-0.430203
-0.158798
0.261141
0.155918
-0.259814
-0.006500
-0.451534
-0.049819
-0.123255
-0.180696
0.047426
-0.082934
-0.072388
0.345965
-0.489960
-0.468971
-0.042594
-0.253022
-0.190340
0.309401
-0.060976
-0.212515
-0.027734
0.314816
-0.307530
0.261037
-0.006150
-0.289833
0.524077
-0.122816
-0.133272
-0.157998
-0.127229
-0.321704
0.150438
-0.158700
-0.296776
0.047294
-0.245828
-0.130377
-0.174908
0.065638
-0.423075
0.208613
0.202407
0.171028
-0.175040
0.178358
0.171508
-0.317707
-0.081504
0.001210
-0.335278
-0.224051
-0.092892
0.160667
-0.230156
-0.155506
-0.059964
0.203806
-0.273310
0.264885
0.207006
0.030148
0.184967
-0.420093
-0.198086
0.025865
-0.010858
-0.022639
-0.064761
0.274380
0.132949
-0.004023
-0.220970
0.105075
-0.051325
0.365893
-0.009795
-0.000986
-0.076332
-0.067090
0.357473
0.079658
-0.206078
-0.194426
-0.119330
0.204179
-0.033966
0.356166
0.154875
0.162685
0.084489
-0.012376
-0.259571
-0.074475
-0.121292
0.098204
0.136645
0.090354
0.269625
-0.171187
0.198504
-0.246896
-0.146017
0.108472
0.096151
-0.330564
0.014401
-0.017785
-0.095244
0.372806
-0.158097
-0.098328
-0.110183
-0.002127
-0.112916
-0.290848
0.052354
-0.152428
-0.304594
0.157290
0.130925
-0.017694
-0.218627
-0.295564
0.116396
0.072074
-0.105744
0.046030
-0.379346
0.316770
-0.591921
-0.050951
0.088253
0.235463
0.028508
-0.376630
-0.089517
-0.188370
0.076819
0.254575
-0.096054
-0.123563
0.030997
0.218156
0.243386
0.095628
0.287685
-0.017338
0.073275
0.058291
0.038146
-0.064830
0.035338
0.188126
-0.320988
-0.126140
0.029922
-0.103742
-0.030492
-0.088875
0.156391
0.278935
0.062709
0.379713
-0.332308
-0.050226
-0.210993
-0.248260
0.373170
0.211754
0.196998
-0.018095
0.291126
0.142973
-0.162258
0.317247
-0.272883
-0.337372
0.085620
0.117389
-0.401771
-0.158959
0.448411
-0.149852
0.423188
0.184464
-0.257817
0.247987
0.431946
0.223812
0.339536
0.248597
0.117052
-0.102282
-0.020601
0.193636
-0.168162
0.026299
-0.598698
0.332713
0.290172
0.062883
-0.258542
0.192981
-0.228587
-0.318104
-0.207791
0.196992
-0.333484
-0.347935
0.106482
-0.310922
0.178750
0.157720
0.172466
0.401056
0.612130
-0.027214
-0.424365
0.077148
-0.137482
-0.080447
-0.028830
-0.172262
-0.232371
-0.031126
-0.151724
0.306769
0.060253
-0.114630
-0.291847
0.277742
0.133513
0.192155
0.022223
0.084050
0.226980
0.323474
0.680868
0.093247
-0.115229
-0.231481
-0.135699
0.085122
0.078018
0.361121
-0.038547
-0.094960
0.135035
0.598118
-0.628749
-0.203012
0.058112
0.057685
-0.165640
0.064296
-0.621947
-0.188843
0.063236
0.309005
0.296142
-0.293223
-0.082567
0.066251
-0.296582
0.117248
0.532267
-0.184564
-0.041080
0.249388
0.162554
-0.112992
-0.020437
-0.168130
-0.588941
0.345145
0.296439
0.436741
-0.297620
-0.126798
-0.249110
-0.007385
-0.389859
0.351778
0.507348
-0.026562
-0.066780
0.188594
-0.881943
0.042170
-0.053219
0.237667
-0.297621
0.269144
0.374485
0.197012
-0.455006
-0.186563
-0.091401
0.124975
0.193066
0.128456
-0.362044
0.291632
-0.211669
-0.183639
0.427008
-0.248439
0.251745
0.212348
0.137930
-0.159008
-0.538928
-0.262940
0.403741
0.242505
-0.261527
0.051928
-0.497651
0.291056
-0.086055
0.071979
-0.184078
-0.050676
-0.185013
-0.333397
0.145310
-0.140588
-0.023184
-0.470559
-0.119220
-0.062306
-0.470343
0.058399
0.063021
0.056917
-0.280592
0.028432
-0.275597
-0.033586
-0.045909
-0.324892
-0.048270
-0.503322
-0.009480
-0.505088
0.054960
0.243046
0.028203
0.119807
0.369691
0.422545
0.068705
0.322678
-0.213059
0.115539
0.056705
-0.370713
0.070880
0.855092
-0.110899
-0.040681
0.328043
0.350472
0.105452
0.546038
-0.270060
-0.286976
0.322258
0.145787
0.149835
-0.321619
-0.287005
0.618575
0.358324
0.029315
-0.208703
0.029301
-0.478534
0.135897
0.141305
-0.000406
0.060656
0.117501
-0.368571
-0.453291
-0.103895
0.508024
-0.472734
-0.098347
-0.274467
0.015702
0.613604
0.078898
-0.005639
0.033328
0.087009
-0.082826
-0.224144
0.010656
-0.477517
0.088386
-0.178434
-0.191231
0.239262
0.388073
0.145668
-0.197896
0.414375
-0.180438
-0.085564
0.041784
-0.235716
-0.152131
-0.089144
-0.068345
0.171146
0.084464
0.283695
-0.376120
0.000642
0.260272
0.065968
-0.052895
-0.355928
-0.023245
0.191666
-0.063563
-0.007195
-0.500342
-0.076223
-0.060951
-0.184276
0.087171
-0.026268
-0.034152
0.061354
-0.179460
0.102919
-0.142921
0.232407
-0.059449
0.118423
-0.084698
-0.199143
0.376687
-0.065205
0.122388
-0.385768
-0.162494
-0.464912
0.241981
0.123614
0.220287
0.082496
0.003540
-0.427030
-0.116026
-0.293617
-0.075033
-0.198472
-0.141929
0.251955
-0.527074
-0.086842
0.174276
-0.473257
-0.117731
-0.189222
-0.062135
0.261931
-0.216355
-0.145371
-0.129914
-0.035134
-0.322799
0.005906
0.480462
-0.022442
0.553515
-0.229860
0.218762
0.541316
-0.048076
-0.197910
0.411161
0.103654
0.166491
-0.175302
-0.214023
0.044862
0.281632
-0.022466
-0.327864
0.102098
-0.064394
-0.266376
0.684074
0.439907
0.039477
0.233498
0.137124
0.041969
-0.251708
-0.232848
0.236038
-0.362184
0.471675
0.715582
0.233131
0.622874
0.067439
-0.549879
-0.121312
-0.124236
0.499514
-0.050834
-0.285583
-0.070396
-0.067084
-0.024905
0.193693
-0.254288
-0.469765
0.235124
0.533537
0.056629
-0.177166
0.265671
0.026888
-0.100138
-0.006117
-0.412091
0.186033
0.137222
-0.411968
-0.335975
0.049822
-0.065540
0.060830
-0.217818
0.331949
-0.257229
0.449751
-0.143952
0.421170
-0.286396
-0.186388
-0.330481
-0.076621
0.018476
-0.188113
0.056329
0.602077
-0.139664
-0.027474
-0.335205
-0.238373
-0.285253
0.479030
-0.065742
0.468136
-0.167580
-0.153772
0.372441
-0.736677
0.366614
0.258969
0.117261
-0.193244
-0.142826
-0.167525
-0.495163
-0.026423
-0.027729
-0.128725
-0.135177
0.162240
-0.102954
0.524436
-0.298478
-0.065478
0.810899
0.308207
-0.348664
-0.108362
-0.028539
-0.333183
-0.035549
0.161304
0.081555
0.127399
-0.158180
0.649006
0.134950
0.171387
0.170926
0.528255
-0.073813
-0.171195
-0.387375
-0.120057
-0.051741
0.253586
0.188023
0.414331
-0.316480
-0.040250
-0.113706
0.166890
0.128015
0.052873
-0.068724
0.198527
-0.018759
-0.339191
0.051708
0.135923
-0.045850
-0.152674
0.108216
-0.057414
-0.192673
-0.177190
-0.011612
-0.039455
-0.141159
0.009480
-0.110597
0.242618
-0.165000
0.006757
-0.280681
-0.229399
-0.294394
0.091865
-0.465509
0.129179
0.015003
-0.055188
-0.269486
0.013186
0.366468
0.147822
-0.306983
-0.374812
-0.368654
-0.098459
-0.208510
0.330976
0.144052
0.158404
0.268898
-0.173326
-0.069101
0.444459
-0.023049
0.104391
-0.334826
-0.006888
0.366314
0.033141
-0.076116
0.050430
-0.266837
0.182757
0.503420
0.111370
0.049388
-0.301696
0.636332
-0.024063
0.043324
-0.755004
0.086560
0.062877
0.174592
-0.189039
0.065110
-0.065020
-0.239817
0.158069
0.033682
-0.741984
0.072806
0.312920
-0.283645
-0.137226
-0.225641
0.340910
-0.384779
-0.017047
0.275258
0.221086
-0.364911
0.078265
0.040184
0.156791
-0.346392
-0.062464
-0.125083
-0.424565
0.250025
0.063836
-0.029531
-0.033649
-0.413430
-0.070809
0.333143
-0.241380
-0.247314
-0.001999
-0.126623
0.240146
0.176946
0.346687
-0.003673
0.084150
-0.317627
0.111653
-0.237872
-0.103573
0.233964
0.175248
0.212984
0.068049
0.279744
-0.283103
0.055301
0.132404
-0.263619
0.225248
0.026023
-0.403465
0.486556
-0.030890
0.118601
0.755307
-0.499010
-0.057082
0.531723
0.078447
0.094683
0.136186
0.173243
-0.232966
-0.749207
-0.192031
0.482015
0.016777
0.487389
-0.054918
0.042707
-0.208719
0.183020
-0.051705
-0.184094
-0.246570
0.133346
0.019556
0.206210
0.173178
0.550555
-0.409570
-0.048335
0.277876
0.045887
-0.066649
0.135648
-0.169567
0.446276
0.336455
0.238790
0.105449
-0.240258
-0.018869
-0.063108
0.050539
0.044132
-0.272981
-0.074807
-0.275114
-0.079883
-0.524085
0.059272
0.044843
0.155940
-0.064094
0.078436
-0.016025
-0.255567
-0.070254
-0.006650
-0.322237
0.350830
0.272756
-0.042939
0.387580
0.157452
0.121849
-0.387136
-0.146479
-0.178506
-0.197513
-0.215162
-0.131958
-0.423533
-0.257429
-0.872549
-0.353942
0.103386
-0.117525
0.374263
0.548432
0.004081
-0.412620
0.417378
-0.048307
-0.108667
-0.055733
0.311952
0.174000
0.008502
0.025205
-0.447198
-0.026082
-0.259986
0.103747
-0.110500
-0.072240
0.067996
-0.010405
-0.043999
0.045299
0.341238
-0.406590
-0.054855
0.088723
0.418976
0.126296
-0.076983
-0.078958
-0.105718
0.443011
0.141473
0.111590
-0.241088
-0.113477
0.126078
-0.130564
0.091472
-0.158142
-0.237190
0.193678
-0.482005
-0.177060
-0.244119
-0.451718
-0.203563
0.352605
0.553041
0.369986
0.025197
-0.076714
-0.068363
-0.108521
-0.022096
-0.027257
-0.280617
-0.118715
0.125601
-0.046111
0.307507
-0.056134
0.047198
0.089961
-0.325910
-0.258254
0.126389
0.025288
-0.035434
-0.004549
-0.163438
0.096833
0.038739
0.393027
-0.074172
0.018010
-0.132533
0.535370
-0.373713
-0.055566
0.135576
-0.113166
0.238500
-0.000607
-0.071890
-0.117585
0.062107
-0.357020
0.015754
-0.097318
-0.548130
-0.073164
-0.272068
0.065257
0.365623
0.053679
-0.163557
0.132353
0.438483
-0.008209
-0.004783
-0.071695
0.145364
0.010692
-0.197805
-0.032501
0.267499
0.097576
-0.288260
-0.130161
0.008448
-0.140405
0.093794
-0.110030
-0.164723
0.357006
-0.172921
0.098492
0.202808
0.052933
-0.128108
0.614308
0.287457
-0.202257
-0.098161
0.036133
0.216348
0.091448
-0.197600
0.077635
-0.431119
-0.176729
-0.570061
0.042286
0.660118
0.020474
-0.310565
0.184068
-0.198132
0.620779
-0.309033
-0.388127
0.562389
-0.024386
0.019003
-0.223749
0.189096
0.052725
0.298728
0.201829
-0.456098
0.232536
-0.026201
0.170783
0.121904
-0.013223
0.025884
-0.328555
0.260008
-0.277184
0.294153
-0.256117
0.477680
0.209343
0.148589
0.398315
-0.103752
0.086808
-0.003702
-0.080816
0.191715
-0.002273
0.230307
0.100527
0.200018
-0.340501
-0.297143
0.016995
-0.099435
0.053023
-0.539253
-0.133681
0.319752
0.008476
-0.023648
0.048878
0.187507
0.282728
0.128810
0.556372
-0.191511
-0.077991
-0.339217
0.152790
0.517907
-0.208252
-0.161912
-0.199235
-0.006728
0.101655
0.672046
0.037702
0.130107
-0.252361
0.008928
-0.031237
0.347809
-0.090129
-0.055507
-0.252255
-0.126856
-0.144486
0.248302
0.198699
-0.448790
0.188312
0.228667
0.012665
0.182645
-0.003496
0.340100
0.046552
0.192922
-0.093814
-0.129833
0.084733
0.497158
-0.078855
-0.208861
0.308767
0.424647
-0.101525
0.040369
-0.001159
0.345490
-0.133409
0.473617
0.588698
0.090125
0.223843
-0.145989
0.454618
-0.068660
0.097491
-0.465665
0.123780
0.330397
-0.149062
-0.333690
0.426001
-0.251400
-0.106503
0.232821
0.242844
-0.210280
0.146399
0.158405
-0.143721
-0.025294
0.148608
0.016869
-0.371318
0.309979
0.309402
0.257369
0.066458
-0.122574
-0.125659
0.280351
-0.245880
0.082214
-0.011519
-0.048915
-0.135342
0.202462
0.566808
-0.031083
-0.033051
-0.369190
-0.011283
-0.062508
0.126107
0.146023
-0.043128
-0.046790
0.220359
0.375284
0.169150
0.274615
0.017949
0.726799
0.264311
-0.025344
0.109219
0.021584
-0.152140
0.040521
-0.197584
0.567382
0.013100
-0.604065
0.089559
-0.294658
0.149941
-0.457842
0.146203
-0.324456
-0.245183
0.233727
-0.260619
-0.525400
-0.228674
-0.131530
0.476317
-0.127770
-0.019330
0.278548
0.051808
0.049266
0.242806
-0.134394
-0.462954
0.026889
0.200803
0.290667
0.076635
0.030543
0.140781
0.044614
0.152705
-0.087211
-0.103111
-0.336210
0.299368
-0.013418
0.193003
0.005887
0.397579
-0.004782
0.428860
0.381005
-0.065937
-0.310054
0.074616
0.144024
-0.173264
0.130655
0.138529
0.128836
-0.166376
-0.089826
-0.338262
0.381816
-0.072289
-0.196003
-0.067337
-0.087560
-0.278598
0.146775
0.329599
0.331760
-0.165809
-0.139275
-0.009124
0.046153
-0.180970
-0.020631
-0.212829
-0.012639
0.037307
0.106068
0.065909
-0.021810
-0.076392
0.033998
-0.038168
-0.227104
0.269207
0.212801
-0.152312
0.149168
-0.150387
0.327635
-0.285433
-0.193844
-0.039768
-0.031009
-0.012500
-0.116165
-0.198954
-0.082406
-0.092406
0.324506
0.143053
0.284060
0.076871
0.095419
0.103522
-0.196993
-0.040675
0.087633
0.143499
0.240642
0.104917
0.249788
-0.001406
-0.275054
-0.230712
-0.138609
0.214342
0.004960
0.280536
-0.036782
-0.199697
0.157139
0.307593
0.232379
0.066892
-0.256581
0.147811
0.233652
-0.075989
0.105946
0.055767
0.197178
-0.138708
-0.098670
-0.251907
0.220811
-0.067474
0.058426
-0.049749
-0.027674
0.129373
0.069697
0.289144
-0.332344
-0.003867
0.082146
0.340539
-0.119434
-0.177245
-0.084460
-0.552806
-0.179035
-0.275335
-0.065223
0.025957
-0.014650
-0.206197
-0.294484
0.081996
-0.003126
-0.092866
0.132890
-0.059107
-0.004048
0.097470
0.046199
-0.055187
-0.034591
-0.254102
0.244725
-0.258260
-0.138200
-0.075579
0.072720
-0.155032
0.307317
0.129087
-0.532664
-0.550234
-0.024645
0.067788
0.127528
-0.053504
-0.072487
-0.156783
-0.481503
0.309643
-0.075043
0.125244
-0.179042
0.100920
-0.148366
0.276618
-0.096304
-0.016195
-0.113317
-0.486077
-0.013993
-0.047826
0.079502
-0.167567
-0.307204
0.196492
0.044553
-0.088692
-0.119710
0.248159
0.047901
0.246494
-0.010629
0.604157
0.328458
-0.387693
0.086264
0.091807
0.586165
0.340289
-0.450206
0.208362
0.253866
-0.368608
0.134270
0.080748
0.005788
-0.298466
0.247279
0.002214
-0.433132
-0.069907
-0.280982
0.026672
0.284321
-0.338722
0.059701
-0.263900
0.106453
-0.131320
-0.238027
0.256836
0.041764
0.502423
0.473589
0.191227
-0.268353
0.002380
0.321458
-0.308060
0.080122
0.139348
-0.302919
-0.183607
-0.245186
-0.068553
0.070526
-0.024408
0.439276
0.197959
-0.196197
0.300382
0.457354
0.247236
0.218591
0.191894
-0.534721
0.356969
0.120416
-0.486972
-0.076045
0.042236
-0.535622
-0.550274
0.285257
-0.237298
-0.062265
-0.140807
-0.226947
-0.134178
0.065798
-0.087891
-0.184904
0.201892
0.129985
0.181895
-0.258585
0.280995
-0.210372
-0.112937
0.548943
0.066231
-0.216709
-0.110866
0.217639
-0.206198
0.130164
-0.155770
-0.406529
-0.184087
-0.146837
-0.058417
-0.215814
-0.046260
-0.596632
-0.211205
-0.261357
0.213126
-0.002317
0.051590
-0.318813
0.261127
-0.029824
0.384741
-0.166688
-0.092662
0.084619
0.093029
0.025038
0.339966
-0.204129
-0.103930
0.150859
0.050709
0.091409
-0.048067
0.135440
0.003735
0.287857
-0.104856
-0.006147
0.156499
0.018114
-0.224809
-0.273557
-0.062057
0.054492
-0.437422
0.361820
0.013836
0.004930
-0.148357
0.053174
-0.319262
-0.021879
0.261181
0.358425
-0.029376
0.128568
0.261659
0.104653
-0.505896
0.360726
0.289277
-0.202206
0.049809
-0.367623
0.200420
-0.471022
0.005252
0.123683
-0.087488
0.527481
-0.108753
-0.123031
0.064652
0.432161
0.126984
0.218672
0.116029
-0.036108
-0.129099
-0.149915
-0.438383
-0.058943
0.253598
-0.185997
-0.370156
-0.009485
-0.261138
0.082977
0.140008
0.720866
-0.239824
0.440151
0.239404
-0.162711
-0.110783
-0.270283
0.088615
-0.111615
0.007192
0.333947
0.324287
0.093677
0.138479
0.602446
-0.780624
-0.206646
-0.190376
0.189738
0.107404
-0.168416
0.049956
-0.103990
0.106366
-0.370335
-0.219249
-0.041473
-0.114508
-0.047390
0.123950
-0.271532
-0.104672
0.140005
0.127925
0.392669
-0.355683
0.080065
-0.055411
-0.403740
-0.041749
0.493636
0.384228
0.074751
0.007772
0.562304
0.030144
-0.348717
0.001088
-0.150127
0.244250
0.049899
-0.258372
-0.176062
0.020763
0.024767
0.319471
0.122122
-0.051031
-0.200762
0.186402
0.097135
0.185144
0.451598
-0.238743
0.413035
-0.217445
0.244240
-0.005427
-0.100319
0.136899
-0.314935
-0.171945
0.060010
0.578888
0.069023
-0.113435
0.421556
0.453508
0.413835
0.348013
0.561157
0.044431
0.090609
0.319013
-0.378900
-0.018238
0.371333
-0.550827
-0.440297
0.059125
0.477271
0.371397
-0.529131
-0.312506
-0.237862
-0.145949
0.215513
0.005735
-0.494020
0.383570
-0.060180
-0.338079
0.046663
-0.253896
0.174843
0.198892
0.272697
-0.058350
-0.176383
0.145145
0.166906
0.290304
-0.363341
-0.219999
-0.156179
0.444045
-0.221131
-0.357486
-0.217323
-0.111033
-0.065446
0.056143
0.264606
-0.162568
-0.354259
0.013221
0.050056
-0.118559
0.507846
-0.030635
0.276887
-0.085499
0.061322
0.175447
0.066327
0.084267
-0.033233
-0.189093
0.235587
-0.099116
-0.270698
0.272878
-0.311652
-0.177240
-0.352163
0.187019
0.279716
-0.112642
-0.072562
0.196545
-0.641604
-0.207168
-0.192969
0.279983
0.257094
0.477364
0.008665
-0.020276
0.085492
0.262463
0.047073
-0.030946
-0.226793
0.020790
-0.301616
0.189546
-0.309875
0.044900
-0.187153
-0.218994
-0.475048
-0.167497
0.141887
0.135633
0.180527
-0.217573
0.214455
0.367138
0.030302
0.279502
0.142338
0.161688
0.121465
0.313025
-0.121255
-0.124100
-0.393869
-0.041163
-0.528488
0.090863
-0.128297
-0.120964
0.155931
0.073347
-0.147241
-0.191838
0.342295
-0.326535
0.422700
0.402236
0.262231
-0.033372
-0.116326
-0.481230
-0.047119
-0.628542
-0.159022
-0.349269
-0.212955
0.007584
0.231667
0.281039
0.039069
0.176004
-0.441783
0.126376
-0.397662
0.131447
-0.138737
-0.059528
-0.482285
-0.051599
0.905078
-0.052204
-0.267502
-0.021186
-0.332276
-0.461485
-0.119020
0.543827
0.175920
-0.596441
0.124905
0.080822
-0.437435
0.328740
-0.048509
-0.188883
-0.144645
-0.576857
0.106082
0.386691
-0.275100
-0.051986
-0.076604
0.273906
0.182857
-0.015015
-0.025615
-0.009163
0.373950
0.512795
0.248197
-0.369813
-0.100314
0.239577
-0.397183
0.011862
-0.881039
0.115088
0.351201
-0.054062
0.144462
0.231734
0.108311
0.171183
-0.014308
-0.208558
-0.066137
-0.297592
-0.110386
0.107669
0.306639
0.198355
0.135547
0.105088
-0.206551
0.133147
0.027296
0.091745
0.021550
0.102474
0.274515
0.359987
0.010364
0.060348
0.218573
-0.170606
-0.079245
0.537905
0.309007
0.056421
0.015691
-0.744098
0.219392
0.179636
-0.329172
0.036483
0.101481
0.231274
0.189511
0.312052
0.130955
-0.087029
-0.713928
0.082108
-0.353398
0.018582
0.033374
0.091018
-0.411800
0.189003
0.067814
0.604771
0.174923
0.616536
0.287171
0.062993
0.267161
0.481190
-0.152638
-0.427309
-0.307525
0.434721
0.728792
0.020221
0.064320
0.017684
0.212105
-0.014705
0.228652
0.262617
0.155183
0.229866
0.151874
0.207642
-0.299904
0.094683
0.048328
-0.922831
-0.047862
-0.692876
0.298176
0.036710
0.079027
-0.196250
-0.189966
0.191984
0.016736
-0.043916
-0.370406
-0.574569
0.310562
-0.463814
0.887973
0.410759
0.163011
-0.339226
-0.394354
0.191007
-0.605440
0.020158
0.394085
-0.586981
0.278607
-0.034694
0.277074
-0.528335
0.273079
0.137552
0.288402
-0.077229
-0.509002
-0.885201
0.202727
0.222068
0.315715
0.211669
-1.123646
-0.000445
0.160676
0.147454
0.437443
0.519572
0.491086
-0.411247
-0.017353
0.516386
0.166979
-0.893874
-0.043288
-0.049657
0.035284
0.126604
0.254274
0.534803
0.999585
-0.245757
0.125711
-0.649148
-0.549010
-0.184937
0.806583
0.588632
-0.112831
-0.088724
-0.238843
0.150754
0.053222
-0.089229
-0.223900
-0.308497
-0.033350
-0.611363
0.064319
-0.128477
-0.435856
0.303296
0.051902
-0.053670
-0.251426
0.345602
-0.266602
0.091081
-0.023837
0.242311
0.009667
-0.392821
-0.005681
0.159439
0.887656
0.202993
0.262558
0.149204
0.247168
-0.106813
0.971017
0.165768
-0.065484
-0.075588
0.088947
0.217428
-0.215103
-0.023847
-0.353082
0.137886
0.060356
-0.187620
-0.058177
0.069377
0.411346
-0.516328
-0.253352
-0.067780
0.285356
-0.101217
0.009211
0.167971
-0.076333
-0.159546
0.143295
0.386781
-0.594387
-0.049951
0.159670
0.050080
0.402684
0.094652
0.082231
0.024679
-0.084569
-0.085208
0.209086
0.124340
-0.395633
0.053297
0.241562
0.101146
-0.410884
0.017739
-0.295828
0.085651
0.191840
0.190993
0.283656
0.157307
0.133911
0.175161
-0.371899
-0.178027
0.106936
-0.103542
-0.161343
-0.009424
0.172222
0.537460
0.108129
-0.017186
0.094915
-0.169097
-0.004831
1.012596
-0.085597
0.063125
-0.039743
-0.357942
0.282929
-0.376613
-0.161754
-0.106799
0.150254
0.031192
0.090059
0.280601
0.115072
-0.095285
0.671047
-0.300628
-0.055415
-0.060404
-0.136813
0.022585
-0.017867
-0.174254
-0.054622
0.037892
0.423371
0.098738
0.167652
-0.353221
-0.243516
0.129329
0.275608
-0.066958
0.182471
-0.060828
0.019080
-0.469950
-0.165559
-0.025356
0.222483
-0.012497
0.058109
-0.307289
0.306508
-0.361952
-0.003283
-0.241542
0.018386
0.315582
0.184119
0.052055
-0.233092
0.060133
-0.325632
0.094308
0.063087
-0.295727
0.013441
0.039532
0.461338
0.361196
0.593941
-0.164877
0.105452
-0.034878
0.296704
-0.111207
-0.318595
-0.083360
0.088585
0.104109
-0.384669
-0.384084
-0.382461
-0.234621
-0.202756
0.235646
-0.295343
-0.752563
0.331172
0.159920
0.244815
-0.142159
-0.100781
-0.099982
-0.088557
0.163768
-0.412116
-0.370767
0.039925
-0.053557
0.056882
-0.012471
-0.133750
0.384503
-0.006104
-0.111151
0.059099
-0.002412
0.092393
-0.118737
-0.049677
-0.445417
-0.254879
0.477765
-0.014157
-0.575771
-0.290188
-0.166792
0.429172
0.300013
-0.245763
0.768955
-0.025325
-0.343141
0.028883
-0.284875
0.476681
0.133544
-0.188165
-0.016698
-0.119293
-0.152624
0.059093
-0.078830
-0.309533
-0.559765
0.091150
0.834248
0.111125
0.470982
0.086154
-0.438604
0.250466
0.215908
-0.028730
-0.028795
0.122692
0.040551
-0.403325
-0.438797
-0.347296
-0.191661
0.146412
0.137066
0.118696
0.055797
-0.279851
-0.112226
0.047190
0.318852
0.252669
0.250587
0.363351
0.399465
-0.033190
-0.001303
0.118687
0.097887
0.156831
0.118642
-0.176852
-0.245711
0.049891
-0.579496
-0.419498
-0.095661
0.103752
-0.132301
-0.026854
0.089253
0.048296
-0.091724
0.176126
0.359380
-0.181418
-0.020870
0.203733
0.003530
0.118577
-0.186426
-0.388628
0.043153
0.013453
-0.187820
0.090427
-0.089138
0.166632
0.335360
0.066603
0.291114
0.342277
0.342178
0.330323
0.200462
0.010541
-0.064580
-0.362100
-0.492109
-0.222735
0.186762
-0.106323
0.106194
-0.383376
-0.352020
-0.176317
-0.273095
0.126601
0.024152
-0.010137
0.483655
0.215257
0.158647
-0.105130
-0.152611
-0.136957
-0.166166
0.279591
0.033779
-0.125025
0.064008
0.034819
0.204166
-0.091708
-0.399320
-0.475891
-0.122794
-0.419458
-0.211059
-0.216616
-0.061379
-0.123346
-0.168954
0.147400
-0.747907
0.106778
0.772659
-0.511831
0.260436
0.269242
0.351356
0.122989
-0.038311
0.313163
-0.059297
0.215287
-0.389421
0.158155
0.321124
-0.412596
-0.126837
-0.303219
-0.214579
-0.336290
0.053695
-0.214639
-0.134562
0.073583
-0.032150
-0.071434
-0.346477
0.068818
0.369165
0.102818
-0.129198
0.166266
0.127725
-0.380079
0.099014
-0.715516
0.282168
0.051033
-0.094995
0.369627
0.175231
-0.208832
0.029646
0.055018
-0.098024
-0.346286
-0.264151
0.120412
0.346545
-0.119200
0.280013
-0.020018
0.007026
0.052574
0.399349
-0.181001
0.071835
-0.124859
0.036238
-0.134130
-0.181627
0.616949
-0.151279
-0.024473
0.196626
-0.167936
-0.436254
0.187213
-0.014232
0.002824
0.010912
-0.167518
0.048701
0.486557
0.003414
0.278710
0.007425
0.319934
-0.002938
0.172336
-0.321075
0.038687
-0.295806
-0.029531
0.021281
0.032317
-0.075046
-0.395678
-0.051027
0.479468
0.253147
0.050751
-0.125454
-0.108808
0.078224
-0.333681
0.072377
0.344744
-0.379620
0.605574
0.294034
0.302004
0.114214
0.018666
-0.337246
-0.083365
0.144175
0.525712
0.416543
-0.336134
-0.070122
-0.354153
0.352000
0.272157
0.143093
-0.059233
0.076240
-0.370049
0.391452
-0.212874
0.067600
0.151016
0.253754
-0.182125
-0.049997
-0.045484
0.394039
-0.280850
0.093432
-0.141230
-0.068152
-0.228566
0.125796
0.015257
-0.374161
0.009229
-0.368894
0.008692
-0.200407
-0.192757
0.080211
0.410050
-0.454457
0.380433
-0.116892
0.066826
0.043536
-0.432675
0.337295
0.183411
0.066193
0.086118
0.412789
-0.526058
0.115561
0.454130
-0.442028
0.277698
0.352641
0.391961
-0.035555
-0.427729
0.175100
0.042814
-0.078601
-0.093373
0.140107
-0.132203
-0.134571
0.317278
0.258203
0.214716
0.256146
-0.071088
0.288360
-0.377598
-0.051579
-0.155786
0.032688
-0.671383
-0.627187
0.003337
-0.246666
-0.070930
0.046761
0.304837
0.585058
-0.022636
0.426241
-0.253835
0.640004
0.024712
0.396783
-0.081610
-0.189738
0.475488
-0.090229
-0.532393
-0.121034
0.359989
-0.112426
0.114501
-0.083280
0.083730
0.434128
0.006689
0.228908
0.230142
-0.180929
0.057273
-0.651209
0.645005
-0.203422
0.366003
-0.052417
-0.067939
-0.117305
0.331717
0.020258
-0.373602
-0.073132
0.158925
0.270270
-0.177499
-0.133586
-0.308155
-0.149989
0.444465
0.107334
-0.024690
0.009418
-0.086221
-0.338087
-0.236868
-0.203740
0.073395
0.358499
-0.157822
0.084879
-0.293704
0.334389
0.273588
0.003541
-0.190166
0.159718
-0.409104
0.317117
0.064245
0.415542
0.084470
0.414903
-0.320843
0.178952
0.146526
0.326165
-0.128974
0.252524
0.153044
0.225029
-0.088959
0.370883
0.292677
-0.062638
0.391427
-0.059735
0.157206
0.104121
0.231620
0.068894
0.038849
0.042960
0.331343
-0.156252
-0.231309
-0.421971
-0.240656
-0.009341
0.685051
0.107252
0.210488
0.182757
0.054510
-0.065453
0.049341
-0.104044
0.141101
0.116764
-0.492882
0.054905
-0.235836
0.161337
-0.300207
0.085153
0.209434
0.551629
0.097037
-0.214228
0.392940
0.453742
0.161950
0.229968
-0.130533
-0.172593
-0.030399
0.265384
-0.055231
0.139105
-0.433816
-0.157590
-0.172136
-0.102872
0.164655
0.036140
-0.271179
0.422816
0.110192
0.466235
0.096957
0.042065
-0.252503
0.166231
-0.269506
0.277419
-0.286460
0.060178
-0.188779
-0.033798
0.006445
0.193333
-0.149174
0.014990
-0.087607
0.361181
0.050755
0.016114
0.394713
0.078224
-0.007889
-0.226071
-0.068480
0.315743
0.124214
0.194574
0.233042
-0.160220
0.298214
0.051688
0.121828
0.137083
-0.226565
0.013125
0.280167
0.180526
-0.089548
-0.261050
0.284234
-0.137745
0.003089
-0.573370
0.070734
0.145577
0.256380
0.356743
0.086445
-0.109340
0.292394
0.052014
-0.647239
-0.159957
-0.096347
-0.132531
-0.129954
0.374131
0.080718
0.179289
0.138255
0.142157
-0.029693
0.111246
-0.362597
0.549761
0.050500
0.153592
-0.137256
0.100132
0.077830
0.101463
-0.218072
0.256573
0.250558
-0.162011
0.379981
-0.124711
0.062887
-0.117431
-0.104829
-0.136893
0.118469
0.407768
0.221838
0.514594
-0.187579
-0.063851
-0.035502
-0.077685
0.435032
0.355794
0.348625
0.133271
-0.200284
-0.139649
-0.039596
0.098533
0.438779
-0.157593
-0.265906
0.415073
-0.473042
0.124350
-0.154586
-0.231837
0.237764
0.217030
-0.143538
-0.038746
-0.256673
-0.163818
-0.181543
-0.243138
0.220320
-0.173155
-0.112862
0.443460
0.060452
0.346867
-0.441120
0.273334
0.084028
0.015763
0.003742
0.184813
-0.217311
0.294990
-0.012615
0.589393
-0.233275
0.354049
-0.225364
-0.123954
-0.010092
0.058448
0.247647
-0.291874
0.375770
0.031274
-0.458448
0.084078
-0.137153
0.379997
0.128040
-0.029402
0.156477
-0.135588
-0.114320
0.043053
-0.274361
-0.216733
-0.253857
0.009081
0.317184
0.049145
-0.093968
0.039269
-0.285317
-0.088883
-0.204597
0.162678
0.031699
0.223402
0.149014
0.266347
0.061932
-0.066122
0.550749
0.241012
0.294995
0.083935
-0.017132
0.138502
-0.124747
0.441607
-0.112720
0.296556
-0.145962
-0.017320
0.159787
0.115216
-0.015758
0.186329
0.196838
0.134098
0.055269
-0.333288
-0.141081
-0.068131
0.211936
0.124170
-0.375801
-0.307232
-0.185002
0.125647
-0.059450
-0.054849
0.537939
-0.179857
-0.215776
0.121848
-0.392523
0.221914
0.139674
0.173775
-0.271782
0.054705
-0.117313
-0.304251
0.144274
-0.382303
0.069601
-0.075798
0.316164
-0.012914
0.083425
-0.163069
-0.569356
0.126763
0.191127
-0.102732
0.182463
0.357882
-0.041478
-0.177168
-0.089281
0.015620
-0.017069
0.084081
0.131344
-0.439586
0.131948
-0.127313
-0.237214
-0.291632
-0.236407
0.106452
-0.213778
-0.102058
0.503481
0.097468
0.270443
0.023887
-0.323088
-0.087863
-0.248889
-0.165189
0.015186
0.054072
-0.042677
0.010465
0.030710
-0.446593
0.167435
-0.416171
-0.098924
-0.034444
0.145185
-0.102309
-0.156576
0.146263
0.154166
0.182216
-0.227531
-0.163683
0.372524
0.064407
0.323693
-0.432678
-0.032155
-0.105215
-0.339940
0.227453
-0.224776
-0.551287
0.022288
0.215433
-0.134305
0.146946
-0.022520
-0.318694
-0.243342
0.249509
0.360907
0.074536
-0.166297
0.149564
0.376745
-0.021119
-0.022848
-0.238880
-0.058998
0.380416
-0.093154
-0.103366
-0.009672
0.196152
0.073641
0.130589
0.164054
-0.233089
0.195163
0.193671
0.142424
-0.439990
0.505073
-0.028417
0.645316
-0.235962
0.220368
-0.521123
-0.084449
0.317215
0.419713
-0.081236
0.472670
-0.082766
-0.441549
-0.246731
-0.595597
-0.367986
-0.118013
-0.323115
0.573555
-0.018388
0.011988
0.635743
-0.249396
0.159367
-0.323010
-0.041109
-0.327487
-0.096969
-0.233093
0.138456
0.215558
0.196887
-0.140625
-0.140651
-0.443956
-0.165795
0.048816
-0.076094
0.267684
-0.076571
-0.086794
-0.153967
-0.309980
0.238365
0.133159
-0.145127
0.166398
1.010138
-0.079136
0.012592
-0.061769
0.198955
0.201403
-0.085583
-0.062313
0.027773
-0.049117
-0.200475
0.348223
-0.067301
-0.214265
0.288412
0.167691
0.242880
0.110490
0.003696
-0.205037
0.316028
0.013188
-0.276115
-0.181916
0.332369
-0.488580
0.084752
-0.190420
-0.330835
-0.098044
-0.174593
-0.329461
0.039618
0.261544
-0.411627
0.268367
0.038626
0.539121
-0.178037
0.168211
0.219849
-0.400065
0.118156
0.591245
0.185834
-0.185688
0.211159
-0.007674
0.024711
0.310904
0.632258
-0.180440
0.013116
-0.416671
-0.270794
-0.074280
0.153805
0.190300
-0.014817
0.101843
0.215361
0.130999
-0.058899
-0.029014
0.266171
0.160288
-0.513620
0.034314
-0.128649
0.183549
0.219175
0.337818
0.136655
0.093209
-0.042377
-0.335661
0.443135
0.410199
0.392742
-0.119603
0.022931
-0.155955
0.304896
0.089253
0.085339
0.286685
-0.008964
0.305457
0.283637
-0.237501
-0.116832
-0.089506
0.101337
0.235681
-0.028574
-0.029559
-0.027041
0.103800
0.052300
-0.173246
0.172003
-0.114021
-0.084433
-0.464119
0.336825
-0.109323
0.123556
0.404519
0.275794
0.389749
0.015690
0.279066
0.383348
-0.265607
0.127312
0.259945
0.090508
0.126305
0.155260
-0.318101
-0.322059
-0.280890
0.115417
-0.100657
-0.162168
0.521701
0.039518
0.168162
-0.202918
-0.770918
-0.140148
-0.135331
-0.135421
-0.016965
-0.206295
0.004064
-0.131945
-0.132141
0.160084
-0.298330
-0.017108
-0.318326
-0.313517
-0.230162
-0.211605
-0.373984
0.108384
-0.068060
0.070073
-0.392644
0.378281
-0.087119
0.443880
-0.277227
0.093645
0.420887
0.073491
-0.054784
0.584076
0.141469
0.943895
0.105211
-0.134632
0.225094
-0.437997
-0.162679
-0.049821
0.018216
-0.342064
0.230489
-0.033002
0.370990
-0.037233
-0.018463
0.023776
-0.285772
-0.188746
0.005041
-0.156428
0.143451
-0.212155
-0.133429
0.765153
-0.466269
0.021949
0.081601
0.423224
-0.097084
-0.057523
-0.010237
-0.022152
-0.261509
0.332309
0.525308
0.001949
0.056725
0.047238
0.197494
0.006721
0.129207
0.146196
-0.133228
0.113912
-0.055205
0.297839
0.348368
-0.268393
0.238049
-0.143722
0.733236
-0.082777
0.797435
-0.328503
-0.143160
-0.068468
0.211992
-0.402573
0.349399
-0.563030
0.303608
-0.127750
0.011692
-0.154410
-0.353881
-0.450186
-0.249555
-0.339832
0.096827
0.129508
0.081760
0.116114
0.064207
0.045115
0.288122
-0.238757
-0.321306
0.213098
-0.027960
0.242144
0.209612
-0.219506
0.091491
0.241103
0.004654
0.047744
0.158407
-0.148068
0.262822
-0.018738
-0.348483
-0.034294
-0.113946
-0.272829
0.568250
0.456326
-0.090546
0.013755
-0.275046
0.385888
0.078866
-0.238775
0.178124
0.074379
0.298069
-0.053690
0.103588
-0.299644
0.132419
0.317278
-0.471587
0.000269
0.039045
-0.159907
0.022193
-0.099775
-0.163887
-0.401234
-0.369872
-0.020329
0.030754
0.182047
-0.330494
0.117124
-0.204317
-0.141487
0.340653
-0.220214
0.029396
-0.256374
0.152468
-0.757096
0.173593
0.035127
0.088956
-0.162764
0.406263
-0.046817
-0.068180
0.302336
0.512367
0.230126
0.104072
0.211415
-0.103964
0.130852
-0.091855
0.133497
-0.037229
-0.033446
0.453603
0.060679
0.265585
0.046867
-0.071890
0.108567
0.213646
0.214647
0.294311
0.012492
0.016160
0.383033
0.322639
0.234893
-0.235315
-0.182245
0.054263
0.355928
0.050294
-0.177557
-0.117743
0.000451
0.074152
0.005822
-0.408549
-0.254317
0.143318
-0.035964
-0.188005
0.166054
0.055876
0.071698
-0.209782
-0.117072
0.068906
-0.093567
-0.046718
0.257223
0.115699
0.198239
0.151072
0.318746
-0.083939
-0.143672
-0.249327
0.019771
0.188327
-0.243470
-0.579610
-0.360713
0.091216
0.045298
-0.159248
0.623745
-0.070221
-0.219014
-0.117232
-0.290067
0.202364
0.386107
-0.082608
0.131279
-0.242169
-0.260654
-0.107593
-0.071025
-0.001649
0.190922
-0.405147
0.279712
-0.203214
0.259201
-0.074865
-0.010864
0.050891
0.025510
-0.051625
0.075496
0.458210
-0.366399
-0.063618
0.087108
-0.168458
0.103696
0.006976
0.345776
0.094997
0.499640
-0.083424
-0.250012
-0.160297
-0.189741
-0.336610
0.404324
0.575224
0.327751
0.467138
0.103957
-0.236785
0.127476
0.011568
0.348807
-0.042359
0.052073
0.232400
-0.078704
-0.097591
0.072023
-0.236183
-0.188610
-0.217008
0.054801
-0.034644
-0.046021
0.829301
-0.201780
-0.465474
-0.342313
0.300969
-0.373242
0.182748
-0.089894
0.366496
0.381841
0.354853
0.412771
-0.082785
-0.118275
-0.137099
-0.421186
0.219412
0.059016
0.043286
-0.107891
0.046053
0.193098
0.855070
0.088754
0.190021
-0.423768
0.190454
0.024149
0.001271
0.213296
-0.227174
0.266832
0.251858
0.126269
0.252214
0.248887
0.158193
-0.129280
-0.103620
0.027715
-0.007399
0.313220
-0.038907
0.152876
-0.205184
0.405477
0.832885
1.226273
-0.370512
0.143374
-1.274780
-0.024946
0.162557
0.116736
-0.156613
0.215533
0.140821
0.302055
0.054285
-0.204677
-0.019598
-0.003645
0.037713
0.198062
0.060704
0.318390
-0.155296
0.300803
0.888212
-0.007103
0.096388
-0.166029
0.444646
0.152751
-0.054090
-0.164742
0.481961
-0.085639
0.003065
-0.019727
-0.373276
0.149729
0.122406
-0.139284
0.278943
0.153567
-0.169671
-0.355035
-0.031258
0.248710
0.135022
-0.127593
-0.267618
-0.042716
0.188745
0.161190
-0.071376
0.526005
-0.071284
0.066270
0.213747
-0.220170
0.350707
-0.184533
-0.121966
0.071908
0.155463
-0.184474
-0.126444
0.358437
0.176807
0.270282
-0.016260
-0.186992
-0.184594
0.179859
-0.332034
0.007301
0.071510
-0.085238
0.128655
0.102001
-0.131100
0.198374
-0.321509
-0.332809
0.246053
0.295378
-0.003156
0.120521
0.391185
-0.233603
-0.056587
0.036495
0.098350
0.095764
-0.504301
0.167436
0.384954
-0.336771
-0.165065
-0.067449
-0.360776
0.270724
-0.380216
-0.029020
-0.068715
0.407854
0.520291
-0.199220
0.199206
0.002499
0.079381
0.288820
0.276067
0.247936
0.222519
0.143239
-0.386737
-0.689112
0.435899
-0.027277
0.058586
0.152407
0.397278
0.482530
0.168004
-0.196623
0.013250
0.503898
0.240025
-0.064531
-0.047203
0.013801
-0.042469
-0.249483
0.120579
0.128530
-0.126904
-0.252661
-0.034260
-0.013026
0.202738
0.159121
-0.468025
-0.144781
0.327807
-0.564363
-0.059280
-0.119140
-0.049847
0.225831
0.247936
-0.199830
0.355184
-0.272768
0.392953
0.153057
-0.573675
-0.088115
-0.117881
0.090678
0.021736
-0.338349
-0.069402
0.045153
0.282212
-0.171614
0.234166
0.056245
-0.127097
-0.025289
0.158983
-0.226301
0.284217
0.017720
-0.269424
0.086961
0.476478
0.140920
0.338012
0.588504
0.027405
-0.368018
-0.285293
0.104294
-0.153329
-0.319260
0.156601
0.167135
-0.120507
0.131850
0.402327
0.210754
0.641013
-0.207145
-0.200312
0.358811
0.248343
-0.001892
0.183772
0.230273
-0.024077
0.110835
-0.491186
0.168274
0.361583
-0.569805
-0.166248
0.086541
0.516123
-0.149727
-0.310011
0.321503
-0.113179
0.209520
0.025194
-0.317843
-0.388121
-0.086069
-0.197635
-0.175793
-0.341652
-0.120592
-0.165934
-0.111768
0.637692
0.117356
0.074067
0.188673
-0.140782
-0.571673
-0.474203
-0.383327
0.072151
0.061120
-0.283252
0.101767
-0.021682
0.454873
-0.306620
-0.776842
0.018027
-0.627563
-0.412484
-0.087562
-0.399016
-0.098280
-0.680578
-0.058011
0.655894
-0.128599
-0.690684
-0.057904
-0.141219
0.373784
-0.108141
0.340578
-0.482503
-0.731803
-0.310858
-0.098308
-0.021967
0.340819
-0.874745
-0.031106
-0.075000
0.198842
-0.311003
-0.058635
-0.264840
0.353752
0.081309
0.359637
-0.564919
0.190068
0.518534
-0.357074
0.081542
0.785233
0.168080
0.016090
-0.160639
0.169625
-0.401624
-0.348980
-0.100219
0.121661
-0.106926
0.239426
0.264602
0.319248
-0.499158
-0.201619
0.060427
0.614045
-0.815366
-0.284310
0.323443
-0.215474
-0.332007
-0.273986
-0.505775
-0.175798
-0.277558
0.282040
0.469927
-0.753009
0.140744
-0.189680
-0.307751
-0.288066
-0.211232
0.228543
-0.159719
0.151173
-0.335702
-0.984134
-0.032975
0.012778
-0.499408
0.012980
0.220997
-0.049946
-0.278312
-0.078118
0.176802
0.208214
-0.512825
0.107296
0.240251
-0.733021
0.455683
-0.098920
-0.212158
0.367205
-0.137398
-0.100453
-0.104071
-0.069670
-0.033509
0.099154
-0.144511
0.002555
0.130475
0.057723
-0.281663
0.234671
0.152514
-0.143442
0.040007
-0.081283
0.336766
-0.375165
0.048336
-0.025490
-0.193972
-0.427093
-0.177332
-0.866838
0.411067
0.051394
-0.477031
0.146583
-0.031196
0.205142
0.337564
0.393931
-0.015704
0.213816
0.127033
0.087884
0.148551
0.003876
0.232391
0.387933
0.076639
0.158003
0.607783
-0.120159
0.091922
-0.222797
-0.967793
0.071015
0.144005
0.275492
0.040685
0.224114
-0.046018
0.085031
0.162274
-0.083093
-0.133326
-0.265606
0.143873
-0.014090
-0.358585
0.070200
0.433656
-0.035954
0.157469
0.279517
0.210947
0.010098
-0.446238
0.153280
-0.414526
-0.285369
0.174662
0.573602
0.021444
0.075021
0.033366
0.175384
0.486037
-0.281032
0.464246
-0.164829
-0.041936
-0.168086
-0.161164
0.214585
-0.076255
-0.403726
0.179069
-0.287704
-0.165156
0.016143
0.244591
0.347475
-0.631630
0.372565
-0.181240
-0.125056
0.012322
0.121656
-0.071448
-0.310459
0.039746
0.217346
-0.353698
0.058716
-0.248384
0.152987
-0.344374
-0.057290
-0.262146
-0.052232
-0.298213
0.660641
-0.182152
-0.092136
0.270023
0.288207
0.008116
0.352999
0.047920
0.092682
0.407059
-0.125119
0.192644
0.174930
-0.263454
0.054177
-0.274550
-0.044116
-0.502246
0.254049
0.050970
0.199289
-0.219155
-0.290109
-0.102988
0.073200
0.469461
0.079135
-0.313420
0.178088
0.067267
0.408123
-0.128485
0.064154
-0.283983
-0.203369
-0.128527
0.626433
0.299277
0.164487
-0.404726
0.109357
-0.332722
0.153517
-0.032374
0.061798
-0.373597
-0.461430
-0.144197
-0.248990
-0.565604
0.332831
-0.139858
-0.359953
-0.366169
0.195931
0.112854
-0.295262
-0.195633
-0.102013
0.086623
0.466641
0.635818
0.217937
-0.672627
-0.181834
-0.249939
-0.125012
-0.179785
0.011906
-0.195209
0.316172
0.368094
0.399978
-0.165332
0.139663
0.111070
0.143476
0.023789
0.490423
0.091399
-0.107582
-0.102392
-0.035336
0.133087
0.194230
-0.210343
0.073743
-0.105152
-0.290175
-0.099130
0.350262
0.207593
0.305710
-0.257214
0.264792
-0.040526
0.081002
-0.161814
-0.423817
0.102342
-0.166745
0.184532
0.069437
-0.102165
0.087503
0.003994
0.306037
-0.295054
-0.035635
-0.177229
-0.442371
0.165840
-0.085500
-0.512830
-0.379661
0.145499
-0.046931
-0.487309
0.189297
-0.041985
-0.227555
-0.047066
0.287648
-0.108803
0.059715
-0.043339
-0.126806
0.179152
-0.064743
-0.013384
0.082986
0.220417
-0.053787
0.544850
0.081024
-0.023450
0.454260
-0.058592
0.263263
0.088644
-0.066505
0.146240
-0.281619
0.701234
0.171817
0.081194
-0.148148
-0.643564
0.163826
0.064599
0.143938
0.370009
-0.080198
0.131840
-0.134537
0.215708
0.068051
0.233343
-0.420899
-0.225066
-0.062019
-0.059336
0.334238
0.646995
0.105348
-0.164346
0.035881
-0.044790
0.124397
0.577888
0.096107
0.140739
0.096433
-0.046783
0.360330
0.031813
-0.026540
-0.083311
-0.234779
0.431240
0.131721
-0.133798
0.292845
-0.054122
0.277926
-0.041280
0.053859
0.181884
-0.243979
-0.410794
-0.419450
-0.001138
-0.255895
0.571040
0.265455
0.423095
-0.396857
0.010595
0.136810
0.191095
-0.158667
-0.099246
-0.312155
0.134944
-0.535070
-0.338976
-0.191698
-0.348954
-0.221717
0.030747
-0.058957
0.094267
0.454127
0.152987
0.677087
0.102663
0.175287
0.265636
-0.222145
-0.250752
-0.197112
-0.044412
0.059260
0.320114
-0.098465
-0.256476
0.249743
-0.013698
0.525696
-0.053444
0.031857
-0.060127
-0.084987
0.274727
-0.396419
-0.275541
-0.282727
0.314602
0.137929
0.176478
0.025208
0.161751
-0.089553
-0.013668
-0.219702
0.577525
-0.117547
0.065062
-0.135784
0.078878
-0.026988
0.240387
0.045745
-0.608081
0.007898
-0.392637
0.110787
-0.266515
-0.119694
0.175740
0.052564
-0.283900
-0.258055
-0.036168
-0.110312
-0.087710
0.372097
-0.171338
0.044245
0.009173
0.077129
-0.377326
-0.511089
0.270642
-0.032026
-0.185280
0.007517
-0.117832
-0.179873
-0.115627
-0.137106
-0.026215
0.439346
0.287055
-0.321328
0.028606
0.244996
0.146762
-0.143766
-0.364356
0.460462
0.115222
0.247266
0.110152
-0.134136
0.460709
0.056259
-0.059323
0.074681
0.619120
0.225614
0.048358
-0.568052
-0.313024
0.173460
0.075086
0.238961
-0.022241
-0.348151
-0.049869
0.222263
0.475731
0.076819
-0.073276
0.111567
0.063789
-0.039755
-0.470309
-0.015365
-0.093899
-0.458526
-0.076717
0.136754
0.432797
0.337797
0.078218
0.174928
0.076256
0.057469
-0.012121
0.438707
-0.062515
-0.305389
0.125153
0.002434
0.140007
0.012197
-0.056240
-0.161782
-0.427861
0.346400
-0.096760
0.032739
-0.238453
0.253389
0.064167
0.083960
0.180097
-0.160540
0.544996
-0.261673
0.127193
-0.168101
-0.546736
-0.033463
-0.021131
0.082309
-0.104839
-0.210373
-0.306507
-0.378615
0.011074
-0.258796
-0.273757
0.248332
0.529952
-0.455291
0.086946
-0.302786
-0.806163
-0.011566
-0.017365
0.033623
0.469212
-0.164286
0.146780
-0.128517
-0.043483
0.571830
0.147778
-0.066790
-0.225785
0.101203
-0.123295
-0.317285
-0.282540
0.399835
-0.151529
0.121833
-0.208205
0.594014
-0.149369
-0.090652
-0.121892
0.099991
0.136596
0.010479
0.146344
0.326151
0.240022
0.195841
-0.078297
0.032700
-0.168671
0.054296
0.301995
-0.234602
0.348553
-0.328571
-0.064840
-0.026173
-0.074567
-0.266561
0.007533
-0.155106
0.039891
-0.068089
0.042451
0.024916
0.398424
-0.096589
0.264519
-0.456696
0.142805
-0.194148
0.511277
-0.241471
-0.073633
0.364847
0.174647
-0.123093
-0.168368
-0.151926
-0.327963
0.091315
0.153257
-0.153286
0.341652
0.018659
-0.011145
0.338656
0.096865
0.133892
0.174520
-0.460920
-0.537875
-0.238613
0.181403
0.090421
-0.465488
-0.240846
0.176438
-0.077414
0.252492
0.035561
-0.145921
0.074157
-0.113754
-0.041839
-0.082894
-0.261465
-0.249573
0.158592
-0.130407
-0.129943
-0.643493
0.381387
0.224622
0.175950
-0.096774
-0.119365
-0.201614
-0.419924
-0.187820
0.397771
-0.159975
-0.307370
0.482576
0.030414
-0.047969
-0.031515
-0.278390
-0.251338
-0.049379
-0.326705
-0.206335
-0.038807
0.117713
-0.163263
-0.325189
0.220300
-0.194755
-0.006017
-0.362595
-0.084845
0.627007
-0.298095
-0.096439
-0.457311
-0.028621
-0.409207
0.295986
-0.015365
0.190706
0.323243
0.019980
0.489390
0.310516
-0.290215
0.205611
0.211803
-0.147307
-0.223690
-0.388869
-0.164812
-0.097440
-0.150042
0.045580
0.428729
-0.020778
-0.217055
-0.026492
0.037120
0.061665
-0.215193
0.045092
0.242183
0.047013
-0.357369
-0.089322
-0.029579
0.518527
-0.121429
-0.554774
0.086515
-0.242360
0.569320
0.127364
-0.198366
-0.140494
0.294693
-0.091313
-0.065308
0.774728
-0.132697
0.054191
0.271976
-0.038036
0.203833
-0.171145
-0.609141
0.086714
0.491478
0.024369
-0.108478
-0.283349
-0.077234
0.153186
-0.248901
-0.126135
-0.028780
0.280514
0.678004
0.424189
-0.341724
0.201817
0.119873
0.210773
-0.300009
-0.202580
-0.257746
0.358549
0.082708
-0.117192
-0.150736
0.214780
0.088501
0.162045
0.458139
-0.809337
0.204116
0.078638
-0.146469
0.033063
-0.150649
0.109259
0.384739
-0.120183
-0.253483
0.466195
-0.009675
0.023347
0.889292
0.686917
0.224765
-0.621656
0.368041
-0.116794
-0.073170
0.267860
-0.039517
0.258284
0.104877
0.012964
0.708971
0.434030
-0.017282
-0.031706
-0.345635
0.586710
0.125758
0.536875
0.413334
-0.252568
0.202143
0.612758
0.246107
0.253537
0.171240
0.475994
-0.103894
0.340413
0.080105
-0.092580
-1.153349
-0.132775
-0.009468
0.074112
-0.440219
-0.042828
0.459141
-0.151350
0.060117
0.390604
0.328168
-0.626395
-0.205554
0.386508
-0.224440
0.556952
-0.122526
-0.206916
0.048932
0.244844
-0.444687
-0.122196
0.274427
-0.231607
-0.377189
0.240180
-0.343959
0.588327
0.228220
-0.583067
0.297107
-0.026276
-0.146224
-0.551079
0.355038
-0.161670
0.158323
-0.225024
0.127611
0.234374
-0.056592
0.407081
-0.188075
-0.466178
-0.004443
-0.025994
0.011944
0.188361
0.239314
-0.011469
-0.261299
-0.191129
-0.350332
-0.006680
-0.202896
0.203268
-0.090264
0.045562
-0.216329
0.746149
-0.873586
-0.236282
-0.247307
-0.472944
-0.069360
0.317122
0.310288
0.347080
0.204460
-0.053218
-0.101676
-0.032040
0.453269
-0.407357
0.304785
0.201672
-0.159933
0.114141
-0.135998
0.002357
0.022805
0.209472
0.140683
0.184573
0.337431
0.087901
0.048560
-0.208615
0.030712
0.327861
-0.461280
0.007139
-0.281821
0.167485
-0.217205
-0.155923
0.012888
-0.215621
-0.728428
-0.263630
0.016455
0.328174
-0.141844
0.145768
0.062401
0.417178
-0.237967
0.018789
0.239592
0.053633
0.419268
-0.214472
0.163989
0.058755
-0.487971
0.001812
0.230006
0.478551
-0.256613
-0.089195
0.378437
-0.208494
-0.389780
0.002798
-0.684629
0.146239
0.231412
0.171630
-0.251853
-0.128823
0.022968
-0.030510
0.162717
0.027615
-0.117990
0.097699
-0.095801
-0.133425
-0.293939
0.091727
0.016899
0.326636
0.271776
0.166002
0.062813
-0.097872
0.357448
0.282828
0.033190
0.081441
-0.431802
0.108640
0.045265
0.050100
0.333280
0.068518
-0.063935
-0.032424
-0.653964
0.461668
-0.049617
-0.251933
-0.101891
-0.430897
0.128912
-0.147509
-0.449635
0.286413
0.224457
-0.002671
0.035301
-0.579965
0.363839
-0.207537
0.117090
-0.175799
0.232459
-0.286039
-0.039290
0.062443
0.309354
0.144061
0.291569
-0.256064
0.077055
0.085939
-0.059863
-0.052129
0.253195
-0.044709
-0.209203
0.002043
-0.548082
-0.197726
0.266510
0.238346
-0.227357
-0.025372
0.108208
0.074288
0.055378
-0.568976
-0.097485
0.110008
-0.054246
-0.091323
-0.248954
-0.282853
0.032989
-0.245851
-0.552359
0.416516
-0.467908
-0.230956
-0.045479
0.326856
-0.085760
0.141950
-0.037735
-0.143459
-0.463387
-0.663131
0.300797
0.046016
-0.044347
-0.047381
-0.489500
0.366115
0.146752
0.190522
0.854142
-0.300566
-0.876692
0.032158
0.327331
-0.067066
-0.400712
0.124654
0.476416
-0.134855
-0.003654
0.270258
-0.180327
0.041544
0.182268
0.128225
0.014277
0.099319
0.023699
0.367151
-0.325062
-0.190993
-0.271767
0.133820
0.156450
0.510811
0.060044
0.386088
0.350529
-0.230590
-0.075203
0.193249
-0.005164
-0.026310
0.264720
0.073153
0.026144
0.279570
0.123279
0.477082
0.059658
-0.127528
-0.472227
-0.117689
0.140771
-0.303766
0.026659
0.051253
0.247312
0.042052
-0.526461
-0.225362
0.439951
-0.074176
0.140340
0.520846
0.463989
0.544332
-0.143617
-0.263858
-0.404527
-0.332236
-0.396642
-0.669133
0.447927
-0.280732
0.059478
0.149272
-0.123900
-0.191759
0.095726
0.105895
0.513507
0.050785
0.148494
0.092330
-0.250369
-0.237545
0.033684
-0.403647
-0.016488
-0.640304
-0.004329
-0.218591
0.231497
0.263430
-0.324817
0.196696
-0.065443
-0.065503
-0.040281
0.023438
-0.107811
-0.060610
0.452911
-0.677557
-0.492679
-0.236569
0.261770
-0.674703
-0.166509
0.314798
0.289806
0.444151
-0.020800
-0.251088
-0.263543
0.623403
0.101205
0.031470
-0.061385
0.219216
-0.288654
0.063996
-0.108862
-0.009996
-0.337240
0.286226
0.048062
0.106200
0.139813
-0.378075
0.101048
0.304589
-0.378244
-0.092422
-0.087760
-0.002055
0.239154
-0.056266
-0.073700
0.305852
-0.410774
-0.183213
0.528420
-0.637727
-0.130090
0.176166
-0.356540
0.127644
-0.341267
0.219756
0.454861
0.095825
-0.070492
0.085840
0.365256
0.410118
0.009306
-0.347400
-0.280287
0.097054
-0.232025
-0.645836
-0.089648
0.285574
-0.146208
0.055053
0.163956
0.032753
-0.296220
-0.043853
-0.307510
-0.009862
-0.612274
0.136349
0.065315
-0.093777
-0.162683
0.004825
0.217245
0.705411
-0.085227
0.228487
0.067613
0.169462
-0.768612
0.032953
0.295752
0.132064
-0.089900
0.000483
0.022305
0.044679
-0.443769
-0.691418
0.542480
0.039461
0.048017
0.035160
0.078145
-0.157017
0.102987
-0.461584
-0.337004
-0.294962
-0.078130
0.088229
-0.080236
-0.070051
0.481564
0.530802
0.207444
-0.218507
0.152602
-0.394970
-0.024430
-0.029946
0.019505
-0.187962
0.161765
-0.336394
-0.282833
0.386846
-0.099078
-0.300424
-0.464629
-0.398650
0.398927
-0.128267
-0.052419
0.302441
0.332938
0.100848
0.152619
-0.062894
-0.132176
-0.511591
0.173525
-0.293455
0.302072
0.067818
0.010333
0.017068
-0.045882
0.437749
-0.220833
0.053710
0.341844
-0.239923
-0.345255
-0.200244
0.166018
0.131208
-0.152542
-0.199442
-0.164934
-0.201834
-0.134081
0.609826
-0.293363
-0.243367
-0.229278
-0.174140
0.550833
-0.229989
-0.259123
-0.328762
0.009404
-0.344302
-0.024724
0.119503
0.230304
0.057990
-0.167622
0.184837
0.308472
-0.657785
-0.419621
0.311451
-0.102467
-0.442191
-0.087335
-0.128643
0.259629
-0.008124
-0.110373
-0.266956
-0.254626
0.081543
-0.247488
0.096603
-0.259246
-0.169299
0.013167
-0.059908
-0.099191
0.227114
0.052456
0.169596
-0.338105
-0.087360
-0.151973
0.173230
-0.241053
0.070268
-0.181817
-0.030723
-0.279940
0.076166
0.291837
0.180245
-0.157650
0.140284
-0.128561
0.122516
0.296356
0.041256
0.342682
0.160028
0.206502
0.154971
-0.343610
0.324404
0.238355
-0.042507
-0.230162
-0.252497
0.306305
-0.064236
0.187477
0.032143
0.228120
-0.358003
0.032219
0.166763
0.043673
-0.166014
-0.017830
-0.205862
0.212399
0.088927
0.128320
-0.392503
-0.130362
0.247381
-0.409476
-0.029222
0.033182
-0.386190
0.156677
-0.061985
-0.076084
0.004813
0.160510
-0.032523
-0.491704
-0.119171
-0.367318
-0.292362
0.480480
-0.538694
-0.322645
-0.394310
-0.113558
0.160542
-0.030755
0.012228
-0.711853
-0.117326
0.219085
-0.225582
0.142550
-0.131888
-0.282305
0.019850
0.112680
0.277325
0.206403
-0.852687
-0.302215
-0.087864
0.050412
0.159968
0.172853
0.009121
-0.012729
0.004521
0.284689
0.111406
0.163610
0.047439
-0.254178
0.177264
-0.025175
0.125936
0.086754
-0.022232
0.092358
-0.287769
-0.221685
-0.325313
-0.292839
0.444378
0.229500
-0.164233
-0.286585
-0.009901
0.228871
-0.171504
0.464123
-0.169472
0.046714
0.521051
-0.337137
-0.104876
-0.083512
-0.577028
-0.171034
-0.301318
0.316616
0.125383
-0.383059
-0.317785
0.051526
0.004964
-0.176324
-0.171449
0.258135
-0.331150
-0.272806
-0.090170
-0.862133
0.017430
0.157349
-0.339509
-0.020922
0.437792
0.262491
-0.135432
-0.087950
0.018950
-0.047307
0.042632
0.265293
0.307876
-0.271960
0.295476
-0.096882
-0.038484
-0.256028
-0.139385
-0.430298
-0.062816
-0.058615
-0.372424
0.272751
-0.429666
-0.366806
0.126958
-0.197942
0.016485
0.223561
-0.558345
-0.372269
-0.135553
0.285843
-0.045353
-0.078382
0.196162
0.205206
-0.499482
-0.255234
0.302882
-0.156084
0.205673
-0.172647
-0.767649
-0.317302
0.081643
0.203294
-0.049671
-0.798927
-0.005513
-0.292267
-0.103496
-0.210720
-0.071425
0.132174
-0.481389
-0.183309
0.340683
0.163349
-0.562503
-0.043556
0.000706
0.140418
-0.162760
0.117338
-0.389359
-0.013008
-0.014044
-0.144978
-0.409841
0.288510
-0.037801
0.077439
-0.076440
0.349504
-0.134389
0.314218
0.009010
-0.435016
-0.087191
-0.237853
0.352524
0.093435
-0.239064
-0.073723
-0.396142
0.333264
-0.149224
0.470118
-0.108169
-0.265770
-0.179684
0.074575
0.331606
-0.319077
0.070747
-0.028595
0.181092
0.208105
-0.162538
-0.438933
0.035820
0.118452
-0.292256
0.155416
-0.585974
0.090869
0.446077
-0.216303
-0.086209
0.571698
-0.071376
-0.201482
0.237264
0.241611
0.321017
-0.513226
0.042823
-0.237525
-0.102806
0.307387
-0.059817
-0.503814
-0.574781
0.182045
0.246616
-0.116625
0.121380
-0.054203
-0.193315
-0.220787
-0.022567
0.061605
-0.086186
0.619701
0.370687
-0.205814
-0.417577
-0.479736
0.050199
0.153835
-0.157612
0.027342
0.023076
-0.069784
0.315491
0.081071
-0.131974
0.158929
-0.078130
-0.727564
0.080538
-0.388976
0.504281
0.002098
0.372418
0.037977
-0.363729
0.186423
-0.002690
-0.453073
-0.301489
-0.096623
-0.202921
-0.046662
-0.209414
-0.155941
0.389366
0.426874
-0.158896
0.177490
-0.320761
0.343855
0.114811
-0.034078
-0.138604
-0.193456
-0.069108
0.269683
-0.213505
-0.031272
0.056244
-0.269927
0.070029
0.199336
0.186366
-0.110066
-0.352651
-0.113734
0.259757
0.011594
0.257642
-0.113644
-0.306712
-0.471312
0.387279
-0.184718
0.134612
-0.413922
-0.204770
0.385155
0.291347
0.072039
0.079828
-0.109284
-0.184022
-0.364538
-0.174097
-0.252072
-0.100003
0.063979
0.035717
-0.501409
-0.121389
0.059148
-0.134075
0.235685
-0.042372
-0.395542
-0.063230
0.061365
0.270527
-0.464053
-0.050936
0.056117
0.063796
-0.036602
-0.052789
-0.152900
0.050565
0.158798
0.025349
0.120231
-0.143850
-0.247090
-0.040287
-0.281414
0.052603
-0.080913
0.215284
-0.187040
0.097651
-0.243389
0.073468
0.080567
0.185296
-0.016627
0.419245
-0.162315
-0.527351
-0.046212
-0.349138
-0.109936
0.249251
0.576332
-0.202642
0.370816
0.166141
-0.020845
0.017447
0.055807
0.280152
0.034534
0.079714
-0.088564
0.011966
-0.391238
-0.073939
0.330898
-0.139174
-0.116459
0.330578
-0.290322
0.240307
-0.114500
-0.155532
-0.006989
-0.158769
0.238720
0.181567
0.060325
0.178090
-0.224469
-0.375550
-0.083771
-0.134139
-0.376976
0.252558
0.246090
0.199374
0.029541
-0.238195
0.040913
0.167758
-0.113796
0.313415
-0.410044
-0.134652
-0.471112
0.142616
0.013140
0.248201
0.284893
-0.056545
-0.264513
0.293072
-0.376930
0.361253
-0.136307
-0.596879
0.284122
0.067249
-0.072114
-0.064696
-0.025710
-0.420784
0.299141
0.030525
-0.122199
-0.080769
0.130712
-0.152367
-0.145269
0.398669
-0.394944
0.119214
0.395740
-0.007468
0.284793
-0.555143
0.144407
0.335227
0.234927
0.331038
-0.402679
-0.695475
0.104165
0.079973
-0.026386
-0.394443
-0.018174
0.062112
0.010021
0.284531
-0.213571
-0.221109
-0.076333
0.112137
-0.041277
0.102662
-0.520617
0.094103
-0.423205
0.372006
0.270092
0.039138
0.018680
-0.169114
0.255596
-0.139523
0.125367
-0.424536
0.414010
-0.029029
-0.153642
-0.129188
0.062924
-0.087378
0.255281
0.114242
0.024406
-0.205362
0.067189
0.085134
-0.328073
-0.773809
-0.183975
0.217921
-0.925979
0.046312
0.207311
-0.009896
-0.107047
-0.110645
0.100392
-0.247873
-0.038399
-0.553728
0.275927
0.151929
0.568729
0.267396
0.180250
-0.665521
-0.141941
-0.171144
0.017258
0.163785
-0.540855
0.051573
0.031145
0.119610
-0.086997
-0.319100
0.104425
0.218554
-0.389644
0.330869
-0.037738
0.207821
0.217916
-0.335580
-0.383341
0.427839
0.074185
0.171247
0.182401
0.076573
0.433527
0.138613
0.235149
0.564391
-0.353941
-0.015778
0.176527
0.301866
0.036718
0.058634
-0.095856
-0.092547
0.224982
0.279494
-0.174743
0.075277
0.419228
0.606429
0.109102
0.217656
-0.151072
0.616021
0.037800
0.087984
-0.340270
-0.117270
0.220721
0.260759
0.227134
0.361754
-0.480111
0.286052
0.152135
-0.005727
0.660683
-0.089485
-0.041074
0.185965
0.199532
0.311499
0.051340
-0.191898
0.057490
0.009459
0.218531
-0.393119
0.128657
-0.101192
-0.233614
-0.254926
-0.029177
0.064424
0.284783
-0.076380
-0.296494
-0.246271
0.037200
0.348601
-0.236806
0.240080
-0.694304
0.297120
0.190282
0.092451
0.190392
-0.245559
-0.233894
0.455619
-0.229806
-0.247800
-0.327000
0.088564
0.191584
0.093556
0.171970
-0.064801
-0.223728
0.243188
0.301652
0.001437
-0.156060
-0.231374
0.348027
-0.390816
-0.128435
-0.080366
0.038827
0.434121
-0.172775
0.109999
0.317586
0.220390
0.422134
-0.190416
-0.183150
-0.277931
-0.760502
-0.421542
-0.090606
-0.340896
0.144388
-0.235216
0.133707
-0.002776
-0.259277
-0.392557
-0.010549
-0.302498
-0.033930
0.104216
0.421660
0.292959
0.599959
-0.149210
0.192249
0.112060
0.026845
-0.427298
0.066534
-0.140260
0.338783
0.157033
0.023061
-0.099040
0.280089
0.174561
0.090577
0.580141
-0.048530
0.068693
0.166372
-0.093231
0.183541
-0.256816
-0.376064
0.081290
0.448237
0.225900
-0.300591
0.274057
0.010211
0.226943
0.372951
0.078838
0.231338
0.300968
0.574480
-0.154434
-0.529379
-0.009994
0.082581
0.291740
-0.127611
-0.149224
-0.411826
0.346190
-0.163632
0.208424
-0.229560
0.341709
0.552716
0.169634
0.201278
-0.788281
0.030842
-0.036976
0.018651
0.013018
-0.215360
-0.227235
0.241856
0.129657
-0.200550
0.007181
0.154356
0.088757
0.690042
0.138982
-0.007392
-0.185038
-0.197234
0.522818
-0.035439
0.460107
-0.097993
0.196231
-0.023322
0.037915
0.472600
0.147691
0.079796
0.158898
-0.403679
0.538991
0.159271
0.645054
0.068765
0.260420
0.000160
0.721537
0.196774
0.169062
0.338460
0.310389
-0.103772
-0.403597
0.281972
-0.218555
-0.936969
-0.127114
-0.191506
0.278209
-0.247811
0.121534
0.178199
-0.184712
0.114064
0.392956
0.349717
-0.472113
0.037300
0.137132
-0.215055
0.048687
-0.193970
-0.490224
0.365913
0.227850
-0.340254
-0.456265
0.159343
-0.132954
-0.208916
0.043301
-0.183246
0.425046
0.044891
-0.659019
-0.093218
0.410866
0.338059
-0.592533
0.225545
0.029627
0.477464
0.346274
0.614895
-0.308507
-0.064315
0.179109
-0.083560
-0.370687
-0.359202
0.076729
-0.070391
0.260970
0.051433
0.309126
-0.045290
0.239762
-0.192618
0.086145
-0.076897
-0.423840
-0.028936
-0.082535
-0.049779
0.123256
0.440785
-0.340459
0.092136
-0.142819
0.155614
0.065304
0.317356
0.155827
-0.161454
-0.134659
0.335162
-0.139291
-0.335268
-0.032425
-0.004380
0.077722
-0.207739
-0.038361
0.403716
-0.114780
-0.225483
0.034464
-0.210786
-0.073917
-0.098849
-0.018743
-0.056384
-0.173391
0.287729
0.020302
-0.113816
0.106343
-0.029872
-0.181424
-0.092242
0.004998
0.040004
-0.500161
-0.465900
0.276066
0.057307
0.236096
-0.064153
0.299773
-0.526376
-0.206289
-0.078098
-0.296635
-0.257185
-0.237380
0.121846
0.201059
-0.091970
-0.181657
-0.513122
0.096853
-0.009565
0.029418
0.447481
0.070773
-0.376267
-0.393733
0.205493
-0.073664
-0.239463
-0.105268
0.136503
0.289819
0.142295
0.153841
-0.403709
-0.079220
0.134306
0.048128
-0.143381
0.500375
-0.267068
-0.013854
-0.419659
-0.515494
-0.033303
-0.173484
-0.204461
0.268360
0.400047
0.300631
-0.143508
-0.101471
-0.249741
-0.101356
-0.030059
0.249563
-0.064289
-0.154456
-0.594377
-0.014659
-0.211585
-0.209982
-0.136308
-0.222947
-0.057544
0.366810
-0.278040
-0.189795
0.017876
0.703929
0.003804
0.438028
-0.785965
-0.364886
0.087094
0.386720
-0.638463
-0.145597
-0.197820
-0.698530
0.299966
0.013270
-0.245504
-0.146827
-0.115189
0.098382
0.735929
-0.089661
-0.287941
-0.234491
0.397539
0.367611
0.379161
-0.254129
0.026327
0.160522
0.195055
-0.221300
-0.287304
-0.051682
0.149305
-0.312293
-0.200918
