0.076669
-0.096229
0.050310
0.044752
-0.412727
0.170594
0.028034
-0.121133
-0.043986
-0.035000
-0.123099
0.013385
0.055516
-0.196484
-0.231184
0.189287
0.096702
-0.001730
-0.001505
-0.133154
0.025511
0.119849
0.001723
-0.092526
0.142544
-0.028848
-0.018536
-0.039055
-0.255388
0.147777
-0.013209
-0.114742
-0.140451
0.025324
0.582825
0.129734
-0.110509
-0.017403
0.054411
-0.138244
0.021240
-0.034341
0.010539
-0.043580
-0.239815
0.210040
-0.082818
0.019039
-0.201467
0.203279
0.006216
0.016481
-0.124166
0.126575
-0.112694
-0.102103
0.164160
-0.184868
-0.269220
0.039929
-0.032513
0.004824
-0.163095
0.066514
-0.175436
0.027413
0.029482
-0.028666
-0.135930
-0.303262
0.494415
-0.157298
0.048495
0.008480
-0.046402
-0.026428
-0.094277
0.107915
-0.226318
0.028195
0.317125
-0.067310
-0.542381
-0.023517
0.020496
-0.262516
-0.016632
0.177512
0.039234
-0.161016
-0.113783
-0.041720
-0.065879
-0.012158
-0.046068
0.088319
-0.070655
0.052344
-0.038498
-0.204585
-0.056174
0.003645
0.166674
-0.211422
-0.175901
0.355340
-0.013370
0.165503
0.067079
-0.164763
0.051271
0.032199
-0.257170
-0.485313
-0.131359
0.101052
0.163232
-0.197617
-0.011549
0.049594
0.399170
-0.044767
-0.190059
0.271873
-0.057742
0.169947
-0.246091
-0.008988
