0.013475
0.130271
-0.122515
-0.022573
-0.097660
0.161632
-0.083797
-0.063904
-0.238274
0.031982
0.011445
0.131881
0.386443
-0.073009
0.242655
0.288078
-0.196233
-0.045691
-0.101366
-0.378076
0.028292
0.235913
-0.168396
-0.190563
0.068215
-0.253835
0.135010
-0.047523
-0.216625
-0.152562
0.098848
0.258668
-0.233658
-0.131705
-0.053787
0.210730
0.223075
-0.372325
0.061124
-0.120895
-0.209631
-0.152303
-0.202514
-0.084442
0.126648
0.289222
-0.085950
0.085932
-0.503868
0.077222
0.148334
0.081636
-0.228800
0.162351
-0.087345
0.296756
-0.038161
0.031488
0.222929
0.145155
0.111584
0.527469
0.067536
0.010114
-0.221380
-0.013291
-0.078253
-0.146402
0.309313
-0.058936
-0.079627
0.308081
0.186757
0.055266
0.014771
0.148800
-0.218905
0.134581
0.266128
-0.006252
0.354084
0.215177
0.195353
0.194064
0.003220
-0.192493
0.047862
0.464914
0.217264
-0.249801
-0.192927
0.056622
0.005608
-0.411456
-0.142273
-0.181699
0.013651
-0.249779
-0.295713
0.023327
0.013027
-0.109327
-0.137246
0.260576
-0.551683
-0.339400
0.031942
-0.418519
0.022906
-0.003040
-0.189426
0.074962
0.103907
-0.139945
-0.065716
0.300237
-0.242326
-0.117883
0.288022
-0.283913
0.585946
0.058979
-0.414973
0.048128
0.095938
0.171369
-0.469745
0.276528
