-0.305010
0.350182
-0.106226
-0.789617
0.097265
-0.256013
-0.199816
-0.176368
0.544095
0.172562
0.568491
-0.262118
-0.233244
0.386815
0.310451
-0.029940
0.065211
0.119544
0.003863
-0.097815
-0.376636
0.177497
-0.155566
0.320094
-0.334048
0.333510
-0.077104
-0.124296
-0.105353
-0.064987
-0.228457
0.052837
0.331724
0.438349
0.171978
-0.068503
-0.170874
0.307292
0.279348
-0.099636
0.451504
-0.270492
-0.358697
0.150343
-0.564565
0.465615
0.003857
0.265824
-0.047718
0.028907
0.410090
-0.031413
0.129489
0.072786
-0.282355
0.564258
0.172513
0.378539
0.239391
-0.078120
0.067718
0.075223
0.064467
0.210185
-0.430458
0.423704
0.540758
-0.303577
0.175468
0.076188
0.060639
-0.248288
-0.306705
0.049003
0.032743
0.297843
0.245059
0.090298
-0.023252
0.109960
-0.124661
-0.203067
-0.025312
-0.315670
-0.694755
-0.112825
-0.196481
-0.356461
0.331084
-0.342164
-0.114476
-0.115409
-0.725469
-0.202255
-0.213495
0.272369
0.027229
0.401987
-0.406557
-0.098390
0.639472
-0.320719
-0.013274
0.586088
0.033055
0.170418
-0.176669
0.094257
-0.073193
0.336025
0.122864
-0.292344
0.062746
0.392793
0.136878
-0.612599
0.124285
0.003070
0.302559
0.086671
0.488073
-1.015832
0.163899
-0.523458
0.013271
-0.340641
0.033200
0.165996
-0.364886
0.197939
-0.326652
-0.033016
-0.826079
-0.202544
0.225036
0.215082
-0.023493
0.102319
-0.046679
-0.126905
0.041213
0.002589
-0.127946
0.007012
-0.168271
-0.027456
-0.325559
0.019514
0.036250
0.450626
0.422981
0.210422
0.224889
0.079110
0.049534
-0.021517
0.548737
0.085769
0.218283
0.219326
0.033304
0.104000
0.098149
-0.023151
0.202834
-0.089367
0.159719
0.160767
0.252229
0.219608
0.086049
0.074355
0.356519
0.260074
0.162814
0.289511
0.204367
-0.161138
-0.089579
-0.071507
-0.071963
0.126631
-0.373133
-0.101949
-0.101838
0.037711
-0.179641
-0.976313
-0.593104
0.220714
-0.183575
0.114854
-0.541784
-0.049238
0.387809
0.267460
-0.054476
-0.015310
0.063438
-0.187689
0.189181
-0.080028
-0.254202
-0.010620
0.204284
0.443551
0.319199
0.319699
0.055196
-0.013098
-0.059198
0.127928
0.925363
-0.099719
-0.163285
0.192093
0.071135
-0.293941
-0.733089
0.227154
-0.334402
-0.196056
0.017532
-0.101147
-0.251782
-0.128688
0.011861
0.002517
-0.039201
-0.294013
0.233555
0.125173
-0.485631
0.205119
0.157009
0.382124
0.066389
0.083255
-0.077639
-0.174068
0.010810
-0.122351
-0.086749
0.196789
-0.286145
-0.425079
0.164775
0.080316
0.363923
0.382956
-0.094479
-0.559406
0.244417
0.527643
-0.030095
-0.644077
0.081191
-0.153937
-0.063448
0.182384
0.037130
0.006522
0.246589
0.759818
-0.360231
-0.043972
-0.308488
0.094264
-0.243578
0.061961
1.116706
0.136240
-0.050283
0.354313
0.126147
-0.050667
0.494534
-0.315145
-0.068611
0.980103
0.347485
0.243755
0.833775
-0.182541
0.339791
-0.440379
-0.017272
-0.371711
0.387904
-0.101498
-0.117851
-0.116006
0.114576
0.021189
0.204953
-0.046005
-0.115586
0.014738
0.103398
0.373509
0.286386
-0.230083
0.116378
-0.128191
-0.168413
0.361671
-0.116844
-0.123303
-0.156077
0.776423
0.177435
0.092568
0.070029
-0.393992
0.214991
-0.146368
-0.409405
-0.092116
-0.323334
0.170611
0.259967
0.092181
-0.012601
0.109316
0.209034
0.001172
0.386891
0.318634
0.126078
0.074711
-0.731901
0.251614
0.089687
-0.440179
0.262017
0.069948
-0.074745
0.264693
-0.102218
0.339825
0.042111
0.242396
0.308663
0.284742
0.275685
0.031000
0.149807
0.261200
0.198794
0.041845
-0.130158
-0.289469
-0.036334
-0.843509
0.466981
-0.135991
-0.152604
-0.012336
-0.344496
-0.039218
-0.065593
0.180358
0.146445
-0.116494
0.572638
-0.217105
-0.615184
-0.021331
-0.460442
0.399576
-0.102624
-0.512611
0.110898
-0.093821
0.236831
-0.608301
0.168241
-0.203346
-0.055137
0.164662
0.012001
-0.046950
0.027582
-0.041181
-0.156674
0.234642
0.092879
0.045900
0.007499
-0.339680
-0.113637
-0.094219
-0.155253
0.259686
-0.185545
0.050416
0.133259
-0.056010
0.935847
0.133919
-0.181947
-0.030951
0.485649
0.408898
0.078290
0.665138
0.141730
-0.018962
-0.168805
-0.189264
0.230668
-0.197325
0.283975
-0.606157
0.123019
-0.287271
0.002159
0.114293
-0.001161
0.018263
0.260523
-0.211352
-0.396873
0.077338
-0.100768
0.624360
0.222746
-0.207402
-0.716412
-0.027241
0.037076
0.426820
-0.228514
0.151680
-0.199379
-0.069272
0.096338
0.078665
-0.056007
0.283423
0.121768
0.237418
-0.429268
-0.062623
-0.001602
0.122629
-0.531485
-0.604312
0.018449
0.096940
-0.122572
-0.343300
0.399839
-0.160278
0.650765
-0.053600
-0.036346
0.091738
-0.400562
-0.020304
0.120971
0.539351
0.026409
0.643851
-0.072276
-0.074874
0.083834
0.032710
-0.282028
0.045941
0.350786
-0.245401
-0.009453
0.416341
-0.086450
0.121602
-0.298035
-0.310259
-0.041310
-0.022482
2.524549
-0.155757
-0.157322
0.146835
-0.209337
-0.224290
-0.169956
0.016164
-0.061552
-0.044751
-0.096480
0.039802
-0.419539
0.024425
-0.027497
0.011594
0.021616
0.229319
-0.125212
0.066158
-0.084041
0.016362
-0.085038
0.156074
0.017571
0.093541
0.158369
0.155585
0.231379
0.144388
-0.247866
0.151222
0.166622
0.117714
0.135987
-0.040323
0.015032
0.234644
-0.260893
0.524839
-0.195622
-0.170119
-0.092131
-0.111890
-0.210648
-0.033761
-0.246196
-0.088991
0.406676
0.264404
0.222667
0.100557
0.183802
0.281202
0.182902
0.516870
0.001738
0.745719
-0.000812
0.056766
-0.048769
0.138855
1.482860
0.357077
0.062879
0.003692
0.054036
-0.303858
0.249772
-0.200896
0.010711
0.124276
0.348670
-0.045389
-0.142723
0.428066
-0.009606
0.068904
-0.158158
-0.005445
-0.413737
-0.049742
-0.249855
-0.271973
-0.184303
0.119197
0.252724
0.123118
0.140918
0.219203
-0.097829
0.123330
-0.210116
0.248183
-0.788348
0.375592
0.571317
-0.030728
-0.336941
-0.462931
0.048047
-0.201117
-0.664400
0.183105
0.440261
0.101123
-0.084272
0.024672
0.098154
-0.033301
-0.136922
0.010535
-0.069297
0.029686
0.045131
0.124005
0.096279
-0.357210
0.034566
0.181069
0.128165
-0.179376
0.714679
0.167224
-0.170808
-0.232826
-0.163709
0.009926
0.557324
-0.181658
0.098958
0.046584
0.587626
0.189856
0.336953
0.098983
0.026378
-0.166776
0.120145
-0.155837
-0.233488
0.157756
-0.187538
-0.158428
-0.403173
0.218294
0.052083
0.055975
0.275400
0.008602
0.728631
0.105352
0.343423
0.271193
0.313267
0.004190
0.232868
0.128787
0.188287
-0.055556
0.271275
0.131154
0.135837
0.251496
0.366978
0.306607
0.207893
0.214069
0.310374
0.170922
0.029786
0.333553
0.206621
0.083201
0.394653
-0.067509
-0.091520
-0.062402
-0.035043
-0.046353
2.723393
-0.200878
-0.178903
0.275511
0.013982
0.035777
-0.265040
0.119629
-0.076161
0.063900
-0.011860
-0.126262
0.280703
0.406157
0.033617
-0.076535
-0.255511
-0.085926
-0.088733
0.195977
0.120758
-0.005116
0.086848
0.074372
0.088264
0.271789
-0.036412
-0.264949
-0.097793
-0.100298
0.301427
0.035445
-0.064344
-0.440032
-0.305601
-0.081991
0.227172
0.108704
0.101157
0.142866
-0.167322
0.198195
0.086115
-0.262460
-0.156786
-0.225228
-0.510335
0.205258
0.346882
-0.045676
0.414099
0.120114
0.126344
0.241015
-0.025518
-0.504056
-0.209321
-0.100361
0.124447
0.080110
0.213935
-0.176317
-0.018773
-0.370722
-0.299696
0.867716
0.105207
0.250835
-0.374594
-0.296585
-0.258416
-0.123370
0.549828
0.460396
0.305248
0.631006
-0.005918
-0.390543
0.185035
-0.192924
0.110295
-0.138246
-0.420777
-0.481921
0.113505
-0.035014
-0.053669
-0.179695
0.015866
-0.047187
-0.233614
-0.061702
0.373332
0.059804
-0.081567
-0.764904
0.203799
-0.197121
-0.350754
0.300479
0.618513
-0.166330
-0.350862
-0.406658
-0.110093
0.436188
0.210838
0.048765
0.093886
0.093061
0.118422
-0.217598
0.328786
0.225640
-0.350646
-0.032491
0.021452
0.365327
0.203471
-0.109026
0.327504
-0.692286
0.142560
0.021232
0.457523
-0.809624
-0.400165
-0.025531
0.357826
0.169569
0.095674
0.275140
0.033074
0.384784
0.106787
-0.258467
0.146779
0.154920
-0.092149
0.104255
-0.097627
0.122937
0.032311
-0.041130
-0.179318
-0.008353
-0.050318
0.131530
-0.227481
-0.316046
0.475002
-0.084741
-0.284528
0.309327
-0.008732
0.070168
-0.020977
0.207084
0.245622
-0.226894
-0.323918
-0.069879
0.010607
0.561953
-0.454944
0.003169
-0.108420
0.190638
0.020135
-0.029469
-0.197144
0.147622
0.156773
0.544320
-0.207629
0.149820
0.030893
-0.043283
-0.351806
-0.338700
0.145772
-0.145891
-0.162831
1.309159
-0.341729
-0.006351
0.060169
-0.455664
0.277386
0.823827
-0.070226
-0.582107
-0.440519
-0.453313
0.001419
-0.138238
0.109333
-0.070018
0.283127
0.128246
-0.133587
0.181301
0.081669
0.058264
0.180331
0.227505
0.000640
0.203728
0.229591
-0.215934
-0.073227
-0.095333
-0.117935
0.193978
-0.028152
-0.176938
-0.061072
0.099785
-0.639337
0.019854
0.153302
0.107219
0.182771
0.045938
0.584636
-0.182531
0.051955
-0.132863
-0.229739
0.080715
0.113251
0.065061
-0.373956
0.433997
-0.061606
-0.285425
-0.014565
-0.264835
0.296906
0.081769
0.135178
0.161773
-0.121835
0.309640
0.234142
-0.527084
-0.350498
0.491683
0.024748
0.005432
-0.068664
-0.658695
-0.026973
0.335909
0.268742
0.038359
0.099695
-0.155475
-0.330516
-0.121309
-0.255759
-0.016244
0.224141
0.094408
-0.483104
-0.541453
-0.124860
0.067534
0.152145
-0.189247
-0.055808
-0.005341
0.136030
-0.299850
0.329600
0.023069
-0.300129
0.236760
-0.164360
0.189410
0.029268
0.547881
0.086089
0.257821
0.486194
-0.085933
-0.189138
0.095890
0.024519
0.035315
0.105030
-0.277984
-0.179527
-0.377734
-0.531431
-0.146607
0.199613
0.071908
-0.201286
0.007634
0.029228
-0.194461
-0.301047
-0.433756
-0.092203
-0.360928
-0.185854
0.289333
-0.449090
-0.207921
0.263671
0.251109
-0.046371
0.371565
0.305888
0.344296
0.035654
0.121339
-0.182498
-0.139224
-0.010438
-0.300594
0.302900
0.100161
0.166036
0.592020
-0.048423
-0.193620
0.103490
-0.193090
0.287218
0.164301
-0.895435
-0.145242
-0.188360
0.195079
-0.005322
-0.414637
0.370451
-0.224453
-0.320175
0.272424
0.249844
-0.010843
0.043305
-0.834839
-0.102752
-0.012494
-0.024184
-0.319321
-0.142667
-0.385064
0.224086
0.523495
-0.283931
-0.488981
-0.161910
-0.409891
0.271222
0.349263
-0.198863
-0.014024
0.133875
0.156011
-0.388796
0.705273
-0.104601
0.261244
-0.121448
-0.093712
0.326317
-0.092258
-0.283298
0.035394
0.284987
0.085601
0.055794
0.169204
-0.083574
-0.093232
-0.233728
0.007366
0.288143
0.434102
-0.701614
-0.241682
0.279855
-0.164854
-0.041860
0.094018
-0.202682
0.170337
0.385888
0.010046
-0.176458
0.684464
-0.244044
0.239003
-0.187461
-0.318638
0.127794
0.062388
-0.078703
-0.380633
0.219606
0.307413
-0.220263
0.117224
-0.087178
0.033841
0.255310
-0.169465
-0.209093
0.434709
-0.387418
0.472205
0.061507
-0.084940
-0.433703
-0.080641
0.152000
-0.269551
0.270524
-0.101759
0.216570
-0.068858
-0.463626
0.086984
-0.072025
0.065074
0.024998
0.328047
-0.560450
0.038731
0.526209
-0.445318
-0.288052
-0.155046
0.086360
-0.012500
-0.026409
-0.353854
-0.201861
-0.260362
-0.126886
-0.122010
-0.183049
-0.202698
-0.070185
-0.350679
0.049162
-0.077038
-0.833991
-0.218333
0.005503
-0.458532
-0.300676
0.326108
0.452920
-0.060523
-0.158488
0.223953
0.070310
0.130607
-0.003932
-0.124259
-0.030088
-0.403896
-0.123299
-0.272364
0.081169
-0.136031
0.873007
-0.006487
-0.109276
0.319305
-0.011023
0.151518
0.019501
0.424689
0.163516
-0.172301
0.019454
-0.204880
0.115356
0.217825
0.271490
-0.174415
-0.211226
-0.140174
0.217735
0.130850
-0.185722
0.250341
-0.345242
-0.401201
0.251469
-0.053413
-0.084173
0.143691
0.050049
0.244449
-0.306500
0.761693
-0.674287
-0.011336
0.142423
-0.045329
-0.069866
0.331667
-0.006274
0.159129
-0.526605
0.395333
-0.039964
-0.653398
0.147810
-0.330848
-0.473850
0.138263
-0.118480
-0.216897
0.280863
-0.488553
0.239966
-0.863238
-0.163820
-0.004162
-0.170535
-0.379105
-0.458602
-0.210352
-0.461376
-0.198502
-0.234156
0.016889
-0.155538
-0.010915
-0.046891
-0.089068
0.661790
-0.194421
-0.045603
-0.235499
-0.422481
0.238255
-0.149100
-0.050494
0.251449
-0.470924
-0.558692
-0.038883
-0.818274
0.284886
0.295785
0.459125
-0.104905
0.090014
-0.019713
0.002221
0.176765
-0.143035
-0.239918
0.079029
0.239087
0.197258
0.384628
0.114563
-0.041175
0.178746
-0.249836
-0.159829
-0.114631
-0.700941
0.009634
-0.098877
0.321845
-0.332899
-0.296583
0.246627
0.242815
0.221186
-0.148002
-0.005238
0.138301
0.195684
-0.074892
-0.037856
0.375514
0.064043
-0.035949
0.356882
0.316529
-0.024812
0.293929
0.226163
-0.436104
-0.034391
-0.458422
-0.035173
-0.264347
-0.053654
-0.525527
0.041140
0.216367
-0.517614
0.061533
-0.127715
-0.221112
0.161396
0.439442
-0.105027
-0.459336
-0.081864
0.178316
0.354304
0.017236
-0.163585
0.200724
0.100403
0.042938
0.425866
0.275267
-0.087748
0.441043
-0.011576
0.134380
-0.026843
-0.030931
0.326234
-0.200017
0.117537
-0.050685
-0.281461
-0.164427
-0.315248
-0.042708
-0.288479
-0.595353
0.063122
0.516129
0.298267
-0.608933
0.053421
-0.330896
0.359930
0.039471
-0.160076
0.169971
-0.102893
-0.277335
-0.193246
0.358111
0.371162
0.124517
0.062844
-0.053556
-0.125581
0.045713
0.227255
0.004778
-0.021035
0.176613
-0.378383
0.261558
-0.002581
-0.290763
0.460079
0.304088
-0.420415
-0.175794
0.140917
-0.404547
0.535941
0.182033
0.672344
-0.183995
-0.094673
-0.332422
-0.078622
0.111116
0.117561
0.207988
0.677948
-0.207233
-0.557485
-0.178018
0.105289
0.072470
-0.130137
0.043924
0.059567
-0.634354
0.021513
0.532949
0.402872
-0.028044
-0.202535
0.447608
0.021770
-0.504699
0.109178
0.121646
0.220848
-0.197546
0.181759
0.088277
0.142583
-0.047394
0.242797
0.095624
0.353753
-0.374309
-0.096641
-0.058529
0.054487
-0.369115
-0.562802
-0.075321
-0.162352
0.171139
-0.089118
-0.347997
0.663447
-0.186463
-0.192384
-0.369186
-0.046182
-0.263029
-0.370912
-0.055172
-0.493217
0.232346
-0.115202
0.389312
0.198583
0.076229
0.226037
0.211667
-0.171222
0.024219
-0.271864
0.346494
0.164872
0.604404
-0.560917
0.079375
0.096682
0.050270
-0.264704
0.087297
-0.245158
-0.076471
-0.140212
0.158712
-0.062724
-0.517403
0.033672
-0.306323
0.334749
0.067990
-0.048676
-0.322485
-0.480779
0.536769
0.045821
0.198557
-0.177649
-0.110976
0.277665
-0.156233
-0.099329
-0.143159
0.535383
0.103006
-0.086487
-0.202702
0.036876
0.003262
-0.116111
-0.043520
0.087777
-0.244528
0.126064
-0.689919
-0.119772
0.518476
-0.113345
-0.571672
0.209031
-0.379646
0.058862
-0.025090
0.247120
0.072457
-0.177359
-0.109606
-0.065801
0.037952
-0.059709
-0.110087
-0.455503
0.273797
0.169439
-0.231403
-0.230374
0.149073
0.303773
0.148237
0.022042
-0.109746
-0.018832
0.129575
-0.183127
0.237078
-0.563911
-0.486983
-0.628414
-0.114115
0.181540
0.368534
-0.000285
0.511461
0.309973
0.239877
-0.042500
0.043617
-0.409073
-0.200769
-0.005697
-0.040724
0.115863
-0.015603
-0.103974
-0.205507
-0.219166
-0.237450
0.184613
0.166306
0.572684
-0.494537
-0.709527
0.207697
0.733626
0.075421
0.136003
-0.330661
-0.101994
-0.315480
0.501742
0.795323
0.052639
0.640650
0.097178
-0.002465
-0.118717
0.178183
0.198351
-0.046204
0.152408
0.126276
0.120584
-0.072490
-0.110958
-0.038261
0.047057
-0.116708
-0.268242
-0.112687
-0.271734
-0.179082
-1.305204
0.333852
-0.173997
0.134099
-0.069993
-0.049464
0.092570
0.377918
0.068348
-0.497200
-0.317187
-0.748737
-0.095662
0.028780
0.137379
0.012956
0.000695
0.134805
0.026702
0.108559
-0.053035
0.172293
0.219939
-0.360856
0.024149
-0.258874
-0.186981
0.063548
0.261218
-0.054108
-0.070645
-0.125949
-0.605039
-0.457414
0.371178
0.052918
0.489967
-0.130764
0.024972
0.078109
-0.002851
-0.377368
0.126760
0.639426
-0.112277
0.068975
0.196345
-0.009395
-0.108552
0.179419
-0.017304
-0.018746
-0.334065
0.039709
0.152315
-0.284433
-0.054426
-0.012805
0.159998
-0.041864
-0.124655
0.816909
-0.576541
0.096355
0.047358
-0.002754
-0.637429
0.249823
-0.420425
0.436439
-0.397427
-0.212040
0.247055
0.061175
0.469636
-0.170054
-0.098004
0.134272
-0.068076
0.037645
0.038185
-0.163556
-0.453083
0.175382
-0.254281
-0.038154
0.098508
0.197119
0.389071
-0.043674
1.552100
-0.340864
0.206903
-0.393974
0.312548
-0.003906
-0.272695
0.117559
-0.058233
-0.325255
-0.059766
0.031748
0.247759
0.005151
0.025698
-0.090157
0.086386
0.153471
-0.051387
0.147636
0.078135
0.091304
-0.078731
0.191731
0.079745
-0.130894
0.064100
0.190340
0.229508
-0.003848
-0.039628
0.713834
0.255159
0.619757
0.106061
-0.354043
0.239628
0.469757
-0.381863
0.030034
0.201887
-0.466781
0.179562
-0.101141
-0.205775
-0.084132
-0.125560
-0.014712
0.162345
0.152718
-0.012401
-0.055941
-0.106031
0.017118
-0.300718
0.101699
0.176387
0.064270
0.287538
-0.086496
-0.026471
-0.133607
0.337627
0.117686
-0.500849
-0.331068
-0.024329
-0.039662
-0.828642
-0.127889
-0.235807
0.060088
-0.081112
0.355673
0.741911
0.063761
-0.094266
0.130157
0.303669
-0.442017
-0.227344
-0.256058
0.204345
0.015904
-0.370024
0.233092
0.445858
-0.079909
-0.318493
0.072578
-0.150085
-0.134375
0.337358
-0.297993
0.215006
0.174417
0.277295
1.262614
-0.214253
0.516559
-0.063803
0.072678
0.195179
-0.032219
-0.086895
0.103350
0.097617
-0.119168
0.430349
-0.074020
0.053534
-0.490992
0.345206
-0.277403
-0.270368
-0.243020
-0.362300
-0.371515
0.030963
0.142537
0.181151
-0.332659
-0.014824
-0.002459
0.314094
-0.225357
0.104727
0.144120
0.270639
0.085716
0.014033
-0.121769
0.083037
0.163426
-1.200233
0.041854
-0.274362
-0.087277
0.129666
-0.170471
0.107401
-0.607286
0.001893
0.035710
0.650528
-0.300952
-0.235869
-0.302777
-0.243164
-0.144137
-0.112378
0.137474
-1.141572
0.516156
-0.525932
-0.134828
0.238348
0.213505
0.317121
-0.262726
-0.021958
-0.534523
0.692829
0.107168
0.010551
-0.009935
0.325110
-0.039204
-0.089314
-0.325824
0.012780
-0.114579
0.050339
0.020146
0.003511
-0.100325
0.129425
-0.287148
-0.786511
-1.063374
0.151574
0.032344
0.173205
0.135710
0.027239
-0.015268
-0.346444
-0.303027
-0.013500
0.078425
-0.273751
0.600688
-0.069169
0.166075
-0.206223
0.139163
-0.046480
-0.058732
0.129966
-0.127195
0.331304
0.069787
-0.141674
-0.478632
0.552630
0.180036
0.217257
0.134155
0.041433
0.122861
0.054147
0.058183
0.496359
0.700001
-0.376750
-0.520854
-0.226567
-0.135735
-0.010197
0.303629
0.099161
0.314858
-0.083410
-0.185278
0.232174
0.240535
0.102920
0.170288
-0.069387
-0.069161
-0.091579
0.234173
-0.247194
0.049164
0.060626
-0.042711
-0.179327
-0.093271
0.146255
-0.099507
-0.067748
-0.266664
-0.058983
-0.130167
0.327540
-0.454558
-0.243980
1.376358
0.297562
-0.272994
0.022654
-0.177745
-0.151111
0.155197
-0.325924
0.093927
0.193541
0.150503
0.146149
-0.092490
0.233745
0.240785
0.289798
0.168327
0.123647
-0.073888
0.046076
0.000489
0.428115
-0.226210
0.010115
0.979642
0.120671
0.293691
-0.268164
-0.151988
-0.075112
0.818765
0.231722
-0.412236
0.541655
0.420546
-0.238465
-0.337066
-0.255404
0.227505
0.209468
-0.099123
0.176651
-0.013991
0.106565
-0.310659
0.584155
-0.259591
-0.271343
0.075069
0.096516
-0.069462
0.070733
-0.062954
-0.011118
-0.029865
-0.457759
-0.245953
0.479373
0.617744
0.420796
0.019888
-0.019338
-0.123112
0.118817
-0.474290
0.146498
-0.401662
0.949991
-0.213773
0.217636
0.221927
-0.002618
0.166622
-0.187057
0.268437
0.119539
0.027499
-0.050860
0.307890
-0.427220
0.029880
-0.170926
-0.254254
-0.170644
-0.111225
0.254860
-0.093090
0.311222
-0.230375
-0.341968
0.185770
-0.395948
-0.104809
-0.599668
-0.316067
0.106372
0.176766
-0.785679
-0.153759
0.070121
-0.290535
0.182285
0.257033
-0.144919
0.585660
-0.112114
0.194141
0.333143
0.216694
-0.140346
0.374756
-0.291350
0.107814
0.174813
-0.562452
0.482835
-0.331633
0.076222
-0.256076
-0.365912
0.083421
-0.144543
0.207392
0.104923
-0.274295
-0.089472
0.011059
0.280054
0.023483
-0.129884
0.230999
0.253433
0.202003
-0.170850
0.437604
-0.201159
-0.187954
-0.352387
-0.077169
0.330546
0.093883
0.311269
0.390559
-0.310124
-0.442651
-0.119764
-0.313667
0.100387
0.330386
0.568809
-0.169637
-0.054001
-0.154575
-0.004488
-0.175374
-0.215574
-0.460425
0.491187
0.112772
-0.037036
0.248767
-0.232055
0.023063
-0.187142
0.469722
-0.383930
0.402390
0.422903
-0.061597
-0.040729
0.027587
0.238204
0.321749
0.046701
-0.577152
0.210673
0.430670
0.205597
-0.110865
-0.262365
-0.481565
0.076013
-0.379749
-0.340229
-0.177437
-0.331535
-0.031547
-0.027065
0.266787
0.020085
-0.017446
0.246854
-0.030937
0.020422
-0.799868
0.357611
-0.056543
0.335833
0.145523
-0.438254
-0.134296
-0.117384
0.100550
-0.234505
-0.219637
0.160157
-0.017242
0.101883
-0.382727
-0.459661
0.374906
0.003867
0.296957
-0.581506
0.329444
0.224780
0.093117
-0.210258
0.115999
0.045840
-0.091052
0.014378
-0.097966
0.091610
-0.072190
0.940207
-0.233153
-0.376059
-0.055846
0.024895
-0.064033
0.413989
1.390288
-0.300195
0.131967
0.096843
-0.384765
0.109825
-0.010739
0.122193
0.007324
0.521769
0.219114
-0.373262
0.384401
-0.358225
0.148128
-0.374184
0.245503
0.017250
-0.137864
-0.139124
-0.013082
-0.030094
0.196421
-0.145214
0.044403
-0.106856
-0.082535
-0.233107
0.130449
0.061480
-0.205531
0.241205
0.424498
-0.344928
-0.027040
0.866029
0.338340
0.455360
0.108340
0.343908
-0.238500
-0.008869
-0.211333
-0.093499
-0.133121
0.358045
-0.169033
-0.166046
0.172469
-0.381886
0.228443
0.016573
-0.643251
0.219914
-0.438827
0.141798
-0.122341
-0.039351
-0.064238
-0.014375
-0.205996
-0.447159
0.419809
-0.096577
0.384916
-0.121189
-0.084927
-0.654872
0.374098
0.093395
0.477144
0.286768
-0.095042
0.486600
0.205479
-0.213397
-0.144392
0.023220
-0.007193
-0.000832
0.003282
-0.103761
-0.065726
-0.263333
0.159940
-0.129455
-0.228298
0.033685
-0.352434
0.060224
0.089785
0.118189
-0.602429
-0.499184
0.084228
0.251979
-0.437618
0.291003
-0.079683
0.203329
0.148190
-0.417872
-0.120803
-0.088892
0.198392
-0.070305
0.176648
-0.255698
0.097786
-0.031182
-0.080518
0.048916
0.152898
0.269503
0.316399
0.370640
-0.298120
-0.024887
-0.057439
0.165229
-0.061965
-0.171095
0.687153
-0.173864
-0.040602
0.210347
-0.052245
0.454389
-0.382589
0.578079
0.057660
-0.311004
0.109452
0.057581
0.058735
-0.134299
0.403751
-0.131494
-0.104466
-0.137536
0.195507
-0.062511
0.329812
-0.133393
-0.559085
-0.070867
-0.010354
-0.097329
0.083968
0.428408
0.145959
0.223508
-0.641502
-0.270953
-0.098692
0.510126
0.156021
-0.051784
-0.006478
-0.155386
0.127233
-0.037232
0.018504
-0.127863
0.091852
0.255691
0.124645
0.186512
0.198163
0.154795
-0.135083
-0.057194
0.283602
-0.657094
-0.342788
0.070542
-0.104567
0.080274
-0.526908
-0.221205
-0.139708
-0.374069
0.065005
0.240665
0.037089
-0.422785
-0.247707
-0.088240
-0.263519
-0.311582
0.067049
-1.042373
0.118225
0.258865
0.023143
-0.016607
-0.129260
-0.010029
-0.073172
-0.170581
0.031406
-0.305517
-0.117807
0.931536
0.461805
0.093423
0.226153
0.254535
0.229206
0.463137
-0.024263
0.069623
0.330063
0.396239
-0.290245
0.773451
0.320053
0.015585
0.089115
-0.143302
0.062679
-0.192442
-0.335508
0.045951
-0.082895
0.183017
-0.058077
-0.132145
-0.172970
-0.162701
-0.178057
0.295240
-0.223785
-0.201447
-0.131786
0.421722
-0.151895
-0.429480
-0.265159
-0.197060
0.249125
0.237391
-0.055359
0.056493
0.459512
-0.789575
-0.513898
0.092756
0.497559
0.145394
0.055207
-0.002810
-0.216526
0.017483
-0.158145
0.370898
-0.150958
0.017173
0.116973
-0.300876
-0.193656
0.225569
0.232284
0.042554
-0.246258
-0.291038
0.211718
-0.035013
-0.058142
-0.014193
0.065032
-0.232864
-0.070203
0.467062
-0.056839
0.414975
0.210028
-0.076945
-0.167130
0.568325
-0.069703
-0.308695
0.026700
-0.443803
-0.300101
-0.038087
0.546096
0.049844
0.357018
-0.066434
-0.109747
0.223660
0.443454
0.266580
-0.054973
-0.125084
-0.286568
0.258899
-0.141929
0.308937
-0.237386
-0.248022
0.016796
-0.141053
0.667066
-0.770612
-0.463725
0.241811
0.360455
-0.202473
-0.015113
-0.000520
0.063685
-0.104459
0.396381
-0.085034
-0.008235
0.287994
0.315068
0.165350
0.204620
0.159933
0.053144
-0.032150
0.061942
-0.184114
-0.102083
-0.541074
0.434315
-0.266064
0.399868
-0.266151
-0.057986
0.202183
0.013460
0.367780
-0.356561
0.065561
-0.707512
-0.089437
-0.108262
0.305470
0.099478
0.147153
0.138774
-0.327762
0.205413
0.431447
0.147929
0.152992
-0.037249
-0.344723
-0.053556
-0.092606
0.557186
-0.212250
-0.005365
-0.146680
-0.114878
0.008290
0.054659
0.272533
-0.544527
0.039205
-0.001360
0.473162
0.010892
0.250275
0.501602
0.063300
-0.443845
0.450105
-0.558186
-0.033111
0.090770
0.044946
0.357022
-0.048613
0.052751
0.146827
0.136246
0.115211
-0.473022
-0.285448
0.050637
-0.022033
-0.081803
-0.066154
-0.234472
-0.154741
-0.387137
0.158923
-0.000224
1.073572
0.339149
-0.327537
-0.124521
0.260798
-0.297150
0.032217
0.088925
0.067195
-0.990550
-0.190795
-0.560724
0.052642
0.126210
0.305943
0.353750
0.199409
0.266964
0.227238
0.042085
-0.044229
0.084716
0.008570
0.310943
0.130140
-0.082605
0.476156
0.234661
0.394572
-0.513133
0.347301
0.143224
-0.104435
-0.484132
0.443801
0.316823
0.115072
-0.216656
0.325613
-0.048534
0.678263
0.307650
-0.172008
-0.193403
-0.200636
-0.053226
0.111971
0.102339
-0.110357
0.173016
0.021300
0.163324
0.525590
0.036331
0.081289
-0.155104
-0.064275
0.027662
-0.075865
-0.047231
-0.180192
-0.005755
-0.859499
-0.328436
-0.067736
-0.021299
0.262083
0.263252
-0.377567
0.246961
0.176014
0.157200
0.258035
-0.186445
0.059394
-0.220374
0.159343
-0.285485
0.225410
0.602125
-0.355459
0.445144
0.011417
0.011466
0.038528
-0.280552
0.190915
0.077647
-0.387890
0.394066
0.134244
0.095975
-0.218821
-0.154635
-0.064002
0.888059
0.000374
-0.467688
0.168400
0.096598
0.265399
-0.256153
-0.103832
0.108701
0.041963
-0.005435
0.133065
0.091778
-0.226357
0.556386
-0.167239
0.448094
0.100808
0.085848
-0.150845
-0.126187
-0.070459
-0.049178
-0.059799
2.397141
-0.172074
-0.200055
0.550890
0.164929
-0.076236
0.141508
0.009626
0.046244
0.569914
-0.170742
0.112832
0.028560
0.019928
0.103613
0.134477
0.121598
0.078163
0.030032
0.048667
-1.160419
0.502830
0.038628
-0.062457
0.028294
0.115510
0.012680
0.019962
0.298394
-0.025110
0.100755
0.353896
0.229788
0.446941
-0.188756
0.073888
0.317264
-0.166856
0.679772
-0.196870
0.078025
0.298084
0.063777
-0.091822
-0.209835
0.225338
-0.205749
0.007895
0.151332
0.051469
-0.353656
-0.223155
-0.494796
0.217086
-0.598691
-0.131646
0.355444
0.517422
-0.047720
-0.236938
0.920163
0.193360
0.024388
-0.728110
-0.033222
0.097439
0.943209
-0.032145
-0.107513
0.049466
-0.055573
0.219118
0.021777
-0.177635
-0.144214
-0.077851
-0.057837
-0.078004
0.015457
-0.148083
-0.274824
0.579361
-0.059975
-0.225713
0.125663
0.101659
0.445325
0.211234
-0.164357
0.062977
-0.406429
-0.297337
-0.119158
-0.017616
-0.025812
-0.032054
-0.101336
-0.101502
-0.408498
-0.036908
-0.206935
0.033250
0.461907
-0.037288
0.381884
-0.172396
0.006570
-0.292235
0.256112
-0.403121
0.320075
0.279855
0.252956
-0.062402
-0.328173
0.020996
-0.036396
-0.291806
0.251043
0.195838
-0.148484
0.349000
0.315977
-0.372707
-0.341803
0.095332
-0.162901
0.084556
-0.062860
-0.317275
-0.397032
0.144251
0.124594
-0.232538
-0.094679
0.414542
0.107406
-0.263923
-0.112886
0.128286
0.284076
-0.140036
-0.560443
-0.155168
0.132412
-0.039430
0.089807
-0.416186
-0.086522
-0.063624
0.969779
-0.072106
-0.190994
0.282764
0.274249
-0.229742
-0.120469
-0.136221
0.120714
0.216506
0.131395
0.052836
0.192767
-0.251620
-0.156194
0.013749
-0.114082
0.332107
0.091521
-0.086168
-0.200582
-0.682822
-0.509004
0.138252
0.285700
0.313196
0.294246
0.016834
-0.203598
-0.265657
-0.185144
0.235919
-0.641591
-0.069859
0.494903
0.111509
0.540822
-0.134964
-0.024778
-0.300753
-0.240440
0.242906
-0.284622
0.427794
0.150410
0.088026
0.212522
0.031445
0.060674
-0.041112
0.141714
0.217287
0.181630
0.265827
0.011726
0.183431
0.238950
0.135276
0.217952
-0.220605
-0.201302
0.260545
0.009878
-0.333362
0.065748
0.369983
1.170350
-0.166602
-0.043880
0.365819
0.152425
0.051491
-0.449960
0.401343
-0.134522
0.356430
-0.175624
0.089892
0.075541
-0.012812
0.138089
-0.257939
0.359079
0.138362
0.205361
-0.012599
0.309121
0.070229
0.216928
-0.071095
-0.019967
0.153580
-0.039185
-0.076547
0.015765
-0.009932
0.511314
0.184194
-0.266682
0.036581
0.076418
-0.482916
0.541869
-0.354665
-0.015419
-0.070221
-0.148835
0.067246
-0.465336
0.018838
0.028395
-0.078938
-0.445630
-0.628014
0.011561
0.051145
0.199434
-0.137289
-0.089271
0.016672
0.076143
-0.851004
0.339141
-0.420050
0.118326
0.267938
-0.746141
0.750361
-0.131145
0.229510
0.140547
-0.287358
-0.126234
-0.253458
-0.201857
0.048298
0.149333
-0.014502
-0.068029
0.451867
-0.077186
0.471917
0.173577
-0.014118
0.142682
-0.046802
-0.109475
-0.116062
0.453957
-0.148034
-0.399110
-0.086616
-0.076437
-0.092731
0.494760
-0.461688
0.171496
0.255443
0.362060
0.246702
0.126211
0.136656
-0.168524
-0.177054
-0.018698
-0.359329
0.026482
0.125425
0.164247
-0.383485
-0.104573
-0.161117
0.091635
0.058285
-0.087213
0.048484
0.134625
-0.062210
-0.026588
-0.124428
-0.396962
0.007826
0.060019
-0.460614
-0.067012
0.146448
-0.751490
-0.322543
-0.476930
0.134065
0.082525
-0.119069
0.195947
-0.066466
-0.182006
-0.088265
-0.117935
0.022640
0.052691
-0.005491
0.337744
0.494945
-0.348467
0.743076
-0.083617
0.049300
-0.012709
-0.059506
0.485746
0.022007
0.363512
-0.277057
0.054666
-0.202706
0.032742
-0.515791
-0.176651
0.366347
0.363501
-0.399103
-0.108588
-0.194078
0.017726
-0.401178
0.352553
0.076621
-0.132493
0.133258
-0.113862
-0.333003
0.061500
-0.566614
-0.043247
0.386722
-0.015587
-0.391536
-0.206565
-0.361539
-0.004587
0.218868
-0.086479
-0.062086
-0.106448
-0.586196
-0.532973
-0.179590
-0.426390
-0.918268
-0.051052
-0.112617
-0.275461
0.202810
0.361376
0.066072
0.050001
0.127228
-0.149495
0.409665
-0.252933
-0.125778
0.215472
0.199414
-0.164365
-0.153032
0.105308
0.272517
-0.336274
-0.444244
0.203325
-0.108793
-0.366220
-0.235984
0.195222
-0.482229
0.103065
-0.021376
0.646868
0.330812
0.090139
0.438920
0.155585
-0.090474
-0.295178
0.256104
-0.158560
0.100528
0.177051
-0.100651
-0.133346
0.094265
0.253352
0.354231
-0.481385
0.583166
-0.054897
-0.082916
-0.431274
0.119648
2.007434
-0.198053
-0.107053
0.086901
0.069738
-0.313687
-0.066164
-0.327988
-0.831281
-0.077314
0.304118
-0.006558
-0.167166
0.263438
0.066070
-0.136414
-0.010035
-0.376127
0.046897
0.170984
-0.079074
0.134016
0.137088
-0.083638
0.211108
-0.042371
-0.439709
-0.129882
0.051475
-0.189105
-0.024102
-0.043870
0.991663
-0.624231
0.365823
-0.005172
-0.245749
-0.156472
-0.034829
0.129903
-0.322876
-0.131136
0.142264
0.402357
0.043314
-0.067553
0.144593
-0.019207
0.152849
0.199693
0.132004
0.125363
0.085506
-0.174072
-0.448597
0.089241
-0.134765
-0.151970
-0.234552
-0.095805
0.029549
-0.242594
-0.090673
0.048708
-0.717589
-0.226013
0.407253
0.106647
0.053347
0.164900
-0.270386
-0.152633
0.087392
-0.198448
0.039492
0.228245
0.050874
-0.070515
-0.316258
-0.038892
0.120697
-0.115330
0.257235
-0.202879
0.163352
0.320746
0.162684
0.046059
0.051624
0.534417
-0.224161
-0.038107
0.066907
-0.096317
-0.389221
-0.218033
0.151891
-0.389794
0.388794
-0.016602
-0.104640
-0.108031
0.008845
-0.126411
0.889817
0.148497
-0.107266
-0.183423
-0.072739
-0.112728
-0.009016
0.011582
-0.086851
-0.007342
-0.031542
0.036850
-0.064332
0.126407
-0.051089
0.044842
-0.209876
0.054589
0.038243
0.258727
0.204873
-0.120512
-0.077789
-0.411215
1.093478
0.180392
0.164368
0.629696
0.268416
-0.041081
-0.172810
0.049939
-0.337540
-0.115887
0.109212
0.062615
-0.091065
-0.038738
0.422514
-0.381649
-0.359807
0.399567
0.150610
-0.024589
0.007711
0.121409
0.474668
-0.027437
0.158796
-0.335515
-0.257399
-0.456149
0.258568
-0.601594
0.051164
-0.162731
-0.394103
0.241959
-0.452268
0.089067
-0.147695
-0.738354
-0.093994
-0.152083
-0.235055
0.192255
-0.094690
0.151670
0.125222
-0.089303
-0.212935
-0.065815
0.615211
0.077421
0.613282
0.478805
-0.166909
0.151745
-0.048329
-0.966236
0.272260
-0.142638
-0.359360
-0.772374
0.571817
0.148235
0.083972
0.310939
-0.394004
-0.038936
0.372084
0.586645
-0.080485
0.087824
0.025565
-0.234478
-0.088976
-0.245811
-0.044614
0.191227
0.001964
-0.152797
-0.057127
0.282104
-0.018696
0.083605
0.322815
0.226323
-0.631723
-0.073277
-0.252055
0.240658
0.066533
-0.113693
0.567037
-0.321592
-0.075337
0.213511
0.008499
-0.459592
-0.068801
-0.466295
-0.306089
-0.045851
0.328523
-0.099203
0.197207
-0.124237
-0.678167
0.342674
-0.139504
-0.030556
0.012317
-0.077081
0.051064
-0.159154
-0.289201
0.028055
-0.710091
-0.029059
-0.071027
-0.183631
0.264616
0.140598
0.532385
0.076473
-0.032085
0.626572
-0.114143
0.272729
-0.170622
0.233553
0.029288
-0.194926
-0.204457
-0.013237
0.096679
-0.007108
-0.141756
0.346094
0.583816
-0.383254
-0.188963
-0.054117
0.300813
0.073192
0.042823
0.319726
0.229921
0.547099
0.004890
0.309612
-0.291798
-0.137468
0.262276
-0.479799
-0.434481
0.069602
0.012501
-0.031910
0.156155
-0.324140
-0.191593
-0.955816
-0.371491
0.106718
-0.353713
-0.037436
-0.045882
-0.255946
-0.128910
-0.157275
0.014982
0.152975
0.338674
-0.091939
0.002056
0.122534
-0.049315
0.274161
-0.058883
-0.041207
-0.216681
-0.064761
-0.312666
-0.187839
-0.546341
-0.521188
0.502419
0.055384
0.226814
0.489287
0.015454
0.118586
-0.009675
0.228570
0.053285
0.123358
-0.462725
0.133870
0.333526
0.372517
-0.154639
-0.355559
0.019772
0.530103
0.256735
-0.456299
0.496333
0.089391
-0.376580
0.249498
0.344777
-0.090288
0.047506
0.025911
0.200437
0.061640
-0.089667
0.149505
0.038603
0.073179
0.032039
-0.431011
0.160295
-0.351032
-0.224151
-0.003235
-0.315829
-0.180658
0.159497
-0.419060
-0.085039
0.254049
0.302432
0.202367
0.138008
0.121469
0.320017
0.198008
-0.075097
0.302264
0.261534
0.216685
-0.098053
0.282067
0.389604
-0.155128
0.141393
0.407612
-0.047254
-0.347704
-0.074983
-0.283065
0.017587
-0.123065
-0.322220
-0.322487
-0.661155
-0.532627
0.421349
0.134218
0.239797
-0.337763
-0.253171
-0.039503
-0.136001
-0.152975
0.636837
0.016365
0.468697
0.142509
0.169005
-0.016558
-0.537617
0.107210
-0.089366
-0.308507
0.114671
0.563876
-0.057862
-0.509798
0.071452
0.213699
0.289200
0.204457
0.108960
-0.089309
0.030831
-0.137830
-0.637924
-0.227018
-0.088607
0.159524
-0.022368
0.037623
-0.194954
-0.075802
-0.658158
0.046637
-0.180270
-0.084252
0.191036
0.133578
-0.300569
-0.248210
0.335557
-0.144765
0.011683
-0.245388
0.340956
0.118495
0.178833
0.105522
0.130680
0.117711
0.052500
-0.093017
-0.175564
-0.071553
-0.262792
0.624999
0.029386
-0.165927
0.036113
0.069983
-0.371932
0.115718
-0.317372
0.256793
0.034853
-0.315977
0.191506
0.425338
-0.321497
0.154604
0.358881
-0.172902
0.162708
0.525388
-0.187901
-0.061338
0.082178
-0.219508
0.155394
-0.123634
-0.033711
0.029285
-0.259631
0.562430
0.449251
0.193858
0.096428
-0.060428
-0.177991
-0.258471
0.184457
0.019377
0.072938
-0.201866
0.088082
-0.066943
-0.226603
0.249424
-0.402763
-0.041832
0.272248
0.452238
0.819784
-0.547915
-0.219866
-0.337038
0.160366
-0.022765
0.119686
-0.153635
-0.052429
-0.018330
-0.260952
-0.161306
0.408718
0.000243
0.057228
0.004476
0.134049
0.093471
-0.224607
-0.145021
0.026984
0.171108
-0.546884
0.572470
0.218808
0.651174
-0.102390
0.143103
-0.046440
-0.083398
0.788463
0.074387
0.391246
0.093958
-0.393515
0.052829
0.381563
-0.349361
-0.139884
-0.057742
0.042537
-0.085535
-0.114801
0.067613
0.161147
0.060611
0.071886
0.430288
0.048977
0.397983
0.329155
0.241687
0.396015
0.355579
-0.375282
0.379615
0.058552
-0.079300
-0.246210
-0.273421
0.142705
0.380974
-0.375373
0.372803
0.005456
-0.127113
0.161342
0.145236
0.391148
-0.201784
-0.011890
-0.098511
0.024528
0.097943
-0.197844
-0.121488
-0.017300
-0.220739
-0.189627
-0.088192
0.781876
-0.426367
0.096768
-0.086566
0.026558
0.564887
-0.055727
-0.096647
-0.139198
-0.178198
0.833556
0.580216
0.009129
-0.207850
0.164137
-0.025397
0.019985
0.049013
0.093702
0.040357
0.474509
0.378007
0.108771
0.060214
-0.084365
-0.269492
0.320229
0.052280
-0.340960
-0.162874
-0.077278
-0.016568
-0.532615
-0.056295
0.350196
-0.066383
-0.101042
0.269689
-0.365633
0.324757
0.046304
-0.200375
0.214138
-0.478716
-0.071022
-0.006165
-0.009182
-0.115087
-0.143857
0.190784
0.092759
-0.040114
0.173269
0.047995
0.161683
-0.065790
0.409856
0.086348
-0.016868
-0.153465
0.638656
-0.368395
0.169420
-0.238479
-0.123112
0.318215
0.401798
-0.002844
0.029978
0.294523
-0.176848
-0.288318
-0.115839
-0.067113
0.124049
0.158881
0.180564
-0.182256
0.047190
-0.074806
0.928153
0.353283
-0.534500
-0.619508
-0.112743
0.046633
-0.141935
0.058845
-0.100175
0.152238
0.432732
0.000878
0.168773
-0.024933
-0.167228
-0.310270
-0.208206
-0.254344
-0.019990
-0.017636
-0.098600
0.238455
0.218536
0.513149
-0.200798
0.006876
0.167588
-0.219913
-0.129730
-0.026173
0.465160
-0.469019
-0.290870
0.122749
-0.055629
-0.502334
-0.346206
0.380230
-0.641185
-0.162800
0.566650
0.025771
0.302042
0.554541
0.062047
-0.569956
0.108974
-0.168809
0.973562
-0.289257
-0.306247
0.401481
0.131234
-0.078275
-0.004755
-0.096251
-0.069984
0.045000
0.145930
0.005481
0.083009
-0.209014
0.200495
-0.375348
-0.235501
-0.463970
-0.411291
-0.496512
-0.010494
-0.102843
-0.145905
-0.497744
-0.590617
-0.114033
0.498070
-0.169182
-0.153467
-0.323671
0.225847
0.299273
-0.017506
0.202537
-0.049926
-0.069738
-0.151594
-0.073675
-0.036759
0.177012
0.038019
-0.022700
0.100777
0.062624
0.087813
0.281572
-0.365296
0.264327
0.156658
0.125735
0.106279
-0.222740
0.334350
-0.585653
0.135034
0.090886
-0.528588
0.374968
0.284018
-0.049264
0.204827
0.270511
-0.442939
0.131229
0.033911
0.070356
-0.073671
-0.053996
-0.148457
0.057174
0.079762
0.535947
-0.067646
0.121396
0.235561
-0.002680
-0.062700
-0.119225
0.096566
0.153160
